Node 0: 
[ 0.14146182  0.16595032  0.17909364 -0.02482004 -0.19858872  0.05603112
  0.26986407  0.20135062 -0.25809474  0.04389197 -0.18238102  0.10590182
  0.07239832 -0.13465798 -0.13900549  0.14185103 -0.10797912 -0.15012908
 -0.07400196  0.25991038 -0.1448199  -0.16968477  0.15214739  0.25663565
  0.01832621 -0.12229307  0.16209458 -0.13880478 -0.07700192  0.08091014
 -0.12767578  0.01301039  0.14932507 -0.08314469  0.01555309  0.23775457
 -0.04974886 -0.18557512 -0.13926695 -0.14777642 -0.03481787  0.15178916
  0.07767501  0.20201478  0.22252888  0.17185199  0.3401708  -0.08154825
 -0.14605646 -0.20126463 -0.09036523 -0.17824702  0.00840196 -0.18687463
 -0.17491359  0.26074509 -0.17976024  0.18595924 -0.04138595  0.14379773
  0.27132204  0.13590988  0.0926678  -0.00824421  0.18301601  0.03537838
 -0.13060353  0.19898387  0.23436734 -0.25232181 -0.05094574  0.22314929
  0.05665452  0.1534027  -0.13197718 -0.16587819  0.19650068 -0.08872227
 -0.20717143  0.06861353 -0.20085883  0.2270188  -0.20371328 -0.10716299
  0.15840178 -0.08525804  0.23480422 -0.03956032  0.25704274  0.17305247
 -0.07528493 -0.05124124 -0.07468995  0.06000671 -0.12375719  0.10866247
  0.11540635 -0.18251944  0.10353531  0.19167624  0.05617695  0.20926332
 -0.11674123  0.07792422 -0.06334105  0.19623991  0.34457771 -0.1931389
 -0.25701046 -0.21756661  0.20834658  0.04308475  0.06220743  0.05782294
  0.155446    0.20969607 -0.140537    0.03630533 -0.01453104  0.16825314
 -0.02144038  0.0248394  -0.14496597  0.08543395  0.2578403  -0.19582361
 -0.24996987 -0.12317387 -0.22392725  0.01904104  0.19961639 -0.21401653
 -0.09683953  0.0154165  -0.19997303  0.07907168  0.29026639  0.02849081
 -0.09181951 -0.16191426  0.00999947  0.15148863 -0.00790906 -0.13912901
  0.08298229  0.01325561  0.23857062  0.07462731  0.13458164  0.11382374
 -0.23272644  0.11484879  0.03148933 -0.04035096  0.21471138  0.18883755
 -0.16576857 -0.14891184 -0.06121516  0.11187299 -0.25895125  0.19321132
 -0.18859697 -0.00324203 -0.09324415  0.18772682 -0.03424273  0.26139312
 -0.124075   -0.03610064 -0.27869086  0.28836436  0.20152367 -0.15306421
 -0.12337571  0.19368904 -0.07421736 -0.11493497 -0.13898635 -0.18469988
  0.20581013  0.11105423 -0.16760704 -0.1604597  -0.01928987 -0.23713642
 -0.14106177  0.03167156 -0.2855586   0.24915119 -0.03278011  0.21597397
  0.07697537 -0.15811454 -0.15666957  0.13668911  0.09002063  0.19897119
  0.26665201  0.07351231 -0.10180544 -0.14903579 -0.16537189  0.2432462
 -0.09256482 -0.29069153 -0.15566494 -0.06260705 -0.16337642 -0.04760982
  0.20554297 -0.1452149  -0.04184217 -0.19265832 -0.14532831 -0.18560478
  0.06636035  0.0643579  -0.08512419 -0.19452245  0.19719248  0.19050261
 -0.08679749 -0.19256295 -0.07953053  0.16780174 -0.17050226 -0.05049048
  0.01516066 -0.09849608 -0.01637646 -0.17328535 -0.0192156   0.17386567
  0.19134843  0.19721383  0.01839478 -0.11385483  0.11768386  0.18222448
  0.16479261  0.03469324  0.10972425  0.14709504  0.11593828  0.17924759
  0.1733093  -0.12956749  0.13190195  0.03683129 -0.23502523 -0.04877612
  0.07131356 -0.19460038  0.06049852  0.12189562  0.23486361 -0.17716017
  0.02378862  0.1162725   0.07852982 -0.13900619 -0.11249904  0.23128554
 -0.18094678  0.29370929  0.1600131   0.23253713 -0.17185352  0.09716348
  0.09255417  0.27458627  0.13990991 -0.16270611  0.2185748   0.11512814
  0.13581509 -0.15531441  0.01300017  0.08188902 -0.14719175 -0.08925939
  0.25622056 -0.29475687 -0.17481079  0.31649782 -0.2029795  -0.12203201
  0.13181612  0.10660802 -0.27796497 -0.17212891  0.0969112   0.13600734
 -0.05179385 -0.16976939 -0.19468613  0.28115669 -0.15488854 -0.11851391]
Node 1: 
[ 1.54661047e-01 -5.19849122e-02 -1.95305226e-01 -3.23239033e-02
  5.83672455e-02  8.18506498e-02 -8.26669382e-02 -2.38503389e-01
  1.02934040e-01  5.46182852e-03  1.24682565e-01 -2.44964449e-01
 -2.03036615e-02  1.29731357e-01  8.93312467e-02 -1.34568510e-01
 -1.65067575e-02  1.27703082e-01  1.69571051e-01 -1.28187879e-01
  3.73023493e-02  1.23688507e-03 -2.24167052e-02 -2.52285915e-01
  4.80275847e-02 -3.31927248e-02 -1.39693024e-01 -1.20822965e-01
  1.68136515e-01 -8.81816480e-02  1.63923683e-01  6.14671496e-02
 -1.28072147e-01  3.99006785e-02 -8.32303807e-02  4.36994847e-02
 -5.99038149e-02  2.27625358e-01  1.46232249e-01  7.82725881e-02
  1.68350041e-01 -1.29915329e-03  4.12637693e-02 -1.13197212e-01
 -2.39966726e-01  3.38209031e-02 -1.88435769e-01  8.55092702e-02
  2.03101052e-02  2.95100090e-02  1.97754937e-01  1.22837700e-01
 -1.29639791e-02  1.05505454e-01 -1.07664522e-02 -1.78148103e-01
  4.74797638e-02 -1.33987516e-01  1.74653025e-01 -6.12273337e-02
 -1.18579126e-01  2.27999397e-06 -4.07324188e-02  1.44265922e-02
 -8.21699021e-02 -1.36408103e-01  6.34750446e-02 -8.21906248e-02
 -1.11586451e-01  2.29481154e-01  1.44448024e-01 -1.86859327e-01
  4.27819480e-02 -9.37057475e-02 -6.62042004e-02 -1.33219623e-02
 -1.65139960e-01  1.46735216e-01  1.65302669e-01 -9.27294345e-02
  1.76391483e-01 -1.15338007e-01  9.77469032e-02  8.74902921e-02
 -1.89108110e-01 -3.50425002e-03 -1.37887257e-01  1.14777488e-01
 -2.16208269e-01 -1.09524921e-01 -2.31160508e-02  5.40982333e-02
  1.76909922e-02  6.08252869e-04  5.40374449e-02 -1.29143176e-01
 -1.05211967e-01  8.77378231e-02  7.91787756e-02 -1.20715955e-01
 -1.39068603e-02 -1.86341270e-01  2.15293587e-02 -6.67744788e-02
 -1.69770474e-01  4.29600558e-02  5.94030311e-03  2.09314340e-01
  1.24865289e-01  1.38802657e-01 -3.09967589e-02 -1.64448081e-01
 -1.06358041e-01  5.51120572e-02 -1.01572169e-01 -9.26723872e-02
  9.78332977e-03  8.47406827e-02 -5.27364940e-02 -9.57370062e-02
 -1.14335893e-01 -6.76714482e-02  1.75492159e-01  4.84482507e-04
 -5.66576845e-02  1.13583807e-01  2.00254001e-01  1.45388972e-01
  1.76617599e-01 -2.25339918e-02 -2.20119537e-01  2.00415939e-01
  9.12696352e-02  7.79888882e-02  1.00254595e-01 -3.75258460e-03
  6.90785937e-02 -1.42978809e-01  8.17223966e-02 -2.67683698e-02
 -1.31889031e-01 -2.27363068e-01 -1.45945859e-01  1.93128659e-01
 -2.49295784e-01 -9.19800774e-02 -7.29625484e-02 -2.43903562e-01
 -1.09314917e-01 -1.45150836e-01  4.90814645e-02 -5.46964340e-02
  5.13525108e-02  4.49421053e-02 -1.84285026e-01 -1.46740825e-01
  1.33288251e-01  2.57799394e-02  1.16589532e-01 -1.97848156e-01
  1.55722463e-01 -2.75262305e-01  5.74091213e-02  8.59090299e-02
 -1.32533285e-02 -1.23786202e-02  3.47968905e-02 -1.75949698e-01
  1.07588710e-01 -8.59225543e-02 -3.42090388e-02 -2.04160316e-01
 -9.68157831e-02  6.85144053e-02  6.42561804e-02 -2.14962741e-01
  8.16285197e-02  1.58347352e-01  1.95438916e-01  1.06087740e-01
 -1.32813454e-01 -1.33605449e-01  6.06114420e-02  1.63486436e-01
 -1.26402289e-01  2.24750733e-01  1.29645053e-01  5.94160664e-03
  1.56058052e-01 -7.00901990e-02  1.14609614e-02 -1.41884812e-01
  2.02233918e-02  5.99919997e-02  9.41676312e-02 -9.20557475e-02
 -7.30635626e-02 -1.73398607e-01 -1.46466720e-01 -2.86478188e-02
 -7.54930629e-03 -8.99010446e-03  2.26308627e-02 -2.33581742e-01
  1.72819375e-01  3.76445740e-02  1.99963963e-01  6.20166237e-04
  5.21802197e-02  9.74896230e-02 -1.34971714e-01  6.63124259e-02
  5.71007688e-02  1.12457657e-01  8.81389402e-02  1.95024674e-01
  1.42088462e-01 -2.85288278e-02  1.97089586e-01 -1.14159362e-02
 -1.33137938e-01 -1.42104934e-01  3.30153717e-02  1.16439830e-01
 -1.13392774e-01 -1.38483735e-01  1.60944617e-01  1.48220697e-01
  9.53390556e-03  1.01726633e-02  1.19315156e-01  3.22808407e-03
 -1.10009052e-01 -4.90983190e-02 -2.09807626e-02 -6.39704277e-02
  8.24578406e-03 -6.55168102e-02 -1.43797064e-02 -2.11831379e-01
 -1.25203657e-01 -1.46019474e-01 -4.99770750e-02 -1.54415021e-01
 -5.13194759e-02 -6.98187481e-02 -1.45313957e-01  1.74901410e-01
 -5.66222705e-02  1.37061210e-01  1.61519185e-01  5.59834910e-02
 -1.14637469e-01  1.48376694e-01 -8.20510962e-02 -1.27836602e-01
 -2.19271078e-01  1.81624254e-01 -6.49300540e-02  6.12745965e-03
 -1.17366980e-01  1.41028830e-01 -2.68007691e-02 -8.87779936e-02
  3.12160366e-03  6.66713965e-02 -8.55895536e-02 -2.14454591e-01
  1.06605429e-01 -1.16862492e-01  2.86048002e-02 -1.70913969e-01
 -1.19406534e-01  1.13469554e-01 -1.00556645e-01 -3.51224723e-02
 -2.09112056e-01  4.20662878e-03 -1.82627594e-02 -1.45834608e-01
  2.34668593e-02 -6.66424041e-03 -5.29298780e-02  1.96954851e-01
  6.43237239e-02 -2.09295742e-01  4.85806075e-02 -6.99908927e-02
 -1.10827811e-01 -2.36048422e-01  1.45484832e-01 -9.52583514e-02
 -1.22335025e-01  5.03736238e-03  8.39961845e-02  2.41178131e-03
  9.96822205e-02 -4.78442292e-02  1.77259754e-01  6.36727212e-02]
Node 2: 
[ 0.2225014  -0.02656411 -0.12632204 -0.05755033  0.12641358  0.0352569
  0.15069395 -0.19726958  0.09598389  0.09019324  0.22918178 -0.14782244
 -0.04068013  0.16250156  0.05530989 -0.10912514  0.13440449  0.11985631
  0.18474293 -0.09145476  0.19466619 -0.10900554 -0.13298632 -0.05428514
  0.10155787 -0.13100769  0.18802197 -0.15472878  0.15994767 -0.10994281
  0.26288006  0.05275401  0.12284487 -0.11496305 -0.14610771  0.15780402
 -0.08690557  0.16711282  0.02201734 -0.12616176  0.16416826 -0.01961575
  0.02196643 -0.16823497 -0.16125447  0.18446736 -0.00901432  0.13766943
 -0.06870998 -0.10890641  0.14809671  0.05827592  0.03743046  0.16825712
  0.09263187 -0.09189301 -0.11122141 -0.07749858  0.15542114  0.06792833
  0.08708703  0.0130256  -0.02654778 -0.05798529  0.00611164 -0.13490597
  0.05016054  0.06081478 -0.02848415  0.21500948  0.22377132 -0.0614849
  0.14320788  0.01800072  0.00625258 -0.15994064 -0.17492493  0.22515217
  0.18495759 -0.12909612  0.16468693 -0.10317933 -0.1971209   0.06739607
 -0.05583174 -0.09216525 -0.10600115  0.19851071 -0.18006296  0.00888551
 -0.08990558  0.10597989  0.02612018  0.1760697  -0.00750571 -0.2071302
 -0.11668868  0.10187645  0.14034273 -0.17196983 -0.12970666 -0.1316614
  0.04845744  0.0546519  -0.19268822  0.0642257   0.08309254  0.04077649
  0.05967297  0.07926544 -0.04204348 -0.17001993 -0.13434079  0.1178231
  0.18764139 -0.01306675  0.09572402  0.12309532  0.01386661  0.11745422
 -0.10626599  0.01656811 -0.02646672  0.05645133 -0.05849487  0.10388373
  0.14594907  0.14378098  0.1164912  -0.06245625 -0.18345388  0.11192349
  0.19046495  0.03772642  0.02612962  0.11087451  0.13591915 -0.01656446
  0.17469268 -0.10069152 -0.12831832 -0.24146026 -0.17949085  0.10522649
 -0.15197575 -0.05741917 -0.04107957 -0.05744894 -0.20236748  0.026004
 -0.15408532  0.09097719  0.13820102  0.03695161 -0.20032545  0.04736338
  0.14298014 -0.02776437  0.05737866 -0.09273882  0.12250955 -0.03049656
 -0.15104059 -0.06002    -0.03023929  0.17312936  0.08339581 -0.00827828
  0.09900362 -0.02149891 -0.07137658 -0.0371024   0.19892139 -0.11574055
  0.14202737 -0.05311559 -0.01369867  0.14374904  0.17687043  0.19253961
  0.03348654 -0.04559228  0.07711818  0.08702166 -0.18600894  0.08472108
  0.08495574 -0.12794274 -0.11349176  0.03190436  0.10344334 -0.06319868
  0.09041341  0.0403243   0.04704773 -0.18734363 -0.08814663 -0.14150151
 -0.13753102  0.04079311  0.07202435 -0.17344416 -0.04881284 -0.13986155
  0.18204212 -0.04738158  0.12338133  0.02497037  0.01790879  0.07988259
 -0.01328852  0.00981637  0.12837234  0.20647465 -0.00945009  0.19690262
  0.18547473  0.04989717  0.20978054 -0.10596073 -0.04898045 -0.11302335
 -0.14208564 -0.10841839 -0.16629795 -0.13605068 -0.02977562  0.14807286
 -0.00827667 -0.12226638  0.11438889 -0.15851132 -0.19000319  0.161766
  0.11506086  0.09233299  0.03912877 -0.18841754 -0.03412568 -0.19029122
 -0.05552179 -0.18999115 -0.13524894 -0.16355598 -0.07374662 -0.12244533
 -0.18237121  0.13653262  0.18263982  0.18292158  0.19643753  0.01114188
 -0.10147201 -0.01169229  0.04625413 -0.18544076 -0.21102982  0.1254561
  0.06116827  0.10301287 -0.23455091  0.17205804  0.03604356 -0.04055865
  0.11908313  0.11855828 -0.05895519 -0.187701    0.02677289 -0.11404999
  0.09410986 -0.11862545 -0.03284519  0.07034318 -0.16468821 -0.10367296
 -0.09364643 -0.18313241 -0.02054914 -0.08305668  0.10184954 -0.06864919
  0.16471319  0.0997369  -0.10960895 -0.17624982 -0.14366797 -0.13227572
 -0.11576926 -0.13971733  0.11912354 -0.22355312 -0.08797267  0.15754496
  0.1547094  -0.14550737  0.06468136  0.13036822  0.0643826   0.0819297 ]
Node 3: 
[ 0.25349022 -0.147492   -0.14765844  0.10251216  0.13602302 -0.13356875
  0.15770251 -0.21978538  0.08099157  0.24111477  0.24570336 -0.28317682
 -0.14054316  0.21614125  0.10930992  0.00566192  0.1302021   0.29903685
  0.19897224 -0.20039319  0.30679947  0.03432231 -0.11441021 -0.09872513
  0.27868107 -0.04031907  0.35010595 -0.30276035  0.34988499 -0.25797637
  0.19893619  0.15449895  0.2097357  -0.18859364 -0.1299775   0.07000823
 -0.01099832  0.25764305  0.02280377 -0.13531904  0.25900468 -0.10447958
  0.20220402 -0.14810495 -0.20410099  0.26788505  0.23215542 -0.05194376
 -0.21073037 -0.16720449  0.21201012  0.11524045  0.30548108  0.28778802
  0.17414837 -0.15755372 -0.23755997 -0.18329269  0.03941358 -0.11313089
  0.21326583 -0.18790695 -0.17222303 -0.19745537  0.18455675 -0.20137291
  0.07429869  0.23665466 -0.10263895  0.31343099  0.2275256  -0.13931299
  0.16940201  0.0853836   0.05709104 -0.24841555 -0.26100677  0.26498481
  0.27046056 -0.27557225  0.14840353 -0.18214116 -0.27346442 -0.01430172
 -0.14747172  0.1642298  -0.22386812  0.31209579 -0.24211383 -0.0558884
 -0.17152147 -0.07117546  0.17976797  0.15484592  0.11320759 -0.28200055
 -0.11409242  0.15918214  0.27552518 -0.27811734 -0.23214387 -0.21081713
  0.15997128  0.14835935 -0.27872075  0.24742012  0.29371067  0.22227417
  0.18081049  0.1070094  -0.21375857 -0.06240836  0.00653441  0.18722777
  0.30424213  0.17830527  0.18258417  0.21098169  0.06976983  0.20134801
 -0.05943404 -0.06244774 -0.08475121  0.07325013 -0.19643812  0.23888754
  0.13136385  0.20189101  0.28769766 -0.12362038 -0.16702784  0.15299464
  0.10347651 -0.15497309  0.14747589  0.19851536  0.37079517  0.20481653
  0.29775854 -0.24872325 -0.2920451  -0.24716075 -0.12957089  0.26993317
 -0.23081785 -0.11399268 -0.07644985 -0.01723959 -0.1670883   0.20442972
 -0.26167604  0.23383854  0.18549944  0.12618007 -0.20623261 -0.06583207
  0.29110435  0.05713883  0.06358206 -0.15411503  0.11055559 -0.07032119
 -0.25936056 -0.17822387 -0.16210083  0.25250318  0.18176964 -0.09108673
  0.22643167 -0.22862918 -0.27492856 -0.07477268  0.22675854 -0.17847623
  0.18690873 -0.00444281  0.13792452  0.24773969  0.230538    0.14750138
 -0.05443492 -0.16896655  0.16785664  0.29613549 -0.23415104  0.0817312
  0.10586031 -0.22836048 -0.30469117  0.17516779  0.16856457 -0.2238422
  0.24210087  0.22447155 -0.14401444 -0.26280215 -0.0252844  -0.17796178
 -0.12424208  0.08637158  0.13929746 -0.18353609 -0.01459799 -0.21448654
  0.24243089 -0.21108542  0.16875596 -0.07128009  0.07395541 -0.08852404
  0.31694154  0.15853171  0.2606527   0.28740469  0.10894784  0.15730425
  0.16570652  0.12142726  0.20661565  0.11442636  0.09450481 -0.20661309
 -0.17682453 -0.3065892  -0.31859128 -0.22325573  0.01907509  0.22375576
  0.20249818 -0.25440318  0.26775915 -0.09006886 -0.04493124  0.21710377
  0.18721309  0.21658855 -0.04023776 -0.2119424   0.22039836 -0.202543
 -0.00866737 -0.18256993  0.04666095 -0.23361473 -0.03594449 -0.19502059
 -0.18162742  0.09898919  0.29387967  0.24689566  0.16905426  0.16320147
 -0.25847901 -0.11216201  0.24363756 -0.15309512 -0.23879228  0.14321037
  0.06556692  0.20508401 -0.18060513  0.31019897  0.15005648 -0.16677871
  0.1727566   0.31863353 -0.1166933  -0.2773867  -0.15085965 -0.25090335
  0.18410336 -0.15578998 -0.12369881  0.00830679  0.03060999 -0.22666698
 -0.14632963 -0.1199238   0.08346216  0.00352693  0.14256286 -0.20944966
  0.26740907  0.06441884 -0.27712342 -0.27865375 -0.29062729 -0.18892199
 -0.15467583 -0.19576896  0.15587247 -0.34579194 -0.02993744  0.00066173
  0.33347821 -0.29270129  0.10122081  0.30425504  0.15955067  0.1183504 ]
Node 4: 
[-2.95894094e-02  4.38671443e-03  8.74790799e-03 -1.55671959e-02
 -1.82572566e-03  1.02520276e-02 -1.05840697e-01  7.16424032e-02
  3.12836382e-02 -2.51592220e-02  5.95643677e-03  6.74803182e-04
  4.47601585e-03 -1.30404371e-01 -4.67878407e-03 -1.00179950e-01
 -4.52069878e-02 -4.51576891e-03 -1.71917256e-01 -3.45728284e-02
 -5.42480549e-02 -1.48190374e-02  3.67006526e-03 -6.45172081e-02
 -7.38117575e-02  1.61773466e-02 -8.96153566e-02  1.44549955e-01
 -1.72156170e-01  7.21814618e-02  5.22878631e-03  1.58854802e-02
 -5.49801561e-02  4.04415506e-03  1.29512230e-02 -1.51226003e-02
  8.12368151e-03  7.01883057e-03  3.34343177e-02  7.58043689e-02
 -9.06498225e-03 -1.24783914e-02 -8.19941228e-03 -2.80927564e-02
 -1.36778374e-04 -1.52416193e-01 -9.99330090e-02  5.10899475e-02
  5.42084795e-02  5.53544079e-02 -2.49053664e-02 -3.41761401e-03
 -8.61529492e-02  2.61510603e-02  1.35690836e-02 -6.07483968e-02
  7.52993884e-02  3.69564127e-03 -8.66529964e-03  9.56044034e-03
 -8.02362252e-02  6.31435594e-03 -1.94006217e-02  2.48614875e-02
 -7.32743416e-02  3.37517763e-05  1.60729552e-02 -7.14599816e-02
 -3.07890403e-02  1.27987025e-02 -1.68971538e-01 -3.69639551e-02
 -1.21825255e-01 -5.70377584e-02 -2.58581357e-02 -8.25700602e-03
 -4.25720458e-02  6.26716973e-03 -6.49047961e-02  1.46225574e-01
  4.71583302e-02  4.32449622e-03  1.12084693e-01  3.29150732e-02
 -1.50117185e-02 -4.76257448e-03 -1.94470710e-02 -1.06076381e-02
 -1.14245328e-02 -1.51204662e-02  4.64494743e-02  3.83129441e-02
 -2.58673225e-02 -6.32181145e-03  2.54230736e-02  4.33888550e-02
  4.72226204e-03 -1.88331823e-01 -1.46299964e-02  8.23996656e-02
 -4.21347833e-03  1.05547859e-01 -8.99592628e-02  6.09950117e-03
  1.83645496e-02 -7.85295347e-02 -1.20755865e-01 -4.27502379e-03
 -3.58588337e-03  6.70888842e-02  3.87785008e-03  1.00963369e-02
 -5.35880113e-03  7.86991254e-03 -5.35985255e-02 -2.72077227e-02
  2.72874564e-02 -9.59237866e-02  2.67603950e-02  5.83351818e-03
 -1.45566043e-03 -2.10703995e-02  1.78373850e-02  6.14799407e-03
  4.76601993e-03 -2.56854760e-03  6.00984016e-02  2.63157579e-02
 -4.91320271e-03  3.66189451e-02  3.38239606e-02  8.04037768e-02
 -6.77977962e-03  4.17133049e-03  4.64241105e-02 -9.49334169e-02
 -1.67485854e-01  6.12559707e-03 -5.72190249e-02  3.68761062e-02
  4.67229175e-02 -1.13701216e-02  9.39035034e-03 -1.18595570e-01
  5.28966782e-03  7.74584308e-03 -9.42526778e-03  1.09869637e-02
  2.49134560e-02 -3.97642988e-02  9.74216104e-02 -4.31271430e-03
 -6.72555582e-03 -2.15358313e-02 -3.51938007e-02 -5.82471162e-02
  1.20929036e-02  1.54455170e-03  3.82431275e-03  8.51907667e-02
  3.91325091e-02 -3.78740721e-02  6.85331507e-02  1.99160158e-02
  2.74001117e-02 -1.34310374e-01 -2.01905312e-02 -9.96971562e-03
  6.56216425e-02  1.25953804e-02  1.08046828e-01 -5.22495865e-02
 -1.26877116e-01  3.57234860e-02 -1.26502067e-01 -3.20687218e-02
 -4.17132411e-03  8.86124094e-03 -1.29151454e-01  5.03512837e-02
 -1.29412271e-02 -2.13400910e-02 -6.16082301e-04 -1.12856285e-01
  7.78367184e-02  4.30259906e-02 -6.38604841e-03  7.45978403e-02
  8.45704961e-02 -8.17932267e-02 -5.36805398e-03  4.73613275e-03
 -3.11625648e-02  1.84251014e-02  4.80386439e-02  2.08225221e-02
 -6.62692129e-02 -5.17862507e-02  4.18824241e-03  9.82053198e-03
  5.83551349e-03  1.09227630e-01  1.47966041e-02 -1.28520015e-02
  6.69140528e-03  4.69221462e-02  2.04811954e-02 -9.20578630e-03
  1.89027647e-02 -1.37339647e-02 -8.01684584e-02 -5.27138259e-03
 -1.18201195e-01 -1.85112090e-01  9.57985675e-03  5.94055572e-03
 -7.20844297e-03 -1.28241195e-02  2.33409713e-02  9.87824505e-03
 -5.39125357e-02 -4.39502863e-02  8.92233626e-02  1.02398457e-01
  4.58687364e-02 -3.26802835e-02  3.51173319e-02 -8.90779117e-03
 -4.18906588e-03  3.59681339e-02 -8.15026580e-03  6.82780418e-03
  1.46538989e-02 -1.16510669e-01 -5.47272198e-02 -5.36912006e-02
  5.70881461e-03  4.31337300e-02 -1.06484775e-01 -3.68499080e-02
 -2.15185275e-02  5.29811867e-02 -4.67640746e-03  1.01713304e-01
 -8.61572469e-02 -1.04898118e-02 -5.82325793e-02 -3.99578052e-03
 -1.11882192e-01  6.04412817e-03  2.77189242e-02 -5.11701986e-03
  1.32940352e-01  7.73897945e-02 -2.47126840e-02  8.37827968e-03
  3.02933905e-03  3.80386581e-02 -2.99938994e-02 -6.39899070e-02
 -6.43074342e-03 -1.95122796e-01 -2.91659763e-02  1.49126047e-02
 -3.90528058e-02 -1.50750395e-01  4.24276631e-03 -6.30042940e-02
  2.85570457e-02  1.28901687e-01 -5.91236501e-02  4.27092615e-03
  3.84831573e-03  2.76022161e-02 -6.51831467e-03  1.14013311e-01
 -3.34175870e-03  9.53952483e-03  1.08736320e-02  5.92515168e-03
 -6.80415226e-03  2.91690365e-02 -1.12898261e-01  2.54399620e-02
  7.44028661e-02 -3.80573407e-02  1.22312169e-01  5.46919505e-03
  2.88261370e-02  4.72657757e-03  4.02814342e-02  4.88107113e-02
 -2.86376953e-02  8.17106017e-03 -1.58700199e-01  1.25324999e-01
 -6.15976266e-03 -1.18977748e-01  1.75589994e-02  8.94983169e-02]
Node 5: 
[ 1.31759207e-02  4.64140311e-02 -3.89309546e-02  1.22078665e-01
  2.39357300e-03 -1.32356385e-01  1.49087377e-02  6.41841253e-02
 -2.76701746e-02 -8.40180832e-02 -4.93385825e-02  8.33920589e-02
  1.51233822e-02 -4.20593652e-02  1.47205265e-01  1.13583136e-02
  3.95584816e-03 -4.46781967e-02  1.90551280e-03 -4.56579284e-02
  3.54476713e-03  1.50091171e-01 -9.67169329e-04 -1.58838225e-01
 -5.40106426e-04 -4.65402330e-02  1.67379515e-03 -8.60393113e-03
  3.69201811e-03 -2.92821515e-03 -7.18509907e-02  9.58583806e-02
  8.69995291e-05  1.58766370e-01 -4.51248118e-02  4.62618983e-02
 -5.08034053e-02  8.32147902e-04  1.38509707e-01 -1.43626698e-01
 -9.84241654e-02  4.16888778e-02  6.67876426e-03 -1.12342915e-01
 -6.76713153e-03  1.84850214e-03  1.37555605e-02 -2.13358111e-01
 -4.17987294e-02 -2.29115599e-02  1.22845821e-02  1.50578161e-01
 -6.17394939e-02 -4.00246583e-04 -5.82800990e-02 -1.87732654e-01
  5.34151541e-04 -7.32728241e-04 -2.42064891e-02 -1.48431594e-01
  1.97098469e-01 -1.08919232e-01 -1.11037014e-02  1.12583516e-01
 -1.14488183e-01 -3.70474053e-02 -4.58109168e-02 -1.02265740e-01
 -1.30210843e-01  5.70927024e-03  2.60823680e-03  3.53314563e-02
  1.32358308e-03  4.34863828e-02  2.20062950e-01  1.58086972e-01
 -1.29251808e-01 -1.22033958e-02  1.43255826e-03 -1.37347658e-03
 -4.98583734e-02 -6.53939811e-02 -3.89893097e-02 -9.16061085e-02
  4.55654143e-02 -4.11685694e-02  6.66132436e-02 -1.04582241e-01
 -4.54160441e-03 -2.08336821e-01 -2.26930089e-01 -1.77874481e-01
  1.48437157e-01  4.33205107e-02  1.29261580e-01 -1.73876485e-03
 -1.36058791e-01  1.47000752e-03  1.79612995e-02 -3.56169151e-03
 -3.15792560e-03 -1.72967799e-03  4.77087443e-04 -3.96130348e-02
 -3.35620895e-02 -4.33071162e-02  2.08245472e-02  5.04933977e-02
  6.58278204e-04  1.11440972e-02  5.30548025e-02 -5.38006341e-02
  1.03204118e-02 -7.72356595e-02 -8.72517270e-02 -3.67782502e-02
 -4.06090458e-02  2.91694177e-03 -1.13834338e-01 -1.25783742e-01
 -4.88870967e-02  7.62441805e-04 -4.00313723e-02  4.88631108e-02
 -9.71512293e-02  1.85692289e-04 -2.40638499e-02  3.67234830e-03
 -9.59053644e-03 -1.51034890e-02 -4.26824502e-03 -2.33179191e-02
  4.20705298e-02 -4.82678642e-03  1.52857906e-03  1.54731953e-03
  1.07634584e-02  1.37862955e-03 -1.07042314e-01 -2.43501677e-02
  7.61791017e-02 -5.64352576e-03 -4.83034058e-02 -6.65867882e-02
 -1.27342476e-02 -4.13906436e-04  4.76128171e-02 -1.19375258e-02
 -1.11087567e-02 -8.43764151e-03  6.08961936e-05  7.95984705e-04
 -1.51193870e-01  1.42231766e-01 -7.42273621e-03  4.29391261e-02
  8.68700011e-03  1.28399400e-01  3.72172577e-02 -4.36882051e-03
  1.16242385e-01 -1.51865706e-01 -4.04909312e-03 -1.49777660e-01
  9.79271485e-02  4.73516918e-02 -6.00516830e-02 -1.78796822e-01
  5.19737762e-02  5.57409883e-02 -3.13257274e-02 -1.55826941e-01
  1.90244386e-03 -3.65821112e-03  2.40809769e-03 -1.61260629e-01
 -5.62530007e-02  7.89821932e-03  3.48796604e-03 -1.41462302e-02
 -1.61270362e-01 -7.03660216e-02  6.35368505e-02  4.75398588e-03
 -5.83580599e-03  1.69197844e-01  1.10986415e-01  8.21652715e-02
 -1.78955521e-02  2.19872365e-02  9.90978084e-02 -1.40834284e-01
 -1.28609206e-05 -2.63694984e-02 -2.18888507e-01  7.44163535e-02
 -1.06807344e-02 -1.08057806e-01 -8.70455694e-04  4.77209899e-02
  8.71258082e-02 -4.89865191e-04  1.00420131e-01 -4.50500330e-03
 -5.33501661e-02 -9.68313480e-04 -3.42465763e-02  2.85715973e-02
  1.12912300e-01  5.79577027e-02 -2.48204463e-02  6.50915790e-02
  2.83180147e-03  1.53327811e-03  1.40893372e-02  7.39994842e-03
  3.34540617e-02 -3.51490579e-02  2.86278847e-03 -3.90862068e-02
  2.87777099e-02  2.05901440e-02 -2.29374617e-03 -5.87482332e-03
 -1.25620789e-02  4.01277458e-02  1.49109734e-01  5.05672767e-03
 -7.88113118e-02  1.35447105e-01  3.31641950e-02  1.41581170e-01
  5.62226064e-02  1.36664953e-01  3.32519664e-02  8.51856103e-05
  6.92083714e-02  1.12045250e-01 -1.22147378e-02  5.05616085e-02
  9.04261505e-03 -9.91972482e-03 -4.12022315e-02 -2.02063819e-03
 -1.29469310e-01 -6.20095304e-02  2.53117700e-02  5.15497632e-02
  4.59128933e-05 -6.83886469e-02 -5.42302898e-02  2.42131372e-02
 -1.58578976e-03 -1.89481927e-02  3.06600272e-02 -1.78542652e-02
 -4.88766772e-03 -4.58304005e-02  3.26671238e-02 -9.43444250e-02
 -1.54884878e-02  1.10194082e-03  1.81396123e-01 -1.51480558e-01
  1.42332305e-03  2.09880077e-02  3.07910182e-02  1.29016854e-02
 -1.16090880e-02 -2.19580184e-03  5.03366631e-04 -7.27702973e-04
  4.74150136e-02 -1.44662902e-01 -3.22153725e-02  4.42283912e-02
 -6.18343348e-03  7.72052670e-02 -3.06594460e-02 -1.58609212e-02
  1.51339751e-01 -1.23892730e-01 -1.94328091e-04 -2.64396616e-02
 -1.81293626e-02 -7.24894761e-02 -4.16625736e-02  1.54388036e-01
 -8.29719368e-03  1.00714989e-02  1.61312101e-01  7.83043951e-02
  5.79354124e-02 -1.26714681e-02  3.63627242e-03 -3.33988834e-02
  1.18137842e-01  1.06091258e-02 -1.95096452e-04 -2.93124989e-02]
Node 6: 
[-0.04106819 -0.03168762  0.012871    0.00793505  0.00917097  0.00346182
  0.00122551  0.01875364 -0.00498449  0.11786075  0.04497604 -0.08150882
  0.00398477 -0.00194986 -0.00229388  0.0025231   0.00538318 -0.00203535
 -0.00116724  0.00265695 -0.04692763  0.01796763 -0.00600911  0.00366634
  0.12561254  0.0196288   0.12996029 -0.00174412 -0.02426146  0.03995423
  0.07069835 -0.02549893  0.08921967  0.03133513  0.01987047 -0.02279497
  0.01581785  0.00258406 -0.00361868 -0.10378512  0.09847444  0.00192815
 -0.09373922  0.03325777 -0.02214087  0.07198173  0.00081365 -0.01694511
 -0.10215308 -0.001036   -0.02765163 -0.01880029 -0.024509   -0.003179
  0.02609329  0.00853705 -0.11941599  0.00209808  0.09101853  0.00329397
  0.06270002 -0.01059282  0.0651803   0.03078019  0.00280569  0.01243619
  0.01574954 -0.01068574  0.00335994 -0.01459053 -0.00156199 -0.03125763
 -0.03478946 -0.02708422 -0.00337787  0.04071017 -0.01132412 -0.01307563
 -0.03012824  0.00095723  0.02294952  0.00205023 -0.13398821 -0.03571301
 -0.01980039  0.01018048 -0.03280877  0.09497503 -0.01073856  0.00230536
 -0.00702926 -0.01726769  0.00902943 -0.014491    0.02877462 -0.07790205
  0.02007376 -0.00298641  0.00493628  0.00129902 -0.05670792  0.00097035
 -0.00178188  0.08744547  0.01848583 -0.02961224  0.00060125  0.02165557
  0.00766465 -0.09439939 -0.00273657  0.01342975 -0.00349268 -0.02158874
 -0.02232596  0.00089046 -0.00269708 -0.04489834 -0.0364377  -0.03106211
  0.00898515  0.06436013  0.03637482 -0.02318626  0.00258776 -0.00233999
 -0.00247549 -0.02290581 -0.00320241  0.06277023  0.02059526 -0.05336423
 -0.00184678 -0.0122872  -0.03328868 -0.03333044  0.00037961 -0.07227617
 -0.00176507 -0.00218526  0.01943231  0.01524505  0.01458457 -0.00176063
 -0.00240335  0.03354537 -0.02225003 -0.04453113  0.02090212  0.0700266
 -0.13943176  0.00453857  0.12939038  0.00842221 -0.01318836 -0.01634759
 -0.01067656  0.02592816  0.06592889  0.0331522   0.02025709 -0.01401045
 -0.11199575 -0.02007992 -0.00272602  0.15585484 -0.02440896 -0.01789755
 -0.00375249  0.01362808 -0.00090358 -0.01180221  0.05450677 -0.06446428
 -0.00036655 -0.01892629  0.01488134 -0.01419516 -0.02492822 -0.00239525
 -0.0223395  -0.01037151 -0.01490068 -0.02437763  0.03263705  0.0136824
 -0.00324094 -0.06384751 -0.09938295 -0.00911502 -0.01754297  0.00979445
  0.07923359 -0.00228643 -0.0166371   0.02241698  0.00152777  0.00325854
  0.00204927  0.03163308 -0.06992303 -0.15007614  0.03418418 -0.00865872
  0.04754244  0.03243839 -0.00768046  0.08557211  0.02845526 -0.01391367
 -0.03208951 -0.00409149 -0.03627073 -0.00204998 -0.00378599 -0.0119494
 -0.01440057  0.01404078 -0.01988658  0.00560767 -0.0266584  -0.0115443
 -0.00141022 -0.13508456  0.03609005 -0.007853   -0.00411086 -0.02840629
  0.00368006 -0.00221535  0.00422663 -0.10975414 -0.09587641  0.11486441
 -0.01656104 -0.03648177  0.06632491 -0.1386527   0.0462181  -0.01702744
  0.01068086  0.05103915 -0.00449016  0.0019492   0.02467209  0.00309801
  0.00298635  0.0251952   0.14223561 -0.01968022  0.02395893 -0.08601509
  0.00159547 -0.00171841 -0.03397494  0.00079846 -0.01952385  0.00863113
  0.00827554 -0.01799659  0.01476133 -0.00179897  0.00839546  0.00344065
  0.07071678  0.00106135  0.00178708 -0.00600161 -0.05409953  0.00097307
  0.1211691   0.00223271 -0.01085049 -0.01788543  0.00632359  0.02465669
 -0.03508881 -0.00376676 -0.00222693  0.06696991 -0.01728003 -0.01472036
 -0.03731931 -0.00500488 -0.00055905 -0.01238345 -0.00116133  0.03954238
  0.06143775  0.00232299  0.00925222 -0.13595194 -0.0278075  -0.00919445
 -0.03247075 -0.00119435  0.01722607  0.04800186 -0.00233667 -0.00242102]
Node 7: 
[-4.48337063e-03 -1.27417292e-01 -2.92209493e-02  5.21979981e-02
  1.99932059e-02 -9.85292144e-02  6.38291865e-02 -5.90808661e-02
 -7.73340452e-02 -7.17141713e-02  2.27365178e-02 -1.60109077e-02
 -7.61972614e-02  7.75942379e-02  1.02232089e-01 -2.33147643e-02
  2.44051785e-02  7.14807059e-02  6.21869164e-02 -9.94375341e-02
  7.92117185e-02  1.67331356e-02 -1.34512421e-01 -7.33756247e-02
  7.64989036e-02 -1.88564396e-02  3.14528420e-02 -1.30343621e-01
  8.08971111e-02  2.66092010e-02  1.37961206e-02 -1.25565706e-02
 -2.03337028e-02  2.97120522e-03 -3.97819054e-02 -1.01378734e-01
  2.62227726e-02 -3.16548575e-02  3.26803437e-02 -7.95106243e-02
  2.85800598e-02 -4.48027804e-02  7.89904918e-02 -7.13275147e-02
  2.70377494e-02  1.09668664e-01  6.90149683e-03 -9.49972060e-02
 -1.53034307e-01 -5.78650222e-02  1.09598582e-02  5.39593891e-02
 -2.54350290e-04  4.12856203e-02  1.14738896e-01 -8.35479027e-02
 -3.11319093e-02 -3.39413644e-02 -6.20133757e-02 -9.48646223e-03
  2.15144337e-02 -5.56451701e-02 -1.53910938e-01 -1.16829667e-01
 -1.01243765e-01 -3.76555606e-02  1.41137796e-02  6.72458613e-02
 -6.92158742e-02  1.32400657e-03  2.90528903e-02 -1.00434885e-01
  2.82947829e-02 -1.07700658e-02  7.40561848e-02  5.73927016e-02
 -4.91362652e-03 -9.55913266e-03  5.69409267e-03 -3.44884264e-03
  1.99138055e-02 -1.35240640e-01 -3.16784368e-02 -1.52846258e-01
 -1.28732113e-01  2.82821012e-02 -6.47363476e-02 -5.87829387e-02
 -4.77383972e-02 -3.59334192e-02 -1.15323549e-01 -7.98703152e-02
  1.12906287e-01 -1.65977369e-02 -5.09505266e-03 -1.56388400e-02
 -6.03172150e-02  1.24899039e-01  8.04680029e-03  2.37906284e-02
  5.30391390e-02 -4.47212149e-02  9.83836227e-02 -1.70359209e-01
  5.62540993e-03 -1.15058905e-01  1.01197732e-02  1.23073308e-02
  7.61349968e-02 -1.92040277e-03 -6.21285732e-02  2.04287784e-03
  5.05820624e-02 -2.94344886e-02  4.98528289e-02  8.71666259e-03
 -4.31612859e-02  2.28787605e-02 -8.77992118e-02 -5.22739797e-03
  6.98144897e-02 -3.72949039e-02 -2.22325378e-02 -1.39566900e-01
 -1.35393589e-01  3.60749260e-02  6.28413407e-02 -3.26514623e-02
  3.30474031e-02 -1.77065310e-01 -3.40921367e-02 -2.22360241e-02
 -3.75614483e-02 -4.10460513e-02  3.81174697e-02 -7.78243751e-02
  1.78060734e-01 -4.04500804e-02  1.49281967e-02 -1.14266728e-01
 -1.30751968e-01 -5.15470121e-02 -1.32121347e-03  9.25693139e-02
 -5.36254837e-02 -7.01159191e-02 -6.17669263e-02 -3.08726303e-02
 -1.01102441e-01 -1.16155885e-01 -4.45735561e-02  4.55577558e-02
 -4.29065515e-02  1.29358329e-01 -1.10071382e-01 -8.05014654e-02
 -1.89137872e-02  3.14431108e-02 -5.29095903e-02 -7.42777081e-02
  4.50978222e-02 -1.19427640e-01  4.46385770e-02 -1.20720166e-01
 -1.04266552e-01  1.14501640e-01 -3.76678802e-02 -5.44294241e-02
  2.63830956e-02 -4.72961775e-02 -7.64090674e-02 -7.98953442e-02
 -1.76850596e-02 -3.42562522e-02  2.39392343e-02 -1.00163538e-01
  9.13009423e-02  1.93777233e-02  6.20828762e-02  1.78573565e-02
 -1.07987982e-01 -7.25862434e-03 -7.91441834e-03  2.82260284e-02
 -3.94302107e-02  9.38882118e-02  2.03464989e-02  4.55443268e-03
  1.98185161e-03 -1.11792339e-02  1.12807416e-01 -1.12968258e-01
 -7.58129730e-02  3.74149471e-02 -7.89196437e-02 -9.85544289e-02
 -4.75837740e-02 -1.33390947e-01 -4.82372061e-02 -9.20742648e-02
  1.00021277e-01 -8.49877881e-02 -8.61786763e-03 -5.32646822e-02
  4.70357420e-02 -4.25397385e-02 -4.93371088e-02 -9.24971171e-02
  4.91065039e-02 -7.83666447e-02 -3.39887450e-02  8.92148148e-02
  1.31762057e-02  6.62669305e-02  4.76662781e-02 -8.16311281e-02
  3.07191203e-03  1.27656986e-01 -6.23856283e-02 -1.71166041e-02
 -1.21075058e-01 -9.31650985e-02 -1.00035683e-01 -6.22557550e-02
 -5.88218759e-02 -5.93884694e-02  9.19494515e-03 -5.62818035e-02
  1.24930421e-01 -6.67916487e-02 -1.47446771e-01  8.76944977e-02
 -2.00951232e-02  4.95940454e-02  3.89080365e-02  1.26042228e-02
 -7.00526737e-02 -2.00837619e-02 -3.66262688e-02 -5.74108984e-02
  3.83642685e-02 -7.62736049e-02 -1.70927083e-02 -1.58071274e-02
 -3.36530983e-02 -3.83559014e-02 -1.06728596e-01  7.76088650e-02
  7.91414944e-02 -6.69402994e-03  7.03911982e-02  9.04054938e-02
  1.80819403e-02 -3.92479896e-02 -1.44434970e-01 -3.65781496e-03
 -1.16128464e-01  5.35627896e-02  6.32570434e-03 -7.63290108e-02
 -4.09703082e-02  8.88693742e-02  1.18840934e-01 -5.62797639e-02
 -4.41697668e-03  1.17040361e-01 -2.72731675e-02 -1.20036529e-01
 -1.24234359e-01 -4.22095178e-02 -3.68271928e-02 -1.30232563e-01
 -8.07868596e-02 -4.95759439e-02  6.12678631e-02  5.27872561e-02
  6.52780417e-05 -8.93072452e-03  8.78558737e-03 -1.21280116e-01
  1.76517078e-01 -8.75396216e-02  1.48580100e-02 -1.12094858e-02
 -1.11689009e-01 -1.31305283e-01 -2.99016597e-02  6.92836149e-03
 -7.03832113e-02 -9.46249153e-02  9.75643588e-02 -9.50155873e-03
  2.86656097e-02 -3.34677695e-02  2.64942671e-02 -1.01216244e-01
  1.21184466e-01  2.48754517e-02  1.03341134e-01  1.17188123e-02]
Node 8: 
[ 0.34069354  0.20339867 -0.23596019 -0.15861235 -0.22554856  0.25147686
  0.10645338  0.15057274  0.16764239  0.26237339  0.10986076 -0.19093167
  0.16089026 -0.30305777 -0.26738702  0.16673829 -0.18924685 -0.20296628
 -0.19119646  0.22738788 -0.16829489 -0.13196188  0.17533928  0.25850881
  0.14838652 -0.24891315  0.20750751  0.0021324  -0.31487386  0.19208386
  0.21155839 -0.00945584 -0.08526181 -0.20734735 -0.18488982  0.18552614
 -0.14342411  0.16887173 -0.14194947  0.22513362  0.2406915   0.18187443
 -0.18291599  0.18575987  0.019378   -0.01452104  0.07612158  0.15088833
  0.12852117  0.03679533  0.21718399 -0.12112715 -0.10218912 -0.18659904
 -0.23448882  0.18511098  0.1164248   0.2487064   0.13493422  0.22599984
 -0.16253587  0.27364893  0.17771449  0.02754738  0.1275256  -0.21706614
 -0.14208934  0.19988544  0.19641213  0.11451668 -0.3320359   0.08310252
 -0.10090998  0.18358609 -0.19084549 -0.17089067  0.1385945   0.26660653
 -0.31391887  0.2358278  -0.18703149  0.18136373 -0.19846722  0.23047114
  0.27120314 -0.19277332  0.22778928  0.20447552  0.01120659  0.19177485
  0.23017516  0.25172442 -0.22792702  0.18608428 -0.10659064  0.07552841
  0.14950275 -0.16967164  0.25105413  0.18919762 -0.12128116  0.24364111
 -0.17378603  0.13661656 -0.22651024  0.12209873  0.17837806 -0.23903859
 -0.21621589 -0.03984559  0.24535298 -0.23681137 -0.19333645  0.25481376
  0.13986975 -0.12068636 -0.23842126 -0.21176527  0.17903583  0.23008806
 -0.18010111  0.23029484  0.04758636  0.22560688  0.19634602 -0.20435095
 -0.16714085  0.01857163 -0.35600273  0.11535255  0.25991284 -0.15444542
  0.20237585  0.21317651 -0.17580614 -0.153344    0.09667084 -0.19618692
 -0.14660417 -0.24348193  0.07276994 -0.15234312 -0.20314193 -0.25377739
 -0.1332514   0.18731718  0.14355408 -0.09944739 -0.09893954  0.21230003
  0.02043392 -0.19543182  0.24488804 -0.17452441  0.11940801  0.18051641
  0.08752992 -0.17236322  0.07269231  0.15507383 -0.22600681  0.11474849
 -0.13024566  0.27504051  0.05800445  0.08818634 -0.16058968  0.24769914
 -0.20174055  0.10636928 -0.1479222   0.20074722  0.06266304 -0.12789754
 -0.1226153   0.17602013 -0.14208143  0.11527933 -0.24697666 -0.06780184
  0.2664164   0.09666711 -0.25697209 -0.25555221  0.18212019 -0.21993104
 -0.22929151  0.08274494 -0.04123105  0.08338411 -0.18572144  0.15689472
  0.26278894 -0.18504833  0.1567358   0.10017598  0.14850784  0.17750714
  0.2562934   0.16263659 -0.18811823 -0.18250764 -0.18267189 -0.04462584
 -0.0213207   0.02042352  0.2100787   0.19948728 -0.16281865  0.29262827
  0.09361541 -0.24046557 -0.19459286 -0.28200159 -0.22021629  0.17907723
  0.16333401 -0.17782469 -0.03511077 -0.23512165  0.19388825  0.04679515
  0.14902331 -0.15339436 -0.24026424  0.24347152 -0.15528789  0.11162242
 -0.11349211 -0.12898496  0.27377203 -0.20345994 -0.22113006 -0.12090706
  0.21546449 -0.00932238  0.14905739 -0.23154528  0.0580664   0.16594009
 -0.19747751  0.21210987 -0.1365322   0.26782133  0.17165669  0.26082599
  0.16913983 -0.2372299   0.21393276  0.31735883 -0.2660849  -0.25211457
  0.2349767  -0.15089368  0.21031259 -0.1026455   0.16797685 -0.25663266
  0.04197261  0.09988413 -0.1652997  -0.31249149 -0.22798824  0.24379242
 -0.19446978  0.16055182  0.16241403  0.2334559   0.13752217  0.28891268
  0.16673076  0.21162265  0.17045718  0.19801486 -0.1605131   0.10615868
 -0.15340972 -0.11219854 -0.1978258   0.16599865 -0.27530029  0.24317074
 -0.14211732  0.20250825 -0.08102406  0.08447818 -0.12794746 -0.0915622
  0.2596016   0.14473965 -0.2098239  -0.26628974  0.1384926   0.16092194
 -0.19283813 -0.20755002 -0.14194793  0.13521342 -0.26727289 -0.20307059]
Node 9: 
[-8.70372938e-03 -1.93575966e-01  1.47589339e-01  1.25863805e-01
  1.60562764e-01 -2.34593166e-01  1.68599697e-01 -2.11009526e-01
 -2.37915196e-01 -5.78908964e-02 -1.02561395e-01  7.51467829e-02
 -1.83418955e-01  1.68214726e-01  1.81321791e-01  1.43583558e-01
  1.51728089e-01  1.82847385e-01  8.35031612e-02 -9.55128060e-02
  2.22428877e-01  1.06769932e-01 -2.47617698e-01  2.93130027e-04
 -1.96721418e-02  1.43515141e-01  1.15495459e-01 -1.59341480e-01
  1.23564774e-01 -1.71121882e-01 -1.72853210e-01  1.10727237e-01
  2.61509584e-01 -7.37480605e-03 -7.94178915e-03 -1.69296504e-01
  2.14682216e-01 -2.00269433e-01 -6.09937132e-02 -1.85770112e-01
 -1.50696174e-01 -2.02271483e-01  2.35117520e-01 -1.94245785e-01
  3.21126017e-02  1.63709873e-01  2.51362013e-01 -2.34720509e-01
 -2.65083171e-01 -1.62374950e-01  7.64487136e-03  2.05847260e-01
  2.19108758e-01  2.15725801e-01  2.37087328e-01  1.06887801e-01
 -1.79031880e-01 -1.54683168e-01 -2.25525947e-01 -1.23678229e-01
  1.43643049e-01 -1.46475001e-01 -1.59626876e-01 -1.88424973e-01
  1.83336810e-01  1.33437746e-01  1.50889906e-01  1.83427413e-01
 -6.07797690e-02 -9.55142467e-02  1.90182054e-01  1.36178603e-01
  1.65091631e-01  3.59857670e-02  1.22770066e-01 -1.09043063e-01
 -8.25990815e-02 -1.53603099e-01  2.63263327e-01 -2.25986081e-01
  1.19056943e-01 -1.41151560e-01 -7.71902421e-02 -2.11764897e-01
 -1.92805891e-01  1.42774777e-01 -2.03140783e-01 -6.46244469e-02
  1.26560226e-01 -9.24460742e-02 -2.63930900e-01 -1.51962782e-01
  1.80396178e-01 -1.83928856e-01 -5.34426180e-02 -7.84407814e-02
 -1.84239130e-01  1.70091265e-01 -4.28878490e-02 -9.57438684e-02
  1.06392260e-02 -1.53055092e-01  1.66237233e-01 -1.01917441e-01
  7.95244289e-02  1.11306198e-01  3.01908817e-01  4.50859883e-02
  1.55153479e-01 -1.75265598e-01 -2.32163938e-01  1.97207685e-01
  1.92564170e-01 -1.90358192e-01  2.04579743e-01  2.53010455e-01
  7.89716071e-02  1.45741546e-01 -1.55443849e-01  6.94322320e-02
  1.15945130e-01 -2.92216796e-02 -2.17560502e-01 -1.12047214e-01
 -1.56740872e-01  1.22192101e-01 -9.38715092e-02 -1.12546587e-01
  1.62611523e-01 -1.68590719e-01 -1.41101896e-01 -9.84398950e-02
 -1.11663061e-01 -1.67159503e-01 -1.47146130e-01  2.34204944e-01
  2.75034261e-01  1.65930794e-01  2.18766519e-01  4.01350447e-02
 -1.44313301e-01  1.72633269e-01  1.60898941e-01  2.28332424e-01
  8.58058177e-02 -2.43664951e-01 -2.20355558e-01  1.34155436e-01
  2.87503203e-02  1.24116388e-01 -2.11016075e-01  2.66314276e-01
 -3.90443171e-02  2.50596219e-01 -8.58318517e-03  2.37479575e-02
 -1.71569016e-01  9.48345558e-02 -1.08158669e-01 -2.29294015e-01
  4.85005377e-02  1.63753622e-01 -1.13119965e-01 -2.45269965e-01
 -1.77373753e-01  2.21899700e-01  2.25426320e-01 -1.54556570e-01
 -5.81270671e-02 -2.14844279e-01 -1.77043185e-01  1.41873631e-01
  2.59337240e-01 -4.61821445e-02  9.96709092e-02  7.98904143e-02
  2.52600073e-01 -1.78119136e-01  2.45560582e-01 -1.43801354e-01
 -1.24626176e-02  8.09552718e-02  2.22232563e-01  1.36912466e-01
 -2.28100944e-01 -1.29216413e-01  1.63883406e-01 -9.52083506e-02
 -1.45725597e-01  2.32123889e-01  2.47696523e-01 -1.73451899e-01
 -1.26945153e-01  2.36275825e-01 -1.93656404e-01 -8.80136199e-02
  7.52031068e-02 -5.38704463e-02 -1.85879041e-01 -4.88056091e-03
  1.61666577e-01 -1.44475958e-01 -4.27826858e-02  5.24662666e-02
 -7.31892502e-02 -2.96398294e-01 -1.02163963e-01 -1.69329234e-01
 -6.00042789e-02 -1.79647225e-01  1.91507088e-01  2.27533766e-01
  1.97310284e-01  1.45694221e-01  2.15006371e-01 -1.27841606e-01
 -2.13883832e-01  1.17124433e-01 -4.51081048e-02  1.23916171e-01
  1.06472981e-01 -5.76682700e-04 -2.34094397e-01 -1.89595665e-01
 -5.18556006e-02 -1.90887724e-01 -1.83449830e-01 -6.48984220e-02
  1.98175683e-01 -1.55825506e-01 -1.45253200e-01  1.44041484e-01
  1.53657552e-01  1.96360207e-01  3.15936513e-02  1.42153447e-01
 -1.31195863e-01  2.97334526e-02  1.50570578e-01 -1.14703088e-01
  1.66433642e-01 -1.65574499e-01  2.37663540e-01 -1.18339591e-01
  7.39283675e-02 -1.93092821e-01 -3.45310407e-02  2.29980360e-02
  1.51168628e-01 -6.82832241e-02  1.52200177e-01  2.10693444e-01
 -2.19363653e-01 -1.01366016e-01 -6.59132169e-03  1.99255100e-01
 -9.78532501e-02  1.41059964e-01  3.28361473e-02  1.95156052e-01
  1.06841760e-01  2.20004746e-01  1.44259076e-01 -1.81266176e-01
  1.56851332e-01  2.92677746e-01 -2.06500796e-01  1.62576339e-02
 -2.44170471e-01 -2.08041844e-01 -3.52978644e-02 -1.55597188e-01
 -1.54553461e-01 -2.77128019e-01  1.23695374e-01 -1.87962757e-01
  1.37940103e-01  1.01943237e-01  1.52009026e-01 -9.34363859e-02
  2.04667096e-01 -1.92140916e-01  1.60908838e-01 -1.58324437e-01
 -1.55706909e-01  1.07058233e-01 -1.71125163e-01 -5.61583218e-02
 -2.24647287e-01 -2.29066743e-02 -4.31241888e-02  1.14326870e-02
 -8.46527241e-02 -1.88111060e-01  1.43687640e-01 -1.74961671e-01
  2.22752500e-01  1.96323008e-01  1.35466255e-01  2.28422451e-02]
Node 10: 
[-0.28869214 -0.1528418   0.23631635  0.27820495 -0.05693251 -0.2646482
 -0.21823755  0.14741956 -0.27142563 -0.18618176 -0.22167272  0.24104927
 -0.25269992 -0.19577127  0.11653138 -0.0599254  -0.18723449  0.1186723
 -0.16310359 -0.13505384  0.07087905  0.12822931 -0.21486099 -0.10112124
 -0.24785245  0.18951149 -0.19658131  0.18787767 -0.16009147  0.12115141
 -0.24515712  0.02430777 -0.09666035  0.18284755  0.24901182 -0.22294696
  0.24471653 -0.22120897  0.07466668 -0.18799612 -0.2715865  -0.1796443
  0.1309749   0.10463578  0.1822575  -0.14965025 -0.17730139 -0.28810647
 -0.25730358 -0.09179268 -0.18524999  0.15941052 -0.05389501  0.10927219
  0.2621196  -0.02053022  0.05275118 -0.1702315  -0.20736343 -0.19746805
  0.16744817 -0.17946883 -0.2354187   0.17020505 -0.18603699  0.30924936
  0.15615358 -0.26076527 -0.14203975 -0.21362775 -0.22909043 -0.1485059
 -0.12188931 -0.2588159   0.15173856  0.27776174  0.10575442 -0.35929574
  0.01853269  0.05625338  0.11481924 -0.19573477  0.18116056 -0.26788809
 -0.1558498   0.2321083  -0.03486387 -0.30954079  0.21466527 -0.21888533
 -0.14233248 -0.22123522  0.20453701 -0.18588345  0.10274342  0.13629901
 -0.11937771 -0.01972139 -0.23143524  0.25118112  0.26864947  0.08648308
 -0.06516082 -0.27902192  0.22458575 -0.21480629 -0.21627303  0.06218534
  0.20415809 -0.13312545 -0.16556498  0.26340293  0.20874374 -0.27107346
 -0.21476006  0.21120093  0.14854092 -0.14368126 -0.22496494 -0.17724777
  0.19043407 -0.10861156 -0.0456239  -0.19354757 -0.12908005  0.13163093
  0.12366504 -0.16241885  0.19472782 -0.02586787  0.07521221  0.00889571
 -0.21682465 -0.19763516  0.04829423 -0.16407587 -0.16567175  0.13561095
 -0.02260304  0.27734152  0.19299623  0.18328895  0.21407475 -0.07406478
  0.18972739 -0.22522962 -0.24443567  0.18571509  0.1377602  -0.13804322
  0.02720674  0.2115028  -0.23477867  0.17706571  0.05004281 -0.13356736
 -0.22686376  0.13207834 -0.25148561  0.13244389  0.08834097 -0.14793177
  0.18663309 -0.23604932 -0.08168818 -0.19779347  0.07777178 -0.21300221
  0.0972265  -0.09555687  0.24547722 -0.0975554  -0.21297084  0.24691508
 -0.13452377 -0.16547049  0.2850837  -0.19778123 -0.25379069 -0.00287475
 -0.19868927  0.10488667 -0.00094479  0.01470426  0.23524292  0.10266594
  0.22896365  0.2287222   0.04395629 -0.13942457  0.19300332 -0.18165251
 -0.28933585  0.21666603 -0.23843717  0.27180529 -0.11141739 -0.06650384
 -0.10333385 -0.19874777  0.20572908  0.19257048  0.08477881  0.18616995
 -0.14101894  0.07249077 -0.23682342 -0.21346192  0.05933317 -0.24924417
 -0.08137708  0.12914188 -0.13376916 -0.22785835  0.12176389 -0.30061521
 -0.21379159  0.06292135 -0.14807464  0.21805646 -0.15903129  0.08478796
  0.17232962  0.13326365  0.28741373  0.09359684 -0.09474667 -0.29732737
  0.22180228  0.19648046 -0.29213753  0.25871066  0.27344148 -0.03738448
 -0.16683891 -0.05030507 -0.12210092  0.19786212 -0.07385616 -0.07994221
  0.24554623  0.13736374  0.1580293  -0.01505625 -0.13939035 -0.11681573
 -0.05987772  0.07049364 -0.22424095 -0.3489977   0.02789954  0.2820459
  0.11836424  0.06564274 -0.17502625  0.15638444  0.02432748  0.15758371
 -0.0849216  -0.22617046  0.18689849 -0.11692261  0.11868236 -0.24219932
 -0.16877824 -0.22084315 -0.1913608  -0.03564661 -0.27528701  0.14538605
 -0.132186   -0.16772171 -0.16805454 -0.22722087  0.24088655  0.13859695
  0.23486911  0.16271198  0.20377592 -0.17034675  0.29272349 -0.23136659
 -0.11396485 -0.29786737  0.13838504  0.16556312  0.18449526  0.23607195
 -0.10798869 -0.18155638  0.05746405  0.21041992 -0.10931392 -0.26698954
 -0.23253039  0.18089669  0.19385998 -0.17007778  0.1949496   0.15828573]
Node 11: 
[ 0.15378562 -0.00094306  0.16567255  0.12227139  0.10572483 -0.17408318
  0.14932031 -0.05002493 -0.1344583  -0.11612647 -0.02447253  0.02327715
 -0.12311827  0.20702351  0.12151795 -0.00394946 -0.08476351  0.1209035
  0.17885547 -0.13708127  0.0352875   0.15169516 -0.05825681 -0.04386017
  0.01274131  0.1335288   0.06940244 -0.14168115  0.22803276 -0.12677172
  0.01892195  0.12342641  0.10371796 -0.00753658  0.18916243 -0.02419678
  0.07692132  0.10784581 -0.03612688 -0.15090681 -0.02106835 -0.09728344
 -0.01502492 -0.06271584  0.05914783  0.15735524  0.13108523 -0.13354337
 -0.02821924 -0.06606344  0.03363802  0.07366986  0.13566268  0.08287881
  0.06024698 -0.05187652 -0.10452584 -0.09825568 -0.08471372 -0.14893866
  0.15080247 -0.08850588 -0.03407242  0.03812273  0.0680191   0.14724853
  0.09714313  0.05760619 -0.16414618 -0.00341476  0.14190024  0.05834064
  0.13305808 -0.09581766  0.13665079 -0.05302604 -0.04878512 -0.03166834
  0.09617297 -0.09177461  0.16531238 -0.04842873 -0.10206573 -0.02400733
 -0.0758207   0.13104524 -0.0673001   0.04341163  0.05709578 -0.08327036
 -0.04443887 -0.15711091  0.08546864 -0.17294803  0.05578988 -0.02345256
  0.01043788  0.17485645 -0.08596308 -0.09668267 -0.05008237 -0.12034197
  0.14779572  0.06932264  0.06626501  0.17439892  0.16449439  0.09899587
  0.05829305 -0.01315673 -0.08146392  0.15967176  0.13111802 -0.06742045
  0.11689442  0.11616911  0.14826819  0.1706662  -0.0265711  -0.03637156
  0.17575614 -0.17344926  0.02046574 -0.05505095 -0.1239521   0.07675744
  0.08513521  0.12701588  0.166538    0.06162355 -0.05691997 -0.03025177
 -0.10304425 -0.00091862  0.20508541  0.12394589  0.13720641  0.13920815
  0.099306    0.02911383  0.01639181 -0.02428803  0.0691343   0.18883343
  0.13806545 -0.11297192 -0.16493933 -0.01540133  0.05155654  0.05233771
 -0.09277648  0.08123352 -0.09668687  0.10303195 -0.03414495 -0.05686392
 -0.0517574   0.14136413  0.07135997 -0.10785201  0.03378691  0.0043023
 -0.03639971 -0.09667601  0.05997925  0.18728837  0.13918093 -0.10487206
  0.04513467 -0.16894856 -0.14255633 -0.01129386  0.12435343  0.05288306
  0.12051735 -0.00895532  0.04330845 -0.0308836   0.19325526  0.11919348
 -0.01810667 -0.08307598  0.12720674  0.11863756 -0.05398025  0.04081959
  0.167467   -0.14672625 -0.13782633  0.05419478  0.14757014 -0.14737904
 -0.0111077   0.19705891 -0.16870422 -0.03211227 -0.04787184 -0.14753811
 -0.05292811  0.06924378  0.1626475  -0.08862223  0.1250545  -0.0973585
  0.00808332 -0.045092   -0.00798993  0.00398488  0.11488921 -0.08209501
  0.16889253  0.18237007  0.17267209  0.23350044  0.06728334 -0.05235889
 -0.18343133 -0.06985327  0.10235826  0.17747994  0.05459106  0.0508743
 -0.14016011 -0.08579168 -0.01938174 -0.01110349 -0.0409107   0.04729319
  0.12299851  0.03646278  0.00573567  0.04018336  0.03093357  0.11295744
 -0.08095205  0.09198765  0.14326581  0.06649424  0.06784894 -0.09576838
  0.07675896 -0.03360917  0.09812474 -0.14942376  0.02658209 -0.0718363
 -0.13772451  0.0945817   0.1398495  -0.04978106  0.03792221  0.05738127
 -0.14288681  0.00357706  0.03339392  0.08368639 -0.10820709  0.10208419
 -0.09814902  0.09798583  0.08461662  0.23742159  0.11688728 -0.16265867
  0.01856109  0.11833825 -0.17825895 -0.11675147 -0.06137169 -0.04414398
 -0.07174919 -0.12208051 -0.13922256 -0.14544335  0.17981416 -0.05582562
  0.0050744   0.06617161  0.19385044  0.00469358  0.15228843 -0.04389281
  0.17562233 -0.07823517 -0.08736607 -0.03212097 -0.1262664   0.06164829
 -0.10169613 -0.07842515  0.10689171  0.06074163 -0.08745691 -0.11807121
  0.11122628 -0.08849203  0.13184092  0.11152829  0.17283176 -0.00386425]
Node 12: 
[-0.05340755 -0.04593053 -0.02315156  0.09756523  0.0313859  -0.0139468
 -0.07108848 -0.06875392  0.0977296  -0.07109623 -0.01534397  0.01047945
 -0.04023448  0.05681214  0.12801471 -0.06785665  0.06492726  0.14723459
  0.07157231 -0.13607491  0.06047465  0.05756593 -0.03579445 -0.14874787
 -0.05963213  0.04835667 -0.12561785 -0.05583788  0.08679708 -0.05837962
  0.03054341  0.01046706 -0.12883476  0.10267414  0.03615329 -0.11055136
  0.01921037  0.09222384  0.11887208  0.00354529 -0.01061258 -0.03622056
 -0.05906639 -0.10339087 -0.11578459 -0.03768941 -0.07335191 -0.05492999
  0.04625339  0.06568901  0.02318248  0.10229263 -0.03674188  0.07156193
  0.03183048 -0.09141979  0.00024393 -0.10239636 -0.08119358 -0.11085918
 -0.02821813 -0.01856001 -0.16154539  0.09493979 -0.0352193   0.04432449
  0.13579166 -0.05138017 -0.09135446  0.03061908  0.0862278  -0.10271831
  0.09392889 -0.05322394  0.12441563  0.05357963 -0.06199048 -0.04840845
  0.04324127 -0.11492874  0.0846231  -0.06067239  0.08937514  0.02260654
 -0.05423324  0.06464676 -0.14623203 -0.08773005 -0.1044713  -0.06482563
  0.01418821 -0.00845837  0.08570522 -0.04502002  0.05444916 -0.02219125
 -0.12056103  0.09589408 -0.11967469 -0.04618684 -0.02485089 -0.14862175
  0.10773427  0.01974475 -0.00019211 -0.10240489 -0.06172262  0.1121766
  0.04032409  0.10484701 -0.12566663 -0.00030046  0.05093557 -0.04665781
 -0.08535396 -0.05242548  0.03417086  0.06811605 -0.03512448 -0.13145587
  0.07050496 -0.0656997   0.134159   -0.11772795 -0.09291611  0.03836825
  0.16674571  0.00087779  0.14388052 -0.03019537 -0.13732208  0.07929202
  0.03280322  0.02114141  0.10341635 -0.00720177  0.05242804 -0.05616968
  0.01349492  0.03028524 -0.02573402 -0.10692088 -0.01850287  0.17160442
 -0.00197473 -0.01837607 -0.03422787 -0.05434226 -0.05330717 -0.09809141
  0.07349086  0.08967242 -0.05851997  0.08790927 -0.11164196 -0.12295629
 -0.01739174  0.06801009  0.05577092 -0.12098867  0.15732886 -0.17799695
  0.0572862  -0.03918551  0.01760682 -0.05997774  0.08550392 -0.06480345
  0.14021666 -0.02427552  0.07371857 -0.13945543 -0.01005614  0.13331139
  0.02549541 -0.17404844  0.07799341  0.05372193  0.11624762  0.0802653
 -0.05825332 -0.03748712  0.07975528  0.14604424 -0.04668004  0.14621521
  0.05834691  0.00453194  0.15122683 -0.06859858 -0.00145822 -0.11311452
 -0.13970753  0.0628155  -0.00989597 -0.02365163 -0.16400141 -0.14728021
 -0.03752807 -0.04088744  0.04874349  0.1103293   0.08882217 -0.07430911
  0.08967135  0.03394888 -0.04851777 -0.01529276  0.09133101  0.05187567
 -0.05798354  0.13471695  0.07373016  0.16759964  0.04504759  0.02860345
 -0.03403459  0.0128877   0.04136495  0.10210303 -0.06847937 -0.1134289
  0.01366429  0.11819904  0.05871893 -0.03938485  0.17086178  0.04145428
 -0.01645512  0.09611685 -0.00234702  0.13203701  0.06120791 -0.04780834
 -0.08210918 -0.01004658 -0.03117837  0.09408827 -0.11110539 -0.16818846
 -0.02154249 -0.10856958  0.05173249 -0.11244047 -0.10418522 -0.11780381
 -0.14431321  0.12818107 -0.09878154 -0.01502876  0.13539064  0.03226401
 -0.09688328  0.08255027 -0.1067217  -0.03991793 -0.09269614  0.06604268
 -0.07957465 -0.02243261  0.03430282  0.1236239   0.06963712 -0.0550481
 -0.0269968  -0.01131063 -0.071586   -0.13452816 -0.07533575 -0.13199669
 -0.04571306 -0.1442241  -0.1176317  -0.0471141  -0.00801962 -0.08683445
 -0.05644284  0.02264621 -0.00362467 -0.08635611  0.10050262 -0.00774106
 -0.03154361 -0.01317854  0.08250122 -0.08530013  0.06290097  0.08130797
 -0.08359748 -0.18198979  0.12214036  0.06833826 -0.08831227 -0.08722822
  0.10840768  0.06324748  0.14352554 -0.08299442  0.15863786  0.07521441]
Node 13: 
[ 0.18084015  0.0011992  -0.15806941 -0.05502536 -0.01465937  0.09045057
  0.04920601 -0.02279775  0.05288704  0.12599081  0.09501661 -0.12872742
  0.07619938  0.00927435 -0.05649044  0.01281518  0.05045434 -0.02540171
  0.06959977  0.09000968 -0.00806682 -0.1324198   0.07240427  0.05977832
  0.0789557  -0.1215229   0.16023671 -0.12912569  0.03455299 -0.05480243
  0.08309289 -0.0373218   0.03437866 -0.19768201 -0.0855744   0.16564098
 -0.05433364  0.07531013 -0.05834798  0.04832892  0.07848159  0.0750919
  0.05088974 -0.057258   -0.08895838  0.0253296   0.05900167  0.11095606
  0.08201695  0.03321414  0.11770795 -0.03533492  0.02358559 -0.07107371
 -0.13499276 -0.02880643 -0.02544955  0.01352952  0.04939727  0.09052069
 -0.05735676  0.1254746   0.11582602 -0.02445074  0.02182757 -0.12782486
 -0.09178143  0.1761532   0.09049991  0.13629004  0.06592887  0.02028218
  0.05786107  0.06694274 -0.0658967  -0.19118382 -0.04983949  0.14960684
 -0.0060207   0.03103274 -0.00454077  0.08066625 -0.10636437  0.05937803
  0.0663794  -0.16856298  0.04378504  0.1804834  -0.17619406  0.05596569
  0.10757353  0.1401884  -0.06044564  0.10673313 -0.09113945 -0.13497764
 -0.00033703 -0.08329073  0.18217265 -0.04333231 -0.05819935  0.1080031
  0.02113499  0.02273137 -0.12107044  0.06547212  0.09114228  0.00185921
 -0.04268122  0.08837128  0.07943424 -0.07862445 -0.06949315  0.16155692
  0.15603468 -0.06568714 -0.02727594  0.02832548  0.08720088  0.15150078
 -0.12494835  0.06394958 -0.01361585  0.07065915  0.08753045 -0.04185272
  0.05240221  0.03489848 -0.08056026 -0.00842211 -0.00760002 -0.04099519
  0.10490024  0.08988135  0.0030532   0.05759475  0.17178299 -0.10106173
  0.02035692 -0.19032672 -0.09245053 -0.17355741 -0.08301859 -0.06691996
 -0.16608236  0.00391141  0.18677697 -0.01853379 -0.08951599  0.0409629
 -0.03864081 -0.06609668  0.08646484 -0.02787845 -0.04305657  0.05875427
  0.0733786  -0.19509641  0.00444689  0.0760547  -0.11204562  0.04216046
 -0.11713163  0.09755515 -0.03145226  0.00530663 -0.04657864  0.14996346
 -0.09837766  0.02807694 -0.11750828  0.04330583  0.05778398 -0.14975547
  0.00591074  0.05350508 -0.04740403  0.17130264 -0.04767198  0.06505425
  0.18025429  0.0303313  -0.01670293 -0.0743404  -0.01919687 -0.07849453
 -0.16424517 -0.06296431  0.06709268  0.04605172 -0.10372946  0.09176759
  0.16305668 -0.09372709  0.1379517  -0.08023271  0.03972292  0.02674797
  0.03194688 -0.01294611 -0.09204079 -0.16666899 -0.10162804 -0.05597622
  0.11773077 -0.06420659  0.16726784  0.06695247 -0.05757314  0.13629135
  0.1237814  -0.1604522  -0.04954892 -0.04676686 -0.150635    0.17456275
  0.11055164 -0.02767098  0.09795365 -0.09261075  0.01962505  0.00190421
 -0.05765631 -0.10380803 -0.12484593  0.02395105 -0.08098197  0.12026725
 -0.01282128 -0.07004741  0.12899135 -0.14034231 -0.161782   -0.02173935
  0.11701288  0.00338452  0.09386858 -0.14233877 -0.0626422   0.1055643
 -0.04906226  0.0185462  -0.12557933 -0.03201846 -0.01790358  0.0926643
  0.0511696  -0.12069368  0.07800576  0.13179667 -0.01789313 -0.03725912
  0.01755046 -0.0069661   0.08111507 -0.08670303  0.04858659 -0.14234125
  0.08400944  0.01506735 -0.10979241  0.01659241 -0.1274492   0.12226005
  0.03406841  0.14216768  0.09672411 -0.01050955  0.1028593  -0.0434605
  0.18584674  0.07988556  0.08847437  0.13027177 -0.10825499 -0.04613751
 -0.08241628 -0.08060721 -0.06207758  0.10978682 -0.0615268   0.05181541
  0.11450779  0.11513243 -0.05859271 -0.05116264 -0.08953525 -0.09863436
  0.08748089  0.0873848   0.01490367 -0.13886448  0.10980434  0.0813397
  0.03841006 -0.15200418 -0.06467617  0.03644117 -0.10420185  0.00802169]
Node 14: 
[-0.06403303 -0.12735491  0.01720854  0.09236736 -0.00175336 -0.05069171
  0.04853148 -0.0449033  -0.03758557  0.01470789  0.03844799  0.02963484
 -0.06313747  0.01849625  0.02171274 -0.0181025   0.04983094 -0.01074745
 -0.13303622 -0.05019733  0.0438265  -0.01088608 -0.10971209  0.05319324
 -0.0442351  -0.13413981  0.05702858  0.01949796 -0.11098937  0.04055977
 -0.0554475  -0.06328978  0.11474503 -0.12623907 -0.07476758  0.00506032
 -0.01005759 -0.16710043 -0.06353984 -0.14034007 -0.03114389 -0.05870621
  0.18281433 -0.0217657   0.01869574  0.07181849  0.13197983 -0.05538866
 -0.20301749 -0.09853151  0.02679455 -0.05826752 -0.09823724  0.0034795
  0.04788819  0.05693666 -0.05181242 -0.03791078 -0.10152105 -0.01015914
  0.09888122 -0.09166069 -0.03461904 -0.11376259 -0.05487901  0.00438422
 -0.05986423  0.2189082   0.00101805 -0.02309472  0.02754726  0.00973458
  0.00142786 -0.02852406  0.00195037 -0.02150966  0.05190545 -0.05122087
  0.027818    0.08215143 -0.03198195 -0.11786758 -0.10779182 -0.15829375
 -0.00795643  0.03541736  0.03618435  0.02782009 -0.00431992  0.07506935
 -0.11498137 -0.00832341  0.04348033 -0.03461133 -0.09789594  0.05545877
 -0.05133051 -0.08586022 -0.04001265 -0.04335183  0.05781454 -0.00051003
 -0.00780284 -0.16359046  0.00958285 -0.06292413  0.13849993  0.01743035
  0.02149668 -0.07304101 -0.00239677  0.09676838 -0.00987059 -0.013412
  0.09759396  0.13749975 -0.10770891 -0.05186722 -0.11592158  0.02764224
 -0.00339744  0.02423181 -0.05232356 -0.06523401 -0.0353687  -0.05014302
 -0.0211006  -0.05659725  0.0406128  -0.07881104 -0.0464281  -0.0272532
  0.03670206 -0.14447403 -0.09270018 -0.06683134  0.02625543  0.0863128
  0.02556055 -0.04925936 -0.11732426  0.11694867 -0.00844435 -0.02449968
  0.02294105 -0.02931365 -0.01771913  0.07126728 -0.07082128  0.02185394
 -0.08883438  0.12147096 -0.02669289  0.10975871 -0.02795055  0.05628862
 -0.02580562 -0.09246594 -0.17524943 -0.09145385 -0.03526448  0.13578219
 -0.13173663 -0.12049074 -0.15321668  0.10366729  0.04534998  0.02379268
 -0.05500678 -0.02397761 -0.16161539  0.08239213  0.10801732  0.01003726
 -0.02704716  0.02741923 -0.01932634 -0.02656358 -0.04526629 -0.03868728
  0.1120238   0.08588987  0.00785679 -0.00096443 -0.06736146 -0.12618276
 -0.00063964  0.01563752 -0.1088114   0.04780965  0.09276555  0.02945104
 -0.03613599  0.00760567 -0.01556604 -0.1270798  -0.02980694  0.08393327
  0.0144622  -0.13703526  0.048324   -0.0042146  -0.13139682  0.09019555
  0.03838945 -0.16479836 -0.12571391 -0.07560463 -0.11578398 -0.13501953
  0.09330758  0.02101753 -0.07725885 -0.05213181 -0.05609313 -0.00636209
 -0.03633406  0.14422818 -0.12272303  0.02739193 -0.02244052 -0.02192447
  0.00766896 -0.1069236  -0.08773345 -0.05981741 -0.15552097 -0.06132153
  0.13834876 -0.12592407 -0.18194307 -0.02391884  0.08291808  0.06394199
  0.1171792   0.14596117 -0.18868597 -0.08348798  0.00649323 -0.00881988
  0.16240207 -0.10268612  0.01627372 -0.08443116 -0.0934321   0.01835499
 -0.04846697 -0.01062374  0.11953438 -0.02571371 -0.02822069  0.05252956
  0.08360178 -0.03188717 -0.11655042 -0.01004004 -0.01595193 -0.09098554
  0.12952593  0.01510179 -0.01438832 -0.04016715  0.0372373  -0.03875835
 -0.03294847 -0.01659618 -0.08233006  0.04225378 -0.10625307 -0.00104795
  0.04900066 -0.02796687 -0.05601942 -0.0424479  -0.02756101  0.01754474
  0.09589953 -0.036392   -0.04524483 -0.12602485 -0.03784336 -0.13238398
  0.02254786 -0.05749708 -0.21183769  0.00065166 -0.08976794 -0.0929339
 -0.0770808   0.04355687 -0.055476   -0.03030466  0.00945212 -0.08083567
 -0.12886569 -0.02639933  0.02744127  0.01573777  0.0170937   0.00774929]
Node 15: 
[ 0.3683493   0.28559588 -0.22277477 -0.26941885 -0.2669795   0.33225369
  0.26760479  0.24382633  0.04696955  0.29510884  0.03981264  0.08669518
  0.2820425  -0.14061813 -0.30736447  0.29487468 -0.10069902 -0.24714696
 -0.13742822  0.28727582 -0.26944169 -0.21204178  0.23532623  0.23449431
  0.21778579 -0.23801743  0.31600371 -0.1499672  -0.18272601  0.1251409
 -0.03860314 -0.17974379  0.08882348 -0.15821425 -0.17238412  0.24993698
 -0.24019821 -0.01305918 -0.22463023  0.20222357  0.16832553  0.26487717
 -0.15083034  0.17737965  0.18358337  0.14594754  0.25765109  0.35571413
  0.1356231   0.02882498  0.16551485 -0.24405364 -0.06146573 -0.30363279
 -0.26905259  0.29342521  0.14270099  0.24963729  0.2315759   0.28712824
 -0.16449814  0.2220178   0.23843898  0.0938185   0.26685561 -0.27487216
 -0.17721786  0.27660987  0.1563477  -0.1352879  -0.23307835  0.25225617
 -0.06770796  0.30053282 -0.31195777 -0.28833533  0.25716153  0.33695096
 -0.26164852  0.11311126 -0.18493545  0.27502411 -0.1776488   0.25363924
  0.30679703 -0.18191455  0.25597019  0.24664703  0.20494019  0.30836565
  0.22709903  0.32400353 -0.2286557   0.33110008 -0.18846701  0.01047629
  0.24392121 -0.26640734  0.30295299  0.2052476  -0.10764692  0.28185752
 -0.18846727  0.12572946 -0.31770374  0.25205704  0.30721779 -0.22517086
 -0.29456146 -0.18879208  0.23696091 -0.31698297 -0.21217985  0.35995937
  0.24178026 -0.03906551 -0.27786032 -0.11483651  0.32783035  0.28125608
 -0.22517123  0.18984736 -0.13166946  0.24413321  0.28637618 -0.29028492
 -0.24299367 -0.05802102 -0.40689912  0.24843878  0.27906839 -0.12967125
  0.14677427  0.34165006 -0.30723777  0.06861635  0.31339572 -0.2258902
 -0.18131966 -0.31000845  0.11405373  0.01966857 -0.22906636 -0.20721761
 -0.18486089  0.29386066  0.30757404 -0.00894898  0.0760954   0.2302106
 -0.00717181 -0.26453739  0.27706497 -0.27360095  0.16196294  0.21837227
 -0.0186051  -0.26879708  0.04097309  0.19364401 -0.15643655  0.24784828
 -0.22653365  0.27675264 -0.03702384  0.21176986 -0.25793505  0.27562553
 -0.16081157  0.14397275 -0.14864521  0.2986455   0.16405213 -0.2092148
 -0.14839562  0.31940089 -0.30963978  0.11583549 -0.24244883 -0.15779674
  0.32200962  0.18793488 -0.26050554 -0.19557121  0.15127954 -0.25279435
 -0.25197177  0.01841256 -0.18867528  0.23920555 -0.22528767  0.29728503
  0.31157547 -0.22192223  0.30483564  0.09775032  0.14324545  0.29561973
  0.2053701   0.12906014 -0.16199967 -0.21635375 -0.23217419  0.12481804
 -0.17165631 -0.10950016  0.0417904   0.20758169 -0.22548228  0.28905367
  0.31066946 -0.18745437 -0.12773227 -0.15239832 -0.19065377  0.16670184
  0.22814482 -0.08972033 -0.13624655 -0.27655146  0.2847835   0.20034424
  0.04714213 -0.17763122 -0.2860363   0.28040814 -0.18772781 -0.02288828
 -0.17179952 -0.21753729  0.34367786 -0.27878972 -0.21791335  0.0366617
  0.20824372  0.15483599  0.1332992  -0.21437695  0.22454264  0.25144395
 -0.11418628  0.1620447  -0.30493569  0.21725455  0.18135659  0.31248072
  0.24342108 -0.15665505  0.20403143  0.37370154 -0.27020276 -0.34145843
  0.27266868 -0.27605608  0.25346363 -0.12629408  0.20967577 -0.18678516
  0.15090533  0.14190048 -0.29072018 -0.24953926 -0.2741367   0.26558158
 -0.10603621  0.2624743   0.2750184   0.30849249  0.3010966   0.13535773
  0.20031697  0.30522756  0.19670244  0.24354381 -0.21849411  0.20883178
  0.11984235 -0.1790909  -0.28450485  0.20838959 -0.33037171  0.31636901
  0.23316322  0.10042234 -0.24204607  0.17020584 -0.20232002 -0.14244632
  0.16894742  0.17477321 -0.21627149 -0.26353565  0.31347027  0.2874914
 -0.23091449 -0.1476977  -0.23510038  0.15985653 -0.3150858  -0.19082537]
Node 16: 
[-1.39148081e-01 -1.71466025e-01  1.31648454e-01  2.20173606e-01
  9.52651507e-02 -1.66727571e-01  4.16059010e-02  1.45851006e-02
 -1.78943720e-01 -2.05395511e-01 -1.46395801e-01  9.61599603e-02
 -1.32925701e-01  5.68340023e-02  1.99928009e-01 -2.73688973e-03
 -8.63427437e-02  1.97000370e-01  4.81987204e-02 -2.02582822e-01
  7.45842495e-02  1.20061712e-01 -1.76400273e-01 -1.37844270e-01
 -1.37738466e-01  9.97329661e-02 -1.97072503e-01 -3.58978374e-02
  3.70964733e-02 -4.28444597e-02 -1.84371622e-01  1.05254748e-01
  3.99640254e-02  2.12398041e-01  1.54636827e-01 -2.46527772e-01
  2.22162763e-01 -1.98896252e-01  6.53504148e-02 -1.46770103e-01
 -9.38854384e-02 -1.17901557e-01  1.62069539e-01 -9.95381541e-03
  1.09814016e-01  7.22557749e-02  1.07064763e-01 -1.91834273e-01
 -1.20787867e-01 -1.28929972e-01 -2.02166296e-01  7.81310463e-02
  4.53966557e-02  2.27489296e-01  1.57722537e-01  5.65091519e-03
 -3.06834523e-02 -1.96195826e-01 -1.41989129e-01 -1.88826989e-01
  1.01663482e-01 -1.59909618e-01 -1.28257504e-01 -2.39694252e-04
 -7.66996233e-02  1.37162087e-01  1.44978135e-01 -1.33713448e-02
 -1.77509572e-01 -7.41209687e-02  9.72799826e-02 -8.17563350e-03
  1.32569773e-01 -1.71881027e-01  2.55198839e-01  2.24128196e-01
  1.25486183e-02 -2.33040504e-01  1.05284388e-01 -1.40425912e-01
  7.84872490e-02 -1.56281556e-01  1.53797691e-01 -1.61427857e-01
 -1.56016316e-01  2.10337141e-01 -1.71879393e-01 -1.46895253e-01
  6.34349444e-02 -2.01485516e-01 -1.67155848e-01 -2.43976130e-01
  1.14178274e-01 -2.43330919e-01  5.56179969e-02  1.41888752e-01
 -1.82427143e-01  2.48902254e-01 -1.04882234e-01  3.03355404e-02
  9.77590573e-02 -5.88546541e-02  6.23018052e-02 -9.29399401e-02
  1.26694674e-01 -1.01549945e-01  3.75016062e-02  1.29397592e-01
  1.61468648e-01 -7.75863340e-02 -9.72445060e-02  1.42286149e-01
  2.12660044e-01 -1.96577153e-01  3.43934701e-02  1.11687316e-01
  1.16624699e-01  6.21704147e-02 -1.89061445e-01 -1.57621990e-01
  1.95685513e-01 -7.85034806e-02 -1.23985124e-01 -1.63169615e-01
 -1.79288604e-01  1.34607528e-01  3.20250062e-02 -1.59758450e-02
  1.62540882e-01 -5.41601624e-02 -1.27228228e-01  1.08464125e-02
 -1.56556471e-01 -1.97010109e-01  1.05389363e-01  1.24323327e-02
  1.52663899e-01  8.84605928e-02 -5.05225466e-03  8.62874285e-02
 -1.36479870e-02  1.77727968e-01  2.24907210e-01  1.18751151e-01
  2.05165817e-01 -1.63951509e-01 -2.24710890e-01  1.06554398e-01
  1.26747475e-01 -1.28993386e-01 -8.36144005e-02  1.12412752e-01
 -2.39252615e-01  1.16241388e-01 -7.50615753e-02 -1.36653644e-01
 -1.18953638e-01  1.46306962e-01 -1.47196871e-01 -8.57229378e-02
  1.55320643e-01 -6.27190307e-02  1.73048175e-01 -1.75334420e-01
 -6.02694949e-02 -6.08916049e-02  9.20656939e-02 -2.77961596e-01
  5.47692429e-02 -1.16166236e-01 -1.26526502e-01 -8.14537162e-03
  9.95779440e-02  1.38926404e-01  9.18367011e-03 -1.44174903e-01
  1.92964999e-01 -1.44576603e-01  2.80765566e-02 -7.74086025e-02
 -1.44542968e-01  1.57006129e-03  6.66391225e-02  1.13200019e-01
 -4.31914444e-02  1.00377373e-01  2.14132294e-01  1.58455303e-02
 -7.95896740e-02  1.05547898e-02  7.30428312e-02 -9.84118404e-02
 -1.57307755e-01  2.12962231e-01 -2.42031380e-01  1.44331727e-02
 -4.22894705e-02 -8.79964348e-02 -1.53141594e-01 -7.43308099e-02
  1.93413187e-01  3.66334587e-02  1.46334584e-01  1.44295965e-01
 -9.56604306e-02 -4.48260487e-02 -1.32358877e-01 -1.93373736e-01
  9.46915508e-02 -1.13918767e-01  5.48673947e-02  2.13402702e-01
  1.51520567e-01  1.30774073e-01  1.19424611e-01 -1.05239264e-01
 -1.55390483e-01  6.54563626e-02 -6.64582844e-02  1.67155377e-01
 -6.91833392e-02 -3.24192884e-02 -8.40988636e-02  2.47559698e-02
  1.25905182e-01 -4.86315411e-02 -8.36422024e-02 -6.61781186e-02
  1.04816776e-01  9.55630698e-02 -1.71184289e-01  1.78392366e-01
  2.07354024e-01  1.05333810e-01 -8.10353744e-02  3.54824767e-02
 -4.98259820e-02  2.19268791e-01  3.76542989e-02 -1.23336487e-01
  2.13817664e-01 -7.83758415e-02  1.78267688e-01 -3.28698665e-02
 -5.93719662e-02 -1.99494675e-01 -5.20396078e-02  1.16840483e-01
 -7.87188075e-02 -1.66798259e-01  7.54752873e-02  2.48342251e-01
 -3.49059104e-02 -7.38693344e-02 -9.29784192e-02  6.46251946e-02
 -9.11885365e-02  1.83149909e-01 -1.02779384e-01 -2.32806416e-02
  2.17776554e-01  2.26878175e-01  2.04685668e-01 -1.95901464e-01
 -1.32362983e-02  1.60084764e-02 -1.33829524e-01 -4.81838926e-02
 -1.50600891e-01 -5.73146287e-02 -2.32393658e-01 -1.37532184e-01
 -1.86138277e-01 -2.29893614e-01  1.78317478e-01 -1.01138808e-01
  7.83209613e-02  1.83248180e-01  8.56114693e-02 -1.44411230e-01
  1.92508490e-01 -1.64117156e-01  5.17882040e-02 -1.04863196e-01
 -4.91673750e-03  7.56399866e-02 -1.47153691e-01  1.88957631e-01
 -1.42195188e-01 -1.88589023e-01  4.25357911e-02  2.33870608e-01
 -1.56383663e-01 -2.17205040e-01  6.45313083e-02 -3.83032171e-02
  2.31004427e-01  7.95162840e-02  1.73150286e-01  2.74701217e-02]
Node 17: 
[-0.00749106 -0.15262607  0.20971607  0.21893345  0.17374647 -0.23659784
  0.00418796 -0.17344962 -0.0726802  -0.05032874  0.02335894 -0.09678801
 -0.2358297   0.23901515  0.2700461  -0.26009368  0.13519846  0.24328595
  0.16784162 -0.2065834   0.14746224  0.19454578 -0.26001004 -0.21208007
  0.05435222  0.14187299 -0.05945721 -0.08618227  0.15371604 -0.21918664
  0.1488022   0.10560556 -0.00447184  0.11453153  0.13519927 -0.15979835
  0.21780635 -0.00244334  0.18169031 -0.16467485 -0.0722089  -0.10171138
  0.16784589 -0.20731018 -0.13812091  0.13602515 -0.03925118 -0.1283581
 -0.12915403 -0.04044888 -0.08140646  0.17598298  0.15538118  0.25009469
  0.15711272 -0.27593997 -0.17253142 -0.16485017 -0.15877172 -0.19888796
  0.13362359 -0.19127249 -0.22697954 -0.10303895 -0.03737079  0.17608252
  0.17196511 -0.05150899 -0.16134705  0.08385089  0.26165139 -0.20481591
  0.0883856  -0.20497939  0.22617176  0.09622223 -0.17173444 -0.12990952
  0.2891418  -0.09300747  0.24406218 -0.20282522  0.13697017 -0.09239056
 -0.21249098  0.11292043 -0.21414334  0.0189833  -0.1774052  -0.22960584
 -0.12449783 -0.11525736  0.13947392 -0.15288593  0.10529557 -0.07261104
 -0.12277996  0.21407884 -0.081968   -0.17526505  0.02532258 -0.19961707
  0.18440489 -0.02592241  0.17900689 -0.02860928 -0.06394258  0.17550276
  0.21499064  0.25239241 -0.18200588  0.14672268  0.11883194 -0.16601654
 -0.03911909  0.12464609  0.18342519  0.14614874 -0.12245284 -0.15277747
  0.18640835 -0.21845077  0.08281778 -0.16662017 -0.11739008  0.13092916
  0.19657295  0.08657835  0.24041232 -0.12327178 -0.18701027  0.25037729
 -0.10418544 -0.20734038  0.25947861  0.14216515  0.06179093  0.22523397
  0.11978838  0.21276859 -0.10753077 -0.04749211  0.19434852  0.14006842
  0.04342612 -0.12959204 -0.20001532  0.00831871 -0.10104752 -0.14291474
 -0.06494377  0.1684549  -0.13350037  0.16033623 -0.12953308 -0.22772608
 -0.02111113  0.13087126 -0.08044198 -0.16562785  0.12372953 -0.19694526
  0.014199   -0.24491418 -0.01586824  0.05297743  0.18307518 -0.24873094
  0.17906268 -0.18734777  0.13005532 -0.13591444  0.08938079  0.02151734
  0.0961487  -0.15902096  0.18774203 -0.10825737  0.24623399  0.23669201
 -0.18443981 -0.12211962  0.21638092  0.1717947  -0.08355215  0.25837511
  0.18372708 -0.13069083  0.0151865  -0.02076186  0.13518931 -0.24529351
 -0.14153456  0.2093378  -0.17062516 -0.13616702 -0.15993053 -0.22830833
 -0.13318568 -0.01383549  0.1825708  -0.03947066  0.13263123 -0.14595111
  0.05535105 -0.06177151  0.04895156 -0.17641255  0.17108016 -0.20366588
  0.04254335  0.20321409  0.10826737  0.22685502  0.16705378 -0.060191
 -0.14363887  0.00550731  0.2155025   0.16075541 -0.11872167 -0.16685821
 -0.18605079  0.05126299 -0.06798441 -0.17182906  0.15474842  0.0860469
  0.21658971  0.03365392 -0.15093674  0.22065376  0.12527167  0.15819413
 -0.1264857   0.13009547 -0.0542262   0.13412968  0.0388866  -0.15414959
  0.14533748 -0.18998887  0.23437126 -0.17900191 -0.09187309 -0.11887775
 -0.26836253  0.21498511 -0.03385681 -0.06458627  0.21953109  0.14647539
 -0.16789107  0.22621945 -0.07654719  0.12331291 -0.25357575  0.17477068
 -0.11986855  0.08131709  0.07566062  0.16388563  0.12549576 -0.22141318
  0.13186239  0.07632921 -0.19403959 -0.19993604 -0.22281292 -0.13641469
 -0.10493535 -0.16208537 -0.13766428 -0.1529475   0.08566266 -0.16597214
 -0.03454646  0.15547231  0.15031261 -0.14019449  0.26386392 -0.11779697
  0.15378722 -0.19888947  0.05049325 -0.18134683  0.11823137  0.0128124
 -0.14716676 -0.1680072   0.17803435  0.13431256 -0.17775658 -0.12063915
  0.19999357  0.11357043  0.12711519 -0.01406601  0.27575754  0.1659097 ]
Node 18: 
[ 0.04685123 -0.05083771  0.14886837  0.0885795   0.12962175 -0.09970091
  0.13880249 -0.14574684 -0.08973876  0.02717225 -0.1282405   0.00526538
 -0.14302428  0.09331226  0.00194474  0.03066882 -0.03834528  0.07901321
  0.06130272 -0.02386662  0.05335791  0.08783697 -0.14243794  0.01221188
  0.03643671  0.03813309  0.22450459 -0.13047389  0.06412207 -0.02531343
 -0.13617718  0.03587687  0.18108591 -0.01066243  0.04291345 -0.0103366
  0.06278479 -0.08495302 -0.07555259 -0.18213631 -0.03016319 -0.06581343
  0.12303925 -0.09440342  0.0973171   0.18209568  0.14923311 -0.13837827
 -0.12356253 -0.16100345  0.04170541  0.08196405  0.10563406  0.03467271
  0.03539733 -0.01569955 -0.07105873 -0.08898448 -0.1408547  -0.02980155
  0.15365587 -0.0672754  -0.07311775 -0.10603411  0.05562351  0.10635828
  0.03287383  0.18178804 -0.00695383 -0.03083132  0.07669916  0.07051415
  0.03905406  0.04646439  0.1118279  -0.12068256  0.07276256 -0.00700363
  0.14670633 -0.02288339  0.00652381 -0.0545599  -0.18191071 -0.17951071
 -0.00783302  0.17400656 -0.06972832  0.0459146   0.06147319  0.10258529
 -0.1300333  -0.1266002   0.12797839 -0.08259494 -0.02967247  0.01357084
 -0.09478699  0.11962854 -0.0477589  -0.08706445  0.08812102 -0.14609559
  0.13809399 -0.01013805  0.02160714  0.16571345  0.1766489   0.02374234
  0.03643812 -0.13762083 -0.04854537  0.0548982   0.13845191 -0.00154178
  0.11957888  0.12826144  0.09224892  0.08524708 -0.11121741  0.01347931
  0.14949631 -0.01413735 -0.0705078  -0.06716734 -0.04782913  0.07138187
 -0.08306298 -0.03501057  0.05870354  0.01426429 -0.01093457 -0.20599575
 -0.05513702 -0.09576484 -0.03187045  0.11912186  0.23953157  0.14696536
  0.03841126 -0.11135272 -0.12153751  0.11723817  0.12290499  0.09524501
  0.07810922 -0.11939291 -0.07509501  0.06562206 -0.05978915  0.09464422
 -0.15746126  0.07645534 -0.06128465  0.10036071 -0.01708001 -0.00363608
 -0.04093357 -0.03922553 -0.12724076 -0.06683046 -0.05636729  0.09793274
 -0.1946905  -0.03494714 -0.06242187  0.16487124  0.12836482 -0.02080099
 -0.03920326 -0.07930852 -0.11813631  0.03219874  0.13108127 -0.07105475
  0.0744774   0.02258964  0.10877033 -0.02044862  0.14933861 -0.1294145
  0.0781661  -0.03674681  0.15040098  0.08934276 -0.13500051 -0.14788449
  0.09437143 -0.12012483 -0.12172575  0.12707539  0.16286545 -0.0596353
  0.01856457  0.07039481 -0.11214375 -0.0197508   0.01240742  0.06687351
 -0.12578644  0.10997348  0.07308011 -0.16378686 -0.07195186 -0.00830706
 -0.03664727 -0.14102048 -0.06780464 -0.08235391 -0.03819434 -0.05328201
  0.16577472  0.04359818  0.07066981  0.09350727  0.08917607 -0.0478298
 -0.14580942  0.01141544 -0.06121891  0.04466088  0.11252812 -0.01837945
 -0.04226983 -0.23569082 -0.12659703 -0.01661983 -0.07025724 -0.01584311
  0.07662652 -0.1167692   0.01815995 -0.00050923  0.05384779  0.11772791
 -0.00406792  0.10276736 -0.06980722 -0.06234084  0.16357669 -0.05085977
  0.17595616 -0.10761738  0.16258846 -0.05698341  0.07589253 -0.03857848
  0.01967607 -0.01547077  0.2128254   0.02536452  0.08936849  0.17130205
 -0.04440519 -0.14447406  0.10750503  0.14068875 -0.01380339  0.05155231
 -0.0401145   0.14789395  0.02824291  0.04835094  0.11663723 -0.12142694
 -0.00330947  0.22302229 -0.11374522  0.07896395 -0.22386748 -0.09045863
 -0.01268851 -0.03614302 -0.10282504 -0.1453703   0.12010371 -0.05464966
  0.07923226 -0.03660067  0.14339097 -0.02900233  0.10127685 -0.19744431
  0.0765058  -0.1840677  -0.16562674  0.08318105 -0.23097162 -0.09150404
 -0.05044851  0.02624006 -0.0143822   0.04025606 -0.03136822 -0.11991687
  0.151022   -0.17305536 -0.01736338  0.14339904  0.00983609  0.01178658]
Node 19: 
[ 1.45583634e-01 -1.01838247e-01 -1.23882803e-01  7.26303439e-02
  7.01907413e-02 -1.03179743e-01  2.23627163e-02 -9.55009922e-02
  1.96103092e-01  1.30156299e-01  1.27256602e-01 -2.25861244e-01
  1.05552469e-02  9.53500173e-02  1.66212893e-01 -1.25445513e-01
  1.80830052e-01  1.94975939e-01  6.70135532e-02 -1.25835997e-01
  1.41067141e-01  3.30926467e-02 -1.02636173e-01 -1.77184807e-01
  7.29427520e-02 -9.14553585e-02 -3.48752500e-02 -5.57574179e-02
  2.25276712e-01 -8.86156041e-02  1.07744643e-01  6.22478382e-02
 -5.38990302e-02 -3.96151838e-02 -1.62056243e-01 -9.82111675e-02
 -1.72239269e-02  1.27826854e-01  1.77663112e-01 -5.25192420e-02
  7.25803606e-02 -3.63914222e-02  5.74986828e-02 -1.38606815e-01
 -1.65838101e-01  1.99797699e-03 -7.56940757e-02 -1.73807473e-02
 -5.72381090e-03  2.48777726e-03  1.30131081e-01  1.35575145e-01
 -5.49248469e-02  8.22804818e-02  8.35385979e-02 -1.14483702e-01
 -5.53753638e-02 -1.91239596e-01  1.16280493e-01  1.51189320e-04
 -1.74508864e-02 -6.92865940e-02 -9.08743202e-02 -1.20930540e-01
 -2.11586005e-02 -9.12536368e-02  3.06248003e-02 -1.19489987e-03
 -5.68809155e-02  2.02719978e-01  1.98652147e-01 -8.26020340e-02
  7.55015738e-02  4.63262777e-03  1.17630817e-01 -5.83872226e-02
 -1.14612904e-01  1.27435163e-01  5.91959024e-02 -1.32074222e-01
  1.18829770e-01 -1.71537266e-01 -7.01397855e-02  4.82374911e-02
 -9.44091586e-02 -3.07987673e-02 -1.40230037e-01  1.23162037e-01
 -1.82331878e-01 -4.20179300e-02 -4.77832942e-02 -3.53553534e-02
  3.28975187e-02 -8.43157932e-03  3.88643928e-02 -4.92307798e-02
 -1.04776376e-01  2.14532008e-01  6.83264669e-02 -1.36117646e-01
 -1.63852336e-01 -1.68975445e-01  1.90040038e-01 -6.65110976e-02
 -4.48810708e-02  2.03407503e-03 -9.37775703e-02  9.30215487e-02
  8.19621133e-02  1.34739821e-01 -1.32295866e-01 -1.85465721e-02
 -4.25207542e-02  6.32481054e-02 -3.85154193e-02 -8.52741829e-02
 -9.13307955e-03  2.04787099e-02 -2.15621297e-02  5.26753760e-02
  3.05260278e-02  7.75440022e-02  5.24282976e-02 -7.07572936e-02
 -7.92617727e-02  1.27995863e-01  1.39915445e-01  1.28501741e-01
  5.35057771e-02 -1.68666048e-01 -1.82171096e-01  5.75196737e-02
  1.15284089e-01 -1.72387279e-02  6.29723071e-02  3.41936919e-02
  8.29067587e-02 -5.53369808e-02  1.98195882e-01 -2.98973443e-02
 -1.37375091e-01 -2.02965184e-01 -6.60265480e-02  1.92141496e-01
 -1.18523059e-01 -5.90015622e-02 -1.71647496e-02 -1.78174117e-01
 -1.57344568e-01 -5.82659705e-02  8.70500846e-03  6.44130833e-02
  9.57460704e-02  1.42799769e-01 -2.35761778e-01 -3.60957397e-02
  1.40668336e-01 -1.52197676e-02  4.50818341e-02 -1.91874891e-01
  1.60121264e-01 -1.21138637e-01  2.72660955e-03  3.66157758e-02
 -3.29170165e-02  6.37566920e-03  6.18126995e-02 -1.35004561e-01
  1.25093572e-01 -3.58289153e-02 -2.66533260e-02 -9.86382127e-02
 -4.99045486e-02 -5.01841463e-02  9.40719861e-02 -7.27959513e-02
  2.42755372e-02  1.25817512e-01  1.49945067e-01  1.18427321e-01
 -6.97951617e-02 -1.07311322e-01  9.57826220e-02  1.21744040e-01
 -5.05935211e-02  1.27630846e-01  5.95565299e-02 -5.99635905e-02
  3.84626852e-02 -3.53921000e-02  1.64003223e-02 -1.06658185e-01
 -3.52237425e-04  1.34122433e-01 -2.44427127e-02 -1.38104899e-01
 -1.14714881e-01 -1.97423902e-01 -1.33103126e-01 -1.42869870e-01
  7.71338749e-02 -3.73345617e-02 -2.70779247e-02 -2.46889202e-01
  2.09261279e-01  2.17488411e-03  1.73882023e-01  8.00389627e-02
 -7.00325677e-03  3.35779762e-02 -7.94908639e-02  1.05975679e-01
  1.33136428e-01  1.40356203e-01  2.76949062e-02  1.04941771e-01
 -1.25066073e-02 -1.84124582e-02  1.63010624e-01 -2.71737281e-02
 -6.74008253e-02 -2.13694329e-01 -4.31583095e-02 -3.52124297e-03
 -1.15599037e-01 -1.42756140e-01  4.91659431e-02  1.88129026e-01
  8.61069271e-02 -3.44252192e-02  7.18877232e-02 -1.03189704e-02
 -6.83023532e-02 -9.85546456e-03 -2.77331011e-02  2.73624671e-02
 -4.94305530e-02 -1.01356171e-01 -1.40296266e-01 -1.83770092e-01
 -7.66663652e-02 -1.58516191e-01 -1.20205382e-01 -1.93873133e-01
 -1.57979073e-01 -8.97825642e-02 -1.33755380e-01  6.87035272e-02
  5.17798169e-02  6.51253562e-02  1.35334629e-01 -1.77123811e-02
 -1.51915545e-01  8.70694873e-02  1.49251812e-02 -1.97490423e-01
 -1.80499529e-01  7.17460450e-02  2.27914649e-02 -1.64859414e-03
 -1.31061932e-01  2.19872331e-01  3.63138302e-02 -3.63483613e-02
  1.07692290e-01  7.50034088e-02 -9.83273289e-02 -1.79237024e-01
  4.53921056e-02 -2.07874960e-01 -3.10801891e-03 -1.29462651e-01
 -7.90965879e-02  1.11648575e-01 -1.28132351e-01 -1.07818772e-01
 -2.21966236e-01 -5.91706446e-02 -5.45862189e-02 -1.47394265e-01
  7.03045695e-03 -1.23867823e-01  6.53722206e-02  1.37582954e-01
 -3.79911918e-02 -2.26407530e-01 -1.22107637e-02 -1.03286735e-01
 -1.43284742e-01 -1.31617710e-01  1.64650959e-01 -1.20223511e-01
  4.34257192e-02  1.79926506e-02  8.63274776e-02 -8.78204327e-04
  1.41300743e-01 -4.54422338e-02  7.70817635e-02  8.99848614e-02]
Node 20: 
[ 0.07260315  0.21075599 -0.1443824  -0.0754048  -0.16957382  0.05057836
 -0.04399262  0.23868811  0.11580446  0.08579787  0.13696206 -0.02990719
  0.12978491 -0.20913071 -0.18503288  0.07956864 -0.12952239 -0.14402328
 -0.08047654  0.14069373 -0.16862773 -0.10033407  0.18140409  0.18524772
  0.02027424 -0.08368227  0.08437392  0.05148266 -0.21935248  0.11928078
  0.00624768  0.1273667  -0.12169759 -0.01034826  0.04881628  0.09099218
 -0.04765458  0.07080025 -0.00367526  0.08228179  0.14971834  0.09737577
 -0.14412128  0.17142673  0.01270262 -0.03321231  0.07853337  0.06370483
  0.12972027  0.09867842  0.13923283 -0.10870654 -0.00290262 -0.10895955
 -0.16387845  0.20529908  0.17026475  0.14376132  0.09847947  0.08958603
 -0.14340657  0.10420337  0.11037305  0.16889894  0.04422749 -0.05431162
 -0.16756217  0.03493282  0.03069024  0.05684334 -0.26446092 -0.0352886
 -0.06676015  0.05727827 -0.10131197 -0.06488956  0.0827735   0.05375737
 -0.19899202  0.1395192  -0.07464094  0.12763794 -0.03866572  0.07384934
  0.11508329 -0.15018632  0.146787    0.0814778  -0.11063652  0.18753604
  0.06320495  0.11599302 -0.06271598  0.08325594  0.0429117   0.13369723
  0.21695761 -0.12847403  0.15686329  0.03472526  0.00896306  0.13550962
 -0.18042828  0.16823876 -0.13595202  0.03453159 -0.01000698 -0.13030822
 -0.1177459   0.01545328  0.13953784 -0.05526738 -0.13804685  0.11326711
 -0.02109586 -0.07452961 -0.11618859 -0.07444135  0.12743042  0.07798358
 -0.06482636 -0.00353721  0.060969    0.11561103  0.12814144 -0.12814658
  0.03583725  0.06816391 -0.14855699  0.20399869  0.13549554 -0.00789853
  0.10872129  0.10373619  0.14418368 -0.00665176 -0.03510672 -0.04672076
 -0.22395688 -0.11317199  0.23420516 -0.12667813 -0.10896478 -0.24410834
 -0.14488896  0.05047696  0.06605635 -0.14482068  0.07913489  0.00078153
  0.14257656 -0.12279329  0.14911325 -0.14032534  0.14674391  0.15266739
  0.11995052 -0.13379509  0.16153413  0.16131399 -0.03966271 -0.0256971
  0.18722832  0.19913513  0.06924211 -0.1022013  -0.14413849  0.17705123
 -0.10264699  0.07961948 -0.04583064  0.07804663 -0.08224705  0.10265245
 -0.07660917  0.10015704 -0.16524217  0.04061089 -0.19572547  0.03260817
  0.07792951 -0.05605716 -0.18186418 -0.19667337  0.1533924  -0.08984609
 -0.17264748  0.03153733  0.10734679  0.01543493 -0.15933537  0.16053465
  0.11668151 -0.0901283   0.13113953  0.13167608  0.12078124  0.10458917
  0.11203595  0.19557667 -0.16036346  0.062212    0.10624402 -0.05616618
  0.00993737  0.13708278  0.0980687   0.06028919 -0.00709737  0.16950923
  0.00881637 -0.18751711 -0.20333245 -0.23712009 -0.15417581  0.06322608
  0.14012914 -0.1236141   0.09341953 -0.16411479 -0.00569261  0.0904473
  0.14794338  0.08047679 -0.03780514  0.21609097  0.0380964   0.1431004
 -0.10535056  0.05944545  0.151336   -0.05413443 -0.1430955  -0.04952037
  0.02064998 -0.07796937  0.14081441 -0.10747524  0.01917892  0.17839184
 -0.11151281  0.14678795 -0.05891455  0.22485844  0.16455385  0.09967534
  0.12649256 -0.17906117 -0.00088935  0.06592448 -0.11916726 -0.10633509
  0.16226447 -0.10178985  0.12399355 -0.12346303  0.13292382 -0.12384901
 -0.09366565 -0.00565056 -0.10277214 -0.22973857 -0.05985245  0.07257241
 -0.20857257  0.07094111  0.12517879  0.05678338  0.15191679  0.24627775
  0.09798066  0.15396617  0.154086    0.15273617 -0.08206312  0.07442304
 -0.08275193 -0.10534154 -0.12465411  0.19668561 -0.11895704  0.06261562
 -0.04263612  0.10453571  0.05114396  0.04958039 -0.10373763 -0.03108965
  0.21541281  0.05232019 -0.13305124 -0.12677935 -0.04594149  0.07526032
 -0.20418418 -0.05966866 -0.08312159 -0.03962482 -0.14595134 -0.15377702]
Node 21: 
[ 2.24817122e-01  6.66051163e-03 -1.34010088e-01 -3.09676869e-02
  3.16593177e-02  7.20546012e-02  1.43117857e-01 -1.46835385e-01
  2.21418390e-02  1.52120352e-01  9.61739680e-02 -7.01440419e-02
  7.14885381e-02  6.74866185e-02 -7.25176556e-02  1.04883721e-01
  5.87787627e-02 -7.89783105e-02  1.06040218e-02  6.60611593e-02
  5.38160418e-03 -1.88715710e-01  7.48482226e-02  1.01208977e-01
  1.81692289e-01 -1.67366677e-01  1.57184483e-01 -9.32790249e-02
  4.11041646e-02 -2.91382008e-02  7.27213523e-02  1.31077888e-02
  9.13368535e-02 -1.41606135e-01 -2.00328734e-01  1.17008439e-01
 -9.24815057e-02 -3.74431229e-02 -7.68932505e-02 -9.20128571e-02
  1.07288879e-01  3.70324060e-02  1.03337888e-01 -1.19663947e-01
 -1.11942784e-01  7.00142717e-02  1.89805548e-01  2.46759378e-02
 -7.60860842e-02 -9.83460201e-02  1.24457842e-01 -6.14378416e-02
  2.18367843e-02 -4.92747171e-02 -4.38929001e-02  1.22017744e-01
 -1.30227027e-01  1.08162283e-01  2.50944801e-02  8.97474408e-02
  1.48901890e-01  7.90325101e-02  7.74614922e-02 -2.22290842e-01
  8.02775745e-02 -6.94452662e-02 -1.15270387e-01  2.31246900e-01
  8.07268304e-02  5.19262306e-02  3.79561062e-02 -3.19783256e-02
  4.51447879e-02  1.49416388e-01 -1.12653821e-01 -1.90201843e-01
  5.35405538e-02  2.02127238e-01 -3.95521786e-02  4.37075330e-02
  1.59090117e-02 -2.62926806e-03 -1.89657380e-01 -4.64802236e-02
  1.46062275e-01 -9.94621089e-02 -9.16179922e-02  2.08933087e-01
 -5.44961649e-02  1.24966035e-01 -6.52120245e-02  4.43264905e-02
  9.72536136e-03  1.99228315e-01 -7.57351753e-02 -1.77664385e-01
  7.13060743e-02 -8.63853891e-02  1.70001445e-01 -6.67533412e-02
 -1.36669693e-01  1.99347999e-02  2.20540431e-02 -1.19071626e-02
 -2.12941453e-01  1.46234821e-01  2.22787400e-01 -3.37259373e-02
 -1.21965732e-01 -8.54861462e-02 -3.99829377e-03 -6.98622175e-02
 -1.26153425e-01  2.01440307e-01  1.40710184e-01  6.11677114e-02
 -1.20348353e-01  6.62693132e-02  6.59769701e-04  1.60906380e-01
 -9.23311354e-02  4.23531408e-02 -7.46249853e-02  1.05048144e-01
  1.46966430e-01 -7.72739407e-02 -1.11738514e-01  7.07288164e-03
 -1.20173096e-01 -8.56255786e-02 -5.49893367e-02 -1.60720041e-01
  1.25281702e-01  7.50364370e-02 -3.45022181e-02  1.14491283e-01
  2.31407237e-01  7.99415867e-02  1.04330573e-01 -2.43116264e-01
 -1.98040495e-01 -4.49217916e-02 -6.62894578e-02  2.02793001e-02
 -1.61832285e-01  1.17090277e-04  1.23540743e-01 -3.51928350e-02
 -1.96574823e-01  1.39999767e-01 -1.53646298e-01  1.03990262e-01
  1.42116437e-01  5.74667361e-02 -2.89013619e-03  1.74267654e-01
  1.25146117e-01 -1.16074853e-01 -6.65907005e-02 -1.01951643e-01
 -6.46547000e-02  1.34340761e-01 -2.20541738e-01  7.87681252e-03
 -1.73944511e-01  1.32898185e-01  7.21030103e-02  8.82062031e-02
 -5.90626214e-02 -2.87144109e-02 -1.38776456e-01  1.50656557e-01
  1.45458132e-01 -2.26556106e-01  8.57055197e-02  1.38936188e-01
 -7.44232367e-03  9.91614818e-02  3.01343191e-02 -3.57071252e-02
  1.32008010e-01 -2.79526339e-02 -2.00831005e-02  4.65224116e-02
 -1.66040487e-01 -1.67250343e-01 -6.60045205e-02  1.04405135e-02
 -1.04077665e-01  1.28590034e-01  1.85239452e-02  1.59282514e-02
  1.47062261e-01 -9.15726739e-02 -2.45190584e-02 -1.71123573e-01
  4.89496583e-02  1.35318308e-01  2.87466339e-02 -4.23673519e-03
 -3.55434750e-02 -1.94293099e-01 -1.60869906e-01 -6.48128038e-02
  1.04963226e-01 -1.08518646e-01  2.89287642e-02  4.81506729e-02
 -1.05140457e-01  5.10801287e-03  1.72709278e-01 -1.51645604e-01
 -2.88628376e-02  3.99286912e-02 -1.58348916e-01  1.47011471e-02
  1.37371031e-01  3.12378467e-02  7.14819433e-03 -1.39709424e-01
  8.82618029e-02  1.19460595e-02 -1.14192286e-01 -9.48206776e-02
 -2.82837753e-01 -8.33516160e-02 -8.26699820e-02  1.26140573e-01
  5.12370475e-02 -1.64417380e-01  3.55877540e-02 -1.11958473e-01
 -1.31593235e-01  1.29429397e-01  1.76827409e-01  1.67735580e-01
 -7.88656873e-02 -2.02399323e-01  6.96720445e-02  2.12296513e-02
  2.72783529e-02 -6.60579963e-02 -1.46752163e-01  4.75167280e-02
  7.90726617e-02  1.31749216e-01 -6.08952492e-03 -5.77635027e-02
  2.47129457e-01  1.60166135e-01 -4.70539512e-02 -2.01494090e-02
 -3.61272124e-02 -7.67552839e-02  9.12356231e-02 -1.41196383e-01
 -5.48649260e-02 -1.57913922e-01  1.01353636e-01  9.21578390e-02
 -1.00576234e-01 -2.60769049e-02 -1.16872660e-01  1.10998408e-01
  3.96365880e-02  2.19401471e-01  3.09087833e-02 -3.90821909e-02
 -4.16875807e-02 -7.37329698e-02  1.71852060e-01  9.08650792e-02
  7.61051917e-02  8.65279302e-02 -2.72751994e-02 -6.55076746e-02
 -3.43491159e-02 -2.19216908e-01 -9.68779692e-02  2.78040542e-02
 -1.30879438e-01 -9.39803321e-02  4.90051167e-02 -2.89692762e-02
 -1.61654215e-01  1.54296031e-02 -1.45631359e-01 -1.50200837e-01
 -9.39461450e-02  7.37162381e-02 -1.22083900e-01 -1.44748992e-01
  6.43754191e-02  1.83361504e-01  2.17698252e-02 -1.50482231e-01
 -1.25420383e-01  1.75908808e-01 -1.40005647e-01 -1.13434810e-01]
Node 22: 
[ 0.26750285  0.16646962 -0.31064608 -0.27438591 -0.1297375   0.33877833
  0.083289    0.1131514   0.16405367  0.33748586  0.11784882 -0.10624975
  0.20716183 -0.14691632 -0.25619552  0.09038962  0.01859474 -0.16872459
 -0.11942936  0.22705281 -0.12613982 -0.28345898  0.19255058  0.11363259
  0.20484142 -0.24522094  0.20219116 -0.00348928 -0.12444429  0.04065649
  0.15267257 -0.08719224 -0.06393226 -0.26756116 -0.23456251  0.3088004
 -0.32035697  0.07482568 -0.05534878  0.22066998  0.27992084  0.17938681
 -0.15702258  0.11562144 -0.05981067 -0.04329401  0.10609453  0.36395294
  0.17696214  0.074332    0.25868043 -0.15080302 -0.16195254 -0.14721794
 -0.32325677  0.10601347  0.02397301  0.18735414  0.19522198  0.18682402
 -0.19530767  0.28475025  0.21799756  0.01331154  0.06051507 -0.23497203
 -0.23363298  0.08739204  0.10417087  0.07006829 -0.17109149  0.00542441
 -0.19559024  0.14496671 -0.23810257 -0.18231406  0.03279484  0.3443275
 -0.21147877  0.09809552 -0.06065847  0.25015363 -0.07298536  0.22363651
  0.20242072 -0.19553231  0.21307023  0.29733119 -0.01948888  0.16911458
  0.30029456  0.30539746 -0.24022968  0.2665728  -0.17388341 -0.03934118
  0.19641585 -0.11773847  0.21868216 -0.00248277 -0.32363909  0.17014995
 -0.17800432  0.07407312 -0.36156759  0.20149206  0.12268853 -0.19035578
 -0.20628563  0.03141948  0.31661065 -0.34247231 -0.29872845  0.27806331
  0.1073224  -0.17729007 -0.18734547 -0.02675368  0.21969751  0.20289832
 -0.33324923  0.21684123 -0.00287873  0.1636799   0.23064437 -0.18847224
 -0.07384847  0.03131063 -0.21333413  0.08418165  0.15647485 -0.12131403
  0.25397309  0.25100388 -0.14168182  0.0138651   0.08473297 -0.13262908
 -0.1309409  -0.24340511 -0.07474729 -0.07941885 -0.27885288 -0.17868195
 -0.29198392  0.24330955  0.23904248 -0.10884054 -0.07266898  0.11861485
  0.03677958 -0.18898497  0.29698712 -0.24067622  0.05877033  0.16770923
  0.11590803 -0.2957567   0.16219459  0.1624303  -0.16989314  0.03280835
 -0.12619687  0.31810748  0.06809077  0.0475506  -0.20181889  0.25248835
 -0.13410186  0.21212731 -0.11411992  0.1203038   0.03512538 -0.28936727
 -0.08153393  0.19329999 -0.28274963  0.15950172 -0.18838111 -0.06241901
  0.17083631  0.01063024 -0.15522134 -0.14340593  0.05906836 -0.05894825
 -0.1902109   0.041258    0.00263478  0.15330964 -0.1931548   0.13470322
  0.31540625 -0.2908597   0.25099626 -0.04943628  0.07985863  0.18285819
  0.20861721  0.03909593 -0.19355421 -0.18867525 -0.13087946 -0.07624655
  0.03293249 -0.04694319  0.19892457  0.25816602 -0.07775756  0.20138125
  0.01594603 -0.17488718 -0.14234301 -0.14158487 -0.23031382  0.23454189
  0.27300053 -0.09915833  0.01978603 -0.32982348  0.06549025  0.06592534
  0.02791702 -0.14035151 -0.30183098  0.17444934 -0.07406641  0.01440845
 -0.26939171 -0.13517183  0.26159533 -0.33820339 -0.31483136 -0.03686104
  0.27479868  0.02318807  0.04164777 -0.25316857  0.03409891  0.23563807
 -0.15895129 -0.00627413 -0.35229545  0.10089073  0.15843992  0.25307679
  0.12932108 -0.10292842  0.14734244  0.29856927 -0.0728054  -0.2397799
  0.20638847 -0.14169856  0.22037355 -0.20625903  0.05994936 -0.13939261
  0.14998878 -0.04395477 -0.23336469 -0.1633131  -0.30651765  0.30816685
 -0.05061121  0.15249453  0.16805533  0.09449323  0.20355713  0.11568679
  0.2213047   0.20774421  0.17123829  0.35418706 -0.27822985  0.01767095
 -0.04923617 -0.28430289 -0.29879198  0.20146643 -0.2695108   0.18402753
 -0.01744991  0.22047865 -0.09219135  0.04751981 -0.12697196 -0.22242961
  0.10962824  0.10399598 -0.11674783 -0.3590686   0.22613774  0.23476534
 -0.09140371 -0.09526614 -0.16651749  0.11831176 -0.18627169 -0.17281269]
Node 23: 
[-0.14670802 -0.16596564  0.19057436  0.1713866   0.0874287  -0.14837363
  0.01970809  0.02919282 -0.10668527 -0.18253758 -0.16556781  0.22264845
 -0.17621145 -0.02839191  0.15023639  0.09651483 -0.07756054  0.20432537
 -0.0315458  -0.08816285  0.08816772  0.14658105 -0.1448024   0.01625797
 -0.13368865  0.12961385  0.03090849  0.04508986 -0.00185169 -0.08125551
 -0.21657815  0.07759543  0.16645334  0.04671157  0.08610995 -0.24080126
  0.15368391 -0.11471535 -0.08716914 -0.23620894 -0.13692219 -0.16299107
  0.1938094   0.0169679   0.15695012  0.10417493  0.0953627  -0.18748711
 -0.16844281 -0.21225934 -0.23164685  0.12316048  0.11966009  0.17362062
  0.10589289  0.11372048 -0.08593906 -0.21077062 -0.17688648 -0.13109037
  0.14880821 -0.17886371 -0.13677372 -0.03074139  0.12559178  0.2472731
  0.17336466  0.06127703 -0.08798151 -0.08796129 -0.06974549  0.09070676
  0.05366977 -0.01190069  0.14005521  0.00234855  0.04837822 -0.22311075
  0.17374056 -0.07179257 -0.01093404 -0.19780844 -0.11128785 -0.2120236
 -0.06882275  0.23147265 -0.12209617 -0.14663151  0.21546507 -0.09145634
 -0.25970121 -0.23030879  0.23293837 -0.14519381  0.03379253  0.00685767
 -0.11326148  0.132413   -0.14432795  0.12155054  0.08068127 -0.10373625
  0.11008986  0.00404124  0.25897431  0.04271392  0.07072192  0.07345836
  0.14688095 -0.09029768 -0.24119078  0.26098894  0.24401464 -0.15913726
  0.11596734  0.11361606  0.11639068  0.03885946 -0.06030835 -0.084395
  0.27740054 -0.17574143 -0.08954549 -0.14562304 -0.15527323  0.17426021
 -0.01764493 -0.08236407  0.23151519 -0.03511304 -0.04416909 -0.08437768
 -0.19462498 -0.26556299  0.09650816  0.04882776  0.01072085  0.19394969
  0.0548018   0.10780495  0.03357581  0.18086065  0.23114001  0.0943394
  0.24991524 -0.22264589 -0.12415898  0.12359867  0.19545604  0.08752218
 -0.1011043   0.19833744 -0.16546171  0.12491914  0.00642593 -0.03479352
 -0.20208024  0.06324559 -0.13015068 -0.03158809  0.06438537  0.05493564
 -0.06820796 -0.23164832 -0.11013892  0.24872685  0.17623755 -0.14338765
 -0.01593123 -0.14126752 -0.00262789  0.01179311  0.07310521 -0.0437588
  0.01262189  0.02102898  0.18055134 -0.22567667 -0.00731359 -0.0723533
 -0.08269282 -0.02526078  0.15523418  0.04388138 -0.03103154 -0.00371507
  0.17362805 -0.08019586 -0.18721828  0.03758788  0.15344386 -0.14958893
 -0.11213818  0.16822371 -0.13965743  0.03272752  0.04857728 -0.08390311
 -0.16829948  0.05989291  0.16970743 -0.086883    0.04158549  0.17521712
 -0.07650911 -0.10321588 -0.16109263 -0.15333567 -0.02746879 -0.19752877
  0.05864961  0.21114467  0.10306328  0.01015831  0.21861769 -0.19171148
 -0.23573431  0.10300302 -0.04544649  0.22376846  0.10336535  0.13762944
  0.03345879 -0.13335948  0.16002895  0.03312593 -0.15117672 -0.10128419
  0.19151487 -0.00757942 -0.20755497  0.19411886  0.12969453  0.23698309
 -0.05081588  0.05220601 -0.07807723  0.10996939  0.04578009 -0.06791212
  0.20034265 -0.04538803  0.1689587   0.04246924 -0.02638567 -0.2194716
  0.03104997  0.04496386  0.08526373 -0.13283232  0.07717727  0.21043286
 -0.01596125 -0.09663431 -0.06534428  0.11516943  0.00076243  0.06565133
 -0.00033193  0.04733602  0.2196981   0.01943315  0.12056656 -0.20400243
  0.1375326   0.04700334 -0.14522212  0.11480222 -0.21660878  0.06337798
 -0.12163087 -0.12886831 -0.12964082 -0.17683133  0.21031696 -0.11061092
  0.11860471  0.15845195  0.25083969 -0.04803766  0.22113096 -0.15203843
  0.04311662 -0.21301799 -0.09822924  0.12343305 -0.08094847  0.04304641
 -0.03399001 -0.06258636  0.03927123  0.08099753 -0.11343784 -0.15202958
 -0.01969491  0.0028524   0.07800197  0.05994424  0.10099437  0.03309453]
Node 24: 
[-0.03999621 -0.09656489  0.04504543  0.0475511   0.08964898 -0.10887803
  0.0109737  -0.05253534 -0.08508412 -0.03905705 -0.00764189 -0.00939761
 -0.052648    0.15008565  0.16211028 -0.02350422  0.05435157  0.06667962
  0.10583866 -0.16769458  0.13128017  0.17151809 -0.04025812 -0.09144264
 -0.03766027  0.05593549 -0.14193135 -0.11094552  0.22106927 -0.04929327
 -0.00167192  0.05594361 -0.06929947  0.03902578  0.00430351 -0.08502676
  0.02426757  0.0344466   0.15980283 -0.14445948 -0.08748236 -0.14111176
  0.08624752 -0.13129231 -0.12205401  0.04819651  0.01240054 -0.14212785
 -0.07960489 -0.0349412  -0.07267399  0.03092662 -0.01234637  0.07396707
  0.11950875 -0.11815487 -0.06841149 -0.12367863 -0.06656986 -0.14848154
  0.11650352 -0.17088929 -0.16477714 -0.00086074 -0.12710386  0.09458947
  0.06386886 -0.01011747 -0.1079531   0.12702161  0.17539193 -0.07154512
  0.08670933 -0.04170974  0.08085568  0.10680666 -0.08807093 -0.04732142
  0.01276516 -0.19328654  0.08231438 -0.12645319  0.11605012 -0.14318759
 -0.10035218  0.0983104  -0.12222927 -0.03355968 -0.00197291 -0.12938913
 -0.02060117 -0.12037523  0.13952988 -0.03936328  0.06454759  0.07045591
 -0.15311567  0.14011708 -0.02094496 -0.13759136  0.09001369 -0.09584935
  0.03550143 -0.01350637  0.05092202 -0.092252   -0.05368417  0.1607421
  0.14943253  0.04332292 -0.13619413  0.0107016   0.05973968 -0.05676618
 -0.03380213  0.02060991  0.10394968  0.08119229 -0.06889434 -0.14821726
  0.02557405 -0.02220032  0.11340522 -0.0990891  -0.15604552  0.14991255
  0.11601873  0.01150829  0.03277307 -0.12231622 -0.07319491  0.1196428
  0.0221023  -0.12942378  0.03005176  0.01843402  0.05782155 -0.05181144
  0.09797903  0.03756615 -0.03970018 -0.0116161   0.0393399   0.11861694
  0.04319475 -0.02017035 -0.03386065 -0.06913943 -0.04446215 -0.1401047
  0.02340278  0.02572094 -0.01533485  0.03747888 -0.10083192 -0.04736252
  0.02300747  0.10869733 -0.00516152 -0.04776255  0.18550348 -0.1292215
  0.10358979 -0.07707293  0.0086708  -0.03275624  0.01018051 -0.15104798
  0.17767687 -0.01811716  0.03282399 -0.09896679  0.06371894  0.0976957
  0.08190402 -0.13567632  0.08958598 -0.02344823  0.1872969   0.0868948
 -0.15829482 -0.11472325  0.08583823  0.17728919 -0.07760168  0.11767997
  0.12238431  0.02343604  0.07799578 -0.09388016  0.09391064 -0.13498391
 -0.04449156  0.09784393 -0.14030142  0.0261045  -0.1422097  -0.19654579
