Node 0: 
[-0.07512355 -0.00533512  0.01751402 -0.05634321  0.12575857 -0.09727331
  0.08114964 -0.06533412  0.0030171   0.02103207  0.0487118   0.0210307
 -0.07053486 -0.0283534  -0.03007667 -0.08108266 -0.06770603  0.05914272
 -0.05364197 -0.0973058   0.06411944 -0.07644409  0.00900079 -0.07829731
 -0.06896808 -0.00258875 -0.00323479 -0.05079513  0.08755849 -0.06318283
 -0.07338394  0.0427515  -0.0736815  -0.0807693   0.06416931  0.0134761
 -0.07975476 -0.02350968 -0.00864136 -0.09693321  0.05661805 -0.04054245
 -0.11117019  0.09062502 -0.04421728  0.03188098  0.05611872  0.02196432
 -0.1025786   0.06536911 -0.0342164  -0.01668435  0.00941736  0.10972556
 -0.00709182  0.08076578 -0.00961795 -0.07301046  0.00955985 -0.03071337
 -0.0144346  -0.01844705  0.00990763 -0.05952869 -0.05046676 -0.00963914
  0.01572632  0.06119628 -0.04814454  0.0148089   0.0183066  -0.06381152
  0.02558912 -0.07147006 -0.11653625 -0.01439203  0.08850106  0.00165943
 -0.00153387 -0.01638469  0.06760608 -0.04405286 -0.1331263  -0.00996526
  0.00294172 -0.01689336  0.02025129 -0.05066572 -0.04034085  0.02448243
 -0.03607411  0.02944719  0.08375174  0.03367551 -0.00099191  0.04437189
 -0.03365625 -0.03993136  0.00820821 -0.07413812]
Node 1: 
[ 0.0970817  -0.07709865 -0.07933243  0.01769292  0.09740445  0.14532767
  0.04520782 -0.17898669  0.0311356   0.27067587  0.22960219 -0.09358407
 -0.18902762  0.03106887  0.14259574 -0.07953723  0.00215803  0.13952143
 -0.05029541 -0.05495977  0.05750016  0.05310807  0.13815242 -0.06993937
  0.28398811  0.01915848  0.040678   -0.24472501  0.00033    -0.09093964
 -0.18427139  0.06985091 -0.12467709 -0.01341089  0.21994619  0.01016657
 -0.20059904 -0.23232364 -0.03057483 -0.03104311  0.02301717  0.01336545
 -0.03112177 -0.03935303 -0.21032188  0.1999821   0.01853586  0.12802419
 -0.18114925  0.04615136  0.06086144  0.11311697  0.12084333 -0.07639954
  0.01830671  0.02530917 -0.13341709  0.23443766 -0.00707284 -0.16399588
 -0.11451499 -0.08323551 -0.03937461 -0.27245993 -0.10312947 -0.0035274
 -0.11641827 -0.03358374 -0.2237264  -0.0931006  -0.07750801 -0.06821321
  0.12513643 -0.29253663  0.24796849 -0.09542053  0.32638738 -0.10476611
  0.03688225 -0.21962234  0.01648081 -0.02758621 -0.17745199 -0.14305986
  0.06021978  0.10603448  0.05918847  0.03599796 -0.11172492 -0.04504269
 -0.25569224 -0.07512615  0.08744195  0.13661875 -0.01069499 -0.05065795
 -0.04837058 -0.22348482 -0.16260737 -0.07515103]
Node 2: 
[-0.28996196  0.02828655 -0.04906628 -0.12109854 -0.20561443 -0.46516612
  0.05434228  0.17534838  0.02204147 -0.15876009 -0.27578901 -0.0036246
  0.10217745 -0.1451986  -0.22591309 -0.00130346 -0.08417509 -0.07076551
 -0.22421576 -0.04543452  0.01011576 -0.16103059 -0.11147862  0.08658177
 -0.43523029  0.14668522  0.04363122 -0.04215929 -0.03224634 -0.0297849
  0.01947647 -0.01435648 -0.07692301 -0.0391068  -0.00504945  0.02241266
 -0.04907499  0.14163159 -0.03788411 -0.09524647  0.06270946 -0.06999175
  0.18631417  0.1067126  -0.14086626  0.1242509   0.09412956  0.0268117
  0.15884781  0.08170944 -0.08063287  0.00983879 -0.17325765  0.13786232
 -0.52955748 -0.02463971  0.03874669 -0.27904092  0.25792569  0.07878048
  0.16991085  0.02342949 -0.02960935 -0.17660742 -0.13489014 -0.27058359
 -0.07264471  0.03498652 -0.13687707  0.00727667  0.06385395 -0.11057093
 -0.02976203  0.2468704  -0.30916742  0.01641829 -0.16875897  0.02244149
 -0.3829159  -0.04295651  0.02535925 -0.19499252 -0.05950775  0.03591861
 -0.19958175 -0.14735859 -0.12815786  0.04888648 -0.07118257  0.0345809
 -0.11684946 -0.08727344  0.13583832 -0.0208019   0.06422137  0.07341196
 -0.25335774 -0.02796458  0.0147258  -0.10513242]
Node 3: 
[ 0.28457472 -0.30234786 -0.17730564 -0.08551749  0.51483059  0.24297478
  0.11429616 -0.26193648  0.13365538  0.37886767  0.36492931  0.0081058
 -0.25850438  0.04629826 -0.43414469 -0.14029049 -0.07026371  0.23670727
  0.0758652   0.03749783  0.54865566  0.20975469  0.06920384 -0.22339091
  0.51681702 -0.53059964  0.13155644 -0.20025373  0.20850235 -0.59498736
 -0.10706649  0.04894222 -0.30960118 -0.12084635  0.10879174  0.11267352
 -0.50044499 -0.27366325  0.00928956 -0.17959274  0.14410659 -0.13157567
 -0.46596066  0.07145425 -0.37195744  0.17596408  0.17472086  0.11006897
 -0.43788077  0.03770611  0.07437996  0.07354114  0.08112714 -0.12814363
  0.58531249  0.15272111 -0.50237157  0.15174492 -0.47727812 -0.25591556
 -0.45120651 -0.32934513  0.01195582 -0.46478802 -0.11062116  0.53884404
 -0.15625191 -0.08398997 -0.40396137 -0.20197819 -0.16576687  0.00473317
  0.01630699 -0.31899257  0.48283675 -0.40479713  0.53281602 -0.62378489
  0.48680903 -0.36607476  0.63689772  0.06431469 -0.21578528 -0.53822984
  0.12106307  0.03794132  0.07680079 -0.19776451 -0.03540588  0.05191594
 -0.36157317 -0.13373641  0.04928448  0.11087738 -0.41810875  0.07188743
  0.13676518 -0.73502794 -0.14635335 -0.00583062]
Node 4: 
[-0.10259705 -0.07903714 -0.09500445  0.02322636  0.15734752  0.15195456
 -0.11004322  0.07924707 -0.0434803  -0.25077275 -0.08129626 -0.06913006
  0.16523684 -0.0207007   0.07033711  0.03745334  0.03488301 -0.33161
 -0.22062491 -0.24606291 -0.01268069 -0.0823606  -0.15256843 -0.01743356
 -0.18216738 -0.40171218 -0.14466258  0.23106134  0.10324442  0.12054258
  0.21754893 -0.10112667  0.26619243  0.09518391 -0.23057096 -0.019095
  0.1994488   0.14382695 -0.00387852 -0.0064813  -0.24652152  0.18775795
  0.05061398  0.02202899  0.26674781 -0.44195033 -0.26897208 -0.14117548
 -0.22109377 -0.12371148 -0.16102851 -0.37858587 -0.06185482 -0.02887143
  0.12535124 -0.01594238 -0.52275481 -0.03357942 -0.00675438  0.08884806
  0.16519651 -0.14686546  0.04825123  0.18958148  0.07839169 -0.38104649
 -0.0048444   0.29136302  0.25131625 -0.1816165  -0.53561033  0.06759328
 -0.15289428 -0.31300352  0.00813523 -0.58537663 -0.215408    0.05014511
  0.01567978 -0.04342768 -0.01102758  0.07678125  0.1001589  -0.58412714
  0.04711459 -0.07701656  0.07248479  0.00905166  0.03178814  0.07624795
  0.15915079 -0.05619415 -0.11239761 -0.08430415 -0.42800062 -0.04633196
  0.04212811  0.09492368  0.06620871  0.04913148]
Node 5: 
[-0.18643563  0.18126045  0.18916434  0.17893875 -0.93072761 -0.36719142
 -0.20658863  0.48822442 -0.09789623 -0.68714556 -0.74005411  0.11785348
  0.52750751  0.03792666  0.26038013  0.15966858  0.15920495 -0.33628295
  0.11526935  0.59471559 -0.30122161 -0.20451965 -0.150717    0.38068302
 -0.21344625  0.37594366  0.06463546  0.06801062 -0.24912912  0.31387455
  0.40878849 -0.23452277  0.51056818  0.23176838 -0.16688216 -0.10562983
  0.76569574  0.37514205 -0.02237502  0.26841932 -0.17774599  0.27843366
  0.34924829 -0.07574688  0.45109087 -0.40865917 -0.22145918 -0.11178935
  0.55492972 -0.25548898  0.20403371 -0.17274413  0.0151058   0.31791376
 -0.804491   -0.32792334  0.59760343 -0.25623105  0.69205659  0.40625018
  0.59919058  0.53012423 -0.11697295  0.82813788  0.20139149 -0.38162765
  0.23506217 -0.30226999  0.49863097  0.23247714  0.45726291  0.22686094
 -0.05758858  0.62143747 -0.57609927  0.62817031 -0.84169836  0.24683078
 -0.7634305   0.62572582 -0.34864008 -0.00687667  0.3715333   0.66817693
 -0.30498603 -0.01174838  0.03085214  0.16319697  0.12984207 -0.09220645
  0.58256819  0.07232161 -0.14692802 -0.15974729  0.38931617 -0.25356964
 -0.31199838  0.63224728  0.14251745  0.22839536]
Node 6: 
[-0.07549952 -0.00545423  0.01761649 -0.05679941  0.1270233  -0.09806674
  0.08163833 -0.06606452  0.00326088  0.02122252  0.04956504  0.02089762
 -0.07116339 -0.02914852 -0.03148798 -0.08209715 -0.06819668  0.05889499
 -0.05307397 -0.09689731  0.06739091 -0.07827425  0.00864062 -0.07919931
 -0.06852837 -0.00498957 -0.00313192 -0.05003326  0.08892704 -0.0661266
 -0.07329185  0.04242699 -0.07342628 -0.08165381  0.06407958  0.01369921
 -0.07965235 -0.02364674 -0.00918893 -0.0982563   0.05621988 -0.03999239
 -0.11106495  0.09174665 -0.0441662   0.03201166  0.05566166  0.02161618
 -0.10249914  0.06493222 -0.03382452 -0.01662793  0.008682    0.11097168
 -0.00685657  0.08198483 -0.009727   -0.0736013   0.00941862 -0.03051832
 -0.01450517 -0.01842245  0.01092334 -0.05969924 -0.05045585 -0.00874778
  0.01598689  0.06091488 -0.04804578  0.01491091  0.01916221 -0.06304245
  0.02493246 -0.07132408 -0.11705573 -0.01449045  0.08899007  0.00134861
 -0.00105031 -0.01633633  0.07058552 -0.04424504 -0.13432907 -0.01007104
  0.00368833 -0.01742889  0.02157181 -0.05064327 -0.04098271  0.02511689
 -0.03596855  0.02927386  0.08376514  0.0333521  -0.00102674  0.04464131
 -0.03312394 -0.03944853  0.00842948 -0.07375159]
Node 7: 
[-0.01511482 -0.41206522 -0.06365067 -0.0990509   0.217423   -0.05513577
  0.03519526 -0.08988101  0.14733975  0.29003547  0.21679413 -0.14667296
 -0.11832385 -0.11847369 -0.2977222  -0.02378185 -0.06020991  0.10374522
 -0.12530237  0.10118738  0.22421965 -0.02000487 -0.1091937  -0.04320426
  0.19096877 -0.35655683  0.26189313  0.12774781  0.10650905 -0.25302601
 -0.01613249 -0.03261256 -0.14815723 -0.05632503 -0.0601013   0.15887027
 -0.25966715  0.03015602 -0.02496832 -0.11824515 -0.01215008 -0.06962689
  0.44075658  0.14302293 -0.12861167  0.1775821  -0.02471385 -0.12123265
  0.27357311  0.03666679 -0.00752061  0.21322857 -0.12907596 -0.01759105
 -0.26112277  0.07762473 -0.6253733   0.02958957  0.03488085  0.05123661
  0.06813995 -0.25572508 -0.00598324 -0.44982924 -0.04669116 -0.13500314
 -0.10488959 -0.45882093 -0.1446735   0.02984224  0.1139291  -0.00465164
 -0.08554705  0.17038137  0.13752858 -0.52940066  0.32013292 -0.57809122
 -0.30219331 -0.29372339  0.24008322 -0.06399541 -0.0356412  -0.63924173
 -0.13156522 -0.12701847 -0.04926939  0.42296282 -0.03349016  0.08750284
 -0.20338303 -0.5455567   0.03084912 -0.10271961 -0.53136475  0.10311411
 -0.21979415  0.15574252 -0.04222325 -0.01747573]
Node 8: 
[-0.41091768 -0.01864709 -0.11570339 -0.07033757  0.23958379 -0.21436224
  0.03661432 -0.0907798   0.19286917 -0.25641697  0.02169499 -0.30461321
 -0.03741183 -0.13678599  0.03219775 -0.09544889 -0.06320445  0.01928185
 -0.49551771 -0.33682     0.12040695 -0.11235279 -0.11606795 -0.08683024
 -0.46617073 -0.46532876 -0.01111606 -0.07476426  0.17782744 -0.02013576
 -0.14539181  0.13850094 -0.14716028  0.05740698  0.06335217  0.17311189
 -0.09367085  0.02988144 -0.07397849 -0.13703638  0.08810005 -0.07666794
 -0.18362853  0.11861938  0.14493458  0.46748411  0.12645038 -0.17544625
 -0.10682248  0.14374176 -0.17425772  0.26374211 -0.33700566  0.16655602
 -0.41122788 -0.03995414 -0.10169457 -0.17794812  0.18788263  0.04489019
  0.07197158 -0.19339438 -0.03906064 -0.05332557 -0.20286125 -0.22641947
 -0.00113047  0.33877461  0.12533013  0.02343183 -0.04363389 -0.10551846
 -0.01454002  0.04870585 -0.4626107  -0.05549851 -0.00617001 -0.22127442
 -0.2256977  -0.19970144  0.16844528 -0.13469688 -0.20873983 -0.09503931
 -0.09345297 -0.0747069   0.02934239 -0.11315405 -0.15686343  0.05178973
 -0.11297641  0.36877419  0.10619955 -0.17015447  0.01234812  0.10629796
 -0.33354504  0.30301409  0.10534379 -0.13319015]
Node 9: 
[ 0.11595205 -0.3049264  -0.045203   -0.07871869 -0.43612949 -0.13248945
  0.00708892  0.07383097  0.05412451  0.09797227 -0.00700276  0.05794486
  0.00523553 -0.03576212 -0.40164692 -0.03902756 -0.04030485 -0.09536413
  0.12186167  0.43177762  0.65340379 -0.25007024  0.00255013  0.14951062
  0.2702411  -0.56969972  0.06096339  0.12419814 -0.03917953 -0.7742077
  0.15427542 -0.25180772  0.07986589 -0.02537433 -0.16104089  0.04651593
  0.12002323  0.01547775 -0.00235238 -0.1806116  -0.18141847  0.09644388
  0.27894937  0.06563255  0.04099631 -0.57406188 -0.27262047  0.08720454
  0.29336943 -0.08246608  0.09500583 -0.55198941  0.30734561  0.16858311
  0.29999736 -0.02812529 -0.55374039 -0.05255426 -0.19490552 -0.12391256
  0.03676553 -0.43198208  0.02721727  0.01952559  0.0694708  -0.10386483
 -0.02345147  0.15736977  0.00159439  0.01619496  0.13660502  0.05996076
 -0.01319089  0.26134811  0.10249848 -0.50152283 -0.42085235 -0.3772806
  0.0052449  -0.20606234  0.67209452 -0.05684669  0.07009558 -0.55332598
  0.06665705 -0.06866281  0.03380719  0.16504389  0.07481448  0.01451
 -0.05331666  0.19164695  0.05131026 -0.00371761 -0.19471158 -0.02459485
  0.07724548 -0.09615498  0.11225615  0.0558236 ]
Node 10: 
[-1.77365504e-01 -3.95337602e-01 -3.70584225e-02  7.52651271e-02
 -1.21080032e-01 -3.07808041e-01 -2.73262309e-02  1.75126364e-01
 -1.46265738e-01 -1.45199627e-01 -3.69348008e-01 -2.08147945e-01
  1.99289963e-01  1.83404937e-01  2.25079842e-01  3.52428861e-02
  4.76225587e-02 -9.51251188e-02 -1.04466963e-02 -8.15935001e-02
 -1.84003563e-01 -1.54754151e-01  1.68543944e-01 -1.67236787e-02
 -1.86764865e-01 -2.15179719e-02  1.50999782e-01  1.28368454e-01
 -9.67800719e-02  1.74158222e-01 -2.14537652e-01 -1.86329316e-02
  2.03112772e-01  3.42976693e-02  1.86553367e-01 -1.17196974e-01
  3.21958177e-01 -1.51106403e-02 -2.86892896e-02  1.45503472e-01
 -1.07843215e-01  1.46765641e-01 -2.63652512e-01 -6.44054039e-02
 -4.78965964e-02 -2.49471774e-02 -2.60417255e-01  2.17444094e-01
 -2.42746667e-01 -6.27948461e-03  6.88621830e-03  2.01990978e-01
  3.39041544e-01  2.42313012e-01 -2.72869735e-01 -5.83906715e-02
  1.25022472e-01 -4.53948446e-01  2.64117308e-01 -9.98170422e-02
  4.95148998e-02  3.60949496e-01 -7.96382398e-03  2.37118301e-01
 -7.44671724e-02 -1.13070560e-02  6.22154175e-02 -1.27187515e-01
 -5.69257570e-02 -3.13773882e-01 -2.92466912e-01 -5.90492145e-02
  1.01751586e-01 -3.29727849e-01 -1.76879190e-01  6.12951329e-02
 -9.50163772e-02  3.10414645e-01  1.33538032e-03  2.55101051e-01
 -2.95907864e-01  8.42844482e-03  1.89905430e-02  2.15410252e-01
  1.70492499e-03  1.41353305e-01  6.64121972e-02 -2.70905041e-01
 -8.08192989e-02 -8.54701789e-02  1.06600982e-01 -6.19932427e-01
  1.46267873e-04  2.20092649e-01 -1.99390109e-01 -2.63111083e-01
  6.20396702e-02 -6.01398647e-01 -1.39197087e-01 -2.25960964e-02]
Node 11: 
[ 2.62524714e-01  8.04437462e-01  6.15739972e-02  1.63934760e-01
 -2.05231447e-01  4.15536914e-01 -1.54062465e-01  2.22334998e-01
 -2.06732332e-01 -4.80749074e-01 -3.56442733e-01  6.28264228e-01
  3.04286089e-01  1.01535664e-01  3.41554870e-01  1.08212499e-01
  1.40788302e-01 -2.43353136e-01  2.25803965e-01  1.07953359e-01
 -5.96180545e-01  3.84136249e-01 -9.78583597e-02  1.28291295e-01
  1.28496112e-01  8.34222617e-01 -3.51491170e-01 -4.64993258e-01
 -1.53369718e-01  6.01771732e-01  5.74704114e-01  1.58882394e-04
  2.77273237e-01  1.26490352e-01 -4.62942780e-02 -2.48745491e-01
  1.56335844e-01  4.46998912e-02  7.52366045e-02  2.62399085e-01
  4.78469128e-02  1.55102077e-01 -3.07639411e-01 -2.10549110e-01
 -1.02944589e-02 -3.83918660e-01  2.35049710e-01  3.61419054e-02
 -2.95034641e-01 -2.84675006e-01  1.51539511e-01 -4.55309017e-01
 -7.03831464e-02 -3.39315055e-01 -1.46700905e-02 -1.20786437e-01
  7.12404606e-01  4.74814701e-01  1.53105628e-01  1.75263188e-01
  1.42296132e-01  4.77506433e-01 -3.84107402e-02  3.96814822e-01
  2.03500034e-01 -4.70171814e-02 -4.16209123e-02  3.14329381e-02
  7.76349027e-02  1.69526926e-02 -1.76989003e-01  1.97464208e-01
 -3.07192921e-02 -1.46278259e-01  2.16063641e-01  6.26013549e-01
 -1.32198574e-01  4.28263468e-01 -1.45806093e-01  3.34787139e-01
 -5.35135588e-01  1.69117275e-01  1.90956078e-01  6.05923843e-01
 -6.20175753e-02  1.08778337e-01  4.42299637e-02 -1.93694119e-01
  1.60247011e-01 -6.89220567e-02  2.63028674e-01  4.30368437e-01
 -1.92043159e-01  7.03771622e-02  6.00570050e-01 -1.52278547e-01
  5.33691657e-02  1.80682548e-01 -1.37571494e-01  1.83160272e-01]
Node 12: 
[-0.07481748 -0.00512331  0.01728411 -0.05536816  0.13004542 -0.09706194
  0.0814057  -0.06833435  0.00293787  0.02510436  0.05250212  0.02027299
 -0.07333071 -0.02634465 -0.02901416 -0.08263413 -0.06727043  0.06106199
 -0.05129485 -0.09750729  0.06505192 -0.07558129  0.0132111  -0.08137528
 -0.06874621 -0.00187694 -0.00329865 -0.05123294  0.08869688 -0.06371659
 -0.07546763  0.04411484 -0.07397462 -0.08157094  0.06877513  0.01329406
 -0.08074383 -0.02623028 -0.0088719  -0.09688597  0.05656355 -0.0393141
 -0.11141302  0.09036361 -0.04530243  0.0322404   0.0564576   0.02337948
 -0.10356435  0.06448217 -0.03232316 -0.01666121  0.01137877  0.10938498
  0.00307188  0.08292112 -0.00901644 -0.07263196  0.00488539 -0.03403607
 -0.01774289 -0.01738136  0.01193754 -0.06140987 -0.05010509 -0.00472758
  0.01558562  0.06128526 -0.04931109  0.01399371  0.01756137 -0.06236523
  0.0271456  -0.07377637 -0.11645685 -0.01371344  0.09487315  0.0017658
  0.00765619 -0.01694355  0.06807481 -0.04171044 -0.13533295 -0.00949061
  0.00692022 -0.01396996  0.02352798 -0.05105971 -0.04145368  0.02423507
 -0.03774618  0.02960792  0.08282178  0.03508639 -0.00048505  0.04276588
 -0.03005614 -0.04251863  0.0074323  -0.07305777]
Node 13: 
[-5.63041014e-02 -9.17825096e-02  9.73603563e-02 -3.15805590e-02
  2.06619949e-02  7.84707769e-02  8.17407998e-02 -1.30167174e-01
 -7.70751046e-03  2.76132833e-01  1.72267478e-01  1.46347579e-02
 -1.48178381e-01  2.89983879e-02 -2.21283218e-02 -3.30908503e-02
 -2.44277213e-02  2.16269817e-01 -2.40118524e-01 -6.17161498e-02
 -1.06474470e-01  7.96728794e-02 -1.10593078e-01 -9.10682463e-05
  6.66738637e-02 -7.79004550e-02  1.32622912e-02 -2.77680861e-01
  2.58701688e-02  9.62139557e-02 -1.20218042e-01  1.21633143e-01
 -1.61693324e-01 -4.62802751e-02  1.49116392e-02  2.70676120e-02
 -2.14050120e-01  7.57212269e-02  4.51705533e-02 -6.63543738e-02
  9.71325839e-02 -1.03958822e-01  7.68303550e-02  3.12487196e-02
 -2.52681138e-02 -5.43022553e-03  6.32180100e-02 -4.54359552e-02
  2.39445685e-02  1.00484918e-01 -6.58583095e-02  1.00158036e-01
 -1.79848731e-03 -1.14948551e-01 -4.37339417e-01  2.22753288e-02
 -1.92256716e-01  1.75005109e-01  4.12814885e-01  1.06481295e-01
  2.60216988e-01  2.82235561e-02 -2.10630452e-01 -8.20162481e-02
 -1.70718927e-02 -3.01975829e-01  7.94714498e-02 -8.77973888e-02
 -4.14970389e-02 -3.23360188e-02 -1.02640530e-01 -1.00203453e-01
  9.70554626e-03  2.83918602e-01  6.05738871e-02 -1.39277289e-01
  1.42695000e-01 -1.14246974e-01 -3.41327249e-01  4.56064268e-02
 -5.27031687e-02  2.12511908e-02 -6.43274036e-02 -2.17213191e-01
 -1.09926400e-01  2.98274006e-02 -9.14594335e-02  1.42583574e-01
  1.95623999e-02  1.70433209e-02  6.78932584e-02 -8.84243404e-02
  8.31834419e-02 -4.16104096e-02 -8.08675133e-02  1.14820617e-01
 -2.58143131e-01 -2.44407338e-01  1.15335208e-01 -1.17362636e-01]
Node 14: 
[ 0.01271069 -0.18377461 -0.01686976 -0.07633084  0.46908537  0.07241469
  0.10873526 -0.20994775 -0.03103412  0.08776863  0.22462726  0.08091509
 -0.1571999  -0.07218909  0.03378938 -0.13797205 -0.09416061  0.13786206
 -0.0165672  -0.09954972  0.11409499 -0.3158868  -0.04256685 -0.19615522
 -0.05456001 -0.21296086 -0.01140227 -0.36466168  0.15728723 -0.15476769
  0.01184237  0.20337746 -0.27511681 -0.13271643  0.06769479 -0.04783077
 -0.27938118 -0.02551198  0.02280481 -0.15213477  0.32485068 -0.20624537
 -0.04341068  0.13355073 -0.46274948  0.06101152  0.53976102  0.28899971
 -0.1296983   0.11232167 -0.01943464 -0.21900791 -0.12686509  0.32064969
 -0.35193053  0.19169322 -0.07250183 -0.33711867  0.27737271 -0.09553671
  0.0403235  -0.01410187  0.03189594 -0.11338398 -0.04068526 -0.28467648
 -0.15057544  0.26189474 -0.43927375 -0.05027382 -0.03670339 -0.0536691
  0.01203664 -0.11071404  0.18115704  0.01613798  0.29670227  0.48509347
 -0.15062657  0.06706639  0.114839   -0.04607085 -0.20818365 -0.02985541
  0.00264603 -0.02133044 -0.01192729  0.02934585 -0.03643364  0.05302604
 -0.17562177 -0.22755718  0.10534506  0.23411191 -0.1144149   0.05185694
 -0.24466293 -0.59367786 -0.12874038 -0.0928743 ]
Node 15: 
[-1.18931469e+00  2.87466905e-01 -2.58328076e-01  1.42535224e-02
 -6.13991331e-02 -5.89786843e-01 -6.79437085e-02  4.45314758e-02
 -2.18078853e-01  1.81931259e-01 -3.85478412e-04 -4.32662238e-01
  5.15252191e-02  1.65477943e-01 -1.73776084e-01  9.29856619e-02
  6.36381151e-02  6.99187146e-02 -5.08426098e-01 -5.53074176e-02
 -2.66951306e-02  2.63196773e-01 -7.42334670e-02  7.59412939e-02
 -1.38297058e+00  1.09193874e-01 -5.05502870e-02  7.59990198e-02
 -1.25884470e-01 -1.01859935e-01  2.47029817e-01 -2.78972064e-02
 -9.08528561e-02  6.63073779e-02 -4.88611710e-02 -2.32642799e-01
 -2.52743989e-01  1.88025662e-01  2.01830391e-03  8.41948400e-02
  1.91098765e-02 -7.22839946e-02 -5.56293901e-01  2.39283361e-02
 -2.45098867e-01 -4.67801958e-01  3.58752538e-02  3.07587967e-01
 -5.69368035e-01 -7.26256758e-02 -8.89021812e-02 -3.51151497e-01
  6.27493286e-01 -1.29943734e-01  2.75583877e-01 -8.91317943e-02
  1.14753638e-02  1.07108287e-01 -1.34013557e-01  1.53429772e-01
  2.28966109e-01  4.95582662e-01 -5.86805641e-02  1.31417886e-01
  4.31089014e-02  1.71888423e-01 -2.52707078e-01 -1.90856222e-01
 -1.96913408e-01 -1.27150387e-01 -1.73712189e-01  2.80629696e-02
 -8.04458758e-02 -7.03091565e-01 -5.71875273e-01  6.65446586e-02
  2.19938231e-01 -3.42360656e-01 -5.47443726e-02  2.08659945e-01
 -1.41996276e-03  2.31334887e-02  1.57200323e-01 -7.58894514e-02
 -1.08431394e-01 -1.92981786e-02 -1.07744461e-02 -3.89380485e-01
  1.74496032e-02  1.66940968e-02  1.22724532e-01 -2.29645461e-01
 -8.04723595e-02  3.07701892e-01 -2.29349805e-01  9.52910996e-02
 -3.07135530e-01 -5.45666604e-01 -1.83524206e-01  4.73203555e-02]
Node 16: 
[ 0.43430421 -0.24295566  0.05677907  0.08099406 -0.10608128  0.20281652
 -0.1514655   0.21105986  0.11499725 -0.59626043 -0.40960971  0.43626904
  0.29975705 -0.0490649   0.0888066   0.01560342  0.08269602 -0.50024106
  0.3307015   0.25687044 -0.16843266  0.04506899  0.13009966  0.06477517
  0.47647382  0.5204492   0.17884734  0.12505724 -0.04227204  0.00964367
  0.0978501  -0.16457411  0.57040531  0.15602967  0.00129557  0.04519731
  0.77558883  0.00142633 -0.05566237  0.12157811 -0.29795193  0.43607644
  0.09835779 -0.11002244  0.32858072 -0.03592469 -0.42009956 -0.25201181
  0.03450927 -0.18954382  0.15730227  0.1046377  -0.12504077  0.05574696
 -0.17841148 -0.15073313  0.25367898 -0.05574472  0.0911656  -0.11504962
  0.11953272 -0.188372    0.1220466   0.04295651  0.06762529 -0.11844709
  0.05347426 -0.21287565  0.27863051 -0.03222649 -0.17984155  0.1858696
 -0.03313396 -0.08510057  0.09900082  0.16881704 -0.70218163  0.05640484
 -0.15954488 -0.29875262 -0.14437227  0.01938659  0.0639905   0.31168569
  0.02097481 -0.00441825  0.23035956 -0.00665838  0.02863521 -0.02864682
 -0.12363497 -0.25019679 -0.12026222 -0.25298161  0.16492981 -0.23644821
  0.29696731  0.37439021 -0.04772226  0.19253209]
Node 17: 
[ 4.89933703e-01 -5.24287712e-02 -6.14683479e-02  2.52398215e-02
 -6.65931948e-01 -6.03120879e-04 -8.77182698e-02  3.79332623e-01
  2.14889752e-01 -4.34225415e-01 -4.78037707e-01 -8.59206092e-02
  3.10911737e-01 -1.19310846e-01 -1.12954223e-02  4.44611062e-02
  2.16871561e-02 -2.39565379e-01  1.50370828e-01  2.47572484e-01
  3.43011398e-01 -2.97900398e-01 -5.31991855e-02  2.17842034e-01
  7.35471022e-01 -8.26659366e-01  2.46171234e-03  2.80748393e-01
 -1.07122137e-02 -9.01954337e-02  1.16313663e-01 -3.43435974e-01
  2.22782583e-01  1.22615708e-01 -5.71483605e-02  2.44763868e-01
  2.24151333e-01 -1.44081030e-01 -9.78812092e-02 -7.08947310e-03
 -3.51747617e-01  2.50144695e-01  3.39626927e-01 -1.85988916e-02
  3.19569919e-01  1.31664881e-01 -4.34464592e-01 -2.55386532e-01
  5.39805943e-01 -1.63923650e-01  1.05888624e-01  7.11122264e-02
 -3.04348004e-01  1.18912572e-01  1.89021140e-02 -1.70837477e-01
 -4.31429946e-01 -1.20430663e-01 -1.65711800e-01  7.78515260e-03
 -2.48560116e-01 -3.04922460e-01  7.13376036e-02  1.61532220e-01
 -1.04272641e-01  6.84466481e-02  1.85668806e-01  1.02581213e-01
  3.14061765e-01 -5.42339393e-02  1.67135320e-01  4.14565707e-02
  1.52704157e-02  6.73072593e-01  1.20984671e-01 -4.50066647e-01
 -3.80617929e-01 -4.59832447e-01  4.04477371e-02 -9.79233010e-02
  2.90640828e-01 -1.15074708e-01  1.01812339e-01 -4.44701825e-01
 -2.44866700e-02 -3.47455116e-02  9.56918374e-03  2.34418574e-01
 -1.10713770e-01 -5.78008000e-02  1.32812562e-01  5.11191263e-01
  1.29233561e-02 -2.41115379e-01 -1.29610487e-01 -2.69141258e-01
  1.57970753e-01  6.66913764e-01  1.37793117e-01  5.98634311e-02]
Node 18: 
[-0.07512355 -0.00532872  0.017514   -0.05634319  0.12576966 -0.09727331
  0.08114963 -0.06534369  0.0030171   0.02103184  0.04871154  0.0210307
 -0.0705402  -0.02835288 -0.03007666 -0.08108266 -0.06770603  0.05913999
 -0.05364197 -0.09730776  0.0641248  -0.07644317  0.00900057 -0.07829345
 -0.06896808 -0.00258885 -0.00323343 -0.05079179  0.08755855 -0.06318341
 -0.07340591  0.04274234 -0.07368174 -0.08076937  0.06418645  0.01347631
 -0.07975279 -0.02350966 -0.00864136 -0.09693324  0.05661742 -0.04054245
 -0.11117822  0.09062502 -0.04421727  0.03188104  0.05612024  0.02196421
 -0.10264278  0.06536911 -0.0342164  -0.01668436  0.00941596  0.10972332
 -0.00709182  0.08076496 -0.00961801 -0.07301239  0.00955985 -0.03071319
 -0.01443451 -0.01844706  0.00990821 -0.05953159 -0.05046676 -0.00963914
  0.01572622  0.06109617 -0.04814469  0.0148089   0.01830665 -0.06381151
  0.02558913 -0.07147568 -0.11653627 -0.01439073  0.0885221   0.00165968
 -0.00153387 -0.01638468  0.06761447 -0.04405286 -0.13312358 -0.0099636
  0.00294172 -0.01689336  0.02025131 -0.05066991 -0.04034085  0.02448243
 -0.03607444  0.02946725  0.08375174  0.03368611 -0.00098235  0.04437188
 -0.03365625 -0.03993533  0.00820819 -0.07413812]
Node 19: 
[ 0.47932915 -0.11966137  0.02429796  0.15929035 -0.66841669  0.40530379
 -0.30245791  0.34214185  0.08967491 -0.31889059 -0.52500871 -0.24902667
  0.36947738 -0.03238316 -0.06827049  0.24724335  0.19868455 -0.21549904
  0.26245622  0.32639278 -0.18909686  0.26904147 -0.05181416  0.33785604
  0.52539865 -0.24001404  0.14959197  0.39854683 -0.21780792  0.20182505
  0.33418243 -0.24091764  0.27118243  0.28078411 -0.21263067  0.07367162
  0.30190622  0.18432626 -0.03638577  0.29644717 -0.37254067  0.26553184
 -0.22429621 -0.29994174  0.2497859   0.0473758  -0.39714246 -0.16466286
 -0.16446326 -0.27054688  0.10263239 -0.08561645 -0.12423847 -0.3209236
 -0.21008754 -0.29017439 -0.17953367 -0.01277401  0.14657541  0.17588702
  0.28306644 -0.01139278  0.06328245 -0.03159454  0.06238283  0.04550132
 -0.01281167 -0.26276761  0.2529605  -0.05359868 -0.45940786  0.22748988
 -0.12346582 -0.22786449  0.46043408 -0.11424365 -0.59991092 -0.35735919
 -0.22501352 -0.0861313  -0.1052946   0.10603802  0.43756952 -0.1906349
 -0.01782271 -0.03287813 -0.02655728 -0.13751736  0.04558152 -0.03448826
 -0.0207667  -0.26355571 -0.28805672 -0.14371003 -0.18703079 -0.14946437
  0.10393651  0.20353667  0.03765588  0.26509188]
Node 20: 
[-0.05236436  0.49850397  0.04395676  0.1277642  -0.47779138  0.18884051
 -0.20685718  0.36452386 -0.0503355  -0.73014225 -0.56219407 -0.2035011
  0.47681583 -0.03425711  0.07589792  0.15907713  0.14592532 -0.21089448
  0.18411759  0.43482412 -0.36107574  0.1685275  -0.14471033  0.23060018
  0.01473671 -0.0577889  -0.31878993  0.16656585 -0.06283347  0.33873882
  0.55215089 -0.15844043  0.12421126  0.25347383 -0.1899761  -0.0568549
  0.10637176  0.24410644 -0.04356505  0.2505202  -0.17991374  0.1933525
  0.09261203 -0.09068037  0.24073453 -0.03370158 -0.12703686 -0.21897309
  0.49197916 -0.23756018  0.16138065  0.01805811 -0.36462632 -0.24380149
 -0.44605821 -0.29357201 -0.00536913  0.3653419   0.31311971  0.29585572
  0.34304794  0.20675999  0.06607632  0.29470648  0.08166161 -0.01636261
  0.08619026  0.25589694  0.25865307 -0.1767279  -0.12857729  0.25887009
 -0.1262342   0.92687253  0.13257141  0.16957516 -0.76376536 -0.23671986
 -0.26303445  0.2969438  -0.34956989  0.11257279  0.27866778 -0.03955762
 -0.09392807 -0.00726327  0.06746728 -0.00853842  0.00866201  0.02768072
  0.35751424  0.68267004 -0.2373937  -0.27082235  0.07492009 -0.1166587
 -0.06724391  0.33814592 -0.15529061  0.25719602]
Node 21: 
[ 0.15401917  0.08682805 -0.03607988 -0.05922083 -0.02505683  0.24134785
  0.11990893  0.09554515 -0.17947017 -0.29743725 -0.22450732  0.17035468
  0.07610875  0.05626488 -0.0638052  -0.10611755 -0.07440452 -0.33281672
 -0.07346072  0.06620038  0.37187979  0.02563891  0.0116027  -0.07232386
  0.30316037 -0.02236284 -0.1256566  -0.25907223  0.08933951 -0.27946998
 -0.17140254  0.00123252  0.28054647 -0.12800513  0.12450886 -0.11910365
  0.36083    -0.04450915  0.05686395 -0.18223234  0.17194711  0.07911377
  0.09028701  0.10800177  0.03623689 -0.21101029 -0.04531956  0.08114944
 -0.02145925  0.0858963  -0.08920585 -0.30976578  0.28739786  0.0753809
  0.01576786  0.10540811 -0.06803266  0.05110662  0.07706383 -0.08587122
 -0.05303783  0.34334009 -0.14026455 -0.08055816 -0.06226551 -0.26070998
  0.02738202  0.15417539  0.04665146 -0.05825465 -0.18240451 -0.11358307
  0.08766604 -0.07163182  0.14919368 -0.12166979  0.07905403  0.25609798
 -0.17519755  0.08807445  0.38105553  0.01123458 -0.0741259  -0.08961618
 -0.09283548  0.04587208  0.04571698  0.18958549  0.0215528   0.00300611
  0.06714296 -0.00817914  0.10103674  0.06518787 -0.15196073  0.07457223
 -0.13918182  0.07404398 -0.13539144 -0.10880739]
Node 22: 
[-0.56084776  0.02068729  0.04208193  0.03074676  0.02532999 -0.59737422
 -0.02204339 -0.03684671  0.08455894 -0.19245921 -0.10413178 -0.1629271
 -0.01686115  0.08981855  0.1396019  -0.02946715  0.01262865 -0.16587932
 -0.30541685 -0.20818638  0.17561588 -0.50312942  0.00953431 -0.01562734
 -0.61595353 -0.32239239  0.04987216  0.16481856 -0.18787889 -0.0445633
 -0.05857531 -0.06204367  0.24495093  0.10722322  0.05492133  0.07133779
  0.38860072  0.08980971 -0.07228594  0.04822833 -0.112938    0.13767276
 -0.28055217 -0.0421022  -0.24773893 -0.1110197  -0.16373842  0.37341737
 -0.40878334 -0.04904137  0.03677953  0.27249727  0.39537641  0.43700076
 -0.10862366 -0.15107083  0.09377774 -0.46462889  0.12936382 -0.01786821
  0.22333117 -0.07191853 -0.01173636 -0.02570161 -0.06048185 -0.17984868
  0.16408597 -0.24761309 -0.22050269  0.18121804  0.40840907 -0.10885137
  0.10401635 -0.4228871  -0.7261837   0.03468792  0.16924834  0.15423128
 -0.15754341  0.10165976  0.00956103 -0.1446876  -0.10871558  0.14304266
 -0.01026465  0.05129559  0.02601402 -0.2059803  -0.1573599  -0.0996553
  0.07526982 -0.14340806  0.10840282  0.35645629 -0.04854846 -0.19956702
 -0.14778966 -0.42541366  0.33967726 -0.12493282]
Node 23: 
[-2.45590790e-01 -7.41470363e-01 -2.25326277e-01 -2.81690006e-01
  7.92099005e-01 -5.16465934e-01  3.35705875e-01 -5.21285677e-01
  1.26340588e-01  1.01568653e+00  8.70435727e-01  5.09887063e-01
 -6.05773007e-01 -1.13884709e-01 -2.05213642e-01 -2.93056258e-01
 -2.77910062e-01  6.30801898e-01 -3.04284935e-01 -3.80551332e-01
  1.62948255e-01 -1.19656138e-01  2.22168406e-03 -3.83859033e-01
 -2.93614538e-01  2.39573743e-01  3.77889353e-01 -5.88721978e-01
  3.62844312e-01 -4.44545176e-01 -3.34719015e-01  2.90234382e-01
 -6.89296890e-01 -3.90742172e-01  1.76124201e-01  7.50248874e-02
 -9.17260225e-01 -3.93884346e-01  4.09259769e-02 -4.25997799e-01
  3.13896543e-01 -4.07422663e-01  1.46281362e-01  3.67103194e-01
 -2.90369937e-01 -1.83106488e-02  5.11685455e-01 -5.04081941e-02
  3.83487737e-03  2.99582281e-01 -1.80377509e-01 -2.03028616e-01
 -1.51131179e-01  2.61867258e-01  1.10201745e-01  4.62017307e-01
 -2.52712406e-01 -1.63313488e-01 -2.04211938e-01 -3.29022838e-01
 -4.73494154e-01 -4.92559710e-01  9.90729671e-03  1.59235511e-02
 -8.16645359e-02 -2.36763701e-02 -3.33348919e-01 -7.28349854e-02
 -3.37746216e-01 -9.76883685e-02  3.20853971e-03 -1.99075732e-01
 -5.93001090e-05 -2.24343970e-01 -2.36547220e-01 -3.12322882e-01
  6.62214627e-01 -3.29438443e-01  1.86099663e-01 -5.08507257e-01
  2.70822649e-01 -1.76293438e-01 -5.17731563e-01 -2.42831627e-01
  5.90591450e-03 -1.09418318e-01 -5.53564350e-03  8.43746303e-02
  2.97517980e-02  1.14395367e-01 -4.85502231e-01 -4.11622602e-01
  3.08465599e-01 -2.96548276e-02 -5.88057355e-02  1.98127207e-01
 -7.68897933e-02 -2.68214620e-01 -1.71021298e-01 -2.42421466e-01]
Node 24: 
[-7.20485692e-02 -6.26402555e-02  1.89513941e-02 -6.63305159e-02
  1.25141593e-01 -1.17239679e-01  7.64234284e-02 -6.19335928e-02
  3.37111848e-02  1.26142967e-02  4.67978504e-02 -1.49568696e-02
 -6.54494256e-02 -6.65606482e-02 -6.39751866e-02 -8.76931358e-02
 -7.39664156e-02  4.01486729e-02 -3.51704604e-02 -4.54601692e-02
  1.29129968e-01 -1.15540563e-01 -1.02245708e-02 -7.52454038e-02
 -4.44726620e-02 -5.11894348e-02  3.04535653e-02  1.01902015e-02
  1.15255917e-01 -1.23104263e-01 -4.93226312e-02  1.03684524e-02
 -6.15467655e-02 -8.42151657e-02  4.03260746e-02  4.45129118e-02
 -7.16847942e-02 -2.08117088e-02 -3.33869843e-02 -1.18505241e-01
  2.58533958e-02 -1.99370900e-02  1.79161752e-02  1.12491706e-01
 -3.71202803e-02  4.44158943e-02  2.07204787e-02 -1.24373469e-02
  1.11139283e-02  4.48317931e-02 -1.68992083e-02 -1.89945535e-03
 -3.24586728e-02  1.44829695e-01 -4.03240182e-03  8.59959967e-02
 -1.04453392e-01 -1.27802294e-01  6.26945290e-03 -1.89660030e-02
 -1.09596520e-02 -5.05445175e-02  4.30813945e-02 -6.63644627e-02
 -5.58118678e-02 -1.97516280e-03  4.76557824e-02 -2.59719605e-02
 -4.04442395e-02  1.50854654e-02  4.57750519e-02 -3.99804190e-02
  2.46119633e-03  2.27046995e-02 -1.33346446e-01 -8.82398937e-02
  8.10816944e-02 -8.90564078e-02  9.42568345e-05 -2.37062339e-02
  1.24006958e-01 -6.42651574e-02 -1.37202966e-01 -1.06012767e-01
  8.61692394e-03 -4.52225215e-02  4.08590890e-02  5.03881125e-02
 -6.61578989e-02  4.06180738e-02 -3.16542254e-02 -4.58748091e-02
  7.77111936e-02 -8.39716475e-03 -9.03632832e-02  4.48716227e-02
 -3.30576712e-02  9.96092559e-03  3.56482650e-02 -5.46693477e-02]
Node 25: 
[-0.3997838   0.44292426  0.12126314 -0.05116862 -0.60848278 -0.25868596
  0.09927324  0.14273454 -0.00962159  0.30146578 -0.08629528  0.21786555
  0.0090492   0.04553204 -0.14467809 -0.04287758 -0.04432597  0.39993052
 -0.24764567 -0.1945027  -0.04137072 -0.14565508 -0.21689399  0.13196521
 -0.2839416   0.49911055 -0.01888253 -0.45193489  0.15670777  0.14180585
  0.08008683  0.27786546 -0.41605163 -0.07693489 -0.08500945 -0.06026413
 -0.59706577  0.4550591   0.14516416 -0.1067199   0.43360399 -0.3636684
  0.28135125  0.25839908 -0.22388511 -0.14307433  0.54586984  0.08894801
  0.16154358  0.15712986 -0.07834287 -0.10442884 -0.13925873  0.21192716
 -1.24256994  0.00822468  0.33608549 -0.06301679  0.87399184  0.28218514
  0.68191444  0.12463994 -0.29862309 -0.0917126   0.06159591 -0.8900227
  0.02855438  0.00540027 -0.18970333  0.25185135  0.3014127  -0.04048966
 -0.07214486  0.22547484 -0.28640959  0.41167998 -0.26623676  0.27999559
 -0.89089926  0.08066139 -0.00865281  0.06248815 -0.0046086   0.30736467
 -0.27547569 -0.02160249 -0.12752311  0.27587631  0.18554018  0.08352342
 -0.04604379  0.23020811  0.03989695  0.04807121  0.28061004  0.26441084
 -0.42889746  0.01618179  0.08127473 -0.06930544]
Node 26: 
[-5.47750007e-01 -3.86011344e-01 -1.97659891e-01 -1.50601598e-01
  5.33235879e-01 -5.65071835e-01  8.44662285e-02 -2.25938212e-01
  4.62877450e-04  2.85559963e-01  2.67635692e-01  9.67285116e-02
 -2.11435622e-01  4.35244994e-02 -1.04300877e-01 -1.08603997e-01
 -1.42580094e-01  1.45438556e-01 -4.02290818e-01 -2.66142670e-01
  3.19785657e-01 -2.21439646e-01 -1.75232485e-01 -1.67138420e-01
 -5.15638902e-01 -1.45805038e-01  2.80117175e-01  3.84997276e-02
  1.20981024e-01 -3.23518336e-01 -1.42120881e-01  5.22534951e-02
 -6.56748599e-02 -2.02106147e-02  1.91327358e-02 -1.47377169e-02
  4.94093441e-02  2.96175879e-03 -4.53660994e-03 -2.07534813e-01
  1.98225701e-02  6.60625494e-03  2.97174514e-01  1.94393538e-01
  4.28090501e-01 -2.39473903e-01 -1.12686281e-01 -5.41793678e-02
  1.50304768e-01  1.23662458e-01 -2.15840438e-01 -1.37489192e-01
  1.79137308e-01  2.74383313e-01 -3.45931876e-01  3.37365744e-02
  1.47546855e-01 -5.18872847e-01  1.30783901e-01  7.80199812e-02
 -2.41988983e-02 -8.40221752e-02 -8.70838817e-02  4.39884537e-01
 -1.06583763e-01 -1.56145547e-01 -7.45836376e-02 -9.45901119e-01
  3.99234073e-01 -1.19759347e-01 -2.00507012e-01 -1.79378542e-01
  1.99826120e-02 -7.50512875e-02 -4.71036408e-01  1.07738947e-01
  4.46238856e-01 -1.43129859e-01 -2.53860368e-01 -5.69259932e-02
  2.69596358e-01 -1.83459758e-01 -1.97550421e-01  1.97129015e-01
 -1.25846116e-01 -6.99659566e-02 -8.00866855e-02  8.89977884e-02
 -3.91251003e-02  3.67701597e-02  1.24418904e-01 -7.87080889e-01
  2.22860109e-01 -2.37294731e-02 -2.16249942e-03 -3.73614119e-02
 -4.74577707e-01  3.54221422e-01  9.18829282e-02 -1.92807432e-01]
Node 27: 
[-0.32611487 -0.10295494 -0.12793666 -0.01546043  0.15705945 -0.00195066
  0.0422871  -0.09084516  0.02483313 -0.20149136  0.12539328  0.14256675
 -0.03279317 -0.02407981 -0.15486936 -0.05795891 -0.00170754 -0.18802271
  0.0025773   0.0412385   0.20417998  0.08956014  0.13361858 -0.08126367
 -0.49417472  0.07651973 -0.12428533 -0.19934326  0.09127089 -0.40538759
  0.10911325  0.03509446 -0.01993333 -0.06836151  0.09364686  0.03683403
 -0.11632048 -0.14295636  0.02576819 -0.10101298  0.08776462 -0.02766866
  0.52413911  0.03164104 -0.05070312  0.05200614  0.15986015 -0.08579033
  0.5799097  -0.03213684  0.12303806 -0.05425929 -0.19492464 -0.07021054
  0.23292477  0.12245565 -0.33619838  0.17912883 -0.15650072 -0.22882733
 -0.18770826 -0.17394899  0.02966075 -0.10691931  0.0555732   0.09214753
 -0.03031205  0.37024559 -0.0366421   0.06218061  0.06253274  0.0432357
  0.01242489  0.50952132 -0.00506908 -0.48174234 -0.14896604 -0.04850638
  0.15672504 -0.10227854  0.33868171  0.09158993 -0.02289962 -0.26865038
 -0.03025912  0.0190049   0.13922194  0.46009783 -0.00266572 -0.01672287
 -0.05935129  0.40489365 -0.00194136 -0.18107927 -0.50933191 -0.01298113
  0.16983511  0.18242124  0.00066045  0.04013438]
Node 28: 
[ 4.10565408e-02 -3.62378328e-01  2.35856903e-03 -8.72428693e-03
 -2.87637023e-01 -2.25749450e-01 -3.33970673e-02  3.06039251e-01
 -1.74325457e-02 -4.45646353e-01 -4.53013054e-01 -1.51693086e-01
  3.27868901e-01 -5.68768602e-02  4.15366733e-02  6.38328548e-02
 -5.63155715e-03 -3.00186106e-01 -1.43982815e-01  1.33276728e-01
 -1.34212361e-02 -2.09547264e-01  2.52636903e-02  1.00310447e-01
  6.41880987e-03 -2.19749051e-01  1.73247154e-01  1.75067010e-01
 -1.81613173e-01  4.50598588e-03 -8.95902343e-02 -1.35666142e-01
  3.33860285e-01  4.64915733e-02 -6.26158551e-02  3.99811030e-02
  4.90138185e-01 -3.82619810e-02 -3.51209796e-02  5.00150612e-02
 -1.22434403e-01  1.36204816e-01 -9.07932337e-01 -4.75523070e-02
 -2.38054115e-01 -1.00740773e-01 -2.55665658e-01  3.27764463e-02
 -7.94968381e-01  3.34878290e-04 -5.94068390e-02  8.62268365e-02
  1.76697584e-01  3.01052245e-01  6.19937517e-01 -1.13203160e-01
 -1.51147512e-01 -3.19789420e-01 -3.91112833e-01 -1.82323825e-02
 -1.31861796e-01 -3.65073985e-02  6.29180729e-02 -1.88756572e-01
 -1.22508860e-01  1.33254678e-01 -2.74584553e-02 -2.78870131e-03
 -2.59994787e-01  4.92343228e-02  3.08687293e-01 -5.82309640e-02
  1.24178102e-02 -6.67484523e-01 -3.88393688e-01 -2.28763549e-01
 -3.52600554e-01  1.27415576e-01  1.53135614e-01 -1.05517136e-02
 -2.25679153e-02 -8.76849492e-02  6.30287585e-02 -1.94130669e-01
  4.39412675e-03 -4.68337937e-02 -2.15221610e-02 -6.17280491e-01
 -5.08874396e-02 -4.10030283e-02 -1.32489859e-01 -4.54722940e-01
  2.77097106e-02  1.23024713e-01  1.01654089e-01 -7.76846320e-02
  1.20233936e-02 -3.70928357e-01  6.56688456e-02 -3.48797584e-02]
Node 29: 
[ 2.27637507e-01  2.92087663e-01  1.17780224e-01  3.16899203e-02
  2.43735321e-02  7.23519292e-02 -5.62368375e-02  6.82707130e-02
 -1.00438321e-01 -2.69268770e-01 -2.03652400e-01  1.90991294e-01
  1.32681542e-01 -1.03368607e-02 -4.37238763e-02  1.52869548e-02
  3.16301934e-02 -1.15953468e-01  1.27192736e-01  1.93269900e-01
 -6.20352466e-02  9.93310664e-02 -4.39888767e-02  1.64827876e-03
  1.06879977e-01 -2.13014757e-01 -1.61726813e-01  5.67752837e-02
 -1.36992335e-02  1.47271060e-01  2.01771364e-01 -1.58449091e-01
  2.21921640e-01  6.10933789e-02 -1.37693845e-02 -7.19511303e-02
  2.82720271e-01  2.25052418e-02 -2.62743046e-02  7.63175577e-02
 -2.02233991e-01  1.84870028e-01 -2.19782870e-01 -6.43019132e-02
  3.14429131e-01 -7.27500843e-02 -2.01399061e-01  1.07363462e-03
 -5.12896493e-02 -1.45264775e-01  4.49832157e-02 -1.17008306e-01
 -3.37391498e-02 -1.95270018e-01  1.29169427e-01 -5.05668038e-02
  6.27025646e-03  2.10564848e-01 -7.73975788e-02  6.24903815e-02
  3.98395112e-02  2.37669311e-01  6.97014707e-02  8.16160587e-02
  6.32583204e-02  1.19590863e-01  1.80861993e-02  8.62311064e-02
  3.20191214e-01 -1.09512400e-01 -2.08822380e-01  9.25633636e-02
 -2.79895861e-02  1.91728829e-01  3.09203997e-01  1.34176614e-01
  8.49663510e-03 -2.22583304e-01  1.15658889e-01  2.06270425e-01
 -8.48874094e-02  2.02787076e-02  3.54847351e-02  1.10324293e-02
  1.13384610e-01  2.36623132e-02  3.89030058e-02 -2.79756838e-01
 -1.47357044e-05  1.02867126e-02  2.38345677e-01  2.26979122e-01
 -6.91943148e-02  6.15782043e-03 -1.91628086e-01 -1.34273291e-01
  1.14244551e-01  3.56786431e-01 -1.95207753e-01  8.03403634e-02]
Node 30: 
[ 0.14195382  0.09302407  0.05579536  0.03457459 -0.06407514  0.0910202
 -0.04603902  0.07413996 -0.05247284 -0.13828599 -0.14849743  0.09177633
  0.09465607  0.02330236  0.05398106  0.0484957   0.0370201  -0.12123397
  0.04245441  0.05663904 -0.11620374  0.08624499 -0.00124438  0.04489464
  0.13514185  0.06069691 -0.05262078  0.0384531  -0.06222641  0.10611788
  0.0628368  -0.06051626  0.11938002  0.04717196 -0.03382941 -0.04066208
  0.15791703  0.02912826  0.01038638  0.07078523 -0.07598381  0.07962622
  0.00970383 -0.06675041  0.10227741 -0.06290917 -0.08881697 -0.02931092
  0.02826918 -0.05177783 -0.02218863 -0.05284788 -0.0061636  -0.09386782
  0.08882711 -0.05204396  0.07385286  0.05169692 -0.05970565  0.02836052
  0.01400707  0.09020386 -0.00390366  0.05552892  0.03822674  0.1591372
  0.04298707  0.08107204  0.10504633 -0.02226422 -0.08982675  0.02312399
 -0.00917568  0.04297887  0.08574646  0.08775881 -0.09045668  0.08106069
  0.09382589  0.08764701 -0.11560102  0.02729258  0.07585519  0.08282678
  0.02389722  0.01354302 -0.00470534 -0.03426849  0.04352757 -0.01139195
  0.08348873  0.0414297  -0.04573715 -0.02315625  0.04205003 -0.0279987
  0.06128436  0.0588454   0.03481148  0.03030527]
Node 31: 
[-5.56178672e-02  8.94325266e-02  5.79305795e-03 -1.85534963e-02
  1.71421971e-02  9.90027374e-03  1.42943595e-02  1.00138429e-02
 -1.92085234e-02 -1.31721462e-01 -3.27867573e-02 -5.78839045e-02
  1.79121523e-02 -2.01475039e-02 -1.62427737e-02 -1.51964083e-02
 -1.59253665e-02 -9.92449760e-02 -4.65866707e-02  1.67053009e-05
  5.05996790e-02  4.91538443e-03 -1.18839361e-02 -1.70549200e-03
 -3.29717026e-02 -8.91154015e-02 -2.06007164e-02  5.88318794e-02
  1.57053663e-02 -4.83179919e-02  1.26789890e-02 -8.40766963e-03
  9.52410673e-02 -1.58312440e-02  2.30467576e-03 -1.31731239e-02
  1.75618468e-01 -9.60319571e-03 -6.75023229e-03 -3.03583144e-02
  1.11054006e-02  1.22638100e-02  1.23955809e-02  1.88845824e-02
  4.92169780e-02 -6.48510665e-03  7.51853738e-03 -3.43171637e-02
  5.93089422e-02  7.45563233e-03 -2.77952402e-02 -1.03891985e-02
 -3.60020646e-02 -2.42178922e-02 -7.48373746e-02  1.53280179e-02
  1.06335432e-01  4.58449069e-02  3.17649438e-02  2.31765013e-02
 -1.59190323e-02  6.00307744e-03  6.57255997e-03  7.73379671e-02
 -5.09119887e-03  1.11337646e-02 -1.08675463e-02  1.21480167e-01
  5.87523666e-02  1.52488344e-02 -4.42198660e-02 -1.94306225e-02
 -2.68832333e-03  8.75982605e-02  4.24111177e-02  1.07133119e-01
 -9.41375395e-02  1.20557174e-01  1.20404420e-02  3.85862594e-02
  3.54773687e-02 -2.93382084e-02 -2.69463022e-02  1.18219293e-01
 -2.10260365e-03 -1.86583292e-02  6.43317419e-03 -2.53958631e-02
 -1.96446086e-02  5.57320909e-03  5.38315462e-02  6.81775716e-02
  2.84247877e-02 -2.26423924e-02  6.56121352e-02  2.36222423e-02
 -6.92554881e-04  1.33614475e-01 -2.55151626e-03 -2.05065585e-02]
Node 32: 
[ 1.81933917e-01  2.36399283e-01  4.15528416e-02  1.31178205e-03
 -1.95408083e-02  7.87336438e-02 -9.26173918e-03 -2.51103281e-03
 -5.35520034e-03 -9.24052976e-02  5.73350379e-03 -4.44702559e-02
  1.65487788e-03 -1.64730603e-02 -1.28601002e-02 -2.94230987e-02
  2.94475275e-04 -1.01773101e-01  1.32443517e-01 -3.65178250e-03
 -3.70619172e-03 -1.01667295e-01  2.36346857e-02 -2.16065344e-02
  3.65855468e-01  2.08080651e-02 -9.37917637e-02  1.17707657e-01
  1.62028364e-02 -3.75475816e-02  6.81702321e-02 -8.18071851e-02
  5.21083858e-02 -7.50425565e-03  1.53164707e-02 -3.12992104e-02
  4.48616956e-02 -2.47025304e-02 -4.32656562e-02 -3.12450188e-03
 -9.75073649e-02  8.55718659e-02 -3.45116104e-01  2.22234402e-02
 -1.30960416e-01  6.68596716e-02 -1.35682807e-01  9.59139793e-02
 -1.90712022e-01 -7.42348369e-02  7.26230493e-02  4.32177800e-02
  5.36189188e-02  1.11380906e-01  2.75079393e-01  1.17291364e-02
  4.06039203e-02 -6.19070659e-03 -1.59664076e-01 -3.68514421e-02
 -5.23416461e-02  1.56966385e-02  9.28150845e-02 -2.94385166e-02
  1.56168342e-02  3.39313966e-01 -3.24986244e-02  2.10576229e-01
 -1.19818783e-01  7.13844733e-02  1.18560915e-01  6.39013924e-02
 -2.01531445e-02 -2.38116375e-01 -1.01118673e-02  2.93430984e-02
  4.35194933e-03 -8.91126843e-02  2.68233013e-01 -6.92084875e-03
  8.04071203e-03 -8.17638803e-03 -2.31197033e-02  4.96044506e-02
  9.44277471e-02 -6.78476475e-03  7.56073399e-02 -2.57540374e-01
 -4.97844298e-02  2.25629393e-02  1.94058706e-02  4.15535630e-01
 -2.82914255e-02  8.67209171e-02  1.27066192e-01 -4.24104260e-03
  1.27601070e-01 -2.43368283e-01 -6.82062182e-03  5.38324789e-02]
Node 33: 
[ 0.06480904  0.02545645  0.00140981  0.02503956 -0.05370336  0.06352991
 -0.0308606   0.03513755 -0.00781434 -0.05434202 -0.05275131  0.01342428
  0.03957335  0.01471495  0.0329997   0.0384112   0.02610276 -0.0334097
  0.02659422 -0.00172684 -0.04827882  0.03908055 -0.00243077  0.03568715
  0.05638775  0.02126976 -0.01169928  0.0114926  -0.04707946  0.06311745
  0.02516818 -0.01086611  0.03791338  0.03404978 -0.02676607 -0.00826146
  0.05671525  0.00952642  0.00787379  0.05169158 -0.01654221  0.01538923
 -0.01920619 -0.04735077  0.01096514 -0.00925124 -0.01212289 -0.00081662
 -0.01133359 -0.01862592 -0.00151862 -0.01352807  0.00605835 -0.05485429
 -0.0078227  -0.0401875   0.02815373  0.03654686  0.00126459  0.00965547
  0.00721499  0.01021561 -0.00975188  0.01664705  0.01083486  0.005644
 -0.0031355   0.00252945  0.01097807 -0.00662223 -0.0206254   0.01204679
 -0.00465978 -0.00461605  0.04280336  0.02296856 -0.03410029  0.02409463
 -0.01338191  0.01186596 -0.05494236  0.02160926  0.05939601  0.03063121
 -0.01015243  0.00888493 -0.01797986 -0.01322812  0.01906839 -0.01316787
  0.00970627  0.0248177  -0.03474162  0.00036809  0.01961134 -0.01985163
  0.02090902  0.00325609 -0.00355922  0.01753389]
Node 34: 
[ 0.13193438  0.13989641  0.07518696  0.0881971  -0.08223993  0.21296496
 -0.05065836  0.01986614 -0.06668652  0.04137674 -0.07650725  0.09774464
  0.01674128  0.1495657   0.11207098  0.04909245  0.07561015  0.14730028
  0.08488448  0.04690576 -0.34478789  0.11164808 -0.01381898  0.00832425
  0.14528152  0.30890848 -0.18617164 -0.22013897 -0.0191088   0.3570594
  0.02664236  0.11973005 -0.10801368  0.03239248 -0.0697427  -0.08001997
 -0.21406178  0.05790725  0.10359371  0.1048769   0.06434215 -0.03762215
 -0.23952441 -0.07992096  0.02857788 -0.04603589  0.21268029  0.03694153
 -0.24122356 -0.04133857  0.02308279 -0.11049596  0.09298942 -0.05031848
  0.09535781 -0.01670763 -0.09341428  0.05286765 -0.00313862  0.05882624
  0.06384975  0.38231967 -0.11472991  0.07176087  0.12966871  0.07959076
  0.04217518  0.3940182   0.0433988  -0.01760575 -0.09196152  0.09186522
 -0.0340581  -0.18282423  0.20480681  0.00526519  0.13949836  0.10233646
  0.13417237  0.18879697 -0.29523045  0.18697379  0.13318598 -0.15447816
  0.0145303   0.08168352  0.00614618 -0.19546299  0.20240749 -0.00268456
  0.08833084  0.28240509 -0.14568647  0.05264793  0.07044282 -0.03494068
  0.11029323 -0.07682615 -0.01401134  0.09243109]
Node 35: 
[ 0.26521597 -0.05882267 -0.11899269  0.02445647  0.16389529  0.17779896
 -0.00812551 -0.06724421  0.04738463  0.02007802  0.06201667 -0.15385236
 -0.05880777  0.0042709   0.06762777 -0.03828804  0.00981124 -0.02512274
  0.15910637  0.04223158  0.01999949  0.08435777  0.21678223 -0.08422221
  0.3764388  -0.08851303  0.03613327  0.10266306 -0.03858699 -0.02902577
 -0.06875542 -0.03378583  0.04206424  0.00522643  0.20641129  0.02158854
  0.0413739  -0.21158399 -0.06691766  0.04088921 -0.10350351  0.10525237
  0.01587457 -0.08436984 -0.18095267  0.20281983 -0.10683399  0.12174876
 -0.14225656 -0.0401955   0.10663407  0.13033195  0.12224719 -0.09158711
  0.04971096  0.02824197 -0.13006362  0.08517541 -0.04234525 -0.23663883
 -0.15713611 -0.10824887  0.16701328 -0.29531086 -0.09687076  0.04377967
 -0.11059519  0.07532721 -0.19701904 -0.16038533 -0.16667821  0.00286448
  0.12362495 -0.25455678  0.21892727 -0.08857864  0.1497616  -0.09925618
  0.04413975 -0.23132677 -0.0099065  -0.03273462 -0.10727495 -0.14333562
  0.05656478  0.07750351  0.10675133  0.07021073 -0.12183319 -0.05645396
 -0.24102356 -0.05291059  0.02480646  0.11272637 -0.03033628 -0.14308019
  0.066274   -0.26007648 -0.17275726  0.01067871]
Node 36: 
[-0.00868013  0.01104077  0.00215714 -0.00023996 -0.00608505 -0.00256888
  0.00177095  0.00011208 -0.00448089  0.00035553  0.00021096  0.00829589
 -0.00020306  0.00433788  0.00301241  0.00157492 -0.00013586  0.00091378
 -0.00937791 -0.00701157 -0.00935829  0.00509966 -0.00284827  0.00206876
 -0.01255992  0.01736983 -0.00649993 -0.00530803 -0.00320069  0.00671168
 -0.0028696   0.00507102 -0.00083049  0.00016306 -0.00081732 -0.00410522
 -0.00047314  0.00328465  0.00502038  0.00147632  0.00798085 -0.00328042
 -0.02164078 -0.0008574   0.00356437 -0.00078717  0.007174    0.00190493
 -0.01300086  0.00455812 -0.00564482 -0.00017009  0.00388083 -0.00343779
 -0.00029286 -0.00225458  0.01024081  0.00492016  0.00027801  0.00333539
  0.00079073  0.00266272 -0.00811398  0.00554701  0.00082609 -0.00037733
 -0.00111287  0.00552539  0.00307689  0.00360102  0.00119979 -0.00553103
  0.0010533  -0.00771107 -0.00399137  0.00901914  0.0012092   0.00825459
 -0.00047268  0.00551594 -0.00630133  0.0016237   0.00261215  0.01205202
 -0.00172627  0.00107896 -0.00468603 -0.01037031  0.00604176 -0.00105091
  0.00319705  0.01385122  0.00237715  0.00361342  0.00591532  0.00335143
 -0.00391424 -0.00036071  0.0006978  -0.00519291]
Node 37: 
[ 0.31372677 -0.24935561 -0.11063252  0.05218927  0.0177432   0.20349062
 -0.07419002  0.01595737  0.1196818  -0.02520784 -0.02789362 -0.22582123
  0.02484377 -0.04284352  0.05375693  0.01369567  0.04710415 -0.07022154
  0.26558281  0.15632898  0.08600584  0.05127848  0.16417721 -0.00225988
  0.34480451 -0.43912578  0.12680303  0.30438925 -0.06149702 -0.04282211
  0.0288638  -0.12687984  0.07230329  0.05399437  0.08911873  0.09149348
  0.05834194 -0.19887769 -0.09284527  0.07614171 -0.17629801  0.11613819
  0.2544608  -0.11553977 -0.22579838  0.03464647 -0.1983248   0.04751267
  0.11289385 -0.09336989  0.1170971   0.02019558  0.02535563 -0.08649199
  0.00508364 -0.02488482  0.04177042  0.04167848 -0.00871544 -0.17294136
 -0.0682739  -0.22320907  0.20908578 -0.01346837 -0.06110162  0.00668121
 -0.06335292 -0.28947531 -0.22768274 -0.12347545 -0.09114031  0.07249825
  0.06278654 -0.08904925  0.24072697 -0.00591359  0.00396112 -0.0996243
  0.01294069 -0.28214226  0.01952267 -0.03712903 -0.02050105  0.05367079
  0.05409597  0.03566705  0.07586414  0.23783173 -0.12603703 -0.05213253
 -0.2383665  -0.29858129 -0.04704819  0.01260193  0.01566412 -0.1072948
  0.1980069  -0.22921488 -0.08115239  0.09119146]
Node 38: 
[ 0.11072115 -0.17748627 -0.06724822  0.02860273 -0.04994525  0.07823255
 -0.01346642  0.03291761  0.03578478  0.21549702  0.01294454 -0.06752606
 -0.00103944  0.07194539  0.10376918  0.07237675  0.02971108  0.17254534
 -0.07863763 -0.11867448 -0.22733482  0.21526242  0.0138758   0.05607499
  0.03577578  0.0104534   0.03023079 -0.13409009 -0.1362152   0.1821952
 -0.09173422  0.08832083 -0.15966724  0.04729196  0.01889096  0.02143857
 -0.19476891 -0.00092206  0.05318178  0.09769688  0.05689355 -0.1161064
  0.11172667 -0.100489   -0.05474398 -0.0025345   0.10694894  0.04581104
  0.06838211  0.08959928 -0.05262367 -0.08018001  0.07079917 -0.20112769
 -0.51079647 -0.07294277 -0.24275221  0.2077749   0.2099178  -0.02153462
  0.02136065 -0.13264814 -0.12554728  0.18164797 -0.01854944 -0.37033652
 -0.06902727  0.1191208  -0.05504268 -0.07385535 -0.07914812 -0.0811489
  0.04708753  0.00483164  0.08493981 -0.19212796 -0.06973187 -0.23182915
 -0.39555191 -0.03271052 -0.19368682  0.02287303  0.07594566 -0.27002621
 -0.15881189  0.04564716 -0.13832699  0.16442408  0.04120621 -0.05481637
 -0.03248883  0.14202234  0.01465444  0.03080455 -0.14813839  0.00156849
 -0.14730456 -0.17707109 -0.08799727 -0.05747544]
Node 39: 
[-2.58308582e-163  7.79082387e-164 -6.22515452e-165  3.25819094e-164
 -1.06251676e-164 -8.97615719e-163 -9.07098084e-165 -8.62075848e-166
  2.09811346e-164  2.19787417e-165 -5.17234848e-165  1.23778866e-163
  3.01549519e-165 -3.00509097e-163 -9.24536216e-165  1.72021892e-006
  2.01764893e-164  2.99477832e-165  2.49027899e-165 -3.68609879e-164
 -1.85372507e-165 -1.01678474e-164  1.38993175e-163 -8.29129506e-166
 -1.36088686e-165  6.21338173e-163 -3.70831311e-165  4.77998166e-163
  2.56307447e-164  3.49561736e-164  1.76604682e-164 -8.75053056e-164
 -8.15610527e-164 -1.22923929e-164  1.99768269e-040  3.25829577e-163
 -2.16213323e-164 -3.42898027e-165  2.51306805e-164  6.99641832e-165
  2.44311578e-164 -3.37672092e-164 -5.77376741e-165 -1.84169811e-164
  4.39740663e-165  1.78176812e-164 -7.68707147e-164  1.21246968e-165
 -4.16397352e-164 -2.02595506e-164  1.01246375e-164  1.20045271e-163
  1.42171224e-164 -3.41075565e-166  4.58106537e-165 -2.01755526e-164
  5.35263473e-165 -4.61591019e-165  1.84042199e-164  5.76289842e-164
 -7.41638338e-164 -4.29476454e-165 -1.23528533e-165 -1.03288785e-162
  4.47355781e-164  5.29729102e-164  1.83470375e-165 -1.31470419e-164
 -1.02657646e-164 -8.92318087e-164 -2.48398725e-164  4.50563658e-166
  8.32883322e-164  6.95685213e-164 -3.16474734e-163 -2.52233445e-165
  5.76437109e-165 -5.88208307e-163 -3.23970449e-163  1.41177952e-113
 -6.99217877e-165  2.83098866e-164  1.51679465e-164 -4.94781108e-164
 -3.69085537e-164 -6.11561605e-165 -4.26725279e-165  3.13073966e-165
  8.31250900e-165  6.08447662e-164  1.46434855e-165 -2.74987519e-164
  1.29452475e-164  3.32002216e-164 -2.92911358e-166 -8.88484097e-165
  5.34639157e-164  8.76324803e-164 -8.59038418e-164 -9.69168123e-165]
Node 40: 
[-1.83662469e-01 -1.78048748e-01  1.69426771e-01 -1.12180656e-01
 -1.32419662e-01 -2.16790457e-01  3.03949099e-02  6.22310396e-02
  3.55374693e-02 -6.87577607e-02 -3.33218800e-02  4.67153717e-02
  5.76784030e-02 -1.74488984e-01 -2.33291453e-01  3.99677323e-03
 -7.64460243e-02 -9.04202291e-02 -1.91952140e-01  9.60410176e-02
  1.93550204e-01 -3.48633912e-01 -3.24109623e-01  8.57378707e-02
 -1.77652369e-01 -1.69091329e-01  8.10470705e-02  6.68195232e-02
  1.33864653e-01 -1.63414654e-01  1.47152860e-01 -9.81509235e-02
  2.11525619e-02 -4.73962456e-02 -2.90579285e-01  7.81078901e-02
  2.12465742e-02  2.49989917e-01 -2.39485445e-02 -1.53284775e-01
 -1.19032625e-02 -3.30128437e-02  4.85253199e-02  1.99935283e-01
  1.97683228e-01 -1.89408476e-01 -4.15439791e-02 -2.75141330e-01
  1.83500453e-01  5.52759184e-03 -1.01132680e-01 -5.14503148e-04
 -3.03249694e-01  3.13947404e-01 -3.85638259e-01  1.52952578e-02
 -1.42826407e-01 -3.46551919e-01  3.00403231e-01  2.90815441e-01
  3.24472796e-01 -5.96829332e-02 -6.08801634e-02  1.58914484e-01
  3.21908744e-02 -1.65484562e-01  2.39095630e-01 -2.36156484e-01
  1.77517595e-01  8.86060086e-02  9.93514400e-03  3.16188769e-03
 -1.89140517e-01  5.82104713e-01 -2.66340670e-01 -1.66200772e-01
 -2.08808044e-01 -1.14997807e-01 -3.04546592e-01  1.37399265e-01
  2.05082968e-01 -1.09061974e-01  6.08858666e-02 -1.44404096e-01
 -9.78230754e-02 -2.18122871e-01 -7.32919116e-02  3.67585386e-02
  2.92149263e-02  1.21207242e-01  2.78447467e-01 -2.63996104e-01
  3.21573326e-02 -2.72592810e-01 -1.46395498e-01  1.95781303e-01
 -2.02011955e-01  8.16592996e-03  3.57787504e-01 -1.89249694e-02]
Node 41: 
[-2.17428561e-02  3.95410826e-02 -2.58336915e-03 -2.63721648e-02
  2.61828337e-01 -8.63835687e-03  8.25772657e-02 -1.43435957e-01
 -2.50864261e-02  2.32053554e-01  1.58180794e-01  2.48562363e-02
 -1.49549279e-01  3.77180405e-02  3.40392626e-03 -9.75958338e-02
 -4.63532123e-02  1.34285542e-01 -3.98680130e-04 -1.19587161e-01
  6.42323470e-02  1.25627889e-02  1.08188170e-01 -1.42000082e-01
  3.98011831e-02  3.57505678e-02 -2.45097131e-02 -9.49214072e-02
  7.96744387e-02 -7.11059980e-02 -1.54125763e-01  9.95664747e-02
 -1.10223798e-01 -8.38170649e-02  1.44726043e-01 -2.59032189e-02
 -1.58960138e-01 -1.08017528e-01  8.23493216e-03 -7.84381815e-02
  7.98405732e-02 -3.48896004e-02 -1.66594946e-01  5.24138637e-02
 -9.01793427e-02  7.92997898e-02  8.94375405e-02  9.57032838e-02
 -1.80577637e-01  6.19134366e-02  3.54131298e-03 -3.05010226e-02
  8.39987167e-02  1.40086694e-02  2.30746612e-03  1.13464061e-01
  3.32757452e-02  4.85325824e-02 -3.57446926e-03 -1.13816047e-01
 -5.64341270e-02  7.75950680e-02  1.92078360e-02 -9.05372979e-02
 -4.27828409e-02  1.52329006e-03 -3.82576837e-02  4.22221492e-02
 -9.18107563e-02 -4.03295869e-02 -9.41799943e-02 -4.78880320e-02
  7.37465780e-02 -2.08483294e-01  1.35753225e-02  4.79846650e-02
  3.03569578e-01  3.05950592e-02  7.89706804e-03 -2.13214274e-02
  6.24683383e-02  9.05397480e-03 -1.64356864e-01  2.73283357e-02
  2.45660102e-02  6.15935694e-02  6.13009911e-02 -1.16606391e-01
 -3.56198142e-02  1.78340729e-04 -8.76633226e-02  2.69188013e-02
  7.14115028e-02  1.05945544e-01  9.46144803e-02  7.55054915e-03
  1.38145191e-02 -1.29939592e-01 -1.02775724e-01 -6.13584397e-02]
Node 42: 
[-6.81295016e-02  1.99843413e-02  3.88768126e-04  5.55650586e-02
 -2.86781587e-01  6.42332971e-02 -4.05152114e-02  7.93197060e-03
 -6.75787837e-03  1.88478125e-03 -1.93474668e-03  1.36497867e-02
  1.75928664e-03  3.33656566e-02  1.50574224e-01  6.54601296e-02
  6.38347306e-02  5.74007550e-03 -1.06747742e-01 -1.67113810e-02
 -1.26895416e-01  8.14353269e-02 -6.72214332e-02  1.28038717e-01
 -7.03540681e-02  3.77171269e-02 -1.05068397e-02 -2.25870382e-01
 -9.86276212e-02  1.27886931e-01 -6.36760889e-03  1.40067399e-02
 -9.33298182e-04  9.10104750e-02 -1.05614291e-02 -7.28449167e-03
 -4.87616632e-04  2.35918456e-03  1.92520678e-02  8.35688775e-02
  2.36812055e-02 -9.06871475e-03 -2.71453287e-02 -9.11916393e-02
 -6.89665993e-04 -6.72203142e-04  1.44185857e-02  6.78805309e-03
 -2.62851705e-02  1.14230418e-02 -7.71368207e-03 -8.36933285e-04
  2.21822169e-02 -1.13062621e-01 -6.44594718e-04 -1.34165737e-01
  8.41188656e-03  1.90173413e-01  5.66089149e-04  9.89009280e-02
  2.62787781e-04  3.01742897e-03 -1.73570636e-01  1.37016175e-03
  1.02410626e-03 -7.28680703e-04 -5.37961905e-03  1.68075511e-02
 -1.59538963e-03  1.10559743e-03 -7.57943914e-06 -3.02992576e-02
  8.11130879e-03 -1.88416218e-02  5.16424815e-03  1.47082917e-02
  8.57431298e-04  7.18555345e-03 -3.53567807e-04  2.36746066e-03
 -1.46566968e-01  1.80142872e-02  7.69671951e-02  7.30817557e-03
 -1.56128926e-03  3.75897176e-02 -7.41470681e-02 -1.15961975e-02
  1.33541589e-02 -2.50564489e-02 -1.37582370e-04  2.86035437e-02
 -1.89883213e-02  8.57742581e-03  8.32550311e-03  9.39015040e-04
 -3.28365934e-02 -9.94175410e-03 -1.99906591e-03 -2.41794861e-02]
Node 43: 
[ 0.07550402 -0.11793075 -0.0174462  -0.01711436  0.16472104 -0.01331838
  0.00726862 -0.05188428  0.07562931 -0.04474169  0.0490707  -0.13728525
 -0.03175842 -0.07247877 -0.07811354 -0.07478701 -0.0223152  -0.09253873
  0.10386158  0.08376188  0.20567103 -0.11278939  0.05262693 -0.07541155
  0.12793234 -0.22242378  0.07975377  0.15688741  0.11188611 -0.19929614
  0.03196305 -0.09341326  0.07655489 -0.04418475  0.04924592  0.06701025
  0.07902493 -0.09276137 -0.09507691 -0.07617953 -0.12088143  0.11935158
  0.07270454  0.05724    -0.04857287  0.14354773 -0.15452334 -0.00801468
  0.03552287 -0.08144874  0.08474612  0.12577511 -0.01803132  0.08785327
  0.38998044  0.08522075 -0.09986736 -0.08483987 -0.16407296 -0.06611287
 -0.10916649 -0.06439388  0.15619327 -0.19188753 -0.03447301  0.22238296
  0.04239578 -0.19131505 -0.05024753 -0.07610493 -0.04959166  0.07315492
 -0.00996411  0.01545401  0.01728299 -0.08547632  0.01551422 -0.21559738
  0.29558513 -0.08990877  0.1793415  -0.04128978 -0.10364698 -0.09907406
  0.1389642  -0.02097316  0.14198899  0.0640547  -0.12972028  0.03170462
 -0.06639889 -0.1338277  -0.00455811 -0.01528125 -0.08256637 -0.04491351
  0.10646834 -0.02075371 -0.0250484   0.0551571 ]
Node 44: 
[-3.13630069e-03  2.36201740e-03  1.58790354e-03 -4.23761727e-04
  5.17446147e-04 -1.91330035e-03  7.74096330e-04 -9.38486784e-04
 -1.03955684e-03  7.05470544e-04  6.00276953e-04  1.97680842e-03
 -9.52075614e-04  2.97293448e-04 -5.76030468e-04 -5.20879191e-04
 -4.14597802e-04  3.43618490e-04 -1.94794210e-03 -1.17735096e-03
  2.97630693e-04 -7.43701041e-04 -1.38801043e-03 -6.10136802e-04
 -4.01586320e-03  2.68934573e-03 -1.11784823e-03 -2.30172980e-03
  1.31548443e-03 -2.37681642e-04 -7.46242677e-04  1.02180787e-03
 -7.50933089e-04 -7.57729809e-04 -7.03184310e-04 -7.08011126e-04
 -8.74674209e-04  1.42646065e-03  9.14134824e-04 -1.07158616e-03
  1.62585873e-03 -9.52126923e-04 -4.47921022e-04  1.39812898e-03
  1.93265734e-03 -1.17653388e-03  1.60868098e-03 -6.92174209e-04
  9.71635056e-05  5.73412983e-04 -1.04281195e-03 -8.02946449e-04
 -5.89734684e-04  1.13053203e-03 -1.73921428e-04  6.23275216e-04
  1.46278245e-03 -3.22399399e-04  3.33766136e-04  1.49334845e-03
  9.89805759e-04  2.23499213e-03 -1.63638843e-03  6.24664905e-04
  8.26548738e-04 -4.50503113e-04  8.01459245e-04  1.54181984e-03
  1.88231430e-03  2.03810341e-03  2.19218858e-03 -3.85071988e-04
 -5.98623474e-04  7.32741756e-04 -2.59787395e-03  1.54679040e-03
  7.70936533e-05  2.18423271e-03 -2.05305880e-04  2.06489886e-03
  4.41422075e-04  6.54108050e-04 -7.99992995e-04  1.46888747e-03
 -4.26073024e-04 -8.48528282e-04 -3.66978347e-04 -9.98325695e-04
  1.20696205e-03  6.51473935e-04  1.59364755e-03  2.15832936e-03
  6.42446932e-04 -6.56186032e-04  1.19229330e-03  1.55616914e-03
 -9.51616000e-04  2.68341578e-03  1.36233947e-03 -4.29360224e-04]
Node 45: 
[ 1.96915325e-03 -6.28412760e-05  2.00910111e-05  1.81744879e-04
 -8.17621900e-05  1.20899372e-03 -3.08688700e-05  2.64652809e-04
 -3.91139744e-05  4.26309593e-04  9.85762354e-05 -2.49622149e-04
  3.37660669e-05 -2.45951651e-06  1.96250667e-04  1.59074544e-04
 -5.66628058e-05 -2.74033041e-04  1.52187811e-03  1.12808210e-03
  1.66252137e-04 -1.01538976e-04  9.76052072e-04 -9.93756661e-05
  2.66554758e-03 -1.04312630e-03  8.84241226e-05  1.22103040e-03
 -1.83007834e-04 -1.27492428e-04 -3.97952500e-04 -4.07234836e-04
  7.86286888e-04 -4.81094650e-05  5.61524628e-04  1.48012706e-04
  9.70903048e-04 -4.68244067e-04 -1.73208714e-04 -9.32567186e-05
 -9.75754296e-04  1.08539535e-03  5.57322825e-05  2.06736390e-04
  3.47091348e-04  5.73005966e-05 -1.14376522e-03  2.25777858e-04
  6.10657230e-05 -7.72327041e-04  7.05057272e-04  7.38379741e-05
  1.66887460e-04 -6.66892447e-05  5.35696602e-04  1.64971233e-04
 -2.93357900e-04  5.11832705e-04 -3.04079757e-04 -9.25437485e-04
 -2.35144280e-04  1.43367193e-05  1.14190801e-03  2.20148993e-04
 -8.61572964e-05  5.99276622e-04  1.58156897e-05 -1.07547008e-04
  4.05898096e-04 -3.43574572e-04 -1.36697127e-03  7.34794307e-04
 -3.41922200e-04  1.78021179e-05  1.61169826e-03 -2.84346449e-04
  2.34079414e-06 -2.00603048e-04  1.55975403e-03 -5.95925760e-05
  1.33499316e-04  2.85782860e-04  2.27828547e-04  5.44912017e-05
  9.06131217e-04  4.58986082e-05  1.17825714e-03  1.80223632e-05
 -1.99372285e-04 -7.79574338e-05 -6.85710263e-05  1.01096866e-04
  1.88388410e-05  6.72144192e-04 -8.80332900e-06 -6.99993165e-04
  1.45656507e-03  2.66828181e-04 -3.04256768e-04  6.56544702e-04]
Node 46: 
[ 0.01235641 -0.03219731 -0.00051502  0.02520435 -0.12860917  0.01519464
 -0.05695964  0.07679284  0.01432348 -0.08905994 -0.09004373 -0.02193023
  0.08304815 -0.01786313  0.00419125  0.06922869  0.03600175 -0.06575702
  0.01091275  0.08409518 -0.03879133 -0.0003086  -0.04310152  0.07265734
 -0.00047786 -0.02957553  0.02034687  0.06722431 -0.05702678  0.04504513
  0.07933638 -0.06030006  0.07402373  0.05381644 -0.08069287  0.01285744
  0.10337168  0.06117631 -0.00567533  0.06007739 -0.05441416  0.02911525
  0.11224975 -0.04291061  0.01649586 -0.03395965 -0.06188934 -0.03600779
  0.11376643 -0.04691336  0.00799295  0.01104713 -0.05186884 -0.02044487
 -0.03291258 -0.0635428  -0.0193113  -0.02485571  0.00870416  0.05480922
  0.0727442  -0.04531469 -0.00801433  0.04129248  0.03340105  0.00663949
  0.01643055 -0.03895841  0.02127768  0.01639855  0.04020764  0.0410583
 -0.04292773  0.11532802  0.00532073 -0.02069413 -0.17801269 -0.02212678
 -0.04631548  0.01477067 -0.04494361  0.00506969  0.11329667 -0.01948346
 -0.02844689 -0.02836646 -0.03690662  0.05051424  0.0261403  -0.00224845
  0.04935097 -0.02024422 -0.05966899 -0.04689868 -0.01048159 -0.0118895
 -0.00527433  0.03764849  0.04296568  0.04956096]
Node 47: 
[ 1.77047376e-03  3.20084665e-03 -4.55155750e-04  9.52257459e-04
  5.28936588e-04  2.33648472e-03  5.30050675e-04 -5.20226718e-04
 -1.31989498e-03 -4.82458095e-05  1.26311194e-04  1.13845034e-03
 -4.69483627e-04  2.32864378e-03  2.05495200e-03 -7.93903973e-04
  6.48826676e-04 -9.47619254e-05  1.56611602e-03 -1.24204660e-03
 -1.69341035e-03  3.39834934e-03  2.56597060e-03 -1.28534953e-03
  2.51824050e-03  4.99117969e-03 -2.14925042e-03 -2.31726766e-03
  1.00360275e-04  2.02248846e-03 -3.38664434e-04  1.17395308e-03
 -5.11029894e-05 -2.69615137e-04  2.62050021e-03 -1.84354322e-03
 -2.16572720e-04 -1.34817705e-03  7.00671473e-04  5.48051499e-04
  9.38680417e-04  8.39400320e-05 -7.20287676e-03 -8.59444373e-04
 -1.40726242e-03  8.45589658e-04  1.17308755e-03  2.61526070e-03
 -6.83740874e-03 -5.01878256e-05  7.22131227e-04  8.57287660e-04
  2.22148904e-03 -3.05521691e-03  9.32298535e-05  5.20668237e-04
  3.14328503e-03  5.20809091e-03 -1.54741379e-04 -1.62217569e-03
 -5.96309132e-04  1.31331447e-03 -2.19737571e-04 -1.47762367e-04
  6.58637258e-04  6.14952703e-05 -1.67258478e-03  3.13302563e-03
 -1.19715120e-03 -1.19409712e-03 -2.52754551e-03  2.35443643e-04
  1.43601637e-03 -7.05844270e-03  2.45393779e-03  4.18784885e-03
  3.94260295e-04  4.75263397e-03  1.68255897e-04  2.32147438e-04
 -1.61041138e-03  2.08104525e-03 -1.27461576e-03  3.65764164e-03
  3.75534296e-04  2.49204507e-03  1.05141224e-03 -4.00825262e-03
  3.66813946e-04 -6.29148869e-04 -7.20213002e-04  4.48146683e-05
 -3.72852341e-04  2.83259848e-03  1.37605082e-03 -7.65469468e-04
  1.38757227e-03 -4.69765251e-03 -2.39338390e-03  1.56145573e-04]
Node 48: 
[ 2.40800575e-04  1.02959749e-02  2.39023779e-04  1.23514422e-03
  7.25059093e-04  3.95884047e-03  8.11859230e-04 -8.99802123e-04
 -3.07377759e-03  1.09489303e-03  4.81816923e-04  1.89363718e-03
 -9.86537109e-04  4.09781014e-03  3.33252717e-03  4.16998601e-04
  6.41449404e-04  1.59048469e-03 -5.06868253e-04 -5.94295999e-03
 -5.15272710e-03  4.92704008e-03  2.70041271e-03 -1.37044240e-03
 -3.98619369e-04  1.28153383e-02 -4.95619826e-03 -4.67071778e-03
 -1.30765968e-03  4.68710853e-03 -3.92053356e-03  4.60559520e-03
 -9.54368987e-04  9.21965764e-05  2.92663040e-03 -3.61705073e-03
 -8.89397925e-04 -1.18853076e-03  2.59543448e-03  1.43086109e-03
  4.27313016e-03 -1.88503097e-03 -4.14608763e-03 -1.61972717e-03
 -1.44417762e-03 -6.28136217e-04  5.47042071e-03  3.52334417e-03
 -5.23157741e-03  2.01303379e-03 -9.72819235e-04 -7.59903092e-04
  3.16192563e-03 -2.93836996e-03 -4.18269544e-04 -2.55238594e-04
  1.16962575e-02  4.65129283e-03  2.20019496e-04 -1.87646362e-03
 -1.08329206e-03  3.42534026e-03 -2.74550816e-03  6.77968589e-04
  9.73673586e-04 -8.31164972e-04 -2.43224918e-03  1.04285606e-02
 -1.32364040e-03 -2.05179308e-04 -3.02207196e-03 -1.52062583e-03
  2.12904607e-03 -9.39301776e-03  2.31944577e-03  8.66604742e-03
  3.09291739e-03  4.88997313e-03 -7.41334037e-05  9.94497839e-04
 -4.31842226e-03  3.07495792e-03 -4.49456354e-04  1.22738900e-02
 -1.83328224e-04  3.36346409e-03 -7.57974440e-04 -5.98013609e-03
  2.39058261e-03 -1.26599476e-03 -6.91671065e-04  1.36311343e-02
  2.39361593e-04  3.91443670e-03  1.10651325e-02  1.69864036e-04
  9.91710703e-04 -5.39899169e-03 -3.51210942e-03 -1.23342705e-03]
Node 49: 
[-3.94239711e-03  3.49189953e-03  1.88465894e-03 -3.14499003e-04
  3.67386542e-04 -1.55946803e-03  7.55818407e-04 -2.82293787e-04
 -1.52903986e-03  1.71507464e-04  2.17335099e-04  1.67444099e-03
 -2.81006082e-04  8.64773339e-04 -2.39542402e-04 -3.87775883e-04
 -2.99388422e-04  5.71654631e-04 -2.53915386e-03 -1.46652853e-03
 -8.37337819e-04 -1.11706458e-05 -8.29255292e-04 -3.40621638e-04
 -5.47046537e-03  5.61563338e-03 -1.89417386e-03 -2.09550655e-03
  7.09874765e-04  7.86586699e-04 -1.91149069e-04  1.67360229e-03
 -1.22700152e-03 -5.82111106e-04 -4.47691253e-04 -1.23664919e-03
 -1.76278863e-03  8.93676442e-04  1.30733185e-03 -6.33187020e-04
  2.87493906e-03 -1.82101844e-03 -3.55747565e-03  9.84955346e-04
  1.72553600e-03 -9.17436205e-04  3.53142613e-03 -8.61094821e-05
 -1.37338059e-03  1.10830419e-03 -1.44674838e-03 -2.15644089e-03
  4.87569488e-05  4.11675070e-04 -1.27138111e-03  3.66119656e-04
  4.30081346e-03  4.57948071e-04  4.60521080e-04  7.90379667e-04
  4.08403370e-04  1.73193060e-03 -2.33220138e-03  2.08542604e-03
  9.22776633e-04 -1.70544341e-03  5.32882823e-04  3.72636424e-03
  1.94545757e-03  1.90080996e-03  1.15228716e-03 -6.79319956e-04
 -3.17817455e-04 -4.11441289e-05 -2.65598860e-03  3.85652492e-03
  4.58109029e-04  4.37805476e-03 -4.00910992e-04  1.21303849e-03
 -2.47510044e-04  8.20781973e-04 -1.57895168e-04  3.91202852e-03
 -3.44764955e-04  3.60604701e-05 -1.03456236e-03 -4.50021479e-03
  1.73856917e-03  3.54668425e-04  1.03363386e-03  4.55824216e-03
  2.52886408e-04  2.40131175e-04  3.57780085e-03  1.68672392e-03
 -7.54015787e-04  1.19009917e-03  7.55987537e-04 -8.65108373e-04]
Node 50: 
[-0.04115844 -0.06614658  0.01200216 -0.06039678  0.11902113 -0.09750554
  0.0666634  -0.05470364  0.03866771 -0.00138674  0.03261111 -0.02275207
 -0.0554971  -0.06987601 -0.05776015 -0.08298837 -0.0678457   0.02705405
 -0.01397908 -0.0266684   0.12997616 -0.1098228   0.0015084  -0.07076708
 -0.00463216 -0.0660293   0.03361626  0.03165735  0.10558979 -0.12254116
 -0.04041277 -0.00504074 -0.04460197 -0.07529946  0.04602001  0.04713423
 -0.05166103 -0.02732602 -0.04193152 -0.10819343  0.00472367 -0.00156178
  0.01892106  0.09938228 -0.04031982  0.04557057 -0.00389742 -0.01059925
  0.01212263  0.03224643 -0.00624074 -0.00015411 -0.03079207  0.13455057
  0.02502671  0.07813916 -0.11601824 -0.12319061 -0.01583827 -0.02891672
 -0.01734676 -0.05517423  0.05909517 -0.07149899 -0.05903761  0.02147178
  0.0443574  -0.03407712 -0.04409877 -0.0025661   0.03022252 -0.03286457
  0.00653176  0.02266101 -0.1114129  -0.09371134  0.07528723 -0.10706897
  0.02382356 -0.03238996  0.12100529 -0.06743083 -0.13366281 -0.11933675
  0.0163246  -0.04283989  0.04907423  0.05120182 -0.07615962  0.03522284
 -0.03757567 -0.05081476  0.07183573 -0.00858919 -0.09591836  0.0287638
 -0.01583206  0.002943    0.02355505 -0.0457219 ]
Node 51: 
[ 0.36942186 -0.43373249 -0.31607334  0.1360167  -0.60721957  0.35857309
 -0.20922204  0.33735082  0.12485632 -0.16250323 -0.45733853 -0.32433446
  0.26643551 -0.03257946  0.23207002  0.18491331  0.1487359  -0.12199506
  0.23576963  0.15109673 -0.24946769  0.06454904  0.16099164  0.28936141
  0.25114108  0.00093988  0.25166328  0.30755166 -0.32431878  0.20536909
  0.12175259 -0.14761175  0.04007628  0.22515061  0.03706462  0.0680808
  0.05002596  0.11288585 -0.08794698  0.2526275  -0.19859529  0.11489219
  0.21472702 -0.25912787 -0.34087441  0.01788558 -0.14859741  0.08824922
  0.02346544 -0.12684076  0.12212379  0.07007861 -0.04494817 -0.0760975
 -0.38374208 -0.28976866 -0.46232939 -0.01684789  0.28716464 -0.08299306
  0.23423014 -0.27691269  0.138079   -0.38532363 -0.0587117  -0.20345839
 -0.18784666 -0.26769469 -0.34428363 -0.35743348 -0.22028575  0.08146504
  0.06171876 -0.02251254  0.39982926 -0.36958374 -0.38530104 -0.3348706
 -0.19898171 -0.31686763 -0.27153104 -0.03848949  0.24693768 -0.47460946
 -0.05076602  0.03367502 -0.04497929  0.21641195 -0.09077414 -0.14770649
 -0.36318758 -0.46542073 -0.10676214  0.04608393 -0.39138622 -0.30003127
  0.17095553 -0.2072935  -0.24517467  0.13835661]
Node 52: 
[ 0.19240556  0.42904137  0.09910836  0.07377345  0.12436795 -0.06318572
 -0.07439909 -0.01230142 -0.0323845  -0.06989336 -0.00287923  0.25674111
  0.02540625  0.14076269 -0.08264503  0.00452973  0.07719705  0.13452082
  0.2181087   0.17423009 -0.1802135   0.08360533 -0.04871991 -0.03611635
  0.50992946  0.21982787 -0.0933618  -0.31250581  0.11250192  0.26352963
  0.15031983  0.02766809  0.01690742  0.06649541 -0.07914088 -0.07501617
 -0.03460471 -0.00409619  0.0627224   0.04757211 -0.0294522   0.07094975
 -0.4578883   0.01756051  0.19011644 -0.17751008  0.00667587 -0.08906334
 -0.28769036 -0.12417346  0.1313353  -0.2868621   0.15063136  0.01871005
  0.42202647 -0.00163942  0.22045552 -0.06171811 -0.34549228 -0.01057773
 -0.0204843   0.19689703 -0.0394513   0.03574454  0.15665941  0.25164872
  0.13083799 -0.03177148  0.15970463 -0.00626857 -0.48408672  0.14281585
 -0.02899339 -0.21400606 -0.06415007  0.28228392  0.24121442  0.15331723
  0.26610365 -0.23034945 -0.102753    0.1476615   0.04624272  0.20444043
  0.05396636  0.05314272  0.10206564 -0.36873418  0.2029736   0.02200971
 -0.17490634  0.48290916 -0.11606554 -0.09349293  0.27577301 -0.0653608
  0.11284218  0.17293184  0.05650489  0.14084896]
Node 53: 
[ 0.18602395 -0.08645671  0.00460211  0.03858089 -0.0456225   0.4000281
 -0.03890355  0.19205695 -0.12781383 -0.24797595 -0.25651891 -0.10429345
  0.25233506  0.21134131 -0.19619606  0.05809469  0.06585779 -0.25851379
  0.09307431  0.04411504  0.3168826   0.31831887  0.06125233 -0.02972393
  0.20570042 -0.55553643 -0.18191104  0.08212326  0.00784724 -0.52016263
  0.07795104  0.00109324  0.0355736   0.02155546 -0.01068642 -0.05092831
 -0.02195064  0.0731592   0.0430067   0.07627535  0.05610112 -0.03592556
 -0.31650422 -0.10247492 -0.10088271  0.28103779 -0.03779246  0.15677155
 -0.26148455  0.00559344  0.01772393 -0.05427253  0.12166992 -0.32603752
 -0.21136746  0.02161483 -0.55352379  0.22140538  0.05303917  0.03917871
  0.02670031  0.26288539 -0.08332012  0.0252897   0.03480977  0.17889978
 -0.09491423  0.65605425 -0.0554602   0.06642556  0.08455539  0.09660392
 -0.03926286 -0.29165764  0.46352698 -0.39737105 -0.22047568 -0.22433525
  0.02496628  0.31922314  0.32317044  0.17687456  0.09817988 -0.60230108
 -0.01457145  0.11764963 -0.02979446 -0.20192178  0.05256711  0.01812518
  0.18207176  0.27039691 -0.16110865  0.18888545 -0.35823587  0.12846462
  0.16538564 -0.10257441  0.03781351  0.10603089]
Node 54: 
[-3.27599860e-01 -1.55968311e-01 -2.56599424e-01 -5.09533822e-02
  3.32817808e-01 -1.54867549e-01  6.82192637e-02 -1.32236763e-01
  1.41436581e-02  1.44978670e-01  1.98017651e-01 -1.97853253e-01
 -1.10506057e-01 -5.02459138e-02  4.03311264e-04 -1.06281014e-01
 -5.97870634e-02 -8.83729948e-02 -1.47648012e-01  6.30176278e-02
  8.87717588e-02 -8.36674201e-04  6.29631348e-02 -1.29227118e-01
 -3.48873279e-01 -1.85000478e-01  3.45165291e-02  1.06168723e-01
  1.46897746e-01 -2.00880088e-01 -4.00125562e-02 -6.14490147e-02
  7.14257040e-02 -9.96101701e-02  1.27850630e-01 -9.33866572e-03
  5.29228307e-02 -1.19503207e-01 -4.57805109e-02 -1.30318451e-01
 -9.78438062e-02  1.16072476e-01  1.60744213e-01  8.26115459e-02
  1.42056499e-01 -8.53196306e-02 -1.74291243e-01 -2.22270813e-01
  2.32951167e-01 -1.94453675e-03 -6.32418047e-02  1.63416527e-01
 -2.45370019e-01 -4.20168959e-03  3.08068598e-01  1.51364004e-01
  1.93526721e-01 -2.35954194e-02 -1.75558905e-01 -1.22920472e-01
 -1.20474996e-01 -1.66651378e-01  1.07896742e-01 -6.90854021e-02
 -3.39519373e-02  3.22126708e-01 -2.59109226e-02 -1.42421457e-01
  7.93188557e-02 -3.68676766e-01 -3.10363058e-01 -4.16638889e-02
  4.18051186e-02  4.65329092e-01 -1.49526197e-01 -1.14931164e-01
  2.90864334e-01  3.09042626e-01  2.94594705e-01 -1.76023992e-01
  1.40331975e-01 -5.26878580e-02 -1.66476022e-01  3.82836730e-01
  8.93281388e-02 -9.91805315e-03  1.54686462e-01  1.78017135e-01
 -9.19152121e-02  1.60292778e-02 -7.91523993e-02 -3.69044516e-01
  9.88654122e-02 -2.07990387e-01 -6.26373957e-02 -3.31805549e-02
 -1.28946649e-01  8.05100997e-02 -1.26789425e-01 -4.62026717e-02]
Node 55: 
[-0.13338689 -0.22918057 -0.09131128  0.00949519  0.33141017 -0.21293182
  0.03458635 -0.16642239  0.09247345  0.08906193  0.22138689  0.23963076
 -0.1598861   0.02070265  0.1313278  -0.10084571 -0.02403717  0.09792144
 -0.09516851 -0.19624244 -0.09823368 -0.0542922   0.19663152 -0.12753498
 -0.41391421  0.16936163  0.16635773 -0.06969704  0.03888863  0.16784738
 -0.16405696  0.02479219 -0.06841364 -0.02193595  0.2164372   0.05503783
 -0.10718055 -0.1834782   0.00281134 -0.04921166 -0.12127131  0.14636026
 -0.49572104 -0.01738996 -0.01760163 -0.3473586  -0.13109666  0.09750248
 -0.28321802  0.00474153 -0.01405686  0.12140965  0.12883005  0.07237394
  0.55831315  0.04898951 -0.20501362 -0.13645055 -0.25963276 -0.22329057
 -0.23578103 -0.10534513  0.1008879  -0.01166483 -0.0683689   0.21451467
 -0.21340551 -0.41892095 -0.01890242 -0.10728744 -0.17750958 -0.07619274
  0.11323593  0.08774947 -0.32770278 -0.05584527 -0.0983578  -0.2560702
  0.58288131 -0.06180957 -0.08292301 -0.05713632 -0.19539819 -0.21205871
  0.15151326  0.06955075  0.10771029 -0.32370851 -0.04224774 -0.06118018
 -0.06886176 -0.11830461  0.08448944  0.10435975 -0.03923829 -0.20591973
  0.23866413  0.13561402 -0.20312977 -0.07151608]
Node 56: 
[ 4.31272153e-02 -1.67009652e-01  4.25527153e-02 -1.21227315e-04
  3.99611415e-02 -6.48245168e-02  8.65149355e-03  2.93733798e-02
  9.41360455e-04 -3.40230444e-01 -1.72068080e-01  1.65345722e-02
  7.89660019e-02 -1.48701790e-02  5.65657991e-02 -9.02661717e-04
 -6.82797412e-03 -6.20558970e-02  3.57219349e-02 -4.51721565e-02
 -9.62187301e-02  4.74854841e-02  6.09209704e-03 -2.09734197e-03
  1.01777358e-01  3.10480642e-02  5.08855544e-02 -4.63029036e-02
  3.43202462e-02  1.22458155e-01 -3.99056542e-02 -3.38476690e-03
 -4.44434795e-02 -6.25153652e-03  4.18638783e-03  2.97500748e-02
 -1.79744549e-02  1.87884360e-02 -8.94116894e-03  2.18820403e-02
 -7.17396584e-03  1.37624123e-02  9.92667039e-02  5.15353733e-03
  6.87483082e-02  3.88024318e-02 -1.09817666e-01  1.75069458e-03
  2.15190494e-01  3.18009412e-02 -2.20714649e-02 -9.79712523e-02
 -4.19051457e-02 -6.73487038e-02 -1.76660308e-01  5.06653324e-03
 -8.73866282e-02  7.35738025e-03  1.38509036e-01 -1.58788866e-02
  4.02552110e-02  1.36076888e-01 -2.14001646e-02  1.10954299e-01
 -2.35408878e-02 -9.79484570e-02  9.48484697e-02 -4.07738641e-03
  9.04121714e-02 -7.12530669e-02 -3.83738795e-02 -1.43174312e-03
 -2.13014007e-02  2.85415342e-01 -8.12890833e-02 -3.07777208e-02
 -2.26117976e-02 -1.35208347e-01 -6.34930136e-02  1.52566600e-01
 -1.34866677e-01  1.13820403e-02  1.27038848e-02 -1.48354689e-01
 -4.66710786e-02 -9.55365416e-03  6.04605660e-03 -1.17210788e-02
 -3.47027780e-02  1.34904790e-02  8.91776193e-02 -1.02168890e-01
 -1.53635097e-02 -2.12431076e-02 -5.88338189e-02 -5.97489865e-02
  5.76682404e-03  2.39906870e-01 -7.20505257e-03 -5.55857709e-03]
Node 57: 
[-8.24516040e-02  2.31050392e-01 -5.93948188e-03 -7.64261906e-02
 -1.14093947e-01  4.20692834e-02  3.15748640e-02  1.89489818e-02
 -6.87188088e-02 -1.61032123e-01  2.91371526e-02  5.47594253e-02
  2.03820508e-02 -7.03009995e-02 -1.45257321e-01 -2.30261429e-02
 -6.01771039e-02 -2.10139995e-01 -1.60006268e-01  3.96265220e-02
  1.67502623e-01 -1.37303466e-01 -2.61103426e-01  2.54142097e-02
 -4.55800124e-02  1.77828253e-01 -1.20889645e-01  6.62876369e-02
 -5.09806331e-02 -1.37086537e-01  1.32009915e-01 -7.70538659e-02
  8.56083764e-02 -4.33627183e-02 -1.31020112e-01 -6.18687270e-02
 -1.12267327e-02  2.26471518e-01 -6.04925364e-04 -1.34900825e-01
  1.41057916e-03 -1.53478033e-02  1.06416336e-02  1.78040518e-01
 -2.14719011e-01 -2.71329238e-01 -7.01224743e-02  1.76088932e-01
 -1.98083040e-01 -3.17653544e-02 -2.48760455e-02 -1.75441218e-01
  2.31957699e-01  1.34018539e-01  5.24003297e-01  2.37513368e-03
  7.18128952e-02 -1.47266685e-02 -5.22376952e-02  2.56083625e-01
  3.00240138e-01  1.61987947e-01 -4.80285964e-02 -1.37505619e-01
  6.38928150e-02 -2.09749621e-01 -1.12685197e-01  3.27503615e-01
 -2.21958082e-01  6.19935303e-02 -2.53238560e-02  4.40144174e-02
 -1.45387847e-01 -4.43178330e-01  1.29076992e-01  3.74566695e-02
 -1.42765959e-01  2.72662404e-01 -5.18393777e-01  2.11399350e-01
  2.33717524e-01 -4.95942740e-02  8.20772890e-02  3.69646646e-02
 -5.89153268e-02 -1.36064616e-01  1.20732083e-02 -9.15574363e-04
  5.94155908e-02  1.03226310e-01  1.25240134e-01  3.83016639e-01
  7.73709659e-03  1.38262801e-01  7.95634173e-02  9.68545098e-02
 -3.38858678e-01 -6.37109558e-01 -6.84028125e-02  1.78336585e-02]
Node 58: 
[ 0.2530668  -0.17805801  0.17783197  0.02862813 -0.17237229 -0.2500552
 -0.03170415  0.01912129  0.02588149  0.22567442 -0.07855319  0.21400131
  0.00294991  0.01657181 -0.02693171  0.01106246  0.02491119  0.12501229
  0.0933749   0.01529783  0.11837617 -0.38020463 -0.0767205   0.03534535
  0.53922494  0.07141622  0.14938487  0.02042107 -0.01392637  0.03017209
 -0.02633012  0.03805959  0.03669155  0.02534696 -0.2076652   0.02517166
  0.14824535  0.0495939   0.04416003  0.0689226   0.01979286 -0.01675264
  0.04794914  0.00553172 -0.00360515  0.00479334  0.02883549  0.06156217
 -0.13206142 -0.01241699  0.02785619  0.09008773  0.0892662   0.36475927
 -0.01537074 -0.03711205  0.14025861 -0.36304744  0.06754175  0.03226653
  0.04957693  0.03637081 -0.05931268  0.08915638  0.03949952 -0.09995971
  0.17576831 -0.38028802  0.01322106  0.38753239  0.60248015  0.04736545
 -0.0408746  -0.30486155 -0.27618337  0.14146615  0.00588851 -0.08474323
  0.06091149  0.1142939   0.05312551  0.07366704  0.06333401  0.11126542
  0.00198454  0.01045194  0.02314869  0.09501385  0.06219127  0.01115246
  0.09785632 -0.48523807 -0.06713076  0.06242671 -0.10801789  0.00995353
  0.02542878 -0.26592087  0.38810204  0.04300518]
Node 59: 
[-0.0783569   0.0596369   0.05625794  0.00198649 -0.04940748 -0.00492718
 -0.00651245  0.02066225  0.00069499  0.01947757 -0.00665714  0.00914661
  0.01458105 -0.00765512 -0.02379514 -0.00044397  0.00313529 -0.09757982
 -0.00500131  0.11956061 -0.01825398  0.01352631 -0.04271716  0.01380334
 -0.20935545 -0.04642021  0.02127265  0.03365464  0.03716477 -0.00083926
  0.04880508 -0.06121727  0.11575857 -0.01195175 -0.05792421  0.00111442
  0.17530717 -0.02031295 -0.00064174 -0.01588243 -0.02336596  0.05254537
 -0.09027879  0.02269084  0.07389555  0.02693978  0.01875905 -0.04615744
 -0.07562563 -0.0427585   0.03279433  0.06263116 -0.05569782 -0.00159257
  0.05300323  0.01729198  0.163754    0.04218996  0.00738568  0.05324143
 -0.03275995 -0.06686216  0.00072293  0.0510963   0.03357575  0.03442089
  0.02517562 -0.05926574  0.08524384  0.0737104   0.07299123  0.04035722
 -0.03928889  0.03388536  0.00681284  0.12319867 -0.11081385  0.06558565
  0.04778391  0.01629422 -0.00392075  0.02355222  0.02888134  0.17900151
  0.02677122 -0.01818765  0.00832137 -0.04236588  0.01886838  0.02194382
  0.06791614 -0.09515504 -0.02370537 -0.03561009  0.11688256  0.03781068
  0.02063237  0.16868727  0.05373965  0.03195209]
Node 60: 
[-0.15717994  0.30851651 -0.01893809 -0.15157255  0.24985545 -0.01853288
  0.19158683 -0.20828661  0.03701019 -0.01276721  0.25593488 -0.08188863
 -0.20576244 -0.08546201 -0.12004905 -0.23982983 -0.16328896 -0.03332575
 -0.16785855 -0.1618818   0.36382806 -0.12069314  0.04106702 -0.20499622
 -0.02078722 -0.29875163 -0.13982134 -0.16669639  0.23728237 -0.38872565
 -0.00924329  0.05453418  0.08785044 -0.20971515  0.22220907  0.06063987
  0.11148744 -0.15479807 -0.06858245 -0.27296419  0.14836264  0.03479054
  0.53237176  0.18485629 -0.08038722  0.2594168   0.23110009  0.05325261
  0.26546932  0.01380715 -0.03909454  0.1495437  -0.0813     -0.03468401
 -0.24916668  0.24096387  0.41209984  0.19186069  0.252343   -0.10598983
 -0.07078202  0.00222654  0.11462919 -0.21838573 -0.11035053 -0.28904547
  0.07899453  0.24246497 -0.05808929 -0.16871539 -0.15863763 -0.09906133
  0.07760371  0.08481126  0.06817402  0.18863485  0.17314354  0.2541217
  0.11332443 -0.05252232  0.3391826  -0.1270316  -0.40408665  0.396175
  0.11520734 -0.01766183  0.16900641  0.41645537 -0.16835027  0.05245887
 -0.00800421  0.45227124  0.20934156  0.01390243  0.50521447 -0.01585483
 -0.09537324  0.07632561 -0.10401075 -0.15967946]
Node 61: 
[-1.15897974e-04  1.32465864e-05  4.70566175e-04  2.94489528e-04
  3.62316721e-03  7.02467996e-04  6.53200648e-04 -2.54794435e-03
  7.52982850e-05  4.07121134e-03  2.76638305e-03  4.38406155e-04
 -2.57556771e-03  1.73081845e-03  1.09908376e-03 -1.33675942e-03
 -6.12989869e-05  2.65948641e-03  5.69367601e-04  1.81820270e-04
  8.88887944e-04  1.25349709e-03  1.77468764e-03 -2.29947119e-03
 -3.11429654e-04  1.29142573e-03 -1.98970593e-05 -2.03741397e-03
  1.50924372e-03 -2.45551126e-04 -1.44731805e-03  1.56484042e-03
 -1.65376206e-03 -1.15422976e-03  2.04238474e-03 -1.03502150e-04
 -2.71656444e-03 -2.76609842e-04  4.24794033e-04 -7.67846569e-04
  1.20933732e-03 -4.86102616e-04 -1.19913523e-03  7.47601844e-04
 -1.03903895e-04 -6.27120419e-04  1.68707478e-03  1.49110134e-03
 -1.13766697e-03 -3.14374267e-05 -1.15842271e-05  7.74993668e-06
  1.37343401e-03 -1.66580651e-04  4.00441934e-03  1.90553722e-03
  1.53641882e-03  9.99786493e-04 -1.41870174e-03 -1.15729873e-03
 -1.92198056e-04  7.90155428e-04 -2.61666623e-04 -1.14196443e-03
  6.94978383e-04  9.07041069e-04  3.07997589e-05 -4.12033302e-04
  4.14426209e-05 -4.06491229e-04 -2.68294101e-03  7.21845904e-04
  7.71285566e-04 -5.77770269e-04  1.16276826e-04  6.60199945e-04
  5.54265460e-03  1.92468426e-04  4.33021297e-03  1.11684214e-03
  5.51034618e-04  2.27088267e-03 -1.38508198e-03  2.01943026e-03
  2.08894094e-03  1.96979204e-03  1.57453916e-03 -2.21588131e-05
  6.36634513e-04  4.03252514e-04  6.38468829e-04 -1.23455586e-04
 -4.84463291e-04  1.59622462e-03  2.67291504e-04 -1.28877813e-04
  2.62108765e-03 -2.20300836e-03 -1.06898399e-03  3.91141688e-04]
Node 62: 
[-2.11006401e-01  8.77659048e-02  1.26479018e-02 -1.09174686e-02
 -2.10410218e-01 -7.26402955e-02 -3.98518159e-02  1.27940727e-01
 -6.28093152e-02 -7.46808054e-02 -1.18367702e-01  6.92938370e-02
  1.17517476e-01 -4.52306664e-02 -2.64081285e-02  1.18485824e-01
  1.42690307e-02 -1.50686735e-02 -1.70395327e-01 -5.15457838e-03
 -1.36755451e-01  2.67960432e-02 -2.39856561e-01  1.62450285e-01
 -2.79819912e-01  1.45634860e-01 -3.00010523e-02 -1.44716330e-02
 -7.39900322e-02  1.17048780e-01  1.96905681e-01 -2.96012010e-02
 -2.08720364e-02  5.63734669e-02 -2.05063187e-01 -6.52467453e-02
 -8.82598171e-03  8.58782145e-02  4.85161608e-02  4.86918281e-02
  3.38524157e-02 -8.79289224e-02 -3.39201823e-01  1.65173616e-03
  4.24345502e-02 -7.25377985e-02  2.61186292e-02 -1.57848329e-01
 -2.31618716e-01  2.72586849e-02 -1.02468769e-01 -1.62702173e-01
 -1.22267069e-01 -2.86460123e-02 -2.37535292e-01 -1.12158610e-01
  2.18128902e-01  9.37146824e-02  8.63753562e-02  2.54804419e-01
  5.43127791e-03  8.28738791e-02 -1.25475295e-01  1.01496291e-01
  2.57285296e-02 -1.63468711e-01 -5.96818467e-02 -4.99854525e-02
  4.31019242e-02  4.85313307e-02  4.50496077e-02 -2.13697060e-02
 -1.23276398e-01 -8.38538302e-02 -2.30398767e-02  2.24363646e-01
 -8.57985703e-02 -3.93633047e-02 -4.55198566e-01  7.11351327e-02
 -9.84774031e-02 -3.07269639e-02  1.89515757e-01  2.54760275e-01
 -1.80856317e-01 -1.01623572e-01 -1.80184488e-01 -1.93722098e-01
  9.85991998e-02  2.32851056e-02  2.98843269e-02  9.50712074e-03
 -2.96266397e-02 -9.37395231e-02  2.40246043e-04  9.62142927e-02
 -1.99414096e-01  3.34312766e-01  6.04834208e-03 -1.23640503e-02]
Node 63: 
[-1.87477879e-01  2.32765772e-02  2.78226814e-02 -2.38202007e-03
 -9.26311765e-02 -3.53548226e-02  3.07978894e-02  1.66806127e-02
 -4.55597678e-02  1.97642189e-01  1.52173938e-02  7.18098316e-02
 -1.93892486e-02  8.30816126e-02  6.96852249e-02  5.80959864e-02
  3.94263937e-04  2.11302628e-01 -1.89251644e-01 -1.69455494e-01
 -1.40883741e-01  9.91200208e-02 -7.99774718e-02  5.40839821e-02
 -3.32381379e-01  3.95963781e-01 -1.98572507e-02 -2.04726700e-01
 -8.85996504e-02  1.69610152e-01 -6.42515957e-02  1.52448373e-01
 -1.89937446e-01  1.20636427e-02 -5.13481394e-02 -2.89659016e-02
 -2.17544160e-01  6.15106280e-02  1.05211580e-01  4.73216994e-02
  1.97378975e-01 -2.08214673e-01 -5.09823614e-02 -2.60079352e-02
  6.15528306e-02 -1.77954156e-02  2.57488898e-01  1.40094818e-02
 -4.88372640e-02  1.20799785e-01 -9.67752773e-02 -1.46342165e-02
  5.08106280e-02 -8.68433281e-02 -5.15883220e-01 -5.71070910e-02
  9.99932364e-02  9.23202789e-02  2.53548591e-01  8.42338512e-02
  4.50064149e-02  3.49229413e-02 -2.03183094e-01  2.29446381e-01
  2.31231265e-02 -3.61109780e-01 -5.53611494e-03  3.82036811e-02
  6.49464959e-02  9.02776951e-02  9.14996606e-02 -9.06789424e-02
  7.23615309e-03 -3.30682095e-02 -6.75502461e-02  5.67563914e-02
  2.65044090e-02  1.17104716e-01 -3.77569650e-01  1.07873483e-01
 -1.32482234e-01  5.57091899e-02  8.88014563e-02  1.30656460e-01
 -1.67361138e-01  2.32140871e-02 -1.85991112e-01 -2.00451156e-02
  1.05864153e-01 -1.96871494e-02  7.58443282e-02  2.98221323e-02
  3.22103173e-02  2.74611068e-02  4.75180716e-02  9.76632947e-02
 -1.71157035e-01  2.58774786e-02  3.60449849e-02 -8.01658440e-02]
Node 64: 
[-0.10700539  0.00105751  0.02423062 -0.03520913 -0.01623953 -0.1252235
  0.01606094  0.01598537 -0.00864058 -0.01402831 -0.00737612  0.01704
  0.01352682 -0.03866058 -0.07227605 -0.00141906 -0.02493845 -0.01732689
 -0.08736377  0.0064229   0.03700535 -0.09934795 -0.09679426  0.02023116
 -0.11233574 -0.0148036  -0.00177671  0.00176027  0.04099003 -0.04538513
  0.02465055 -0.01449428  0.0027205  -0.01825135 -0.06874049 -0.0006615
  0.00993418  0.06366861  0.00364472 -0.04314934  0.01901141 -0.02669666
  0.05202763  0.06372176  0.06059837 -0.02908305  0.01100591 -0.04102444
  0.10926951  0.01381279 -0.03933419 -0.02241375 -0.07854027  0.09375749
 -0.11404483  0.0076091   0.01084643 -0.11977697  0.08141694  0.08815698
  0.08481186  0.02072993 -0.03560539  0.0775147   0.00850942 -0.05451993
  0.01632721  0.00862471  0.07376164  0.05148498  0.06966092 -0.00702584
 -0.05390249  0.12638563 -0.10174283  0.01003931 -0.04910688  0.01633476
 -0.11935298  0.06221164  0.04884481 -0.02059458  0.01268654  0.00754935
 -0.04096418 -0.05742168 -0.02916568 -0.00989271  0.01734361  0.03499575
  0.08448402 -0.00954449  0.0128278  -0.04459546  0.01344815  0.06876835
 -0.0971256   0.14630792  0.05669776 -0.01465521]
Node 65: 
[-0.37006429  0.228223    0.1747462   0.04325778 -0.33463978 -0.31940448
 -0.10767724  0.22655564 -0.09768065 -0.38593842 -0.36900974  0.20471363
  0.25211624  0.01399303  0.06838569  0.16691387  0.06460758 -0.12583651
 -0.07393549  0.10145193 -0.33867749 -0.05176408 -0.11281768  0.18455213
 -0.41547673 -0.06548445 -0.16504787 -0.08423163 -0.22065983  0.33505944
  0.11575894 -0.02506502  0.12557496  0.17234821 -0.10753539 -0.08940035
  0.17979066  0.2046739   0.05449759  0.17141547 -0.04928715 -0.0018871
 -0.19149783 -0.11109264  0.36061183 -0.26185595  0.01403163 -0.11226614
 -0.03110442 -0.00419132 -0.05647234 -0.35340095 -0.02847138  0.17895624
 -0.33757766 -0.22685154  0.11077724 -0.08777122  0.0282249   0.15033672
  0.23217241  0.01872501 -0.11912316  0.29197541  0.0446104  -0.16072782
  0.00199278  0.40596762  0.35129556  0.27579511  0.38917902 -0.0431903
 -0.02498986  0.24970648 -0.34556847  0.14028487 -0.38438443  0.1183115
 -0.35126277  0.07512463 -0.30555854 -0.019847    0.21618263  0.09798632
 -0.16515665 -0.04105761 -0.17707929 -0.22549736  0.10055682 -0.05197236
  0.28567461  0.54066969 -0.03344218 -0.0957641   0.16517032  0.00318781
 -0.17702518  0.19889408  0.1427527  -0.00667435]
Node 66: 
[-2.33927809e-164  1.06207604e-164 -9.36258264e-006  6.30817370e-163
 -1.85214379e-164 -2.29002176e-165  4.63303639e-163 -2.60285282e-164
  1.16148192e-165 -1.05404587e-165  8.51727169e-166 -1.34247319e-162
  6.24626698e-165 -6.16252517e-167 -6.86019575e-165 -5.72873403e-165
  1.28621052e-162  1.35445295e-164 -3.32968423e-165  6.40408374e-164
  7.81357325e-165 -1.66364134e-163  1.39705779e-164  1.19003820e-163
  1.99422320e-164  8.25156351e-164 -4.81941845e-164  1.78453900e-165
 -5.40245996e-164  9.15899533e-165  6.27924287e-164 -1.12621331e-162
 -5.04179794e-165  9.05831635e-165  4.02560214e-162 -3.34820284e-163
 -6.21336140e-165 -1.75283060e-163 -2.16048260e-162  3.98637664e-163
 -2.23981656e-162 -6.69590319e-164 -2.81667626e-164 -1.20046854e-164
  7.22623499e-165 -1.93091985e-165 -4.92090045e-008  3.13278771e-165
  3.25542804e-163  5.45159886e-165  4.57212210e-166 -6.29802371e-165
 -1.04111358e-163 -5.89417055e-165  1.82670081e-165  7.02210387e-166
 -1.00707832e-164  1.26839983e-164 -3.51474938e-165 -1.22153692e-164
  1.32847948e-165  1.01526078e-164 -7.27703863e-165 -1.99141118e-162
  3.44734740e-166 -6.39396810e-163  1.44118423e-164 -8.09936087e-165
  1.00492722e-163 -3.88423739e-162 -1.49744753e-164  3.08774186e-162
  8.24730615e-163 -1.64057781e-164  2.57583326e-166 -5.31391021e-019
  8.24463259e-165  2.95753004e-163  3.46250333e-164 -2.99846756e-164
  1.10470677e-163 -1.17341945e-164  1.93210627e-164 -3.17648793e-163
 -8.98673887e-164  9.14611970e-165  8.23692518e-024 -1.24611535e-164
  3.70561832e-164  2.29884777e-164 -8.05594071e-164 -1.00162894e-165
  1.43000876e-164 -5.20516030e-163 -1.93227581e-163 -2.87938669e-164
  1.22275069e-164  2.87999636e-162 -2.18972503e-162 -3.18197920e-165]
Node 67: 
[-7.34475850e-03  1.25354117e-02  2.62858063e-03 -1.85826221e-04
  1.30869099e-04  1.88603762e-04  1.32624178e-03 -2.52187109e-04
 -5.81046753e-03  3.63943262e-05  1.72303371e-04  1.09965140e-02
 -4.31272617e-04  5.12330538e-03  3.04598915e-03  4.98659023e-04
 -9.27466471e-05  1.20667385e-03 -7.80796485e-03 -4.81902000e-03
 -9.80474865e-03  6.31556920e-03 -2.73028404e-04  2.28466557e-04
 -1.30887852e-02  1.71769783e-02 -7.90495630e-03 -1.31507246e-02
 -1.88497118e-03  8.79397993e-03 -8.93409363e-04  4.62070389e-03
 -1.90400778e-03 -2.10873538e-04  8.01480620e-04 -5.35005171e-03
 -2.21574589e-03  1.57770835e-03  5.00528493e-03  1.10389520e-03
  7.47151725e-03 -4.35203559e-03 -2.57867671e-02 -8.50256701e-04
  1.78847233e-03 -3.57899272e-03  9.50330674e-03  2.68719545e-03
 -1.80017327e-02  3.18688715e-03 -4.29906026e-03 -7.23544119e-03
  4.57639313e-03 -4.09593315e-03 -9.22303275e-04  1.38943438e-04
  1.35500079e-02  5.22309476e-03  6.52586630e-04  7.11095212e-04
  5.69356495e-04  8.36047109e-03 -7.65663933e-03  1.44083488e-03
  1.61445982e-03 -1.80321352e-03 -2.08756213e-03  1.85929580e-02
  1.40941503e-03  3.89235531e-03  9.21520503e-04 -3.83569973e-03
  1.38457722e-03 -1.18732785e-02 -1.51549075e-03  1.53028488e-02
  4.52390610e-04  1.92728705e-02 -5.47321998e-04  2.83810840e-03
 -7.16454790e-03  2.98034876e-03  6.47083558e-04  1.19507631e-02
 -1.52713918e-03  2.31961468e-03 -5.01536593e-03 -2.10835053e-02
  6.13918441e-03 -9.66608762e-04  8.67991878e-04  1.03233706e-02
  1.30233644e-03  4.23876287e-03  1.40110495e-02  1.85423634e-03
 -2.17280220e-03 -1.80404225e-03 -4.59615920e-04 -3.66151092e-03]
Node 68: 
[ 0.0159297  -0.0571773   0.01112091 -0.02029422  0.0295337   0.07224337
  0.02936205 -0.02666775  0.00260179  0.02576272 -0.0357077   0.02989124
 -0.01484661 -0.03413521  0.00141896 -0.05455581 -0.02683521 -0.03970701
  0.00604383  0.0272734   0.05858412 -0.0091005   0.08716975 -0.05532767
 -0.10049576 -0.02065248 -0.02682797 -0.00264011  0.02370547 -0.05644138
 -0.03668693 -0.01593631  0.0732276  -0.03473809  0.09483268 -0.00159092
  0.11951392 -0.05734155 -0.03491411 -0.04277393 -0.05054394  0.09506006
 -0.10506616  0.00199379  0.03690136  0.05328624 -0.04805134 -0.00900212
 -0.08033456 -0.01667896 -0.00704398  0.06130433  0.01794437 -0.01727282
  0.0600418   0.04689517 -0.28360681 -0.05862391 -0.05340378 -0.10247442
 -0.07888179  0.02290954  0.05634038 -0.06602653 -0.03642058  0.06754509
  0.04312764 -0.01852914  0.02827144 -0.09056906 -0.12007159 -0.02776391
  0.04519651 -0.18974162  0.12235079 -0.19035294  0.04138516 -0.02571044
  0.14914413 -0.03346345  0.03567956 -0.03748447 -0.09979027 -0.28618322
  0.03989476  0.01238755  0.05838165 -0.0892693  -0.0519871  -0.00718972
 -0.03378081 -0.18577788  0.05197539  0.01963801 -0.26788941 -0.05723935
  0.03504235 -0.06141511 -0.02084879 -0.02966023]
Node 69: 
[-1.37940325e-02  4.58716982e-02 -2.52090221e-03 -2.30759748e-02
  2.03446947e-01 -9.76963464e-03  6.06616985e-02 -1.03816784e-01
 -1.15351054e-02  8.08411292e-02  1.10791752e-01  2.00593384e-03
 -1.01150725e-01  1.42205147e-02 -9.20529595e-03 -7.23624403e-02
 -3.64989543e-02  4.41298998e-02  7.26856149e-03 -7.51901069e-02
  4.38552668e-02 -1.57865397e-03  7.44161245e-02 -1.09421425e-01
  3.54573231e-02  2.00907795e-02 -1.98984883e-02 -5.95557337e-02
  6.30009396e-02 -5.12654523e-02 -1.00224286e-01  5.62672159e-02
 -3.40453956e-02 -6.44320692e-02  1.17265256e-01 -1.31043966e-02
 -2.76760049e-02 -8.21739941e-02 -3.73319438e-03 -5.26212639e-02
  4.67761568e-02 -1.25021599e-02 -7.43458424e-02  3.93535691e-02
 -5.10064240e-02  7.17224683e-02  4.72857290e-02  7.03582124e-02
 -8.31982626e-02  3.71680932e-02  1.21169176e-02 -6.68624074e-03
  5.23444015e-02  1.26577295e-02  1.03773955e-02  8.83226395e-02
  5.23932374e-02  1.60557206e-02 -1.42906938e-02 -8.68736905e-02
 -1.09160420e-01  5.34088047e-02  2.97315476e-02 -8.12124010e-02
 -3.49082346e-02  6.29178837e-03 -2.04330958e-02  1.19269112e-01
 -5.25399431e-02 -3.43035382e-02 -6.84888295e-02 -2.82393991e-02
  5.15450059e-02 -1.16525313e-01  3.16465049e-03  5.63125759e-02
  2.27853030e-01  4.77906184e-02  9.08145331e-03 -2.14684685e-02
  5.05277172e-02 -4.44638711e-05 -1.16218233e-01  4.77214559e-02
  2.59839667e-02  3.62152586e-02  5.33840474e-02 -5.21594397e-02
 -3.49808060e-02  6.15816352e-03 -5.56487448e-02  2.33783318e-02
  4.83747957e-02  7.14362486e-02  7.56261518e-02  5.39282479e-03
  9.30158528e-03 -1.28997209e-01 -7.41366586e-02 -3.97168567e-02]
Node 70: 
[ 2.82190379e-03 -1.33678240e-03 -5.01256473e-04  9.34380269e-04
  1.12135046e-02  1.28521473e-03 -2.70001318e-04 -3.97447790e-03
  9.35899409e-04 -6.21404963e-04  4.98164943e-03 -4.33418255e-03
 -2.53761045e-03 -1.42904790e-03 -1.07582448e-03 -3.84816280e-03
  1.98641590e-04 -4.06726037e-03  7.72837995e-03  4.33109882e-03
  8.60390980e-03 -1.24899126e-03  3.43270483e-03 -5.41762429e-03
  5.75710365e-03 -2.40249387e-03  1.12109938e-03  7.78321913e-03
  5.24625660e-03 -7.85901048e-03  1.18848917e-03 -2.85581244e-03
  2.94919706e-03 -1.56411438e-03  2.61846199e-03  6.48530198e-04
  2.63467058e-03 -6.34559373e-03 -3.55795524e-03 -1.95261736e-03
 -3.66303103e-03  5.13603043e-03  1.35876585e-03  1.13132406e-03
 -5.54318160e-04  5.30750444e-04 -3.74459608e-03  1.85607904e-04
  1.17582001e-03 -4.18352960e-03  3.87092108e-03  1.98307707e-04
 -1.53383590e-03  9.06611983e-04  2.83842309e-02  4.90846236e-03
 -3.62896693e-04  2.37055640e-05 -1.23468396e-02 -4.03595504e-03
 -7.74071504e-03 -1.12039351e-04  8.02839286e-03 -8.55968530e-04
 -1.14504963e-04  1.71237070e-02  2.64781779e-04 -1.12201573e-03
 -6.53153456e-04 -1.08385673e-03 -1.04427399e-03  5.24969120e-03
  1.49732387e-04  9.17111859e-04  1.25106335e-03 -4.43057411e-04
  3.13209487e-03 -6.86035295e-04  2.21773360e-02 -1.88034709e-03
  6.44344163e-03  8.57054046e-04 -5.30023509e-03 -2.79813968e-04
  9.50832244e-03  8.64896855e-04  9.99206992e-03  7.94736776e-04
 -4.90979496e-03  8.59005265e-04 -1.25945998e-03 -2.26093966e-03
 -2.02006494e-03 -1.17790944e-04 -2.93467615e-04 -1.25508011e-03
  6.67265605e-03 -4.77467570e-04 -1.06840348e-03  3.71483350e-03]
Node 71: 
