Node 0: 
[ 2.60746957e-03  7.63347559e-02 -1.91478477e-02  4.01221500e-02
 -3.27102531e-02  7.19674536e-02 -2.13453377e-02  4.99581286e-02
  5.62650782e-02 -1.72302492e-02  7.23050634e-02  2.46414468e-02
  3.00642672e-02 -3.48393762e-02  6.75542967e-03 -4.95267669e-02
  7.12612125e-02  1.96896767e-02  7.08090837e-02 -3.92757390e-02
 -5.20759434e-02  3.50828640e-02  1.98098615e-02  6.06343776e-02
  5.95148169e-02 -2.26668396e-02  2.75727327e-02 -2.45206648e-02
 -2.78892269e-02 -3.11774713e-02 -4.72845529e-03  2.33082941e-02
  6.36572365e-02 -5.18227305e-02 -9.26497182e-03 -9.46972564e-03
 -1.63810413e-02 -2.60654803e-02 -1.81713258e-03 -6.24534061e-03
  6.85108827e-02 -1.99110698e-02 -1.54822115e-02  1.61769967e-02
 -9.00790258e-03 -1.14003755e-02 -1.04515949e-02  4.93950459e-02
 -4.75622322e-02 -2.46077454e-02  7.27707751e-02  3.17977110e-02
  6.23948229e-02 -5.37759959e-02  2.73781949e-02  2.54244570e-02
  5.75239464e-03 -1.80231174e-02 -4.88439324e-02 -2.68611511e-02
  2.32952541e-02 -5.48155484e-02  6.69437574e-02 -4.28205768e-02
 -4.64894648e-02  4.00052653e-02  6.50018148e-02 -4.28751702e-02
 -1.33705898e-02  4.53999845e-02  7.11337257e-03 -4.20688360e-02
 -2.60043029e-02 -1.37456085e-02 -5.37897910e-02  2.99586903e-02
 -1.27891178e-02 -4.46362145e-03  7.20892922e-02 -4.50083181e-02
 -7.32407775e-03 -2.57393797e-02  1.48298156e-02 -3.32885960e-02
  6.26920758e-02  3.33168063e-02  6.05310068e-02  3.23729345e-02
  3.63964465e-02  3.93930511e-02  1.25495589e-02 -1.55588907e-02
  1.19815327e-02 -3.19670485e-02  7.22227394e-02  1.43060891e-02
 -2.76308582e-02  7.52412315e-02  6.27000255e-02  3.01390270e-02
  3.36198692e-02 -2.09673289e-02 -2.78851581e-02 -5.44505259e-03
 -2.89318821e-02  6.10738916e-02 -2.39057096e-03 -4.92278288e-02
 -1.82313451e-02  2.35371684e-02 -3.53952609e-02 -4.82039715e-02
 -2.42206308e-02 -2.28716499e-02  3.40864723e-02 -2.85673487e-02
  7.30379132e-02  6.90069402e-02  2.89296986e-02 -2.52634272e-02
 -4.97561712e-02  6.40099312e-02  2.24699680e-02  6.13333505e-02
 -1.72720359e-02 -1.84224422e-02 -3.17989095e-02 -4.08862765e-02
 -3.29392610e-02  4.18454647e-02  8.53202486e-03  7.42432218e-02
 -5.01133426e-03  1.92764613e-02 -2.55478079e-02 -2.73036587e-02
 -3.89978687e-02  8.61424813e-04 -2.09614866e-02  5.15150897e-02
 -3.64395559e-02 -3.70658218e-02 -2.30156986e-02 -1.28867729e-02
  2.99179988e-03  2.49068066e-02  2.69199352e-02 -8.85013535e-05
  5.96132436e-02  3.27856832e-02  3.72387600e-02 -1.38684891e-02
  3.69475573e-02  6.47632373e-02  6.90305086e-02 -4.51918117e-02
 -2.79592133e-02 -3.26342977e-02  2.60252531e-03 -4.57506579e-02
  3.31867765e-02  5.95882227e-02  4.07416259e-03 -3.44119823e-03
  2.89089732e-02  7.63753564e-02  1.63855330e-02  1.91057230e-02
  2.02383185e-02 -1.31851114e-02  6.83445964e-02  1.06733700e-02
 -4.37389547e-03 -5.54950235e-02  8.77464783e-03  3.02946338e-02
 -6.37845590e-02 -2.25416596e-02 -4.96730699e-02  5.42831981e-02
  1.88872272e-02 -1.80616389e-02  6.64397744e-02 -2.20636861e-03
 -4.53949053e-02  8.46917336e-03  4.61725538e-02 -2.17974397e-02
  6.65642262e-02  3.58370872e-02  7.45139839e-02  2.22927733e-02
  1.29366390e-02  6.10538717e-02 -1.13798128e-02 -2.56589432e-02
 -2.28431836e-02 -1.66743524e-03 -2.07947050e-02  6.26153667e-02
  1.45369549e-02  6.48566802e-02  7.80066920e-02 -1.81865816e-02
 -1.93918019e-02 -1.76439533e-02 -2.32691969e-03  3.44775430e-02
  2.50083705e-02 -1.11273477e-02 -9.69235907e-03 -3.36449200e-02
  3.59936620e-02  7.06133622e-02 -3.45157676e-02  2.09242953e-02
  6.61062513e-02 -4.78655457e-02  3.22981532e-02 -2.12674576e-02
 -4.26362867e-02 -2.57342897e-02 -1.96775108e-02  6.42753142e-02
  4.08252674e-02  4.72113005e-02  7.58232003e-02 -4.11456687e-02
 -3.03079921e-02 -3.80470697e-02  5.93425371e-02  1.19673591e-02
  3.41422062e-02  1.97472260e-02  3.65646718e-02  6.62426538e-02
 -3.43665613e-02 -6.39525563e-03  2.46707648e-02 -1.01477496e-02
  4.73623683e-02 -1.62037137e-02 -2.62641376e-02  6.56184592e-02
 -5.78962979e-02  3.72637919e-02  2.71173400e-02  6.01201112e-02
  4.46079142e-02 -2.46389468e-02  6.56146028e-02 -1.69427052e-02
  7.79982713e-02 -2.68582776e-02 -2.33684800e-02  3.28745330e-02
  7.47149728e-02  7.61884231e-02 -5.50918513e-04  6.64824849e-02
  1.99586928e-02 -1.89399828e-02  1.59225889e-02  8.14940963e-03
 -2.49290505e-02 -1.84268672e-02  2.94056882e-02  1.75355050e-02
  6.08737345e-02 -2.14890336e-02  3.80519234e-02 -3.38908291e-02
  2.01586554e-02  4.85958115e-02 -4.43856883e-02  6.45200634e-02
  3.34443314e-02  5.38216013e-02  1.20758665e-02  5.59414730e-02
  5.93585833e-02 -3.99181145e-02 -2.00312814e-02 -3.01707654e-02
  5.96812801e-02  4.90987658e-02 -4.21823082e-02 -3.73549887e-02
  7.97494541e-02 -1.13155142e-02  5.59335298e-02 -1.33190477e-02
 -4.43791637e-02  6.12929630e-02 -3.64314957e-02  2.32865474e-02
 -3.28931786e-02  7.85564179e-02 -7.88206341e-03 -5.94966726e-04]
Node 1: 
[ 4.21420789e-02  1.69215294e-03  3.44194414e-02 -2.04610561e-02
 -1.28175751e-03  4.28686301e-03  5.11548677e-02 -2.02596035e-02
  3.87268941e-03  4.32813001e-02  2.89283379e-03 -3.63728407e-02
 -2.01888237e-02 -9.48822461e-03 -1.76443885e-02 -2.70453395e-02
 -1.82113267e-03 -3.42291586e-02 -2.61675364e-03 -1.44515612e-02
 -1.78337542e-02  8.55961384e-03 -2.37098730e-02 -1.75346683e-03
  1.83545796e-03  1.20816732e-02 -2.27024319e-02  4.24188247e-02
  3.29755957e-02  1.23212610e-02  2.66947535e-02 -9.42757615e-03
  1.07356694e-03 -1.79482153e-02  3.62726540e-02  2.98388351e-02
  2.12507700e-02  1.27743154e-03  3.57887493e-02  2.93548050e-02
  8.62988557e-04  1.80673421e-03  2.43686677e-02 -4.34479978e-03
  3.04952282e-02  2.36965808e-02  2.70913509e-02 -4.42235004e-03
 -1.92168996e-02  3.47066388e-02  2.95712552e-03 -2.40826998e-02
 -5.11151038e-03 -2.33173581e-02 -2.01458067e-02 -2.39514248e-02
  3.79889243e-02  3.42269741e-02 -1.44873298e-02  3.63277309e-02
 -2.16570658e-02 -2.17730672e-02  5.99719091e-03  9.91221447e-04
 -7.49605675e-03 -2.50007700e-02  9.53608843e-03  3.23629366e-03
  3.59707101e-02  6.88325940e-03  1.08158024e-02 -4.05630643e-03
  3.96607374e-02  3.41318543e-02 -1.03594508e-02 -2.10175214e-02
  4.16575980e-02  9.21495823e-03  6.35856551e-03  1.76285704e-03
  4.67135511e-02  1.18435990e-03 -2.88588843e-02  4.71060083e-03
  1.28603757e-03 -2.83815731e-02  3.12095711e-03 -9.56413863e-03
 -2.97649537e-02 -9.51641342e-03 -1.98485270e-02  2.07614430e-02
 -1.83983050e-02  7.79545082e-03  7.21092701e-03 -3.33757334e-02
  1.32567603e-03  2.16080377e-03  9.17771772e-03 -1.93998096e-02
 -2.75715085e-02  4.94249956e-02  4.90564705e-02  2.46301199e-02
  4.43850202e-02 -3.06079331e-03  3.56689437e-02 -1.51595137e-02
  2.32706039e-02 -1.67534212e-02  7.44536469e-03 -5.65238779e-03
 -5.36367941e-04  3.90347818e-02 -2.91098065e-02  2.20061699e-03
 -2.12672138e-03 -3.79445383e-03 -4.73856482e-02 -2.96863286e-03
 -9.48526578e-03  4.19666124e-03 -2.47572790e-03  7.64212753e-03
  3.95343661e-02  2.32187256e-02  5.06260090e-02  8.20682447e-03
  4.56670550e-02 -9.34321535e-03 -2.88355379e-02  7.58911301e-03
  4.06653752e-02 -3.08321004e-02  6.52061972e-03  4.00690609e-02
 -6.58843049e-03  4.03804970e-02  1.40248402e-02  3.04648026e-03
  7.04953133e-04  4.12512887e-03  3.16423856e-02  3.97263408e-02
  1.48354307e-02 -2.97035450e-02 -1.32796558e-02  2.82771949e-02
 -2.98166360e-03 -3.13168487e-02 -3.78534242e-02  1.37985179e-02
 -9.30763716e-03  4.05033821e-03  4.76638474e-03 -1.98590607e-03
  4.49777229e-02  1.12297918e-02  4.72020038e-02 -9.21779290e-03
 -6.42799340e-03  3.45155919e-03  3.87560947e-02  1.44983023e-02
 -7.67976174e-03  2.09561732e-03 -1.36441256e-02 -2.66171910e-02
 -1.68339182e-02  1.54469114e-02  6.17385178e-03  7.52131283e-03
  2.47108311e-02 -1.32123599e-03 -1.40415693e-02 -3.22036198e-02
 -2.52478622e-02  2.72922252e-02 -1.11666125e-02 -1.02151456e-04
 -4.38846123e-04  3.86690956e-02  8.10491869e-03  3.58467754e-02
  1.22234101e-03  7.81582221e-03  7.19583994e-04  2.73020817e-02
  2.23811437e-03 -2.09342944e-02  3.19898288e-03 -2.06140158e-02
 -1.92116157e-02  9.86876536e-03  2.12202178e-02  7.49135203e-03
  3.24169904e-02  4.08542773e-02  2.97581453e-02  3.32342651e-03
  8.20630459e-03  5.87223379e-03  2.33782767e-03  4.80526973e-02
  3.44183980e-02 -1.78708014e-02  2.63530545e-02 -9.37864669e-03
 -2.16276669e-02  1.39493818e-03  3.24280892e-02  5.43891104e-03
 -3.85581449e-02  6.97265374e-03  2.83924615e-02 -1.82498228e-02
  3.29647329e-03 -1.70171823e-02 -3.04664706e-02  8.28363571e-03
  4.58017105e-03  4.73350110e-02  2.41629108e-02 -1.09154558e-03
  5.71392229e-03 -1.30206701e-03  8.50455781e-03 -1.02666457e-02
  4.67844696e-02  1.36754608e-02 -8.77966561e-04  4.69367307e-03
 -3.64343452e-02 -3.00307016e-02 -1.75188562e-02  6.44471468e-03
  5.17985413e-02  2.32099814e-02 -7.43035539e-03  4.22888475e-02
 -2.61949402e-03  2.73900333e-02  4.72337124e-02  7.57831689e-03
 -1.60874995e-02 -1.66961695e-03 -2.02141975e-02 -2.83086271e-04
  1.00544866e-03  2.05820337e-02  1.09142070e-02  4.07478757e-02
  3.88821042e-04  6.90189269e-03  4.40301859e-02 -2.52386091e-02
  3.24810998e-03  6.62301427e-07  2.93091089e-02  6.02526632e-03
 -1.96902817e-02  1.90127848e-02 -2.15153053e-02 -3.28336642e-02
  1.92109679e-02  7.83021460e-03 -3.24433951e-02 -1.80801009e-02
  7.19017549e-04  2.86215974e-02 -1.77343476e-02 -5.34550344e-03
 -1.44356313e-02  4.29708047e-03 -9.92337013e-03  2.43071054e-03
 -1.58158529e-02  1.01810977e-02 -1.42682737e-02 -2.63645364e-03
  9.58913418e-03 -5.78231206e-03  4.44079569e-02  1.03210319e-02
  1.42223481e-04  1.34651244e-02 -9.31988978e-03  2.17157884e-02
  8.72246042e-03  2.82397923e-02 -2.77412145e-03  3.23687187e-02
 -5.83063801e-03  1.05216938e-02  1.74310867e-02 -1.36469721e-04
  3.53400265e-03  1.05614441e-03  4.03237971e-02 -1.91794592e-02]
Node 2: 
[ 5.92948160e-02  1.50541533e-03  5.37684334e-02 -3.52898445e-02
 -1.28365356e-02  2.99267101e-03  6.18557060e-02 -5.49354053e-03
 -6.27366008e-03  5.87792162e-02  4.17876120e-03 -5.18766764e-02
 -4.02093594e-02 -1.52231382e-02 -3.98884770e-02 -2.60727529e-02
 -6.47495732e-03 -5.90989742e-02 -1.98048731e-03 -1.93152928e-02
 -2.63599902e-02  3.93582862e-02 -4.14997079e-02 -4.82035945e-03
 -5.37664072e-03  4.71950525e-02 -4.62261334e-02  5.64238717e-02
  4.87123294e-02  3.54085859e-02  3.53118295e-02 -4.40657193e-02
 -8.60767507e-03 -2.60348144e-02  5.11600581e-02  4.04179178e-02
  3.89400172e-02 -2.69513808e-03  6.12613858e-02  4.15579252e-02
  2.27968025e-03 -1.01859873e-03  4.33448519e-02 -4.18778594e-02
  4.25694283e-02  4.37756001e-02  3.58096881e-02  2.01935036e-03
 -1.91007375e-02  4.79275690e-02 -3.27976041e-03 -4.70247287e-02
 -9.18662959e-03 -2.57988887e-02 -3.42690836e-02 -4.54199371e-02
  6.74882718e-02  4.02638763e-02 -3.56982383e-02  5.49504447e-02
 -5.06211318e-02 -2.58308856e-02  5.08871607e-03 -1.53484343e-02
 -3.19095909e-02 -4.72104623e-02 -3.36049743e-03 -2.16341961e-02
  3.64500036e-02  4.10013052e-03 -3.56193143e-02 -1.15979624e-02
  4.73050556e-02  3.36641904e-02 -3.11853365e-02 -3.41753513e-02
  4.49668015e-02 -3.48144339e-02  1.15493404e-02 -2.41028508e-02
  6.14432791e-02 -8.62555145e-03 -5.38690385e-02 -8.36452797e-03
 -3.00254597e-03 -4.25830560e-02  9.18273011e-03 -2.58136178e-02
 -5.19627625e-02 -1.21319746e-02 -3.76219316e-02  2.72093965e-02
 -3.66559272e-02  2.14455642e-02  5.79219941e-03 -4.60159535e-02
 -2.15240988e-03 -7.39193288e-03  1.96570899e-02 -3.64584206e-02
 -4.82288549e-02  6.27246829e-02  6.25778836e-02  3.50107308e-02
  5.25952333e-02 -1.09983388e-02  4.92905551e-02 -2.57619420e-02
  2.98059297e-02 -3.35791834e-02  2.62007243e-02 -3.20952674e-02
 -1.95021335e-02  5.96226708e-02 -5.57770972e-02 -9.85654888e-03
  4.67344536e-03 -7.51488387e-03 -4.70356022e-02 -1.58730448e-02
 -3.36752012e-02  3.81135244e-03 -7.65163182e-03  8.41242342e-03
  5.95913607e-02  3.43348715e-02  5.46097301e-02 -2.82949126e-02
  5.25713170e-02  4.53100590e-03 -5.69927666e-02 -3.51436793e-03
  5.80258397e-02 -5.02525967e-02  3.10142500e-02  5.86164570e-02
 -1.59663416e-02  5.81973576e-02  4.00928189e-02  2.17240996e-02
 -8.27168878e-03 -1.97206250e-02  4.85137846e-02  4.62373305e-02
 -3.14389771e-02 -5.06105079e-02 -2.62954867e-02  2.68507893e-02
  7.32428322e-04 -5.77182018e-02 -5.64562623e-02  2.51926579e-02
 -2.11770311e-02  2.81396283e-03  7.18218005e-03  2.00734496e-03
  4.95743087e-02 -2.70623700e-02  5.09901202e-02 -3.10137979e-02
  7.12729314e-03 -1.18711239e-02  6.25466199e-02  1.67855083e-02
 -1.70785114e-02  1.97915944e-03 -3.98011315e-02 -6.17017223e-02
 -3.20686452e-02  4.30350776e-02  4.70848224e-05 -3.86882526e-02
  3.91188122e-02 -3.10389599e-02 -1.74820213e-03 -5.44145386e-02
 -3.93896300e-02  3.64968953e-02 -2.55114443e-02  3.04713427e-02
 -4.19466723e-02  4.90893456e-02  1.89187535e-02  5.68032910e-02
 -8.93248806e-03 -3.71331688e-02  1.05688130e-02  3.79667005e-02
  4.61113137e-03 -4.70804175e-02 -2.19154478e-03 -3.91850791e-02
 -3.57420042e-02  1.38144237e-02  3.62664013e-02  2.36657411e-03
  4.89568044e-02  4.78640594e-02  4.44125561e-02 -2.38944800e-03
 -3.83439518e-02  8.93434510e-03  3.84699898e-03  6.03826272e-02
  4.87609612e-02 -4.48134006e-02  3.44739267e-02 -1.02265747e-02
 -3.91925311e-02 -3.95141498e-02  3.21078813e-02 -5.61946262e-03
 -5.53955780e-02  8.85202692e-03  4.20055280e-02 -3.30304312e-02
 -1.65108732e-04 -2.09455949e-02 -4.58992885e-02  4.42209726e-02
 -3.30907314e-02  6.22469845e-02  4.63064732e-02  1.56235366e-03
  3.08086460e-03  8.36000822e-03  4.44765140e-03 -2.24142786e-02
  6.51257877e-02  4.41125703e-02 -1.92634695e-03 -4.02501012e-02
 -5.11452390e-02 -3.30088015e-02 -4.90362885e-02  2.64100025e-03
  5.95571255e-02  4.17289387e-02 -1.26724639e-04  5.58921713e-02
  3.21115858e-02  3.91646831e-02  5.92154572e-02  5.51603279e-03
 -1.94897825e-02 -1.53821729e-02 -3.97246215e-02  1.90316376e-03
 -5.82259949e-03  2.27683508e-02  2.18607382e-02  6.39362727e-02
  2.17810167e-03 -3.40341810e-02  4.78019816e-02 -4.53982107e-02
 -4.07502563e-03 -1.90653480e-03  5.27187048e-02  2.37768227e-03
 -4.14670877e-02  1.92178763e-02 -3.58730599e-02 -6.48964679e-02
  2.15245297e-02  1.87431591e-02 -5.77074458e-02 -3.94418099e-02
 -8.94243844e-03  3.51665702e-02 -3.38587544e-02 -1.71371195e-02
 -4.22321935e-02 -1.20578751e-02 -4.41200057e-02  3.01536487e-03
 -1.67991015e-03  1.06412417e-02 -4.11219975e-02  1.77402784e-03
  2.15338388e-02 -2.27826032e-02  5.69650539e-02 -2.89254575e-02
  4.30381073e-03  3.87025956e-02 -1.80069080e-02  3.81386697e-02
 -7.16800894e-03  3.89355681e-02  3.00278344e-04  4.18313894e-02
 -2.37870049e-02  1.44295208e-02  4.40794859e-02 -4.37590114e-03
 -2.02102241e-02 -4.29115406e-03  5.53909248e-02 -3.86537592e-02]
Node 3: 
[ 4.68435229e-02  1.44875741e-04  5.01116601e-02 -1.93754802e-02
  1.21062745e-02 -8.39994170e-03  6.75168039e-02 -2.93299919e-02
 -8.64406143e-03  5.50891888e-02 -2.37019776e-03 -2.32919687e-02
 -1.53599749e-02  1.73387030e-03 -1.26281247e-02 -2.30058004e-02
 -7.60948942e-03 -3.40399307e-02 -5.55962016e-03 -5.98453987e-03
 -6.88811712e-03 -1.47578259e-03 -2.13633941e-02 -5.57329570e-03
 -4.08281842e-03  7.39379866e-05 -1.41358564e-02  5.40480445e-02
  5.26764331e-02  5.56149148e-03  3.68960829e-02  3.86527687e-03
 -5.83183083e-03 -9.26203106e-03  4.00614955e-02  3.61482327e-02
  2.66266322e-02  1.32410489e-02  5.40013784e-02  4.35045610e-02
  1.43216407e-03  1.58179722e-02  3.37737367e-02  1.03734271e-02
  4.02569229e-02  2.95156008e-02  3.31092320e-02 -1.16261233e-02
 -1.22946994e-02  5.82178207e-02 -5.44514728e-03 -1.72704934e-02
 -8.03714160e-03 -1.75371932e-02 -1.27196962e-02 -1.81571645e-02
  6.69146024e-02  4.54865992e-02 -1.14555329e-03  5.51173668e-02
 -1.83049193e-02 -1.53905873e-02  2.74484933e-03  1.82442855e-02
  7.50520409e-03 -1.54944429e-02 -1.48902890e-03  2.08953018e-02
  4.91272358e-02  3.62256956e-03  3.22252099e-02  1.04926133e-02
  4.41942958e-02  4.45642090e-02  3.56025884e-03 -1.53318072e-02
  5.02103508e-02  2.77223316e-02  4.10215359e-03  1.86242648e-02
  5.52988206e-02  1.75296935e-02 -2.51798507e-02  2.09642627e-02
  1.33660851e-03 -1.98592990e-02 -2.73324002e-03 -1.19114381e-02
 -3.08241888e-02 -4.25560427e-03 -1.66157103e-02  2.97194670e-02
 -1.70930965e-02  9.57014371e-03 -3.59870501e-03 -3.50543814e-02
  1.56454171e-02 -8.33911291e-03  2.55279771e-03 -1.83756241e-02
 -1.55907072e-02  5.41684172e-02  5.65598037e-02  3.11524527e-02
  5.63528451e-02 -6.72405167e-03  5.51384778e-02 -4.92001155e-03
  3.34040813e-02 -1.44494558e-02  1.82104872e-03  9.96474018e-03
  1.27295473e-02  5.29097216e-02 -2.26944232e-02  1.85804288e-02
 -3.46237584e-03 -9.32153323e-03 -5.86881699e-02  1.24762335e-02
  5.46617802e-03 -3.78587333e-05 -3.36488878e-03  3.28706002e-03
  5.13829169e-02  3.67104407e-02  6.08665958e-02  2.31267100e-02
  6.25323432e-02 -2.45995459e-02 -4.54473987e-02  2.64725861e-03
  4.85158135e-02 -2.78836831e-02 -9.73204301e-04  6.06818005e-02
  7.56388334e-03  5.41314705e-02  7.87706817e-03 -9.34076442e-03
  1.74663465e-02  2.23037774e-02  4.56493540e-02  5.44826178e-02
  3.64553376e-02 -1.26093166e-02 -9.66688628e-03  4.20090577e-02
 -3.50546926e-03 -1.18049649e-02 -4.47764846e-02  2.77343699e-02
 -1.05001802e-02 -3.19484628e-04  1.54177003e-04 -4.67199654e-04
  4.89834209e-02  2.62828001e-02  5.89035911e-02  5.77754631e-03
 -2.54040118e-02 -7.63933164e-03  5.90428108e-02  3.12352884e-02
 -8.41466203e-03  6.00534290e-03 -4.84338972e-03 -4.00427856e-02
 -1.71746609e-02  5.83728222e-03 -5.85753212e-04  2.81687718e-02
  3.43699226e-02  1.21179352e-02 -4.38456734e-02 -3.36515796e-02
 -1.72931295e-02  3.70314981e-02  3.38235155e-03 -1.63449232e-02
  1.72770029e-02  5.22957091e-02 -3.55040307e-04  4.23960022e-02
  1.08634619e-02  2.90563652e-02 -2.10693108e-02  3.83975428e-02
 -9.34953525e-03 -2.56877472e-02 -1.87812542e-03 -1.49846652e-02
 -1.63568488e-02  5.44893090e-03  3.30526457e-02  2.73844641e-02
  5.11982939e-02  5.23432552e-02  2.95602931e-02 -3.05472599e-03
  2.98751114e-02  1.54694205e-03 -3.31216298e-03  5.35533803e-02
  3.82369159e-02 -1.10365333e-02  3.85458370e-02 -2.93330894e-02
 -1.86004465e-02  1.65448597e-02  4.64103886e-02  1.87658834e-02
 -3.62951316e-02  6.18226896e-05  2.54519550e-02 -1.56801716e-02
  8.25325064e-05 -1.13750395e-02 -2.98968730e-02  5.17238768e-04
  1.80414119e-02  5.52667722e-02  2.28992724e-02 -1.58129413e-03
  2.85654595e-03 -3.64174058e-02 -2.74255292e-03 -1.13321533e-03
  5.13239882e-02  6.53479821e-03 -1.31800870e-02  2.53204988e-02
 -2.92777230e-02 -2.51910825e-02 -1.94934111e-02  2.86476217e-05
  6.83176939e-02  3.42485432e-02 -2.51140995e-02  5.17278519e-02
 -1.69797358e-02  4.61781079e-02  7.44588839e-02  1.14630714e-04
 -3.83442437e-03 -4.13911529e-03 -1.64056143e-02 -5.59640108e-03
 -1.67717817e-02  3.10412234e-02  3.31961106e-03  6.47700105e-02
 -2.56435247e-03  2.02946403e-02  5.93818396e-02 -2.74511491e-02
 -2.35689161e-03 -5.27578280e-03  4.39349513e-02 -4.69231927e-04
 -1.51172360e-02  3.14524901e-02 -1.84612137e-02 -3.72918293e-02
  3.34007023e-02  1.21755622e-02 -3.61431979e-02 -1.40092121e-02
 -4.54164719e-03  3.73685146e-02 -1.44279437e-02  9.14480464e-03
 -5.62052689e-03 -1.59468428e-02  2.90717187e-03 -3.93216514e-03
 -3.65378533e-02  7.01708595e-03 -6.32060227e-03 -5.35621007e-03
 -1.30062621e-03  9.49008205e-03  5.78733788e-02  2.50477618e-02
 -4.25614245e-03  1.14862562e-03  2.14424949e-03  2.20960347e-02
 -7.27247569e-03  3.87177562e-02 -1.50761232e-02  4.97038672e-02
  8.88127695e-03  5.90124469e-03  1.76475721e-02 -1.34863200e-03
  2.12545014e-02 -2.68238756e-03  5.65272433e-02 -1.61724488e-02]
Node 4: 
[-0.06950338 -0.08431433 -0.0653525  -0.03927001 -0.00103542 -0.07500039
 -0.08256738  0.04279735 -0.06887866 -0.07392611 -0.0775467   0.00418762
 -0.03201275  0.0300484  -0.01181738  0.11970425 -0.07485293  0.00564063
 -0.06906393  0.05105633  0.07682176 -0.03150983 -0.02710864 -0.06338223
 -0.05776145  0.09623849 -0.03863933 -0.0607971  -0.06818702  0.04225264
 -0.04611515 -0.0740197  -0.07119632  0.07735708 -0.05036198 -0.04073698
 -0.0092874  -0.00285334 -0.06816615 -0.06047987 -0.08314835 -0.0096294
 -0.03166535 -0.07551051 -0.04647291 -0.01201062 -0.03100665 -0.03318636
  0.10004571 -0.07079257 -0.07870038 -0.02706489 -0.04349649  0.10479563
 -0.03803248 -0.0354035  -0.07989961 -0.05950295  0.06748506 -0.06889428
 -0.02865251  0.09556378 -0.08373051  0.00313969  0.03970499 -0.03031997
 -0.07874761  0.00462245 -0.06616966 -0.06827951 -0.10693317  0.01036568
 -0.06700053 -0.05917492  0.05156293 -0.04011803 -0.07027446 -0.08370551
 -0.08139516  0.01160625 -0.07535821 -0.00850904 -0.00259263 -0.02020105
 -0.07844933 -0.01176483 -0.07352867 -0.04297865 -0.0168671  -0.05343231
 -0.01717207 -0.02424117 -0.0265398   0.03756036 -0.07356133 -0.00274566
 -0.01176303 -0.07310604 -0.07190062 -0.03520352 -0.0306873  -0.07896556
 -0.07754565 -0.03917495 -0.0735387  -0.0632697  -0.06659521  0.06922204
 -0.03605268 -0.0355673   0.06673601  0.03883706  0.01238893 -0.06934669
 -0.03183159 -0.0111351  -0.07601874 -0.07429408  0.08390428  0.00684046
  0.04816452 -0.07799971 -0.04851911 -0.07584932 -0.0582234  -0.03683942
 -0.07702278 -0.00777939 -0.068559   -0.00101916  0.02571173 -0.07220565
 -0.05577191 -0.01272731  0.07501983 -0.07335243  0.02622042 -0.06308415
  0.0654157  -0.03863966 -0.00616048 -0.00104455 -0.05069457 -0.06960624
 -0.11012897 -0.045225   -0.05069328 -0.05191254 -0.07010889 -0.03484619
  0.01877503 -0.0171743  -0.06189174 -0.07892769 -0.08469268  0.04953019
 -0.06907354 -0.03303966 -0.08141879  0.04819575 -0.00226902 -0.06011719
 -0.06863194 -0.03387874 -0.04674219 -0.07490706 -0.04669021  0.0190082
 -0.02696641  0.04817864 -0.04988107 -0.107555   -0.02967626  0.03249726
  0.03583824 -0.00975828  0.10820767 -0.04078155  0.04331008 -0.02817685
 -0.09431232 -0.0691842  -0.07001587 -0.07405309  0.00552665 -0.10489323
 -0.00608063 -0.0472396  -0.05663266 -0.01498167 -0.08620628 -0.03119123
 -0.021662   -0.07908638 -0.01978362 -0.0308743  -0.05740786 -0.07662042
 -0.02927123 -0.08234574 -0.11347451 -0.07724885 -0.08044111 -0.08354469
 -0.05187261  0.03349665 -0.04867992  0.01329897 -0.03561927 -0.05577451
 -0.06237121 -0.02263348  0.00431495 -0.07673137  0.00866083 -0.03090238
 -0.08165421  0.08698076  0.00450345  0.08188048  0.00611146 -0.07464071
  0.0096777  -0.06739077 -0.06353379  0.01655272 -0.08221473  0.05483514
 -0.08672819  0.06725327 -0.05450887 -0.10528148  0.01991459 -0.0135639
 -0.04143175 -0.07828555 -0.07116207 -0.02485673  0.00041853 -0.06142167
 -0.01688907 -0.05853817 -0.0842717  -0.07926083  0.06212227 -0.04210777
 -0.02846583 -0.07480075 -0.0287028  -0.02865863 -0.07430653 -0.08367855
 -0.07995343 -0.03024035 -0.07780541 -0.0198083  -0.07918993 -0.08400083
 -0.05067324 -0.08452393 -0.02514072 -0.04311031 -0.01540396  0.00297984
 -0.04159705  0.02144729  0.01080301 -0.02777201 -0.06239078 -0.04532808
 -0.04901632  0.01536827 -0.0505037  -0.04343429  0.04734847 -0.0727466
  0.03154978 -0.07823025 -0.0366587  -0.07425586 -0.05834726  0.03355634
 -0.07942191 -0.03182953 -0.08345782 -0.05796858  0.03625352  0.02253656
 -0.08221938 -0.05090315 -0.00747208 -0.06336731  0.03254337 -0.07739933
  0.03003528 -0.0499861  -0.0009534  -0.06782083 -0.06507336  0.00730493]
Node 5: 
[ 7.54187670e-02 -1.34077984e-02  6.79702418e-02 -1.05738920e-02
  4.53269732e-02 -1.85752752e-02  8.13643398e-02 -7.96187335e-02
 -5.73962558e-03  7.22970937e-02 -1.59388092e-02 -3.94570496e-03
 -2.95748874e-03  3.64137359e-02  1.03706586e-02 -8.70073985e-03
 -2.10377437e-02 -9.65014707e-03 -1.54708728e-02  2.41526100e-02
  2.50512754e-02 -4.57220348e-02 -1.73771678e-03 -2.08383179e-02
 -3.26106418e-02 -4.30178067e-02  1.05558578e-02  6.94506246e-02
  8.11845145e-02 -2.47928289e-03  6.19733910e-02  4.83438083e-02
 -1.28720387e-02  2.02078150e-02  5.64422703e-02  5.15433928e-02
  3.00378563e-02  4.11697089e-02  6.59025281e-02  7.46182618e-02
 -2.47292621e-02  4.67936583e-02  3.50450499e-02  5.96066537e-02
  5.80980141e-02  1.87369851e-02  4.10775176e-02 -4.47676957e-02
  4.19314753e-05  8.12915939e-02 -2.10388670e-02 -7.26350975e-03
 -2.24816835e-02  3.88102590e-03 -4.48750216e-03  6.07792696e-03
  7.80723357e-02  7.25005184e-02  5.03962508e-02  7.31920947e-02
 -2.84526321e-03  7.44835208e-03 -1.05432669e-02  5.94707918e-02
  5.99996549e-02 -2.63926178e-03 -1.34804291e-02  7.95899942e-02
  7.80060468e-02 -5.91062627e-03  1.00896240e-01  4.70126035e-02
  7.29017076e-02  7.50362249e-02  5.11110069e-02 -6.78961632e-03
  6.81633938e-02  9.15685761e-02 -1.73013785e-02  7.56253649e-02
  7.26720407e-02  5.83358436e-02 -9.83074892e-03  5.80096808e-02
 -9.13763902e-03 -1.64460837e-02 -2.18319265e-02 -7.16955717e-03
  1.68303954e-05 -1.51320446e-02 -1.21435726e-03  4.48186728e-02
  3.35152239e-03  9.10473666e-03 -2.41599229e-02 -1.93369157e-02
  4.44297380e-02 -2.12315813e-02 -2.92348541e-02 -7.18972125e-03
  2.47029792e-03  7.17915061e-02  7.40944148e-02  4.95751292e-02
  7.74640007e-02 -1.20222284e-02  6.91663375e-02  2.97080149e-02
  5.36320938e-02 -2.69201755e-03 -1.19286456e-02  6.68425415e-02
  5.17118581e-02  7.98286535e-02 -4.65442973e-04  6.20273207e-02
 -2.20145751e-02 -7.22617240e-03 -8.16999591e-02  5.31799279e-02
  5.91724161e-02 -1.75856825e-02 -3.34462482e-03 -1.11116870e-02
  5.62138726e-02  4.73968741e-02  6.93823426e-02  8.63964440e-02
  7.99839806e-02 -6.24930977e-02 -3.37981197e-02 -1.84173814e-02
  6.27270546e-02 -1.17692868e-02 -1.94956186e-02  7.35151124e-02
  4.16617069e-02  6.24370909e-02 -1.44923274e-02 -6.12574522e-02
  6.08326713e-02  7.76050252e-02  6.03614816e-02  7.00302352e-02
  1.07198812e-01  4.50696029e-03 -2.84617190e-03  6.42095379e-02
 -8.92731863e-03  2.78835876e-03 -2.28366329e-02  4.29123998e-02
 -1.33724414e-03 -1.70489908e-02 -1.47682810e-02  4.60875585e-03
  8.05597803e-02  8.78366418e-02  7.98613898e-02  5.89406662e-02
 -7.08877990e-02 -1.64748010e-02  7.42929595e-02  5.62591378e-02
 -7.41299050e-03 -1.81957271e-02  2.54225965e-02 -1.50172011e-02
 -8.42197069e-03 -4.70177041e-04 -4.15113518e-02  9.83492465e-02
  4.54365512e-02  7.05329904e-02 -6.88565829e-02 -2.98153498e-03
  1.76644495e-02  5.19896832e-02  4.40210120e-02 -7.77862365e-02
  7.62578282e-02  7.83092755e-02 -3.67842345e-02  7.53694948e-02
  6.13403001e-02  9.75587980e-02 -4.83150804e-02  6.20888902e-02
 -4.39102409e-02 -3.64675438e-03 -8.19013276e-03 -1.46218712e-03
 -2.76083256e-03 -1.88945969e-02  4.64817744e-02  7.41452698e-02
  5.90871125e-02  7.30246699e-02  4.30672164e-02 -1.23745379e-02
  1.02147479e-01 -1.70330314e-02 -1.73273567e-02  9.32560771e-02
  6.73204098e-02  2.19733989e-02  6.06064726e-02 -6.49547035e-02
 -4.21634383e-03  7.39317593e-02  7.32671840e-02  6.33970633e-02
 -1.28046438e-02 -2.13061789e-02  2.15311220e-02 -6.30254813e-03
 -1.67805015e-02  1.49701965e-02 -1.32357304e-02 -2.70512233e-02
  7.99664508e-02  7.16602388e-02  2.23853319e-02 -2.60775287e-02
 -6.04101775e-03 -8.93223074e-02 -1.58019943e-02  3.09699163e-02
  8.72563889e-02 -1.97968393e-02 -2.59163940e-02  9.33631464e-02
 -4.55001983e-02 -1.87275821e-02  8.26705985e-03 -1.50303489e-02
  6.65543769e-02  4.31922085e-02 -5.81722492e-02  6.48053486e-02
 -7.78012602e-02  6.96747056e-02  8.29682768e-02 -2.06991006e-02
  2.92847883e-02 -1.10046881e-02  8.64471862e-04 -1.56380255e-02
 -3.43041045e-02  5.41398506e-02 -3.17689325e-02  8.76143382e-02
 -1.71006349e-02  8.12726348e-02  8.11230894e-02 -6.52428858e-03
 -2.10176651e-02 -2.35578563e-02  6.21444266e-02 -1.03377375e-02
  1.80803005e-03  6.48077222e-02 -6.31981511e-03 -2.14151936e-02
  6.60436985e-02  1.55979520e-02 -1.94540873e-02  6.44814367e-03
 -1.64962239e-02  5.66392216e-02 -6.55063351e-03  4.79501718e-02
  2.69647880e-02 -2.81308854e-02  5.71846458e-02 -2.61828848e-02
 -6.57004730e-02 -7.40657062e-03  2.51227383e-02 -1.75665404e-02
 -3.89786919e-02  5.82683790e-02  8.07816380e-02  8.73196689e-02
 -1.10352879e-02 -4.75265272e-02  2.90117951e-02  9.44777748e-03
 -1.86849180e-02  5.47651453e-02 -6.29043792e-02  7.07337870e-02
  5.81013905e-02 -1.51415679e-02  2.46147985e-03 -4.72142797e-03
  7.47447554e-02 -2.69897747e-02  7.59186198e-02  2.54266280e-03]
Node 6: 
[-0.04085854  0.03049509 -0.03731762  0.03272131 -0.01587023  0.02910637
 -0.04066949  0.02561659  0.03270909 -0.04661966  0.03233463  0.03972823
  0.03500703 -0.01452802  0.02720564 -0.00742757  0.0364643   0.04576761
  0.03874175 -0.01699862 -0.00822515 -0.01951174  0.0404403   0.03842406
  0.03324778 -0.04918421  0.04041164 -0.03311414 -0.02326092 -0.02366749
 -0.0280966   0.03632465  0.02975552 -0.00622805 -0.03797014 -0.02842458
 -0.04027944 -0.00858226 -0.04640234 -0.022901    0.02325252 -0.01331863
 -0.03412761  0.03152358 -0.01852806 -0.04268541 -0.02393055  0.02882557
 -0.01056799 -0.04168818  0.03422125  0.05042938  0.02236488 -0.00979515
  0.03440407  0.04211711 -0.04402048 -0.03257532  0.00483992 -0.03454836
  0.03495641 -0.00782594  0.02235675 -0.00449684  0.00259166  0.03284019
  0.02108239 -0.00976396 -0.02723955  0.01137964  0.01776252 -0.01185067
 -0.02113153 -0.02596255 -0.00149723  0.03421847 -0.02445241  0.0157197
  0.02190618 -0.00742996 -0.04447128 -0.01651237  0.04111212 -0.01306366
  0.02433084  0.04082596  0.02082673  0.01991467  0.04347117  0.03430459
  0.02658278 -0.01633419  0.02597958 -0.02774521  0.02466043  0.03511265
 -0.01879422  0.03101361  0.0108335   0.03355611  0.04926641 -0.04630822
 -0.04214471 -0.02697164 -0.03485723  0.03152094 -0.04259611 -0.0024177
 -0.01442202  0.02814836 -0.02814547  0.00164108 -0.00421988 -0.0213562
  0.04691854 -0.00619748  0.04173223  0.034158    0.03667533 -0.00538859
  0.00580632  0.02271435  0.00972755  0.01665376 -0.03137614 -0.02630394
 -0.03137621  0.00154028 -0.0475573   0.02056877  0.04308552  0.03462544
 -0.04083944  0.05385697 -0.03639138 -0.02402593 -0.01842596 -0.029519
 -0.03072427  0.00013936 -0.00781872 -0.00348185 -0.04196391 -0.02008925
  0.0124524   0.04979264  0.02785805 -0.02112664  0.03987633  0.04716509
  0.04889868 -0.01794027  0.03308016  0.02430444  0.02554852 -0.01390903
 -0.02136566  0.00501482 -0.01950136 -0.00088785  0.00607787  0.03188253
 -0.03666765 -0.02147638  0.02125147  0.02341971  0.03137697  0.03926524
  0.02523272 -0.0452558   0.01742359  0.02077171 -0.03054813 -0.00197627
  0.02271389  0.04720538  0.00604248 -0.02030207 -0.00221029 -0.00050334
  0.02964011 -0.03628403  0.01147558 -0.02347199 -0.009916    0.01856486
  0.00150067 -0.03220301  0.0283244   0.04897727  0.03653906  0.03023853
  0.02519459  0.01274408 -0.01915464 -0.02435182 -0.02863211 -0.04226999
 -0.04088932  0.03921596  0.02172631  0.02228588  0.02599464 -0.02941611
 -0.02289739  0.02691205 -0.02974661  0.0109284   0.03249837  0.01720023
 -0.02528112 -0.01670743  0.02880722  0.0221381  -0.04411036  0.02477431
  0.02145622 -0.01251137  0.04406607 -0.04505982  0.00482427 -0.04869421
 -0.04954163  0.02422943  0.01266872  0.01872749  0.02693277 -0.01127465
 -0.01921099 -0.03547124  0.04031404  0.02279042  0.02824092  0.04310453
  0.03898259  0.02181736 -0.02550335 -0.02341117  0.02004176 -0.02691869
 -0.0042158  -0.03038661 -0.05290275  0.02513379 -0.01169777  0.04067461
  0.03168767  0.03385046  0.03672247 -0.02441093  0.00656917 -0.04577398
  0.03379412  0.0103133  -0.01886085  0.04771912  0.03428875  0.03453359
 -0.03584871  0.02717629  0.0303723  -0.02248642  0.02673743  0.03515324
 -0.0267503  -0.01618409  0.04774256  0.03066449  0.02783388 -0.02583455
  0.03142275 -0.00805739  0.03501725  0.03610259  0.01636696  0.02801406
  0.00930236  0.01206396  0.03009677  0.03324497  0.00565765 -0.00587348
 -0.04265548  0.00482684  0.02605475 -0.01480986 -0.01611139 -0.04625204
  0.03207608 -0.0289787   0.00048592 -0.02731398 -0.00377629  0.0108697
 -0.04671027  0.00655542 -0.0116627   0.03951538 -0.04334736  0.02335698]
Node 7: 
[-0.03390509  0.06004324 -0.03055875  0.04654529 -0.02860302  0.04832474
 -0.02010675  0.03117025  0.05411666 -0.00636631  0.03820349  0.0461604
  0.0347876  -0.02524724  0.02022182 -0.02863094  0.05674597  0.03952242
  0.04330366 -0.02758711 -0.03182141  0.00428124  0.03033725  0.05224423
  0.04277466 -0.06051305  0.03894229 -0.03465638 -0.00355003 -0.03747107
 -0.01146914  0.03808871  0.04762453 -0.02962544 -0.03526156 -0.02873651
 -0.0212622  -0.02321061 -0.03940484 -0.02433753  0.05544199 -0.02373723
 -0.0334184   0.03195443 -0.02503998 -0.0370984  -0.01471408  0.03537722
 -0.02449853 -0.01700705  0.05394513  0.04546716  0.04453519 -0.03130257
  0.03594202  0.03889829 -0.02322564 -0.02617206 -0.02282953 -0.03790703
  0.04707719 -0.03196759  0.04623331 -0.0291524  -0.01714521  0.05022843
  0.03715938 -0.02203322 -0.013844    0.03156019  0.01913545 -0.03312437
 -0.02595273 -0.02712105 -0.02568409  0.04085166 -0.03158229  0.0114562
  0.04927945 -0.0236588  -0.02876129 -0.01542527  0.02408462 -0.02580164
  0.04590355  0.03000919  0.04248726  0.02569398  0.04720699  0.05432038
  0.02331773 -0.02174513  0.02955127 -0.03241542  0.05049152  0.0444328
 -0.02298973  0.05661754  0.03742342  0.03604427  0.04329503 -0.02257724
 -0.01901613 -0.01694805 -0.02020969  0.03872197 -0.03754701 -0.02855848
 -0.02191262  0.03145283 -0.04185509 -0.02180752 -0.03223589 -0.03388849
  0.03651038 -0.02118871  0.06022212  0.05375225  0.02665833 -0.02135259
 -0.02209283  0.04348632  0.01917425  0.03902512 -0.03591989 -0.0291378
 -0.03326376 -0.01894988 -0.01597413  0.01207998  0.01881198  0.04396694
 -0.02612901  0.04019806 -0.0410247  -0.03789375 -0.021419   -0.0309283
 -0.0353288   0.02314928 -0.02355708 -0.02570148 -0.03270202 -0.03555551
  0.01370073  0.04556502  0.03185434 -0.01313194  0.05881986  0.0468784
  0.04367579 -0.02698067  0.03879331  0.04750688  0.0501145  -0.03482383
 -0.00624165 -0.01124624 -0.02744202 -0.02574924  0.02622595  0.03706327
 -0.01106516 -0.02511997  0.02682647  0.04554628  0.03020667  0.04796546
  0.02116445 -0.0506751   0.0471549   0.0239865  -0.02155628 -0.01619135
  0.02980146  0.04852633 -0.0270515  -0.01437685 -0.02599097  0.02420069
  0.03407086 -0.03238943  0.03756696 -0.03162496 -0.03133017  0.02066415
  0.03880127 -0.0217292   0.04894926  0.02932731  0.05929422  0.03716545
  0.02331977  0.03876233 -0.01055669 -0.02920405 -0.01664489 -0.04135233
 -0.03666194  0.05424185  0.02721146  0.04139164  0.04841981 -0.02456478
 -0.02486842  0.00737968 -0.02718275  0.03494357  0.03931515  0.00808615
 -0.01846108 -0.02059663  0.03035974  0.04497708 -0.04905686  0.02793063
  0.04582754 -0.03555543  0.04682418 -0.04772655 -0.01827118 -0.01428438
 -0.04345723  0.05527531  0.02712515  0.02691074  0.05292713 -0.02487306
 -0.0411795  -0.04910305  0.05878458  0.02645209  0.02636119  0.04194518
  0.04417464  0.04573722 -0.03444913 -0.03376732  0.0261814  -0.03790171
  0.01892274 -0.02577838 -0.04068673  0.05065413 -0.02947078  0.04957565
  0.03034186  0.04272735  0.03947945 -0.02390109  0.03518636 -0.01412789
  0.04574902 -0.00512917 -0.01698763  0.02571908  0.04078871  0.05066873
 -0.03270781  0.04909812  0.0351761  -0.02142982  0.02434463  0.06397176
 -0.01561522 -0.02865131  0.03269078  0.02962164  0.04521489 -0.02882221
  0.04046886 -0.02519611  0.03152048  0.04205299 -0.01108701  0.05423734
  0.02716595  0.03472855  0.02597956  0.037843    0.0257898  -0.02524897
 -0.02768126 -0.00995889  0.04617243  0.01373855 -0.03440914 -0.04458616
  0.05331532 -0.02759518  0.03525879 -0.02069685 -0.01701275  0.03642022
 -0.03665399  0.01601012 -0.02634768  0.04606598 -0.03879484  0.01393691]
Node 8: 
[-4.11599408e-02  4.32765093e-02 -3.60633810e-02  7.08490569e-03
 -3.66783446e-02  4.26709907e-02 -4.28775787e-02  4.97483599e-02
  2.35424215e-02 -2.96723067e-02  3.29347192e-02  1.01147155e-02
  6.43261066e-03 -2.74677984e-02 -7.94910798e-03 -7.68486451e-03
  3.53073474e-02  1.19671910e-02  3.11307953e-02 -2.29505762e-02
 -2.99762987e-02  3.30458805e-02  1.27220658e-02  3.53754592e-02
  4.58489563e-02  2.21593200e-02 -2.41733159e-03 -3.84870672e-02
 -4.48253764e-02 -5.97839484e-03 -2.49323772e-02 -3.76299094e-02
  2.89351376e-02 -2.32280238e-02 -3.20995050e-02 -2.30826407e-02
 -2.26409732e-02 -3.02039055e-02 -4.33663515e-02 -3.56847559e-02
  4.39408506e-02 -3.56839598e-02 -1.95519702e-02 -5.02587056e-02
 -3.46271480e-02 -1.73173433e-02 -2.90626176e-02  3.81724948e-02
 -1.77214215e-02 -3.60493163e-02  3.73387876e-02  1.16334679e-02
  3.19549452e-02 -1.73418392e-02  5.23408420e-03  1.76541267e-03
 -4.07707777e-02 -3.40141366e-02 -3.93488811e-02 -3.53692541e-02
  1.14714844e-02 -1.69316147e-02  2.86928488e-02 -3.70164073e-02
 -4.28777963e-02  3.80210316e-03  2.42994808e-02 -5.50851720e-02
 -4.12753168e-02  1.55979455e-02 -7.46468583e-02 -3.06284806e-02
 -3.95819767e-02 -3.50450259e-02 -4.08873166e-02  1.29321265e-02
 -2.45671731e-02 -6.59969922e-02  3.75275651e-02 -5.41573102e-02
 -3.07148308e-02 -4.10709613e-02  2.26270697e-02 -3.95298014e-02
  2.35879245e-02  2.07219446e-02  3.88457321e-02  9.98914606e-03
  1.79701427e-02  3.10086924e-02 -1.38162742e-04 -2.06503324e-02
 -8.43962336e-04 -1.39940764e-02  4.24082638e-02  1.05221481e-02
 -3.11133841e-02  4.04010610e-02  3.09088651e-02  6.90710698e-03
  3.04557818e-05 -4.08949053e-02 -3.21386605e-02 -2.43699227e-02
 -4.25263340e-02  2.76452007e-02 -2.91462116e-02 -2.86145080e-02
 -2.76636349e-02  4.57335317e-03  3.00254576e-03 -4.92005852e-02
 -4.37038493e-02 -3.85512004e-02  9.58173363e-03 -4.03574664e-02
  4.47875921e-02  3.33961277e-02  3.69529463e-02 -3.67002698e-02
 -4.24690480e-02  3.53064097e-02  1.59529859e-03  2.90392215e-02
 -3.46899733e-02 -2.68436442e-02 -2.79159865e-02 -6.11476731e-02
 -4.15595035e-02  4.37695488e-02  2.35797617e-02  4.44196617e-02
 -3.53018110e-02  7.42227454e-03  8.73851872e-03 -3.97242402e-02
 -4.00963009e-02 -4.28106306e-02  4.36675222e-03  4.90014009e-02
 -3.72080146e-02 -5.16541735e-02 -3.64483763e-02 -4.04192194e-02
 -7.60380317e-02  4.96644511e-03  7.19713003e-03 -3.90565566e-02
  2.90321320e-02 -4.56862727e-03  1.99429265e-02 -2.36723815e-02
  1.61262744e-02  3.12323718e-02  4.00993592e-02 -1.65275063e-02
 -4.18291910e-02 -6.21416558e-02 -4.08937126e-02 -4.51587040e-02
  4.60202623e-02  3.35362655e-02 -3.39106466e-02 -3.54440589e-02
  7.75963984e-03  4.33034248e-02 -1.85481877e-02  2.69503018e-02
  4.54903701e-03  3.54605903e-03  4.27990222e-02 -7.85044401e-02
 -2.70146575e-02 -4.53072306e-02  3.31171941e-02  6.06711883e-03
 -2.39231675e-02 -2.91179591e-02 -3.64850355e-02  6.02813156e-02
 -6.61093064e-02 -3.85663124e-02  4.26011213e-02 -3.26378525e-02
 -4.16666286e-02 -7.30550056e-02  3.74636768e-02 -3.09296737e-02
  4.84665570e-02  9.79016993e-03  3.76388429e-02  1.81080995e-03
  1.46744979e-03  2.98102498e-02 -2.93107159e-02 -4.47244070e-02
 -3.69195839e-02 -3.44796621e-02 -3.01853304e-02  2.51850197e-02
 -8.04793681e-02  3.18726126e-02  3.75489320e-02 -5.15350824e-02
 -3.40855720e-02 -1.45387976e-02 -3.41171465e-02  3.35578948e-02
  3.01491053e-03 -5.79804063e-02 -3.30278485e-02 -3.68618386e-02
  8.37200567e-03  3.82741800e-02 -6.75834440e-03  4.62462894e-03
  3.26957207e-02 -2.18949221e-02  1.34153041e-02  9.00709789e-03
 -5.88558366e-02 -2.51600645e-02 -1.25426378e-02  4.21474066e-02
  1.24086854e-02  4.70177549e-02  4.25456927e-02 -2.46907054e-02
 -3.09740899e-02  1.44640354e-02  3.74900142e-02 -7.47957111e-02
  2.57733244e-02  2.27197406e-02  1.13606693e-02  3.13683137e-02
 -4.05758610e-02 -2.12108482e-02  3.14837510e-02 -3.05741519e-02
  6.01620993e-02 -3.35131706e-02 -4.64100037e-02  3.82473283e-02
 -3.24098247e-02  3.42010596e-02  2.74370896e-03  2.96280620e-02
  4.11925374e-02 -2.66894787e-02  3.81174917e-02 -4.80035937e-02
  4.25122862e-02 -5.97511042e-02 -3.40801160e-02  1.42888592e-02
  3.55439057e-02  4.21617277e-02 -2.87623729e-02  3.40077461e-02
 -1.09911658e-03 -3.34795956e-02  1.59000474e-03  1.12030735e-02
 -3.33111453e-02 -1.22577222e-02  1.66048860e-02 -4.03412772e-03
  3.14339024e-02 -3.04452474e-02  6.52461390e-03 -3.68728649e-02
 -1.74920407e-02  3.73264283e-02 -3.84480873e-02  3.82355693e-02
  4.99738463e-02  1.94384940e-02 -1.84621254e-02  4.26621114e-02
  3.69638684e-02 -4.34738176e-02 -4.01118667e-02 -6.11971545e-02
  3.64188983e-02  3.71119634e-02 -3.06932967e-02 -1.12110464e-02
  4.21413123e-02 -3.22058945e-02  4.07871855e-02 -3.62515003e-02
 -4.22645112e-02  2.63086547e-02 -8.59316486e-03  1.33279421e-03
 -5.39409825e-02  3.97221857e-02 -3.57943463e-02 -4.08969574e-03]
Node 9: 
[-0.01259578  0.06380026 -0.02047281  0.03681019 -0.01873923  0.06389988
 -0.03834357  0.03883096  0.05448038 -0.044327    0.04268235  0.04372095
  0.03584612 -0.03517967  0.01970318 -0.03014709  0.05418222  0.04225345
  0.05430574 -0.03261865 -0.03328416  0.01080404  0.03069929  0.05528677
  0.05697496 -0.0552974   0.0409823  -0.02301745 -0.03431344 -0.03637422
 -0.02826226  0.03829992  0.05458245 -0.03248136 -0.04061367 -0.02599641
 -0.03981777 -0.02274528 -0.01545277 -0.02909046  0.05794322 -0.02899493
 -0.0313267   0.03098359 -0.02206901 -0.02955865 -0.03557918  0.04439369
 -0.03115078 -0.04458504  0.0631569   0.03757052  0.04389609 -0.03567761
  0.03495051  0.04317543 -0.05136252 -0.02917841 -0.02266656 -0.03835855
  0.04362427 -0.03383938  0.04858457 -0.03115895 -0.02428304  0.04891738
  0.05881569 -0.02637155 -0.03590677  0.03183763  0.01675357 -0.02149223
 -0.03594732 -0.03211883 -0.02644844  0.0432754  -0.03074225  0.00626685
  0.04923482 -0.0325446  -0.03600071 -0.01765349  0.04490922 -0.0297119
  0.04196421  0.03426694  0.0473916   0.02910915  0.02617763  0.05109259
  0.02433541 -0.01271895  0.02113466 -0.03671426  0.05145255  0.02412008
 -0.02861798  0.06037997  0.04176713  0.03109084  0.05123209 -0.0237751
 -0.03520316 -0.0192705  -0.04127545  0.04370291 -0.03557746 -0.02728588
 -0.02631114  0.0331454  -0.04102736 -0.02753007 -0.02602894 -0.01200401
  0.04692718 -0.01724002  0.05766548  0.05342534  0.0044198  -0.0341137
 -0.02379744  0.04518716  0.01751509  0.04800918 -0.04644143 -0.02943979
 -0.04250443 -0.022705   -0.01969891  0.03288278  0.02416956  0.06093308
 -0.0346381   0.04647262 -0.04080346 -0.02718322 -0.03745356 -0.01419902
 -0.04059041  0.02619323 -0.02915085 -0.02202383 -0.02117887 -0.03467201
  0.0111952   0.04552254  0.0363679  -0.03171074  0.05978548  0.04951745
  0.03690562 -0.01380404  0.03467785  0.05133302  0.05354843 -0.04057322
 -0.03724439 -0.01872502 -0.01848176 -0.02569638  0.03236085  0.04907768
 -0.04321383 -0.00885152  0.02936069  0.06302309  0.02973535  0.05588076
  0.02781545 -0.04262549  0.04407915  0.02233798 -0.02630931 -0.03738292
  0.03193864  0.03725867 -0.02672229 -0.02906145 -0.03072453  0.02727587
  0.03400788 -0.02467796  0.041185   -0.04350604 -0.02234084  0.01698994
  0.02880304 -0.00913046  0.04608776  0.04483894  0.05638026  0.03471178
  0.02608092  0.04011911 -0.03461561 -0.02854157 -0.0274054  -0.00922622
 -0.0405241   0.04784475  0.02643771  0.04682922  0.05749627 -0.03512528
 -0.02719014  0.00337825 -0.02521909  0.01798692  0.03303565  0.00384733
 -0.02920561 -0.02244521  0.02286516  0.04288279 -0.04782469  0.03208125
  0.0505773  -0.03983869  0.02956264 -0.04702839 -0.02284907 -0.01170654
 -0.04814915  0.04995225  0.02930816  0.03954202  0.06224223 -0.02288536
 -0.02998859 -0.03913877  0.05137331  0.02490806  0.02460633  0.04988369
  0.03940765  0.04883626 -0.05029734 -0.02547426  0.02586196 -0.01320967
  0.02686919 -0.02810414 -0.02600389  0.0499452  -0.04123952  0.03805669
  0.03573162  0.05333547  0.05708929 -0.03098471  0.04025476 -0.04956472
  0.05644743 -0.01240454 -0.02798081  0.05121291  0.04996385  0.05616741
 -0.03877774  0.05413481  0.02919318 -0.02337631  0.02307027  0.02538167
 -0.0235615  -0.02811998  0.04647564  0.02586055  0.05538643 -0.02264764
  0.03726528 -0.02336173  0.02979208  0.05930198 -0.01888575  0.04657571
  0.02152696  0.03670748  0.02459632  0.05128013  0.03731319 -0.02897098
 -0.02492407 -0.01633315  0.05862733  0.01949942 -0.03493659 -0.03710313
  0.05193194 -0.02247583  0.02093639 -0.04312128 -0.03227584  0.03982802
 -0.02857406  0.0172765  -0.02881022  0.06020318 -0.041842    0.01287666]
Node 10: 
[-0.04849701  0.04307099 -0.04015314  0.05409618 -0.02785867  0.0366696
 -0.05621076  0.03368359  0.04597167 -0.04277321  0.02643241  0.0456223
  0.04272755 -0.01370505  0.02516882 -0.00932987  0.04600345  0.04827242
  0.0493669  -0.02386263 -0.01336152 -0.00498612  0.0398797   0.03981565
  0.04271976 -0.06415952  0.04558476 -0.04347303 -0.00995885 -0.03976878
 -0.03219343  0.04341689  0.04433084 -0.019417   -0.03754315 -0.03922207
 -0.04213965 -0.02486038 -0.03832769 -0.03910079  0.04128949 -0.03007613
 -0.04066029  0.0373848  -0.0399955  -0.04345809 -0.03556346  0.03965091
 -0.02319233 -0.03779464  0.0482046   0.04452202  0.04078846 -0.01395314
  0.03741485  0.04804514 -0.0509222  -0.0362404  -0.00795541 -0.04765882
  0.04241668 -0.01553939  0.03253564 -0.02624651 -0.01394768  0.05587778
  0.04582771 -0.02232797 -0.03038217  0.02282888  0.02186663 -0.01617453
 -0.04392322 -0.03304281 -0.00942007  0.03614136 -0.02268293  0.01490274
  0.03450565 -0.02105095 -0.01662863 -0.02593605  0.03348344 -0.02656888
  0.03477032  0.03838305  0.04070623  0.03480705  0.04616759  0.04251446
  0.02837046 -0.031155    0.02790891 -0.03678488  0.03666492  0.03434663
 -0.01469795  0.03550698  0.015303    0.03562747  0.04454139 -0.05264841
 -0.04135655 -0.02663738 -0.04451601  0.0432013  -0.03951248 -0.01708332
 -0.01458267  0.03432415 -0.03338162 -0.01350063 -0.02370236 -0.03557908
  0.05912371 -0.02575943  0.04532907  0.02906024  0.02966612 -0.02548774
 -0.01250382  0.03967046  0.01442961  0.02785563 -0.03383563 -0.02752256
 -0.03551064 -0.01449905 -0.01622941  0.03019814  0.05264488  0.03609463
 -0.02350842  0.04483042 -0.04080079 -0.01964601 -0.0244464  -0.05284783
 -0.03533817  0.01741477 -0.0143752  -0.01166708 -0.03979283 -0.0337159
  0.01574824  0.06281774  0.02703512 -0.01701919  0.03145814  0.03948245
  0.05669828 -0.01686339  0.03818903  0.03637733  0.04072087 -0.02090716
 -0.01425835 -0.00991676 -0.04248515 -0.01554414  0.03141703  0.03153449
 -0.03273314 -0.01819507  0.0256943   0.03379741  0.03420996  0.02975556
  0.02992266 -0.05504446  0.03630366  0.0276521  -0.02846283 -0.01064425
  0.02887362  0.0292054  -0.00759201 -0.02320187 -0.01446474  0.01490214
  0.03925235 -0.03530917  0.02497971 -0.03656081 -0.02723133  0.02196833
  0.03310719 -0.02165874  0.04266034  0.05940346  0.04089696  0.03803971
  0.03103566  0.02732317 -0.0366004  -0.01334521 -0.04762566 -0.04399649
 -0.04388276  0.0328764   0.03123484  0.03514291  0.042409   -0.05234518
 -0.0230251   0.01587125 -0.01637299  0.03916533  0.03981441  0.01225579
 -0.0328595  -0.02462222  0.03697903  0.03652792 -0.03909247  0.03218128
  0.02920381 -0.02423404  0.05539807 -0.04957876 -0.01022384 -0.0535996
 -0.05310933  0.04287264  0.02048367  0.02803534  0.03460087 -0.016467
 -0.02503016 -0.05169399  0.05101026  0.02968035  0.03931774  0.05376882
  0.03317687  0.03589854 -0.04995593 -0.02121409  0.02874183 -0.03840344
  0.01273601 -0.02403518 -0.05786771  0.03959348 -0.02937004  0.04331392
  0.04036441  0.04241517  0.04674526 -0.02858249  0.02044622 -0.05252945
  0.04651363 -0.00224242 -0.04368612  0.05253915  0.0422776   0.0478203
 -0.04676639  0.04064717  0.03761384 -0.02246205  0.02749722  0.0694832
 -0.00642905 -0.01714467  0.03459544  0.03151807  0.04025585 -0.01725903
  0.03147826 -0.01304702  0.04007152  0.05645546 -0.00134795  0.04516266
  0.03047305  0.02179584  0.03243524  0.05122677  0.01867359 -0.01741569
 -0.03978363 -0.0075245   0.05045258 -0.00045821 -0.01577582 -0.0541289
  0.03780856 -0.03635826  0.02006272 -0.04788782 -0.02058783  0.02559701
 -0.04398484  0.01151911 -0.02219612  0.03282742 -0.03920386  0.01937574]
Node 11: 
[ 7.24578741e-02 -1.70852822e-02  6.22816409e-02 -2.91573922e-03
  5.40033624e-02 -2.05549370e-02  8.87455753e-02 -8.60705848e-02
 -1.07180896e-02  7.82494346e-02 -8.42031556e-03  2.73916061e-03
  8.90946858e-03  4.29695935e-02  2.16018636e-02 -1.42835503e-02
 -7.75805608e-03  5.77323136e-03 -8.52923614e-03  2.41303090e-02
  2.83126401e-02 -5.77277610e-02  2.50107432e-03 -1.33734444e-02
 -2.48572894e-02 -6.79048204e-02  2.33160734e-02  7.03690048e-02
  7.83801857e-02 -1.56318062e-02  6.11327316e-02  6.91207508e-02
 -4.32596499e-04  2.17131243e-02  4.80877445e-02  4.94030068e-02
  2.25158838e-02  4.45265261e-02  6.12666894e-02  7.30885499e-02
 -1.98728839e-02  5.12388230e-02  3.54572622e-02  8.27092399e-02
  4.68178003e-02  1.83284273e-02  4.32935776e-02 -4.52476463e-02
  2.24608683e-03  7.37434394e-02 -9.21923762e-03  1.96654941e-02
 -2.31167722e-02  3.19551734e-04  9.35471798e-03  2.10754390e-02
  7.81300079e-02  7.52125478e-02  5.93475478e-02  7.94660504e-02
  1.24066744e-02  6.32854970e-03 -8.08442627e-03  7.21433666e-02
  7.09089013e-02  1.25858281e-02 -8.53537169e-04  9.21280525e-02
  8.05156485e-02 -3.73507173e-03  1.29618860e-01  4.73471012e-02
  6.56852681e-02  7.12438328e-02  5.98270144e-02  3.17523429e-03
  6.85085692e-02  1.15155458e-01 -1.71546330e-02  8.92495895e-02
  7.65730884e-02  6.54433615e-02 -4.45325242e-04  7.06603469e-02
 -1.65842446e-03 -1.15624523e-03 -1.80043494e-02  2.92733150e-03
 -8.78728548e-04 -1.30110983e-02  8.36339247e-03  4.18423311e-02
  6.68075169e-03  6.49129930e-03 -2.05737454e-02 -9.02374982e-03
  4.88209077e-02 -1.45094586e-02 -3.11134252e-02  4.36504815e-03
  2.49344988e-02  7.23387685e-02  7.64438005e-02  5.26303001e-02
  8.16095048e-02 -2.91225575e-03  6.38642876e-02  3.28716841e-02
  5.75868143e-02  7.51053025e-03 -2.68231714e-02  7.88584059e-02
  5.71312284e-02  7.80083477e-02  1.74558688e-02  7.03382564e-02
 -2.04737601e-02 -4.27095312e-03 -7.08384621e-02  6.15058262e-02
  7.02250788e-02 -1.35552934e-02  5.41599631e-04 -1.08522657e-02
  5.11514081e-02  4.52759147e-02  8.19103837e-02  1.04749391e-01
  8.68102828e-02 -6.49423551e-02 -2.78864503e-02 -1.29479360e-02
  5.74636975e-02  6.37753482e-03 -3.28350334e-02  7.81692223e-02
  4.75215943e-02  5.06180567e-02 -2.29415915e-02 -6.81406974e-02
  6.48917388e-02  8.87501783e-02  6.07647063e-02  7.24521336e-02
  1.34755793e-01  2.86892184e-02  5.95956632e-03  7.65969492e-02
 -6.54379291e-03  1.71154703e-02 -1.98998187e-02  3.79566217e-02
  5.43083246e-03 -1.25223708e-02 -1.62457884e-02  4.68111865e-03
  7.88053790e-02  1.09827907e-01  8.76275895e-02  6.68233256e-02
 -7.45446457e-02 -2.19817599e-03  7.40067004e-02  6.04176243e-02
 -1.96210900e-04 -2.21094472e-02  4.09642288e-02 -5.09935715e-03
 -1.03264143e-03 -2.32586305e-02 -4.04830205e-02  1.28460091e-01
  4.47460770e-02  8.79605070e-02 -7.23247717e-02  6.21430650e-04
  2.06911444e-02  5.44673707e-02  5.06216436e-02 -9.20327648e-02
  1.03014142e-01  7.10929748e-02 -4.00250916e-02  6.84135719e-02
  5.92767418e-02  1.24605689e-01 -6.00145072e-02  6.00481092e-02
 -4.18621235e-02  4.74890860e-03 -1.06338298e-02  1.25478421e-02
  5.61208699e-03 -1.72473459e-02  4.16953286e-02  7.35270172e-02
  6.28916818e-02  7.37564637e-02  3.77778554e-02 -3.92192312e-03
  1.33341485e-01 -1.29867287e-02 -1.22561467e-02  8.19539367e-02
  6.63860771e-02  3.35882126e-02  6.31490443e-02 -6.57964050e-02
  7.43320821e-03  9.64131863e-02  7.50395789e-02  7.08562658e-02
 -4.47635903e-03 -2.25609759e-02  1.38229634e-02  3.29700741e-03
 -9.12039849e-03  1.39443943e-02 -6.65819512e-03 -4.46078873e-02
  9.70749318e-02  7.39074753e-02  8.11736949e-03 -2.41456858e-02
 -1.16697058e-03 -9.20043942e-02 -1.00409512e-02  3.84570976e-02
  8.96133734e-02 -3.76132764e-02 -2.63983670e-02  1.22290881e-01
 -3.86759426e-02 -1.63716971e-02  1.81923588e-02 -1.07325127e-02
  8.29027725e-02  3.69592249e-02 -6.64010636e-02  5.97218373e-02
 -9.36521296e-02  7.12714850e-02  8.57335470e-02 -1.80103614e-02
  2.95343026e-02 -1.01637303e-02  1.24740352e-02 -9.72312193e-03
 -2.34399743e-02  5.96025216e-02 -3.47433410e-02  8.79916775e-02
 -1.55757065e-02  1.01928598e-01  8.12336744e-02  6.84251351e-03
 -9.26910436e-03 -1.69475305e-02  5.02956906e-02 -5.29363364e-03
  1.84371267e-02  6.75413885e-02  6.35569183e-05 -1.15879743e-02
  6.11580007e-02  1.02715700e-02 -1.12433782e-02  1.77167842e-02
 -9.99628008e-03  5.55746284e-02  5.39223642e-03  5.57559925e-02
  4.38080095e-02 -1.56181662e-02  7.09394021e-02 -2.08034231e-02
 -7.49172648e-02 -3.75957763e-03  3.80040025e-02 -1.41867804e-02
 -4.43948337e-02  6.65220629e-02  7.53125908e-02  1.06410733e-01
 -3.12283572e-03 -5.66848463e-02  3.86625279e-02  1.54959613e-03
 -1.44330390e-02  5.40770190e-02 -6.64905903e-02  7.14234818e-02
  6.67648802e-02 -1.33138437e-02 -9.64254727e-03  1.80842176e-04
  8.99614336e-02 -1.87224330e-02  7.73204350e-02  1.13360276e-02]
Node 12: 
[ 5.98993968e-02 -2.35255305e-02  6.10174358e-02 -6.20339231e-03
  5.32783091e-02 -2.93144772e-02  8.34341186e-02 -9.48449394e-02
 -1.47412582e-02  6.44268271e-02 -1.92746517e-02 -7.39391819e-03
  7.06002525e-03  4.70488871e-02  2.20693526e-02  3.48040431e-04
 -2.52097339e-02  4.74716551e-03 -1.30061728e-02  3.09182362e-02
  3.97108126e-02 -6.43989779e-02  5.40800667e-03 -2.79962914e-02
 -3.32867968e-02 -5.79340841e-02  2.18557699e-02  6.05001195e-02
  7.78379298e-02 -1.10864239e-02  5.37366562e-02  6.55880114e-02
 -1.36783080e-02  3.21976959e-02  4.57302277e-02  4.90161971e-02
  2.11276361e-02  4.79269271e-02  5.97568994e-02  6.72818291e-02
 -2.77656127e-02  5.19893780e-02  2.64246323e-02  7.88618546e-02
  4.66597823e-02  1.75201303e-02  3.21954369e-02 -5.04964867e-02
  1.24389610e-02  6.92778529e-02 -2.51344421e-02  9.66548671e-03
 -2.66201657e-02  1.37512462e-02  7.80459130e-03  1.93633618e-02
  6.78237316e-02  6.96250076e-02  7.02661214e-02  6.55763694e-02
  1.14289699e-02  1.81543149e-02 -1.95642344e-02  7.64327021e-02
  7.78210599e-02  7.62878522e-03 -1.41442809e-02  9.55564834e-02
  7.25714915e-02 -8.97055592e-03  1.24293725e-01  4.93738634e-02
  5.61501215e-02  6.77876134e-02  7.03869676e-02 -2.13752518e-04
  6.84194442e-02  1.11525286e-01 -2.66508760e-02  9.33280688e-02
  7.59830086e-02  6.65322265e-02 -1.34796626e-02  6.62629934e-02
 -1.10956914e-02 -6.44968939e-03 -2.79336904e-02 -4.66034905e-03
  1.30078512e-04 -8.97366079e-03  8.29424876e-03  4.00809467e-02
  1.05895118e-02  6.77805134e-03 -2.97293403e-02 -6.53129258e-03
  5.04410128e-02 -1.55258026e-02 -4.10705318e-02  1.06563326e-03
  1.85588857e-02  6.40575934e-02  7.18733037e-02  4.53068473e-02
  7.46546414e-02 -1.10030434e-02  5.72994827e-02  4.26051428e-02
  5.14170359e-02  5.02349539e-03 -1.99504424e-02  8.58794734e-02
  6.66715837e-02  6.61806599e-02  2.01968203e-02  7.05299150e-02
 -3.18620419e-02 -1.38485628e-02 -8.00104684e-02  6.22114642e-02
  7.87554818e-02 -2.61775791e-02 -4.45036873e-03 -2.04967462e-02
  5.09825201e-02  4.14108253e-02  7.15383026e-02  1.07085777e-01
  6.33921357e-02 -6.95388536e-02 -1.60435566e-02 -2.58538411e-02
  5.52825842e-02  1.09091279e-02 -2.82469282e-02  6.70777060e-02
  5.23991465e-02  4.38251556e-02 -2.22566322e-02 -7.81253680e-02
  6.69576329e-02  9.14716614e-02  4.88163161e-02  7.13879245e-02
  1.27958452e-01  2.90208720e-02  1.78025374e-03  7.11204794e-02
 -1.86036722e-02  2.49355355e-02 -1.61509986e-02  3.70801906e-02
  1.69656935e-03 -2.31256902e-02 -2.60619525e-02  7.11218621e-03
  6.86600722e-02  1.10023080e-01  7.33391394e-02  7.67227175e-02
 -7.52602739e-02 -1.62323850e-02  6.70574520e-02  5.58665919e-02
 -4.75428124e-03 -3.09447336e-02  3.88427615e-02 -6.02142034e-04
 -1.94457941e-03 -2.31683823e-02 -4.51229636e-02  1.22375582e-01
  3.76880829e-02  9.10574846e-02 -6.44804299e-02  5.69364685e-04
  3.65066123e-02  4.78566189e-02  5.89291784e-02 -9.89852225e-02
  9.82832569e-02  7.12959910e-02 -5.10897038e-02  6.63456191e-02
  6.73199756e-02  1.19089753e-01 -5.90364278e-02  5.11534566e-02
 -4.91846449e-02  1.26309107e-03 -2.46224558e-02  9.42487417e-03
  5.47335311e-03 -2.83950240e-02  3.91674637e-02  7.11968484e-02
  5.02692858e-02  6.68843430e-02  3.65611661e-02 -1.46360761e-02
  1.26377468e-01 -2.18912244e-02 -2.42168232e-02  7.75587241e-02
  4.91351656e-02  3.88293978e-02  5.84537713e-02 -6.34514836e-02
  4.15992075e-03  9.45242554e-02  6.68330285e-02  7.09864924e-02
  3.76845932e-03 -3.23579425e-02  2.11800472e-03  3.67878492e-03
 -2.05445471e-02  2.63508480e-02 -7.63806438e-03 -4.32032430e-02
  1.01425877e-01  5.24573827e-02  1.08758087e-02 -3.88523273e-02
 -9.19628865e-03 -1.01346164e-01 -2.07602186e-02  4.22276252e-02
  7.82254230e-02 -3.34577460e-02 -1.85712305e-02  1.15668586e-01
 -3.85576565e-02 -1.81126081e-02  1.44948145e-02 -2.08217071e-02
  6.22525478e-02  2.91046963e-02 -6.90064047e-02  5.86110599e-02
 -9.87990119e-02  6.46757602e-02  7.20998907e-02 -2.70301082e-02
  3.91783813e-02 -1.95768902e-02  1.15549286e-02 -1.85240176e-02
 -2.82171261e-02  5.50134796e-02 -4.64212729e-02  6.69247910e-02
 -2.56800825e-02  1.01521305e-01  7.15535772e-02  5.11174547e-03
 -2.09897947e-02 -2.80261165e-02  4.45794375e-02 -1.67532398e-02
  1.85372690e-02  6.02380114e-02 -3.40361200e-04 -2.01858701e-04
  5.82634431e-02  1.15781081e-02 -4.15343326e-03  1.84840806e-02
 -1.49569096e-02  5.07689007e-02  4.90345623e-06  5.72001064e-02
  4.12272974e-02 -2.95828342e-02  7.87851398e-02 -3.17617858e-02
 -8.81851840e-02 -1.43140444e-02  3.77187657e-02 -2.89050582e-02
 -5.40687502e-02  7.30791290e-02  7.39523717e-02  1.07362064e-01
 -2.39819943e-02 -6.76417667e-02  3.91637791e-02 -1.31486340e-03
 -2.32420431e-02  5.26803968e-02 -7.06225747e-02  6.25605719e-02
  7.24957279e-02 -2.45824841e-02 -9.52855649e-03 -5.43422688e-03
  9.25038880e-02 -2.97676198e-02  7.12028040e-02  1.36469391e-02]
Node 13: 
[ 6.81128586e-02 -2.60490482e-02  6.09440061e-02 -6.12019222e-03
  4.75896404e-02 -2.85147395e-02  6.64651314e-02 -7.68293061e-02
 -2.20917725e-02  5.32837832e-02 -1.36992981e-02 -1.70284641e-02
  1.95029341e-04  3.50465142e-02  1.03518061e-02  3.64083887e-05
 -2.48792110e-02 -1.47587669e-02 -2.36498469e-02  2.77801089e-02
  3.24024965e-02 -4.84111657e-02 -1.03446748e-02 -2.81361486e-02
 -3.43906417e-02 -3.46632446e-02  7.85349090e-03  5.73077993e-02
  7.68554644e-02  4.24834813e-03  5.65869310e-02  4.42331779e-02
 -1.50099662e-02  2.56850103e-02  5.28382748e-02  4.41349701e-02
  2.77090507e-02  4.35531675e-02  6.36916354e-02  6.76159243e-02
 -2.80372848e-02  4.76379963e-02  3.02967681e-02  5.59496470e-02
  5.17339205e-02  2.35447705e-02  3.65549632e-02 -4.34348489e-02
  9.82601897e-03  7.31752766e-02 -2.61847813e-02 -1.99293061e-03
 -3.04233791e-02  1.08652463e-02 -5.77265372e-03  5.05689573e-03
  7.00984810e-02  6.31536366e-02  5.59468064e-02  6.22012030e-02
  3.18230216e-03  1.40156267e-02 -1.89826301e-02  6.32438606e-02
  6.27000941e-02 -5.17936266e-03 -2.00574753e-02  7.64477800e-02
  7.42346306e-02 -1.06789322e-02  9.52315488e-02  4.58879655e-02
  6.32078046e-02  6.54458144e-02  5.65280556e-02 -1.04068029e-02
  7.08795903e-02  8.66361829e-02 -2.58710035e-02  7.60948410e-02
  7.66339759e-02  5.87596677e-02 -2.26330298e-02  5.31961924e-02
 -1.51918261e-02 -1.10849142e-02 -2.30762634e-02 -1.10128969e-02
 -8.95130318e-03 -1.95813534e-02 -1.64059068e-03  4.01153399e-02
 -5.66048525e-03  1.09742317e-02 -3.15367240e-02 -8.04915051e-03
  4.52060392e-02 -1.90352876e-02 -3.22308154e-02 -6.81404317e-03
  3.52223235e-03  7.15341395e-02  6.09287994e-02  4.35441316e-02
  7.92199147e-02 -1.76041384e-02  6.29961035e-02  3.46835025e-02
  4.64148247e-02 -4.07581232e-03 -1.02094869e-02  6.94571130e-02
  5.07506076e-02  6.22184086e-02  8.42810890e-03  6.04182553e-02
 -2.56526845e-02 -1.36886546e-02 -6.74456459e-02  5.07125399e-02
  6.28901950e-02 -2.34114998e-02 -7.02685550e-03 -1.80482064e-02
  5.50548773e-02  4.26505971e-02  7.18730847e-02  8.46383253e-02
  8.07268497e-02 -5.29994205e-02 -2.34193480e-02 -2.76205898e-02
  5.53223207e-02 -8.55269292e-03 -1.61552481e-02  6.88306036e-02
  4.09287412e-02  6.31622863e-02 -9.98493960e-03 -6.39865878e-02
  5.85242241e-02  7.26884026e-02  5.55479538e-02  6.39727319e-02
  1.01184412e-01  5.19793966e-03 -6.75298242e-03  6.57801371e-02
 -2.21550004e-02  3.27668191e-03 -3.02306040e-02  4.17092024e-02
 -9.66015574e-03 -2.09114642e-02 -2.61212559e-02  1.13905356e-02
  6.71545763e-02  8.73158941e-02  7.34154355e-02  6.21511311e-02
 -6.20322420e-02 -2.01100190e-02  6.29512139e-02  5.38449407e-02
 -9.83174159e-03 -2.57906903e-02  2.34430949e-02 -2.04983984e-02
 -1.02146745e-02 -3.50058684e-03 -3.48696422e-02  9.28258182e-02
  3.92773656e-02  7.61421135e-02 -7.52630798e-02 -5.72868527e-03
  2.70911827e-02  4.61359650e-02  4.88553145e-02 -8.07943645e-02
  7.13393777e-02  7.31482258e-02 -4.21309378e-02  5.72008115e-02
  5.12285390e-02  9.09967896e-02 -5.91034505e-02  5.73184653e-02
 -4.47799012e-02 -1.02974202e-02 -1.42738237e-02 -4.08374468e-03
 -3.08804799e-03 -2.44975691e-02  3.64057601e-02  6.63083224e-02
  4.79278024e-02  7.78734528e-02  3.75600860e-02 -1.66643182e-02
  9.53264687e-02 -1.95360004e-02 -1.80209476e-02  8.43691198e-02
  5.90550010e-02  2.47699860e-02  5.38752464e-02 -6.02063870e-02
 -5.11346257e-03  7.14688408e-02  7.29870893e-02  6.08441129e-02
 -9.33363806e-03 -3.11708072e-02  2.14132988e-03 -4.45436269e-03
 -2.17832502e-02  2.21970055e-02 -1.91348045e-02 -3.18738615e-02
  8.05058355e-02  6.15828425e-02  1.62280780e-02 -3.99216548e-02
 -1.04917753e-02 -7.96247859e-02 -2.42179743e-02  3.85112748e-02
  6.52228237e-02 -1.70556551e-02 -2.85335702e-02  8.63296414e-02
 -3.99843852e-02 -1.44536752e-02  5.33411893e-03 -2.00605029e-02
  7.96057615e-02  3.19346045e-02 -5.80795401e-02  6.36826557e-02
 -7.92850739e-02  6.63838862e-02  8.14766340e-02 -2.59268835e-02
  2.96033215e-02 -1.82666028e-02  5.22926983e-04 -1.41213169e-02
 -2.92736906e-02  4.78642827e-02 -3.79330591e-02  7.88662742e-02
 -2.74236676e-02  7.97169211e-02  6.67098114e-02 -4.62923474e-03
 -2.30411250e-02 -2.74448045e-02  5.64744187e-02 -1.68191237e-02
  3.89079437e-03  5.95311753e-02 -6.46685518e-03 -2.09787841e-02
  6.24543770e-02  1.52800110e-02 -7.42239409e-03  7.70197551e-03
 -1.46002915e-02  5.20487857e-02 -5.69855582e-03  4.94479845e-02
  2.43920726e-02 -3.48070141e-02  6.04464241e-02 -3.02866267e-02
 -7.88675471e-02 -1.34746705e-02  2.26055371e-02 -1.37511381e-02
 -4.49592462e-02  6.03942842e-02  6.97063307e-02  8.48982929e-02
 -2.12247441e-02 -5.26087165e-02  3.66170572e-02  9.46836441e-03
 -1.60232491e-02  4.98376464e-02 -4.84863799e-02  6.85617812e-02
  6.11996544e-02 -1.96811056e-02 -2.26693662e-03 -7.99212677e-03
  7.71703803e-02 -3.35982881e-02  7.14552259e-02  4.15425235e-03]
Node 14: 
[-0.03707724  0.03778607 -0.0153629   0.0397243  -0.01983742  0.04755804
 -0.04264824  0.03577404  0.04387439 -0.01275918  0.03271546  0.02635577
  0.03474578 -0.02021238  0.0225456  -0.01696637  0.04418963  0.04242124
  0.04138755 -0.01905027 -0.01645988 -0.00781274  0.02444664  0.02988875
  0.02771321 -0.05031669  0.03702469 -0.03673299 -0.02780634 -0.02096882
 -0.02809161  0.03382446  0.03816627 -0.01685163 -0.04114602 -0.03025552
 -0.03721799 -0.01766385 -0.04258837 -0.02920511  0.03116995 -0.01107821
 -0.03657452  0.02779754 -0.02061197 -0.02662084 -0.03511782  0.02966037
 -0.02848519 -0.03937834  0.03720947  0.04280609  0.03227025 -0.01309063
  0.03243792  0.03927228 -0.04696365 -0.028336   -0.00692584 -0.03853476
  0.04532258 -0.0178779   0.02905237 -0.021267   -0.0086126   0.02962411
  0.02634183 -0.01316887 -0.02158774  0.01982642  0.0158655  -0.0228055
 -0.03488824 -0.01853047 -0.00345927  0.03525117 -0.02931956  0.01120325
  0.03095462 -0.01450892 -0.01446341 -0.01240091  0.03920845 -0.01965009
  0.0341755   0.03773804  0.03358871  0.03132852  0.02524379  0.04178538
  0.02428439 -0.0118013   0.02301587 -0.03147376  0.03667746  0.04365096
 -0.01999939  0.04081229  0.01780579  0.03045124  0.04256688 -0.04060719
 -0.04091937 -0.02094376 -0.03444826  0.02851089 -0.03248297 -0.01499996
 -0.02067065  0.02827068 -0.03192842 -0.0101307  -0.01312934 -0.03838186
  0.03458437 -0.00919171  0.04663553  0.04104908  0.02083621 -0.01744176
 -0.00956448  0.03703653  0.01412469  0.02769615 -0.02726413 -0.0272019
 -0.0370363  -0.00966108 -0.03984544  0.01032341  0.03307244  0.04823388
 -0.03609875  0.05094844 -0.03595175 -0.03265188 -0.01048493 -0.04467785
 -0.04401711  0.01592533 -0.00968353 -0.01703871 -0.04007759 -0.03658324
  0.00991796  0.05241494  0.02667949 -0.02527901  0.04851291  0.04627693
  0.0218669  -0.02352567  0.03578354  0.03644178  0.03380573 -0.03031984
 -0.03645206 -0.00424363 -0.03854578 -0.00979104  0.00848316  0.04792974
 -0.04364545 -0.01740051  0.02275028  0.04360143  0.02840827  0.03627679
  0.02723575 -0.04575823  0.030036    0.0182316  -0.02825866 -0.00137635
  0.02793069  0.03235777 -0.00747829 -0.03168947 -0.01447124  0.01212808
  0.02753838 -0.03037609  0.02457915 -0.01439426 -0.02030885  0.01656869
  0.02266415 -0.02302441  0.03376228  0.04089154  0.03754748  0.02817108
  0.02508294  0.02243026 -0.01859637 -0.02057574 -0.04065531 -0.04225951
 -0.03645265  0.03196931  0.01991557  0.02953927  0.02981675 -0.05068392
 -0.01850818  0.01724636 -0.02458481  0.02972822  0.0365224   0.01315684
 -0.01297006 -0.02033787  0.03540292  0.0360298  -0.02579541  0.02513227
  0.03224967 -0.01816938  0.03938068 -0.04768554 -0.00536125 -0.01849832
 -0.03260542  0.0383245   0.01839303  0.01245436  0.04513975 -0.01495134
 -0.04017657 -0.04345669  0.04119166  0.02089784  0.02863812  0.0246007
  0.02908846  0.03353534 -0.03332488 -0.01765371  0.02466172 -0.02941973
  0.00721843 -0.02875073 -0.04972975  0.03556653 -0.02048941  0.03221974
  0.03377691  0.04001793  0.03234559 -0.01181567  0.01909866 -0.03428562
  0.04318918  0.0014945  -0.01491075  0.0257363   0.04124658  0.0402954
 -0.03024994  0.03924729  0.02372686 -0.01833666  0.02504632  0.02595364
 -0.02330509 -0.01714328  0.04005737  0.0286157   0.03297772 -0.02007936
  0.03012929 -0.01111373  0.03384128  0.03251644  0.00309422  0.02932993
  0.01065492  0.02075936  0.02697228  0.04326045  0.01588032 -0.01437766
 -0.03878916 -0.00349451  0.03089893 -0.00141783 -0.02435069 -0.03516245
  0.04461441 -0.0233223   0.02313312 -0.03477519 -0.0122282   0.02281576
 -0.0441602   0.00991136 -0.01551814  0.04257031 -0.02526495  0.01817865]
Node 15: 
[ 4.46137048e-02  1.43930786e-02  4.64846718e-02 -3.59558669e-02
 -1.81980263e-02  1.07133950e-02  5.21212100e-02  5.46063302e-03
  5.91475066e-03  5.59265602e-02  9.41497802e-03 -5.84559671e-02
 -3.84199456e-02 -2.65650722e-02 -4.47755942e-02 -3.41917648e-02
  4.71630965e-03 -5.42481368e-02 -5.61781030e-04 -2.73100715e-02
 -3.69853810e-02  4.79371009e-02 -4.10661926e-02  6.38808395e-03
  6.03993950e-03  4.73251850e-02 -4.95942867e-02  5.22797180e-02
  4.11713303e-02  3.33464271e-02  3.01145091e-02 -5.05054048e-02
 -6.43926866e-04 -3.64041608e-02  4.98054182e-02  3.47977582e-02
  3.65014494e-02 -8.13739889e-03  5.04176549e-02  3.43891825e-02
  1.30386229e-02 -1.21682999e-02  4.14513029e-02 -4.90636850e-02
  3.48820480e-02  4.13125592e-02  3.52106334e-02  1.28912746e-02
 -3.26647393e-02  4.45389057e-02  7.46791893e-03 -5.58984084e-02
  5.49064527e-03 -3.57122212e-02 -3.69079349e-02 -5.00838443e-02
  5.13212065e-02  4.08468559e-02 -4.75491297e-02  5.51973204e-02
 -5.32894994e-02 -3.53680226e-02  1.21936426e-02 -2.77275564e-02
 -4.39326717e-02 -4.68568318e-02  3.64134902e-03 -3.66926861e-02
  3.34335930e-02  1.04922476e-02 -4.59096211e-02 -2.22302992e-02
  5.25520070e-02  2.85589226e-02 -4.42247071e-02 -3.33273905e-02
  4.12316175e-02 -4.46655550e-02  1.49997173e-02 -3.77586106e-02
  5.55024996e-02 -2.27726368e-02 -4.34091534e-02 -1.52852517e-02
  2.55495910e-03 -4.45917721e-02  1.72763827e-02 -2.17636334e-02
 -4.33379538e-02 -1.09126548e-02 -4.02365397e-02  2.44600152e-02
 -3.86357021e-02  1.83019443e-02  1.43813459e-02 -5.11265654e-02
 -9.71990932e-03  2.25629030e-03  2.72722483e-02 -3.57693980e-02
 -5.56375572e-02  5.18956270e-02  5.25046001e-02  2.99620706e-02
  4.80672019e-02 -4.18839008e-03  4.90547827e-02 -3.67110938e-02
  2.42353915e-02 -3.41540751e-02  2.73935036e-02 -4.45989434e-02
 -2.48797418e-02  4.64841949e-02 -5.61722224e-02 -2.43070995e-02
  5.71816539e-03  3.01112078e-03 -4.01283748e-02 -2.69880829e-02
 -4.60070813e-02  1.16928200e-02 -6.21336116e-03  1.50777021e-02
  5.57747870e-02  3.17586074e-02  4.69316883e-02 -4.10813091e-02
  5.44858231e-02  1.50772148e-02 -5.28012119e-02  6.59272841e-03
  5.40767842e-02 -5.43450565e-02  3.23928218e-02  5.80735549e-02
 -2.58803753e-02  5.27754075e-02  4.06091395e-02  3.49026325e-02
 -2.04720232e-02 -3.43734623e-02  4.22179358e-02  3.87947169e-02
 -4.27599618e-02 -5.37979216e-02 -2.34349838e-02  1.83567012e-02
  2.30344910e-04 -5.31341869e-02 -5.66307174e-02  1.90473355e-02
 -1.64218299e-02  1.15470427e-02  1.42136582e-02 -9.26088310e-04
  3.94661188e-02 -3.89812482e-02  5.43607253e-02 -4.28553732e-02
  2.86131695e-02 -5.17362105e-03  5.14971862e-02  8.39594647e-03
 -1.51724484e-02  1.81657679e-02 -4.51599059e-02 -6.66582273e-02
 -3.29006853e-02  4.12920419e-02  1.37077793e-02 -4.85474395e-02
  3.20683512e-02 -4.36548685e-02 -1.14189810e-03 -5.11887499e-02
 -4.97184666e-02  3.67195921e-02 -3.63615945e-02  4.09016374e-02
 -5.03698947e-02  4.05510676e-02  2.76620723e-02  4.89153831e-02
 -2.47829459e-02 -4.75180630e-02  2.35024306e-02  3.56772735e-02
  1.91708213e-02 -5.63167022e-02  1.53265355e-02 -3.74669394e-02
 -3.76728778e-02  2.11267382e-02  2.67466108e-02 -1.16634398e-02
  5.07861261e-02  4.79965074e-02  4.25518984e-02  2.62811893e-03
 -4.86918790e-02  1.51306617e-02  1.07898493e-02  6.64105296e-02
  3.53759707e-02 -5.32773881e-02  2.91983276e-02  5.69826658e-03
 -3.75389991e-02 -4.80985988e-02  3.06127902e-02 -1.86304952e-02
 -4.66086342e-02  1.83178810e-02  4.54611249e-02 -3.33885112e-02
  1.26633922e-02 -3.18364553e-02 -5.61827802e-02  4.44938730e-02
 -4.51756966e-02  5.65794731e-02  4.75800920e-02  1.71955004e-02
  7.77406730e-03  2.43329737e-02  7.62938078e-03 -3.26372165e-02
  5.78691248e-02  4.04740130e-02  8.48821620e-03 -4.99512139e-02
 -4.72169069e-02 -4.35580780e-02 -4.96003616e-02  1.12611942e-02
  5.24559086e-02  3.32551166e-02  1.42884874e-02  4.63417281e-02
  4.28880344e-02  3.24205741e-02  6.04075724e-02  1.37417839e-02
 -3.23983161e-02 -8.57736027e-03 -4.12027323e-02  4.42064479e-03
  9.25371157e-03  1.53415410e-02  3.01934592e-02  4.78838789e-02
  1.04244328e-02 -4.43154127e-02  5.01930763e-02 -4.75224665e-02
  1.55296241e-03  8.80998931e-03  4.62514822e-02  6.07605511e-03
 -4.32600970e-02  8.83805324e-03 -3.91298629e-02 -6.90186485e-02
  1.00653385e-02  1.62449572e-02 -5.42762984e-02 -4.31576002e-02
 -7.79135948e-04  3.38986061e-02 -3.12914288e-02 -2.79517970e-02
 -4.73600130e-02  2.89471004e-05 -5.54858040e-02  1.25458069e-02
  2.58358142e-02  1.68553020e-02 -4.64128373e-02  3.51352417e-03
  3.04574112e-02 -3.56394745e-02  5.49813075e-02 -4.04049459e-02
  8.48479727e-03  4.79725460e-02 -2.61169379e-02  4.29324547e-02
  3.51588246e-03  3.47032373e-02  1.52724929e-02  4.37883328e-02
 -3.67056151e-02  2.12856623e-02  4.01900501e-02 -2.06159663e-03
 -3.39510325e-02  7.55206572e-03  3.99631669e-02 -4.35921684e-02]
Node 16: 
[-0.10052739 -0.10721675 -0.09321581 -0.03882048  0.00796543 -0.09367377
 -0.11180725  0.04658644 -0.07675842 -0.10178185 -0.09291419  0.02730419
 -0.024472    0.04539655  0.00711782  0.1444303  -0.09082036  0.02449352
 -0.09236586  0.06898385  0.10312651 -0.06774473 -0.01907316 -0.07065922
 -0.07344728  0.08817729 -0.02674298 -0.09197268 -0.09374267  0.03800856
 -0.06391657 -0.06119543 -0.08519521  0.10255325 -0.07557021 -0.05957726
 -0.02578724  0.00161623 -0.09773829 -0.08163037 -0.10397283 -0.00881921
 -0.05240096 -0.05996987 -0.06301463 -0.02596671 -0.0490301  -0.04874448
  0.12200444 -0.10616456 -0.09722726 -0.01397567 -0.0542808   0.13027273
 -0.03360399 -0.02424918 -0.10560443 -0.08271426  0.10066242 -0.09910201
 -0.01279222  0.12039975 -0.10318815  0.02077414  0.07182444 -0.02273002
 -0.10096873  0.03033615 -0.08261467 -0.08196356 -0.09180968  0.02261283
 -0.09510381 -0.07866461  0.08171429 -0.03945855 -0.09410347 -0.0648537
 -0.10358668  0.0405358  -0.10249579  0.00134021  0.01060761 -0.01804311
 -0.09382947  0.00214745 -0.09556528 -0.04825437  0.00279292 -0.05558392
 -0.00515804 -0.03769049 -0.01931649  0.035585   -0.09515963  0.00909818
 -0.01012408 -0.0889069  -0.09715216 -0.02956234 -0.02189197 -0.1098068
 -0.10961328 -0.05428111 -0.10045495 -0.08226164 -0.09512128  0.09477903
 -0.05172362 -0.03118507  0.06544799  0.07212254  0.02954649 -0.10458113
 -0.02564938 -0.00065754 -0.10330313 -0.09554722  0.09187005  0.02196073
  0.08113241 -0.1016588  -0.05439314 -0.09668055 -0.08571647 -0.05626838
 -0.11015863  0.02719814 -0.10017512 -0.01846271  0.05315086 -0.08543263
 -0.09057554  0.0118145   0.07263031 -0.11119135  0.04236817 -0.09184815
  0.05623998 -0.06483321  0.00381191  0.02259972 -0.0727276  -0.097441
 -0.09811547 -0.03294573 -0.05194725 -0.06593133 -0.09651777 -0.02189915
  0.04838756 -0.02818315 -0.06427255 -0.09849636 -0.10647746  0.05312986
 -0.09944213 -0.00287012 -0.10620909  0.07802235 -0.01659308 -0.07719882
 -0.10186546 -0.04053971 -0.05074799 -0.10480254 -0.03336253  0.05657769
 -0.02168592  0.04012811 -0.06507139 -0.09404549 -0.04754971  0.06535178
  0.04531762  0.00198836  0.14281627 -0.06067788  0.0674197  -0.06130266
 -0.08108201 -0.0884029  -0.09643437 -0.10072517  0.0186543  -0.09023382
 -0.01873964 -0.06964236 -0.07838158 -0.00236394 -0.10351775 -0.02499355
 -0.01256582 -0.10190282 -0.0357327  -0.02974072 -0.08708642 -0.10901548
 -0.05069987 -0.09628784 -0.10276479 -0.0979523  -0.10106994 -0.11575998
 -0.0761463   0.06855553 -0.06468717  0.00791051 -0.02877245 -0.03016927
 -0.07646288 -0.01783653  0.02291311 -0.09796247 -0.00463882 -0.02622401
 -0.10001614  0.11048588  0.02304013  0.07396803  0.04495284 -0.10161236
 -0.01046498 -0.08415432 -0.07693628 -0.00119766 -0.10379067  0.07715722
 -0.12332015  0.05924538 -0.06345055 -0.09215814  0.03071149 -0.00579748
 -0.02641742 -0.09706952 -0.10683775 -0.04471633 -0.01115208 -0.09136508
 -0.05354935 -0.07917001 -0.12680399 -0.10042384  0.08586968 -0.04462663
 -0.02067439 -0.09119585 -0.03870909 -0.0396495  -0.10165303 -0.11204649
 -0.10742171  0.00257548 -0.10847303 -0.00974982 -0.09789199 -0.10416461
 -0.07745707 -0.10191849 -0.01255459 -0.05336565 -0.00684247  0.02642542
 -0.05253654  0.01779967  0.01999127 -0.01553636 -0.08027267 -0.06436868
 -0.0486183   0.03206693 -0.03746651 -0.06258839  0.09022393 -0.09270246
  0.00695968 -0.09710078 -0.01988    -0.09744138 -0.08390987  0.05780541
 -0.10881519 -0.0005246  -0.10309078 -0.0918954   0.05473368  0.00786159
 -0.09968027 -0.07112281 -0.02082793 -0.09174634  0.05772903 -0.09964082
  0.01686151 -0.05708231  0.02302901 -0.09500384 -0.09798596  0.02796312]
Node 17: 
[ 0.06091386 -0.02939776  0.0666936   0.00089744  0.05619298 -0.03051297
  0.08682126 -0.07217372 -0.01810929  0.05396732 -0.02226201 -0.01479696
  0.00296261  0.03821807  0.01523666 -0.00198314 -0.02634051  0.00386094
 -0.01901505  0.02858275  0.03486106 -0.05569663 -0.00485691 -0.024165
 -0.03885194 -0.05352001  0.01364996  0.06573984  0.07133927 -0.00196888
  0.05840142  0.05523187 -0.01509283  0.02640873  0.05306135  0.05060112
  0.0251194   0.04612852  0.07356192  0.06960098 -0.03186259  0.05321345
  0.03536384  0.0679702   0.05329721  0.02674634  0.03429319 -0.05009382
  0.00954162  0.07374388 -0.02620058  0.00040215 -0.02030131  0.00940945
 -0.00162471  0.01103345  0.07934657  0.07525574  0.06166041  0.07481059
  0.00543094  0.01482753 -0.01723846  0.06913274  0.07019288  0.00044524
 -0.01111201  0.09010485  0.07402958 -0.01017631  0.11225913  0.04836312
  0.06200445  0.06621561  0.06225735 -0.00592095  0.07427591  0.10222554
 -0.02593242  0.08595726  0.06429208  0.06401821 -0.00509623  0.06594268
 -0.01198887 -0.01123038 -0.02583187 -0.00909532 -0.0041636  -0.02194579
  0.00230558  0.04361058  0.00058025  0.01036618 -0.02880471 -0.00334903
  0.04993414 -0.02514627 -0.038163   -0.00426433  0.00995763  0.07601747
  0.07333666  0.04770817  0.08186446 -0.01304054  0.06566569  0.03788089
  0.05425875  0.00088988 -0.01268869  0.07735713  0.06310359  0.07040176
  0.01445082  0.07007537 -0.03080671 -0.01997675 -0.08235014  0.05793668
  0.07026175 -0.02336986 -0.00596205 -0.01832841  0.05762054  0.0486225
  0.08015051  0.09804318  0.07849004 -0.05916239 -0.03009275 -0.02204014
  0.05985249  0.00310633 -0.02167288  0.07785808  0.04690396  0.05712673
 -0.013442   -0.06993065  0.06059169  0.08641534  0.05142093  0.06676918
  0.11685222  0.01252146 -0.00235951  0.0711524  -0.02220686  0.01032756
 -0.03217096  0.04453891 -0.00905709 -0.02191319 -0.02578241  0.00814239
  0.07315325  0.1005463   0.07007931  0.06910142 -0.07230834 -0.01554649
  0.05890403  0.05526569 -0.0076041  -0.03069268  0.03070407 -0.01846849
 -0.00715294 -0.01221014 -0.03147883  0.1097313   0.04292793  0.07919875
 -0.07778167 -0.00657296  0.02966316  0.04756136  0.05296848 -0.08713666
  0.0859953   0.07360185 -0.04579422  0.07358312  0.06284563  0.1077184
 -0.06763164  0.05707042 -0.03948298 -0.0016439  -0.0203619   0.00596074
  0.00039911 -0.02431397  0.04147864  0.08056015  0.05717654  0.08326838
  0.03263838 -0.01549837  0.11304288 -0.02300555 -0.02378439  0.08736994
  0.05539137  0.03058637  0.06105619 -0.06720923 -0.00135793  0.08389566
  0.07154487  0.06738988 -0.0204662  -0.03224096  0.00266113 -0.00410198
 -0.02199025  0.02139163 -0.00756791 -0.04135734  0.09178008  0.06270671
  0.00993706 -0.03978831 -0.00919129 -0.09657814 -0.02366692  0.04183808
  0.08684338 -0.0220275  -0.02330795  0.10274415 -0.03462452 -0.0258868
  0.013386   -0.02010325  0.0743281   0.04042405 -0.06418988  0.06416716
 -0.08945494  0.07229231  0.08330179 -0.02691729  0.03499651 -0.01295804
  0.00471907 -0.02027152 -0.03995449  0.05856067 -0.04086343  0.07117724
 -0.02485847  0.09251796  0.07339116 -0.00104011 -0.02338941 -0.02829332
  0.0570294  -0.01494951  0.00930832  0.06620322 -0.00339573  0.00341407
  0.0619898   0.01567069 -0.0114499   0.01098921 -0.01932328  0.05397206
 -0.00375537  0.05349758  0.03195247 -0.02057011  0.06929598 -0.03067534
 -0.08105372 -0.01237933  0.02959421 -0.02585831 -0.04803749  0.06686083
  0.07657374  0.09837564 -0.02408649 -0.05883645  0.03456826  0.00358544
 -0.01393749  0.05527565 -0.05663121  0.07096293  0.06692148 -0.0218118
 -0.00321166 -0.0063514   0.08635392 -0.0218958   0.07462365  0.00766331]
Node 18: 
[-1.73911440e-02  5.09715530e-02 -1.87706152e-02  3.27278210e-02
 -1.87069684e-02  5.07460017e-02 -2.11768440e-02  1.84056836e-02
  4.22206574e-02 -1.46741063e-02  4.59276890e-02  3.66442564e-02
  2.59862629e-02 -2.96715982e-02  1.32703960e-02 -3.96228802e-02
  5.60022417e-02  3.68154912e-02  3.84534661e-02 -3.21608393e-02
 -3.64512661e-02  9.87260243e-03  2.11420895e-02  4.68524658e-02
  4.46670868e-02 -2.85653303e-02  2.86694900e-02 -1.22869760e-02
 -8.16177311e-03 -2.43070214e-02 -1.07880445e-02  2.69005511e-02
  4.33604395e-02 -3.15478069e-02 -1.71206721e-02 -1.72814426e-02
 -9.83971984e-03 -2.16523274e-02 -2.63624481e-02 -1.94283541e-02
  4.56885243e-02 -2.51816187e-02 -6.80229959e-03  2.19724722e-02
 -3.22194464e-03 -2.32564268e-02 -2.02310540e-02  4.19556231e-02
 -3.86799997e-02 -9.51580228e-03  5.42042581e-02  4.22644249e-02
  3.96220454e-02 -4.01691162e-02  2.62515734e-02  3.10649486e-02
 -3.04795202e-02 -1.61017811e-02 -2.91563459e-02 -2.69303560e-02
  2.96486464e-02 -3.68258831e-02  4.44628880e-02 -2.36562456e-02
 -2.45945001e-02  3.56556193e-02  5.14953812e-02 -2.67634814e-02
 -1.51357158e-02  3.25164770e-02  1.25997523e-02 -2.94204180e-02
 -7.15322079e-03 -1.82301078e-02 -2.94366955e-02  3.08752058e-02
 -1.42872628e-02  7.88595798e-03  4.46605924e-02 -1.71575418e-02
 -1.67046798e-02 -2.27178122e-02  2.75458935e-02 -2.21331518e-02
  4.06910629e-02  2.98820219e-02  5.23497921e-02  2.70158889e-02
  1.85727041e-02  4.71024171e-02  1.68294122e-02 -1.86937130e-02
  1.58498856e-02 -2.58475735e-02  5.47799210e-02  2.37712479e-02
 -1.96376660e-02  5.21493029e-02  3.49126955e-02  2.08897194e-02
  2.84089930e-02 -1.44237901e-02 -7.75777886e-03 -1.14027611e-02
 -3.33587096e-05  4.59514643e-02 -1.01533534e-02 -3.20936501e-02
 -1.87053714e-02  2.26214043e-02 -2.33963685e-02 -2.60694666e-02
 -1.59155347e-02 -6.69657046e-03  3.52174451e-02 -1.86768220e-02
  5.23048182e-02  4.23840752e-02 -8.57879025e-03 -2.72939933e-02
 -2.16851017e-02  4.55690290e-02  1.67561510e-02  4.12659004e-02
 -5.01298075e-03 -2.08689141e-02 -1.20628719e-02 -1.83271754e-02
 -2.05721998e-02  2.04781638e-02  2.25689400e-02  4.81854293e-02
 -2.54061522e-02  3.73493626e-02 -3.41781460e-02 -2.03830700e-02
 -3.19050368e-02 -3.03477901e-02 -4.10316710e-02  2.74452952e-02
 -2.40537074e-02 -1.21662408e-02 -2.19420866e-02 -8.52973397e-03
  7.85042058e-03  3.45059522e-02  2.86143865e-02 -4.26046260e-03
  5.52607836e-02  4.32711641e-02  3.15096518e-02 -1.37010981e-02
  2.98501634e-02  4.99712745e-02  4.96930893e-02 -3.07382715e-02
 -2.13130521e-02 -1.29591399e-02 -1.29286682e-02 -2.67769573e-02
  1.56612970e-02  4.77311076e-02 -2.17667636e-02 -1.29839632e-02
  2.55501234e-02  5.60644926e-02  2.23641596e-02  3.74841077e-02
  1.70345224e-02 -2.29680262e-02  4.61962161e-02  1.52074866e-02
 -9.02752290e-03 -2.59266470e-02  2.44583606e-02  3.48316989e-02
 -3.65195402e-02 -1.51098235e-02 -2.25198549e-02  2.87340742e-02
  2.29028470e-02 -5.12267721e-03  4.16656704e-02 -9.27327687e-03
 -2.90668265e-02  1.28136812e-02  3.64657856e-02 -2.15296907e-02
  4.88118876e-02  1.82262897e-02  4.78210071e-02  2.17489142e-02
  1.85496936e-02  4.17570996e-02 -1.43696478e-02 -2.21286030e-02
 -4.04596523e-03 -1.54080876e-02 -2.74500952e-02  4.92791585e-02
  1.73008001e-02  4.32125645e-02  5.49841709e-02 -8.98475125e-04
 -3.20216623e-03  3.15245406e-04 -1.54942882e-02  1.63935239e-02
  2.39816038e-02  4.60073723e-03 -4.55819420e-03 -1.97175577e-02
  3.17060233e-02  4.66618820e-02 -4.13199839e-02  2.26794761e-02
  5.06873634e-02 -3.49306805e-02  1.49657223e-02 -4.09650876e-02
 -2.03760009e-02 -1.75180699e-02 -3.81057419e-02  4.73436750e-02
  2.90859084e-02  1.05369324e-02  5.21830591e-02 -3.56570449e-02
 -8.30417058e-03 -2.82408332e-02  5.00515145e-02  1.73541617e-02
  4.09971948e-03  2.86773317e-02  2.90870489e-02  4.81362110e-02
 -2.07402209e-02 -2.00633288e-02  1.77693767e-02 -2.61296944e-02
  2.09816011e-02 -7.07027030e-03 -1.20552736e-02  5.19308837e-02
 -3.21188484e-02  4.35299510e-02  2.47316893e-02  4.84757811e-02
  4.15077154e-02 -1.27314183e-02  4.00842619e-02 -3.05364480e-02
  5.31291677e-02 -6.54808156e-03 -9.09791215e-03  2.90889059e-02
  4.25162148e-02  4.70247034e-02 -2.55405877e-02  5.15622015e-02
  2.53688613e-02 -1.40851592e-02  2.33642425e-02  5.00176608e-02
 -2.02279859e-02 -2.46577574e-02  3.18770015e-02  2.05997464e-02
  4.62136195e-02 -1.60791278e-02  3.05365171e-02 -2.61671290e-02
  2.79212911e-02  3.71058207e-02 -1.63952579e-02  5.14343435e-02
  2.32177816e-02  3.69619965e-02  1.82888226e-02  5.99356351e-02
  3.26656071e-02 -2.59071427e-02 -1.23200222e-02 -1.12677979e-02
  4.37842396e-02  2.15411438e-02 -2.75714763e-02 -2.65679020e-02
  5.37128961e-02 -1.01649037e-02  3.33101952e-02 -2.39003067e-02
 -2.72546155e-02  3.87478084e-02 -3.13205469e-02  1.65531381e-02
 -2.20891035e-02  5.73276006e-02 -1.62892885e-02  7.72131472e-03]
Node 19: 
[ 7.12775754e-02 -2.04872273e-02  6.68702080e-02 -1.18372303e-02
  5.31507182e-02 -2.21910697e-02  8.67125616e-02 -8.73244252e-02
 -1.32594370e-02  7.05672138e-02 -1.88030164e-02 -8.96906154e-03
  6.94720262e-04  4.12901814e-02  1.24660372e-02 -2.39262562e-03
 -2.49565041e-02 -8.94046960e-03 -2.01457754e-02  3.00636073e-02
  3.40773685e-02 -5.11914244e-02 -1.04887084e-02 -2.99281400e-02
 -3.89315976e-02 -4.49910065e-02  1.37615314e-02  6.44188431e-02
  7.85937699e-02 -8.42801804e-03  5.56630145e-02  5.27401559e-02
 -1.72494744e-02  2.68756012e-02  5.80983329e-02  5.37873289e-02
  2.87645633e-02  4.02368209e-02  7.67130711e-02  7.17378652e-02
 -2.90035684e-02  5.37162610e-02  3.94144504e-02  6.50910284e-02
  5.45940255e-02  1.64382997e-02  4.16355590e-02 -5.28413207e-02
  9.92404848e-03  8.23825716e-02 -2.19853912e-02 -5.59112270e-03
 -3.08670415e-02  9.93205678e-03 -2.45788719e-03  8.71887881e-03
  7.15194988e-02  7.55682228e-02  5.92885294e-02  6.29636350e-02
  6.52358432e-04  1.43315449e-02 -1.76824347e-02  7.43515116e-02
  6.79937367e-02 -2.35416893e-03 -8.14073204e-03  8.88695026e-02
  7.85581278e-02 -9.13109335e-03  1.09579403e-01  4.78811851e-02
  7.03219043e-02  7.19854002e-02  5.79145934e-02 -8.72293460e-03
  7.60021661e-02  9.81006587e-02 -2.49924765e-02  8.49686033e-02
  7.40443426e-02  6.52127207e-02 -1.88492558e-02  6.55352596e-02
 -1.43650865e-02 -1.82839801e-02 -2.74096200e-02 -9.55893973e-03
 -7.42940505e-04 -2.24883587e-02  3.76605160e-04  4.33314699e-02
  1.37524259e-03  1.22914805e-02 -2.51474120e-02 -1.63367084e-02
  5.27174437e-02 -2.62888185e-02 -3.81381896e-02 -4.40298707e-03
  1.25094346e-02  8.76260460e-02  7.75432749e-02  5.08038430e-02
  8.94528179e-02 -1.46594909e-02  6.61929361e-02  3.67066042e-02
  5.76115401e-02  5.10057570e-05 -1.24928313e-02  7.50697627e-02
  5.63797582e-02  7.61025204e-02  1.74644089e-03  6.51958955e-02
 -3.09628401e-02 -2.10199714e-02 -8.16165327e-02  6.06767508e-02
  6.79695011e-02 -2.32401600e-02 -6.44019226e-03 -1.71819658e-02
  5.64261684e-02  5.13723285e-02  8.48355230e-02  9.50167983e-02
  8.21503103e-02 -6.77534841e-02 -3.61717755e-02 -2.97219450e-02
  5.94560552e-02  2.21242221e-03 -1.96485943e-02  7.61905815e-02
  4.86981432e-02  6.13408989e-02 -1.05906741e-02 -6.76436939e-02
  6.22689387e-02  8.71817289e-02  5.42632254e-02  6.90498881e-02
  1.15211366e-01  1.71152031e-02 -3.75834745e-03  8.12257428e-02
 -2.14907889e-02  1.07931121e-02 -3.74815292e-02  4.08496655e-02
 -7.89843702e-03 -2.24468622e-02 -2.57362923e-02  7.66012988e-03
  8.28631647e-02  9.65395232e-02  8.72809661e-02  6.75239792e-02
 -7.56468397e-02 -2.03681059e-02  6.68887769e-02  6.46830478e-02
 -8.67437557e-03 -2.70087912e-02  2.86048389e-02 -1.81512461e-02
 -7.57396351e-03 -3.07734175e-03 -4.34381883e-02  1.06501940e-01
  4.53685088e-02  8.34063321e-02 -7.96116000e-02 -8.16468311e-03
  2.65920248e-02  4.97526368e-02  5.09253252e-02 -8.51056764e-02
  8.27414901e-02  7.63680945e-02 -4.47105123e-02  7.84023330e-02
  6.13826185e-02  1.05618153e-01 -6.08800033e-02  6.14718574e-02
 -5.09133805e-02 -6.61970451e-04 -2.42123128e-02  4.60739969e-03
 -1.33290316e-03 -2.44112623e-02  4.38418013e-02  8.29460866e-02
  6.03979973e-02  8.74621757e-02  4.57311631e-02 -1.86279665e-02
  1.10474045e-01 -2.03505291e-02 -2.51508416e-02  9.68475283e-02
  6.28947571e-02  2.61071003e-02  5.80461500e-02 -7.30687329e-02
 -1.80067264e-03  7.97297713e-02  7.80326104e-02  7.01318693e-02
 -1.12249741e-02 -3.11062273e-02  1.07367869e-02 -5.21446977e-03
 -2.22873817e-02  2.27500501e-02 -1.81647521e-02 -2.89995853e-02
  8.80046595e-02  6.88240061e-02  5.23557691e-03 -3.18307973e-02
 -9.21139505e-03 -9.46273561e-02 -2.60385711e-02  4.28291632e-02
  7.68229696e-02 -1.96651447e-02 -2.26331121e-02  1.01173312e-01
 -4.83334509e-02 -2.48111470e-02  2.65737671e-03 -1.81115050e-02
  6.64591046e-02  4.40571102e-02 -6.27476210e-02  7.19164359e-02
 -8.43345122e-02  6.66255476e-02  8.50407228e-02 -2.56993751e-02
  3.15135391e-02 -1.74980513e-02  3.75792368e-03 -2.06784531e-02
 -3.99782623e-02  5.05277817e-02 -3.92510145e-02  7.71253828e-02
 -2.38090614e-02  8.80412395e-02  7.22499976e-02 -1.17008824e-02
 -2.33838216e-02 -2.92138776e-02  5.77779798e-02 -1.74212243e-02
  2.96973831e-03  6.76107663e-02 -6.99613295e-03 -2.00210181e-02
  6.68228419e-02  1.79497948e-02 -6.78544978e-03  1.02777206e-02
 -2.06959575e-02  5.49924755e-02 -4.22903793e-03  5.49630951e-02
  2.89079423e-02 -3.33630494e-02  6.46730745e-02 -3.26982285e-02
 -8.59737200e-02 -1.10013290e-02  2.67504884e-02 -1.38547007e-02
 -4.48034507e-02  6.63903029e-02  8.30752261e-02  9.34981835e-02
 -2.60085152e-02 -5.49277509e-02  3.64183109e-02  8.72209321e-03
 -1.73036788e-02  5.66733657e-02 -7.36590372e-02  7.66860560e-02
  6.67295113e-02 -2.11886253e-02  3.38995346e-03 -6.48680205e-03
  8.70172162e-02 -3.33597291e-02  6.90319415e-02  5.04208320e-03]
Node 20: 
[ 0.04821779 -0.02093158  0.04197857 -0.0133549   0.03257751 -0.02290638
  0.05609211 -0.06415584 -0.01466278  0.03831667 -0.00676098 -0.01103235
 -0.00136625  0.02529107  0.00973146 -0.0052154  -0.01898917 -0.01178789
 -0.00852936  0.01346502  0.02089789 -0.04029597 -0.00732679 -0.02283017
 -0.02778655 -0.03031639  0.00745091  0.04310107  0.05534094 -0.00553832
  0.03174216  0.03740297 -0.01053342  0.01590888  0.0366704   0.03172248
  0.01832828  0.02383123  0.04207455  0.04303512 -0.02090984  0.0292742
  0.02332522  0.04777981  0.03016394  0.00700268  0.02517993 -0.03312679
  0.0006192   0.04578765 -0.01848428 -0.00732922 -0.02130926  0.00473538
 -0.00342716  0.00186048  0.0545815   0.04863747  0.03903129  0.04763006
 -0.00481167  0.00669307 -0.00829481  0.04580923  0.04602162 -0.00802745
 -0.00398308  0.05836971  0.04148344 -0.00649646  0.08162193  0.02964946
  0.0346425   0.04416139  0.04010863 -0.00365067  0.04358434  0.07409766
 -0.01681648  0.05688475  0.05020742  0.03806637 -0.01197698  0.03813995
 -0.01089535 -0.01336738 -0.01770879 -0.0065448  -0.01422945 -0.00647621
 -0.00055295  0.0229421  -0.00430301  0.00559345 -0.01985761 -0.00345994
  0.0256685  -0.02021385 -0.0221211  -0.0081266   0.00213557  0.04948596
  0.0491365   0.02837826  0.04711657 -0.01166312  0.03713727  0.02267333
  0.03179844 -0.00102807 -0.00941876  0.05154672  0.03913369  0.05151228
 -0.00171075  0.04150296 -0.02515735 -0.00500112 -0.05860878  0.03398722
  0.04581466 -0.0164697  -0.00367812 -0.01114928  0.03671654  0.02927447
  0.05682759  0.07086596  0.04987904 -0.03440092 -0.0253402  -0.01731348
  0.04248802 -0.00450177 -0.01598756  0.03877651  0.02767738  0.04167089
 -0.0111474  -0.04024415  0.0396358   0.05663471  0.03835064  0.05073907
  0.08690233  0.00036789 -0.00427168  0.04478698 -0.00913203 -0.00430249
 -0.02708874  0.02609358 -0.00776785 -0.01386046 -0.01773058  0.00319793
  0.04872148  0.0732074   0.05391046  0.04451408 -0.04195411 -0.01472299
  0.05186742  0.03405591 -0.00567474 -0.02176398  0.01982907 -0.01976982
 -0.0064173  -0.0108018  -0.02938964  0.07835501  0.02240608  0.05774939
 -0.05179066 -0.00436319  0.01786819  0.03162596  0.0318803  -0.06092675
  0.06002295  0.04563707 -0.0282198   0.04398648  0.04013854  0.07649815
 -0.0418328   0.03319872 -0.02938114 -0.00016705 -0.01651535 -0.00411311
 -0.00212504 -0.0147402   0.02752256  0.04158327  0.03640817  0.04711692
  0.02704807 -0.00684097  0.08078883 -0.01478645 -0.01799574  0.06199247
  0.03791461  0.02229492  0.03172023 -0.04499011 -0.00592738  0.06023298
  0.0416362   0.04136361 -0.01365484 -0.01882202  0.00644351 -0.00553897
 -0.01477222  0.0130153  -0.01371847 -0.03069318  0.06719171  0.04902683
  0.00394467 -0.02618169 -0.0043974  -0.06821326 -0.01469277  0.02229682
  0.04782497 -0.01426295 -0.02274841  0.07295397 -0.02527431 -0.02168199
 -0.00227971 -0.01333638  0.05502585  0.02668684 -0.03937516  0.04262084
 -0.06290132  0.03904325  0.05424786 -0.01633961  0.02272424 -0.01591303
  0.0025816  -0.00786378 -0.01864958  0.03366274 -0.02431298  0.05160937
 -0.01653665  0.06751071  0.04240372 -0.0039338  -0.01844119 -0.01382541
  0.03456278 -0.01121591  0.00176734  0.0374611  -0.00494814 -0.01844299
  0.03549941  0.00807979 -0.0170085   0.00636273 -0.00869572  0.03188404
 -0.00094782  0.03179489  0.0218538  -0.02531604  0.04905907 -0.02187734
 -0.05999883 -0.00654817  0.01963102 -0.02235929 -0.02927438  0.04247113
  0.04120176  0.07194707 -0.01619576 -0.03775963  0.01739881 -0.00124189
 -0.01371597  0.03291049 -0.04678708  0.04035223  0.04309337 -0.01212175
 -0.00156388 -0.00364262  0.05760572 -0.02060971  0.04948074  0.00531548]
Node 21: 
[ 0.01378514 -0.01912526  0.01254245 -0.03293398 -0.01447428 -0.01952529
  0.01552819  0.017054   -0.01931642  0.01195245 -0.01820005 -0.02823521
 -0.03847573 -0.00727353 -0.03409413  0.01521243 -0.01617171 -0.04719257
 -0.0170956  -0.00245479 -0.00068277  0.02298943 -0.03449005 -0.01583693
 -0.01247317  0.06458457 -0.04603867  0.01755819 -0.00076443  0.03982552
  0.00624128 -0.05868927 -0.0194266  -0.00024644  0.01381719  0.01478597
  0.02057792 -0.00873579  0.01529644  0.00583463 -0.01696254 -0.01169364
  0.01903041 -0.05840699  0.01385648  0.02420596  0.0155527  -0.0019723
  0.01063593  0.01103235 -0.01517171 -0.04472187 -0.00641114  0.00893711
 -0.03706649 -0.04670862  0.01889577  0.00408528 -0.01128887  0.00852878
 -0.04470973  0.00664276 -0.01779525 -0.02184105 -0.01791796 -0.04471873
 -0.02126351 -0.02341256  0.0021596  -0.0145915  -0.06634256 -0.01193397
  0.01780562  0.00322523 -0.0128182  -0.0374264   0.00642595 -0.05779112
 -0.01534267 -0.0229493   0.01218973 -0.01721765 -0.02420684 -0.01807763
 -0.02292257 -0.0300045  -0.01434945 -0.02945808 -0.03448029 -0.01498963
 -0.03273408  0.01035142 -0.03479357  0.02416713 -0.01366695 -0.03337573
 -0.01118969 -0.02050943 -0.00110193 -0.0369777  -0.04265557  0.01624917
  0.01010203  0.01010567  0.00667755 -0.02420741  0.00972914 -0.00293089
  0.00541274 -0.03446228  0.03997477 -0.018519   -0.01344652  0.01521811
 -0.04924705 -0.01905792 -0.01808716 -0.0245094   0.0075602  -0.01763043
 -0.01658667 -0.01729538 -0.01914682 -0.01342782  0.0124835   0.01083736
  0.0168431  -0.03083822  0.01715284  0.00945309 -0.02996087 -0.01839387
  0.01867359 -0.04121837  0.04650095  0.01672812 -0.01004461  0.01663613
  0.04947992  0.01156678 -0.01607305 -0.02293959  0.01396461  0.01022667
 -0.06464474 -0.05448522 -0.03165339 -0.00652362 -0.01563695 -0.05290699
 -0.02062816  0.00770885 -0.02901395 -0.01734493 -0.01725854  0.01373671
  0.00950601 -0.03749487  0.00847642 -0.01421977  0.01519164 -0.01894432
  0.01596192 -0.00472979 -0.02446368 -0.01912984 -0.04596594 -0.04068931
 -0.03067198  0.04384181 -0.00946194 -0.0681161   0.01536225 -0.02012378
  0.01504234 -0.03673389  0.00116951  0.01183497 -0.01111597  0.01983888
 -0.06485869  0.00256481 -0.00313269  0.00796336 -0.01727552 -0.06672627
  0.00963998  0.01123131 -0.0045334  -0.03740095 -0.02013542 -0.03748833
 -0.03237395 -0.00992348  0.01232154 -0.0196866   0.01085841  0.00811033
  0.01912483 -0.02096169 -0.07008045 -0.0151165  -0.01837896  0.01910635
  0.01165363 -0.02466516  0.00421258  0.0070176  -0.03614427 -0.05181797
  0.00306158 -0.01983837 -0.02468166 -0.01069996  0.03982605 -0.03231397
 -0.01850443  0.00639078 -0.03563054  0.05458398 -0.02911627  0.01636335
  0.03743025 -0.0093107  -0.01449263  0.02493897 -0.02003458 -0.00474418
  0.00780603  0.05338472 -0.01525972 -0.06834156 -0.02589564 -0.03060234
 -0.04769708 -0.01615033  0.01991236  0.01835056  0.01093048  0.01689061
  0.02489979  0.00573485  0.0106983  -0.01554907 -0.00126798 -0.01853186
 -0.03784007 -0.01891099  0.00133107 -0.00200448 -0.00281481  0.01079999
 -0.0213076  -0.04011163  0.01066117 -0.03468447 -0.0207165  -0.01389654
  0.01799215 -0.02229176 -0.03602796 -0.00590106 -0.03140121 -0.04717984
 -0.00445237  0.01810536 -0.03943314 -0.03844569 -0.02052978  0.00711386
 -0.03244056 -0.01484041 -0.04852118 -0.00350506 -0.02267253 -0.01393837
  0.01573291 -0.01318697 -0.04350037 -0.02276221  0.00316069 -0.01423514
  0.01241386 -0.03791777 -0.02226979  0.01479977 -0.00564017  0.03235974
 -0.01278111  0.00886523  0.01540599  0.00999171 -0.01541048 -0.00978301
  0.03805634 -0.01686664 -0.02404204 -0.01412227  0.0111018  -0.02686053]
Node 22: 
[-0.02670903  0.09327029 -0.02891489  0.01365341 -0.06826498  0.08382151
 -0.02921412  0.07359213  0.06798834 -0.04358357  0.07541264 -0.00547559
 -0.00028523 -0.0660265  -0.02009957 -0.06436888  0.07274742  0.0019489
  0.07626263 -0.05932704 -0.08237118  0.07708761  0.00490537  0.07534522
  0.07500457  0.03957021 -0.01491062 -0.03038526 -0.02998093  0.00639869
 -0.03679489 -0.0544633   0.06400629 -0.07357428 -0.02404948 -0.03236008
 -0.01893082 -0.05730233 -0.03951953 -0.04197321  0.08461455 -0.05569515
 -0.01277855 -0.06855241 -0.02571481 -0.01075638 -0.02267192  0.07988163
 -0.06786979 -0.03623177  0.08161553 -0.01281249  0.05312795 -0.0699259
  0.0021743  -0.01087972 -0.03123192 -0.03986238 -0.10803813 -0.0369234
 -0.01065461 -0.06734524  0.07699177 -0.08647257 -0.09773894 -0.00610649
  0.07132451 -0.1031058  -0.04166024  0.05182346 -0.0976567  -0.07007273
 -0.02486834 -0.04037361 -0.09825138  0.01259139 -0.03037759 -0.09035577
  0.0874461  -0.10168237 -0.03981349 -0.07305574  0.00770567 -0.06594646
  0.06619379  0.00653414  0.08396103  0.02191656 -0.0021423   0.0506882
 -0.00747788 -0.02745221 -0.00195048 -0.01962683  0.08230195  0.00891241
 -0.05638483  0.0778591   0.08982     0.00689597 -0.01270499 -0.04028916
 -0.03154735 -0.03228508 -0.03804024  0.05706302 -0.03208237 -0.07997387
 -0.03729776  0.00194396  0.00431006 -0.10841667 -0.08148132 -0.0404752
 -0.00804994 -0.07570327  0.09236429  0.07566058  0.03707089 -0.06732201
 -0.10519703  0.08170568  0.02018729  0.0706302  -0.02679798 -0.02996939
 -0.03081626 -0.10336356 -0.03594282  0.07575758  0.00919917  0.07928384
 -0.02037309  0.00137041  0.01105212 -0.031091   -0.07179132 -0.02815132
  0.00467483  0.10727485 -0.06557865 -0.09402055 -0.02317392 -0.03718963
 -0.0982904  -0.01314461  0.01368519 -0.05047889  0.07429229 -0.01166722
  0.01342006 -0.03149694  0.03007709  0.07868372  0.08645527 -0.03939714
 -0.0366899  -0.09631593 -0.03712265 -0.10657619  0.09266458  0.05983219
 -0.02980091 -0.0452227   0.02260433  0.08419561 -0.02974273 -0.01067692
  0.00469621  0.00236993  0.0828285  -0.10197701 -0.02880785 -0.11013953
  0.04810683  0.00274335 -0.09217401 -0.02240296 -0.08316283  0.12639998
 -0.08700145 -0.0319375   0.10187816 -0.04011948 -0.08028264 -0.0943962
  0.07684722 -0.03128572  0.09862359 -0.0042751   0.08287526 -0.00437343
 -0.00366473  0.08041546 -0.02680946 -0.07266457 -0.01976453 -0.02955438
 -0.02206589  0.07603958 -0.10401609  0.07718343  0.08604186 -0.03251057
 -0.02814703 -0.04516    -0.04051607  0.06902915  0.00079789 -0.07987191
 -0.03475426 -0.06791569  0.00851536  0.08733758  0.00028872  0.00352203
  0.07959571 -0.07422329  0.00197225  0.02799157 -0.10300566 -0.03714101
 -0.01096343  0.09042538  0.04509003  0.09497534  0.07716608 -0.07982938
 -0.03860775  0.02164754  0.05889312 -0.09729454  0.02251439  0.02070797
 -0.00075167  0.07461104 -0.03119233 -0.02576965  0.07030556 -0.03003662
  0.11740652 -0.03860553 -0.03591764  0.08644109 -0.07427722  0.04435395
 -0.00538345  0.06723955  0.06184895 -0.04296792  0.09872411 -0.04053799
  0.09034885 -0.09075572 -0.03511321 -0.00189122  0.07718935  0.08954704
 -0.02655811  0.07587    -0.01307649 -0.04837806  0.0008366   0.00646116
 -0.04084508 -0.01850342 -0.00065195 -0.01212673  0.06243492 -0.02747934
  0.01546099 -0.07192751 -0.0315429   0.06530493 -0.09381327  0.08421543
  0.08593895  0.06384544 -0.03053111  0.07644248  0.09456873 -0.09528307
 -0.03359639 -0.09507297  0.08847118  0.10254439 -0.06728269 -0.00073869
  0.08671134 -0.02765462  0.08396626 -0.03867577 -0.09231226  0.07536827
  0.00292461  0.02174438 -0.09645639  0.08239267 -0.02839053 -0.01749745]
Node 23: 
[-0.04143888  0.01998538 -0.02819852  0.04637195 -0.00530258  0.02394183
 -0.05973631  0.0140046   0.02123652 -0.01733864  0.0217253   0.06150193
  0.03178654 -0.00513869  0.03075918  0.00238005  0.03275251  0.04689929
  0.02096631 -0.01308355 -0.00111098 -0.02464444  0.04494711  0.03315877
  0.03316595 -0.05110681  0.04331892 -0.03370474 -0.01887706 -0.03659012
 -0.03274768  0.04263798  0.02551297 -0.00158053 -0.04766562 -0.02781401
 -0.03796147 -0.01212511 -0.04237081 -0.03793748  0.01303119 -0.01859139
 -0.04317783  0.03825813 -0.02927124 -0.04639304 -0.036511    0.01801293
 -0.00852062 -0.02507913  0.02826598  0.04970224  0.03018078  0.00101776
  0.03171699  0.04822964 -0.04536278 -0.03640046  0.01241328 -0.02949893
  0.03859697  0.00102483  0.01183288 -0.01069083  0.00595535  0.04804942
  0.01353792 -0.00842251 -0.01738937  0.00843272  0.02325569 -0.00186771
 -0.04346409 -0.03393617  0.01099324  0.03332082 -0.04580416  0.01975369
  0.01313931 -0.00559498 -0.03299609 -0.01699974  0.03986217 -0.00586447
  0.02742191  0.04804979  0.01910348  0.0196173   0.04275937  0.04368921
