[0.07985332543149702, 0.06890662797157328, -0.04263789351367823, -0.027983108755666175, -0.09997590577475164, -0.0006164665302262118, 0.14440625405675636, 0.024547893070796304, -0.12249486758563105, 0.06119333615460612, -0.01225594346742382, 0.04232259430148782, 0.020162579166841707, -0.0006004169737465444, -0.09649684179836049, 0.11212751564534244, 0.032987321017169356, -0.05676941048316978, 0.07923321463704135, 0.07009747805379153, 0.05957805321814579, -0.05857300109473857, 0.036126909803538956, 0.12056870806007808, 0.13632255535910717, -0.026603708654418273, 0.0857232573840626, -0.16431691101210988, 0.09311697283370972, -0.048322066554717, 0.006418136111217554, 0.029194298577589185, 0.03765564621400707, -0.023923270250355275, 0.008994486392739962, 0.1605137961838833, -0.007548819328304313, -0.02028525025412321, 0.024889094690838096, -0.14679203183589948, -0.014493650296157788, 0.003770722465874231, -0.01100953593415399, 0.013839529465605273, -0.013436738337689701, 0.19552830985935876, 0.19927334442745823, -0.09434152820977564, -0.09606298521873327, -0.201137913127942, 0.1442596454129663, -0.0626246810290255, 0.08183020897974823, -0.0937984213426708, -0.03834853978888589, 0.1732254890406597, -0.05836602918486318, 0.0006633132998621655, -0.04140727621936176, 0.030282158366126275, 0.22754795041957146, 0.05010961629915625, 0.10622649779240295, -0.1032481252754983, 0.05623555393781332, -0.07685768761402516, -0.06196049070980363, 0.21164645594937598, 0.062243891721531955, -0.0046254825739471695, -0.016420246440245253, 0.009515825322351753, 0.05874988849530476, 0.1566430604662697, -0.01687425746560421, -0.07382573124140061, 0.031189188646653487, 0.035066081226090146, -0.019755740802285895, 0.002211272028690133, -0.0209719364728601, 0.04975290754984467, -0.10336402017857058, -0.12666609555690422, 0.012984549727747118, 0.01600517559250143, 0.03810900725142846, 0.026299087857440742, 0.012949157614314945, 0.16936438337621235, -0.12095712442371194, -0.08478167393377102, 0.10040408150667536, 0.0024068273135535207, -0.03941091684364982, -0.008648599436360597, -0.03271249332553681, 0.03438247289028986, 0.08253805510558535, -0.04228848128526122, -0.030207659073778363, 0.08195579862702085, -0.05163852140112195, 0.08020867832331205, -0.13123746761345362, 0.07551848564382578, 0.1390340188832864, -0.0849690462309522, -0.05358651881451377, -0.12632467098499772, -0.016507216530824466, -0.006118219052901803, -0.00566944156564108, 0.048398581025488226, 0.14617093898920172, 0.1461704093652535, -0.037737300737907875, 0.1285601248918708, -0.006008286844444012, 0.12509743261853598, 0.014516909465497264, -0.026702084673447115, -0.0618897561146432, -0.021846954850474835, -0.0012611884606617454, 0.012412321146761118, -0.03399676944309282, -0.03602248765731005, -0.044883578698011205, -0.0032653494353952917, -0.014274746811384305, -0.17027746278438624, -0.025004479527425044, -0.004289521927899641, -0.05232686362719012, 0.010444428564311485, 0.29509943015705603, 0.013584210238012746, -0.005999125610019949, -0.05105954974686118, -0.08632687342959429, 0.0893729077756686, -0.057434435195220464, 0.0210485710142656, -0.0026085218476274226, -0.06039532152411517, 0.055761007243247784, 0.09315990742327189, -0.03012686555912179, 0.044705474812930884, -0.13361672774782485, 0.06495691745298988, 0.008435456427554708, 0.08346442862458034, 0.0180427605795131, 0.07918816559716572, -0.045890758565858884, -0.1398641629759014, -0.08483441528414858, -0.04985926784405163, -0.16889406614903218, 0.10821286994183596, -0.04663432768289386, -0.05081351016443867, -0.1087293780210959, 0.13651004073102643, 0.05538504992273148, 0.15364202279608735, 0.002661210228829823, -0.06260440921125118, -0.10870552749418355, 0.08018923213841163, 0.21030291259707756, -0.10388421648450429, -0.0006494048550338491, 0.13245625932741642, 0.04139503528487751, -0.021749978431153654, 0.026181036288396967, -0.05414885674427932, 0.14907087771048816, -0.05252105774056457, 0.019002630996971998, 0.02609235018227858, -0.03101065853087138, -0.09668340649808985, -0.07127339496961861, 0.03863810827653048, -0.1312556011596249, 0.19541106430659322, 0.12460699880091955, 0.05142330577861805, 0.04243007929897415, -0.08785970126670471, -0.07181417450132929, -0.012226059213230826, -0.026114875030636257, 0.052825947225457914, -0.030058332827076102, 0.011168062812406319, -0.08580475169623514, -0.09138881771750938, -0.028550009723505774, 0.06983868466037893, 0.0055888131895256345, -0.23081873264650712, -0.05554892438346203, -0.07376719344968057, -0.03295642468525523, -0.005063625826042221, 0.19630209642354704, -0.010595033250146435, 0.07565128114642325, 0.08588381814243644, -0.04280226831425944, -0.040327988983403895, -0.03887545799138302, -0.0400859626270188, -0.08190534783280574, -0.06264929705254531, -0.0076997806507385375, 0.08150394015833307, -0.08516103065856384, -0.19910136867705172, -0.1935088318587539, 0.06450037183702828, -0.046235863604804785, 0.04931129711448537, 0.024278599203453627, -0.08617192434750862, -0.004443239085004033, -0.04737908986905047, -0.053907156445985496, 0.2040966323107169, 0.029934842196822208, 0.22365968360998142, -0.04439702336170975, -0.20112401994402124, 0.07689295629096565, 0.09910213183656466, 0.1458720538006458, -0.09200504958794885, 0.08802457945871596, -0.05340938608621138, 0.005882621866235431, 0.02270747490063537, 0.04772529279759593, 0.001982059984222128, 0.22044310278137197, 0.045787406384511946, 0.0007652421381466962, 0.017061864633622782, 0.07949260758881592, -0.1915690720133272, 0.10692753875777618, -0.04113851477949806, -0.011690218808941137, -0.06007350707224977, -0.06606627463137554, -0.014199078677058335, -0.009726633822879515, 0.11824666858225129, 0.08969310224778657, -0.008864068655750729, -0.04146750439615681, 0.13844859561595652, 0.06475389927467454, 0.09287197570126064, -0.08179524465979572, -0.05430090283711084, 0.11001754806459704, -0.0039778797185761414, 0.036805453126953165, -0.0058233136698159224, 0.0632977503225995, -0.0680981943542238, 0.12495047291734197, -0.030741773398827964, -0.0339300926999338, -0.027991482233378863, -0.06265815622592623, -0.050525080086156485, 0.18860024957766772, -0.06605008708019042, -0.19980325592026738, 0.03336688258819729, -0.25010792792676917, -0.01991744574951138, -0.06894170640739691, 0.011985203007609514, -0.12406786972679003, -0.14236263349166015, 0.024892413645740005, 0.009666076467774638, 0.07218773141849633, -0.2110310708214883, -0.13916919290567864, 0.23098250340496093, -0.12242387544215429, -0.008717237003222024]
