Node 0: 
[-0.02681801 -0.0623392  -0.07248451 -0.06729656  0.10034297 -0.03731139
  0.02004119 -0.00264792  0.00029482 -0.00366446  0.01462928 -0.03499828
 -0.02033963 -0.0289469   0.01077117 -0.06846776  0.11744679 -0.02714577
 -0.0138895  -0.02832007 -0.03474317 -0.00235883 -0.04720453  0.03016448
  0.06642524 -0.03414563  0.10124639 -0.10593063 -0.07910535 -0.0566922
  0.03673301  0.01043656  0.0221089   0.05250373  0.04253034  0.10868644
  0.00780601  0.04686198 -0.0489848  -0.02245504 -0.03929915  0.04835772
  0.01439162 -0.00129815  0.01245124  0.0921802  -0.0318945   0.07497369
  0.01259153 -0.06671867 -0.03381699 -0.02312892  0.10953201 -0.03852665
  0.06192603 -0.01084707 -0.02543666 -0.03031702  0.0129863  -0.03076684
 -0.02677673  0.01094271 -0.04328566  0.02489162  0.00635209 -0.0389302
 -0.03003219 -0.02615102 -0.07445384  0.03335393  0.01894474  0.01712188
 -0.02508328 -0.08964752 -0.0349073  -0.07332866 -0.01336429  0.0151317
 -0.07010518  0.02305167 -0.02788794  0.01418743 -0.02713909  0.03727078
  0.02884393  0.01301367 -0.00136006 -0.01421597  0.05541126 -0.18137562
  0.06060775  0.02527668 -0.02798283  0.00847368 -0.08357021 -0.00346411
 -0.03672702  0.05102905 -0.00186951  0.00287012 -0.00256363  0.07138601
  0.04612419 -0.06646436 -0.03570919 -0.01679428 -0.03841272  0.00633318
 -0.03417481  0.11146393 -0.0634705   0.01778003 -0.02750358 -0.0573861
  0.03488931 -0.07862961  0.01885641  0.00423639 -0.00575768 -0.03424707
 -0.08294442 -0.01699241 -0.17836836 -0.00972165 -0.02909415 -0.01573041
  0.02166964 -0.05555859 -0.02583613 -0.02599982  0.00123211 -0.02289864
 -0.02213336 -0.04163109 -0.00068157  0.01394035  0.04971156 -0.05270105
  0.03957296  0.01835359  0.09842358 -0.02766126  0.02151718  0.02586577
 -0.02174742 -0.03659584 -0.08237439 -0.02650338  0.01362896 -0.00931342
 -0.00057418 -0.04351243 -0.06855845 -0.03489929 -0.07268487 -0.02588009
 -0.01542115  0.01150673 -0.03356524 -0.06298579  0.1149056  -0.05074952
 -0.03744418 -0.0365791  -0.02912774 -0.04485182 -0.02997317  0.03178957
 -0.02965726 -0.03495376  0.02602561 -0.02457649  0.02743095 -0.06004062
 -0.04019882 -0.03512993  0.06222242 -0.01552443 -0.05006052  0.11490753
 -0.10418963 -0.03567595 -0.07131258 -0.02605118  0.01978603  0.06223403
  0.03644279  0.03092841 -0.03678107 -0.05822688  0.01058184  0.01011185
 -0.06390097  0.00434219 -0.0422441  -0.03206021 -0.00160681  0.05950187
 -0.00696671  0.02554062 -0.06282535 -0.02256983  0.03059274 -0.04804654
  0.03371117 -0.02502225  0.01271285  0.05054773  0.02530844  0.0171814
  0.03449458 -0.02333137 -0.02124936 -0.05095768 -0.06173253 -0.01958799
 -0.02654469  0.13311766  0.03514097  0.08430682 -0.09294446 -0.00392787
 -0.01501857  0.01290296 -0.00104675 -0.00330116 -0.04983559 -0.04391203
  0.08696267  0.01626826  0.0500527  -0.0004755   0.02100434  0.06381781
 -0.03258653 -0.02850407 -0.03612521 -0.03033267 -0.04929889 -0.02801587
  0.02635207 -0.00241492  0.10969854  0.01988565 -0.0548255  -0.02980829
  0.0081648   0.08850975 -0.08689983 -0.02322231 -0.03273478 -0.04875355
 -0.05093199 -0.07447069  0.04602689 -0.0181116  -0.17088713  0.06735949
  0.05962547 -0.01605294 -0.0669801   0.09848508 -0.07860449 -0.00922218
 -0.02828443 -0.03093504  0.00780471  0.0084156   0.0192135  -0.05483522
 -0.02138306 -0.02545173 -0.05168439 -0.0507957  -0.09014949 -0.02189965
  0.06461851 -0.03153517  0.01358067 -0.04153721 -0.03049816 -0.08641087
 -0.02624929 -0.02385355 -0.03323833  0.09570446 -0.00665178 -0.04143184
 -0.08806273 -0.01873622 -0.02862483 -0.00537531 -0.00993797 -0.01282045
  0.03933687 -0.05326542 -0.0109739  -0.03461424 -0.0120124   0.02412875]
Node 1: 
[ 0.0685142  -0.08917134 -0.151553   -0.07443795 -0.01855208 -0.05576258
  0.11927576  0.11436097  0.02892698  0.11323501  0.13159568 -0.03573936
 -0.03421043 -0.0517842   0.11396663 -0.15124454  0.05418956 -0.04777759
  0.08035347 -0.05606548 -0.03711177 -0.11692911  0.02933811  0.13685839
 -0.09416949 -0.04051395 -0.00830583 -0.106105   -0.21164184 -0.16820709
  0.11400014 -0.14804118  0.1103174  -0.11160576  0.11326773  0.03244318
  0.07288085  0.10803803 -0.17919337  0.01134603 -0.04964574  0.16640024
 -0.16735139 -0.1786183   0.12936943 -0.00870998 -0.0358334  -0.08487368
  0.08022653 -0.13413504 -0.05712455 -0.05486145  0.01913469  0.02083679
  0.13436482  0.03393109 -0.11152496  0.02879311  0.11224547 -0.06437524
 -0.03785144  0.07293361 -0.18709009 -0.15142856  0.11858565 -0.05551679
 -0.0517283  -0.03792977 -0.02823064 -0.12335808  0.05868653  0.06789992
  0.08870225 -0.18039376 -0.00796492 -0.15919074  0.02634454  0.12486796
 -0.14563398  0.1113604  -0.05761251  0.13460628 -0.04458204  0.10473601
 -0.15404729  0.07625485  0.0193794   0.10020562  0.13556821 -0.03362643
 -0.10830466  0.12454177 -0.04562792  0.07298042 -0.03020911  0.06000696
  0.02611568  0.08067338  0.11859854 -0.12626501  0.11687212 -0.07217468
  0.15304678 -0.19376536 -0.05245675  0.03897914 -0.00680414  0.03378448
 -0.05444329  0.01086162 -0.1637494   0.11860456 -0.05795077 -0.11095329
  0.11343105 -0.17571729  0.10446771  0.06687679  0.1003374  -0.01314708
 -0.192798    0.09179042 -0.03001683  0.03031627 -0.03965076 -0.16659976
  0.0934129  -0.18491117 -0.04566462 -0.14015735 -0.17747077  0.00618716
 -0.07905183 -0.04490636 -0.15554187  0.10502926  0.17410151 -0.04450588
  0.13003993  0.138816   -0.01299834 -0.04871855  0.11633583  0.13263094
 -0.01638431 -0.05595377 -0.20005779 -0.05060128  0.13358977 -0.16472778
  0.07298514 -0.0467355  -0.12532499 -0.06711039 -0.23462143 -0.05323386
  0.04369761  0.03069305 -0.04101019 -0.1806593   0.03628239 -0.18146294
 -0.01593157  0.06773957 -0.06242966 -0.02606487  0.0381543   0.11691462
 -0.04498049 -0.11260409  0.13970951 -0.14235361 -0.15186914 -0.10214544
 -0.20035706 -0.07058705 -0.09067217  0.03741322 -0.05103972  0.03890218
 -0.20257309 -0.06300196 -0.17198427  0.07425834 -0.17198171 -0.04390695
  0.144692   -0.11803702 -0.05571522 -0.11175306  0.10523541 -0.07489839
 -0.01150405  0.02518978 -0.0630353  -0.06239591  0.04049439  0.13806934
  0.09944357 -0.14470632 -0.00991857 -0.15347761 -0.14242095  0.00399886
  0.11023937  0.03342086  0.03949511 -0.13159608 -0.1322913   0.13052258
  0.14467053 -0.02910149 -0.00114747 -0.06846022 -0.03901444 -0.05984928
 -0.02073313  0.07861865  0.14760749 -0.0423842  -0.20531709 -0.17705259
 -0.0292994  -0.16947275  0.01525647  0.04365322 -0.20267047  0.02111021
 -0.04130802 -0.07332538  0.12622192  0.02507879  0.11678189 -0.10689622
 -0.04929092 -0.05985578 -0.02764802 -0.05243869 -0.00519595 -0.04074478
  0.12029109 -0.15766781  0.0264482   0.04375986 -0.06790755  0.02151468
 -0.13335089 -0.01812953 -0.14270078 -0.18984771 -0.06521066 -0.06790128
 -0.06856375 -0.18606282  0.12754539  0.09773531 -0.00239446  0.16447356
 -0.1007736   0.09289196 -0.206639   -0.01534755 -0.15562982  0.08251864
 -0.04426312 -0.04408751 -0.12456426  0.09485291  0.11166742 -0.05803569
  0.08029046 -0.07070776  0.01383667  0.02022557 -0.2145118  -0.17313972
 -0.05355066 -0.16124171  0.09453749 -0.00155659 -0.05457809 -0.17279054
 -0.05869963 -0.04282127 -0.0459072  -0.01001998  0.09828124 -0.06470951
 -0.0376952  -0.02838038 -0.05302272  0.10047892 -0.1933515   0.0895326
  0.11968809 -0.00921895  0.03347794 -0.06364228  0.10578538 -0.14381028]
Node 2: 
[-0.05031747  0.00130822  0.02467482 -0.01078011  0.12882949 -0.03861104
 -0.04194606 -0.04323414  0.00954278 -0.03030606 -0.02137225 -0.05460562
 -0.04856666 -0.03380356 -0.04037994  0.0320143   0.11985082 -0.04043063
 -0.05424098 -0.0408639  -0.03089464  0.06322472  0.01745279 -0.03429852
  0.11782508 -0.04892594  0.12676446 -0.01839252  0.05621521  0.04672054
 -0.02833547  0.08519576 -0.03777987  0.1055657  -0.0300387   0.12279024
 -0.03242732 -0.02072091  0.05880589 -0.00019342 -0.0170851  -0.0246988
  0.09519155  0.08994539 -0.04089423  0.12084879 -0.04544268  0.12672584
 -0.03790616  0.02425097 -0.03365761 -0.03551055  0.12129073  0.03185568
 -0.02140443 -0.01084046  0.04281945  0.03712616 -0.03685696 -0.02617743
 -0.0260783  -0.03373497  0.07000397  0.09582116 -0.03063677 -0.03605783
 -0.04540307 -0.05291723  0.00979395  0.09115872 -0.0029841  -0.01312366
 -0.04423365  0.0284829   0.00408007  0.03145147  0.00138725 -0.03961575
  0.02413321 -0.03810055 -0.02911399 -0.02506113 -0.04584655 -0.0279269
  0.09935913 -0.0302186   0.01283508 -0.03435849 -0.02633023 -0.17246398
  0.11353738 -0.03789638 -0.04365752 -0.03768534  0.01435231 -0.03035209
  0.03388298 -0.00429723 -0.0349928   0.07172558 -0.03634587  0.11526239
 -0.03505037  0.05397784 -0.04200695 -0.02955572 -0.01829942  0.00399376
 -0.04404218  0.13246358  0.04260581 -0.04226268 -0.04252537  0.0148198
 -0.03381816  0.03740954 -0.03859873 -0.03344032 -0.04931816  0.00732966
  0.039695   -0.05179993 -0.15894354 -0.00706369 -0.04874633  0.07727264
 -0.03067882  0.06056787 -0.04817747  0.05575835  0.09302997  0.00150277
  0.02461724 -0.03974846  0.08170981 -0.04357812 -0.0145191  -0.03611085
 -0.03463433 -0.02610564  0.12448705 -0.04866785 -0.0389591  -0.03467569
 -0.06252712 -0.04501433  0.04635695 -0.03490718 -0.02139951  0.07957178
 -0.03907861 -0.02005337  0.0132342   0.00758197  0.06902473 -0.04305956
  0.02828583  0.02075309 -0.05233979  0.05168715  0.11788982  0.05728745
 -0.07177301 -0.06549099 -0.02972639  0.00512965  0.02553161 -0.03668251
 -0.04401604  0.03557703 -0.03127244  0.05821461  0.09854113  0.01102829
  0.07728011 -0.03442456  0.11259903 -0.03114931 -0.03112965  0.12175444
  0.02687218 -0.04014868  0.03897884 -0.05752272  0.10217828  0.10071717
 -0.02746209  0.08698406 -0.04891805  0.01435611 -0.04155397  0.0550884
  0.02885798  0.01543044 -0.03994545 -0.04346503 -0.01680553 -0.02400495
 -0.04941556  0.09335826 -0.08296218  0.06583334  0.09734942  0.02515479
 -0.02918776 -0.03575317  0.00573021  0.11132319  0.08816147 -0.02078543
 -0.03612534 -0.02252199  0.01287432 -0.00252632 -0.00451053 -0.02649781
 -0.02714098  0.12075464 -0.03590837  0.12008921  0.03980393  0.08808972
 -0.01877026  0.09625119  0.01751523 -0.01418706  0.07073579  0.01726446
  0.11936437  0.06106279 -0.02487755  0.01137335 -0.0404482   0.11604408
 -0.04452358 -0.03799581 -0.03685218 -0.03792015  0.0228213  -0.05538201
 -0.03629107  0.07971334  0.12388446  0.01771846 -0.01015284 -0.03677932
  0.0775986   0.12037672  0.00938849  0.08187284  0.00655126 -0.00827505
 -0.00132113  0.04278102 -0.02845276 -0.03987826 -0.1495612  -0.02230095
  0.11133543 -0.05421734  0.05936959  0.12805904  0.02446414 -0.04911805
 -0.03735137 -0.0263299   0.07390174 -0.0430594  -0.03886116 -0.0319984
 -0.05814824 -0.03175898  0.02096332  0.01924036  0.04787175  0.07734891
  0.10614811  0.06476372 -0.03890668 -0.01828919 -0.03361248  0.0279438
 -0.02679251 -0.05089157 -0.00954032  0.12516467 -0.0337666  -0.00287896
  0.00831837 -0.01039554 -0.04159401 -0.03834162  0.09046906 -0.0481688
 -0.02812642 -0.07960099 -0.01337784 -0.03464761 -0.04462207  0.09146979]
Node 3: 
[ 0.11674902 -0.14851855 -0.25398804 -0.1555144  -0.12649019 -0.10691354
  0.18049823  0.17729148  0.06737512  0.1679106   0.18763221 -0.06735343
 -0.07571852 -0.10712136  0.16985363 -0.25350552 -0.07745583 -0.10258335
  0.12099487 -0.11151839 -0.10183542 -0.22993418  0.01325921  0.20128199
 -0.22072864 -0.0793035  -0.11804435 -0.15109486 -0.36511322 -0.28890529
  0.17366024 -0.28485982  0.1700827  -0.23844037  0.16975415 -0.09806583
  0.12975424  0.1736904  -0.31774965  0.03899024 -0.12321347  0.2342287
 -0.31923461 -0.3336638   0.19204863 -0.11831304 -0.08178203 -0.23396106
  0.1412667  -0.2360879  -0.12255692 -0.1117975  -0.07509859  0.00541922
  0.20300763  0.07572518 -0.21431271  0.02134241  0.16632135 -0.12218927
 -0.10479434  0.13044283 -0.33972516 -0.29743436  0.18025394 -0.11243679
 -0.10013322 -0.07930831 -0.08006879 -0.24876786  0.10721641  0.12621832
  0.14366481 -0.29645085  0.0172709  -0.2705716   0.06713164  0.18339252
 -0.24240654  0.15846678 -0.11350525  0.19743855 -0.09519154  0.17366294
 -0.30568109  0.13534721  0.04838134  0.15498165  0.19884342 -0.00272393
 -0.24465079  0.18654764 -0.09764004  0.13217223 -0.08214409  0.11519199
  0.01765542  0.13973702  0.1787305  -0.24285158  0.17762544 -0.18683418
  0.21882015 -0.33816848 -0.10608385  0.07786692  0.0190528   0.07031397
 -0.10583133 -0.11851516 -0.28767578  0.17578016 -0.10874843 -0.19261944
  0.18159179 -0.29147988  0.16418085  0.11460674  0.1550922   0.00229108
 -0.31880632  0.14448773 -0.00908491  0.0716177  -0.07320632 -0.2980207
  0.14659008 -0.32618842 -0.09191938 -0.24798816 -0.33098674  0.03691895
 -0.15686523 -0.10452939 -0.2953347   0.17000893  0.24290546 -0.11204296
  0.19935596  0.20304017 -0.1217671  -0.10099069  0.1732176   0.19266328
 -0.04633918 -0.10858729 -0.33958362 -0.11165318  0.19403149 -0.30542773
  0.13437737 -0.09917613 -0.20984561 -0.1363346  -0.38951834 -0.10021153
  0.04916401  0.06793719 -0.08678753 -0.31503703 -0.05356767 -0.31576593
 -0.0391469   0.11507629 -0.11926125 -0.01045556  0.0258426   0.1905288
 -0.0788663  -0.20701712  0.20110271 -0.26381039 -0.29710544 -0.17508562
 -0.34586155 -0.1310927  -0.21883152  0.08010287 -0.11409373 -0.05625425
 -0.327205   -0.11588168 -0.29370679  0.11592678 -0.32609515 -0.12880341
  0.20683043 -0.23085588 -0.10807159 -0.20092422  0.15965015 -0.16419893
 -0.06690363  0.04572973 -0.10639731 -0.11505311  0.08547171  0.20761432
  0.15279495 -0.28386701 -0.0162796  -0.28553202 -0.28641459 -0.02164312
  0.17866256  0.07847026  0.08166382 -0.26748129 -0.25377436  0.19242805
  0.21162074 -0.09563083  0.01432705 -0.13151788 -0.03294371 -0.11721185
 -0.08104907 -0.03262503  0.21541331 -0.158902   -0.34176898 -0.3184045
 -0.09315196 -0.32294787  0.04261519  0.09187694 -0.3551993   0.00609714
 -0.13509274 -0.16452821  0.19033106  0.05195607  0.1750213  -0.23478189
 -0.10005128 -0.11254025 -0.08787923 -0.08891526 -0.0324703  -0.08186739
  0.18079917 -0.29594871 -0.07888228  0.08913906 -0.14802592  0.05804981
 -0.25746237 -0.13234358 -0.22886314 -0.34565255 -0.1436176  -0.14906639
 -0.14670825 -0.31266567  0.18838253  0.15030968  0.02019011  0.22872034
 -0.23477787  0.13925867 -0.35437827 -0.12359979 -0.2610881   0.1289998
 -0.09898594 -0.11882218 -0.24028302  0.1452062   0.17377099 -0.13249564
  0.13062017 -0.12788342 -0.00705042 -0.0143233  -0.3557565  -0.3182074
 -0.15456375 -0.29627852  0.15379661  0.02852173 -0.10468285 -0.28631538
 -0.11205539 -0.08489038 -0.11529628 -0.13386319  0.14592921 -0.1313336
 -0.09415246 -0.09710422 -0.10789993  0.15707118 -0.35016635  0.13399871
  0.17722278 -0.0278354   0.07509695 -0.12165296  0.16351714 -0.279519  ]
Node 4: 
[-0.02283591 -0.01727646 -0.0249195  -0.00895735 -0.0190973   0.00502031
  0.00508023 -0.00187396 -0.02483075 -0.02765291 -0.02383674  0.0193774
  0.01942382  0.01227354  0.0006265  -0.03731076 -0.00063559  0.00745654
  0.00326494  0.0118427   0.01567092 -0.03166911 -0.03468093 -0.00084278
 -0.02152911  0.01766004 -0.01383001 -0.07594483 -0.06703411 -0.03803763
  0.00187634 -0.03464165  0.0002321  -0.02841238 -0.00605155 -0.0067805
 -0.00173937 -0.00504352 -0.04202565 -0.02445309  0.01243341 -0.00251034
 -0.0401296  -0.03845174 -0.00808593 -0.01490991  0.00857948 -0.01715387
 -0.01396836 -0.02890607  0.00599445  0.02599783 -0.01638488 -0.04898314
  0.00266575 -0.01657494 -0.02844038 -0.03755568 -0.00575329 -0.00316003
  0.01049101 -0.01285222 -0.0538381  -0.03493478 -0.01333048  0.00436429
  0.01197073  0.0217836  -0.06136308 -0.03600786 -0.01534363 -0.00791626
 -0.02211483 -0.02997079 -0.03332763 -0.03460326 -0.02059591 -0.00143479
 -0.0303365  -0.00324498  0.00999896 -0.01899151  0.01632167 -0.01376226
 -0.03951202 -0.0016364  -0.02794181 -0.03311748  0.00069712  0.04001661
 -0.02399547  0.00058271  0.02089378 -0.00201698 -0.06605675 -0.01912915
 -0.03865598 -0.01809937 -0.01545182 -0.03198631 -0.0134698  -0.02183188
 -0.00013563 -0.05932556  0.02359861 -0.01135643 -0.02770838 -0.01853595
  0.00641014 -0.01727498 -0.03207364 -0.00708888  0.00945032 -0.01139374
 -0.00837486 -0.04248148 -0.00131219 -0.01201562 -0.00030428 -0.0382976
 -0.03832169  0.00054906  0.03941812 -0.01408158  0.01685913 -0.04663081
 -0.00446914 -0.05862221  0.01952827 -0.0367597  -0.04509919 -0.03708178
  0.00155855  0.01469291 -0.0419365   0.00891822 -0.01222914  0.01009502
  0.00627308 -0.01240444 -0.01541226  0.01665616  0.00363051 -0.00235602
  0.02938643  0.0167157  -0.05446956  0.00333354 -0.02602097 -0.04650302
  0.00233284  0.00156121 -0.00320247 -0.00058144 -0.05945602  0.01299933
 -0.03498704 -0.02499889  0.02654949 -0.05003597 -0.01643655 -0.03834409
  0.03975725  0.00374198 -0.00031523 -0.03782122 -0.039723    0.00262193
  0.01102666 -0.02086145 -0.00337255 -0.034476   -0.03412827 -0.01895164
 -0.04774518  0.00736094 -0.01651663 -0.01250171  0.00402709 -0.01497901
 -0.0489464   0.00444438 -0.04436043  0.00099864 -0.03544053 -0.01179527
 -0.01321147 -0.03413448  0.0132814  -0.01825016  0.00437288 -0.02178632
 -0.06025956 -0.04041458  0.01874089  0.00887635 -0.01545792  0.00319883
 -0.00172538 -0.03468453  0.03998419 -0.04240866 -0.03376222 -0.0461623
  0.00201844 -0.00810132 -0.01869794 -0.02672549 -0.03730959 -0.03073811
 -0.00709434  0.02406841 -0.04683883 -0.00896211 -0.04805989 -0.00115118
  0.0078702  -0.00063132  0.00264934 -0.01465616 -0.05898236 -0.03581985
  0.00810202 -0.03746687 -0.02900912 -0.01349614 -0.05668075 -0.03546375
 -0.01254882 -0.02067934 -0.00098289 -0.02778018  0.00219503 -0.02651384
  0.01038552  0.00975784  0.0276609   0.01099145 -0.04879024  0.01956436
 -0.00664428 -0.0417083  -0.0138548  -0.02143752 -0.0065933  -0.01532957
 -0.03927606 -0.01293002 -0.02356871 -0.05812822 -0.00828099 -0.00478722
 -0.01395158 -0.04631497 -0.0104423  -0.02725757  0.05029352 -0.0112371
 -0.02087689  0.00056274 -0.045175   -0.01363276 -0.0335902  -0.00020649
  0.0208353   0.00689097 -0.03614054 -0.00059728 -0.0060317   0.00799259
  0.00471401 -0.00085999 -0.04692171 -0.03592856 -0.05241927 -0.05905464
 -0.02446628 -0.04807195  0.00213723 -0.0220143   0.00648033 -0.03838697
  0.00555641  0.0188588  -0.00419495 -0.00759159 -0.02347392 -0.01074204
 -0.06570455  0.01367838  0.00899937 -0.01808077 -0.04537061 -0.00550969
  0.00140338  0.03888762 -0.01373954  0.00166925 -0.00265809 -0.03165988]
Node 5: 
[-0.09414571  0.15552904  0.21695159  0.14974225  0.11599547  0.07182254
 -0.15881795 -0.13961057 -0.0635514  -0.16380858 -0.18474801  0.05555094
  0.05179965  0.08442696 -0.15048727  0.21809972  0.08161366  0.05653183
 -0.10800881  0.08878921  0.09626975  0.17960859 -0.03356135 -0.18291283
  0.21473565  0.06351843  0.11200842  0.06437924  0.2749349   0.2385231
 -0.16185248  0.23075754 -0.14676539  0.19872482 -0.15596783  0.10193478
 -0.08541391 -0.15801514  0.24757542 -0.05162614  0.12180387 -0.21971739
  0.25554286  0.23690748 -0.1659673   0.14916088  0.03554957  0.22126784
 -0.115944    0.19648557  0.11398302  0.09006445  0.08177949 -0.01865127
 -0.18081862 -0.07917024  0.15813019 -0.01779152 -0.15402207  0.11080985
  0.09981676 -0.09605773  0.23133354  0.22653953 -0.16963702  0.09464171
  0.0767483   0.05195764  0.0236651   0.21256964 -0.11080138 -0.10594239
 -0.13174371  0.23884597 -0.0292291   0.23357863 -0.06749108 -0.16326166
  0.2142693  -0.15189573  0.09101128 -0.18705817  0.06508865 -0.15162864
  0.23191918 -0.09344223 -0.05469331 -0.13430564 -0.18609505  0.04284139
  0.2228535  -0.16612331  0.07222109 -0.095309    0.02168506 -0.10050083
 -0.01938429 -0.10354746 -0.16078603  0.20929577 -0.16452925  0.18147331
 -0.19419025  0.22915337  0.0865969  -0.07984364 -0.0147059  -0.07336896
  0.08490992  0.10551007  0.20769533 -0.15006892  0.08783921  0.16982177
 -0.15040594  0.24222458 -0.14811623 -0.11370032 -0.12669768 -0.0179954
  0.25405857 -0.13836782  0.03178456 -0.06111453  0.03840523  0.24670143
 -0.1218213   0.24222288  0.06056543  0.22124995  0.26186683 -0.04560722
  0.15317291  0.10154548  0.22726669 -0.10948412 -0.23795742  0.09877735
 -0.16355702 -0.18222998  0.1419801   0.07300164 -0.15186806 -0.16899607
  0.01595771  0.08441693  0.26359904  0.07221648 -0.184741    0.22648654
 -0.09166528  0.11771347  0.18390364  0.12726314  0.30880873  0.07588759
 -0.04665034 -0.06747346  0.05975734  0.23591841  0.07082885  0.2473515
  0.00826239 -0.11239617  0.0988857   0.01206175 -0.02583028 -0.16252532
  0.06861503  0.18329845 -0.1831628   0.21750621  0.25429655  0.17185597
  0.28716875  0.11395866  0.21094416 -0.08123407  0.12098858  0.10152185
  0.26268787  0.09129595  0.21639224 -0.09876945  0.28072897  0.155796
 -0.19380018  0.18293041  0.07282693  0.18909904 -0.14015221  0.15838263
  0.01502712 -0.06209224  0.09059198  0.09958427 -0.07864055 -0.1812395
 -0.12841145  0.22415865 -0.00668078  0.22259838  0.23366516  0.0159654
 -0.1537286  -0.06412453 -0.07857377  0.24397197  0.20691975 -0.18942167
 -0.19442503  0.08814509 -0.03547548  0.14441623  0.00891189  0.09476994
  0.06449724  0.06787974 -0.19216457  0.13418548  0.24386407  0.26632842
  0.09018291  0.26830248 -0.04659046 -0.0767261   0.27158928 -0.02489419
  0.14657728  0.16587526 -0.16812399 -0.06085775 -0.15280214  0.21746683
  0.07278654  0.09171321  0.07138469  0.09433681  0.01696604  0.03995764
 -0.16562515  0.24274926  0.12131245 -0.07385602  0.14606219 -0.06233046
  0.20662221  0.15925285  0.21126944  0.27351647  0.14228007  0.14338572
  0.1429393   0.26162536 -0.17021503 -0.14457735 -0.0029485  -0.21902222
  0.18941061 -0.13326633  0.27244542  0.13681586  0.21712574 -0.10966256
  0.05112343  0.11240569  0.21250446 -0.10536521 -0.15457869  0.13155943
 -0.11252708  0.10615742 -0.01089752 -0.02140904  0.25350759  0.22755387
  0.16761761  0.20879746 -0.12358426 -0.04148297  0.09063356  0.23736384
  0.08078674  0.05867916  0.12157624  0.12248177 -0.14658488  0.13254169
  0.02161764  0.07002175  0.08047401 -0.13003051  0.28652311 -0.11437458
 -0.15800443 -0.00126475 -0.07360866  0.10204834 -0.14584887  0.22561507]
Node 6: 
[-0.02517724 -0.06285117 -0.07310312 -0.06875876  0.10040974 -0.0413744
  0.02130654 -0.00110204  0.00305943 -0.00212509  0.01603718 -0.0391162
 -0.02468421 -0.03293215  0.01213099 -0.06878428  0.11720207 -0.03150087
 -0.01250878 -0.03285173 -0.03744819 -0.00242149 -0.04315215  0.03128512
  0.06613723 -0.03823517  0.10123853 -0.10394968 -0.07941128 -0.05708058
  0.03821908  0.01038814  0.02354313  0.05249949  0.0435336   0.10848961
  0.00945641  0.0484986  -0.04918823 -0.01967127 -0.0415809   0.04972425
  0.01434813 -0.0014425   0.01384546  0.09195565 -0.03567743  0.07487292
  0.01398783 -0.06712819 -0.03775267 -0.02757166  0.1094812  -0.03434633
  0.06344976 -0.00827338 -0.02559532 -0.02589916  0.01413033 -0.03471423
 -0.02959082  0.01252709 -0.04334957  0.02475014  0.00768479 -0.04268572
 -0.03452319 -0.03061601 -0.07139042  0.03337088  0.02145326  0.01934629
 -0.02338529 -0.09032832 -0.03208477 -0.07379495 -0.01044001  0.0164196
 -0.07073597  0.02437925 -0.03185714  0.01562119 -0.03146188  0.03882006
  0.02882636  0.01471179  0.00135367 -0.01264348  0.05668825 -0.18353743
  0.0605795   0.02662156 -0.03228944  0.00987049 -0.08040828 -0.00134476
 -0.03237421  0.05271177 -0.00032068  0.00274177 -0.00107002  0.07134326
  0.04735674 -0.06673219 -0.0399276  -0.01459889 -0.03611642  0.00881677
 -0.03860033  0.11130626 -0.06369929  0.01917835 -0.03220489 -0.05794162
  0.03623645 -0.078995    0.02030694  0.0059557  -0.00429482 -0.03140985
 -0.08345374 -0.01543521 -0.18043712 -0.00715206 -0.03328537 -0.01574721
  0.02318778 -0.05572521 -0.03035994 -0.02621917  0.00121149 -0.02022114
 -0.02289054 -0.04489995 -0.00064721  0.01538191  0.05103445 -0.0551526
  0.04098063  0.01976902  0.09836101 -0.03227936  0.02293704  0.02711372
 -0.02580071 -0.04101674 -0.08281337 -0.03064042  0.01510679 -0.00932041
  0.00116498 -0.04562956 -0.06927819 -0.03588593 -0.0732461  -0.03049584
 -0.01116439  0.01435415 -0.03773119 -0.06328228  0.1149196  -0.05099029
 -0.04135275 -0.03487842 -0.03333249 -0.04213371 -0.02597748  0.03332428
 -0.03376169 -0.0352871   0.0272985  -0.02479082  0.02726409 -0.06065857
 -0.04038837 -0.03972969  0.06207993 -0.01346857 -0.05273258  0.1148791
 -0.10494679 -0.04020092 -0.07166069 -0.02445712  0.01972528  0.0619844
  0.03762033  0.03095905 -0.04131799 -0.05899856  0.01198419  0.00970959
 -0.06027081  0.00717319 -0.04629609 -0.0368283   0.00052486  0.06101635
 -0.00560695  0.02560757 -0.06605336 -0.0226918   0.03051389 -0.04437929
  0.03526861 -0.02287905  0.01523904  0.05057287  0.02535283  0.01850625
  0.03571196 -0.02575936 -0.01831482 -0.05220517 -0.05893664 -0.023737
 -0.02870424  0.13289771  0.03639324  0.08433359 -0.0934337  -0.00403785
 -0.01765012  0.01289925  0.00168192 -0.00089748 -0.05008109 -0.04002051
  0.08708977  0.01592903  0.0514614   0.0023041   0.02227098  0.06380834
 -0.03686929 -0.03299119 -0.03864836 -0.03461419 -0.04577792 -0.0325426
  0.02772614 -0.00251193  0.10941239  0.02271603 -0.05666552 -0.02779801
  0.00817776  0.08820875 -0.08757896 -0.02322697 -0.03408019 -0.05073906
 -0.05202489 -0.07500014  0.04727696 -0.0164536  -0.17225454  0.0684556
  0.05963429 -0.01446514 -0.06735237  0.09838158 -0.07922354 -0.00784668
 -0.03210246 -0.03387339  0.00775677  0.00967272  0.02081123 -0.05766815
 -0.01969424 -0.03015693 -0.04786545 -0.04693967 -0.09056254 -0.02181913
  0.06436186 -0.03157136  0.01506085 -0.03897408 -0.03467137 -0.08683601
 -0.03019694 -0.02844903 -0.03523683  0.09555906 -0.00521609 -0.04322414
 -0.08509963 -0.02075446 -0.03311896 -0.00398162 -0.01010695 -0.01137295
  0.04057822 -0.05656194 -0.00851803 -0.03876162 -0.01037619  0.02419588]
Node 7: 
[ 0.15441664 -0.03722715 -0.04104605 -0.07063346 -0.12864741 -0.11947776
  0.09535659  0.13045043  0.12362337  0.13834798  0.1208344  -0.11997491
 -0.12733331 -0.12548034  0.11127337 -0.01201148 -0.15731607 -0.13005263
  0.12453297 -0.12897378 -0.10261589 -0.04246525  0.16060879  0.09059402
 -0.11431578 -0.12089359 -0.13217164  0.16697286 -0.00926987 -0.03698845
  0.08615907 -0.06041395  0.09346987 -0.07877029  0.06965396 -0.14920796
  0.10329182  0.08241553 -0.03222518  0.13466685 -0.09599791  0.08886708
 -0.06840863 -0.06759455  0.10919452 -0.12917943 -0.11844711 -0.1134926
  0.09498353 -0.01698514 -0.12118587 -0.13267233 -0.1349859   0.15599727
  0.07318089  0.12677213 -0.03729249  0.15423428  0.10449728 -0.12768297
 -0.10918386  0.09951705 -0.0219918  -0.07873631  0.12323984 -0.11680728
 -0.12935863 -0.12530059  0.15940181 -0.06172069  0.11004153  0.10789264
  0.16268866 -0.01119011  0.14139261 -0.02437242  0.13303228  0.10453746
 -0.03761833  0.09149251 -0.12521588  0.12234179 -0.12715559  0.08550743
 -0.06989258  0.10132789  0.12147221  0.15010423  0.07060703  0.10651594
 -0.09157073  0.09423535 -0.12601355  0.09669994  0.16875867  0.11817564
  0.1575608   0.07991598  0.13886738 -0.05646958  0.13340595 -0.09807852
  0.08003503 -0.01663955 -0.12231413  0.12517288  0.13570377  0.11386859
 -0.12529099 -0.14953329 -0.00598017  0.09891746 -0.13252614 -0.04325634
  0.08344259 -0.01066078  0.09591498  0.10712573  0.12448746  0.13860045
 -0.02184075  0.1428602   0.07336378  0.12516422 -0.12481293 -0.03961439
  0.09407761 -0.0156758  -0.12718318 -0.04772198 -0.0592369   0.13303594
 -0.06921765 -0.10792739 -0.04428576  0.09870608  0.09626274 -0.09294777
  0.08375406  0.11816886 -0.12801817 -0.13152473  0.09548284  0.09723876
 -0.12347265 -0.12631285 -0.00877056 -0.12794292  0.12367646 -0.04645302
  0.1111695  -0.09267706 -0.0412982  -0.07158125 -0.04058926 -0.13057804
  0.14994593  0.11741029 -0.12183793 -0.01698843 -0.14074989 -0.03655978
 -0.11135815  0.16178825 -0.12804286  0.14229853  0.15189428  0.09073502
 -0.12495573 -0.04826324  0.10161896 -0.04890104 -0.08326693 -0.04525847
 -0.04248851 -0.12820579 -0.10132225  0.12162655 -0.09851683 -0.14372686
 -0.00136459 -0.12676763 -0.01488195  0.14582704 -0.07480528 -0.10025006
  0.09080246 -0.05452256 -0.12568137 -0.0566815   0.10446582 -0.07373606
  0.15995882  0.11927823 -0.12123033 -0.12986185  0.11379069  0.07515126
  0.12385274 -0.05765006 -0.08879003 -0.04140698 -0.0762182   0.15326774
  0.08908933  0.13058747  0.11216201 -0.08504509 -0.05588106  0.11705483
  0.08928037 -0.10329611  0.13282183 -0.06982568  0.15297623 -0.1351861
 -0.09636906 -0.17111629  0.09089373 -0.10929723 -0.00322329 -0.06134037
 -0.10914978 -0.0642818   0.12109467  0.12027867 -0.03770829  0.15887018
 -0.10091546 -0.07426508  0.07583772  0.12297826  0.09392431 -0.09248247
 -0.12320554 -0.12898672 -0.09760653 -0.12560427  0.15197848 -0.12792469
  0.09257142 -0.05737548 -0.15091794  0.11452637 -0.08398355  0.12940823
 -0.0458293  -0.13343916 -0.02902853 -0.04392402 -0.08079769 -0.08827207
 -0.06664653 -0.02414085  0.07586574  0.15585285  0.02946876  0.06388264
 -0.08738598  0.138715   -0.02776597 -0.13562848 -0.02170787  0.12203142
 -0.12257641 -0.10944457 -0.0482853   0.09914566  0.09909824 -0.09875247
  0.13729899 -0.1358231   0.1614969   0.15846878 -0.01035183 -0.02545405
 -0.10667911 -0.02630412  0.0979487   0.14236947 -0.12479094 -0.00840679
 -0.12509316 -0.12936498 -0.09504873 -0.13282659  0.13622115 -0.08897107
  0.16947324 -0.09931706 -0.12871001  0.13309304 -0.06696017  0.133704
  0.07902446 -0.09557371  0.12507991 -0.12584931  0.1451769  -0.05635039]
Node 8: 
[ 0.01505662 -0.04056124 -0.01376236 -0.05506837  0.09850397 -0.10688232
  0.01105509  0.02003429  0.06339518  0.02485924  0.02164573 -0.12127444
 -0.11486695 -0.10054244  0.01964184  0.00417631  0.11573481 -0.10978122
  0.00620576 -0.10972977 -0.0734048   0.03279111  0.11432974  0.0150203
  0.08599951 -0.10744165  0.10358029  0.04452333  0.03628789  0.01328966
  0.0293602   0.05497422  0.01575003  0.07709752  0.02108827  0.11225296
  0.01880294  0.03425654  0.0324685   0.05839139 -0.06245579  0.02066551
  0.07225525  0.074458    0.01500312  0.09555379 -0.10684088  0.10377786
  0.0160972  -0.01203755 -0.09336242 -0.10327529  0.10356045  0.12226253
  0.03494573  0.04682546  0.00845087  0.12793522  0.01626825 -0.0849821
 -0.069972    0.0201515   0.05153434  0.06766319  0.02042403 -0.09885047
 -0.11694808 -0.11985182  0.09840234  0.06142077  0.05354955  0.0443186
  0.02378466 -0.00585558  0.06384042 -0.00559283  0.05940353  0.01461278
 -0.01537226  0.01817367 -0.09427961  0.02250759 -0.11392453  0.02803699
  0.07426304  0.02638427  0.06745746  0.02489359  0.02459128 -0.23790272
  0.08727037  0.01630036 -0.10638616  0.01530249  0.11088755  0.02651061
  0.12693645  0.04819256  0.02369287  0.03796363  0.02140262  0.08658504
  0.01992125  0.03195202 -0.10441757  0.02720282  0.03605577  0.05924926
 -0.11496395  0.11015165  0.01766819  0.01632171 -0.11499135 -0.02382473
  0.02216204  0.00815818  0.01775272  0.02305922  0.01140183  0.06564568
  0.00713165  0.01360985 -0.22300022  0.04975103 -0.11504928  0.05299553
  0.02638339  0.03650435 -0.1184509   0.01903699  0.07338143  0.05656019
 -0.01453766 -0.08071348  0.05941024  0.0149349   0.01808111 -0.07606015
  0.01979767  0.01590048  0.10125929 -0.12024618  0.01863522  0.01940098
 -0.13072535 -0.10765265  0.01856734 -0.10017825  0.01874487  0.05440729
  0.0171047  -0.06421976 -0.027533   -0.03344225  0.05101198 -0.11150592
  0.11402757  0.07662463 -0.11988291  0.02428322  0.10001722  0.02780753
 -0.13754504  0.00467879 -0.09441571  0.0629763   0.11849057  0.01553842
 -0.11157937 -0.00222612  0.01473878  0.02417886  0.06850421 -0.02280291
  0.06028024 -0.10413292  0.08219274  0.02342944 -0.07710273  0.10563141
 -0.00511767 -0.11359978  0.0076929   0.01250778  0.08777646  0.06260146
  0.01822505  0.05629638 -0.12114193 -0.0269252   0.01606929  0.01803348
  0.1214922   0.06951916 -0.10872742 -0.11619608  0.03216011  0.03367807
  0.01166109  0.0686205  -0.14991098  0.03516375  0.07019215  0.11064444
  0.02674177  0.0200298   0.0584356   0.0874549   0.0620078   0.0169613
  0.0180448  -0.06379076  0.06851775 -0.04544612  0.05586858 -0.09882967
 -0.05874129  0.11589465  0.01746105  0.09510389  0.01351271  0.06731087
 -0.05953767  0.07820686  0.07308349  0.0409757   0.04808938  0.10572389
  0.09574882  0.0270039   0.03205948  0.06836563  0.01842585  0.08798642
 -0.11007228 -0.10859259 -0.07727773 -0.10637422  0.10571572 -0.12212638
  0.01660479  0.05055436  0.10062239  0.07556815 -0.05070932  0.01495972
  0.04882517  0.08884754 -0.03300029  0.06053702 -0.03358045 -0.05385081
 -0.04186786  0.01223843  0.02873479  0.02527803 -0.20447301  0.02147869
  0.09393052  0.01331053  0.03712795  0.09479958 -0.0148657   0.01077557
 -0.09053747 -0.07387774  0.04080465  0.01732393  0.01998644 -0.0797887
  0.00920679 -0.11175751  0.1153131   0.11459422  0.01975657  0.0562201
  0.06941557  0.03869616  0.01883884  0.0371949  -0.10066522 -0.0066964
 -0.09167151 -0.12216752 -0.05459663  0.10304274  0.02312615 -0.04962071
  0.10441085 -0.04888195 -0.11435285  0.01764663  0.0679816   0.01442817
  0.02563568 -0.14781306  0.04286026 -0.09371684  0.02159858  0.06819719]
Node 9: 
[ 1.71585671e-01  4.47875588e-02  5.70063496e-02  3.11956150e-02
 -1.97910028e-01 -6.88873373e-03  7.27220041e-02  1.15604757e-01
  9.38701000e-02  9.59603349e-02  5.18389437e-02 -6.49156688e-03
 -2.62895920e-02 -1.76617582e-02  8.95651193e-02  7.59566878e-02
 -2.50800298e-01 -1.89767312e-02  1.47112145e-01 -1.78562914e-02
 -1.11824954e-02 -1.19363078e-02  1.17553943e-01  4.27002326e-02
 -1.29490554e-01 -8.50820642e-03 -2.01010077e-01  2.62840073e-01
  9.42349660e-02  4.59229442e-02  4.17943628e-02 -2.65391698e-02
  6.96524829e-02 -7.72413794e-02  2.07073084e-02 -2.24351317e-01
  9.55854162e-02  2.28905776e-02  4.51646562e-02  1.35401840e-01
 -1.16793228e-02  4.67257217e-03 -2.01712455e-02 -1.87347387e-02
  7.97755607e-02 -1.85827255e-01 -1.53390394e-02 -1.18767857e-01
  8.67147093e-02  6.90050391e-02 -6.26898123e-03 -2.38712085e-02
 -2.30524270e-01  1.08381660e-01 -3.91253174e-03  1.18319690e-01
  1.17978412e-02  9.71064488e-02  7.32066846e-02 -1.12755892e-02
 -2.85670265e-02  8.62432999e-02  4.14903974e-02 -4.33770003e-02
  7.98622084e-02 -3.01880407e-03 -8.15401362e-03 -1.85619702e-02
  1.54933099e-01 -4.63220493e-02  6.60779007e-02  6.87987128e-02
  1.60787433e-01  1.02027201e-01  1.52511579e-01  6.95133845e-02
  1.14755003e-01  7.36154590e-02  6.05882257e-02  6.21721230e-02
 -1.85289884e-02  6.14877050e-02 -1.55941546e-02  3.99414657e-02
 -3.91018515e-02  8.41521839e-02  9.67570927e-02  1.19395565e-01
  1.62433462e-03  4.06441353e-01 -9.26628741e-02  6.20050860e-02
 -1.75812587e-02  9.03414500e-02  1.63281525e-01  1.07074815e-01
  1.04420232e-01  1.34103667e-02  1.02321166e-01 -2.42485082e-02
  1.09531491e-01 -1.23224694e-01  2.17647696e-02  7.46737201e-02
 -5.99307829e-03  1.32355600e-01  1.65999216e-01  8.13997231e-02
 -7.56963458e-03 -2.28291043e-01  7.39886687e-02  7.94640017e-02
 -1.62089478e-02  3.65141707e-02  4.57638678e-02  9.24551714e-02
  7.59264020e-02  9.83740889e-02  1.26621489e-01  1.47175125e-01
  8.35716906e-02  1.60458317e-01  3.40797710e-01  1.12818205e-01
 -1.67854870e-02  1.43583713e-02  6.89408696e-02  6.15673435e-02
 -2.08910747e-02  4.10477538e-03 -8.18887244e-03  1.33821288e-01
 -2.20142578e-02 -2.50774988e-03 -5.89300964e-07  8.92371468e-02
 -1.94698594e-02  9.37201779e-03  3.89065476e-02  5.35857008e-02
 -1.91330356e-01 -1.61283190e-02  6.58063507e-02  5.05440424e-02
 -1.99868271e-02 -3.71313969e-03  9.42658945e-02 -1.83816685e-02
  5.89115830e-02  1.93235981e-03  1.11356195e-01 -4.19442260e-03
  5.02617507e-02 -1.27184640e-02  6.80867870e-02 -1.99176920e-02
  8.55011195e-02  7.49159937e-02 -9.29309133e-03  7.51002788e-02
 -2.46195815e-01  4.17112145e-02  4.89910854e-04  2.09856477e-01
 -1.57858052e-02  1.62466518e-01  9.06749578e-02  5.28220396e-02
 -1.71602537e-02  1.13806695e-02  4.42289792e-02  4.37936615e-03
 -4.83938937e-02  3.51094087e-02  3.78993349e-02 -6.62020941e-03
 -9.94269080e-02  1.31550523e-01  2.54264302e-03 -2.52392465e-01
  1.26702805e-01 -6.49779601e-03  7.96142149e-02  1.74656789e-01
 -2.29445822e-02 -1.33123881e-01  2.23121529e-02 -4.27531440e-02
 -1.55698612e-03  2.58988134e-02  9.37611795e-02 -6.39693294e-02
  1.33093538e-01  8.34298469e-02 -5.72633543e-04 -1.12904706e-02
  1.00355890e-01  5.88817663e-03  1.20943373e-01 -3.15034312e-02
  4.41128271e-02  9.19664384e-03 -4.72360359e-02  1.20825428e-01
  4.65324678e-02  1.50198536e-01  7.59976426e-02 -6.73018781e-02
 -3.11893400e-02  4.65727698e-02  3.60306282e-02 -3.16651045e-02
  1.28142727e-01  1.43500421e-02  1.94075831e-01 -2.19274186e-02
 -2.64657214e-02 -2.98335817e-01  3.40325979e-02 -1.50476036e-01
  1.11273074e-01 -5.28503104e-03 -4.31880687e-02 -1.64646201e-02
  9.57125819e-02  1.06797076e-01  4.41036367e-02  1.22867068e-01
 -1.53501528e-01 -5.94137367e-02  1.73367163e-02  9.54901878e-02
  6.70735741e-02 -9.11236902e-02 -6.36488982e-03 -2.16830818e-02
 -1.10759535e-02 -1.34933182e-02  1.25319276e-01 -1.64941495e-02
  6.27715180e-02 -1.94179596e-02 -2.41921702e-01  6.20230761e-02
  1.03469216e-02  1.59440317e-01 -1.89156288e-02 -1.79636244e-01
  8.27170110e-02  1.66013006e-02 -1.53417001e-02  8.44484639e-04
  1.08055694e-02  7.97430877e-02  2.32836628e-02  1.40282194e-01
  2.54644850e-01 -2.72930475e-02 -8.07847559e-02  1.54644737e-01
  6.21346020e-02 -2.03047663e-01  8.11982650e-02  1.35128711e-01
 -1.88402887e-02 -2.26540573e-02 -2.23803182e-02  9.37741903e-02
  7.75920008e-02  1.17916895e-02  1.71763924e-01 -1.57498722e-02
  1.27318759e-01  1.18722374e-01  9.99628396e-02  2.29854975e-02
 -1.35355759e-01  3.01271235e-02  8.55707231e-02  1.73305233e-01
 -1.49765161e-02  9.96898371e-02 -2.24125526e-02 -2.23609912e-02
 -2.43810878e-02 -1.84944185e-01  1.09431322e-01 -8.42258433e-03
  1.72329621e-01 -4.61904536e-02 -1.46606710e-02  1.13010435e-01
 -9.14789032e-04  1.43556152e-01  2.95957164e-02  3.01138834e-02
  1.20995538e-01 -1.01580525e-02  1.39282032e-01 -2.41536648e-02]
Node 10: 
[-1.84025829e-02 -2.16785241e-02 -2.20025604e-02 -6.70155406e-03
  4.14651960e-02  4.75179430e-03 -1.28220366e-02 -1.32317740e-02
 -3.43982286e-02 -4.56953562e-03 -5.63824602e-03 -3.71713302e-03
 -1.69805100e-03  5.00843547e-03 -2.24960580e-02 -3.77616967e-02
  3.71853059e-02  3.73246336e-03 -3.31040247e-02  1.06890961e-02
  7.49677522e-03 -7.94854047e-03 -4.86520857e-02 -1.00209937e-02
  3.19067073e-02 -2.20584840e-03  4.11037378e-02 -9.41213693e-02
 -4.91553886e-02 -2.11740551e-02 -1.53429627e-02 -1.84839798e-04
 -1.69771253e-02  1.32278477e-02 -1.24180571e-02  3.65144566e-02
 -2.53816159e-02 -9.87710485e-03 -3.71255676e-02 -3.59050814e-02
  1.05791023e-02  5.37683862e-03  4.30982496e-03  6.39926656e-03
 -1.06100833e-02  2.55830809e-02  1.55745332e-03  3.52337487e-02
 -2.55400989e-02 -3.67015498e-02  9.53477913e-03  8.64121137e-03
  4.32544288e-02 -4.56584091e-02  2.45155227e-03 -3.65526705e-02
 -2.35136012e-02 -3.95925087e-02 -1.15453693e-02  6.30006648e-03
  8.86216316e-03 -2.49769227e-02 -3.05650190e-02  1.43520643e-02
 -1.27947523e-02  4.35066277e-03  3.21603174e-03  6.41270777e-05
 -7.58652556e-02  1.29353701e-02 -2.62852106e-02 -1.61427785e-02
 -1.96345366e-02 -4.74818251e-02 -4.63975763e-02 -3.88640450e-02
 -3.70011594e-02 -1.43085399e-02 -2.67468405e-02 -1.90266200e-02
  8.07840375e-03 -1.01424006e-02  2.72935322e-03 -6.71781589e-03
  1.25421572e-02 -2.17731867e-02 -3.68374522e-02 -1.10372463e-02
  1.34552059e-03 -5.41289580e-02  2.72622645e-02 -1.55387576e-02
  4.82625112e-03 -2.42267375e-02 -7.72386753e-02 -3.20823289e-02
 -4.45593578e-02 -1.24895207e-02 -1.79513208e-02  3.39757318e-03
 -9.71250967e-03  2.63543019e-02 -4.75616853e-03 -4.20293126e-02
  8.87432034e-03 -3.41605627e-02 -4.87730028e-02 -3.14607605e-02
  5.08993371e-04  3.41126476e-02 -4.93890353e-02 -1.95256702e-02
  1.81391499e-05 -1.69290999e-02 -1.17573328e-02 -4.96346802e-02
 -2.12101206e-02 -2.55915967e-02 -2.45139952e-02 -4.69144604e-02
 -4.92743674e-02 -2.82932250e-02 -5.66481261e-02 -3.45861076e-02
  8.46697877e-04 -1.08586607e-02 -2.04964752e-02 -4.12475572e-02
  1.45042832e-03 -1.94978347e-02 -5.19007489e-04 -4.14174664e-02
  2.06073789e-03  1.01705190e-02 -2.48471535e-03 -1.92792729e-02
  1.37107761e-03  3.36080499e-03 -1.34151050e-02 -9.38984974e-05
  3.92783253e-02 -1.76588030e-03 -1.70774453e-02 -3.91896054e-03
 -3.11981764e-03  1.74967850e-03 -4.71230627e-02  7.86490664e-03
 -3.56731805e-03 -7.74052510e-03 -2.64697758e-02  4.96202995e-03
 -2.21622267e-02  1.12533897e-06 -2.77982168e-02 -8.50338651e-04
 -3.57991304e-02 -3.20533025e-02 -2.09461748e-03 -3.79528999e-02
  4.57494298e-02 -3.38410376e-02 -9.44964348e-03 -3.65077298e-02
  1.52441823e-02 -4.97393724e-02 -4.08081403e-02 -9.72291653e-03
  1.59173788e-03 -1.03493467e-02 -1.05946324e-02 -8.92877472e-03
  5.79281779e-03 -1.56438965e-02 -2.61331604e-02  6.16192293e-03
  3.23054812e-02 -3.73573029e-02  4.81679050e-03  4.59921960e-02
 -6.08212248e-02  6.51904793e-04 -4.13295275e-02 -2.87898884e-02
  1.41108576e-02  2.28201095e-02 -5.88820380e-03  1.00168234e-02
 -2.23495231e-03 -1.07065869e-02 -1.88021352e-02  1.25848519e-02
 -6.78022871e-02 -2.60192273e-02 -2.89001890e-03 -2.92263348e-03
 -3.48597129e-02 -5.01869510e-03 -1.78023766e-02 -1.36681963e-04
 -1.74450881e-02 -1.65756738e-02  1.52977248e-02 -5.70554381e-02
 -1.44915775e-02 -3.51207582e-02 -2.64328361e-02  2.21923523e-02
  4.82974558e-03 -4.75238346e-03 -1.12339539e-02  1.53667692e-02
 -4.21980672e-02 -4.61202973e-03 -6.22093410e-02  8.38470210e-03
  1.11740001e-02  3.56064199e-02 -1.09417343e-02  2.52244955e-02
 -5.82280071e-02 -3.48064202e-03  2.20195308e-02  4.05591136e-03
 -3.10628634e-02 -3.31825792e-02 -2.61695176e-02 -4.81646458e-02
  3.11735865e-02  1.50406843e-02 -3.68201810e-03 -3.18966897e-02
 -1.61688965e-02  2.74784715e-02  2.16388717e-03  3.73567101e-03
  9.01972065e-03  6.05514884e-03 -6.18760454e-02  4.40224578e-03
 -1.76808831e-02 -3.05768739e-03  4.62422271e-02 -2.42496898e-02
  1.58695586e-03 -4.45174270e-02 -1.60526761e-03  4.28117150e-02
 -3.38883692e-02 -1.33158702e-02  5.75277508e-03  4.18580357e-03
 -2.94190255e-03 -3.78865400e-02 -8.04239029e-03 -6.05743388e-03
 -3.64260748e-02  1.27598157e-02  2.34126247e-02 -2.68897019e-02
 -4.33224910e-02  4.15961106e-02 -3.79282621e-02 -2.55579280e-02
  6.86404542e-03  1.35020305e-02 -1.29415962e-03 -2.53404585e-02
 -2.40207355e-02  7.04954465e-03 -2.74269844e-02  5.25801303e-03
 -5.20680798e-02 -5.14660071e-02 -5.85696727e-02 -2.34045687e-02
  2.91061533e-02 -2.02792988e-02 -1.30954690e-02 -4.84595677e-02
  6.47366111e-03 -5.08050011e-02  1.56226840e-02  3.79691421e-03
 -1.11175910e-03  3.89575263e-02 -1.43269363e-02  3.70346258e-03
 -7.96474534e-02  1.31077526e-02  3.03017287e-03 -1.60533621e-02
  2.87577750e-03 -2.44700617e-02 -1.13866993e-02 -1.41386371e-02
 -3.68241123e-02  6.79867326e-03 -2.24502164e-02  7.64457240e-03]
Node 11: 
[-0.23728352 -0.00232195 -0.01090783  0.03463194  0.15969336  0.14671405
 -0.13173816 -0.18956471 -0.21150934 -0.20670323 -0.17951734  0.15370005
  0.17231627  0.15392972 -0.15894183 -0.06858993  0.20797514  0.16097495
 -0.18317446  0.16044744  0.14418705  0.00597847 -0.25789558 -0.10663008
  0.13161176  0.1458766   0.16353697 -0.29372355 -0.09300643 -0.01545705
 -0.11853855  0.02031244 -0.13184645  0.07579491 -0.09025958  0.19923609
 -0.16099618 -0.10802357 -0.02607812 -0.22677343  0.10464371 -0.11722428
  0.0367196   0.04952012 -0.15366826  0.15529934  0.14648339  0.12870679
 -0.12446987 -0.05585854  0.12887154  0.17108145  0.16899656 -0.25604467
 -0.08301173 -0.20777591  0.00124256 -0.24967368 -0.13520976  0.1289511
  0.15605921 -0.14673295 -0.06541155  0.07303227 -0.15667908  0.13989061
  0.14465708  0.17231639 -0.26243486  0.03563014 -0.17646038 -0.16109297
 -0.23733803 -0.08321922 -0.24330585 -0.06337925 -0.22600795 -0.15050686
 -0.01360758 -0.135235    0.14807618 -0.1703981   0.16068643 -0.11503701
  0.05755184 -0.1496957  -0.2096544  -0.22492039 -0.08644363 -0.15085605
  0.09443606 -0.13331623  0.16381841 -0.14074551 -0.27546806 -0.18182151
 -0.25148091 -0.10276021 -0.19940033  0.0352908  -0.1927883   0.11165849
 -0.10476207 -0.06902997  0.15529349 -0.19788486 -0.22345837 -0.18512953
  0.14004189  0.19378159 -0.06823004 -0.14389649  0.1712619   0.00950156
 -0.11205876 -0.06883456 -0.13618437 -0.15663016 -0.17954003 -0.23819124
 -0.05506185 -0.18584275 -0.129086   -0.20744515  0.16246645 -0.00397269
 -0.13828528 -0.06136618  0.16914261  0.01357243  0.01846557 -0.2288733
  0.07308685  0.14469322 -0.00887666 -0.14329934 -0.13116748  0.10771771
 -0.11137858 -0.16976678  0.15896309  0.170843   -0.13518532 -0.13751883
  0.15649021  0.15536997 -0.09839908  0.16325233 -0.18650433  0.00687739
 -0.1679852   0.1107402   0.00407348  0.07480791 -0.02712137  0.17205795
 -0.22983149 -0.20336523  0.141535   -0.06156214  0.17466782 -0.02221355
  0.15170988 -0.23165045  0.16003238 -0.24579729 -0.23515487 -0.12103804
  0.15998911  0.01928769 -0.14682874  0.01692404  0.08016701  0.01272841
 -0.03284781  0.15945923  0.09518678 -0.19397804  0.10881211  0.17928685
 -0.10491038  0.15734774 -0.06782574 -0.21599427  0.03280809  0.11971918
 -0.12586172  0.0188667   0.14586268  0.02871897 -0.14963137  0.08157609
 -0.27088221 -0.20764611  0.12359689  0.17036515 -0.18032354 -0.08908951
 -0.17833183  0.01536606  0.11656031  0.00088658  0.06662219 -0.24956999
 -0.12135482 -0.20419801 -0.18349673  0.06374918  0.03231313 -0.15224571
 -0.10558927  0.14758069 -0.22558014  0.06728625 -0.27601571  0.16603308
  0.1257876   0.21959009 -0.12455947  0.12798531 -0.09304855  0.03520066
  0.16253582  0.02138961 -0.20316897 -0.18904685 -0.03028377 -0.24301057
  0.10850273  0.0826967  -0.09623156 -0.21138616 -0.13251266  0.09843304
  0.15874983  0.16755638  0.1421291   0.15771271 -0.25586097  0.17406173
 -0.1339529   0.01535001  0.18898864 -0.1907269   0.06761461 -0.19453645
 -0.00377524  0.16124443 -0.03461728 -0.00858115  0.09463756  0.09401649
  0.05915645 -0.04845129 -0.09678178 -0.22625332 -0.05107158 -0.05090521
  0.09731933 -0.19829116 -0.04545443  0.16575053 -0.06394947 -0.18175171
  0.15523086  0.14881365  0.00974201 -0.14933434 -0.14162962  0.12578481
 -0.20127126  0.17051867 -0.25271285 -0.25988462 -0.08013404 -0.03139274
  0.12262358 -0.0395819  -0.1364753  -0.23669971  0.15350769 -0.09389562
  0.14877639  0.17527132  0.11694959  0.172519   -0.18506296  0.09942231
 -0.27884217  0.13671127  0.16482615 -0.18625013  0.014814   -0.19423314
 -0.10419651  0.12212677 -0.20269011  0.15198866 -0.20756165  0.02903599]
Node 12: 
[-2.48264281e-02 -6.40782244e-02 -7.56188697e-02 -7.00452011e-02
  9.99391087e-02 -4.13821940e-02  2.28562556e-02  8.02253220e-05
  2.91032540e-03 -1.08905897e-03  1.74970358e-02 -3.84611865e-02
 -2.39237130e-02 -3.29369740e-02  1.34300997e-02 -7.12603336e-02
  1.17315125e-01 -3.11952156e-02 -1.17049232e-02 -3.26174611e-02
 -3.76819035e-02 -4.01971877e-03 -4.40105305e-02  3.30503900e-02
  6.47362862e-02 -3.77765013e-02  1.00831669e-01 -1.06420066e-01
 -8.35944977e-02 -5.98326789e-02  3.97946789e-02  8.23787269e-03
  2.49457694e-02  5.10851222e-02  4.51441241e-02  1.08348967e-01
  1.03264097e-02  5.01596513e-02 -5.22296671e-02 -2.02017753e-02
 -4.22297480e-02  5.19658968e-02  1.18357080e-02 -4.25975198e-03
  1.53779257e-02  9.15605479e-02 -3.52763351e-02  7.35317561e-02
  1.50878185e-02 -6.91539794e-02 -3.79640898e-02 -2.74223924e-02
  1.09512156e-01 -3.56432003e-02  6.55011311e-02 -8.20545452e-03
 -2.71366238e-02 -2.71718227e-02  1.54071901e-02 -3.50521585e-02
 -2.98360160e-02  1.35354522e-02 -4.66052455e-02  2.25652260e-02
  8.95650432e-03 -4.28606970e-02 -3.41319968e-02 -2.98362341e-02
 -7.28896980e-02  3.17570635e-02  2.20145473e-02  2.01965463e-02
 -2.27060208e-02 -9.36603921e-02 -3.30472014e-02 -7.64901947e-02
 -1.07306034e-02  1.79125010e-02 -7.29948914e-02  2.57998800e-02
 -3.19140828e-02  1.71089051e-02 -3.09851840e-02  4.04069630e-02
  2.66557180e-02  1.57446446e-02  9.78633186e-04 -1.18068497e-02
  5.86226430e-02 -1.83907411e-01  5.91115876e-02  2.81757373e-02
 -3.19049634e-02  1.08654238e-02 -8.18999145e-02 -6.60731449e-04
 -3.35426954e-02  5.39419676e-02  8.97920407e-04  9.58458535e-04
  1.68044025e-04  7.03898096e-02  4.94112451e-02 -7.02811681e-02
 -3.98145952e-02 -1.43753979e-02 -3.67535495e-02  8.88777031e-03
 -3.83508751e-02  1.11021663e-01 -6.65703696e-02  2.06379344e-02
 -3.19301281e-02 -5.95226250e-02  3.79170002e-02 -8.21746796e-02
  2.16459290e-02  6.84973581e-03 -3.24100370e-03 -3.24519594e-02
 -8.70136359e-02 -1.46051388e-02 -1.80565870e-01 -7.18966661e-03
 -3.27423337e-02 -1.83928712e-02  2.43640388e-02 -5.90571855e-02
 -2.96835529e-02 -2.83153482e-02 -1.57873348e-03 -2.08374475e-02
 -2.39854759e-02 -4.50919570e-02 -2.96832238e-03  1.67771768e-02
  5.34554540e-02 -5.56300071e-02  4.28310373e-02  2.13933019e-02
  9.80502968e-02 -3.17638196e-02  2.44001160e-02  2.87528966e-02
 -2.45078242e-02 -4.08302436e-02 -8.66470768e-02 -3.05678770e-02
  1.65664363e-02 -1.18937269e-02  2.04315079e-03 -4.62558402e-02
 -7.11143422e-02 -3.68677284e-02 -7.78164934e-02 -3.01127662e-02
 -1.18268371e-02  1.41609986e-02 -3.71185914e-02 -6.63938494e-02
  1.15187862e-01 -5.41292419e-02 -4.00343067e-02 -3.45037850e-02
 -3.35320797e-02 -4.33132146e-02 -2.67598639e-02  3.50541220e-02
 -3.34267290e-02 -3.69172639e-02  2.90302746e-02 -2.69218707e-02
  2.50213478e-02 -6.21179161e-02 -4.39338371e-02 -3.99351394e-02
  6.07640884e-02 -1.31656502e-02 -5.33108844e-02  1.14958855e-01
 -1.08789710e-01 -4.01718208e-02 -7.46839991e-02 -2.39263099e-02
  1.71343353e-02  6.13011503e-02  3.94643151e-02  2.94613655e-02
 -4.09656949e-02 -6.07514688e-02  1.32373451e-02  8.70264506e-03
 -6.18221078e-02  6.86061447e-03 -4.63573897e-02 -3.66597229e-02
  8.35113710e-04  6.31261476e-02 -4.58864235e-03  2.36079155e-02
 -6.49356401e-02 -2.50485348e-02  2.85043757e-02 -4.56275634e-02
  3.68567685e-02 -2.26886106e-02  1.54281466e-02  4.88257361e-02
  2.35359513e-02  1.99888032e-02  3.76183141e-02 -2.59169702e-02
 -1.92743922e-02 -5.33072482e-02 -6.05956171e-02 -2.38416760e-02
 -2.87491145e-02  1.33492301e-01  3.83584196e-02  8.36388709e-02
 -9.74249879e-02 -6.82825794e-03 -1.77852576e-02  1.03315246e-02
  1.21276480e-03 -5.88707274e-04 -5.37387115e-02 -4.10107739e-02
  8.65372813e-02  1.49640444e-02  5.32695649e-02  2.01777289e-03
  2.37214730e-02  6.23797477e-02 -3.65416292e-02 -3.28523205e-02
 -3.86781432e-02 -3.44308650e-02 -4.71779745e-02 -3.17440571e-02
  2.92401311e-02 -4.88256147e-03  1.09285010e-01  2.28547337e-02
 -5.77739107e-02 -2.77388556e-02  6.33583935e-03  8.75605709e-02
 -8.98560513e-02 -2.64737928e-02 -3.50888150e-02 -5.18729094e-02
 -5.30924490e-02 -7.83659704e-02  4.90717135e-02 -1.56477110e-02
 -1.72295674e-01  7.07988917e-02  5.83362668e-02 -1.36153455e-02
 -7.11641597e-02  9.78750049e-02 -8.18113711e-02 -7.06796747e-03
 -3.19576015e-02 -3.42163079e-02  6.05307145e-03  1.07672610e-02
  2.22073172e-02 -5.84315381e-02 -1.90512881e-02 -3.02205085e-02
 -4.90628239e-02 -4.80009367e-02 -9.48720029e-02 -2.46844217e-02
  6.35115551e-02 -3.41866505e-02  1.62968702e-02 -3.96380189e-02
 -3.46475336e-02 -9.00145906e-02 -3.03500760e-02 -2.76660152e-02
 -3.58838869e-02  9.50495797e-02 -4.32764320e-03 -4.42591702e-02
 -8.66288525e-02 -2.10125260e-02 -3.27809978e-02 -3.02326505e-03
 -1.33038880e-02 -1.05664253e-02  4.21680190e-02 -5.54138174e-02
 -8.42011198e-03 -3.89583748e-02 -9.37354427e-03  2.21869339e-02]
Node 13: 
[-2.64018842e-02 -2.07115121e-02  1.44906640e-02 -1.96911257e-02
  1.73853891e-01 -4.55937206e-02 -3.89169981e-02 -4.12962796e-02
  2.26610162e-03 -2.33238385e-02 -1.98441345e-02 -5.96793412e-02
 -4.92970795e-02 -3.81201745e-02 -3.66152295e-02  1.57319675e-02
  1.97472464e-01 -4.39586475e-02 -5.17612369e-02 -4.16413068e-02
 -2.67766297e-02  6.62536780e-02  1.44795832e-02 -3.16618726e-02
  1.53404521e-01 -5.34293065e-02  1.74801752e-01 -6.04987877e-02
  4.69118144e-02  4.12743202e-02 -2.05157451e-02  1.00523012e-01
 -3.15706358e-02  1.29832899e-01 -1.80069159e-02  1.92029743e-01
 -2.94457169e-02 -1.47995201e-02  5.71304589e-02 -1.21530169e-02
 -1.83061451e-02 -2.46312976e-02  1.18836332e-01  1.11591148e-01
 -3.98783173e-02  1.67660624e-01 -5.10766039e-02  1.69181125e-01
 -3.71179389e-02  6.22397332e-03 -3.14285683e-02 -3.56805114e-02
  1.73408060e-01  2.42372140e-02 -1.36775342e-02 -1.98264451e-02
  3.60931901e-02  3.06557786e-02 -3.13564570e-02 -3.48258585e-02
 -1.99554076e-02 -3.46906294e-02  7.40542638e-02  1.21010326e-01
 -2.83141405e-02 -4.11688101e-02 -4.95178191e-02 -5.52322521e-02
 -4.15446722e-03  1.07838929e-01 -5.78994577e-03 -1.53350411e-02
 -2.75774733e-02  8.59076584e-03 -1.02490726e-02  1.75469630e-02
 -1.07974316e-02 -3.78936461e-02  1.13313185e-02 -3.19588918e-02
 -3.55772768e-02 -2.71778479e-02 -4.82712968e-02 -2.40557832e-02
  1.25035735e-01 -3.00948584e-02  6.17283540e-03 -1.84239666e-02
 -1.42847273e-02 -2.29040738e-01  1.44609989e-01 -3.27978668e-02
 -4.51621532e-02 -3.61084050e-02 -3.21114516e-03 -3.69482316e-02
  2.63535154e-02  4.22855049e-03 -3.18998670e-02  7.91184541e-02
 -3.49350953e-02  1.44128357e-01 -2.74965996e-02  4.80433475e-02
 -4.55532970e-02 -3.72862958e-02 -3.13408983e-02 -7.86011767e-05
 -4.92467222e-02  1.95105976e-01  2.74937920e-02 -3.56051098e-02
 -4.53882840e-02 -1.37631908e-03 -2.80146742e-02  2.12307738e-02
 -3.35476727e-02 -3.51455446e-02 -4.74402425e-02 -5.51220595e-03
  2.76454266e-02 -4.91982470e-02 -2.17228871e-01 -1.60215228e-02
 -5.32037386e-02  8.71495748e-02 -2.42371728e-02  5.56120945e-02
 -5.06654900e-02  5.71395149e-02  1.12554969e-01 -1.08919768e-02
  1.76144500e-02 -3.83261891e-02  9.43799892e-02 -4.11968510e-02
 -1.59536200e-02 -3.86678948e-02 -3.00544206e-02 -2.66862452e-02
  1.71527264e-01 -5.11157751e-02 -3.34940666e-02 -3.02085054e-02
 -6.81492030e-02 -4.95870566e-02  3.41876547e-02 -3.74688204e-02
 -1.94480046e-02  9.17859855e-02 -4.02432797e-02 -2.39173543e-02
 -4.68002523e-03 -2.35159718e-03  7.43706113e-02 -4.50060603e-02
  2.55447917e-02  1.60601717e-02 -5.87931074e-02  4.30090585e-02
  1.75771745e-01  5.81048683e-02 -8.15515451e-02 -6.11149322e-02
 -3.27517421e-02 -1.18534875e-02  2.70473136e-02 -3.58192303e-02
 -4.85169000e-02  2.82357643e-02 -3.06711501e-02  6.14748398e-02
  1.24826138e-01 -4.97927939e-03  8.57433749e-02 -3.83842977e-02
  1.43963300e-01 -3.76451694e-02 -3.30694437e-02  1.86133447e-01
  3.26150551e-03 -4.52349099e-02  2.59393164e-02 -5.07161607e-02
  1.27666433e-01  1.23813705e-01 -2.48425232e-02  1.00899146e-01
 -5.37791354e-02  5.46328930e-03 -3.74493029e-02  5.94147515e-02
  1.52774922e-02  9.56899397e-03 -5.13295612e-02 -4.45182006e-02
 -2.09290395e-02 -1.55905005e-02 -4.58404340e-02  1.12479900e-01
 -1.02080991e-01  7.10709592e-02  1.21294879e-01  1.67010144e-02
 -2.45177864e-02 -4.55271576e-02  2.63756195e-03  1.42387507e-01
  1.05339240e-01 -1.82481147e-02 -3.39319275e-02 -1.84325375e-02
  2.88368552e-03 -1.26811619e-02 -2.44361319e-02 -3.33300183e-02
 -2.65824139e-02  2.00949117e-01 -3.30113889e-02  1.59164808e-01
  2.11769444e-02  1.06343231e-01 -1.22230889e-02  1.17638580e-01
  1.22479674e-02 -2.11190541e-02  7.73686099e-02  1.04870813e-02
  1.51766467e-01  6.77039186e-02 -1.39895184e-02  4.27733324e-03
 -3.37501020e-02  1.49345632e-01 -4.74586241e-02 -4.36455228e-02
 -3.61235620e-02 -4.14564509e-02  1.15898703e-02 -5.69865796e-02
 -3.11109319e-02  9.40848220e-02  1.79923797e-01  1.37508954e-02
 -1.50048891e-02 -4.58455139e-02  8.72086550e-02  1.65471752e-01
 -1.12071258e-02  9.70881569e-02  2.42161948e-03 -1.00001672e-02
 -1.12780796e-02  3.37543137e-02 -1.74464681e-02 -2.50145342e-02
 -1.93577416e-01 -1.25658031e-02  1.43313122e-01 -5.26900475e-02
  5.76750766e-02  1.72488535e-01  6.51638867e-03 -4.24871388e-02
 -3.99002539e-02 -2.11135884e-02  8.17454508e-02 -3.70840387e-02
 -3.49556290e-02 -3.01858347e-02 -5.52509907e-02 -4.03479916e-02
  1.40581006e-02  1.57980988e-02  3.30290968e-02  8.51560414e-02
  1.30967325e-01  6.63094391e-02 -3.57682177e-02 -3.35903139e-02
 -3.78326034e-02  6.07724226e-03 -3.49175686e-02 -5.32302171e-02
 -1.17182213e-02  1.77844525e-01 -2.14656729e-02 -4.74564375e-03
 -1.04204206e-02 -8.86409681e-03 -4.63175386e-02 -2.98017414e-02
  1.12601674e-01 -4.15954104e-02 -1.78232934e-02 -9.68187552e-02
 -2.16625973e-02 -3.93818080e-02 -4.23636486e-02  1.09332679e-01]
Node 14: 
[-0.14274048 -0.10153367 -0.09822667 -0.12624919  0.23248334 -0.14859282
 -0.0271608  -0.08289105  0.01640486 -0.08908885 -0.05076856 -0.15808544
 -0.13642975 -0.13607185 -0.04731923 -0.10182259  0.28341069 -0.13820061
 -0.09451131 -0.13969678 -0.10895362  0.00603088 -0.02119862 -0.01713856
  0.16260589 -0.15113841  0.23173719 -0.19419494 -0.09995292 -0.06481516
  0.01812425  0.04444018 -0.01555052  0.1147477   0.01761989  0.26369201
 -0.02234885  0.04185489 -0.04809885 -0.02295811 -0.10845646  0.00957066
  0.06439156  0.04862418 -0.05105645  0.21075103 -0.14302756  0.18790735
 -0.02255198 -0.1015032  -0.13494201 -0.13038146  0.24915803  0.00268826
  0.05529464 -0.01612062 -0.03263143  0.02227011 -0.04619432 -0.13155645
 -0.1005233  -0.01556943 -0.03764301  0.07979443 -0.06466628 -0.14362244
 -0.14787779 -0.1468043  -0.0890488   0.07001958  0.03100437  0.02111337
 -0.14178756 -0.13522817 -0.03891667 -0.10296699 -0.00754248 -0.04306486
 -0.09682452 -0.0185602  -0.1237995  -0.05237564 -0.14259768  0.02242476
  0.08012731 -0.01000655  0.01563135 -0.1157607   0.03816732 -0.49651807
  0.13984349 -0.02040499 -0.13825166 -0.02434392 -0.09793974 -0.0263255
  0.01170061  0.06317308 -0.08301929  0.02117859 -0.08587669  0.15720067
  0.0082233  -0.08041122 -0.14728081 -0.04182249 -0.06901976  0.01733362
 -0.15258014  0.26725838 -0.08878058 -0.02994294 -0.14521123 -0.08397235
  0.0122393  -0.11529835 -0.01797446 -0.02053395 -0.08230703 -0.03570083
 -0.11067782 -0.11196223 -0.46249806 -0.01106771 -0.14527019  0.00540652
 -0.0088289  -0.06474775 -0.14138809 -0.02418217  0.04525086 -0.02538037
 -0.03625834 -0.13829348  0.02787581 -0.02916095  0.01678515 -0.13984462
  0.01011431 -0.04290909  0.2272211  -0.14975323 -0.02071436 -0.02446001
 -0.14620977 -0.15646141 -0.11407863 -0.13030841 -0.05455452  0.01610169
 -0.0383496  -0.1138545  -0.10220904 -0.0682688  -0.05951119 -0.14168831
  0.03429596  0.04154037 -0.15390614 -0.07812101  0.26176668 -0.0490301
 -0.16778653 -0.15171454 -0.13060325 -0.05341196  0.01032258  0.00439767
 -0.14333359 -0.04401685 -0.02594131 -0.01659174  0.08500122 -0.09311582
 -0.01660344 -0.14526143  0.14577805 -0.04487657 -0.13572996  0.26476996
 -0.16194571 -0.1520852  -0.09702129 -0.12510612  0.08094093  0.13427389
 -0.00889179  0.06267741 -0.1598979  -0.08854433 -0.04049234  0.02354036
 -0.04939073  0.02550791 -0.15692296 -0.1488011  -0.01175769  0.04935172
 -0.08708158  0.06684976 -0.20107711 -0.01070587  0.0835058  -0.02775186
  0.01454441 -0.06083531  0.02852394  0.12025079  0.05669556 -0.04613795
 -0.01130474 -0.08714197 -0.01336266 -0.0992684  -0.09063348 -0.11601818
 -0.09106362  0.31681866 -0.008372    0.19388786 -0.1386881   0.0383988
 -0.07570463  0.06016042  0.0205644  -0.0111053  -0.03752135 -0.02141827
  0.1883038   0.03775836  0.03480453  0.0182875  -0.02422534  0.14749902
 -0.14610038 -0.14045762 -0.11250295 -0.13946477 -0.03282316 -0.14925886
 -0.01404534  0.02637763  0.2543875   0.05185589 -0.11667597 -0.07149658
  0.02806793  0.2066286  -0.13172988  0.0059769  -0.06653172 -0.1098689
 -0.09664083 -0.09556983  0.02542005 -0.12561348 -0.38833606  0.04566428
  0.13662144 -0.10625715 -0.0696213   0.22875095 -0.11444074 -0.08540657
 -0.1278329  -0.10940199  0.02431212 -0.04591291 -0.0203382  -0.14345171
 -0.10921286 -0.13845852 -0.03066216 -0.03024297 -0.12530526 -0.00664403
  0.13994136 -0.02576081 -0.02239035 -0.0693491  -0.13473678 -0.13222948
 -0.12325752 -0.14252474 -0.09476098  0.22789485 -0.09569456 -0.09344698
 -0.1128669  -0.06845615 -0.14470669 -0.09312183  0.03785622 -0.10143674
  0.01339735 -0.18816887 -0.0202128  -0.14065718 -0.10000964  0.06199769]
Node 15: 
[-2.29419435e-01 -6.83244856e-02 -5.92008241e-02 -9.68481808e-02
  1.87240225e-01 -1.14303801e-01 -7.80406838e-02 -1.66605031e-01
 -2.97434527e-02 -1.93553800e-01 -1.60386613e-01 -1.36965368e-01
 -1.08136938e-01 -1.02274143e-01 -1.18099717e-01 -7.58913285e-02
  2.43214895e-01 -1.03745142e-01 -1.50893636e-01 -1.02642713e-01
 -7.63861510e-02  1.00250510e-02 -1.13468994e-01 -9.44968412e-02
  1.43831192e-01 -1.16430186e-01  1.93776548e-01 -2.51340535e-01
 -7.30869153e-02 -2.95699888e-02 -3.53364601e-02  4.81414350e-02
 -6.72274140e-02  9.61081812e-02 -4.19167920e-02  2.21625480e-01
 -6.52931044e-02 -8.29836605e-03 -2.00355698e-02 -6.93086620e-02
 -7.55321653e-02 -8.60766090e-02  6.75165359e-02  6.12134260e-02
 -1.34438688e-01  1.79279509e-01 -1.09962638e-01  1.57778863e-01
 -6.39674913e-02 -6.66127875e-02 -9.83103224e-02 -9.40849226e-02
  2.03948591e-01 -8.35000537e-02 -2.06833480e-03 -6.12656945e-02
 -1.69451750e-02 -6.18523582e-02 -1.25214226e-01 -9.19395810e-02
 -6.94823948e-02 -5.66669121e-02 -2.89995710e-02  8.15481334e-02
 -1.58763401e-01 -1.10536382e-01 -1.16189447e-01 -1.21614895e-01
 -1.91733432e-01  5.93829716e-02 -1.77953745e-02 -2.62296424e-02
 -2.40582753e-01 -1.00267626e-01 -8.45360283e-02 -6.76277080e-02
 -5.56790540e-02 -1.16269241e-01 -6.25408098e-02 -7.39567001e-02
 -9.04664299e-02 -1.56854515e-01 -1.07926012e-01 -2.38760117e-02
  6.32883500e-02 -5.29469992e-02 -3.33937386e-02 -2.26748200e-01
 -2.43205004e-02 -4.40438779e-01  1.17914669e-01 -8.47226575e-02
 -1.05160874e-01 -6.27530505e-02 -2.06801077e-01 -6.51701838e-02
 -7.57418736e-02  1.55267095e-02 -1.82070885e-01  2.49086749e-02
 -1.81937566e-01  1.25626799e-01 -6.83478030e-02 -5.51927943e-02
 -1.14935404e-01 -8.12528940e-02 -1.10145237e-01 -3.09986122e-02
 -1.19265725e-01  2.16718854e-01 -6.48211937e-02 -9.10294299e-02
 -1.10542467e-01 -4.83783203e-02 -3.43696132e-02 -7.76228816e-02
 -6.39633141e-02 -5.94682842e-02 -1.43801227e-01 -8.39834811e-02
 -7.08638254e-02 -1.84545121e-01 -4.14178710e-01 -5.73909744e-02
 -1.16681525e-01  8.62372172e-03 -5.90719533e-02 -4.46635724e-02
 -1.15725914e-01 -4.49980404e-03  4.94326444e-02 -7.48818284e-02
 -9.75395067e-03 -1.01999957e-01  3.44767124e-02 -7.46130098e-02
 -1.03333327e-01 -1.10284750e-01 -4.76952061e-02 -1.47122798e-01
  1.77898775e-01 -1.19163734e-01 -7.92997015e-02 -1.05379147e-01
 -1.30487998e-01 -1.23559018e-01 -8.25182318e-02 -9.48418961e-02
 -1.66379752e-01  2.15203276e-02 -7.88275417e-02 -8.35679000e-02
 -5.87472420e-02 -4.58229714e-02 -2.36660334e-02 -1.08484416e-01
 -3.98604509e-02 -1.19095489e-02 -1.28405886e-01 -4.93070487e-02
  2.16525883e-01 -2.08396516e-02 -1.58448642e-01 -2.13021837e-01
 -8.85060070e-02 -1.00852933e-01 -7.77665252e-02 -3.94864083e-02
 -1.11275307e-01 -1.94572513e-02 -1.15801772e-01  2.92184698e-03
  7.53131480e-02 -6.17862602e-02 -3.41668053e-03 -1.06689462e-01
  1.26188219e-01 -8.21532856e-02 -9.90303237e-02  2.24110891e-01
 -1.16260164e-01 -1.19148921e-01 -6.49357946e-02 -1.89518681e-01
  8.57421449e-02  1.10964514e-01 -9.03940868e-02  5.24519884e-02
 -1.29512644e-01 -5.46111951e-02 -9.45487081e-02  3.14283872e-02
 -1.50327177e-01 -2.60885062e-02 -1.20785728e-01 -1.13117084e-01
 -5.53110399e-02 -8.95340917e-03 -1.56999126e-01  6.01574959e-02
 -1.95742431e-01 -1.85887032e-04  6.90109721e-02 -1.15311950e-01
 -3.51132573e-02 -9.93256293e-02 -2.22065560e-02  1.08331298e-01
  5.14515174e-02 -1.53935268e-01 -8.92596907e-02 -5.64905065e-02
 -6.12447085e-02 -6.61227438e-02 -1.37532681e-01 -7.85081300e-02
 -6.47110151e-02  2.76621747e-01 -8.91101085e-02  1.48566764e-01
 -1.03487051e-01  3.94682188e-02 -4.65622931e-02  6.47051651e-02
 -3.08526454e-02 -5.63187707e-02 -1.32630288e-02 -1.10062232e-01
  1.41797162e-01  4.10988701e-02 -2.22645297e-02 -3.12126153e-02
 -8.61055211e-02  1.22268606e-01 -1.15669129e-01 -1.06887366e-01
 -8.94410943e-02 -1.04557654e-01 -1.19485118e-01 -1.27186505e-01
 -7.04302643e-02  3.49453624e-02  2.18124467e-01 -2.05957192e-03
 -8.43310420e-02 -1.09209975e-01  2.69279773e-02  1.77956047e-01
 -8.97960725e-02  1.60147978e-02 -3.87750062e-02 -7.77101636e-02
 -7.04804727e-02 -5.73889752e-02 -3.03819846e-02 -2.31204453e-01
 -3.47722340e-01 -3.38286800e-02  1.04897658e-01 -1.74213166e-01
 -3.92330642e-02  1.92706540e-01 -7.65395998e-02 -1.44778719e-01
 -9.90424233e-02 -7.27182966e-02  1.48571058e-02 -1.01566991e-01
 -7.37209897e-02 -1.01461872e-01 -1.66133595e-01 -1.00651289e-01
 -1.22829859e-01 -1.27898914e-01 -8.99483824e-02 -5.40660271e-03
  1.18377353e-01 -1.55006211e-02 -6.64387066e-02 -1.09827590e-01
 -1.00243178e-01 -9.41185413e-02 -8.53115897e-02 -1.17837891e-01
 -6.50228445e-02  1.86679157e-01 -1.94549994e-01 -6.20416167e-02
 -2.22129434e-01 -4.22749950e-02 -1.11740850e-01 -1.84165828e-01
  5.39787769e-02 -1.71797389e-01 -3.94495659e-02 -1.82312358e-01
 -6.54085234e-02 -1.06374472e-01 -1.86972827e-01  5.59966242e-02]
Node 16: 
[ 0.06749668  0.04731294  0.0252332   0.0881788  -0.10594396  0.12667637
  0.01460014  0.0444566  -0.06849577  0.04691261  0.024501    0.1351533
  0.11785997  0.10953441  0.02612851 -0.00811846 -0.1176911   0.12792806
  0.04842795  0.12731798  0.11418151 -0.04357608 -0.05673482  0.02877584
 -0.07106797  0.13218497 -0.09900472  0.00367708 -0.02677346 -0.00928991
 -0.01638851 -0.05762414  0.0010626  -0.07617818 -0.00666618 -0.10186497
 -0.00793633 -0.02193639 -0.03365906 -0.04867316  0.08601371 -0.00141836
 -0.0605261  -0.05052661  0.03146527 -0.09003411  0.12733363 -0.08112396
  0.00526554  0.01215518  0.1234422   0.11891673 -0.10846466 -0.07454524
 -0.02950604 -0.04526743 -0.01672049 -0.08034465  0.02917866  0.11313745
  0.10685246 -0.00987933 -0.0600401  -0.05947946  0.03782274  0.12289152
  0.12878075  0.13131552 -0.04148249 -0.07355968 -0.06077905 -0.03671729
  0.07081428  0.00980645 -0.04764695 -0.0025301  -0.05493373  0.02556628
  0.0195918   0.00443294  0.1157342   0.03112096  0.12800775 -0.02097613
 -0.07813227 -0.00933561 -0.06979656  0.05842185 -0.01877443  0.32000111
 -0.09333061  0.00740879  0.12478953 -0.00154978 -0.03814075 -0.02076646
 -0.07307532 -0.05477646  0.04167552 -0.0407707   0.06339341 -0.08886694
  0.00387558 -0.0311177   0.12110328 -0.01877211 -0.02374375 -0.05773029
  0.12888218 -0.10439046 -0.01540401  0.01491979  0.12816994  0.03188545
  0.00333399 -0.00455734  0.00394622 -0.00587105  0.0413676  -0.05353204
 -0.01685042  0.05881616  0.29629045 -0.04561955  0.12682163 -0.05933323
 -0.01092131 -0.04330411  0.12730239 -0.02634008 -0.06183964 -0.04489197
  0.02369053  0.12742423 -0.05818029  0.00827722 -0.00634999  0.1106245
 -0.00426963  0.02204071 -0.10100045  0.12894857  0.00461349  0.01920683
  0.1354528   0.13203689 -0.01331447  0.12018781  0.03155417 -0.05504151
  0.00318947  0.09360982  0.03895491  0.05144323 -0.02643134  0.12734428
 -0.08157934 -0.07907241  0.13479445 -0.02695815 -0.11066307 -0.02670949
  0.14924896  0.07742872  0.11984057 -0.03913386 -0.07637658 -0.00846962
  0.12348128  0.00230636  0.02187042 -0.02683264 -0.05811656  0.03621661
 -0.04355749  0.12632273 -0.0714727  -0.0160461   0.11934981 -0.12344897
  0.01271963  0.13160158 -0.01011933  0.06157404 -0.05839838 -0.07883866
  0.01617399 -0.07857575  0.13224839  0.0394282   0.01838114 -0.0287436
 -0.06237153 -0.0722671   0.12691557  0.13213831 -0.03875553 -0.01811307
  0.04941497 -0.06939857  0.16742699 -0.03946268 -0.07744208 -0.0654973
 -0.00805451 -0.0106107  -0.06547615 -0.07704636 -0.07874539  0.02508008
  0.01427623  0.09999198 -0.06295367  0.07146068 -0.0352388   0.11078159
  0.09054898 -0.13637067  0.00952328 -0.09014083 -0.00235844 -0.06695898
  0.09463136 -0.07700545 -0.07113555 -0.0403421  -0.0487036  -0.06277075
 -0.10038025 -0.02727804 -0.01878261 -0.06785895  0.01502006 -0.0919665
  0.12911119  0.12449205  0.11898643  0.1266868  -0.06550213  0.12755248
  0.00254667 -0.04995065 -0.10076919 -0.08089992  0.09076308 -0.00840851
 -0.05842096 -0.08187965  0.03112474 -0.06041     0.06129128  0.08936256
  0.06533098 -0.00593015 -0.01086987  0.06959469  0.26823914 -0.01119782
 -0.07856521  0.05311747 -0.02898898 -0.10422741  0.0165789   0.04946654
  0.12168498  0.11036679 -0.0623446   0.0215699   0.00113172  0.12312535
  0.0567832   0.11003179 -0.05544756 -0.06154956 -0.02478322 -0.06751132
 -0.07409778 -0.05184641  0.00265135 -0.02337763  0.1255965   0.01064513
  0.11393686  0.12288014  0.08481307 -0.09421392  0.05279309  0.06494263
 -0.03193088  0.0832066   0.12351463  0.05009012 -0.06437823  0.05130115
 -0.00283003  0.16198746 -0.03952122  0.12390331  0.05118949 -0.06778626]
Node 17: 
[ 0.2356829   0.09862451  0.09212485  0.12179685 -0.22946344  0.10148963
  0.07534875  0.15529372  0.05394111  0.17210105  0.11839925  0.09702793
  0.05833845  0.07082775  0.1102456   0.1031429  -0.30578671  0.08424031
  0.16853207  0.08625301  0.08805145  0.00476267  0.13389961  0.05999771
 -0.16141932  0.09463131 -0.23099647  0.30045741  0.1045133   0.07201024
  0.02681969 -0.02468066  0.0590934  -0.0888178   0.01747921 -0.26611614
  0.0785471  -0.01016331  0.06256461  0.10439958  0.08394401  0.02630364
 -0.03371691 -0.01402066  0.1076966  -0.21397231  0.08194241 -0.1584769
  0.07154229  0.10655235  0.10120259  0.07422125 -0.2670915   0.11710401
 -0.03305884  0.09710014  0.0216276   0.10608026  0.11778548  0.08195272
  0.07095482  0.06586827  0.04063709 -0.04880772  0.13295611  0.10071291
  0.08720052  0.08077704  0.21032887 -0.05684403  0.02226472  0.0380974
  0.24961798  0.13917931  0.13358523  0.1012896   0.08112896  0.09769689
  0.09024886  0.06176482  0.07607377  0.11722272  0.07034171  0.01216927
 -0.05075959  0.05938371  0.06119891  0.21476806 -0.01450592  0.60935511
 -0.11254017  0.06570962  0.08107768  0.07617367  0.22800681  0.08632022
  0.1155324  -0.02957939  0.16530419 -0.00867816  0.15593638 -0.13586346
  0.02615055  0.08710018  0.10115465  0.11183049  0.15304911  0.04888342
  0.09705554 -0.28803686  0.09686198  0.08690445  0.0874603   0.08502592
  0.02451207  0.11640215  0.06325834  0.0886173   0.15172122  0.12529147
  0.11941438  0.19450394  0.54536335  0.08269504  0.08320024  0.01708438
  0.0535752   0.07776682  0.07888909  0.02766966 -0.014371    0.10436214
  0.01962851  0.11048956  0.00149526  0.08658105  0.02332043  0.11908878
  0.02912538  0.10262871 -0.22543378  0.08714284  0.06759015  0.0750551
  0.07145754  0.10432238  0.11418768  0.0809651   0.11398067 -0.00814391
  0.09590564  0.09077438  0.09666493  0.03641644  0.07464314  0.08054598
  0.07228     0.02867382  0.09379305  0.0884412  -0.29541123  0.05773466
  0.09616166  0.2393348   0.08722072  0.14529525  0.09950579  0.04999
  0.08299421  0.03479848  0.07772081  0.01281785 -0.05891256  0.08836817
  0.0328761   0.10317327 -0.1255411   0.11218425  0.11909156 -0.28028993
  0.16573426  0.1014039   0.09963476  0.20892007 -0.04843894 -0.13406738
  0.0546529  -0.04040669  0.10293065  0.08743575  0.09468932 -0.03414136
  0.17476595  0.04592438  0.1088127   0.10063758  0.08061663 -0.02493159
  0.16291905 -0.03320675  0.14499709  0.02405136 -0.05615377  0.14286406
  0.02258796  0.13140015  0.03462528 -0.08490507 -0.02845202  0.10954447
  0.05409579  0.05587561  0.09724368  0.08731027  0.18491131  0.06239685
  0.05975113 -0.35663539  0.0531517  -0.17841871  0.14451648 -0.0089465
  0.04195163 -0.02202953  0.0565379   0.07661437  0.05092612  0.13500383
 -0.18339252 -0.04119663  0.000939    0.05667371  0.07293547 -0.11457721
  0.0927884   0.08412378  0.086666    0.08860221  0.14484214  0.08661252
  0.05891657 -0.01429054 -0.27534297  0.01002669  0.10338666  0.14413515
 -0.00826748 -0.22714163  0.13922647  0.0160884   0.05126639  0.09530126
  0.07933396  0.0988899   0.0044994   0.22513253  0.421742   -0.02176352
 -0.10589866  0.18591539  0.07920574 -0.23338758  0.11467363  0.15734335
  0.08091094  0.0853057  -0.01500159  0.10209839  0.06672508  0.13061862
  0.18781501  0.08488537  0.15047389  0.14655544  0.12806786  0.02800416
 -0.15396235  0.04167499  0.08140481  0.15187447  0.08561703  0.13638986
  0.07357275  0.07783339  0.06768696 -0.22800079  0.17631996  0.06534213
  0.24379178  0.03428094  0.08659691  0.17171773 -0.019948    0.17998313
  0.0225223   0.13236401  0.0936474   0.09911037  0.19416093 -0.03352312]
Node 18: 
[-0.02674969 -0.06229898 -0.07239156 -0.06730252  0.10040504 -0.03731255
  0.02003876 -0.00264351  0.00024739 -0.00364791  0.01463061 -0.03502497
 -0.0203432  -0.02897424  0.0107742  -0.06846572  0.11742449 -0.02713784
 -0.01387484 -0.02832505 -0.03474393 -0.00235596 -0.04716532  0.03016993
  0.06642824 -0.03414838  0.10122893 -0.10602931 -0.0790914  -0.05669091
  0.03673788  0.01043369  0.02210772  0.05250563  0.04252896  0.10868825
  0.00780046  0.04687982 -0.04900055 -0.02240834 -0.03929934  0.04837571
  0.0143963  -0.00130324  0.0124512   0.09219113 -0.03189475  0.07497821
  0.01258803 -0.06673923 -0.03381699 -0.02314575  0.10952887 -0.03859733
  0.06197176 -0.01079293 -0.02543222 -0.03032584  0.01298693 -0.03076704
 -0.02676027  0.01092961 -0.04329193  0.02488561  0.00635531 -0.03893608
 -0.03002255 -0.0261544  -0.07439939  0.03335465  0.01893948  0.01712709
 -0.02504431 -0.08971218 -0.03500249 -0.07333373 -0.01340798  0.01513186
 -0.0701447   0.02305162 -0.02787148  0.01418615 -0.02712435  0.03727042
  0.02884383  0.01301426 -0.00130984 -0.01421352  0.05537456 -0.18162908
  0.06061203  0.02527924 -0.02796463  0.00847577 -0.08357304 -0.00346662
 -0.0367373   0.05100864 -0.00186618  0.00287515 -0.00254809  0.07141573
  0.0461087  -0.06645414 -0.03573108 -0.01677708 -0.03836712  0.006324
 -0.03416739  0.11139916 -0.06346666  0.01778028 -0.02750376 -0.05739806
  0.03489789 -0.07863555  0.01885678  0.00421511 -0.00573186 -0.03413541
 -0.08289909 -0.01700751 -0.17837512 -0.00970985 -0.0291023  -0.0157462
  0.02166905 -0.05553531 -0.02580668 -0.02597939  0.00123212 -0.02286869
 -0.02214851 -0.04164236 -0.00068174  0.01394035  0.04971164 -0.05270274
  0.03957717  0.01835356  0.09846465 -0.02766107  0.02151488  0.02587095
 -0.02174733 -0.03659533 -0.08234373 -0.026503    0.01362926 -0.00931601
 -0.00057186 -0.04351653 -0.0686186  -0.03488153 -0.07269586 -0.02589974
 -0.01541996  0.01147695 -0.03356617 -0.06302249  0.11491591 -0.05076144
 -0.03744754 -0.03664051 -0.02912161 -0.04473467 -0.03005088  0.03179562
 -0.02965047 -0.03495623  0.02603347 -0.02454373  0.02740713 -0.06004524
 -0.04019666 -0.03513006  0.06222235 -0.01551371 -0.05006334  0.11489823
 -0.10428737 -0.03567749 -0.07125088 -0.02609929  0.01978633  0.06222204
  0.03644208  0.03089982 -0.03677891 -0.05817981  0.01058044  0.01011181
 -0.06383319  0.00434736 -0.04225217 -0.03206192 -0.00160862  0.05949858
 -0.00696062  0.02554052 -0.06281964 -0.02256554  0.03059859 -0.04805103
  0.03369899 -0.02501736  0.01272311  0.05060995  0.02530796  0.01718141
  0.03450789 -0.0233317  -0.02124158 -0.05097522 -0.06173075 -0.0195942
 -0.02654658  0.13311749  0.03512623  0.08427219 -0.09298198 -0.00393833
 -0.01502882  0.01290197 -0.00103748 -0.00330107 -0.04981628 -0.04388893
  0.0869605   0.01626512  0.05003182 -0.00045486  0.02100482  0.06382501
 -0.0325798  -0.02850188 -0.03613146 -0.03033352 -0.04929449 -0.02799072
  0.02634784 -0.00241447  0.10967738  0.01990962 -0.0548249  -0.02977054
  0.00816267  0.08850497 -0.08688766 -0.02321215 -0.03273991 -0.04875971
 -0.05091948 -0.07454181  0.04601724 -0.01810612 -0.17099964  0.06740072
  0.05965225 -0.01605295 -0.06693918  0.09852383 -0.07873805 -0.00922839
 -0.02828704 -0.03094109  0.00780096  0.00842545  0.0192141  -0.05483587
 -0.02138459 -0.02544478 -0.05169473 -0.05076471 -0.09009447 -0.02188965
  0.06462438 -0.03151777  0.01357728 -0.04151387 -0.03050162 -0.08640708
 -0.02625451 -0.02384887 -0.03323837  0.09571889 -0.00665033 -0.04143932
 -0.08816036 -0.01872616 -0.02863112 -0.00539828 -0.00993762 -0.01280704
  0.03933506 -0.05326942 -0.01092898 -0.03461222 -0.01201222  0.02412901]
Node 19: 
[ 1.16491079e-01  1.14518923e-01  8.45377321e-02  1.67495694e-01
 -2.71755045e-01  2.38611186e-01  8.65952610e-03  8.33156247e-02
 -1.24541828e-01  8.69783277e-02  5.86423288e-02  2.66540619e-01
  2.45387572e-01  2.22205774e-01  3.91466592e-02  6.27251746e-02
 -3.04796341e-01  2.38220915e-01  8.04897190e-02  2.44042055e-01
  1.91110994e-01 -5.13586463e-02 -1.30041150e-01  1.44968056e-02
 -2.02614531e-01  2.54322577e-01 -2.73962069e-01  5.97873435e-02
  6.57131721e-03  1.83515044e-02 -6.03991684e-02 -1.00460833e-01
 -1.53921064e-02 -1.66226035e-01 -5.29229255e-02 -2.89970474e-01
 -2.73993264e-02 -9.81240015e-02 -1.68032114e-02 -7.96321788e-02
  1.67337425e-01 -1.08893630e-02 -1.23772126e-01 -1.04894690e-01
  5.05690905e-02 -2.53868852e-01  2.37171929e-01 -2.29316611e-01
 -2.05722153e-02  7.72813594e-02  2.23084716e-01  2.30035513e-01
 -2.88083672e-01 -1.57606790e-01 -1.01241247e-01 -7.49878788e-02
  1.89933419e-03 -1.72828697e-01  4.51935000e-02  2.08579450e-01
  1.78812317e-01 -3.59131323e-02 -4.17114822e-02 -1.32584996e-01
  7.35668234e-02  2.30585631e-01  2.51259059e-01  2.63026704e-01
 -6.72568610e-02 -1.24674148e-01 -1.21815773e-01 -9.66267396e-02
  1.25894279e-01  8.90776176e-02 -7.73291303e-02  6.85411313e-02
 -9.93167579e-02  3.77788513e-02  7.93756007e-02 -1.23996709e-02
  2.11678328e-01  6.22088947e-02  2.43894393e-01 -7.45133559e-02
 -1.40157336e-01 -4.36243826e-02 -1.24419801e-01  1.04986549e-01
 -7.64810391e-02  5.48891597e-01 -1.89488582e-01  2.53237061e-04
  2.44651691e-01 -1.79266905e-02 -7.29071594e-02 -3.96101747e-02
 -1.59539761e-01 -1.35834692e-01  8.99397445e-02 -7.13487562e-02
  8.97907659e-02 -2.04716943e-01 -2.27532433e-02  2.15630046e-03
  2.47271065e-01 -2.61988305e-02 -1.81062231e-02 -1.15631279e-01
  2.52371102e-01 -2.99689804e-01  3.38808912e-02  8.52515330e-03
  2.50124876e-01  8.39186661e-02 -5.13298445e-02  5.95048167e-02
 -1.62592984e-02 -3.27295909e-02  7.28614735e-02 -8.22388824e-02
  5.34504800e-02  1.08908685e-01  5.19741799e-01 -8.11888939e-02
  2.46786309e-01 -7.64528108e-02 -3.98981704e-02 -1.39389562e-02
  2.57548656e-01 -2.07573153e-02 -1.12676059e-01 -8.15998758e-02
  3.30708338e-02  2.29820711e-01 -9.51637194e-02 -3.07500768e-03
  6.22080236e-03  2.10557521e-01 -4.44227567e-02  5.08285083e-02
 -2.69911372e-01  2.57625973e-01 -8.63501979e-03  2.07998984e-02
  2.62619931e-01  2.52682644e-01  3.95350002e-02  2.23810754e-01
  6.16958446e-02 -8.20256561e-02 -6.65920585e-03  1.72956287e-01
  1.00047682e-01  8.54042511e-02 -2.92473853e-02  2.47210646e-01
 -1.70679086e-01 -1.54675507e-01  2.57322269e-01  1.19789611e-02
 -2.99662037e-01 -1.29219900e-02  2.97936840e-01  1.35392634e-01
  2.17059882e-01 -5.95203873e-02 -1.52600969e-01 -4.56343347e-02
  2.40497528e-01  2.74882483e-02  2.88442003e-02 -2.81617401e-02
 -1.36674182e-01  1.00453974e-01 -6.27818844e-02  2.41049212e-01
 -1.90353659e-01 -2.25842652e-02  2.09656872e-01 -2.93951557e-01
  1.01587739e-01  2.53972147e-01  4.57791407e-02  1.09325729e-01
 -1.43408594e-01 -1.76536768e-01  9.45809965e-03 -1.17964863e-01
  2.64499405e-01  9.48403944e-02  1.72368196e-02 -5.19835883e-02
 -1.18711763e-01 -1.37396352e-01  2.43312596e-01  2.53323600e-01
 -6.67502913e-02 -9.53118926e-02  8.51383792e-02 -1.26771604e-01
  3.29289910e-01 -4.42238248e-02 -1.34816935e-01 -1.23098089e-01
 -6.18978985e-02 -5.52100793e-03 -1.26989991e-01 -1.73938463e-01
 -1.19621760e-01  5.46556447e-02  4.50139595e-03  1.54244406e-01
 -1.05449101e-01  1.29762479e-01 -3.61473712e-02  2.02106090e-01
  1.60505245e-01 -3.33676294e-01  4.41755487e-03 -2.38034814e-01
  6.15188317e-02 -1.01104200e-01  1.44369104e-01 -1.25737185e-01
 -1.27435465e-01 -7.30479944e-02 -4.37127082e-02 -1.21843051e-01
 -2.37834638e-01 -6.97962801e-02 -7.98952191e-02 -1.24858861e-01
  4.05572822e-03 -1.96737338e-01  2.52343178e-01  2.41782053e-01
  1.96173418e-01  2.38338596e-01 -1.17983199e-01  2.68003120e-01
 -1.44425965e-02 -8.33551022e-02 -2.84278803e-01 -1.57977634e-01
  1.62066738e-01  2.60998122e-03 -8.41378665e-02 -2.42404090e-01
  1.27814844e-01 -8.94943115e-02  9.49863715e-02  1.56954511e-01
  1.24421582e-01  3.70714555e-02 -6.38655432e-02  1.13408759e-01
  4.73340469e-01 -5.78144017e-02 -1.84546386e-01  9.77113957e-02
 -9.81391913e-03 -2.66404133e-01  8.47419676e-02  7.06555802e-02
  2.17970887e-01  1.86897974e-01 -7.47589081e-02  2.07930256e-02
 -1.57320201e-02  2.20770037e-01  9.55001617e-02  2.33459151e-01
 -1.18831014e-01 -1.21910122e-01  4.04389274e-02 -7.50842140e-02
 -1.85073463e-01 -3.72176405e-02 -1.46658439e-02 -2.44324622e-02
  2.33361033e-01  8.58741361e-02  2.07227125e-01  2.59803471e-01
  1.42161209e-01 -2.63391017e-01  8.90457917e-02  1.36073978e-01
 -5.62232951e-02  1.24263124e-01  2.47208503e-01  8.89367083e-02
 -1.03473662e-01  9.25972683e-02 -4.98166194e-02  3.13812391e-01
 -6.49572149e-02  2.25972679e-01  1.00311891e-01 -1.21281934e-01]
Node 20: 
[ 0.02363536  0.17476376  0.19653247  0.20300319 -0.08731398  0.18260764
 -0.07491968 -0.03430436 -0.0806668  -0.01971182 -0.054539    0.1640577
  0.13863275  0.15350512 -0.06128062  0.18776413 -0.12892705  0.16519308
 -0.01404572  0.17057832  0.16148816  0.10023282  0.00055174 -0.08560775
  0.01135242  0.16872537 -0.09077587  0.14859529  0.20654987  0.17453052
 -0.11937483  0.10154199 -0.09615997  0.04237905 -0.12532933 -0.11335595
 -0.07129678 -0.14295365  0.16623428 -0.03240281  0.16688118 -0.12966607
  0.10659551  0.12515658 -0.06396905 -0.0742246   0.15366308  0.00385272
 -0.08051068  0.18237741  0.18143972  0.16282918 -0.12610616 -0.00855093
 -0.17121389 -0.06029306  0.12651701 -0.02117876 -0.05564036  0.17336156
  0.1508186  -0.07991164  0.15931515  0.09410143 -0.03022449  0.18245476
  0.17063459  0.15799343  0.08367439  0.06143836 -0.11050565 -0.11400541
  0.01963148  0.22091995 -0.01047759  0.19519217 -0.06239297 -0.06254097
  0.19047449 -0.08910971  0.16498848 -0.05438211  0.15909961 -0.1317814
  0.07648819 -0.09233964 -0.07015308  0.00217325 -0.15305687  0.379647
  0.03052014 -0.09070599  0.16563757 -0.07386197  0.0964234  -0.06983501
 -0.01110567 -0.15556026 -0.02236639  0.10115874 -0.0236568  -0.01652326
 -0.12890328  0.18453433  0.17785066 -0.03811359  0.01434128 -0.08419529
  0.17710622 -0.10751275  0.17906194 -0.08407172  0.17227321  0.16926944
 -0.12257613  0.20424059 -0.0860399  -0.0732681  -0.02293267 -0.00444425
  0.20839738  0.00536418  0.36302387 -0.05660273  0.15981636  0.12323695
 -0.09668174  0.16956434  0.15865584  0.13454353  0.12234275 -0.02106169
  0.11681588  0.18001812  0.11460801 -0.08544629 -0.12751582  0.17801973
 -0.12887873 -0.06856571 -0.09859591  0.16265418 -0.09125515 -0.08642504
  0.12201321  0.18272352  0.19718587  0.16442592 -0.0531066   0.12519528
 -0.05966605  0.1601505   0.18926779  0.13246039  0.20499557  0.16563428
 -0.05744315 -0.0988027   0.16520259  0.183459   -0.15723742  0.15435916
  0.14696252  0.0255208   0.16881344  0.0211972  -0.02628483 -0.1215122
  0.16144063  0.13424769 -0.08606144  0.13500459  0.0895586   0.17362287
  0.16183895  0.19043297  0.01232893 -0.04019031  0.19313301 -0.13808282
  0.24333003  0.17540971  0.18978137  0.00767143  0.10985501 -0.02890708
 -0.10298958  0.06630827  0.18075501  0.16377413 -0.05680028  0.05573908
  0.05381967 -0.08268572  0.18612416  0.18312924 -0.06873931 -0.1642426
 -0.02334405  0.08652942  0.17403401  0.1335926   0.08064029  0.01976801
 -0.11310278 -0.02478095 -0.09922033  0.05317582  0.08546129 -0.05912043
 -0.10497475  0.12477507 -0.02976158  0.16997913  0.04039512  0.15139167
  0.11963507 -0.16919416 -0.1070545  -0.05092408  0.21764801  0.12602874
  0.12439112  0.11460729 -0.06532266 -0.07360006  0.1658944   0.00073898
 -0.06622779  0.04772423 -0.14884547 -0.07433039 -0.08881133  0.02917088
  0.17137519  0.17243982  0.1564619   0.1690347   0.02912797  0.16299127
 -0.08730653  0.11655724 -0.12728456 -0.11016606  0.18941695 -0.00852461
  0.09783887 -0.07087789  0.20767013  0.141377    0.14425777  0.17234744
  0.16843949  0.20038135 -0.13796423  0.0082685   0.29415686 -0.15806125
  0.02058127 -0.01062281  0.1903584  -0.08566417  0.20238066 -0.01528108
  0.14588137  0.15448875  0.0814472  -0.04866057 -0.09300989  0.20583428
 -0.00746658  0.17394987  0.01993968  0.01411066  0.22311752  0.13462131
 -0.02720234  0.13902905 -0.08598194  0.01189333  0.17377779  0.21627061
  0.16048566  0.15717369  0.14760848 -0.07727541 -0.00444937  0.16380448
  0.10630863  0.11661855  0.16780257 -0.01654466  0.14028478 -0.00716361
 -0.1210462   0.15942235 -0.05653416  0.16970474 -0.01307296  0.08143161]
Node 21: 
[ 8.74802103e-03 -2.26258390e-02 -2.24678065e-02 -5.12344886e-03
  7.24231128e-02  1.32741750e-02  6.96045012e-03 -1.74015029e-03
 -3.33508230e-03 -2.09589540e-03 -9.65304635e-03  1.13334868e-02
  1.67155699e-02  1.08107112e-02  6.38707231e-03 -4.04995426e-02
  7.85836238e-02  1.55288739e-02  4.10270909e-03  1.31134808e-02
  1.53154882e-02 -5.32765739e-03 -3.99607777e-03  4.01226959e-03
  6.07934174e-02  1.21879525e-02  7.75248382e-02 -3.24366418e-02
 -5.00544042e-02 -2.06456637e-02  1.29112901e-02  6.90349812e-03
  1.07435492e-02  3.78481931e-02  2.03666527e-02  9.13349479e-02
  8.02681670e-03  1.79108755e-02 -2.26024581e-02 -5.07269068e-03
  4.43060015e-03  2.52884152e-03  2.18419834e-02  1.92098829e-02
  8.18239953e-03  7.15692594e-02  1.19658240e-02  6.37978897e-02
  9.84010780e-03 -3.66317299e-02  1.68842432e-02  1.48746530e-02
  7.21711542e-02 -7.02435822e-03  1.83879298e-02 -8.39395442e-04
 -1.80836751e-02 -4.77840783e-03  4.44592503e-03  1.11224721e-02
  1.81266386e-02  9.91141619e-03 -2.69685830e-02  2.94780756e-02
 -2.74276605e-03  1.12097040e-02  1.33596707e-02  1.50692525e-02
 -1.20191529e-02  1.18748062e-02  7.31525799e-03  1.42111519e-02
  8.71020336e-03 -5.43164914e-02 -1.06062364e-02 -3.48370071e-02
  5.52093819e-03  3.44129344e-03 -2.62012852e-02  1.08553847e-02
  1.33775180e-02 -7.47984205e-03  1.15790102e-02  2.35672288e-02
  2.90638132e-02  8.79763737e-03 -1.16407096e-03  3.60718442e-04
  2.48454339e-02  1.36483489e-02  3.62412876e-02  9.47008431e-03
  1.64302449e-02  1.43201724e-02 -8.29489110e-03  7.86982837e-03
 -1.64670511e-03  1.78809712e-02 -9.34412200e-04  5.90389791e-03
  4.33785304e-03  5.73222555e-02  2.07633389e-02 -4.03769389e-02
  1.37923458e-02  3.78761186e-04 -1.17041945e-02 -3.54035340e-04
  7.61369113e-03  8.31474363e-02 -3.94286014e-02  1.63244430e-02
  1.49614541e-02 -1.91474738e-02  1.63868941e-02 -4.01173589e-02
  1.16704428e-02  6.14889732e-03  4.35629581e-03 -1.25893782e-02
 -3.76247849e-02  2.24725331e-03  1.19573357e-05  3.02791750e-04
  1.16450041e-02 -7.28728619e-03  1.04047516e-02 -3.51882528e-02
  1.48494007e-02 -1.75683104e-02  1.30957237e-02 -7.45181175e-03
  3.94827712e-03  1.54511291e-02 -9.35828354e-03  8.97615964e-03
 -7.61378605e-03  1.19192405e-02  1.60069578e-02 -7.28741568e-03
  7.68292942e-02  1.31213002e-02  9.92447390e-03  6.48282114e-03
  1.51165231e-02  1.03440362e-02 -5.10654182e-02  1.46555270e-02
 -1.16261546e-02 -7.83008526e-03  5.96736337e-03  7.35292708e-03
 -1.75790604e-02  1.69163641e-03 -2.72695320e-02  1.37815240e-02
 -3.71616131e-04  5.71231498e-03  1.03707468e-02 -3.67354296e-02
  7.87528729e-02 -1.91631424e-02  1.26631892e-02  4.05293649e-03
  1.58105333e-02 -1.53596783e-02 -1.90436998e-03  2.48257002e-02
  9.80921069e-03 -1.11879278e-02  8.99526346e-04 -7.20432563e-03
  3.44650826e-02 -1.73921127e-02 -9.97703188e-03  1.63795184e-02
  6.10445766e-02  2.68739066e-03  1.07321034e-02  7.53665510e-02
 -5.95127214e-02  1.51895720e-02 -4.04225341e-02  1.19298794e-02
  2.74082340e-02  5.44290441e-02  7.01252115e-04  5.89054592e-03
  1.21342958e-02 -9.67391087e-03  6.98792744e-03  1.41716110e-02
 -1.52757814e-02  4.12541278e-04  7.60390670e-03  1.77391722e-02
  3.72271838e-03  1.98210997e-02  1.80222725e-03  1.52905861e-02
  1.04971935e-02 -9.11691153e-03  3.12649949e-02 -1.17565347e-02
  1.53680698e-02 -3.25711975e-03  3.47802457e-03  4.22454477e-02
  1.51249047e-02 -9.30056300e-03  8.57636863e-03  1.07925583e-02
 -7.44033260e-03 -1.69715037e-03 -2.07782032e-02  1.37132634e-02
  8.25609269e-03  8.17070400e-02  6.73474283e-03  7.11299441e-02
 -5.35202389e-02  1.38599918e-02  2.27770095e-02  1.93765843e-02
 -2.93320943e-03  1.58373364e-03 -1.75626746e-02 -6.14668028e-03
  6.39145904e-02  2.26690506e-02  1.86305296e-02 -2.58340911e-03
  8.81072273e-03  5.38213595e-02  1.30779231e-02  8.77516813e-03
  1.36484652e-02  8.20262778e-03 -1.40648055e-02  1.61339881e-02
  9.63427159e-03  7.68260849e-03  7.54352934e-02  8.94247356e-04
  3.02368181e-03 -5.59531397e-03 -7.57780293e-04  7.85813755e-02
 -2.90074384e-02 -1.48912361e-02 -3.93798844e-03 -3.30300085e-03
 -6.52604340e-03 -3.21282535e-02  1.68281284e-02  1.53374506e-03
  5.87094278e-03  1.44224361e-02  5.07160411e-02  1.42662766e-03
 -2.71448992e-02  7.25596040e-02 -3.76076199e-02  5.19011009e-03
  1.29482731e-02  1.81387318e-02 -3.72280484e-03  1.41051579e-02
  1.61765650e-02  1.47444548e-02  3.53067022e-03  1.62448796e-02
 -5.88376834e-03 -5.59775815e-03 -4.25971327e-02 -1.86571006e-02
  5.78788508e-02 -2.43460394e-02  9.04557018e-03 -9.91409328e-03
  1.53324831e-02 -4.25431345e-02  1.14658954e-02  1.38484569e-02
  1.24503059e-02  8.14778326e-02  6.26223780e-04  5.92820933e-03
 -6.44115935e-03  3.71374491e-03  1.48714493e-02  2.49820916e-03
  5.45708997e-04  1.09842214e-02  1.44289371e-02  1.11341287e-02
 -2.96295171e-03  1.06266987e-02  3.27003907e-04  1.44644131e-02]
Node 22: 
[-0.01221798 -0.00616937  0.01434478 -0.00701254  0.01977627 -0.04462164
 -0.02087502 -0.02269966  0.01005398 -0.02312603 -0.02866235 -0.06540762
 -0.05744166 -0.04705518 -0.0219847   0.02580151 -0.00981949 -0.04968106
 -0.00923514 -0.04562723 -0.02280916  0.03158694  0.02610021 -0.0266438
  0.02999689 -0.05673747  0.01631119  0.02093375  0.04585333  0.03633697
 -0.01554994  0.04621612 -0.0123254   0.04475907 -0.0218949   0.00503152
 -0.00203997 -0.00974459  0.04583774  0.01473371 -0.01801115 -0.0332639
  0.05826358  0.05748225 -0.01751224  0.01492182 -0.05266791  0.04150493
 -0.0121093   0.01995294 -0.02961817 -0.04126603  0.00710071  0.03118223
 -0.02353762  0.00542163  0.01886876  0.03440928 -0.02210964 -0.04390801
 -0.02293007 -0.00901589  0.05012438  0.05278896 -0.02506615 -0.04366013
 -0.0570373  -0.06117375  0.01606828  0.04136329 -0.00324313 -0.00342077
 -0.02307616  0.02899334  0.01923934  0.02103322  0.00895743 -0.02105115
  0.01865594 -0.01789783 -0.03639784 -0.03068354 -0.05410994 -0.01591146
  0.05453421 -0.00598627  0.01239667 -0.02465686 -0.02482941 -0.07430727
  0.04468187 -0.02350613 -0.04682556 -0.00539546  0.0158465  -0.00488162
  0.03491645 -0.00860683 -0.0290918   0.03786718 -0.02322254  0.02944243
 -0.03049689  0.0457456  -0.04343267  0.0036526   0.01507893  0.00585813
 -0.0511123   0.01709466  0.03563658 -0.01757022 -0.04644262 -0.00304883
 -0.01710862  0.03172746 -0.01549287 -0.00013476 -0.01598697  0.02262429
  0.02583739 -0.02001899 -0.08186053  0.00717445 -0.05551195  0.0556076
 -0.00907517  0.04783943 -0.05647706  0.03375326  0.05546914  0.01615226
 -0.00377012 -0.03062612  0.0503933  -0.01432271 -0.0367632  -0.02942028
 -0.01860828 -0.02832677  0.02024909 -0.05579601 -0.01861381 -0.02491198
 -0.07341791 -0.05094149  0.04543233 -0.03574248 -0.02857871  0.04760816
 -0.00593496 -0.02066227  0.00361964 -0.01201698  0.05788126 -0.04961304
  0.0324262   0.01248335 -0.05794765  0.04243032  0.00167758  0.04119294
 -0.08050642 -0.01116192 -0.0354017   0.02543825  0.03158931 -0.01869978
 -0.05082944  0.01390159 -0.02166815  0.03508043  0.05004042  0.00251561
  0.05540911 -0.04177749  0.03974152  0.00483254 -0.02124595  0.00432958
  0.02412957 -0.04599714  0.03107432 -0.00887094  0.05988042  0.01709157
 -0.02502146  0.04331084 -0.05200364  0.00957776 -0.01547993  0.00982666
  0.02633098  0.01159648 -0.04520095 -0.04440406  0.00321331 -0.02361919
 -0.01157134  0.05269255 -0.08973251  0.04320729  0.05046752  0.02734144
 -0.01512417  0.0020532   0.0063672   0.04956511  0.04197924 -0.02792778
 -0.03189762 -0.02417647  0.01978089 -0.01207076  0.02481724 -0.0394443
 -0.02849213 -0.01301414 -0.03089831  0.0252522   0.03763345  0.05133454
 -0.02278439  0.05059159  0.01696259  0.00149183  0.05357937  0.02572889
  0.02127388  0.01205779 -0.01997563  0.01277555 -0.01893386  0.04626819
 -0.0548858  -0.05334597 -0.03013739 -0.04261531  0.02406827 -0.06192499
 -0.02173141  0.0430094  -0.00231254  0.00745065 -0.01075662  0.00261506
  0.03739812  0.01892862  0.01125191  0.05761289 -0.00935786 -0.00967607
 -0.009431    0.04075421 -0.01669123 -0.02491187 -0.09587367 -0.03287713
  0.03830859 -0.01807956  0.05051027  0.01715771  0.02288043 -0.01084306
 -0.04917982 -0.02272653  0.03308586 -0.01472837 -0.01780912 -0.01988802
 -0.00943374 -0.04555406  0.02722074  0.0283147   0.04123099  0.05469891
  0.01882726  0.04756151 -0.01161544  0.01283437 -0.04045586  0.02140633
 -0.0357428  -0.06001335 -0.01584612  0.0092879  -0.01738667 -0.00965912
  0.0113925  -0.02310994 -0.05024249 -0.02289644  0.0594184  -0.01703652
 -0.01909971 -0.08709911  0.00700596 -0.0394079  -0.02254391  0.05069396]
Node 23: 
[-9.55671197e-02 -2.14459177e-01 -2.25832602e-01 -2.60463606e-01
  2.25480185e-01 -2.84934987e-01  7.56439998e-02 -1.37494810e-02
  1.40615198e-01 -4.39842558e-02 -3.79845388e-03 -2.93303943e-01
 -2.68101782e-01 -2.59883790e-01  3.54870916e-02 -2.25827529e-01
  2.98006375e-01 -2.78010552e-01 -2.34554522e-02 -2.81856692e-01
 -2.33630371e-01 -8.57458403e-02  8.08692626e-02  6.38979834e-02
  1.13617160e-01 -2.90949284e-01  2.36864592e-01 -1.52918062e-01
 -2.14939087e-01 -1.83476210e-01  1.36029730e-01 -4.66503664e-02
  9.48360907e-02  5.41542726e-02  1.32733200e-01  2.75023827e-01
  8.35948025e-02  1.75339061e-01 -1.54803673e-01  8.24019283e-02
 -2.29874348e-01  9.17130473e-02 -2.55025986e-02 -4.06133548e-02
  2.46309062e-02  2.08759019e-01 -2.77813524e-01  1.43766664e-01
  8.47275759e-02 -2.14940071e-01 -2.61057979e-01 -2.66311294e-01
  2.64593041e-01  1.16741591e-01  1.95788505e-01  1.00444039e-01
 -1.33076522e-01  1.43043512e-01  2.34757625e-02 -2.67151291e-01
 -2.18157807e-01  9.75258813e-02 -1.48412464e-01 -5.40710718e-03
 -9.46808737e-03 -2.79253689e-01 -2.85551246e-01 -2.86204384e-01
 -1.73575344e-02 -2.96400904e-03  1.62474289e-01  1.47762759e-01
 -8.85377696e-02 -2.64505044e-01  6.61547398e-02 -2.28422926e-01
  1.09651985e-01  4.16696766e-02 -2.21188875e-01  9.06091158e-02
 -2.60013761e-01  3.40317256e-04 -2.80138569e-01  1.49043678e-01
 -3.34831596e-03  1.05520411e-01  1.33988167e-01 -7.77899099e-02
  1.63630091e-01 -5.51362105e-01  8.49603799e-02  8.26381011e-02
 -2.81088284e-01  8.08281241e-02 -2.62168257e-02  9.27476726e-02
  1.14956156e-01  1.96443042e-01 -2.50204762e-02 -6.33738208e-02
 -3.08725059e-02  1.25917057e-01  1.11972747e-01 -1.93272099e-01
 -2.86408432e-01  5.77522527e-02  1.64684150e-02  1.37606262e-01
 -2.91332855e-01  2.71485498e-01 -1.99843223e-01  7.43838178e-02
 -2.86681119e-01 -1.96808194e-01  1.37704973e-01 -2.37762414e-01
  9.14328236e-02  9.22806125e-02 -1.01701990e-02  6.66436143e-02
 -2.37000397e-01 -4.83837312e-02 -5.12921613e-01  1.04463665e-01
 -2.84772360e-01 -8.74368662e-02  1.05927494e-01 -1.75378471e-01
 -2.84832910e-01 -1.28932298e-01 -4.54062442e-02  8.49999855e-02
 -1.28691257e-01 -2.66559163e-01 -6.15419095e-02  8.51490842e-02
  6.82827236e-02 -2.64119798e-01  1.31401182e-01  1.15958801e-02
  2.28181038e-01 -2.88575964e-01  8.65745420e-02  5.70759094e-02
 -2.81073626e-01 -2.93725519e-01 -2.35975953e-01 -2.58008324e-01
 -7.59596683e-03 -8.18527244e-02  6.73112596e-02 -2.37428672e-01
 -2.18751983e-01 -1.72022226e-01 -1.70300935e-01 -2.80802507e-01
  1.60608926e-01  1.71932040e-01 -2.85755571e-01 -1.92779884e-01
  2.80738650e-01 -1.61134015e-01 -3.04672455e-01 -9.13100826e-02
 -2.62077533e-01  3.60993883e-02  1.18058098e-01  1.32774971e-01
 -2.76784226e-01 -1.51108009e-01  4.43013044e-02 -1.23389804e-01
 -9.59669418e-04 -2.12435990e-01 -1.20130434e-01 -2.84358210e-01
  9.74327228e-02  5.65955833e-02 -2.64592836e-01  2.79627190e-01
 -2.88788274e-01 -2.90052234e-01 -2.21663196e-01 -6.36754668e-02
  1.80016067e-03  1.07081792e-01  6.82737217e-02 -1.23960490e-02
 -3.00556855e-01 -2.09797831e-01  5.83150258e-02 -4.44023804e-02
  4.30126732e-02  1.51394247e-01 -2.93307448e-01 -2.90062555e-01
  9.94602571e-02  1.85595519e-01 -2.08586114e-02 -1.47673906e-02
 -3.30360423e-01 -1.16733269e-01  3.44982121e-03  6.44659634e-02
  1.42477296e-01  2.98670404e-02  1.54204995e-01  6.15981816e-02
 -1.95785167e-02  6.99171227e-03  8.19482100e-02 -2.01539432e-01
  9.87126466e-02 -2.13681259e-01 -3.59390034e-03 -2.50176610e-01
 -2.03368716e-01  3.31552295e-01  8.42255772e-02  1.81853834e-01
 -2.58927635e-01 -6.15078118e-02 -1.93716548e-01 -2.35061243e-02
  1.38429003e-01  1.09275517e-01 -1.46186248e-01  8.41779395e-02
  1.77528342e-01 -2.60304439e-02  1.64691180e-01  1.37898833e-01
  7.24695072e-02  9.48515598e-02 -2.89306112e-01 -2.79853888e-01
 -2.20766893e-01 -2.76669118e-01  6.55981561e-02 -2.92240424e-01
  8.79903622e-02 -7.22946085e-02  2.53438043e-01  1.84806368e-01
 -2.47653389e-01  1.81769763e-02 -6.26802697e-02  1.89369601e-01
 -2.57959121e-01 -9.73798228e-02 -1.79162904e-01 -2.40243794e-01
 -2.06883893e-01 -2.15229672e-01  1.49333742e-01 -8.09535049e-02
 -4.47292207e-01  1.48856651e-01  9.05598265e-02 -3.61914038e-02
 -1.78932333e-01  2.15645003e-01 -2.40870801e-01 -1.66880494e-02
 -2.62464223e-01 -2.38233743e-01 -6.54721978e-02  4.13458423e-02
  8.80757936e-02 -2.75054183e-01 -3.79778662e-02 -2.63557621e-01
  6.55020320e-02  6.19366388e-02 -2.39141471e-01 -1.01678028e-01
  1.07067743e-01 -1.31868328e-01  8.92433165e-02  2.55174872e-02
 -2.63106945e-01 -2.59180747e-01 -2.44015971e-01 -2.80722918e-01
 -2.08924005e-01  2.24035281e-01 -5.16899932e-02 -2.19553088e-01
 -4.92726248e-02 -1.77267225e-01 -2.77612161e-01 -3.97682243e-02
 -6.68768807e-02 -3.91441865e-02  1.24412942e-01 -3.06583306e-01
  9.37645993e-02 -2.80350252e-01 -3.49860350e-02 -1.80239059e-02]
Node 24: 
[ 0.02356177 -0.06253087 -0.06962447 -0.07785675  0.06053373 -0.07820884
  0.04241449  0.03524187  0.0444774   0.03680689  0.04562097 -0.07782053
 -0.06926766 -0.07182819  0.03955941 -0.05684541  0.06374904 -0.0737083
  0.0229444  -0.07596731 -0.06577517 -0.00557267  0.03085856  0.04833474
  0.03595393 -0.07689955  0.06065484 -0.02487475 -0.05944794 -0.0520149
  0.05536976  0.00400045  0.04536759  0.03483919  0.05427253  0.06002722
  0.03746816  0.06309093 -0.04188824  0.02929436 -0.06482518  0.06431356
  0.00667409 -0.00719257  0.0411217   0.05308212 -0.07265398  0.04492069
  0.03761137 -0.05774963 -0.07379399 -0.07145979  0.06589799  0.03667362
  0.07198707  0.0350808  -0.02610255  0.04267319  0.03834562 -0.07211341
 -0.06091477  0.038367   -0.03210189  0.01220202  0.03844536 -0.07705954
 -0.07671412 -0.07441294  0.0065862   0.02286682  0.05356881  0.04915125
  0.02677823 -0.07424504  0.02264286 -0.06447641  0.0372841   0.04080647
 -0.06705535  0.04507521 -0.07113253  0.0452294  -0.07379173  0.05564137
  0.01862354  0.04108046  0.04238752  0.03185855  0.06587285 -0.11813331
  0.03902644  0.04766941 -0.07439126  0.03448894  0.00494246  0.03504296
  0.03858541  0.06662704  0.03699952 -0.00417754  0.03544397  0.0448651
  0.06003903 -0.05157724 -0.07869963  0.02657338  0.01448585  0.0451459
 -0.07885189  0.06233161 -0.04874886  0.04299423 -0.07644486 -0.05883159
  0.05188012 -0.06379809  0.04319446  0.03583283  0.02994755  0.02203203
 -0.07055887  0.02571905 -0.12651115  0.03544465 -0.07395684 -0.0131613
  0.0457607  -0.04199311 -0.07458314 -0.02780028 -0.00207226  0.02879996
 -0.03629562 -0.07546328 -0.0011391   0.03949915  0.06634271 -0.07653708
  0.05652373  0.04745515  0.0596085  -0.07599272  0.04525832  0.04779789
 -0.0684249  -0.08057208 -0.06426484 -0.07141598  0.04616066 -0.00918304
  0.03307276 -0.06649822 -0.06858459 -0.04914861 -0.06260906 -0.07467249
  0.0499113   0.05223744 -0.07703434 -0.05023055  0.06872417 -0.04470484
 -0.07859053  0.01515408 -0.0734092   0.01472269  0.04063328  0.05207665
 -0.0736674  -0.03860412  0.04895207 -0.02708502  0.0130331  -0.06216649
 -0.03428446 -0.08051091  0.03716495  0.02653993 -0.07597394  0.06717462
 -0.08291889 -0.08057428 -0.05834197  0.02031863  0.01053606  0.03406437
  0.05417519  0.02219853 -0.08187172 -0.06344051  0.03828295 -0.00650419
  0.01822647  0.04695264 -0.08128969 -0.0800661   0.03638367  0.07100623
