Node 0: 
[-5.25721725e-03  3.66998263e-02 -7.26740393e-03  5.84978499e-02
  2.74140169e-02 -9.03746181e-02  7.84053682e-02  4.72839687e-02
  6.90640540e-03  5.95336193e-02  2.78872361e-02 -6.08445695e-02
 -8.09861704e-02  2.19299975e-02 -4.86545341e-02 -7.72575374e-04
 -4.36953346e-02  9.57434304e-03 -4.70746454e-02  5.39676507e-02
  8.01798924e-03  6.20012978e-02  6.20641045e-02 -3.93293011e-02
 -1.16235050e-02  7.65780148e-02  1.05001623e-02  1.14688825e-02
  5.55298901e-02 -1.05798925e-02 -3.02599242e-03 -5.29120464e-03
 -3.48525904e-03  8.56112227e-02  4.22507094e-02  1.18055058e-02
 -4.76293602e-03  6.03539636e-04 -6.15088584e-03  9.98653257e-03
 -3.31026695e-03  3.70401012e-03 -9.22122343e-02  6.20451734e-02
 -1.97238158e-02 -1.15952102e-02  9.44755735e-03  5.29072156e-02
  8.42111182e-03 -8.06927148e-03  8.41823736e-03  8.42695223e-02
  7.19733587e-02 -1.21070783e-02  1.47512810e-02  5.63690270e-04
  2.08718457e-02  5.81272118e-02 -4.01382454e-02  7.91244761e-03
  2.19333859e-03  7.33594550e-02 -7.36727308e-02  7.17520001e-02
  2.16707473e-02  2.68351652e-02  8.15535313e-02 -1.36080554e-02
 -6.73213847e-02 -4.51936387e-02 -8.18777193e-03 -7.20380466e-03
 -8.63641535e-02 -6.55143310e-02  2.93260849e-02  2.42083478e-02
 -5.23186275e-03  7.63125333e-03  6.36749029e-02  1.92235830e-02
 -2.42871881e-02  2.42386633e-02 -5.11285515e-02 -3.02366313e-02
 -6.60336696e-02 -3.34971283e-02  6.47867985e-02  6.20364721e-03
  8.84921574e-02  4.38548691e-02  5.54857735e-03 -3.76542435e-02
 -8.85226239e-02  8.37628679e-03 -1.00897409e-02 -8.79725196e-02
 -4.33627347e-02 -1.77532592e-02  4.46773147e-02  5.16332699e-02
 -2.55629946e-02 -1.11470944e-02 -7.81292779e-02 -1.21666714e-02
  6.07419825e-02 -3.25245138e-03  5.46711974e-02  1.36755789e-02
  1.00750994e-02 -1.62734610e-04 -4.96232218e-02 -3.71797970e-02
  7.93776763e-03 -1.54787983e-02 -1.05799886e-02  6.92406791e-02
 -3.08024134e-02  1.04348870e-02 -2.00313097e-02  1.61653962e-02
 -7.57015813e-03  5.71667331e-03 -3.22724077e-03  4.07024452e-02
  5.68639812e-02 -1.04123057e-02  4.49434868e-02 -4.64897479e-02
 -1.81849818e-02 -7.85172077e-02 -1.10131003e-02 -8.05472483e-05
 -7.21974441e-02 -2.23382173e-02 -6.69669522e-02 -3.98540607e-02
  6.06600765e-03 -3.64659701e-02 -9.92049283e-03  1.40491501e-02
  4.63229004e-03 -1.18135615e-02 -3.90132193e-02 -3.22598393e-02
 -3.66914187e-04 -5.37680345e-02 -6.31499760e-02  6.52094145e-02
  4.17127150e-02 -3.10271598e-02  1.06541949e-02 -1.29536163e-02
  1.51952268e-04 -5.11976528e-02 -2.69099849e-02  7.94280217e-02
  5.87812694e-02 -5.55991746e-02 -4.24451232e-02 -5.40322119e-02
 -1.84329909e-02  1.88996990e-02 -5.63817999e-02  5.23343502e-03
 -5.41915537e-02 -4.78816447e-02  7.82970812e-02 -1.66300847e-02
 -3.96725756e-02 -2.96035647e-02  3.82864001e-02 -5.41179282e-02
  6.98908365e-04 -6.35243721e-02  5.15902158e-03  1.54778243e-02
 -6.99299697e-02 -2.02091879e-03  2.32877625e-03 -7.36127171e-02
 -3.58245644e-02 -6.40869709e-02  3.06218247e-02  8.39078449e-02
 -1.35193229e-02 -3.04625515e-03  7.91607554e-02  3.80925761e-02
  6.02556059e-02  6.79896687e-03 -6.86471719e-02  2.02992800e-03
  4.90469933e-02  2.18528887e-02 -2.23451664e-02 -2.33092101e-02
  1.23315281e-02  8.69094563e-03 -8.29315489e-02  1.28047029e-02
 -1.89366993e-02  8.21984515e-02 -3.08057970e-02 -1.63557318e-02
 -1.37142342e-02 -3.43083750e-03 -6.99375411e-02 -1.54335011e-02
 -3.91272946e-02 -3.61793290e-02 -5.88522802e-05 -2.63296144e-02
 -6.27840446e-02 -3.67452000e-02  1.12085969e-02 -2.70681657e-02
  7.98291396e-02 -2.63366418e-02  6.65707631e-02 -7.59063199e-02
 -6.37620215e-03 -5.63503045e-02  7.32044530e-02  4.35156263e-02
  6.92180926e-02  1.37198214e-03 -9.44379245e-02  8.99548340e-02
  5.19961304e-02  3.29194263e-02 -4.47424530e-02 -3.26149207e-02
 -7.23334975e-02  1.18353370e-02  4.01267090e-02  6.85421985e-02
 -1.90339041e-02  1.95549449e-02 -5.66109833e-02 -1.73640441e-02
  1.17959804e-02 -8.56157351e-02 -1.89042079e-02  2.90202445e-02
  7.53602462e-02 -2.08722657e-02 -1.47003197e-02  5.82594700e-03
  1.18325630e-03 -5.62365887e-03 -2.35231274e-02 -7.55537492e-02
  3.98387119e-02 -5.07032334e-02 -3.92215815e-02 -2.42494489e-02
  4.50863421e-02 -1.84054210e-02  5.66850789e-02 -1.08434234e-02
  4.77270395e-02 -2.24727527e-02  5.15063561e-03  3.01498649e-02
  3.77152769e-02 -1.61445314e-04 -8.45591057e-02  5.59253864e-02
  5.72983430e-02  1.32716357e-02 -6.10837489e-02  7.03544553e-02
 -3.28971724e-02  4.82943532e-02  1.10290905e-02  3.77565823e-03
 -3.26917004e-02  3.59605782e-02  3.49524373e-02 -7.47502722e-02
  8.89949406e-02 -2.92737589e-02 -8.15902303e-02 -2.68237773e-02
 -1.87869663e-02  2.22653666e-02  2.21172623e-02 -8.31239242e-02
  8.06982794e-02 -2.64376495e-02  1.96206461e-03  2.85845842e-03
 -5.38849770e-02 -6.18997844e-02 -7.91703109e-02 -2.42963147e-03
 -5.63241807e-02  1.58980810e-02 -1.74040711e-02 -8.98418031e-04]
Node 1: 
[-0.05034846 -0.02091149 -0.00265175 -0.01913024 -0.13314765  0.01262951
 -0.01991284 -0.01278828  0.04447774 -0.02167371 -0.03711824  0.00290613
  0.02002117 -0.02715971  0.01976435  0.09593569  0.01844521 -0.02898544
  0.03527703 -0.00076254 -0.0190153  -0.02436344 -0.02141545  0.01069403
 -0.00611854 -0.02055266  0.05684935  0.00720634 -0.01777356 -0.02799726
 -0.08831821 -0.03280149 -0.02879367 -0.00775007 -0.01901595 -0.1059846
 -0.00504705 -0.03240548  0.06252364 -0.0237654   0.04213701  0.03588773
  0.01347097 -0.02223031  0.04449358  0.0492064   0.02722345 -0.01896165
 -0.10293707  0.03834385 -0.11883433 -0.0021728  -0.0255471   0.07133498
 -0.12413762  0.0796052  -0.00727302 -0.01494748 -0.00238588  0.06198732
  0.09979136 -0.01463997  0.02589327 -0.02282797 -0.02512525 -0.02605982
 -0.00279535  0.05716521  0.00445432  0.04349542 -0.04030774  0.08255042
  0.01813638  0.00126025 -0.02076172 -0.01769277 -0.09697389  0.0318638
 -0.02238431 -0.06802647  0.04901286 -0.13419215  0.00232926  0.00728551
  0.02252756  0.01001787 -0.01757499  0.05683935 -0.01560742 -0.0122463
  0.05581829 -0.00358547  0.00606294  0.05408646  0.05445518  0.02317907
  0.00962338  0.04751152 -0.0169128  -0.01352618  0.01360583 -0.05147458
  0.0270264  -0.0274111  -0.0235433   0.07431305 -0.02092503 -0.00378453
  0.01008187  0.06535443 -0.00312738  0.0014149   0.05567182  0.05506592
  0.02264729 -0.01419331  0.01313086 -0.08364347  0.02096512 -0.10246983
 -0.04059595  0.03192805 -0.04818366 -0.02586306 -0.01242627  0.04988187
 -0.01742389  0.01057518  0.01875015  0.01288483 -0.06687821 -0.02681888
  0.00718712  0.09090004  0.01558325  0.00112912  0.07354394  0.0220638
 -0.08436243 -0.10078964  0.01732682 -0.0077507   0.03404505  0.00456912
  0.04205193  0.02158778  0.01150224 -0.01013094 -0.0124058   0.01134855
  0.04871968 -0.03849562 -0.0289556   0.00584156  0.00165076 -0.03156059
 -0.02836863 -0.00228391  0.02050395  0.00803047  0.01604839 -0.01426776
 -0.00222646 -0.04024307  0.0241618   0.00928078 -0.03557624  0.05509679
  0.00625476  0.02116238 -0.01531371  0.00747715  0.03867979  0.02141402
 -0.09711485  0.06428798  0.02317183  0.07390298  0.04739446  0.03095809
  0.01630935  0.00525346 -0.00698178 -0.03446422 -0.00245079 -0.08443054
 -0.04088116 -0.01086367 -0.01215827  0.03300955  0.00228903  0.07598314
 -0.01954168 -0.12693529  0.05031496  0.01492508  0.07294163 -0.12985131
  0.01307923  0.06972225  0.04304194 -0.01393081  0.03342367  0.07721048
  0.06530501  0.00240008  0.02805481 -0.00269688  0.0357068   0.00637134
  0.07171935  0.00534927  0.0062101   0.001542    0.0430528   0.03516801
 -0.03063009  0.02150788 -0.02740382  0.01707198  0.04791247  0.01765005
 -0.01352242 -0.01300943 -0.03204689 -0.0360893   0.03666687 -0.01353137
 -0.01185527 -0.11783167  0.02893772  0.01069282  0.02565374 -0.02527455
 -0.015058   -0.03950798  0.03968157 -0.00282644 -0.00515592 -0.01816041
 -0.01293336  0.00427175  0.05450675 -0.00297853 -0.0035331   0.09910296
  0.04649778 -0.03295707  0.06257076  0.03356352  0.02880833  0.03799583
 -0.00531364  0.02132431  0.00598172  0.08657142 -0.00294323  0.05242285
 -0.023439   -0.01576091 -0.02340463  0.00713752  0.09227567 -0.00450687
 -0.00498584  0.05288943  0.0301274  -0.02285224 -0.00578412 -0.02825072
  0.0295335  -0.02289034  0.05247943  0.00505662 -0.0345539  -0.08273857
  0.01939332 -0.03249212 -0.0108154   0.01077699 -0.04254714  0.03407002
  0.02202895  0.08122464  0.04166701 -0.00835967 -0.11094921  0.01460894
 -0.03183629  0.01475023  0.01425007 -0.08134675  0.0194846  -0.00072649
  0.00889944  0.08446567 -0.00359808 -0.09093237  0.09628178  0.06394869]
Node 2: 
[-0.00356773  0.05716547 -0.01141608  0.06547901 -0.00059094 -0.06905734
  0.06354622  0.0356889   0.00962518  0.05246913  0.02705861 -0.05896884
 -0.06381428  0.02378653 -0.0564342  -0.01290981 -0.01433606 -0.00951438
 -0.05561609  0.06433276  0.00495472  0.04622463  0.05143893 -0.04494305
 -0.01207382  0.07204574 -0.00603616  0.01615809  0.0596693   0.00472628
 -0.00586248 -0.01039739 -0.00247963  0.07266386  0.03521726  0.02501576
 -0.00454855  0.00059641  0.00142664  0.00323733  0.00371732 -0.0089869
 -0.06757453  0.06921138 -0.02238154 -0.00670755  0.00395908  0.04542816
  0.01557825 -0.02000588  0.03082949  0.05977545  0.05201441 -0.01015524
  0.03200653 -0.0245666   0.02842292  0.07118524 -0.04821553 -0.01697722
 -0.00334324  0.07016814 -0.06781369  0.06517421  0.01010848  0.01647826
  0.07665043 -0.02326735 -0.05861239 -0.0151743  -0.00570023 -0.01767256
 -0.06747306 -0.0668472   0.04128989  0.02839346  0.00475604  0.0088065
  0.05727016  0.01490623 -0.01696236  0.01249479 -0.03518155 -0.02597999
 -0.03840685 -0.03460966  0.07166777  0.00635992  0.0694125   0.03430003
  0.00414081 -0.04020567 -0.08001851  0.01088431  0.00083787 -0.07182157
 -0.03428983  0.00167113  0.03833392  0.03103337 -0.02159332  0.00025265
 -0.08040531 -0.00999994  0.05328002 -0.00780684  0.05205472  0.01783321
  0.01218239  0.00224576 -0.04504141 -0.0570467  -0.00142593 -0.01143399
 -0.00857621  0.0546433  -0.0352413  -0.00946623 -0.01119411  0.00493746
 -0.00419053  0.00877646  0.01045866  0.03422688  0.03497259 -0.01884588
  0.03493058 -0.05686163 -0.03776253 -0.07223906 -0.00029299  0.00290009
 -0.06590938 -0.01229199 -0.05620508 -0.06329706 -0.00656759 -0.01546052
 -0.00143637  0.02073534  0.00409789 -0.0095146  -0.03182575 -0.02318947
  0.00378921 -0.03056347 -0.05872971  0.0524414   0.03767273 -0.01425667
 -0.01903871 -0.010553   -0.00392176 -0.05875447 -0.04991817  0.06341507
  0.06054903 -0.05782067 -0.03323489 -0.03861106 -0.01305206  0.02453598
 -0.04785262 -0.00438377 -0.05167697 -0.04758114  0.07046771 -0.02140866
 -0.03386758 -0.04703389  0.04226938 -0.05067707  0.00213117 -0.0729285
  0.00422915 -0.00334999 -0.08056563 -0.00816198  0.00414682 -0.06735513
 -0.0187565  -0.06345629  0.02895144  0.07096214 -0.00802704  0.01598403
  0.07991636  0.04366232  0.06272587  0.00358043 -0.04613273 -0.0244413
  0.04413168  0.01442359 -0.02398166 -0.01350709 -0.01341884  0.01155653
 -0.07640383  0.00336108 -0.01879719  0.05839642 -0.01969254 -0.0068617
  0.01215191 -0.0001927  -0.07447654 -0.00400964 -0.0331183  -0.04080445
 -0.00223024 -0.05132063 -0.03922879 -0.03414061  0.00030212 -0.05240665
  0.05089797 -0.03209248  0.05221978 -0.05595916 -0.00848289 -0.05505697
  0.05854747  0.02884802  0.05145221  0.00122189 -0.08921379  0.06752611
  0.06271791  0.03186569 -0.02734795 -0.05698068 -0.06080618  0.01812897
  0.03731099  0.07588467 -0.01296111  0.01809681 -0.04126651 -0.01604445
  0.01396985 -0.05445561  0.01033244  0.02579375  0.07549171 -0.01168557
 -0.01201746  0.00119292 -0.01314552  0.00397458 -0.03167747 -0.06646172
  0.0383164  -0.03835761 -0.06547395 -0.00343535  0.04834195 -0.01660841
  0.01374398 -0.00827072  0.05106492 -0.01773714  0.00052525  0.02746145
  0.02830553  0.00124807 -0.08520848  0.05172823  0.06981227  0.01035489
 -0.07000745  0.07552905 -0.02767642  0.03861145  0.02116295 -0.00638124
 -0.02081693  0.04515513  0.01839351 -0.08235221  0.06705732 -0.00546904
 -0.07009382 -0.0273974  -0.02692916  0.05518951  0.02349045 -0.05721
  0.0761433  -0.0295299   0.00364894  0.00262791 -0.04575461 -0.07145213
 -0.07332514 -0.01242101 -0.04377608  0.01851662 -0.00235724  0.00235628]
Node 3: 
[ 0.01096892 -0.05714694  0.01363734 -0.01515735 -0.06306464  0.03343221
 -0.01539892 -0.01318471 -0.01967559 -0.01208689 -0.04705464  0.02463603
  0.02772639 -0.03820468  0.02432744  0.0439744   0.03345704  0.01154161
  0.04264584 -0.02510529  0.00940256 -0.02561332 -0.02215861  0.00441615
  0.00797092 -0.02938455  0.00630297 -0.01907421 -0.03415022 -0.02362629
 -0.02973955 -0.01201402  0.01324663 -0.0263087  -0.03670613 -0.04657931
 -0.01090544 -0.00031796  0.02495909  0.0080324   0.02710156  0.01248678
  0.01238753 -0.02410696  0.00300152  0.02688113 -0.01503172 -0.030552
 -0.03255168 -0.00706198 -0.05278135 -0.03228924 -0.02188045  0.02886048
 -0.0528197   0.02847638 -0.02034912 -0.03075053  0.04420454  0.02368277
  0.04610445 -0.02934368  0.0307246  -0.01021448  0.00131098 -0.05238841
 -0.03243497  0.02019428  0.01363064  0.05162773  0.01094735  0.01976199
  0.03143058  0.01267186 -0.03963235 -0.00434756 -0.03787632 -0.02214083
 -0.01762685 -0.02398902  0.01032743 -0.0626489   0.0364593   0.02952743
  0.0462285   0.02358011 -0.01235192 -0.01277534 -0.03845483 -0.01217764
  0.00833774  0.03343873  0.03702216 -0.02269489  0.01738147  0.01294319
  0.04677846 -0.016898   -0.05871733 -0.03188949  0.04471804 -0.01300177
  0.031489    0.01325528 -0.03645177  0.02443066 -0.02042445 -0.03621066
 -0.01934088  0.02827008  0.03016077  0.04231603 -0.00600718  0.00239491
 -0.00172479 -0.02011913  0.00832521 -0.03230437  0.02523071 -0.0358576
  0.01698141 -0.01530308  0.00090903 -0.03313402 -0.03577228  0.00011457
 -0.02627401  0.05016675  0.02185784  0.02296174 -0.01824817  0.00534084
  0.01072597  0.03917905  0.02025367  0.06155235  0.02355775  0.04108598
 -0.03779499 -0.03928974 -0.01548163  0.00936437  0.01757277  0.04692066
 -0.016481    0.0501587   0.02147479 -0.02911755 -0.0130048   0.02826669
  0.02007895 -0.00674066 -0.02144846  0.01155625  0.04545576 -0.0306272
 -0.01573448  0.03347832  0.03931639  0.01677273  0.01955639 -0.04023483
  0.03872097  0.00820211  0.04342898  0.05808411 -0.03336243 -0.00678818
  0.04142197  0.05121513 -0.05118224  0.06720218 -0.01008323  0.0195319
 -0.03268514  0.02496713  0.0224358   0.03565802 -0.01187762  0.02816811
  0.03371002  0.02706165 -0.03484769 -0.0343865   0.00373044 -0.03817158
 -0.00925245 -0.00732855 -0.03768914 -0.01961195  0.00958731  0.04966039
 -0.00611074 -0.05963696  0.0045559   0.02534808 -0.00297511 -0.05004202
  0.03229609  0.01753978  0.00339818 -0.03351709 -0.00022025  0.02987031
  0.01324988  0.00964243  0.02442562  0.02100129  0.04551967  0.04848879
  0.02202527  0.03533825  0.03811462  0.02810377 -0.01952565  0.0460699
 -0.00861035  0.03903833 -0.02559176  0.01239595 -0.010788    0.02078268
 -0.01595597 -0.00541132 -0.02235071  0.01097439  0.0375491  -0.02207085
 -0.01464482 -0.05430204  0.05553696  0.05196699  0.02840045 -0.02473178
 -0.01710107 -0.04334637 -0.00339418 -0.01286704  0.04828192 -0.00550056
 -0.00544004  0.04096075  0.02415263 -0.0011286  -0.01579631  0.04621931
 -0.00198824  0.00209574  0.01988784 -0.01334841  0.0399132   0.03881537
 -0.0333074   0.01494479  0.03594861  0.03177658 -0.01381451  0.02197695
 -0.0281777  -0.01092323 -0.01933287  0.01533382  0.02328086 -0.03840455
 -0.0457243   0.00268418  0.01369257 -0.01517096 -0.01325579  0.00303733
  0.0091502  -0.0339017   0.00998376 -0.04225258  0.00814637 -0.03528252
  0.02940788 -0.06081876 -0.03605017  0.0256118  -0.01834802  0.0263506
  0.02308579  0.04760144  0.00034818 -0.0424406  -0.04762145  0.01887085
 -0.01228407  0.02530263 -0.01706002 -0.03096416  0.00564004  0.03654835
  0.03582342  0.03556327  0.04856518 -0.05046515  0.03250372  0.01976308]
Node 4: 
[ 5.26869288e-02 -2.84326631e-02  7.34888352e-03  2.36099161e-02
  5.47441201e-02 -3.44628395e-02  1.79232564e-02  1.79379477e-02
 -5.61021592e-02  1.65469495e-02  8.92738581e-03 -7.55937054e-03
 -1.99106118e-02 -7.00357706e-04 -1.24178691e-02 -4.49537231e-02
  2.56547570e-02  3.79392783e-02  1.79190558e-02  1.77367934e-02
  2.96607903e-02  1.87433315e-02  2.27240624e-02 -8.20053021e-03
  6.63706606e-03  2.50740043e-02 -2.78472208e-02 -2.38713826e-02
  2.85238517e-02  1.09589601e-02  2.81078436e-02  4.32333678e-03
  2.87193865e-02  3.27400109e-02 -2.57992399e-02  3.83766999e-02
 -1.08366543e-02  2.65500346e-02 -2.94331582e-02  2.68940414e-02
 -1.55977791e-02 -2.15844679e-02 -1.47371920e-02  1.72003059e-02
 -5.89196000e-02 -1.01491508e-02 -3.89221192e-02  1.68590442e-02
  5.56011767e-02 -3.51433758e-02  3.90741473e-02  1.77308449e-02
  2.33864015e-02 -1.71324877e-02  4.29471802e-02 -4.47226477e-02
  3.42152754e-03  1.69843765e-02  8.60102393e-03 -2.71177586e-02
 -4.64452970e-02  1.94260158e-02 -2.42618455e-02  2.60317748e-02
  3.41665144e-02 -1.24402966e-02  1.71881229e-02 -8.69679401e-03
 -9.83097573e-03  2.42912220e-02  3.25092885e-02 -4.55572596e-02
 -2.68900856e-02 -6.16590305e-03 -1.90335405e-03  1.98913545e-02
  5.43859870e-02 -4.23499667e-02  2.01722513e-02  2.56694332e-02
 -5.08055841e-02  3.71547140e-02  1.99898398e-02  4.98997196e-03
  1.47747679e-02  9.06040425e-03  1.78192411e-02 -6.36001785e-02
  2.65453428e-02  1.32876068e-02 -2.96337680e-02  8.71657575e-03
 -3.33719215e-02 -4.79127732e-02 -2.63448451e-02 -2.28057295e-02
 -6.27637399e-04 -5.54382706e-02 -1.99998747e-02 -8.51576222e-03
  3.07978737e-02  1.74184128e-02 -1.02482727e-02  2.76877850e-02
  1.56468512e-02 -3.71213854e-02  2.00643363e-02 -2.64293864e-02
 -2.50980296e-02 -3.38941984e-02  9.24376567e-03  2.41375802e-02
 -3.10667619e-02 -6.84749394e-02 -1.91878994e-02  2.09583562e-02
 -1.61130439e-02  4.00534993e-02  5.78880471e-03  2.64484647e-02
  4.96759875e-02 -4.08079277e-02  3.72858580e-02 -9.39833040e-03
 -1.55576780e-02 -6.13592694e-02  3.85643995e-03  1.63242687e-02
  1.63163412e-02 -2.25204859e-02  3.07064063e-02  2.90858200e-02
 -1.67980907e-02 -2.37606995e-02 -2.54878383e-02  2.32553407e-04
 -4.08845405e-02  5.50292896e-03  5.19028081e-02  3.78513456e-02
 -2.49479061e-02  9.92684757e-03 -2.38562326e-02  2.27243096e-02
 -4.82965635e-02  2.35108687e-02 -2.50535462e-02  2.72838483e-02
  8.85203729e-03  1.20251219e-02 -1.45584320e-02  1.08430446e-02
  1.57669952e-02 -7.71109290e-03  2.78150293e-02  2.05984469e-02
  9.75550830e-03  1.17586209e-02  1.80246705e-02 -2.43563511e-02
 -7.54394269e-04 -2.40957942e-02 -2.79240764e-04  4.59038076e-02
  9.14762787e-03  2.94384074e-02  1.93071615e-02 -5.23213117e-02
  1.47914669e-02  3.45899636e-03  3.34930621e-03  2.23825338e-02
 -5.28113001e-02 -2.40499495e-02  4.50422611e-02 -2.48004457e-02
 -2.59388354e-02 -2.24682782e-02 -5.50695310e-02 -1.73224348e-02
  1.08478601e-02 -1.05405711e-02 -8.85587835e-03  3.02360428e-02
 -2.09719121e-04  1.70283252e-02  2.59054180e-02  1.21354540e-02
  2.12523702e-02 -4.26864207e-02 -1.64119356e-02 -4.76508197e-02
  1.20720073e-02  5.51767913e-02 -5.04568034e-02 -7.54322922e-03
 -4.39150554e-02  6.71532413e-02 -1.00058628e-02 -4.22167028e-02
 -4.26051429e-02  2.17064322e-02 -3.41038891e-02 -3.82289203e-02
 -4.00882937e-02  2.19133122e-03 -2.42500587e-02  2.68879532e-02
  1.39819979e-02  1.31859433e-02 -2.52877386e-02  3.68373431e-03
  2.22614247e-02  1.33590575e-02 -4.02789567e-02  1.14438864e-02
  1.52936995e-02 -1.83714483e-03  2.07122089e-02 -2.47649932e-02
 -4.93491975e-02 -1.18346951e-02  2.19521975e-02  1.21622790e-02
  1.58439270e-02  3.75834077e-02 -3.91145866e-02  3.77430798e-02
  2.34142678e-02  4.51347812e-02  1.89217589e-03  9.53015919e-03
 -1.62308347e-02 -6.24737039e-03  1.22429363e-02  3.98778006e-02
 -4.41091824e-02  8.79962200e-03  2.58988740e-02 -9.85641124e-04
  8.21011303e-03 -1.28802554e-02 -1.51646706e-02  6.52221331e-03
  1.53954358e-02 -2.20254039e-02 -3.06425329e-02  2.50207675e-02
 -2.09382097e-02 -4.90886692e-02  9.18713858e-05 -2.33085680e-02
  4.71396673e-03 -2.17421243e-02  2.56257027e-03 -3.47810208e-02
  1.63050359e-02 -1.46461114e-02  9.92536371e-03 -4.46354517e-03
  1.63979259e-02  5.52897998e-03 -2.56049227e-02 -9.63401241e-03
 -7.99307896e-03 -3.02289803e-02 -3.19672778e-02  1.30110860e-02
  3.11514249e-02  3.19662576e-02 -2.12155373e-02  2.01858465e-02
 -4.20958977e-02 -5.96660014e-03  2.37614705e-02  2.57380207e-02
 -5.27315641e-03 -7.70286402e-03 -1.48849296e-02 -2.65687127e-02
  2.78889238e-02 -1.35140586e-02 -3.40217416e-02 -4.89703323e-02
 -5.10841110e-02  3.56186086e-03  5.16441502e-02 -1.76054464e-02
  1.49419119e-02  5.54801915e-03 -2.49938303e-02  2.53943101e-02
 -2.70593775e-02 -2.22017673e-02 -2.44916071e-02 -3.34884157e-02
  6.14972919e-03  5.13248636e-02 -3.86871261e-02 -2.60351563e-02]
Node 5: 
[-5.10819923e-02 -2.03410526e-02 -2.06619437e-03 -1.32982848e-02
 -1.17025558e-01  4.88667360e-02 -3.84406178e-02 -1.29791902e-02
  3.95922809e-02 -1.53878516e-02 -2.11014545e-02  1.93411129e-02
  3.82074207e-02 -9.59825211e-03  2.52921231e-02  9.24313687e-02
  1.66478129e-02 -3.84114851e-02  2.41703701e-02 -2.54144453e-02
 -3.25828020e-02 -3.10351463e-02 -3.38610628e-02  1.13077142e-02
 -7.48364230e-03 -2.77041875e-02  4.77945233e-02  8.25611751e-04
 -2.16621730e-02 -3.81320460e-02 -6.62192319e-02 -2.47075070e-02
 -2.27732138e-02 -3.51369040e-02 -2.37271885e-02 -9.77354359e-02
 -4.86861642e-03 -2.22187808e-02  5.92939780e-02 -2.89836633e-02
  2.14778860e-02  2.78602338e-02  3.35204608e-02 -3.30475779e-02
  4.75069636e-02  3.72959478e-02  2.03736944e-02 -2.19682255e-02
 -8.33226627e-02  3.93048931e-02 -1.12274663e-01 -3.35556411e-02
 -7.84891190e-03  6.50612016e-02 -1.11215677e-01  5.76290052e-02
 -8.08732386e-03 -3.76545925e-02  1.57695932e-02  6.13968737e-02
  9.32624817e-02 -1.24084434e-02  2.95935477e-02 -1.94299353e-02
 -3.65379127e-02 -2.18830538e-02 -4.27360834e-02  5.48875570e-02
  2.79547416e-02  3.41333895e-02 -1.98661080e-02  6.98669423e-02
  4.67716151e-02  1.84190319e-02 -3.15461798e-02 -1.87405868e-02
 -8.92575272e-02  2.50318556e-02 -2.43828200e-02 -6.31384855e-02
  4.25864051e-02 -1.01470891e-01  4.01366215e-03  1.13454995e-02
  1.95308778e-02  1.54779648e-02 -3.28583029e-02  5.24665167e-02
 -2.49886979e-02 -1.01257901e-02  5.67119507e-02  1.21658702e-02
  4.29651693e-02  4.56951220e-02  4.99717975e-02  3.02709569e-02
  1.25859343e-02  5.95999516e-02  1.64830767e-05 -2.88838671e-03
  2.58659702e-02 -4.03926764e-02  4.16949152e-02 -2.15895367e-02
 -1.13558886e-02  6.38373314e-02 -1.36013560e-02 -2.14858524e-02
  1.34562563e-02  5.91032999e-02  2.13493605e-02  3.34198784e-02
  4.08379157e-02  5.06813202e-02  1.61931397e-02 -1.95933071e-02
  1.76921080e-02 -7.07124585e-02  1.71052283e-02 -8.03339849e-02
 -3.70964580e-02  3.15729179e-02 -3.72943541e-02 -1.88246195e-02
 -1.82277721e-02  4.16242282e-02 -1.48425688e-02  8.13873214e-03
  1.22799568e-02  1.87230090e-02 -5.80156895e-02 -2.97495342e-02
  1.67905335e-02  8.39753903e-02  1.63304293e-02  1.15853248e-02
  7.06486931e-02  1.46735999e-02 -8.43167078e-02 -7.39998627e-02
  1.37660758e-02 -6.98768281e-03  3.18312637e-02  1.34407166e-02
  3.40043721e-02  9.54775435e-03  3.98615511e-02 -2.71070743e-02
 -6.72925040e-03  2.06633469e-02  5.14734079e-02 -2.49570306e-02
 -3.32661082e-02  5.93458304e-03  1.82499112e-03 -3.07541819e-02
 -1.62433158e-02  1.81876216e-02  2.54923656e-02  2.05630941e-02
  1.56539003e-02 -4.20558838e-03  9.34548922e-03 -3.45856472e-02
  2.52020964e-03  3.59527188e-02 -3.82229142e-02  4.09871259e-02
  1.70581383e-02  8.64913110e-03 -1.36543534e-02  4.27852216e-02
  3.68461475e-02  2.68130781e-02 -8.83247187e-02  5.74080710e-02
  4.34667586e-02  4.71474468e-02  4.06413517e-02  3.04420176e-02
  3.72115130e-03  1.45837345e-02 -1.22966241e-02 -1.55780128e-02
 -8.56546972e-04 -7.97422545e-02 -5.10142372e-02 -6.08682863e-03
 -1.82468537e-02  2.71519443e-02  3.13946476e-02  8.65243496e-02
 -2.58390868e-02 -1.23386661e-01  5.39074244e-02  1.25254080e-02
  5.81671199e-02 -1.14329548e-01  3.24477651e-02  6.50862222e-02
  4.80272320e-02 -1.72762851e-02  2.92584587e-02  7.36286679e-02
  5.98024099e-02  3.17083697e-03  3.07877259e-02 -3.47892611e-03
  3.02679377e-02  6.12677249e-03  4.96059161e-02  2.13372536e-03
  3.58399370e-02  4.66158534e-03  3.65349485e-02  4.84681001e-04
 -3.52227205e-02  1.26830925e-02 -4.68735758e-02  2.89554020e-02
  4.01533285e-02  5.49333243e-03 -3.05180307e-02 -2.47649861e-02
 -2.67304204e-02 -2.84556223e-02  4.82732460e-02 -4.96525301e-02
 -2.89748650e-02 -1.11417762e-01  1.37321549e-02 -2.18873197e-03
  2.82732989e-02 -2.75217323e-02 -1.15124721e-02 -5.31935324e-02
  3.09974164e-02 -1.03489797e-02  1.88635887e-02 -1.48722994e-02
 -1.48722357e-02  4.48938317e-02  4.49990827e-02 -1.36359373e-02
 -3.61869639e-02  8.24025982e-02  3.37360070e-02 -2.32439044e-02
  4.94178773e-02  3.17640994e-02 -1.64252475e-03  1.27307494e-02
  5.29618625e-03  2.64317163e-02  1.82346415e-02  7.39057540e-02
 -1.56117048e-02  3.53519324e-02 -1.69559631e-02 -1.49795835e-02
 -2.81651311e-02  9.19374566e-03  6.57736843e-02 -7.08023737e-03
 -3.59129841e-03  4.52592849e-02  5.09439807e-02 -2.69526033e-02
 -3.47464440e-02 -2.67372528e-02  4.90089363e-03 -2.00695890e-02
  5.16868657e-02  5.02453964e-03 -2.73166993e-02 -7.01688226e-02
  4.21959737e-03  9.59777658e-04 -9.95620435e-03  2.54629946e-02
 -4.74749068e-02  1.33133682e-02  3.57823613e-02  7.07902319e-02
  4.59273360e-02 -1.87388921e-03 -9.83137948e-02  1.64596054e-02
 -2.22119739e-02  1.19521433e-02  2.06655507e-02 -6.69341591e-02
  2.34304442e-02  3.46710216e-02  2.40488733e-02  7.50507593e-02
  1.44058823e-02 -9.64474532e-02  7.29764834e-02  5.52099212e-02]
Node 6: 
[-5.34860244e-03  5.18335767e-02 -6.83614828e-03  7.68120934e-02
  1.59525844e-03 -1.05415629e-01  7.03726599e-02  4.49780708e-02
  1.30838769e-02  7.92560075e-02  3.55347014e-02 -7.04566889e-02
 -1.05465908e-01  3.96295970e-02 -7.04248214e-02  8.69816681e-03
 -2.70692548e-02  1.70030040e-03 -5.99071248e-02  7.78565124e-02
  1.30428784e-02  7.73693406e-02  7.00281817e-02 -5.94883867e-02
 -1.23724390e-02  9.32729574e-02 -2.24965177e-03  1.94379745e-02
  9.27400432e-02  1.35326300e-02  7.60499636e-06 -5.15394845e-03
 -6.55331394e-03  8.06210565e-02  5.12628397e-02 -1.81467935e-03
 -4.38612322e-03 -6.20918174e-03  2.23468416e-03  1.43563428e-02
 -9.83511581e-03 -7.12121120e-04 -8.51949403e-02  8.16898009e-02
 -3.15007670e-02 -1.28847902e-02  1.54833241e-02  8.73202720e-02
 -3.94352020e-03 -1.70616775e-02  3.49153914e-02  8.00334723e-02
  8.36205612e-02  5.24410132e-03  1.52267078e-02 -1.37150331e-03
  3.85415880e-02  9.14170233e-02 -5.93864686e-02  1.11133498e-02
 -2.50113798e-02  7.19774294e-02 -9.46008199e-02  8.41871148e-02
  2.75926933e-02  1.81482681e-02  8.52499666e-02 -2.87170476e-02
 -8.04497348e-02 -5.28963339e-02 -1.12117202e-02  1.45221786e-02
 -9.35884934e-02 -7.09237826e-02  5.50257415e-02  3.31495905e-02
 -1.16276875e-02  1.38171777e-02  7.01256488e-02  4.41035300e-03
 -2.27346747e-02  2.40448014e-02 -6.53664228e-02 -2.54220959e-02
 -8.35810440e-02 -5.17449032e-02  7.45928446e-02  7.73376734e-04
  9.08427601e-02  4.69615134e-02 -5.94593875e-03 -4.87657065e-02
 -8.49900065e-02  1.06430408e-02 -6.55647654e-03 -1.04629838e-01
 -5.75539351e-02 -4.76980522e-03  2.80049267e-02  5.85346968e-02
 -5.78052931e-02 -6.51357720e-03 -9.81273544e-02 -1.41102060e-02
  6.73105810e-02 -1.67107305e-02  7.03369857e-02  6.39753421e-02
  1.70588472e-02 -1.88061177e-02 -5.15335704e-02 -4.44903469e-02
 -6.60963541e-03 -1.61931318e-02 -1.36850227e-02  6.49177615e-02
 -5.06946708e-02 -1.01645913e-02 -1.77927569e-02 -3.49490065e-03
 -9.72502579e-03  5.05385350e-03  2.13958339e-02  5.05010277e-02
  4.87053334e-02 -2.46477897e-02  5.76147505e-02 -4.94930843e-02
 -4.62582651e-02 -8.48286920e-02 -5.42434119e-03  2.85012561e-03
 -8.53231186e-02 -2.50194609e-02 -6.68301961e-02 -7.86118666e-02
  8.44065761e-03 -5.33523636e-02  1.50079505e-02  2.12594961e-02
  7.76983429e-03 -1.74874150e-02 -5.11634105e-02 -5.65260993e-02
  9.96679259e-04 -5.17308527e-02 -8.35718965e-02  8.61789218e-02
  5.22412158e-02 -4.05224684e-02  9.07477133e-03 -1.46159288e-02
  2.43486339e-02 -6.91394035e-02 -4.29801649e-02  8.69732304e-02
  7.12128802e-02 -6.90375783e-02 -5.28755829e-02 -7.09406640e-02
 -1.73005427e-02  5.50418449e-02 -5.27608755e-02  3.13882179e-04
 -7.66053192e-02 -4.31983993e-02  8.27002963e-02 -2.99819025e-02
 -3.27930460e-02 -5.43658312e-02  5.10803673e-02 -5.44316804e-02
  7.92343526e-03 -7.58711722e-02  2.89453907e-02 -1.71934048e-02
 -9.18686468e-02 -3.09995489e-02  8.36872280e-03 -9.81328281e-02
 -2.92812389e-02 -8.59635671e-02  2.64648084e-02  9.39224674e-02
 -1.21045858e-02  2.67584290e-02  8.19252747e-02  5.42859444e-02
  7.32273817e-02  2.93119729e-03 -8.33595824e-02 -3.58129518e-02
  6.05606830e-02  2.61659502e-02 -3.18362445e-02 -1.19047053e-02
  2.80334144e-03 -1.41320808e-03 -9.82864932e-02 -4.31162647e-04
 -1.66905161e-02  1.00400538e-01 -3.57467369e-02  8.99974155e-03
  6.84309776e-03  2.36402054e-03 -8.82835328e-02 -1.86173147e-02
 -5.94646415e-02 -4.64471510e-02 -1.06244979e-02 -5.13844134e-02
 -3.83012219e-02 -5.28449213e-02  8.09539593e-03 -7.40135040e-02
  9.80064235e-02 -6.08525442e-02  1.00563711e-01 -8.95590947e-02
 -1.23162774e-02 -7.13690305e-02  8.64633670e-02  5.05734958e-02
  6.99079030e-02 -4.99593879e-04 -9.51932541e-02  1.00054229e-01
  7.61869196e-02  3.30258554e-02 -5.20615842e-02 -7.66043267e-02
 -9.47157916e-02  1.47834174e-02  4.91627740e-02  9.74046696e-02
 -2.04125431e-02  2.93718668e-02 -6.94368334e-02 -1.85068338e-02
  1.83538575e-02 -9.46790223e-02  7.90081521e-03  3.40648734e-02
  9.01395311e-02 -4.16670652e-03 -1.53643876e-02  5.12770647e-03
 -2.42489712e-02 -4.48518475e-03 -2.98723681e-02 -8.30638195e-02
  4.27501667e-02 -5.67953533e-02 -8.30858833e-02 -2.24694225e-02
  6.69919612e-02 -2.00241066e-02  4.45669898e-02 -8.86253136e-03
  7.49388069e-02 -2.59155415e-02  6.93106879e-03  2.70796262e-02
  5.66556315e-02  5.00256865e-03 -9.14036228e-02  6.14261107e-02
  7.06914581e-02  1.25732229e-02 -9.56665683e-02  9.45057559e-02
 -4.24418181e-02  5.29724331e-02  2.34006601e-02  2.48007266e-02
 -3.74877899e-02  5.15352578e-02  3.79681195e-02 -9.57815492e-02
  1.01817903e-01 -1.90483770e-02 -1.06001209e-01 -1.05050466e-02
 -3.81231983e-02  6.34566248e-02  1.07391694e-02 -1.01177545e-01
  7.70157499e-02 -3.26356929e-02  4.14806479e-03  6.26151293e-03
 -4.65656545e-02 -9.36575863e-02 -9.65330415e-02 -2.46959551e-02
 -5.64521123e-02  3.09205077e-02 -1.41644334e-02 -1.95726751e-02]
Node 7: 
[-0.04483243  0.03515194 -0.02686964 -0.0718848  -0.04045283  0.10642715
 -0.08642692 -0.06039662  0.04881079 -0.06607696  0.05601006  0.05465857
  0.09827172  0.05558894  0.05920727  0.02074839 -0.04033202 -0.03102635
 -0.02522407 -0.06652881 -0.05729687 -0.05963609 -0.07426913  0.04527309
 -0.01464959 -0.08836214 -0.00027067  0.04933342 -0.0751829   0.00969138
 -0.00211339  0.02675606 -0.01523297 -0.07460273  0.03126362 -0.01671948
  0.00841985 -0.02204964 -0.00477396 -0.04697359 -0.01767566 -0.01161028
  0.10157574 -0.07145355  0.09932812 -0.01557238  0.0652861  -0.07770546
 -0.0298772   0.07356269 -0.0346149  -0.09663737 -0.08287462  0.00426831
 -0.03964878  0.01601419 -0.01746857 -0.07692473 -0.0211834   0.00138117
  0.02758297 -0.08222633  0.09195391 -0.08417302 -0.06405391  0.07784786
 -0.09184165 -0.01548164  0.0666457  -0.0396173  -0.02491186  0.00906603
  0.07695278  0.06176406  0.0725173  -0.05462457 -0.01391869  0.0247569
 -0.06235264  0.00614932  0.09838474 -0.04299037 -0.00858339 -0.04320277
 -0.03265437  0.02332716 -0.0836912   0.0657113  -0.07646911 -0.04401718
  0.00854466 -0.03156156  0.09548889  0.03108435 -0.00141003  0.09404563
 -0.00754241  0.06445074  0.05630369  0.04309301 -0.02601001  0.01660412
  0.05834163  0.00234536 -0.07400444  0.00465144 -0.05745787  0.04701201
  0.05334233  0.00708218 -0.02563987 -0.00875519  0.01196193  0.10059176
  0.01558637 -0.06193714  0.05064769 -0.00475017 -0.03381646 -0.00899051
 -0.03044984  0.03834416 -0.05486523 -0.0004458   0.01121111  0.09125472
 -0.02546895 -0.02890608 -0.03086528  0.08872039  0.01911906 -0.03158406
  0.08153405  0.01001088  0.09384134 -0.02884768  0.01383382 -0.02226312
 -0.01019616 -0.01211024  0.00885992 -0.01368827  0.07715611 -0.02860704
  0.05080427 -0.01919923  0.08991437 -0.06898303 -0.04946127 -0.02956388
 -0.00928272  0.02837918  0.03409937  0.06931448 -0.00379666 -0.09478819
 -0.06225084  0.00505099  0.00408095  0.08252469 -0.02324558  0.05770677
 -0.025921   -0.04650968  0.02021881 -0.00684437 -0.08890525  0.09729945
 -0.04191934  0.00081965  0.06247615 -0.01954187  0.07583416  0.09091141
 -0.00672912 -0.01112904  0.08626599 -0.00546342  0.06522654  0.09272959
 -0.01328512  0.07711735  0.06200457 -0.08367367 -0.00978024 -0.00492045
 -0.08375176 -0.04199679 -0.07114195  0.03145379  0.07895315  0.00616923
 -0.0646407  -0.048717    0.11100348 -0.04201523  0.02127458 -0.04576284
  0.07379113  0.00339632  0.08770353 -0.09383004  0.0838229   0.01878208
  0.00275024 -0.02813322  0.08997382 -0.02671779 -0.05583173 -0.02838855
 -0.00654089 -0.02612188  0.00178154  0.00401409  0.0449517  -0.04788658
 -0.09133609 -0.03762879 -0.09513406  0.09544468  0.07601023  0.07817828
 -0.08346355 -0.05172616 -0.08805873 -0.04031299  0.10002091 -0.08598405
 -0.07062297 -0.03832941 -0.03921058 -0.02856262  0.084179    0.02501082
 -0.05199801 -0.10583891  0.06083155 -0.02137504 -0.00476936  0.00927374
 -0.01784593  0.07129868 -0.01724902 -0.03312865 -0.09001034  0.02104668
  0.0678275  -0.03449247 -0.01213407  0.05687857 -0.03570079  0.10330069
  0.04218299  0.0603627  -0.02344357  0.01352513 -0.04963367 -0.01905782
  0.02636001  0.00946096 -0.07076641 -0.00665471  0.01376797  0.0764746
  0.04563559 -0.00040084  0.09507339 -0.04871852 -0.07149209 -0.040673
  0.0673145  -0.08647545  0.1119795   0.03627024 -0.04947987  0.01147533
 -0.02833738  0.04594831  0.03736545  0.07860299 -0.07332005 -0.03088475
  0.09617492  0.02522141  0.09851173  0.05386452 -0.03963327  0.08820988
 -0.08064018 -0.00883171  0.0467285   0.00584657  0.08265905  0.08911917
  0.07798494  0.00659241 -0.00778773 -0.02100705  0.0203241  -0.01033299]
Node 8: 
[-0.03089729 -0.02593293  0.00100812 -0.0328653  -0.0913893   0.03398893
 -0.02342726 -0.00879901  0.02026794 -0.01044569 -0.0404582   0.0207222
  0.01342195 -0.02482544  0.01390334  0.06997319  0.0113288  -0.02882674
  0.02952762 -0.01781855 -0.01947386 -0.0063904  -0.01588629  0.00154128
 -0.00392037 -0.01904502  0.03781319 -0.00995245 -0.01921899 -0.03411599
 -0.06021442 -0.02456394 -0.01781854 -0.03838156 -0.03365291 -0.07204389
 -0.00738598 -0.0209196   0.04688848 -0.01982521  0.02901123  0.02238786
  0.03106073 -0.02755613  0.02937786  0.04620755  0.00960253 -0.03356076
 -0.07187697  0.03020912 -0.09000302 -0.03253465 -0.02940674  0.05918497
 -0.09604737  0.05016431 -0.00994272 -0.0115713   0.0358723   0.05919707
  0.06720365 -0.02553732  0.02946759 -0.02133059 -0.00957897 -0.02729711
 -0.01244768  0.03154432  0.01266385  0.00882788 -0.01756108  0.05608793
  0.02986134  0.01048326 -0.04562463 -0.00859556 -0.06478037  0.01173703
 -0.01250379 -0.06599249  0.03363388 -0.09450092  0.01472358  0.01699422
  0.05512959  0.00751192 -0.00875428  0.02980516 -0.01298547 -0.01689304
  0.03668115  0.0171341   0.01115399  0.02602408  0.03685201  0.01304228
  0.02045426  0.03116196 -0.04488408 -0.01281761  0.01513113 -0.03122125
  0.00675105 -0.01379036 -0.03335869  0.04769981 -0.01895871 -0.03344787
  0.00221383  0.063738    0.01861701  0.02864676  0.03462263  0.04147239
  0.01351524 -0.02521213  0.00931069 -0.06006471  0.01916158 -0.06536675
 -0.01828577  0.01672112 -0.02088382 -0.02176453 -0.01900627  0.03935105
 -0.02289919  0.01533959  0.0116779   0.02861616 -0.05219423 -0.01880688
  0.00652644  0.07148791  0.01044365  0.0545064   0.06023916  0.02673432
 -0.0728841  -0.06980608  0.00511103 -0.0038012   0.02690251  0.03665785
  0.02101571  0.0360678   0.03296249 -0.0073785  -0.00214269  0.01753321
  0.03615119 -0.02459486 -0.03908232  0.00492212  0.02855363 -0.0407778
 -0.01151117  0.02378818  0.00878981  0.01125121  0.01342632 -0.03605845
  0.03391621 -0.02724288  0.02481174  0.05148191 -0.00437586  0.03486469
  0.01930897  0.02658162 -0.02344646  0.05348379  0.02043948  0.0332373
 -0.07812043  0.05004086  0.0307607   0.05463122  0.02502271  0.00692414
  0.00990264  0.0261341  -0.0227905  -0.01609742 -0.00105319 -0.06919388
 -0.0287449  -0.01647121 -0.02074089  0.01664957  0.01568538  0.05360688
 -0.01280118 -0.10027674  0.02845669  0.01628396  0.04335699 -0.0940292
  0.01051997  0.04667625  0.03654449 -0.01649416  0.02559041  0.05851802
  0.04431231  0.00350495  0.03076076 -0.0014457   0.02012748  0.03608475
  0.04733346  0.01966479  0.02852755  0.00876742  0.01192738  0.01742473
 -0.03212727  0.0255827  -0.03542035  0.01049015  0.03102544  0.0218892
 -0.02745642 -0.00583016 -0.01198312 -0.01389123  0.01770259 -0.03283464
 -0.00689893 -0.08135432  0.04173269  0.01505026  0.01999421 -0.00734009
 -0.02245996 -0.04237308  0.02782402 -0.01979462  0.0200654  -0.0134641
 -0.01146678  0.03746263  0.04020232 -0.01324442 -0.01577861  0.06588219
  0.0241034  -0.01300416  0.04366714  0.02779055  0.01814619  0.02261552
 -0.00555412  0.01385978  0.05548912  0.06448507 -0.02096625  0.03488489
 -0.01748128 -0.01406191 -0.02060325  0.00830007  0.06268366 -0.01939206
 -0.03150946  0.03424636  0.03741664 -0.02295702 -0.03722583 -0.01970452
  0.01430587 -0.0322892   0.02610296 -0.03548808 -0.02391354 -0.04833145
  0.01257587 -0.03413565 -0.02830409  0.02234327 -0.03583652  0.02978187
  0.02293491  0.06298639  0.03360663 -0.0190122  -0.09046957  0.01334157
 -0.00705815  0.01086265  0.00294868 -0.05659839  0.02337065  0.02682987
  0.03508445  0.06480418  0.04025211 -0.06997323  0.07375779  0.04360402]
Node 9: 
[ 0.00123037  0.04105976 -0.01008342  0.07948401  0.03427157 -0.06923011
  0.06784603  0.04408558  0.00875208  0.06704453  0.01946    -0.05366725
 -0.09103824  0.03380946 -0.05573533 -0.02527391 -0.04689471 -0.0083382
 -0.04580518  0.06691637  0.00618511  0.04900967  0.05238027 -0.04957106
 -0.01202607  0.0692204   0.00067952  0.02102957  0.05129274  0.01279044
 -0.00357772 -0.0115608  -0.00221424  0.06933487  0.04208309  0.02406031
 -0.00463347  0.0052834  -0.00298896  0.00795447 -0.01627684 -0.00338437
 -0.07844197  0.08902917 -0.02325956 -0.0032572   0.00514552  0.06774194
  0.00636235 -0.01038087  0.01431399  0.07404948  0.07642588 -0.01876461
  0.02362908  0.0024081   0.0252396   0.07972652 -0.03217138 -0.00036503
  0.00324004  0.07151991 -0.06885175  0.05815874  0.01362992  0.01134543
  0.08213963 -0.00517873 -0.05843119 -0.04129565 -0.00848911 -0.00968821
 -0.08866654 -0.06845264  0.03457085  0.02466577 -0.00811424  0.01046709
  0.04997529  0.01280767 -0.02559329  0.02153893 -0.04542396 -0.02191636
 -0.04813511 -0.0444068   0.06453346 -0.00167924  0.06620872  0.04230137
 -0.00056166 -0.02969481 -0.07502293  0.01214533 -0.01027363 -0.08097848
 -0.06651759 -0.00277759  0.03116769  0.02339809 -0.04528976 -0.00802478
 -0.07956451 -0.01101207  0.07625759 -0.00775844  0.05808593  0.04110896
  0.01123358 -0.00648979 -0.04769566 -0.05818609  0.0097741  -0.01388517
 -0.01332955  0.05391901 -0.03860381  0.01109232 -0.02268123 -0.00232941
 -0.00260652 -0.00346497  0.00087798  0.03649431  0.02117066 -0.0204325
  0.02922378 -0.0520444  -0.03400485 -0.07212693 -0.01080346  0.005238
 -0.0752712  -0.00833618 -0.06633108 -0.07154436 -0.01034707 -0.01762296
 -0.00747883 -0.00191301  0.00542456 -0.0099646  -0.04455432 -0.02331154
 -0.00225886 -0.04664191 -0.07532061  0.07218111  0.03666276 -0.00916022
 -0.02137623 -0.0197565  -0.00469448 -0.06388742 -0.05163842  0.07535458
  0.04882946 -0.06050864 -0.04974137 -0.05413982 -0.01384519  0.04334277
 -0.04337875  0.00824878 -0.05411566 -0.07008809  0.06022439 -0.01869072
 -0.03520562 -0.04559052  0.01471435 -0.03766311  0.00253987 -0.07113554
 -0.00632781 -0.00721433 -0.07314581 -0.01488332  0.00617186 -0.07168117
 -0.01516653 -0.06812355  0.01711755  0.05833537 -0.01357262 -0.0070266
  0.0649789   0.04317372  0.0738978   0.00060701 -0.04655523 -0.02390402
  0.05541176  0.01698291 -0.02936184 -0.00391814  0.00525141  0.02896875
 -0.07884863  0.0017363  -0.02194762  0.07068949 -0.01631418 -0.01906975
  0.01090379 -0.00531564 -0.0669803  -0.01006137 -0.04918527 -0.03146056
 -0.01492409 -0.04433887 -0.05079911 -0.04780451  0.00902928 -0.03499842
  0.06577154 -0.04502801  0.07071992 -0.08779205 -0.0029431  -0.05993947
  0.07287312  0.03861538  0.05649844  0.00298169 -0.09451699  0.0960039
  0.05405703  0.00559116 -0.03203361 -0.02729128 -0.06948051  0.01888431
  0.03060634  0.0943097  -0.01855647  0.02018509 -0.05107452 -0.01663303
  0.01022129 -0.06252517 -0.00992531  0.03097267  0.08113414 -0.01552464
 -0.00556019  0.00561463 -0.01851359  0.00614428 -0.05193506 -0.071163
  0.03787106 -0.0472061  -0.06276128  0.00365628  0.0541184  -0.01573018
  0.03664014 -0.01029494  0.04194793 -0.01838595 -0.02258418  0.02328283
  0.03813085  0.00374082 -0.06866037  0.0582208   0.06502102  0.01346198
 -0.06997785  0.06747007 -0.02108497  0.03459307  0.01437073 -0.0128952
 -0.03427441  0.06350725  0.04363325 -0.07244737  0.06608634 -0.01786563
 -0.06202628 -0.03153509 -0.02975393  0.02984262  0.02583657 -0.07371615
  0.07635309 -0.0218065  -0.00189796  0.00645718 -0.05249931 -0.07917355
 -0.0771874  -0.01308551 -0.05720183  0.02739057 -0.00644217  0.00038684]
Node 10: 
[-0.04091854 -0.0149563   0.00059804 -0.02311241 -0.09032039  0.01026521
 -0.02779714 -0.01160162  0.03517759 -0.02294513 -0.02063336  0.00311407
  0.00535624 -0.01302183  0.00968013  0.07363722  0.00362262 -0.03408179
  0.03329867 -0.01884844 -0.01776826 -0.01541414 -0.0118597  -0.00142317
 -0.00598338 -0.01237972  0.04559409  0.00661559 -0.00579186 -0.03798166
 -0.07199536 -0.02695194 -0.02348878 -0.02319909 -0.01096461 -0.07507185
 -0.00533873 -0.03006992  0.0573181  -0.02297249  0.0238177   0.03096543
  0.01573272 -0.02648903  0.03917152  0.04017101  0.0176834  -0.01466403
 -0.08136508  0.02441378 -0.08549624 -0.02971599 -0.02085749  0.05432662
 -0.1017401   0.0681328  -0.01522491 -0.0111578   0.00452154  0.05593953
  0.07795473 -0.02415739  0.00834966 -0.00832359 -0.01715077 -0.00869033
 -0.00531677  0.0385548   0.01075016  0.0254551  -0.02734205  0.05354318
  0.00908171  0.00838272 -0.00677462 -0.01888322 -0.08189553  0.02267752
 -0.0080525  -0.072562    0.03634827 -0.0934018   0.01828048  0.00805497
  0.00698936  0.01198498 -0.01339712  0.04474636 -0.00576195 -0.01010989
  0.04883213  0.00816133  0.02412333  0.04081393  0.04693818  0.01944199
  0.03066424  0.04467826 -0.01734256 -0.00267303  0.01238905 -0.04053631
  0.0083989  -0.02092371 -0.01936651  0.06355817 -0.01386353 -0.00026867
  0.00618249  0.05695663  0.00910637  0.0155888   0.04087887  0.04885428
  0.01725085 -0.00379125  0.00936954 -0.06401255  0.01386    -0.07525344
 -0.03173905  0.02311251 -0.03597897 -0.01197862 -0.00594502  0.04732494
 -0.01685174  0.01957358  0.01909615  0.00675013 -0.05924468 -0.01967476
  0.0224376   0.06287409  0.03359699  0.01371547  0.07016857  0.01695801
 -0.07539059 -0.07255188  0.01192598 -0.00919682  0.01457639  0.00728656
  0.0304245   0.02279699  0.02324805 -0.02104645 -0.00656324  0.01226729
  0.05006049 -0.03097381 -0.03607308  0.01059244  0.00841492 -0.02448694
 -0.00860887  0.0182951   0.00415735  0.01048722  0.01321654 -0.0162424
  0.01321823 -0.0368651   0.01060466  0.02007218 -0.01752933  0.03827856
  0.01020274  0.01913444 -0.02482912  0.03734106  0.03026693  0.01951942
 -0.06618306  0.05476061  0.01831332  0.05350354  0.03677964  0.02754573
  0.00980861  0.01423563 -0.01088435 -0.01675683 -0.00203621 -0.06491924
 -0.02797777 -0.00386905 -0.0083721   0.02591026  0.02026478  0.06531911
 -0.01411496 -0.10086017  0.0406967   0.01722454  0.05548512 -0.09968684
  0.014207    0.05217448  0.03850409 -0.00448365  0.02088256  0.07131532
  0.04940477  0.00347393  0.01154729 -0.01194342  0.02238366  0.01991957
  0.0513209   0.02208009  0.01603019  0.0069673   0.02950253  0.00538888
 -0.00577144  0.01993635 -0.0060205   0.0187738   0.03927197  0.00721669
 -0.01326399 -0.01138441 -0.01749199 -0.02579999  0.03952307 -0.00665954
 -0.00825367 -0.09852827  0.0126605   0.00729034  0.00933888 -0.02282101
 -0.00656068 -0.02397584  0.03254816 -0.01080475  0.01585733 -0.01587912
 -0.00893424  0.00770275  0.03530903 -0.00359491 -0.01940722  0.07356804
  0.02642043 -0.02765217  0.04230462  0.02693152  0.02335907  0.00486703
 -0.02342951  0.01102609  0.04008976  0.07268485 -0.0060216   0.03842495
 -0.01709095 -0.01423876 -0.00557491  0.00619473  0.06859014 -0.0051448
 -0.00988784  0.04244628  0.01290172 -0.00998229 -0.02545068 -0.02697799
  0.01466524 -0.01277081  0.03860796 -0.01688021 -0.01168716 -0.06496623
  0.00464995 -0.03118008 -0.01183833  0.01795916 -0.03090524  0.02012816
  0.01427829  0.07811904  0.0385485  -0.03137977 -0.08831872  0.01721433
 -0.00778537  0.01415033  0.01199051 -0.070344    0.02283543  0.01432161
  0.02655113  0.07050344  0.01858374 -0.08495845  0.07289495  0.05281996]
Node 11: 
[ 3.57673050e-02 -6.42512000e-02  1.47241142e-02 -5.21405217e-02
 -3.58086610e-03  5.18251089e-02 -4.90007869e-02 -1.47945615e-02
 -4.65287049e-02 -3.25803789e-02 -6.02100139e-02  3.96065918e-02
  6.20559143e-02 -4.23569511e-02  4.00517289e-02  6.38547054e-03
  6.38072388e-02  2.32187440e-02  7.23073426e-02 -4.24387251e-02
  8.05736970e-03 -4.24582141e-02 -3.84309399e-02  3.10211127e-02
  1.08348457e-02 -4.75883909e-02 -1.70295630e-02 -2.80958104e-02
 -4.14747413e-02 -1.19250913e-02  1.13168462e-02  2.04589704e-03
  2.70751600e-02 -4.08893309e-02 -5.24017675e-02 -3.28981363e-03
 -1.03032246e-02  1.21055433e-02  7.77988637e-03  8.00741866e-03
  8.85082123e-03 -1.12559388e-03  6.24981504e-02 -5.90760062e-02
 -1.13735352e-02 -2.57936363e-04 -2.90889052e-02 -5.23052007e-02
  1.42709166e-02 -6.92562873e-03 -3.11704939e-03 -2.97146737e-02
 -5.41629515e-02  2.40693655e-03 -2.40874411e-03 -6.55122712e-03
 -2.69041739e-02 -5.62719742e-02  6.54260070e-02 -2.60807955e-03
  3.76960848e-03 -5.32278303e-02  4.60683510e-02 -3.09681360e-02
  7.48865129e-03 -5.37938275e-02 -4.73199690e-02  1.24302861e-02
  3.55975041e-02  7.26822518e-02  2.84542443e-02 -1.36631820e-02
  4.99154107e-02  3.18316932e-02 -5.07046126e-02 -1.31085249e-02
  9.43150578e-03 -4.40290982e-02 -2.78895747e-02 -6.64390280e-05
  4.70762004e-03 -1.09187160e-02  5.50266610e-02  3.70041816e-02
  5.76384332e-02  3.97830851e-02 -4.36053765e-02 -4.39149780e-02
 -4.16043782e-02 -2.16123785e-02 -2.21509243e-02  5.05853698e-02
  3.01083705e-02 -5.67771318e-02 -1.71167747e-03  5.12530187e-02
  5.75881006e-02 -1.80219747e-02 -3.36597558e-02 -5.52787049e-02
  6.46885849e-02  7.17495024e-03  4.58400833e-02  3.20983347e-02
 -5.12771405e-02 -1.12583535e-02 -4.19221091e-02 -4.86219492e-02
 -2.88936993e-02 -2.90024226e-03  4.75150298e-02  5.95641781e-02
 -3.22660307e-02 -1.93026964e-02 -3.38659532e-03 -4.41963243e-02
  2.14843613e-02  1.16096149e-02  2.34684553e-02  4.49576819e-03
  4.36883989e-02 -2.54243418e-02  8.69667591e-03 -4.54777760e-02
 -5.79980489e-02 -2.12770106e-02 -2.63258996e-02  6.91786100e-02
  2.59412561e-02  4.32939500e-02  1.70633198e-02  1.54698893e-02
  4.20870734e-02  1.30647702e-02  3.94392483e-02  5.22068280e-02
 -9.85228395e-03  4.83687078e-02  7.74816442e-03  5.10406759e-03
 -2.56267605e-02  1.55402830e-02  2.31225052e-02  4.42750953e-02
 -3.42934051e-02  5.47479041e-02  5.45656074e-02 -3.67229516e-02
 -2.61516795e-02  3.10322236e-02 -5.49346241e-03  1.65636734e-02
 -6.05526231e-03  3.97644078e-02  6.26259142e-02 -3.31748300e-02
 -2.78207623e-02  6.87036960e-02  6.18511749e-02  2.15363857e-02
  1.82160965e-02 -4.93593023e-02  4.10419546e-02  3.10990136e-02
  6.14268259e-02  6.65532639e-02 -4.06162967e-02 -5.08589234e-03
  4.50012623e-02  5.95157735e-02 -5.39436781e-02  4.35060334e-02
 -3.03144351e-02  5.20823509e-02 -4.85044074e-03 -1.83139275e-03
  5.49468077e-02  6.23224356e-03 -3.75623151e-02  6.08582478e-02
  4.07120796e-02  4.70105102e-02 -4.10024417e-02 -3.64770385e-02
  5.09715787e-03 -4.33529309e-03 -4.71667247e-02 -2.74372928e-02
 -3.59163236e-02 -3.87321531e-02  2.17132774e-02  2.75697904e-05
 -3.34797723e-02 -1.50068391e-02 -1.53324360e-02  1.93926917e-02
 -4.81392890e-02 -9.19455563e-03  3.68589273e-02 -1.58613247e-02
 -8.00609894e-03 -4.78856359e-02  9.60743357e-04 -8.49328761e-04
 -2.17348979e-02  5.48364582e-03  4.84587164e-02  2.72989539e-02
  3.97189914e-02  5.53677036e-02 -9.62035330e-03  5.86686960e-02
  6.14826311e-02  5.20540996e-02 -3.43169363e-02  5.91748541e-02
 -5.94158322e-02  4.80713406e-02 -3.93772023e-02  5.64858787e-02
 -2.79940452e-02  5.23006267e-02 -5.47230441e-02 -2.45760040e-02
 -5.16311799e-02  2.10676237e-02  5.44184638e-02 -4.38167266e-02
 -2.67458289e-02 -1.14302277e-02  5.67419488e-02  7.26483507e-02
  3.58160199e-02 -2.57105711e-02 -1.70181223e-02 -5.13800164e-02
 -1.69217154e-02 -1.34783796e-02  5.27527260e-02  2.51789065e-03
 -3.03708026e-03  6.26773389e-02 -2.67808764e-03 -1.47866912e-02
 -3.32458433e-02 -5.56370060e-04 -1.09678754e-02  1.43057764e-02
  3.16738749e-03 -2.81950324e-02  5.34897165e-02  5.58031515e-02
 -4.86792473e-02  1.54498353e-02  7.49250060e-02  8.14975713e-04
 -2.82048572e-02  8.42157522e-03 -5.89077278e-02 -5.36876160e-03
 -3.99523014e-02  2.28256751e-02 -2.03002852e-03 -3.90964717e-02
 -4.59301979e-02 -2.29307039e-02  6.40583028e-02 -3.22368883e-02
 -5.67505151e-02  1.07960804e-02  3.90633793e-02 -3.40798748e-02
 -7.28209785e-03 -4.87768429e-02  5.54850774e-03 -1.04543852e-03
  2.46154971e-02 -7.36294603e-02 -4.54444439e-02  5.19693753e-02
 -5.05325404e-02  1.91972619e-02  4.04573678e-02  7.61233892e-03
  4.90044501e-03 -6.13441677e-02 -3.89689619e-04  5.66230722e-02
 -5.64045920e-02  3.63860534e-02 -2.04129973e-02  1.08709236e-02
  2.53518587e-02  4.17451598e-02  5.06070371e-02 -2.12438495e-03
  5.56833226e-02 -4.54176199e-03  1.57589291e-03 -1.35982809e-03]
Node 12: 
[ 0.02706942 -0.0402055   0.01495082 -0.01764592 -0.02956822  0.03412054
 -0.01740343 -0.00215111 -0.03511892 -0.01066344 -0.04320251  0.02257679
  0.02150688 -0.04317948  0.02231278  0.029974    0.05801302  0.01517923
  0.05101341 -0.00949629  0.0196874  -0.00622067 -0.00910281  0.00735325
  0.0093272  -0.02076747 -0.00217893 -0.03268916 -0.01664462 -0.02166567
 -0.01641994 -0.01037898  0.01961199 -0.00716587 -0.03171174 -0.03095866
 -0.01088866  0.01619569  0.02492696  0.01552955  0.02557544  0.00802795
  0.00815922 -0.02121753 -0.02385077  0.01266095 -0.02739725 -0.02167946
 -0.01349196 -0.01487735 -0.0362011  -0.0338138  -0.01395257  0.02027314
 -0.03323304  0.00815141 -0.01064023 -0.02368124  0.04231153  0.01733172
  0.02924971 -0.0143562   0.00891353 -0.02007529  0.01799441 -0.03954144
 -0.01034778  0.02132314  0.014063    0.04232765  0.02048275  0.00848591
  0.01150068  0.01352027 -0.06177577  0.00031025 -0.02033969 -0.03209243
 -0.00919782 -0.01725525 -0.01610386 -0.03914703  0.0476172   0.03858493
  0.05362053  0.02504113 -0.01485959 -0.03229875 -0.02888687 -0.00629049
 -0.00409209  0.03816801  0.02739773 -0.03682667  0.00910481  0.0322261
  0.05480718 -0.0319933  -0.05729768 -0.04118558  0.0461141  -0.01005068
  0.03008494  0.0186775  -0.01203187  0.01051587 -0.01009726 -0.04306017
 -0.02974077  0.01552155  0.04347266  0.0546571  -0.01354715 -0.02092885
 -0.00376275 -0.01809721  0.00631966 -0.01772753  0.02660769 -0.01917648
  0.02871751 -0.02369785  0.01662069 -0.02533631 -0.04924089 -0.01776352
 -0.01837021  0.05418602  0.03721328  0.01558395 -0.01011451  0.01311889
  0.01869308  0.02975669  0.01157703  0.04702752  0.01488338  0.03611567
 -0.01919891 -0.02343489 -0.01822783  0.0128412  -0.0065515   0.04419796
 -0.02911316  0.04002727  0.01367997 -0.02574092 -0.00581678  0.03318434
  0.0067239  -0.00323477 -0.02787862  0.00909376  0.03614069 -0.01265706
 -0.02090089  0.04634121  0.03056527  0.01079393  0.01984766 -0.05870678
  0.05717424  0.02109807  0.0371209   0.03719156 -0.01606921 -0.01157601
  0.03566587  0.04242453 -0.04948632  0.06431896 -0.02605296  0.00868132
 -0.0293917   0.01540399  0.02248062  0.0260042  -0.02906851  0.02898716
  0.03157615  0.01150315 -0.03995223 -0.03133722  0.00491248 -0.02912699
 -0.02606577 -0.00292104 -0.02577496 -0.02945151  0.01823818  0.02772254
 -0.00656091 -0.03478353 -0.02616091  0.02357977 -0.02319862 -0.03708037
  0.01766819  0.01029134 -0.01112969 -0.00793847 -0.01864497  0.01513877
  0.00112062  0.01121986  0.01214892  0.02277984  0.03928043  0.03647954
  0.01218803  0.04712539  0.04885098  0.03670738 -0.02554116  0.05336965
 -0.00729072  0.04280641 -0.01903006  0.02399368 -0.02081039  0.01637815
 -0.02186651 -0.01161165 -0.00847357  0.01845339  0.01128096 -0.01659548
 -0.01560803 -0.03183585  0.04748781  0.04937791  0.0293823  -0.03580249
 -0.01156523 -0.00608077 -0.02123588 -0.00454223  0.04754433 -0.00439065
 -0.00216834  0.03025188  0.01771893 -0.01042069 -0.01716731  0.0265591
 -0.01233833  0.00978733  0.01058061 -0.03161245  0.04111958  0.00858097
 -0.04551155  0.00865735  0.07103783  0.02355292 -0.0144602   0.01402917
 -0.03297208 -0.01022844 -0.01702834  0.01795229  0.02125375 -0.04308041
 -0.04974747 -0.00505721  0.0187407  -0.00868904 -0.02000511  0.01736727
  0.03094983 -0.01430311 -0.01440647 -0.03192887  0.00867472 -0.02055318
  0.03178328 -0.06159403 -0.03195212  0.0260965  -0.01793969  0.02567378
  0.01927562  0.02355218 -0.02037956 -0.0374382  -0.03226995  0.023132
 -0.02148376  0.02965451 -0.02278038 -0.01717502  0.00187807  0.03557765
  0.02828436  0.02017433  0.05522245 -0.02335711  0.01837114  0.01555976]
Node 13: 
[ 5.14710122e-02 -8.70003324e-03  5.48116717e-03  7.60801680e-03
  7.81453931e-02 -9.68556076e-07  8.43536674e-03  6.78740368e-03
 -5.76936516e-02  3.47593404e-04  4.02386172e-03  7.30832310e-03
  7.46248251e-04  2.95508358e-04  4.03115878e-03 -6.05782772e-02
  2.39394096e-02  2.96387257e-02  6.59211710e-03  3.26499963e-03
  2.24943744e-02  3.48614898e-03  7.59779905e-04  2.71453058e-03
  6.38441704e-03  4.27493073e-03 -3.43258088e-02 -1.61744188e-02
  8.31987766e-03  1.62826438e-02  4.75829826e-02  1.67927455e-02
  3.34459862e-02 -6.06231922e-04 -4.00532263e-03  6.08167715e-02
 -7.84808916e-03  3.22584061e-02 -2.79510130e-02  2.43755179e-02
 -8.36392274e-03 -1.59672343e-02 -8.19148057e-04  1.44152291e-02
 -4.35738499e-02 -2.74705042e-02 -3.75094654e-02 -5.37962204e-04
  6.94654426e-02 -3.09039956e-02  6.38090633e-02  3.67182034e-03
 -3.23660092e-03 -2.84521017e-02  7.93211831e-02 -5.05141620e-02
  1.53092484e-03  1.04775231e-02  1.18477607e-02 -3.46751324e-02
 -5.92105660e-02  2.63127657e-03 -5.26544712e-03  6.48698956e-03
  2.37956174e-02 -3.39139434e-03 -3.34215590e-03 -1.49599290e-02
  8.27635646e-03  2.03188569e-02  4.01585930e-02 -4.43397129e-02
 -2.73009482e-03  2.88409675e-03  5.68478846e-03  6.90082191e-03
  6.03126570e-02 -4.50391837e-02 -8.96442821e-04  5.41068110e-02
 -2.64473082e-02  7.04502743e-02  1.89976277e-02  8.06832101e-03
  7.30489795e-03  1.13887373e-02  5.71602254e-03 -6.14646128e-02
  4.46766205e-03  4.40721145e-03 -4.12334394e-02  1.92732097e-02
 -1.35959071e-03 -5.81301994e-02 -3.27304885e-02  5.89502493e-03
  1.80900305e-02 -4.61648449e-02  8.24868974e-03 -1.75466234e-02
  9.96399578e-03  3.00061833e-02  4.54203869e-03  3.49102189e-02
  9.73987266e-03 -3.84841436e-02  9.23099234e-04  9.21287153e-03
 -2.26949806e-02 -4.63152896e-02  1.67675289e-02  1.55522148e-02
 -3.84745888e-02 -6.17215793e-02 -1.66821246e-02  1.60843468e-03
  4.72198525e-04  5.39745986e-02 -5.00360376e-03  4.36300609e-02
  5.26667884e-02 -3.89645476e-02  2.91571146e-02 -3.34007936e-03
 -2.19788323e-02 -5.27779190e-02 -1.37696735e-03  6.43213700e-03
  5.70514419e-03  9.65732665e-03  4.53749424e-02  2.70868229e-02
  3.30998690e-03 -3.92708642e-02 -1.09435379e-02  5.68671961e-03
 -5.56678721e-02  1.34469481e-02  6.48510452e-02  5.45128466e-02
 -2.64355513e-02  1.31661335e-02 -2.92652816e-03  1.84448009e-02
 -4.90886668e-02  5.13536128e-03  3.99316253e-03  2.17623570e-03
 -4.58520935e-03  9.79183410e-04 -3.01763559e-02  2.69718658e-02
  2.14356865e-02  5.98044795e-03  2.25463069e-02 -6.06274005e-04
 -3.39312019e-03  3.02453443e-02  2.69116564e-02 -1.64650126e-03
 -3.50086925e-03 -1.25875686e-02  5.52502140e-03  4.63897332e-02
  2.12027842e-02  1.71306180e-02  9.03424060e-03 -4.28595105e-02
  3.75747287e-03  1.35125776e-02 -8.28402596e-03  1.51343106e-02
 -5.06411462e-02  4.05655713e-03  5.59954519e-02 -4.63891656e-02
 -5.74525343e-03 -3.50918937e-02 -5.85541143e-02  1.49438688e-03
  1.01912159e-02  6.07264391e-03 -1.06027156e-02 -3.71525913e-04
 -6.86405381e-04  3.60654724e-02  9.44410720e-04  5.90437800e-03
 -3.34562319e-03 -4.79991602e-02  1.75173824e-03 -3.44343128e-02
  1.42676452e-03  6.08943283e-02 -4.54625646e-02 -1.04949457e-02
 -6.44229866e-02  7.18549182e-02  4.41824780e-03 -3.95170869e-02
 -3.60886363e-02  6.78583623e-03 -1.98484894e-02 -5.44120111e-02
 -3.45443647e-02 -2.07752859e-03 -6.94307920e-05  1.88310583e-02
 -2.69658344e-03  2.11603620e-02 -3.78566251e-02  1.23812826e-02
  2.76674817e-02  2.25932196e-02 -4.77745986e-02  7.11226291e-03
  1.74463475e-03 -2.86401986e-04  7.78382244e-03  5.11719392e-03
 -5.51207911e-02  1.18615221e-02  5.22697112e-03  1.66090687e-03
  1.05096564e-02  3.41422614e-02 -1.25117257e-02  1.44378724e-02
  3.99210923e-03  5.64389290e-02  1.45048645e-02  9.46884895e-03
  5.92535728e-03  6.14540190e-03 -1.03465265e-03  1.83008565e-03
 -3.12920004e-02  1.50286051e-03  1.80522754e-02  5.18605233e-03
  4.37413824e-03  4.83181264e-03 -2.59640673e-02 -2.77685052e-04
  1.00967499e-03 -4.10594547e-02 -2.46432171e-02  2.61389477e-02
 -3.78728324e-02 -4.63750015e-02  1.64456133e-02 -5.50741070e-03
  9.45121861e-03 -5.37899767e-03  9.23865698e-03 -3.59791215e-02
 -2.26277277e-04 -2.06418586e-02 -5.87414084e-03  4.70168916e-04
  2.70856977e-03  1.74735029e-03 -4.22604471e-02 -7.63604501e-03
 -1.37905960e-02 -3.96630562e-02  1.10333240e-03  6.91081224e-03
  1.06623987e-02  2.51991724e-02  1.08755099e-02  8.73340204e-04
 -3.23553111e-02 -1.93890323e-02  1.50433987e-02  3.04606923e-02
 -2.58106775e-03 -9.05444482e-03 -2.01160659e-03 -1.92511882e-04
  1.24155854e-02 -1.91386457e-02  3.72008318e-03 -3.67766372e-02
 -4.27149406e-02  5.15697491e-03  6.56233285e-02  5.59952789e-03
  1.21024124e-03  8.34598369e-03 -2.16742342e-02  4.82146914e-02
 -1.14556421e-02  7.73557032e-03 -5.90671726e-03 -3.89268735e-02
  1.94787545e-02  5.15595742e-02 -3.93375623e-02 -2.62175608e-02]
Node 14: 
[ 0.04274629 -0.05171672  0.01580158 -0.00670996  0.00033117  0.01728669
 -0.00589896  0.00646186 -0.04916115 -0.00599306 -0.03759376  0.01787897
  0.02565043 -0.04182981  0.02171789 -0.00192449  0.04820308  0.02395882
  0.05258086 -0.01909031  0.01921447  0.00073811 -0.0100724   0.00834327
  0.01034344 -0.01566545 -0.01084479 -0.0332469  -0.01030867 -0.01263489
  0.00297081 -0.0031987   0.02604014 -0.0162123  -0.04982607  0.00240942
 -0.0111544   0.02006795  0.00236981  0.01791356  0.00755524  0.00198146
  0.01023642 -0.0090288  -0.03439244  0.00528066 -0.03822443 -0.00430204
  0.01444439 -0.02768108  0.00421889 -0.01194874 -0.01367602  0.00439544
  0.00537395 -0.00712288 -0.01358819 -0.01653985  0.05288295  0.0014532
  0.00314262 -0.01676716  0.00455325 -0.01401358  0.01523356 -0.04463925
 -0.02103624  0.00810871  0.01025646  0.05687556  0.03364325 -0.0071251
  0.02738703  0.01239366 -0.04361479  0.00896871  0.0073458  -0.04141355
 -0.00533966 -0.00555885 -0.02191556  0.00032497  0.04717535  0.03536518
  0.06626569  0.02861357 -0.01820266 -0.05010953 -0.0168392  -0.00177399
 -0.01561769  0.03967652  0.00364725 -0.0520885  -0.00055738  0.0238049
  0.05165771 -0.04838848 -0.02989082 -0.04177222  0.04882789  0.00173304
  0.02005967  0.02566705 -0.01770235 -0.00591357 -0.01038865 -0.03610018
 -0.03398637 -0.00281692  0.03975929  0.04432985 -0.02739441 -0.04555605
 -0.00874463 -0.00751154  0.00314159  0.00447322  0.02184976  0.00138549
  0.04195784 -0.03107795  0.01748871 -0.0273159  -0.03841624 -0.03278704
 -0.01541242  0.05021839  0.03255727  0.0184059   0.00585402  0.01982842
  0.00990135 -0.00241706 -0.00554708  0.07142693 -0.00516198  0.0413661
 -0.00211852  0.00430952 -0.02291213  0.01542516 -0.01207177  0.04746909
 -0.04117623  0.05329738  0.01688257 -0.01577546 -0.00510674  0.02692262
 -0.00387264  0.00458701 -0.01492406  0.01172872  0.05461254 -0.01713714
 -0.01548117  0.04626315  0.04261777 -0.00489     0.01797331 -0.04851253
  0.05071892  0.03643568  0.03746611  0.06017916 -0.01958608 -0.0386801
  0.04447209  0.05272392 -0.04348787  0.05957314 -0.04191897  0.00400614
 -0.00268646  0.0034304   0.02041284  0.00679412 -0.04719952  0.02470166
  0.03114812  0.01446606 -0.03997819 -0.01900091  0.00400886  0.00154186
 -0.01726265 -0.00346782 -0.01010569 -0.03952535  0.01059977  0.0093137
 -0.00688006  0.000806   -0.03990692  0.01614226 -0.03761137  0.00032705
  0.00918552 -0.01139269 -0.03265624 -0.01480851 -0.02025894 -0.00438243
 -0.0112498   0.00938452  0.02445676  0.02729904  0.03308586  0.04328659
 -0.00481552  0.04133113  0.046956    0.03691686 -0.04311589  0.05373638
 -0.01960809  0.03247026 -0.01334267  0.01029682 -0.04514243  0.01300035
 -0.01391168 -0.00644477 -0.00791452  0.02861853  0.02480585 -0.02608621
 -0.00450274  0.00239365  0.03516127  0.05426797  0.02153856 -0.02160497
  0.00076563 -0.01280071 -0.0282868  -0.00794293  0.04539897 -0.00195605
  0.00098711  0.01504694  0.00507308 -0.01051351 -0.01139153 -0.00056078
 -0.02226614  0.02245476 -0.00287166 -0.03834213  0.04670646  0.01374831
 -0.05419171 -0.00149551  0.04611269 -0.00307978 -0.00761551  0.0080999
 -0.05994178 -0.00787346 -0.00541303  0.01692443  0.00092608 -0.04544671
 -0.04674501 -0.01600459  0.00916708 -0.00260988 -0.01883812  0.01794174
  0.01954207 -0.01051151 -0.03061535 -0.0378353   0.01727754  0.00299414
  0.02781612 -0.05217766 -0.03435665  0.01457632 -0.00331864  0.01500086
  0.02266527 -0.00062131 -0.0322152  -0.03664391  0.00761122  0.01419299
 -0.00638596  0.02992001 -0.02765582  0.00283558 -0.0051098   0.02564953
  0.01708768  0.00429256  0.05536287 -0.00477584 -0.00153485  0.00247102]
Node 15: 
[ 4.88754650e-02  2.45366537e-02 -1.39972742e-02 -6.44083961e-02
  1.09854136e-01  9.12762586e-02 -6.46560665e-02 -4.35943490e-02
 -5.79649577e-02 -6.27166798e-02  4.68787221e-02  6.98443435e-02
  8.48245839e-02  4.69551594e-02  6.71961871e-02 -9.41163482e-02
 -2.24022146e-02  2.67310043e-02 -1.67820077e-02 -5.49172360e-02
  2.10899254e-04 -4.98757781e-02 -6.19005734e-02  5.70593248e-02
  1.67143817e-03 -6.73278355e-02 -6.21312272e-02  1.71856765e-02
 -5.88434361e-02  3.97041121e-02  9.37488228e-02  5.63713678e-02
  4.39427934e-02 -6.83540873e-02  2.67840734e-02  9.90618039e-02
  2.50417399e-03  3.70127091e-02 -6.89909558e-02  4.97390215e-03
 -4.65582836e-02 -4.44353160e-02  9.14616063e-02 -6.42034384e-02
  3.52456658e-03 -7.22519726e-02 -1.70252112e-02 -5.64362879e-02
  1.02036833e-01  9.13145587e-03  1.05508934e-01 -6.90213471e-02
 -5.86626137e-02 -7.29471970e-02  1.02993425e-01 -7.87287000e-02
 -3.00873673e-03 -6.29265825e-02 -3.57169315e-03 -7.67459684e-02
 -1.01485727e-01 -6.39313072e-02  8.56728561e-02 -6.29241793e-02
 -1.36438731e-02  5.17466942e-02 -6.79826896e-02 -6.78223754e-02
  8.35451395e-02 -1.69408947e-02  3.84047951e-02 -7.56937529e-02
  9.48752651e-02  8.12857670e-02  6.29701801e-02 -3.42821446e-02
  1.07567543e-01 -4.68441897e-02 -5.49106698e-02  8.01020939e-02
  2.60909440e-02  1.10073101e-01  1.95127732e-02 -2.39885429e-02
 -7.85878967e-03  4.12273296e-02 -6.40774640e-02 -5.47748377e-02
 -7.36042877e-02 -3.55417250e-02 -6.68542299e-02  2.57675934e-03
  8.79952266e-02 -6.65835887e-02 -5.82013752e-02  9.21204994e-02
 -4.42884252e-03 -3.22920448e-02  4.23720787e-02  2.78462533e-02
  1.17030188e-02  6.92670766e-02  8.51941309e-02  5.74496526e-02
 -5.48900910e-02 -8.17586194e-02 -4.69302048e-02  3.37788219e-02
  8.06104632e-03 -8.97253748e-02 -5.42369390e-03  7.63822710e-03
 -7.04666784e-02 -1.92875341e-02 -1.56733182e-02 -5.69434997e-02
  4.25930744e-02  1.06262004e-01 -2.87108199e-02  1.02310477e-01
  5.53213984e-02 -2.88793011e-02  1.36950119e-02 -3.79022603e-03
  1.04325068e-02 -7.88826951e-03 -2.75818119e-02 -1.16488131e-02
 -2.94456923e-02  9.24239582e-02  9.71046452e-02  2.33711015e-02
  8.42670098e-02 -8.15688719e-02  6.99132192e-02 -3.56069995e-03
 -9.02734845e-02 -1.88146450e-02  1.09842341e-01  9.16892985e-02
 -3.08480670e-02  8.36806577e-03  5.03071537e-02 -5.74562142e-03
 -3.84894351e-02 -1.99842684e-03  8.80817230e-02 -5.93513410e-02
 -4.93417386e-02 -2.07728912e-02 -6.64854629e-02  7.18640520e-02
  6.81785302e-02  7.70506468e-02  8.55923828e-03 -6.83606555e-02
 -4.83437500e-02  2.02387573e-02  2.41514572e-02  6.36011076e-02
 -2.64686563e-02  5.51664920e-02 -3.87129051e-02  4.49197940e-02
  5.58870744e-02 -8.17070918e-03 -6.85438751e-02  8.08445957e-03
 -2.42407410e-02  2.69858933e-02  4.09764833e-02 -2.90400330e-02
 -3.69083755e-02  8.96477613e-02  9.96038478e-02 -6.48552788e-02
  7.93064193e-02 -5.91689379e-02 -5.26673560e-02  9.07450062e-02
  8.41922908e-03  7.85048801e-02  4.17299593e-02 -6.62045074e-02
 -5.26624033e-03  9.56220450e-02 -6.21613854e-02 -2.95454198e-02
 -4.78827257e-02 -4.45931419e-02  7.37572335e-02 -8.88724262e-02
 -4.88349707e-02  1.00074770e-01  3.54608620e-03 -3.53662412e-02
 -9.09216923e-02  1.12152616e-01  9.54018424e-02 -8.27299858e-02
  6.02371554e-03 -6.71289905e-02  2.41308183e-02 -9.41569260e-02
 -6.92128873e-02 -2.67451632e-02  9.12885143e-02  5.19815068e-03
 -3.88046026e-02 -1.69377409e-02 -7.82958430e-02  1.84158554e-03
  2.16391299e-02  3.26460176e-02 -3.46021647e-02 -2.92294136e-02
 -6.69546566e-02 -4.65430617e-02 -6.85635223e-02  8.85850032e-02
 -2.78706462e-02  8.26766228e-02 -6.64124203e-02 -3.79517426e-02
 -6.27494179e-02  2.57256051e-02  9.12146490e-02 -7.44818343e-02
 -5.44265566e-02  1.00444325e-01 -2.64678629e-02  4.25253931e-04
  8.61405208e-02  3.33996383e-02 -3.68913959e-02 -7.53886710e-02
 -4.87170432e-03 -8.96626694e-03  1.74435579e-02  2.67194448e-02
 -1.90612396e-03  8.37555650e-02 -6.03228882e-02 -2.50725225e-02
 -6.18014845e-02 -7.51529140e-02  1.64852423e-03  2.12582511e-02
 -6.50758340e-02 -3.61957471e-02 -2.55886096e-02  8.95783028e-02
  3.71506015e-02  5.59244486e-02 -3.21121922e-02 -9.14501223e-02
 -4.68179105e-02 -5.92721140e-02  4.02171168e-02  2.00316567e-02
 -5.40690086e-02 -8.03516194e-05 -9.96197843e-02  4.54832253e-02
  2.93512756e-02 -6.89424105e-02  9.35761720e-02 -4.22189648e-02
 -6.13794566e-02  1.37108319e-02  8.23155288e-02 -5.97910119e-02
  2.94814289e-02  1.65725079e-02 -1.32577517e-02  7.98418615e-02
 -2.21263227e-02  3.07223950e-02  2.33569603e-02  9.04379854e-02
 -6.69204538e-02 -4.36387037e-02  8.93187680e-02 -9.07197679e-02
  1.92165703e-02  4.59101396e-02  1.09686530e-01  8.56631333e-02
 -6.56600337e-02  7.83017813e-04  1.11075804e-03  9.63417008e-02
  6.01587228e-02  8.79443094e-02  8.80079976e-02 -9.30621916e-02
  3.64986379e-03  8.83133504e-02 -8.04461892e-02 -7.31622616e-02]
Node 16: 
[-0.03368154 -0.0247777  -0.00187573 -0.03397576 -0.10160787  0.04715654
 -0.0388186  -0.02557572  0.03574929 -0.01632215 -0.02439193  0.00928627
  0.01541752 -0.01956775  0.01118294  0.09397421  0.0196786  -0.01614534
  0.03239827 -0.02827864 -0.02853476 -0.00990908 -0.02856988  0.01526459
 -0.00614622 -0.01983106  0.04505786  0.00517657 -0.01651143 -0.03940309
 -0.0659265  -0.0218198  -0.02275484 -0.03723157 -0.02498752 -0.08658613
 -0.00500587 -0.02093746  0.05930517 -0.02042113  0.02998515  0.03489248
  0.02328415 -0.03002014  0.04992185  0.04101158  0.01772958 -0.0089469
 -0.08098888  0.02681296 -0.10334517 -0.02954602 -0.03406077  0.05482188
 -0.09510317  0.06365618 -0.00853955 -0.02339183  0.01763578  0.05266624
  0.07710298 -0.03702949  0.02907075 -0.02367764 -0.01988868 -0.01523953
 -0.03129297  0.0543822   0.01709251  0.03465801 -0.02964296  0.0517189
  0.01937651  0.0304249  -0.03550499 -0.02023791 -0.08648057  0.0231597
 -0.0205616  -0.07155697  0.03830334 -0.11445117  0.02802726  0.01245209
  0.04324809  0.009825   -0.02051128  0.04796069 -0.03659707 -0.01406473
  0.04881123  0.01534289  0.04426421  0.04205441  0.03646052  0.03919318
  0.03135243  0.04694208 -0.01450564 -0.01914621  0.02995983 -0.036561
  0.03262961 -0.0201741  -0.02363092  0.0624545  -0.00947571 -0.0079712
  0.00749346  0.05725733  0.0080574   0.01808488  0.03758137  0.04780286
  0.01672177 -0.03243005  0.02046638 -0.06376888  0.01246607 -0.08036103
 -0.03040288  0.02069588 -0.03728548 -0.01324705 -0.02790741  0.05465629
 -0.02594295  0.02689466  0.01853801  0.00982979 -0.05741508 -0.0270183
  0.01965113  0.05420032  0.04023378  0.00646804  0.07047511  0.0082941
 -0.08326988 -0.07793339  0.01127044 -0.00926926  0.01509179  0.0148607
  0.0308462   0.00479874  0.02138486 -0.02661538 -0.01766103  0.01078546
  0.05285794 -0.02635624 -0.03897923  0.01679867  0.02466603 -0.03833604
 -0.02722244  0.00522987  0.01741606  0.01267468  0.01276385 -0.00692588
  0.03233204 -0.04052288  0.01167465  0.01653711 -0.021649    0.05093922
  0.01849156  0.02927831 -0.03381743  0.0155973   0.0327603   0.01765571
 -0.080488    0.05709846  0.02303016  0.06285411  0.03772407  0.01380479
  0.00804855  0.0315051  -0.00435751 -0.01303641 -0.00118715 -0.07354434
 -0.03478742 -0.02115534 -0.03626442  0.02670269  0.02326009  0.0737039
 -0.00884414 -0.11280787  0.04963154  0.0237341   0.05381342 -0.11033751
  0.02942103  0.05063108  0.04060721 -0.0187464   0.03324534  0.07717399
  0.04798967  0.00409234  0.02611096 -0.00741596  0.02720947  0.02101686
  0.05740275  0.02563921  0.0141555   0.02208788  0.03626384  0.02275543
 -0.02595799  0.03034645 -0.04457268  0.04174695  0.03700784  0.01764945
 -0.01761083 -0.02011647 -0.0326542  -0.02571969  0.0272363  -0.01759804
 -0.01120345 -0.10747896  0.01928585  0.02905991  0.03037257 -0.02431847
 -0.00427632 -0.04684302  0.03803584 -0.01346357  0.01794477 -0.01463565
 -0.01373935  0.01132933  0.03894496 -0.00211395 -0.01610333  0.08981302
  0.02387043 -0.03005062  0.03515602  0.03133562  0.02020076  0.04096615
 -0.02151964  0.01672423  0.01459364  0.06700375 -0.02571829  0.0367028
 -0.03933613 -0.01412051 -0.02205431  0.00636419  0.0782114  -0.01045852
 -0.01186174  0.04148149  0.03968112 -0.02118824 -0.02756919 -0.02462249
  0.02442512 -0.02910544  0.03546554 -0.01077579 -0.02307791 -0.05103895
  0.02072444 -0.00554364 -0.01670549  0.04004963 -0.03306093  0.02987715
  0.03034602  0.08501641  0.0451048  -0.02953796 -0.10329839  0.03736177
 -0.01428834  0.00476253  0.01222846 -0.07198925  0.02945508  0.01260951
  0.04571792  0.07231733  0.03425667 -0.08590369  0.07234666  0.05283197]
Node 17: 
[ 3.92128298e-02 -5.61325108e-02  1.94469515e-02 -5.27701739e-02
 -1.21335263e-02  4.29228018e-02 -5.56221816e-02 -2.80054696e-02
 -5.66697768e-02 -5.33535586e-02 -5.69631370e-02  4.33747769e-02
  4.48296199e-02 -5.85401677e-02  4.03139089e-02  4.51201863e-03
  7.33296348e-02  1.29442364e-02  7.55186589e-02 -5.96160796e-02
  1.29486104e-02 -4.29179003e-02 -4.74988416e-02  2.48156707e-02
  1.33423361e-02 -4.32619238e-02 -1.53475271e-02 -4.07448657e-02
 -3.58013971e-02 -1.42060366e-02  5.49328799e-03 -2.35866527e-03
  3.03297424e-02 -6.81845540e-02 -6.41185254e-02 -5.32547390e-03
 -1.31217815e-02  1.26682495e-02  8.95543058e-03  9.25371620e-03
  2.15755108e-02  4.50333692e-03  5.71700827e-02 -4.22764934e-02
 -8.11446791e-03  7.72449347e-03 -4.11348650e-02 -4.59123424e-02
  1.36541142e-02 -1.17343011e-02 -1.27368524e-02 -5.88899958e-02
 -3.70409516e-02  5.45917363e-03 -1.14146936e-02 -3.24209267e-03
 -2.58134301e-02 -4.76569070e-02  6.72188152e-02  2.63869260e-04
  4.82413793e-03 -5.63242429e-02  5.56902050e-02 -5.40711512e-02
  9.19109625e-03 -6.49303814e-02 -6.23626997e-02  9.95602328e-03
  4.69375133e-02  9.25364434e-02  3.35572898e-02 -9.14295328e-03
  4.97378823e-02  4.70491897e-02 -8.12896738e-02 -1.21952544e-02
  4.70581142e-03 -4.94641605e-02 -4.57413735e-02 -3.39590757e-03
 -5.51774012e-03 -1.38278668e-02  5.77639406e-02  5.13606632e-02
  8.54912238e-02  4.60263495e-02 -5.70135643e-02 -5.18015644e-02
 -4.68324084e-02 -2.48009839e-02 -1.98980664e-02  5.80730484e-02
  6.54463430e-02 -6.42498049e-02  8.16653713e-05  6.84414645e-02
  9.01435486e-02 -3.45530377e-02 -5.39166185e-02 -7.16033920e-02
  7.08697754e-02  5.16242855e-05  6.39666268e-02  3.31733987e-02
 -6.32523091e-02 -5.95148951e-03 -4.39915148e-02 -7.51306861e-02
 -3.98246657e-02  3.94015969e-03  7.37252444e-02  7.13067389e-02
 -3.22683096e-02 -2.19182727e-02 -2.71682880e-03 -3.72605742e-02
  1.92991477e-02  6.74087197e-03  3.21676480e-02 -1.05278478e-03
  4.98407541e-02 -3.19178593e-02  2.73254716e-02 -4.79242432e-02
 -7.77150401e-02 -1.94320366e-02 -4.15753508e-02  8.11382139e-02
  4.42371481e-02  4.37877629e-02  1.26728678e-02  1.66083947e-02
  3.53836769e-02  8.76210771e-03  4.96987870e-02  8.50588342e-02
 -5.97751778e-03  5.10284457e-02 -2.71144196e-04 -7.48008222e-04
 -2.90534035e-02  1.84625820e-02  1.61648839e-02  6.26196891e-02
 -4.08997008e-02  6.35295963e-02  4.16686382e-02 -4.65375412e-02
 -2.98250387e-02  4.27956176e-02  1.13517720e-03  1.34482528e-02
 -2.25038606e-02  4.51241337e-02  6.65031063e-02 -6.16927473e-02
 -5.25598031e-02  8.14504784e-02  7.88484026e-02  4.28292319e-02
  2.49499671e-02 -7.51122518e-02  7.83794411e-02  3.11279175e-02
  6.54700958e-02  8.51448241e-02 -5.21603175e-02 -1.45300228e-02
  5.62903061e-02  6.78234025e-02 -7.40955312e-02  9.39278463e-02
 -4.04177842e-02  5.20117664e-02 -4.32720162e-03  5.95996620e-04
  5.44111106e-02  7.58717227e-03 -4.82319729e-02  6.42999091e-02
  5.96382364e-02  5.36093318e-02 -4.97147495e-02 -3.97623384e-02
  6.81410386e-03 -9.03684251e-03 -4.69224253e-02 -2.77413533e-02
 -6.05558983e-02 -4.63303151e-02  2.83518371e-02  1.39257122e-02
 -3.08161758e-02 -1.43871040e-02 -1.99193776e-02  2.39158119e-02
 -5.13995596e-02 -1.25512953e-02  4.71610795e-02 -1.11694583e-02
 -4.23884791e-03 -5.13412674e-02 -8.36541716e-03 -7.75391769e-04
 -1.68588307e-02  8.86994319e-03  4.64709042e-02  3.34202301e-02
  7.33397170e-02  6.09713544e-02 -2.56499829e-03  7.12618490e-02
  9.58589995e-02  5.92939883e-02 -4.26564345e-02  8.08493601e-02
 -5.89119103e-02  6.64820626e-02 -4.06535254e-02  3.92180853e-02
 -3.21944992e-02  6.07956962e-02 -4.56814202e-02 -2.77133767e-02
 -4.61309969e-02  2.73463029e-02  6.77503124e-02 -5.26180163e-02
 -4.16181015e-02 -9.15576604e-03  5.19841999e-02  6.52029521e-02
  5.08747648e-02 -3.88694063e-02 -3.37144903e-02 -7.04889615e-02
 -1.65008056e-02 -2.15944631e-02  7.33162276e-02  8.71893320e-04
 -9.62624736e-03  4.51810523e-02  8.62183740e-03 -2.39890009e-02
 -5.21449288e-02  1.02679944e-02 -9.60636232e-03  1.25251364e-02
  6.63056046e-03 -3.72933995e-02  7.42157346e-02  4.17142192e-02
 -7.63648539e-02  2.81206541e-02  7.43525838e-02  4.23427877e-03
 -3.03930429e-02  1.27980515e-02 -7.92405712e-02 -8.05730665e-03
 -4.04676178e-02  2.66500446e-02  5.26396989e-03 -5.44574220e-02
 -6.71000714e-02 -2.12534422e-02  4.68258808e-02 -3.19417455e-02
 -5.60520556e-02  1.39829746e-02  4.62616123e-02 -6.21382736e-02
 -9.64808379e-04 -7.11366978e-02  5.44472906e-03 -6.81328797e-03
  3.57226470e-02 -9.13207746e-02 -5.15655952e-02  6.38470383e-02
 -4.68595411e-02  2.36259685e-02  3.48170006e-02  7.45179213e-03
 -2.79772603e-03 -7.66382038e-02 -2.54626429e-03  6.15084784e-02
 -3.76423223e-02  4.35615568e-02 -2.66679203e-02  4.25782098e-03
  1.62520861e-02  6.99439868e-02  5.23429613e-02  2.93988223e-03
  8.68840775e-02 -8.47029923e-03  4.75521232e-03  6.70437688e-03]
Node 18: 
[-0.03609288 -0.03666699  0.00078119 -0.03222775 -0.09543463  0.00814341
 -0.02568413 -0.01761944  0.02971621 -0.02777707 -0.03918905  0.01524095
  0.03504767 -0.02220833  0.01968704  0.0899365   0.01000471 -0.02574037
  0.01739515 -0.02489588 -0.01782845 -0.00744514 -0.01898712  0.00064794
 -0.00476388 -0.02271653  0.04184388  0.00011687 -0.02175805 -0.03286215
 -0.06969808 -0.02717425 -0.02023982 -0.018714   -0.00693328 -0.09015208
 -0.00628824 -0.02874146  0.05198495 -0.02647342  0.03774557  0.03232336
  0.00792958 -0.02376335  0.04134045  0.03844473  0.01203496 -0.01988082
 -0.08202249  0.02458971 -0.10355512 -0.02365536 -0.00834359  0.06514571
 -0.09127688  0.05435438 -0.01555995 -0.0194932   0.02366003  0.06058491
  0.0773926  -0.01292732  0.02732678 -0.01655124 -0.02831383 -0.01736006
 -0.02883463  0.05270712  0.01411831  0.03312525 -0.0235212   0.05872773
  0.03215462  0.00309879 -0.02188732 -0.01775708 -0.08284317  0.0192618
 -0.01567492 -0.05395116  0.04545983 -0.10175707  0.02838158  0.01592053
  0.02667718  0.00493044 -0.01708928  0.03907742 -0.01843969 -0.01549756
  0.04974328  0.01492465  0.03671151  0.03389178  0.04418133  0.01789177
  0.01653959  0.04268326 -0.01535343 -0.02065451  0.00491778 -0.03868208
  0.00422619 -0.01894372 -0.02174756  0.05820834 -0.00346652 -0.03867275
  0.00374582  0.07312478  0.01266416  0.0338572   0.03972316  0.04511373
  0.0158065  -0.0158844   0.00477162 -0.06944018  0.01451326 -0.07480701
 -0.02696679  0.01539015 -0.03341479 -0.01162705 -0.03452972  0.03351846
 -0.01950133  0.02368023  0.02664319  0.01560907 -0.0566591  -0.01900804
  0.02857473  0.0648891   0.01397397  0.0278668   0.07036546  0.01683951
 -0.08176888 -0.07402617  0.00924589 -0.00794812  0.02855302  0.01768823
  0.0264664   0.02812848  0.0036028  -0.02645044 -0.00479273  0.02610762
  0.05573909 -0.03099422 -0.02834343  0.01489218  0.02339151 -0.03353388
 -0.02653601  0.02010982  0.00804929  0.02778998  0.01478311 -0.03989513
  0.02455154 -0.02736193  0.00441798  0.04760734 -0.01530646  0.04048765
  0.02572739  0.01629561 -0.03499346  0.03262915  0.0260592   0.00687122
 -0.08052644  0.05266879  0.02870651  0.045835    0.03190947  0.01216719
  0.01988706  0.02372878 -0.00957443 -0.02167469 -0.00210363 -0.08438187
 -0.03243464 -0.01271688 -0.01910353  0.02400184  0.02631279  0.06988882
 -0.01859832 -0.10236705  0.04622049  0.02100059  0.05470103 -0.0946949
  0.01525761  0.05078859  0.03866954 -0.01993571  0.01783373  0.06488894
  0.057028    0.00403786  0.01168739  0.00174169  0.02938496  0.02204137
  0.05122843  0.02923352  0.00925827  0.02148285  0.02307361  0.04659624
 -0.01865365  0.04280024 -0.02976769  0.01960406  0.03853489  0.0171378
 -0.01548513 -0.01355051 -0.01566219 -0.02231938  0.01761568 -0.03388444
 -0.01966538 -0.10495225  0.02456654  0.01529849  0.00865911 -0.01731174
 -0.0077033  -0.03780649  0.03296964 -0.01746531  0.00420909 -0.01523596
 -0.01011384  0.00280457  0.04520483 -0.00829838 -0.00989628  0.07488903
  0.02746045 -0.02182798  0.03673764  0.03255029  0.04013274  0.03574609
 -0.03932554  0.0136134   0.03737795  0.06263506 -0.00578729  0.04279516
 -0.01069741 -0.01534507 -0.00260354  0.00826397  0.05650408 -0.01404142
 -0.02979379  0.04079185  0.00664604 -0.01150407 -0.03009668 -0.02410469
  0.02820095 -0.03653415  0.03130139 -0.02103429 -0.01900142 -0.05559663
  0.01539314 -0.02925676 -0.01233828  0.00652718 -0.03948601  0.03590434
  0.02578325  0.08742783  0.0427908  -0.03417898 -0.09388571  0.03094018
 -0.0237112   0.01643177  0.00660958 -0.06360092  0.02348993  0.02702776
  0.01900143  0.07758373  0.03526804 -0.08889112  0.08077882  0.04183257]
Node 19: 
[ 4.43012169e-02  3.87697115e-03 -1.99275825e-03 -9.91507248e-03
  5.79987607e-02  9.68070382e-03 -4.11505976e-03 -8.32979221e-03
 -5.45493430e-02 -1.29561567e-02  1.90087490e-03  1.89516134e-02
  1.86900088e-02  1.96680966e-02  2.48531418e-02 -5.61777084e-02
 -5.97503300e-03  3.09206207e-02 -2.42451925e-03 -1.58873013e-02
  1.69635108e-02 -3.97590754e-03 -1.14377824e-02  1.18901596e-02
  4.71920199e-03 -8.20448893e-03 -3.94581206e-02 -5.51291379e-03
 -8.13276682e-03  1.77075512e-02  5.10450701e-02  2.43475765e-02
  3.44371870e-02 -6.15034586e-03  4.52881889e-03  5.67751072e-02
 -5.16376444e-03  2.47731389e-02 -4.40246162e-02  1.52748185e-02
 -1.72529411e-02 -2.03754864e-02  1.54123895e-02 -1.73820595e-03
 -3.75733822e-02 -4.14609312e-02 -2.90629163e-02 -5.95490085e-03
  6.96907743e-02 -2.01231631e-02  7.97237419e-02 -1.22593176e-02
 -5.06295574e-03 -4.04060682e-02  8.53048777e-02 -5.03770427e-02
 -6.57150222e-04 -7.19435289e-03  1.49489604e-02 -5.54935959e-02
 -4.74071592e-02 -1.67174991e-02  1.66053475e-02 -1.50384783e-02
  1.29937270e-02  1.44526642e-02 -8.39441094e-03 -4.40581969e-02
  2.45264068e-02  9.51419520e-03  3.82308594e-02 -6.34225431e-02
  1.85961872e-02  1.94309992e-02  2.93745388e-02 -5.68993514e-03
  7.42336299e-02 -4.20957514e-02 -1.21342544e-02  4.34353265e-02
 -1.85244397e-02  6.15122044e-02  2.75319523e-02 -3.43754696e-03
  1.38996386e-02  2.19133732e-02 -8.88278655e-03 -5.33029196e-02
 -1.24276539e-02 -5.40126548e-03 -4.04401031e-02  5.41977456e-03
  1.50306188e-02 -5.69058496e-02 -3.07780299e-02  1.67960804e-02
  1.85503190e-03 -3.67881385e-02  7.08522777e-03 -7.31065623e-03
  2.74220715e-02  3.62935846e-02  2.65145085e-02  3.79531984e-02
 -4.07555941e-03 -3.94102887e-02 -1.11955836e-02 -2.44780134e-03
 -1.35719662e-02 -3.50322763e-02  1.75816309e-02  1.46447756e-02
 -3.95914700e-02 -4.84070189e-02 -1.66487280e-02 -1.51775889e-02
  8.03280225e-03  5.25390022e-02 -4.14589785e-03  7.20444467e-02
  4.78868738e-02 -2.79656782e-02  1.68578424e-02 -7.92304702e-03
 -3.55521473e-03 -3.64880117e-02 -3.79918128e-03 -3.61260454e-03
 -8.68250633e-03  2.66277362e-02  5.56329029e-02  2.25015136e-02
  2.12922036e-02 -5.31184740e-02 -2.19566290e-04  2.09125308e-02
 -5.44032307e-02  1.45608765e-02  4.70127245e-02  6.03414419e-02
 -2.55296409e-02  8.21441869e-03  1.11709935e-03  1.56236005e-02
 -4.48583825e-02  1.82953435e-02  1.56814065e-02 -7.07969849e-03
 -1.46982743e-02 -3.85452792e-04 -4.47823528e-02  3.32037763e-02
  2.17564647e-02  2.29894853e-02  1.09222058e-02 -7.92601947e-03
 -8.07433024e-03  1.37693625e-02  2.66062275e-02  9.48700533e-03
 -1.16870564e-02  5.59749223e-03 -3.84785897e-03  4.32162035e-02
  2.36524005e-02  1.95372364e-02 -4.48167094e-03 -2.43959530e-02
 -4.43694774e-03  2.61051414e-02  3.32865188e-04 -1.61233857e-03
 -4.46877016e-02  1.72148573e-02  4.96340356e-02 -4.54466306e-02
  2.56750232e-02 -2.85692061e-02 -5.36726424e-02  1.71449354e-02
  4.44372184e-03  2.24505889e-02  6.95700613e-03 -9.70751384e-03
 -4.08278899e-03  6.30040271e-02 -6.53253695e-03 -6.64224954e-04
 -1.31068353e-02 -3.98118652e-02  1.41055791e-02 -3.16695389e-02
 -7.59469794e-03  7.89785211e-02 -4.00848111e-02 -7.34720915e-03
 -6.71839050e-02  6.91484623e-02  2.33706502e-02 -5.89580865e-02
 -2.92361272e-02 -5.49653418e-03 -9.20273211e-03 -5.51192208e-02
 -5.02789759e-02 -8.11574727e-03  2.24588148e-02  1.17280316e-02
 -1.71636975e-02  1.68877991e-02 -3.92009968e-02  1.61314004e-02
  1.46204743e-02  2.30813763e-02 -3.71875988e-02 -8.54692420e-03
 -6.83686537e-03 -1.64996245e-02 -1.62961211e-02  2.30499851e-02
 -4.06426179e-02  2.28712366e-02 -8.32976274e-03 -9.21863139e-03
 -5.74547753e-03  3.09250855e-02  1.91953537e-02 -6.00333463e-03
 -1.41684718e-02  6.19188464e-02 -1.22071055e-02  1.89702407e-02
  2.25136556e-02  5.42233076e-03 -3.57235567e-03 -1.36913172e-02
 -3.06247783e-02 -8.50874144e-04  2.12101036e-02  9.15219719e-03
  2.91139601e-03  1.66044162e-02 -2.33476948e-02 -8.50818223e-03
 -4.42690477e-03 -5.98329535e-02 -1.40312807e-02  2.14250695e-02
 -4.12283234e-02 -4.69481731e-02  7.97042820e-03  1.71244407e-02
  1.49493923e-02  1.25186420e-02  8.22481573e-04 -6.07375834e-02
 -7.19685546e-03 -1.97799930e-02  1.13118179e-02  3.93290325e-03
 -1.13422726e-02  1.03946127e-03 -4.72675057e-02  2.93446265e-04
  1.60622227e-03 -4.24845911e-02  2.21186594e-02 -5.00232951e-03
 -8.80521500e-03  2.32105555e-02  1.72782014e-02 -3.60608170e-03
 -2.05519845e-02  4.14942071e-03  4.62106385e-03  4.65672017e-02
 -8.65372012e-04 -1.56611251e-02 -5.06535207e-03  1.54355982e-02
  1.49705666e-03 -1.34488252e-02  1.69451752e-02 -6.28287312e-02
 -2.40598810e-02 -4.40953821e-05  7.77706569e-02  2.17935779e-02
 -9.28296766e-03  1.30151627e-02 -1.45730612e-02  5.68847819e-02
  1.05437792e-02  2.28659761e-02  1.40858822e-02 -5.53072374e-02
  1.34670807e-02  4.39829482e-02 -4.64595634e-02 -3.41695316e-02]
Node 20: 
[ 0.07467286 -0.0116274   0.00168614 -0.02323235  0.09886814  0.03315942
 -0.02964802 -0.01196035 -0.08176539 -0.0283072   0.01502399  0.04217163
  0.03449266  0.01071689  0.04074949 -0.09432992  0.02060226  0.04033901
  0.01003611 -0.02519983  0.02496053 -0.01515958 -0.02427852  0.0274814
  0.00794344 -0.02963179 -0.06391303 -0.00743883 -0.02094687  0.03447078
  0.09101679  0.03706255  0.05075357 -0.02538385 -0.01490834  0.09172096
 -0.00536292  0.0447419  -0.05239778  0.02530633 -0.03134175 -0.03436803
  0.03624078 -0.02422488 -0.04927252 -0.05292407 -0.0448314  -0.02415212
  0.09568107 -0.02497255  0.10528417 -0.02980827 -0.02287214 -0.05738497
  0.10893645 -0.08036054 -0.00039569 -0.02859651  0.01883849 -0.06818447
 -0.07793192 -0.03045596  0.03546974 -0.02384878  0.01894706  0.0095371
 -0.02769685 -0.03446863  0.04227907  0.01351126  0.05544558 -0.07498397
  0.04499887  0.04373431  0.01928882 -0.00780337  0.09112507 -0.06209596
 -0.02200707  0.07571735 -0.02414277  0.10346802  0.03673867 -0.00016898
  0.01621432  0.03124538 -0.02834907 -0.08420899 -0.0314342  -0.01122492
 -0.07260051  0.01906575  0.03410804 -0.08036519 -0.05075372  0.04453352
  0.0321483  -0.06925284  0.01132317 -0.01235354  0.02259709  0.05295146
  0.04650927  0.05601233 -0.01951133 -0.08042128 -0.02062912  0.00104007
 -0.02113596 -0.07874371  0.00452373  0.02010453 -0.06778468 -0.0699814
 -0.02239407 -0.02743148  0.01584876  0.0867591  -0.01264188  0.08692356
  0.07261193 -0.0454692   0.04684775 -0.00886523 -0.00468957 -0.05848497
 -0.01149008  0.01347481 -0.0015837   0.04372711  0.07904634  0.03547985
  0.0368099  -0.06166313  0.02243797  0.0386703  -0.07804698  0.00880846
  0.08887341  0.08278284 -0.0374466   0.01519212  0.00847508  0.01326878
 -0.06395767  0.02040398  0.03748661 -0.02507467 -0.02541918 -0.00899882
 -0.06380736  0.0556359   0.03114631  0.0412656   0.0262781  -0.02471081
 -0.02281516  0.03410541  0.0365561   0.01928794 -0.01282949  0.00465966
  0.00676139  0.06504375  0.04644293  0.03026583 -0.02980717 -0.04398062
  0.00466326  0.03334936  0.01469368  0.0035783  -0.06578797  0.03620129
  0.08899096 -0.04931212  0.04019599 -0.04402212 -0.07911571  0.04801036
  0.02377265  0.04006424  0.0013062  -0.03007237 -0.00352791  0.07482713
 -0.02729741 -0.01131114 -0.01884687 -0.06086233  0.03585935 -0.06491835
 -0.01896267  0.0941827  -0.05308182 -0.01447989 -0.09031892  0.10296825
  0.04953457 -0.08278094 -0.03877592 -0.02508017 -0.0130779  -0.08563788
 -0.08082239 -0.01290121  0.04285694  0.02373616 -0.00275913  0.01284492
 -0.07106877  0.02389639  0.02725811  0.04044332 -0.06367322 -0.0033793
 -0.02604684 -0.00617971 -0.02243782  0.04834194 -0.06719653  0.04784884
 -0.02882058 -0.01292447 -0.02737917  0.04404726  0.03332442 -0.02222473
 -0.02023703  0.09849903  0.00858841  0.02536475  0.0423387   0.00475549
 -0.01433115 -0.02010715 -0.03790539 -0.00486411  0.03876698  0.0175595
  0.00499155  0.04001415 -0.04706468 -0.01095649 -0.02079286 -0.08335317
 -0.02759217  0.03344709 -0.04471871 -0.06544979  0.00570367  0.04070706
  0.01119479  0.02032614  0.00381727 -0.07926516 -0.01973167 -0.04163814
 -0.01773696  0.01038669 -0.02053653  0.00456016 -0.07408152  0.00129349
  0.00031334 -0.06321618  0.03880978 -0.01727016 -0.02589115  0.03325658
  0.04271015 -0.02994756 -0.0296272  -0.01266228  0.00903323  0.06485678
 -0.01233024 -0.01379968 -0.00309253  0.03907632 -0.02099675 -0.02738444
  0.0427482  -0.08750165 -0.03612697 -0.00276727  0.10987841  0.04343181
 -0.03167651  0.00649635 -0.0230557   0.08614958  0.01767395  0.04262027
  0.0377587  -0.07609831  0.03235     0.0797683  -0.08100999 -0.05525577]
Node 21: 
[-7.75130184e-02  5.96956076e-02 -2.61807431e-02 -7.48810707e-03
 -4.37832183e-02  3.42641471e-03  6.11697656e-03 -1.36142668e-02
  7.67969515e-02 -3.09814431e-04  5.64391949e-02 -1.00816689e-02
  9.29132587e-03  5.58259626e-02 -9.52990962e-03  3.90542499e-02
 -4.02655469e-02 -4.23176067e-02 -4.76378979e-02 -2.03292097e-03
 -5.29144632e-02 -9.77068932e-03 -5.99975843e-03 -1.86578448e-03
 -2.15708052e-02 -6.32787983e-03  3.27456297e-02  4.73795328e-02
 -8.36127214e-03 -5.41413977e-03 -3.43277229e-02 -5.19528014e-03
 -4.25494136e-02 -7.76550091e-03  4.56041031e-02 -4.32012416e-02
  6.69898107e-03 -4.50603379e-02  2.03180710e-02 -5.22289127e-02
 -9.60276372e-04  1.03721264e-02  8.70337469e-03 -6.46047702e-03
  9.32679906e-02  1.61331675e-02  6.36643508e-02  8.64298988e-04
 -4.97679278e-02  6.17753711e-02 -4.90031086e-02 -5.00602183e-03
 -8.99974547e-03  2.10630625e-02 -4.71620818e-02  4.09943158e-02
  4.70087657e-03 -1.94020626e-04 -4.32093099e-02  3.32381008e-02
  4.51882006e-02 -8.29235448e-03  2.33622256e-03 -5.08336065e-03
 -5.43762683e-02  6.01514983e-02 -9.38291577e-04  6.22940379e-03
  2.38593602e-03 -6.73985947e-02 -4.64848687e-02  3.26686797e-02
  4.51546209e-03 -4.14197772e-03  7.33181666e-02 -2.83540349e-02
 -3.71782578e-02  5.78629470e-02 -4.14731376e-03 -2.57218211e-02
  7.44440052e-02 -4.21406240e-02 -3.78432648e-02 -4.22149897e-02
 -6.16433246e-02 -2.45654873e-02 -7.13907148e-03  8.91940030e-02
 -4.73927157e-03 -1.04117187e-02  3.84647377e-02 -4.79971186e-02
  4.35310485e-03  6.31255324e-02  2.86030000e-02  7.27050422e-04
 -5.31673137e-02  9.28532729e-02  4.26772993e-02  5.84387883e-02
 -5.71589084e-02 -2.35683674e-02 -4.01258145e-03 -3.42607827e-02
 -4.53651771e-03  3.07220531e-02 -1.20939761e-03  4.99297070e-02
  5.17356434e-02  2.92981850e-02 -4.60123137e-02 -5.26024443e-02
  4.07058492e-02  1.02229718e-01  2.16401326e-02  2.15755877e-03
  1.20529989e-02 -4.13072948e-02 -2.57424921e-02 -3.58877352e-02
 -6.65641879e-02  5.53149332e-02 -6.43094735e-02  2.49103611e-02
  4.60686586e-02  9.71107164e-02  9.84035087e-03 -5.78950364e-02
 -3.23084302e-02  2.87036633e-03 -2.46863577e-02 -4.41498220e-02
  1.46446231e-03  3.75354378e-02  2.26063363e-02 -5.09714590e-02
  4.08641075e-02 -4.83159956e-02 -3.32223934e-02 -3.43704543e-02
  3.06086096e-02 -2.39979899e-02  2.99163948e-02 -5.52690036e-02
  7.19958300e-02 -5.80285925e-02  7.91508703e-03 -9.92513706e-04
 -4.82962292e-03 -3.58077870e-02  2.88363172e-02 -1.32307653e-02
  4.38323427e-03  6.02758681e-03 -5.63176273e-02 -1.48199583e-03
  7.83587106e-05 -4.92904648e-02 -3.79885678e-02  1.12349844e-02
 -1.66153349e-02  6.68158757e-02 -3.88900965e-02 -7.21585683e-02
 -3.29164909e-02 -5.11514565e-02 -2.05722485e-03  8.50286478e-02
 -4.45921798e-02 -4.33410417e-02  5.93406895e-02 -5.08352885e-02
  7.62959918e-02  1.02423264e-03 -3.45771717e-02  3.07362134e-02
 -2.86552489e-03  2.48932589e-02  7.94804103e-02  7.03821651e-03
 -4.03246195e-02  6.82793975e-04  5.17063045e-02 -1.07993637e-02
 -1.04884709e-02 -2.66593162e-02 -1.08120314e-02 -2.24590093e-03
  5.80734261e-03  6.06136266e-02  5.17244993e-03  3.74397907e-02
 -4.38925109e-03 -4.84958416e-02  9.63436042e-02 -1.66076312e-02
  4.55895639e-02 -4.81219102e-02 -2.99070413e-03  2.89140201e-02
  7.55235175e-02 -5.43591242e-03  5.53218742e-02  3.40804429e-02
  3.42148874e-02 -1.70603854e-02 -1.17623490e-03 -3.83431263e-02
 -5.81172047e-02 -5.18011512e-02  2.70528351e-02 -4.73222564e-02
 -4.42772568e-02 -3.95516629e-02  6.68196808e-02 -4.73333923e-02
  1.61944471e-03 -5.31868055e-02 -1.74826985e-03  4.53477753e-03
  8.29784538e-02  9.79479337e-04 -7.12553941e-03 -1.03573634e-02
 -8.97394585e-04 -5.74792633e-02  1.41837333e-02  2.89710674e-04
 -8.35514079e-03 -3.85003347e-02 -4.19308623e-02 -4.41020585e-02
  7.50698334e-04  2.46585459e-02 -8.83053961e-03 -1.29751018e-02
  6.26754461e-02 -2.27935519e-04 -3.91695828e-02 -1.11367928e-02
 -1.28781466e-02 -4.00566651e-03  1.80326697e-02 -1.75090312e-03
 -2.41604419e-03  2.38567030e-02  5.49723842e-02 -4.71588007e-02
  2.56371201e-02  7.77113595e-02 -4.96062985e-02  3.30889328e-04
  5.84492531e-02  1.08462480e-02 -5.82318107e-02  3.60484348e-02
 -3.90492460e-03  6.98526650e-03  4.57682722e-02 -3.96039096e-03
 -5.79229413e-03 -1.65457177e-02  2.09480796e-02  6.29998661e-02
  5.95606435e-02  3.12173361e-02  4.98924927e-03 -5.33800090e-03
  1.12089092e-03 -4.74666469e-02  3.50798337e-03 -7.15447304e-03
  8.14475861e-02  4.01665061e-02 -3.87424017e-02 -2.20898860e-02
 -2.24899685e-02  5.57822283e-02  4.72159490e-02  1.03616695e-02
 -6.36736343e-03 -9.43258943e-03 -3.12048192e-03  2.66032464e-02
  8.67161046e-02  6.52630963e-02 -4.29793578e-02  4.44205824e-03
 -9.38355584e-03 -2.41926420e-02  4.72776429e-02 -3.45865484e-02
  1.77497847e-02  2.67532788e-03  6.42405944e-03  3.27519567e-02
 -5.23614129e-02 -4.00029068e-02  3.32966431e-02  2.29599136e-02]
Node 22: 
[ 0.025402   -0.0324878   0.01306133 -0.0206411  -0.03733409  0.03434043
 -0.01850524 -0.0107869  -0.02902614 -0.01050326 -0.03669061  0.02522997
  0.04505252 -0.04027698  0.02058526  0.02757131  0.05466104  0.00793204
  0.04558354 -0.01125258  0.01369639 -0.02583852 -0.02339067  0.00763778
  0.0090437  -0.02450965 -0.00154624 -0.02604636 -0.03017868 -0.01992186
 -0.01431791 -0.00832992  0.01834736 -0.02103586 -0.0455636  -0.02942376
 -0.01001795  0.00701758  0.01992807  0.00831572  0.02026094  0.00684744
  0.04451573 -0.02282564 -0.01522587  0.01168079 -0.02175954 -0.01412819
 -0.01208403 -0.01479863 -0.03456348 -0.01164049 -0.02140994  0.02284475
 -0.0362845   0.01737078 -0.00868886 -0.00764541  0.04597928  0.01064219
  0.02226772 -0.0145953   0.0352229  -0.02747884  0.00186608 -0.03290856
 -0.02908157  0.01549255  0.02758735  0.0660018   0.01890933  0.00346836
  0.03768283  0.01435249 -0.05627769 -0.00130445 -0.01756358 -0.02947131
 -0.01067917 -0.01653066  0.00368321 -0.03858133  0.04483153  0.03354911
  0.07086936  0.02437902 -0.0311501  -0.02517227 -0.01273691 -0.00100071
 -0.00373703  0.03951492  0.0367189  -0.03377451  0.01000313  0.02853767
  0.0491143  -0.00769921 -0.03385061 -0.0398625   0.05440717 -0.00962538
  0.02829754  0.01930785 -0.03290889  0.00691395 -0.01357721 -0.05025309
 -0.02310056  0.02106931  0.04594057  0.03717078 -0.01529633 -0.00984138
 -0.00295539 -0.01711992  0.00675554 -0.01538853  0.0242813  -0.01872227
  0.02649723 -0.02084525  0.01455035 -0.0320896  -0.03391118 -0.00551047
 -0.02159676  0.0489709   0.03423349  0.03195454 -0.00710502  0.01102594
  0.02023178  0.01768641  0.02051772  0.03455921  0.01234176  0.03540035
 -0.02335696 -0.01950602 -0.01789957  0.01153588 -0.00109881  0.04462648
 -0.02466003  0.05697499  0.0252146  -0.01149649 -0.01123373  0.02963519
  0.00835901  0.00052005 -0.01898741  0.0156421   0.05371654 -0.03265923
 -0.00766213  0.05723081  0.04632799  0.02042701  0.01836672 -0.03668433
  0.04501074  0.0198814   0.03825935  0.05579973 -0.02982747 -0.00089568
  0.03495387  0.03711496 -0.03593653  0.04347035 -0.01975709  0.01880676
 -0.02736273  0.00648962  0.03156949  0.02322841 -0.02304397  0.04102193
  0.04058036  0.02411851 -0.04039347 -0.01864583  0.00452972 -0.02429604
 -0.04150068 -0.0165254  -0.01433003 -0.02660078  0.02932455  0.0288623
 -0.02265953 -0.03670167 -0.00276029  0.01728251 -0.01973253 -0.03822344
  0.01554021  0.00468535 -0.00752311 -0.0191592  -0.01228837  0.01251509
  0.00185793  0.00883017  0.02128422  0.02140075  0.04726029  0.04189431
  0.00881796  0.03196746  0.04943311  0.03949587 -0.02895296  0.05135238
 -0.02976973  0.03503214 -0.01793714  0.02904478 -0.02096513  0.01882853
 -0.0313453  -0.01465729 -0.01915615  0.01736513  0.02334325 -0.04379482
 -0.01500602 -0.03091669  0.05020039  0.05753901  0.0233211  -0.01899139
 -0.0114286  -0.01890495 -0.01534291 -0.00559401  0.02974813 -0.00318544
 -0.00279178  0.03908499  0.01503945 -0.00991273 -0.01871342  0.02411739
 -0.00592045  0.01075526  0.0161112  -0.02311894  0.05721147  0.02013435
 -0.04429272  0.01239437  0.05267298  0.01867731 -0.01942953  0.01420174
 -0.05611812 -0.00844671 -0.02536811  0.01591828  0.01226701 -0.03811258
 -0.04485762 -0.00646435  0.02110497 -0.01556598 -0.01226387  0.01008678
  0.01167008 -0.02549173 -0.01069222 -0.04003181  0.00295856 -0.02155061
  0.01543926 -0.04204806 -0.04143932  0.02123031 -0.01118054  0.02770682
  0.0383598   0.02004066 -0.00620158 -0.05506076 -0.03231831  0.01814937
 -0.03194035  0.02091517 -0.01709892 -0.01620094  0.01045868  0.02237335
  0.01450655  0.01988495  0.03713061 -0.02654837  0.01905804  0.01812856]
Node 23: 
[-3.67336343e-02 -2.81631402e-02 -2.58889862e-03 -2.81953486e-02
 -9.87028416e-02  4.10705065e-02 -4.11847651e-02 -2.94403040e-02
  3.48124434e-02 -2.77509571e-02 -2.31121683e-02  1.68500359e-02
  2.74055319e-02 -7.82124229e-05  2.28146249e-02  7.58935865e-02
  2.27114540e-02 -1.87364653e-02  1.56693220e-02 -1.35857749e-02
 -2.39263345e-02 -2.18953659e-02 -2.63867100e-02  1.50526624e-02
 -6.14632941e-03 -4.01052673e-02  3.82113565e-02  3.50685335e-03
 -1.65073098e-02 -3.50744382e-02 -6.40207288e-02 -2.03418761e-02
 -2.12345447e-02 -4.80776628e-02 -1.32625033e-02 -8.37261679e-02
 -4.15777373e-03 -2.91974578e-02  4.65291216e-02 -3.15403161e-02
  2.71280424e-02  2.27244156e-02  2.45031364e-02 -1.90106968e-02
  5.26742394e-02  4.16582634e-02  2.39342647e-02 -4.03234467e-02
 -7.75585252e-02  2.96298085e-02 -9.06060807e-02 -4.23832486e-02
 -3.61404058e-02  5.98985745e-02 -9.60275742e-02  6.64180841e-02
 -1.58975341e-02 -4.37507833e-02  2.22793946e-02  5.53485222e-02
  7.88253136e-02 -3.63847845e-02  4.70619707e-02 -3.54705214e-02
 -3.91881105e-02  2.11128691e-05 -3.88016780e-02  3.82354619e-02
  1.48460939e-02  2.37233298e-03 -1.80673771e-02  4.96208532e-02
  5.16461115e-02  2.02898188e-02 -1.47852494e-02 -2.85515428e-02
 -7.09536972e-02  2.15475427e-02 -2.83350447e-02 -5.11065120e-02
  4.37643910e-02 -9.12303568e-02  2.56051163e-02  6.11922082e-03
  3.41966059e-02  1.46172093e-02 -2.69111838e-02  4.95112205e-02
 -2.25571267e-02 -2.06054870e-02  4.47661515e-02  6.48596939e-03
  4.49247432e-02  4.06920495e-02  3.39468958e-02  3.95277396e-02
  8.14802750e-03  5.74590538e-02  6.45041829e-03 -1.55845128e-03
  1.85877478e-02 -2.92617974e-02  2.31975685e-02 -1.69214811e-02
 -4.10695512e-02  5.52897776e-02 -2.59184194e-02 -1.14346674e-02
  1.20076727e-02  5.02370266e-02  2.49380082e-02  4.58918903e-03
  3.37032606e-02  5.94764390e-02  1.83357772e-02 -3.84292957e-02
  1.78415678e-02 -6.33159177e-02  9.27598632e-03 -7.64712591e-02
 -3.32900953e-02  2.72875144e-02 -3.57964182e-02 -2.33056754e-02
 -2.94600174e-02  5.77633910e-02 -5.17383570e-03  1.02939948e-02
  1.73781419e-02  3.35431570e-02 -4.79100957e-02 -2.53425006e-02
  3.66950970e-02  6.27275452e-02  2.77637018e-02  3.76053808e-02
  6.18003431e-02  1.20957216e-02 -7.11789223e-02 -7.67408153e-02
  1.05806153e-02 -6.90377336e-03  3.31154377e-02  1.03259444e-02
  3.25069363e-02  1.91485850e-02  3.52361423e-02 -2.41400991e-02
 -1.19283082e-02  1.01487612e-02  4.60276886e-02 -2.24847947e-02
 -3.05116592e-02  1.26901339e-02  2.02824496e-02 -3.84088515e-02
 -2.58455502e-02  1.24656975e-02  1.26725943e-02  3.70938960e-02
  1.05603568e-02 -2.28632087e-02  1.49283129e-02 -3.10030934e-02
  3.28374912e-02  3.49203599e-02 -1.75819754e-02  4.40757198e-02
  1.19543126e-02  1.19427750e-02 -2.25887430e-02  3.90004081e-03
  3.60021069e-02  4.17486088e-02 -6.05883723e-02  3.53727134e-02
  1.91367593e-02  5.59972689e-02  3.78892551e-02  2.46884862e-02
  1.46931975e-02  1.31813028e-02 -7.53246538e-04 -3.03456250e-02
 -3.38668586e-03 -7.59519983e-02 -2.44687789e-02 -1.83695348e-02
 -2.74693523e-02  2.86347913e-02  1.41043375e-02  6.81964141e-02
 -2.36226330e-02 -1.05981912e-01  5.51845348e-02  3.99997644e-03
  5.11072018e-02 -9.04575399e-02  1.88677995e-02  4.67700640e-02
  5.27715847e-02 -3.63545295e-02  4.91725238e-02  6.71155282e-02
  4.91531030e-02 -9.52408753e-05  1.77235107e-02 -1.24526126e-03
  1.51088818e-02  1.26059117e-02  5.18719238e-02  2.12590947e-02
  1.09270651e-02  7.13771934e-03  3.60834670e-02  3.48660514e-03
 -4.77017830e-02  1.77420324e-02 -2.13367675e-02  4.60567781e-02
