Node 0: 
[ 0.08977017 -0.01735615 -0.02926274 -0.11963226 -0.10948314 -0.06773295
 -0.11417145  0.04759398  0.02994824  0.07151747  0.05146985  0.00404382
 -0.09991222 -0.08558043  0.11899542  0.07013716  0.01757577  0.0369741
  0.07076552  0.01027077 -0.05781743  0.13185748  0.09242972 -0.02105415
 -0.01450171 -0.0712568  -0.08045851  0.06974345  0.08169283  0.0089775
 -0.03137345 -0.13441575 -0.07271422 -0.0276029   0.16166208  0.02520715
 -0.04468764 -0.07194203 -0.00346243 -0.19933491 -0.10875801  0.02117969
 -0.02776157  0.05888945  0.07214578 -0.01984266  0.00230908 -0.01421853
 -0.05119593  0.02852763 -0.03660218  0.06077419 -0.04054019 -0.18005771
 -0.01159386  0.00994175  0.10826947  0.05729709  0.03972809 -0.14579947
 -0.08763014  0.01973386 -0.09885628  0.06720902 -0.1267894   0.04008075
  0.14590572 -0.05073677  0.03670893  0.14786065  0.02351151 -0.03404907
 -0.06709027 -0.00153505 -0.01484644 -0.05314691  0.03828579 -0.13085472
  0.06384221 -0.05021735  0.02600729 -0.07550925 -0.02441244  0.06038597
 -0.10110601 -0.08915935  0.00610709  0.03418325 -0.05165683 -0.11095913
 -0.08878999 -0.06193033 -0.07112966 -0.20985533 -0.07625123  0.11963245
 -0.0975315  -0.00550957 -0.03105278  0.0315736 ]
Node 1: 
[-0.03904866 -0.04173943  0.00790924 -0.06721829 -0.12703097  0.08236679
 -0.00472779  0.00170215  0.01734059  0.09848703 -0.10602693  0.0336876
 -0.10216928  0.08848414  0.16742822  0.17522736 -0.06347925  0.11574165
  0.01027121  0.0799196  -0.03209073  0.20924434  0.00315183 -0.05126926
 -0.00422603 -0.09538835 -0.15048645 -0.14788079  0.04880122 -0.20022453
 -0.17213988  0.02035993  0.02803876 -0.01657183  0.03218742  0.004226
  0.06639208 -0.0531183  -0.00605434 -0.21251064  0.02328687  0.02142549
 -0.0980039  -0.037765    0.20331394 -0.02066206  0.18588096 -0.09353179
 -0.07850836  0.14899628  0.1359956  -0.037277    0.00707362 -0.23746485
 -0.14743233  0.35326777  0.08504537  0.19877721 -0.07529782 -0.32892639
 -0.22365204 -0.06995965  0.04441172 -0.02292338 -0.09879118  0.00701714
  0.20282135 -0.1090373  -0.00042215  0.30865958  0.04292292 -0.00685242
 -0.2934956  -0.06739877 -0.130248   -0.23812877  0.01399031 -0.1766577
  0.21197401 -0.06545958 -0.00178265 -0.09825313  0.01002147  0.04459474
 -0.09076605 -0.26992756 -0.06343104 -0.02130883 -0.21866914 -0.14481045
 -0.16336216 -0.03266207 -0.07980724  0.04651192 -0.18363417  0.16255124
 -0.12241517  0.03072672  0.01356436 -0.0382444 ]
Node 2: 
[ 0.0163373  -0.04040633 -0.09669356  0.01498505  0.05213557 -0.04765047
 -0.1139704  -0.15055953 -0.05415183 -0.25193014  0.09000644 -0.00407164
  0.02302354 -0.14174093  0.13440614  0.06623059  0.07324477  0.04832839
 -0.24975643 -0.03681133 -0.07183164 -0.00969815 -0.09223782 -0.01732595
 -0.10413047  0.12426147 -0.05652638  0.21784617  0.21039914 -0.02330888
  0.29655924 -0.27078832 -0.020139    0.02899564 -0.07984699 -0.23864164
  0.03424628 -0.241381   -0.01008366 -0.02028215 -0.10579994 -0.23837246
  0.02357816  0.13360582 -0.14066661  0.02258331 -0.06661734  0.0521116
  0.15892748 -0.31356924 -0.20745542  0.14624789  0.22448033  0.00049235
 -0.18275911 -0.39320726 -0.04665326 -0.08081583  0.0480567  -0.17517149
 -0.10291905  0.0527181  -0.05538536 -0.09991127 -0.02155512 -0.19799
 -0.10116357 -0.07065067 -0.45822854 -0.07056703  0.03909507  0.0942578
 -0.13942695  0.06523035 -0.06816343  0.04259174 -0.19940596  0.06857662
  0.1148443  -0.23549808 -0.1784321  -0.14462458 -0.00936236 -0.05257256
  0.34156819  0.01196141 -0.19877132 -0.00239002 -0.04562963 -0.0061834
 -0.06622321 -0.06730327 -0.12676453 -0.07645171 -0.0980187   0.12193751
  0.39845427 -0.27257589 -0.01639442  0.04311081]
Node 3: 
[-0.2392563   0.00515115 -0.37077172 -0.33606949 -0.21125346  0.05548548
 -0.23663315  0.51349968  0.12064201  0.31931272  0.34646654  0.05507871
 -0.27870472  0.04645531  0.33908304  0.09962521 -0.15427614 -0.40222813
  0.04566914  0.1374391  -0.01318735  0.25035604 -0.05319806 -0.0947235
 -0.69374491 -0.22544044 -0.04788883 -0.28224748  0.52097632 -0.41684348
 -0.32049676  0.05633961 -0.3142753  -0.60667931  0.21625933  0.4087337
  0.29019653 -0.13438655 -0.25386118 -0.20469744 -0.0599761   0.1575344
 -0.49176651  0.45724156  0.16334107 -0.18115367  0.34606015 -0.58218264
 -0.57019031  0.23117292 -0.08786421  0.24013702 -0.61350439 -0.25841083
  0.61277851  0.85759927  0.1908022   0.2870078  -0.15440921 -0.36027079
 -0.37941155 -0.02689711 -0.44199737 -0.14410956 -0.22139624  0.18286849
  0.2245317  -0.12063235  0.40210035  0.59853782  0.09039338 -0.51633249
 -0.31917407 -0.25692118 -0.26468633 -0.20651059  0.08000214 -0.19980836
  0.2614856   0.27802263  0.15148171  0.00249758 -0.32672772  0.06079367
 -0.60332536 -0.3289168   0.51122165 -0.05233606 -0.30113799 -0.33713416
 -0.08717026 -0.30060214 -0.06220136  0.02098383 -0.25098417  0.28007946
 -0.66027167  0.08690805 -0.43224737 -0.20608329]
Node 4: 
[-0.12628601 -0.47830153  0.25956984 -0.03363789  0.05332631  0.11785905
  0.50279323  0.36408966  0.13037145  0.08689929 -0.127543   -0.18127253
 -0.00837081  0.01103155  0.00634163 -0.06047593 -0.08545147  0.11662842
  0.36491551 -0.084176   -0.10601706 -0.31530418 -0.14285211 -0.44276388
  0.35492384 -0.1388157  -0.07846714  0.14677071 -0.33896565 -0.50462052
  0.13700825  0.14397148  0.14140307 -0.29831524  0.00208476  0.29399959
 -0.08834377 -0.14599825  0.18200453  0.02029807  0.02269128  0.02624615
 -0.32833594 -0.08472438  0.00141588 -0.05999594 -0.2094024   0.0708054
 -0.28562535  0.10795577  0.08768418 -0.03667927 -0.49768562 -0.06139641
  0.22602513  0.01497001  0.01898163 -0.11394692 -0.01859894  0.16752215
  0.15443139  0.17080849  0.37356936  0.44215253 -0.10328369 -0.02835822
  0.0716465   0.13172237  0.14379815 -0.19549032  0.02500732  0.17712948
  0.39732734  0.07982462 -0.0639905  -0.01629297  0.01951096 -0.05155729
 -0.47841748 -0.20785956  0.05896535 -0.07210721 -0.27473461 -0.12990021
  0.35015827 -0.07812977  0.29391055  0.0224095   0.34308223 -0.21550265
 -0.10084557 -0.05556766 -0.11195611  0.20883038  0.10907448 -0.21029353
  0.24446785 -0.06579653  0.24302612  0.09406559]
Node 5: 
[ 3.19971908e-01  4.15954722e-01  5.17259860e-01  4.56834006e-01
  4.68026738e-01 -3.36917436e-01  3.60789296e-01 -5.91184417e-01
 -2.11897318e-01 -4.91387548e-01  3.71039239e-02  5.49956260e-02
  3.90348933e-02 -2.16993758e-01 -4.48271054e-01 -3.77807195e-01
  9.73579278e-02  6.20878442e-02 -2.57312711e-01 -3.93335558e-01
  2.48408911e-01 -1.72710585e-01  8.36740259e-02  4.76760061e-01
  7.19852844e-01  4.55948436e-01  4.09293915e-01  1.34998635e-01
 -6.14289669e-01  8.16638095e-01  4.16267365e-01 -2.32053032e-01
  3.79168710e-01  4.93347377e-01 -2.11703431e-01 -5.92240605e-01
  2.17762792e-01  3.73491187e-01 -1.45102397e-01  8.07236323e-01
  1.46981043e-01 -1.99446921e-01  5.10139441e-01 -3.28663203e-01
 -4.63218396e-01  6.13378703e-02 -9.30724059e-02  2.29082698e-01
  3.00175623e-01 -5.22609453e-01 -1.10518236e-01 -4.15818113e-01
  5.24067556e-01  8.32883027e-01 -6.44332632e-01 -1.04509370e+00
 -2.62276457e-01 -6.60497410e-01  2.32156057e-01  9.57292089e-01
  5.34207708e-01 -1.75513148e-02  3.52153838e-01 -1.25289584e-01
  1.40195367e-01 -1.75816761e-01 -1.44376471e-01  1.36499494e-01
 -3.56766059e-01 -9.64776103e-01 -1.96930154e-01  2.15237796e-01
  7.01013468e-01  1.02283882e-03  4.34801168e-01  5.00791043e-01
  1.87565145e-05  3.24464028e-01 -2.24766264e-01 -5.20522579e-03
 -1.48606251e-01  2.41623780e-01  3.77581660e-01 -7.55157799e-02
  2.92535264e-01  6.83399134e-01 -6.70317259e-01  1.80616856e-01
  5.43161403e-01  5.00250813e-01  5.13034323e-01  6.47657835e-01
  3.60253257e-01  1.74196609e-01  3.83488922e-01 -3.49331395e-01
  4.73896689e-01 -2.83296573e-01  3.94660559e-01  3.70257998e-01]
Node 6: 
[ 0.09072141 -0.01740746 -0.02924266 -0.11977495 -0.11035593 -0.06967468
 -0.11497262  0.04735442  0.03004628  0.07249536  0.05286126  0.0041391
 -0.1017882  -0.08659054  0.1189112   0.07000847  0.01816087  0.03717782
  0.07125455  0.01000954 -0.05773788  0.13312576  0.09352695 -0.0210776
 -0.01443576 -0.07137942 -0.08116835  0.07109644  0.0827448   0.0092323
 -0.0318417  -0.13599879 -0.07265452 -0.02783233  0.16339532  0.02513861
 -0.04469393 -0.07270537 -0.00342973 -0.20111011 -0.10992361  0.02121641
 -0.02776047  0.06086991  0.07257953 -0.01937152  0.0022769  -0.01429358
 -0.0516164   0.02933318 -0.0374212   0.06190836 -0.04074936 -0.18110071
 -0.01188801  0.0101931   0.10942096  0.0577637   0.03932844 -0.14591595
 -0.08811793  0.01974946 -0.0990575   0.06985688 -0.12838663  0.03962776
  0.14810575 -0.0510251   0.03729245  0.14899313  0.02332895 -0.03360522
 -0.06704939 -0.00135609 -0.01445306 -0.05241129  0.03877718 -0.13215861
  0.06419103 -0.05096922  0.0263129  -0.07557878 -0.02369285  0.06026676
 -0.1006493  -0.08889094  0.00594481  0.03489174 -0.05171536 -0.11020392
 -0.08944073 -0.06191467 -0.07124785 -0.2121985  -0.07682871  0.12009293
 -0.09686163 -0.00585564 -0.03059278  0.03234869]
Node 7: 
[-0.02400377 -0.40879738 -0.10304208 -0.09750553 -0.1642368  -0.20621037
  0.16704896 -0.10915695  0.08783971  0.07484381  0.25058292  0.19979912
 -0.27779131 -0.07158731 -0.35599573  0.06422502  0.01904242  0.20109587
 -0.17858791 -0.04664108  0.11734924  0.10618446 -0.10947647 -0.43993432
 -0.22489987 -0.01700662 -0.31365107 -0.06779413  0.05023082 -0.73061375
 -0.01903938 -0.18583277  0.26868552 -0.49601982  0.19763886 -0.14932515
  0.3406098  -0.25524439 -0.24811772 -0.20943133  0.18918175 -0.29150823
 -0.6559859   0.27542477  0.04911438  0.01987558  0.13986549 -0.59029072
 -0.50185768  0.01087044 -0.10828263  0.09824799 -0.31324533 -0.20124733
 -0.13441725  0.31082767  0.16205844  0.12911824 -0.44057027 -0.37669396
 -0.29095467 -0.38179755  0.43525583  0.24384571 -0.21974207 -0.29534716
  0.27653252 -0.33364249 -0.16449993  0.32571072 -0.17318925  0.35047282
 -0.35487172 -0.55394737 -0.09753099 -0.0775222  -0.18791506 -0.16325811
  0.08267902 -0.14784982 -0.26382471 -0.11641435  0.11907233 -0.1018282
  0.26335669  0.01380002 -0.09775998  0.16150577 -0.39733026 -0.18575766
 -0.3191193  -0.07863352  0.04013634  0.0124125  -0.25978715  0.22327815
  0.3427766  -0.11841499  0.28674726  0.2176478 ]
Node 8: 
[-2.54712053e-02  8.05013496e-02  2.50685614e-01 -3.09442975e-01
 -5.26372808e-03 -2.74432688e-01 -1.13889991e-01  5.05154914e-01
  1.12198619e-01 -1.02506299e-01  9.96191744e-02  7.47585982e-02
 -1.77023240e-01 -3.16938379e-01  3.21809390e-01  9.56678149e-02
  2.44563888e-01  5.53514556e-01 -7.04161538e-03 -1.22973679e-01
 -3.03732649e-01  4.22087545e-02 -3.04875570e-01 -2.93034707e-03
  4.05041166e-01 -3.08853302e-04 -1.91303389e-01 -1.39874083e-01
  2.92127547e-01 -1.92961377e-01  3.13298513e-01 -2.76245882e-01
 -1.24791543e-01 -1.85154964e-01 -8.16484400e-02  4.04255452e-02
 -1.66519004e-01 -3.22722231e-01  8.72046824e-02  5.05081743e-02
  3.46218502e-01 -1.57997742e-01 -1.04093869e-01 -7.08767861e-03
  7.61495743e-02  1.86308633e-01 -3.38845495e-01 -3.00279819e-01
 -2.88336237e-01 -1.57878365e-01 -2.22450525e-01  1.29262551e-01
 -3.84320472e-01  3.02500900e-02  7.94442046e-02 -3.27269944e-01
  3.32226388e-02  5.95468414e-03  7.72136097e-02 -3.03560011e-01
 -2.66670901e-01  6.87382907e-05 -1.55754609e-01  1.63941538e-01
 -2.32447553e-01 -8.26507623e-02  1.80562545e-01 -1.60156329e-01
 -3.75702561e-01  8.70634523e-03  4.63504591e-03 -9.91132230e-02
 -3.20492151e-01 -3.97208296e-01  8.11875481e-02  6.47941775e-03
 -1.81579429e-01 -1.28744971e-01  5.37981089e-01 -6.63170108e-01
 -1.18477957e-01 -2.51841687e-01 -5.14323589e-01 -7.36713503e-03
  3.47339914e-01  1.01036050e-01  1.18169906e-01  6.40695802e-02
 -3.00395885e-01  2.78577593e-02 -1.76223545e-01 -3.38581624e-02
 -3.11533462e-01  4.47451278e-01 -2.86317848e-01  1.98184399e-01
  4.02519152e-01 -3.19058358e-01 -1.27866721e-01  2.10893664e-01]
Node 9: 
[-0.12780101  0.08141164 -0.31945253  0.35961725 -0.14167348 -0.20181141
  0.49114463 -0.18600294  0.07158896  0.17778164  0.24694444 -0.14021811
 -0.26458225 -0.07697405 -0.16572066 -0.11912475 -0.04487262 -0.20536752
  0.5612065   0.00234612  0.01440174 -0.20328849 -0.07326322 -0.04519273
 -0.33925588 -0.09389552 -0.10514938 -0.01501126 -0.29259364 -0.19405242
  0.01515469 -0.14347127  0.22488959 -0.53090432  0.06451021  0.02780192
  0.56323174 -0.25404869 -0.54709411  0.13471581  0.11245015  0.01149877
 -0.27103973  0.27483267 -0.05039867 -0.12569601  0.12640694 -0.13095782
 -0.38224879  0.05410542 -0.23147209  0.21990528 -0.67628829  0.12668756
  0.20844539  0.16138614  0.01629282 -0.1489476   0.05523592  0.41658338
 -0.04082044  0.06490531  0.41730597  0.52445036 -0.27829772  0.07023364
  0.07944694 -0.10929503  0.22188153 -0.40195173 -0.00095036  0.28104724
  0.39544319  0.15993704 -0.02808926  0.07193089  0.16883778  0.01472562
 -0.08609921  0.08643442  0.06508219 -0.00682643  0.17109961 -0.26050725
 -0.1386043   0.02536894  0.10928731  0.07833344  0.54141167  0.40620858
 -0.12654666  0.02331994 -0.0717569  -0.0593272   0.00261571 -0.15751215
 -0.14101259 -0.0715037   0.18128779  0.09593316]
Node 10: 
[ 0.13509546 -0.33448375 -0.05382659 -0.08617106  0.24351652  0.10031672
  0.12684515 -0.01931383 -0.09883337 -0.24611351  0.00140253 -0.04465056
 -0.17225122 -0.1395036  -0.25119926  0.00989915 -0.23953566 -0.23603146
 -0.19556193 -0.00641601  0.20898755 -0.10800448  0.12215162 -0.14841514
  0.23079387  0.01117818  0.25563784  0.31941421 -0.34658386  0.13234982
 -0.04482365 -0.22458607 -0.03610243  0.3372762   0.10039385 -0.04675544
 -0.01308622  0.23728497  0.18036334  0.09632473 -0.25746305 -0.1043946
  0.10956177 -0.19301098 -0.01634542 -0.29554846  0.08764387  0.13737802
 -0.2560398  -0.08272679  0.00532419 -0.3114658   0.21097703 -0.01770777
 -0.4562148  -0.02860312 -0.00981927 -0.04005689  0.02328224  0.13781023
  0.33516067 -0.05428444 -0.17432225 -0.57867419 -0.0301921  -0.05734312
  0.16636629  0.16837806  0.06484646 -0.11129363  0.02519042 -0.40413136
  0.18303616 -0.06315837  0.04715323 -0.10544717 -0.03043133 -0.00704735
 -0.20819652  0.34772401 -0.00888951  0.06257283 -0.16426969 -0.01069037
 -0.37785225 -0.31693057 -0.32537522 -0.04776469 -0.07090777 -0.34171491
  0.32915437  0.16549411  0.1787063  -0.09419907  0.20878278  0.13550188
 -0.27996996  0.07807335  0.00200943 -0.04513439]
Node 11: 
[ 2.20220715e-02  5.37561997e-01  4.70593037e-01  1.73289468e-01
  2.93967767e-01  3.48255272e-01 -1.90030156e-01  1.27502597e-02
 -1.77380835e-01 -1.24464195e-01 -3.69285159e-01 -1.29811810e-01
  5.28537653e-01  3.63030780e-01  5.50029795e-01 -9.93639823e-02
 -9.27597611e-02 -2.88606780e-01 -2.43792423e-01 -6.42704617e-02
 -7.91925967e-02  9.87971164e-02  1.83188383e-01  5.63591921e-01
  3.28404643e-01  2.09563053e-01  4.04718001e-01 -5.62170424e-04
  3.59140057e-02  8.03976048e-01  7.38150019e-02  5.17268861e-01
 -1.52768174e-01  5.69516597e-01 -3.27934692e-01 -3.84643404e-02
 -3.75143525e-01  4.42396613e-01  4.58456589e-01  3.76216920e-01
 -3.91165058e-01  3.36326619e-01  5.86884918e-01 -2.97917679e-01
 -2.74306636e-01  4.75270558e-02  8.92180588e-02  5.32010659e-01
  8.31124784e-01 -1.54123646e-01  4.04274953e-01 -2.74408426e-01
  7.76873060e-01  3.78675812e-01  6.98855292e-02 -6.08405601e-01
 -2.06823849e-01 -3.27456859e-01  3.63833274e-01  5.13373202e-01
  2.44523469e-01  3.94640810e-01 -2.84909792e-01 -3.33880904e-01
  4.57240070e-01  2.36952263e-01 -4.25573936e-01  3.17999557e-01
  1.02913305e-02 -1.91376599e-01  2.06397695e-01 -2.14814759e-01
  4.57998783e-01  5.48762019e-01 -7.69822551e-02  2.03635805e-01
  1.67308104e-01  2.43380979e-01 -4.53008081e-01  1.04110210e-01
  2.22797662e-01  2.50948264e-01  7.92140211e-02  2.87997813e-01
  1.48705686e-01  3.23197153e-01  4.21590768e-02 -1.12048454e-01
  5.79491610e-01 -1.96811608e-01  3.91578180e-01  1.09085772e-01
  1.57565410e-01  1.95228873e-02  2.70377063e-01 -3.74162079e-01
  1.38728970e-01  2.27938450e-02 -1.81390980e-01 -1.48190761e-01]
Node 12: 
[ 0.08993961 -0.01756982 -0.03416184 -0.12994135 -0.11369241 -0.06857184
 -0.10741344  0.06245928  0.03449925  0.08828039  0.05336419  0.0048523
 -0.10684018 -0.08481803  0.11060565  0.07304553  0.01399407  0.02675841
  0.0862264   0.01666469 -0.05216523  0.13090956  0.09599528 -0.02129204
 -0.03110011 -0.08562568 -0.07862169  0.06866558  0.07647036  0.00650164
 -0.0524341  -0.13321003 -0.06922918 -0.03191084  0.16798108  0.04434161
 -0.04352196 -0.06308651 -0.00385864 -0.20563973 -0.10772138  0.03938952
 -0.02827937  0.06152214  0.08367959 -0.02460505  0.00427723 -0.01491842
 -0.05460019  0.05571459 -0.03452247  0.05696585 -0.04945767 -0.18757345
 -0.00523226  0.04937196  0.11429465  0.05834951  0.03765789 -0.14954202
 -0.08742735  0.0194015  -0.09703137  0.07910078 -0.13531564  0.05374563
  0.1562101  -0.0390828   0.06846721  0.15308848  0.02315976 -0.02823783
 -0.0701278  -0.00189505 -0.01480095 -0.05809853  0.05386968 -0.13815659
  0.05686487 -0.04556622  0.04464991 -0.07133666 -0.02810496  0.05919596
 -0.10205186 -0.08939883  0.01930323  0.0355627  -0.0534779  -0.11029107
 -0.08917741 -0.06881315 -0.06036868 -0.21435901 -0.07442089  0.12032018
 -0.10202273  0.00655612 -0.02795454  0.03174605]
Node 13: 
[-0.1031058  -0.1837309   0.06865604  0.07291409 -0.01574587  0.05129954
 -0.22545955 -0.30004664 -0.09334393 -0.09391025  0.03016765  0.0990674
  0.11029083 -0.01239757  0.06595019 -0.02999305 -0.0014642   0.06641173
 -0.30195743 -0.08938278  0.01425503  0.29227958 -0.21804678 -0.17590811
  0.18887793  0.20221921 -0.06152517 -0.12609737  0.14956656 -0.27706129
  0.11985577 -0.08687184 -0.05775     0.19299153  0.05274706 -0.34331617
  0.12667184 -0.11249234  0.03744388 -0.03345578  0.13482342 -0.04236763
 -0.22272253  0.13081762 -0.06082082  0.09985649  0.05672032 -0.27511146
 -0.10831569 -0.12957213 -0.08183495  0.07845755  0.31216866 -0.01779083
 -0.50106295 -0.02236735  0.01865231  0.15773736 -0.19699504 -0.01453742
 -0.10815599 -0.30159077 -0.0583154  -0.50202723  0.21504141 -0.05913116
 -0.02789667 -0.02483405 -0.31345913  0.11656896 -0.14978104 -0.23858994
 -0.00346821 -0.25933666  0.02862458  0.01351824 -0.07934193 -0.02392119
  0.09800947 -0.10374567 -0.05002644 -0.01749043  0.14045975 -0.08761176
 -0.21285418  0.10671431 -0.39844136 -0.07672806 -0.10246741  0.18105827
 -0.08744412  0.19241482 -0.11180189  0.16772869 -0.08426914  0.09181106
 -0.11093947 -0.11548381 -0.11486791 -0.13447837]
Node 14: 
[ 0.05695366 -0.10414706  0.19911961  0.14211845 -0.18234958  0.00401516
  0.08243892  0.09228284  0.12431967  0.26159432  0.02872828 -0.08859338
 -0.16604503 -0.15511832  0.59420856  0.19115967 -0.01453021  0.10394244
  0.14745831  0.06575118 -0.25414224  0.28164859 -0.02059164 -0.13313336
  0.29252144  0.07725567 -0.13591573  0.2419829   0.26838248  0.26284885
 -0.08451631 -0.15003636 -0.06402152 -0.01818126  0.22709487 -0.11319303
 -0.20320472 -0.25081286  0.23367931 -0.3172489  -0.28422908 -0.11391882
  0.04168266  0.09520914  0.08196292 -0.08561822  0.18452448  0.45286318
 -0.04853024  0.28206984 -0.09225222  0.12850975 -0.06684343 -0.29444377
 -0.32007832  0.00572832  0.18819248  0.13892655  0.27829483 -0.0350846
 -0.31394463  0.32037477 -0.14233568  0.35883331 -0.13381885 -0.10659442
  0.16035064 -0.0857915   0.02665095  0.04147937  0.26485531  0.00433206
  0.0587886   0.41816061 -0.08155135  0.09408326  0.02256993 -0.21049905
  0.51295702  0.10542585 -0.14734664 -0.14320011 -0.18044645  0.15748786
  0.19584362 -0.39383207 -0.21408384  0.07296336  0.25075203 -0.47900127
 -0.15607844 -0.05236544 -0.23015404  0.15583924 -0.3236707   0.47316676
  0.07461945 -0.18663105 -0.09008829  0.02076367]
Node 15: 
[-0.01626384 -0.08169441  0.01313204  0.21663971  0.00693919 -0.06708279
 -0.00796171 -0.19993645 -0.19841164 -0.01554704  0.14571319 -0.11539875
 -0.09076394 -0.19336754  0.02850108 -0.15155489  0.02333943 -0.15780881
 -0.19956205 -0.05572288  0.03189912  0.15919531 -0.17372755 -0.03669987
 -0.02265553  0.00639859 -0.11577661  0.26964726  0.32248915  0.35538212
  0.23507267 -0.37458321 -0.31700862  0.05364289  0.12844039 -0.16601116
  0.23534672 -0.10460877 -0.14279078  0.16428994 -0.10176111  0.18262453
 -0.09910209  0.34911994 -0.08006821 -0.0087409  -0.04650807 -0.1606072
  0.18681281  0.08935336 -0.14356726  0.134867    0.19951043  0.02974456
 -0.16268745 -0.17144259 -0.00280144  0.1169239   0.09681483  0.42642376
 -0.24009193 -0.12206509 -0.36670536 -0.19152475 -0.0336544   0.1941109
  0.0495045  -0.10967007  0.05235947  0.26060797  0.00237392 -0.58251893
  0.30647962 -0.05116631 -0.09599866  0.02276745  0.05473938  0.0429405
  0.02089385 -0.57284516  0.1773396   0.0694575   0.15348689 -0.15708031
 -0.7610389  -0.35297547 -0.188025    0.04822925  0.27432473  0.05177028
 -0.13684407 -0.0732466  -0.06862768  0.21170749 -0.18209954  0.15619209
 -0.71834446 -0.17712912 -0.45681523  0.09140796]
Node 16: 
[ 0.10977365  0.03974816 -0.26249557 -0.32540577  0.17275578 -0.00456763
  0.47412362  0.48202666  0.0096777  -0.13021738 -0.00772905  0.0606838
 -0.07717439 -0.016991   -0.36900244 -0.0760298  -0.01707934  0.05267891
 -0.15212521 -0.13686881  0.13050166 -0.24052914  0.0814953   0.09668164
 -0.00613818 -0.02501625  0.06921362 -0.18988698 -0.75481515 -0.10695691
  0.03603397  0.06771143  0.03351111  0.08002173 -0.20325291  0.41501942
  0.25393743  0.21286842 -0.19055144  0.39125664  0.11669871 -0.19702008
  0.15789323 -0.2713909  -0.07641679  0.09720761 -0.02529176 -0.02005846
  0.1232062  -0.28391641  0.13631738 -0.27666971  0.27355234  0.39806755
  0.48152561 -0.25337147 -0.0648043  -0.55635977 -0.14456834  0.13704937
  0.23953361 -0.0241311   0.02928641 -0.07656213 -0.15262657 -0.12931584
  0.03637091 -0.04380794 -0.02367613 -0.74491444 -0.14307003 -0.11202679
 -0.02539405  0.00113469  0.19550509 -0.02703167 -0.12639054  0.01917761
 -0.15357424  0.04645875 -0.06011457  0.05734324 -0.35035364 -0.12597611
  0.21737712  0.31922076  0.47464497  0.08054598 -0.14233265  0.2932462
  0.1159948  -0.07351594  0.33340446  0.00558567  0.20116281 -0.15353455
  0.30080228  0.05791801  0.04818912  0.16723995]
Node 17: 
[-0.102969    0.17115135  0.27038333 -0.05532601  0.26300307 -0.27379646
  0.11325957  0.07934494  0.18979582 -0.26057303  0.05350069  0.048735
 -0.12140725  0.11410737 -0.18737402  0.02248161 -0.13055274 -0.04738033
  0.44542823 -0.02468269  0.13922198 -0.54761201  0.14266424  0.07614189
 -0.08732065 -0.1542256   0.31818941 -0.11367396 -0.22030451 -0.3825135
  0.00493945  0.25240673  0.58163806 -0.46649338 -0.22723236  0.03020333
 -0.07395642  0.06546513  0.02021843  0.24158063  0.20625867 -0.01940735
 -0.23612709 -0.21634459 -0.08564635 -0.30471819 -0.01334846 -0.29987155
 -0.61685811 -0.31670399 -0.01049658 -0.18343469 -0.95017112  0.21885005
  0.24208482 -0.06974888 -0.16479093 -0.21976042 -0.0427507  -0.0732355
  0.4203509   0.04545953  0.78288033  0.40093718 -0.12984122 -0.03771202
  0.03586636  0.22005019  0.00692897 -0.11828039  0.05272268  0.79798747
  0.02105211 -0.36308354 -0.10490303 -0.00556903  0.04429008  0.13069995
 -0.59639733  0.38268254 -0.0104078  -0.03716135 -0.05036858  0.10990614
  0.72161114  0.42396117  0.1537101   0.02258011  0.03625661 -0.22300836
  0.38952702  0.18023673  0.09432893 -0.18254681  0.33676039 -0.54435883
  0.73750896  0.00205382  0.77448791  0.16995328]
Node 18: 
[ 0.08977016 -0.01736672 -0.02926278 -0.11963232 -0.10948229 -0.06776837
 -0.1141698   0.0475841   0.02994823  0.07151718  0.05147081  0.00404382
 -0.0999132  -0.08558043  0.1190012   0.07013697  0.0175757   0.03697403
  0.07078648  0.01027079 -0.05781712  0.13185599  0.09242859 -0.02105604
 -0.01450174 -0.07125699 -0.08045862  0.06974345  0.08169384  0.0090385
 -0.03137352 -0.13441576 -0.07271682 -0.02762635  0.16165938  0.02520751
 -0.04468534 -0.07194206 -0.00351525 -0.19966188 -0.10876024  0.02117969
 -0.02776188  0.0588938   0.07214599 -0.01984267  0.002309   -0.01420905
 -0.05128726  0.02852761 -0.03660219  0.06077419 -0.04056544 -0.17986898
 -0.01159383  0.00994176  0.10826616  0.05729692  0.03971599 -0.14580345
 -0.08763387  0.01975098 -0.09814194  0.06741452 -0.12679359  0.04008075
  0.14596818 -0.0507368   0.03670883  0.14810559  0.02350812 -0.03408836
 -0.06709033 -0.00143706 -0.01484636 -0.0531471   0.03828578 -0.13085476
  0.0638388  -0.05021736  0.02600731 -0.07550925 -0.02441436  0.06038175
 -0.10113587 -0.08917008  0.00610709  0.03418321 -0.05165814 -0.11097548
 -0.08878991 -0.06193039 -0.07112966 -0.20985776 -0.07625288  0.11961974
 -0.09746384 -0.00550954 -0.03101746  0.03157783]
Node 19: 
[-3.13685528e-01 -1.11960379e-01  1.42654276e-01 -1.92198264e-03
  2.68204450e-01  8.10571714e-02  6.09594081e-01  2.58301109e-01
 -4.03407311e-04 -1.84221197e-01  1.62740005e-02  5.96053431e-02
  2.35213913e-01  3.20970058e-01 -8.02082697e-01 -6.13842320e-03
 -8.71325766e-02  1.28514384e-01 -1.65264630e-01 -6.46547032e-02
  3.36379286e-01 -5.11934466e-01 -1.85764894e-01 -1.18413577e-01
  8.28099613e-02 -5.94886753e-03 -1.69682549e-01 -4.72104045e-01
 -6.68871123e-01 -3.35360416e-01  6.69839555e-03  6.95056540e-01
 -1.37399180e-01  2.00056707e-03 -5.91160035e-01  1.22483547e-01
  1.13326882e-01  3.57955313e-01  6.50382983e-02  6.21712676e-01
  6.85608012e-01 -1.79762425e-01 -1.23400830e-01 -2.65493741e-01
 -1.43450273e-01  3.23406245e-02  2.76072898e-01 -7.16571230e-02
 -1.32065815e-01 -3.86098293e-01  1.41184330e-01 -3.66095365e-01
 -1.24413919e-02  6.02297641e-01  3.69157150e-01 -1.26532851e-01
 -1.99979416e-01 -4.27492464e-01 -1.69611164e-01 -1.17739922e-01
  5.23256379e-02  5.94532792e-02 -2.67312798e-01 -1.07266719e-02
  2.29819589e-01 -2.55016830e-01 -2.67380920e-01 -1.77438408e-01
  1.19775496e-03 -6.22031103e-01  2.90314474e-02 -1.51993381e-01
 -1.28766534e-01 -2.33697462e-02 -5.03764035e-02 -1.67036144e-01
 -1.93074011e-01  2.33485659e-01 -1.65374156e-01  3.23353190e-01
 -1.44923933e-01  1.64234712e-01 -1.40578598e-01 -2.15316035e-01
  3.36039799e-01 -1.52299443e-01  3.05750478e-01  8.66183699e-02
 -3.61016858e-02  1.16603565e-01 -1.18877535e-01 -4.19851791e-02
  4.73475666e-01  2.92178561e-01 -6.64935571e-02 -1.66123120e-01
  4.29449062e-01  9.44887154e-03 -1.73005381e-01  1.14938244e-01]
Node 20: 
[-0.18308994  0.29268553  0.12102679 -0.02070717  0.42941055  0.23269452
  0.18140932 -0.41935954  0.07622018 -0.30523    -0.12486112  0.0402162
  0.35435194  0.22056681 -0.27888756 -0.11767497 -0.08695712  0.04388884
 -0.08365757 -0.0706028   0.16661165 -0.3755439  -0.24420014  0.21156079
  0.22740826  0.34778978  0.1629133  -0.20025073  0.16932349  0.17150043
  0.2767219   0.22812794  0.20581179 -0.12818278 -0.14913373 -0.48959125
 -0.0142603   0.30372391 -0.03959107  0.71817435  0.38928262  0.03780434
  0.07671756 -0.1186011  -0.21708661  0.06727145  0.15897962 -0.06991244
  0.28521362 -0.44299546  0.20592428 -0.18146221  0.05835989  0.73512939
 -0.51507973 -0.26025851 -0.14155221 -0.52769589  0.01969559  0.2575269
  0.14315491 -0.11735368  0.05912079 -0.03724296  0.33934907 -0.05496659
 -0.2293359   0.23721886 -0.32752031 -0.81038408 -0.10495285  0.22270573
  0.171966    0.03270776  0.11350951  0.17342456  0.04289175  0.20314427
 -0.05182181  0.11669007  0.01081591  0.17615499  0.16348215 -0.19813388
  0.77139289  0.84854857 -0.52249079  0.04884283  0.04763744  0.29779106
  0.17736742  0.30897178  0.26779557  0.4215245   0.04618483 -0.16214781
  0.82777549 -0.06276678  0.24847183 -0.07213998]
Node 21: 
[ 0.10165451 -0.03410615  0.12177297 -0.01947011  0.1475373  -0.08439894
 -0.13992705  0.31283817 -0.21429726 -0.27445075  0.15133605 -0.1286042
 -0.25074899 -0.04505074  0.03762664 -0.0337569   0.01382806 -0.08491863
 -0.05300007  0.00408017 -0.09103     0.21215592  0.14691702 -0.04312154
  0.13285997 -0.18793294  0.35940146  0.12413059 -0.12414248  0.47146824
  0.17048198 -0.09031523  0.02660394  0.39157072 -0.02786239  0.19805636
  0.3005805  -0.16777684 -0.26271109 -0.03406696 -0.57104562  0.02216794
 -0.1643482   0.16465651  0.02660421 -0.08377766 -0.05554206 -0.18119105
 -0.22539826 -0.06765009 -0.05255617  0.07659823  0.10686244 -0.11616174
  0.2353267  -0.41834146  0.01442354 -0.00376314  0.36071713  0.15172879
  0.27002923  0.11731757  0.31407412 -0.17604772 -0.05589091  0.13049085
  0.2193714   0.23507528  0.02289962  0.17161888 -0.01015835  0.06255245
  0.30618951 -0.23444334 -0.15959838 -0.21482586 -0.07237943 -0.00349362
 -0.1315532   0.04549203  0.06007671 -0.06649374 -0.19968217  0.1381037
 -0.26283629 -0.02512342  0.21588847 -0.10794114  0.35824173 -0.00867072
  0.35206039 -0.01593954 -0.04624733  0.08511074  0.30624723 -0.4960198
 -0.19190925 -0.07896517  0.02397047 -0.08369564]
Node 22: 
[ 0.25514945 -0.13772994  0.06224248 -0.38057562  0.02864968 -0.38844044
  0.07980192 -0.5348434  -0.00455227 -0.07530641  0.04573344  0.05511437
 -0.29360241 -0.35718984 -0.09926389  0.10220669  0.00127137 -0.10110497
 -0.19574048 -0.07582012 -0.15533908 -0.08245768  0.01949628 -0.1042035
  0.35412575 -0.19094597  0.09312437  0.37829662 -0.11775672 -0.44496369
 -0.03536094 -0.59683294 -0.02565914  0.10069848  0.0131079  -0.19817722
 -0.09193539 -0.00103197  0.02523574 -0.09882146  0.22522248 -0.14514558
  0.08612734 -0.18577355  0.13687068 -0.15827687 -0.08790692  0.02917896
 -0.38072517 -0.14038662 -0.21291244 -0.13811043  0.0081175  -0.13579714
 -0.49900036 -0.06417807  0.06430854 -0.10038386 -0.40076862  0.17819309
  0.08418758 -0.13752335 -0.1841517  -0.05169655 -0.16548414 -0.04246419
  0.14941286 -0.05447685 -0.01399434  0.08104732 -0.09313989 -0.39655585
  0.15570243 -0.07463998  0.21641827  0.03508637 -0.08540697 -0.13553267
 -0.21406979 -0.30795273 -0.12387344 -0.12870272  0.41715524 -0.21384629
 -0.63001401 -0.41353648 -0.38000669  0.13289122 -0.13456023 -0.09768626
  0.14049491  0.02523295 -0.16062337 -0.22267378  0.08714677  0.20096413
 -0.48066836 -0.11735129 -0.05201029  0.43836366]
Node 23: 
[ 0.11753041 -0.10496251 -0.17757679  0.40925626 -0.65835712 -0.09475089
 -0.3165649   0.59884678  0.16159757  0.62385981  0.15208805 -0.02207212
 -0.37824637 -0.3783127   1.19721783  0.00723441  0.08841403  0.11674118
  0.42208505 -0.03647125 -0.24721245  0.55207805  0.09496617 -0.06361716
 -0.3286677   0.15621853 -0.44283955  0.2612539   0.43431429  0.05567007
 -0.10150407 -0.5168471   0.08282096 -0.54916499  0.66684027  0.21886013
 -0.09636053 -0.63170444  0.18304923 -0.70752639 -0.59659502  0.05347659
 -0.22006818  0.43553032 -0.01068666 -0.01140418 -0.22887686 -0.04721592
  0.0145827   0.69933822 -0.25439194  0.49258431 -0.40460059 -0.73377089
  0.25048276  0.26905972  0.27679514  0.67196194  0.19274846 -0.05336021
 -0.60822565  0.03134784  0.15839927  0.28695878 -0.59746337  0.08680051
  0.35548498 -0.35445326  0.09532547  0.65303449  0.26188559  0.16294635
 -0.11622562  0.03127524 -0.15736058  0.29675141  0.23448227 -0.34651429
  0.48642777 -0.3865514   0.10458953 -0.20373351 -0.54439422  0.38136578
  0.12966527 -0.08447688  0.28775799  0.02188553  0.08721861 -0.49833225
 -0.50978471 -0.1013989  -0.49511078 -0.26264747 -0.47701166  0.66369575
 -0.080981   -0.15443599  0.12125725 -0.06192827]
Node 24: 
[-0.08793538  0.3021336   0.58798573 -0.04470503  0.1269942   0.11458133
 -0.19454064 -0.07161581  0.04403869 -0.13545888  0.140954   -0.08208699
 -0.12158914 -0.00140815  0.04405362 -0.17919592 -0.07909341 -0.41181652
  0.37997714 -0.19875228  0.11189756  0.08987267 -0.07111748  0.17028296
  0.30766289  0.04207453  0.12825138 -0.06491521  0.14676637  0.30357952
  0.195427   -0.03797294  0.2212816  -0.0980669   0.01357191 -0.20277681
  0.34228201 -0.23490829 -0.50198918  0.02253275 -0.27546358  0.29800548
 -0.10850401  0.2537767  -0.15445944 -0.21133096 -0.0527606  -0.07081095
 -0.04499054 -0.19344255 -0.17910564  0.20165268 -0.24143639  0.08302921
 -0.02946536 -0.56100159  0.02552238 -0.31609661  0.18531292  0.41978097
 -0.0377181   0.13931018  0.30679322 -0.06397629  0.04487871  0.34207715
 -0.01682985  0.25434228 -0.13201094 -0.06170711 -0.03540171  0.10744257
  0.5305224   0.19467993 -0.1452308   0.0808225   0.12755122  0.02599938
 -0.00251006  0.00133284  0.267517   -0.0313978  -0.12479343 -0.04828234
 -0.52424902 -0.16158358 -0.08450411 -0.06702027  0.35594739 -0.14835268
  0.10809092  0.09720281 -0.10513596  0.06717698  0.01125039 -0.24888937
 -0.65560252 -0.25047399  0.18522333 -0.1494799 ]
Node 25: 
[ 0.16153717 -0.24270606 -0.00644436 -0.18397794 -0.08413813 -0.75917971
  0.06288971 -0.38885791  0.03535254  0.04821047  0.46641145  0.21619132
 -0.29575982 -0.43575063 -0.33648075  0.14925806  0.11476749  0.24867008
 -0.39260851  0.11861147 -0.06054779  0.23672748  0.0020341  -0.10781818
 -0.30342769 -0.14989916 -0.07282181  0.30538539  0.18980971 -0.1620344
 -0.11657234 -0.52074036 -0.0729727  -0.1435853   0.10390282 -0.06174898
 -0.06360611 -0.08958486  0.08154071 -0.2010677  -0.12117967  0.01218049
 -0.27088538  0.25383111  0.10910895  0.04346251 -0.1325015  -0.33681251
 -0.37627656  0.25637082 -0.48916588  0.08563949  0.02028716 -0.24488295
 -0.76528252 -0.07770006  0.18536785  0.10906612 -0.36624684 -0.42733515
 -0.10015089 -0.50008134 -0.2915208   0.32909814 -0.07449516  0.04359872
  0.23332309 -0.23960556  0.07245786  0.22575433  0.1237519  -0.09596439
 -0.27610283 -0.44385192  0.62066968  0.19588557 -0.01524157 -0.1435432
  0.24008542 -0.01715223  0.02764592  0.0117836   0.25480682  0.16175528
  0.5256861   0.14050131 -0.52722152  0.35667276 -0.19490384 -0.23426964
 -0.0606495  -0.15563047  0.06560939 -0.0307586  -0.16987534  0.61964899
  0.50444846  0.0214597  -0.15167447  0.78207848]
Node 26: 
[-0.14592834 -0.29239459 -0.20633899 -0.05991482  0.08210836  0.44389329
  0.66040419  0.25384653 -0.08948057 -0.16159677 -0.29919456  0.0253515
  0.34895777  0.19325567  0.54368398 -0.08013357 -0.03688235  0.0368239
 -0.44110066 -0.01883983 -0.14843313  0.20549699  0.08250125 -0.1686157
  0.12800543  0.07057292  0.04171994 -0.04273082 -0.34371433  0.37613454
  0.28918805  0.10550595  0.30844695  0.32380699 -0.06952466  0.12329159
  0.21433172  0.03700751 -0.41221228  0.23199295 -0.36787563 -0.31851494
  0.30822047 -0.11834034 -0.20624156 -0.00418954 -0.02958092  0.41960145
  0.70979284 -0.18858062  0.20168776  0.03756563  0.74209156  0.2852301
  0.39723468 -0.4016953  -0.15966316 -0.17409091  0.07586793  0.05604347
 -0.00175904  0.19478946  0.66681247 -0.27674046  0.25432042 -0.19866079
 -0.25611615 -0.17157158 -0.26289063 -0.85186335 -0.03683604  0.51253212
 -0.06849048  0.31627423 -0.0783023  -0.01550689 -0.15829709  0.16051694
 -0.11354016 -0.11826136 -0.29064931 -0.0242467  -0.2920744   0.07681059
  0.11214759  0.22462892  0.29850282 -0.0856361   0.00811062  0.12348518
  0.08696478  0.05711508 -0.14096164  0.06148438 -0.05460862 -0.01088844
  0.12204058 -0.06733171  0.32020464 -0.07332316]
Node 27: 
[-0.28528516 -0.09438871  0.14603767 -0.00358994  0.14613698  0.12499162
  0.29097874  0.06358307  0.08298569 -0.05012426 -0.1266096  -0.06998622
  0.02880794  0.17359874 -0.26359834  0.05363843 -0.18164601 -0.1933789
  0.20884575  0.06234974  0.00938801 -0.5844688  -0.19237085 -0.13370687
 -0.15175397 -0.09927742  0.06849333 -0.28370611 -0.12375353 -0.09500489
 -0.11917561  0.28453109  0.02266904 -0.49458609 -0.05407841  0.03798658
 -0.07591078  0.03818085  0.15523632  0.32508341  0.50866298  0.20493951
 -0.28808385 -0.14001486  0.12443026 -0.2120381   0.0256462  -0.29769733
 -0.33435994 -0.19205618  0.20574831 -0.18000349 -0.54843516  0.15574504
  0.19827946  0.43626315 -0.03432954  0.00620204  0.15305913  0.02378499
 -0.07104577 -0.12437553 -0.07231086  0.2452263  -0.22426034  0.16175376
  0.08645836  0.08949017  0.10129363 -0.14268813 -0.059135   -0.01696466
  0.06034066 -0.24621976 -0.18141407 -0.26980061  0.15015111 -0.06532869
 -0.14079692  0.12784114  0.19480159 -0.05062794 -0.02329059 -0.08334153
  0.12253648  0.16206108  0.14677544  0.00885433  0.19350405  0.08294182
  0.1203816   0.01612488  0.09098527  0.4485758  -0.04725534  0.05104448
  0.33871113  0.13929027  0.06523498 -0.05963188]
Node 28: 
[ 2.15124230e-01  1.00956472e-01  9.20248003e-02 -1.10698215e-01
  1.06953347e-01  1.11660857e-01  2.65060209e-03  2.63790950e-01
 -8.41384354e-02 -8.00384977e-02 -8.41920446e-02  7.45027892e-03
  8.88663286e-02 -5.08759027e-02  2.91181389e-02  8.88963306e-02
  1.19989426e-01  3.19919199e-01 -1.95592646e-01 -9.17077114e-02
  9.16589229e-02 -3.52339756e-02 -5.69930323e-02  1.20432145e-01
  5.59007235e-01 -1.25846373e-02 -6.23590480e-02  1.02994380e-01
 -3.50031615e-01 -2.08824246e-01 -6.28194173e-02 -1.24035610e-01
 -4.32335659e-02  3.27565371e-01 -7.16434756e-02  1.36631308e-01
 -1.37831057e-01  1.41138459e-01  3.34855082e-01  1.02119573e-01
  1.81075732e-01 -2.49353332e-01  4.18829489e-02 -8.58904601e-02
  6.44053035e-02  2.37435543e-01  1.26101314e-01  4.54229432e-02
  1.26494574e-01 -8.63548419e-02  1.31743101e-01 -1.81570326e-01
  4.12665221e-01  1.21552407e-01  1.43948315e-01 -8.54078304e-02
  3.42866513e-02 -2.37098584e-01  1.12572257e-02  1.17657691e-01
  2.58032766e-01  6.14171616e-02  1.54732499e-02  7.07014716e-02
  4.10310096e-02 -3.32096760e-01 -8.63442719e-02  4.95436286e-02
  5.24425280e-03 -2.25867129e-01  1.59699927e-01 -1.06628230e-01
  1.26024280e-01  9.66097485e-02 -5.56310287e-02 -2.19118741e-02
 -1.26426930e-01 -4.21887567e-02  2.27150114e-04 -2.90916980e-01
 -1.74047237e-01  4.63404194e-02 -1.16601425e-01 -8.74003028e-02
  7.40657426e-02 -2.67898057e-01  1.54644712e-01 -4.17582272e-02
 -1.81524137e-02 -2.22311000e-01 -7.53131732e-02  1.07174583e-01
  1.32690182e-01 -8.54677918e-02  1.68923274e-01 -3.22405859e-01
  7.87048155e-02  2.64618721e-03  6.91103275e-02 -1.31489744e-01]
Node 29: 
[ 5.38102159e-02  1.01454523e-01 -3.76257585e-01 -6.65374553e-02
 -1.04558474e-01  1.26130631e-01 -1.78917859e-01  1.87694627e-01
  7.37430469e-02  4.10512405e-02 -3.14090856e-02 -4.95587140e-02
 -7.74438050e-02 -4.86771079e-02  1.72333317e-01  7.29302096e-02
 -6.36741310e-02  1.06574730e-01  2.16088182e-01 -4.36970549e-02
 -5.20319040e-02  5.16530486e-02  1.98476845e-01  5.16238710e-03
 -1.24154969e-01  4.20195172e-03 -1.24593067e-01 -1.33371231e-01
  1.79286487e-01 -2.73752609e-01  5.65363198e-02 -8.57187601e-02
 -2.37337762e-01 -2.58995430e-01  2.64004120e-02 -1.15139221e-02
 -5.55656204e-03 -1.50835275e-01  6.84010998e-02 -6.36341370e-02
  4.31853678e-02 -3.28823667e-02 -1.15384969e-01 -2.38571937e-02
  2.21998766e-02 -1.39335476e-01  1.28308039e-01 -3.48862846e-02
  4.61918781e-03 -1.32666433e-01  7.20151952e-02  9.21597677e-03
 -2.57119359e-01  9.83377878e-03 -5.85487054e-03  2.56278116e-01
  5.21167038e-02 -1.43093242e-02  2.48195069e-02 -1.11290449e-01
 -1.24559403e-02  1.37238013e-01 -3.27032637e-01  6.34258280e-03
 -1.96849925e-01 -1.72049761e-03  9.92770106e-02 -1.39225586e-01
 -6.40808867e-04  1.44421499e-01  9.24590067e-02 -1.04666167e-01
 -1.95469281e-01  1.56768046e-01 -2.05797385e-01 -1.17484658e-01
  6.10010865e-02 -1.08676714e-01  3.53364999e-02  7.75284928e-02
 -3.39838661e-02 -1.44153422e-01 -7.21510068e-02  7.49889168e-02
 -6.75284305e-02 -1.17139558e-01 -2.86132320e-04 -1.03456138e-01
 -1.15689527e-01 -1.09168027e-01 -9.76784089e-02 -4.97133489e-02
 -1.04570728e-01 -4.47167799e-01 -1.82848405e-02  4.61218847e-02
 -1.16722798e-01 -1.66642120e-01 -2.30177121e-01 -1.75562400e-01]
Node 30: 
[ 0.14905572 -0.00910492  0.01211202  0.35426255 -0.1865787  -0.45479197
 -0.35391819 -0.0960183  -0.03508071  0.19590882  0.18032573 -0.05250516
 -0.46157381 -0.18436082  0.00709184 -0.07614453  0.02378743  0.02482754
  0.22599691 -0.05799118 -0.03432445 -0.01200206 -0.02456745 -0.01619883
 -0.04961233  0.19686033 -0.01924593  0.27138701  0.13464892 -0.05144612
  0.03398604 -0.08822903 -0.1242209   0.08048936  0.16590917 -0.12622099
 -0.10828597  0.01908097  0.23813526 -0.1242148   0.08499083 -0.08007561
  0.0656913  -0.1369558  -0.09540861  0.06276485  0.01678641 -0.06990673
 -0.69550373  0.17999745 -0.10630848 -0.06503506 -0.60867723 -0.24262384
 -0.31545533  0.04255495 -0.01493099  0.35593342  0.02143206  0.20368256
 -0.12048785  0.06643938 -0.32673543 -0.26082769 -0.35204699 -0.09877774
  0.38863598 -0.017668    0.06606011  0.64413146 -0.16426869 -0.49914501
  0.16051702 -0.3724538  -0.01776221  0.18769367 -0.0703554  -0.01366077
 -0.05702707 -0.04300717 -0.05371783  0.0446915   0.07300161 -0.13037069
 -0.05597316  0.1374494  -0.23999862  0.10409827  0.06324549  0.23599506
 -0.0739909   0.04087866  0.01020907  0.13288589 -0.00685202 -0.06301176
  0.08931199 -0.09400609 -0.1387145   0.15339906]
Node 31: 
[-1.35528042e-01 -4.73686792e-02 -1.46785184e-01 -1.82588168e-04
  1.82497064e-01 -3.13561078e-02  1.87016169e-01 -5.08278553e-02
  5.47753219e-02 -3.37744003e-01  9.31537459e-02 -3.47107085e-03
  3.65269940e-02  9.47418078e-02  1.64293629e-01  7.20993426e-02
 -1.93048216e-01 -2.31493171e-01 -1.14442225e-01  1.50869861e-02
 -5.63422294e-03 -2.21016693e-02 -2.94430246e-01 -8.28285281e-02
 -3.10327344e-02  1.48248940e-01  1.80299678e-02 -4.41234675e-02
 -1.06824535e-02  2.87988492e-02  3.64142391e-01  1.02969482e-01
  2.73932948e-01 -1.93186170e-01 -1.91563267e-01 -1.82298902e-01
  2.29676657e-01 -1.61079113e-01 -2.15208777e-01  2.05729191e-01
 -1.34185754e-01 -1.67148054e-01 -6.56929511e-02  1.72898068e-01
 -1.74701607e-01 -2.24071783e-01  3.80893804e-01 -1.30548727e-01
 -2.30585490e-01 -3.31419219e-01  1.04257789e-03  1.00970901e-01
 -2.76978560e-01  1.28909661e-01 -9.77849617e-02 -7.92415185e-01
 -1.23986817e-01 -2.51071025e-01 -1.44145446e-01 -3.00508424e-01
 -1.78148434e-01  6.98244800e-02  2.89021593e-01 -7.54832584e-02
  9.37372742e-02 -1.19805712e-01 -1.85089067e-01  1.77534664e-02
 -4.19607167e-01 -2.09631075e-01  1.36038047e-01  4.06852629e-01
 -3.29373509e-01  2.82795621e-02 -4.22819923e-01 -1.53198144e-01
 -1.73458549e-01  1.47849869e-01 -1.77429695e-01  3.62064476e-02
 -7.15786212e-02  3.46407245e-02 -5.20345148e-03 -1.78364139e-02
  2.13789000e-01 -9.87795380e-02 -1.04538243e-01 -1.36196654e-03
 -1.63254594e-01  1.42456177e-01 -4.00345798e-03 -1.66019575e-01
 -6.97317123e-02  2.92820056e-01 -1.10414682e-01  2.21605922e-02
  2.67198495e-01 -2.35552867e-01  3.16537063e-01  1.75464745e-02]
Node 32: 
[ 2.66656590e-01 -3.12053520e-04  9.44405999e-02  9.22158849e-03
 -3.16373294e-01 -6.94937524e-01 -4.17583526e-01 -3.39123881e-01
 -5.90373764e-02  2.94429449e-01  2.73142264e-01  7.44610885e-02
 -4.98838214e-01 -3.18689296e-01  1.94283273e-02 -1.62306030e-01
  1.64847161e-01  2.32943307e-01  7.02957293e-02 -1.49077675e-01
  1.13922071e-01  3.08460688e-01  1.54530184e-01 -4.16291906e-03
  1.95833384e-01  2.23108796e-01 -1.04692408e-01  2.81060436e-01
  1.59857328e-01  5.72960532e-02  5.90636153e-02 -3.09058200e-01
  1.74119730e-01  8.88835100e-02  5.36315712e-01 -2.33619875e-01
  1.47983448e-01 -1.29528696e-01 -2.45068615e-01 -3.26528860e-01
 -3.49642129e-01 -5.75752335e-02 -6.91438923e-02  3.15961000e-01
 -6.36986876e-02  1.88036457e-01  6.46475810e-02 -2.84046803e-01
 -5.10712599e-01  2.77691852e-01 -2.72322969e-01  2.20133639e-01
 -3.58587582e-01 -2.80399884e-01 -4.12373806e-01 -9.62008820e-02
  1.86532839e-01  2.57162768e-01 -1.57605031e-01  2.57440840e-01
 -2.29518986e-01 -1.39662975e-01  3.61882661e-01 -9.48988838e-02
 -4.11265091e-01 -1.46251502e-01  5.21108361e-01 -4.75758246e-02
 -4.77464109e-02  6.34641846e-01 -2.51044873e-01  4.47100026e-01
  1.26094429e-01 -4.91088509e-01  7.10559947e-02  2.86833115e-01
 -2.11263470e-02 -1.57125378e-01  3.27934309e-01 -3.24604576e-01
 -8.15951049e-02  4.56711342e-02  3.07930164e-01 -1.24662668e-01
  2.56298403e-01  4.16808753e-01 -3.32598017e-01  2.07821440e-01
  1.26588852e-01  4.48436452e-01 -2.10966655e-01  1.38153736e-01
 -5.96471864e-03 -5.42794957e-02 -1.58505438e-01  1.74850371e-01
  2.41906704e-01 -2.36789444e-01  1.01707885e-01  2.42196774e-01]
Node 33: 
[-4.22839194e-03  2.44302553e-01 -2.10708035e-01  3.24143201e-01
  6.01557984e-02  3.23769747e-01 -7.61533706e-02  1.00911750e+00
  1.34815650e-01 -5.90072782e-02 -1.67014267e-01 -5.07690388e-02
  9.42496458e-02  1.07423149e-02 -1.89838563e-01  7.36674356e-03
 -2.85298506e-01 -2.88972871e-01  2.10407894e-01  2.88936927e-02
 -9.99263123e-02 -1.60484660e-01  1.11427297e-01  2.47978461e-01
 -2.94712545e-01 -3.59386195e-02  6.35788758e-02  2.52457120e-01
 -2.80504047e-01 -1.41461922e-01  9.23199808e-02 -8.15890114e-02
 -2.75741726e-01 -1.26255037e-01 -3.55940048e-01  4.38823079e-01
 -2.11758863e-01 -1.06771795e-01  4.42530310e-01 -2.76156426e-02
 -9.46293800e-02  7.16646347e-02  1.00634912e-01 -1.94400594e-01
 -2.80222170e-02 -4.03706713e-01  6.38343734e-02  1.66396416e-01
 -3.70284216e-04 -1.34282364e-01  2.03611527e-01  1.48134933e-03
  1.46616906e-02  7.99110851e-03  4.37308983e-01  5.59081242e-01
 -8.12837366e-02 -1.34786111e-01  1.52194121e-01  1.79419579e-01
  2.33779448e-01  1.56787527e-01 -2.23226663e-01  7.29172009e-02
 -3.08804177e-02  1.51477516e-01 -1.60250538e-01 -6.68815203e-02
  1.45806591e-01 -1.75459803e-01  1.48633292e-01 -2.64238213e-01
  1.77431413e-01  2.69597784e-01 -2.38346341e-01 -2.31358926e-01
  1.05896218e-01  6.66260335e-02 -2.25541236e-01  7.12979977e-02
  9.16326669e-02 -9.84060553e-02 -9.21565094e-01  2.65699844e-02
 -1.00550539e-01 -1.05773577e-01  4.46145027e-01 -2.55418807e-01
  1.63333471e-01 -2.04157325e-01  1.31568157e-01 -9.58269735e-02
 -6.49061558e-02 -5.32244706e-01  1.81301345e-01 -1.58909701e-01
 -1.96012302e-01  8.87766888e-03 -2.64693513e-01 -3.23383076e-01]
Node 34: 
[-0.14739161  0.16324045 -0.17637154 -0.22905508  0.0098442   0.09961036
  0.54554134  0.02233658 -0.0244561   0.05465076 -0.00978738  0.05159575
 -0.15339542  0.06312394 -0.01934417  0.02853653  0.06817513  0.45074279
 -0.09535897 -0.14362281  0.18055629  0.06590293 -0.1144235   0.09339695
  0.43253154 -0.05425389 -0.12271973 -0.16555215 -0.2658347  -0.26645078
 -0.14003349  0.09271733 -0.16757229  0.05966169  0.13418982 -0.03381283
 -0.13571081  0.07258302  0.14650472  0.29207876  0.18835116 -0.17431208
 -0.16612945  0.04668883  0.03653425  0.06347181 -0.02777481 -0.07076252
 -0.05956274 -0.10235615  0.04967077 -0.14739212  0.09405178  0.34688868
 -0.06489118  0.10680484  0.02847325 -0.31148873 -0.00700737  0.19303632
 -0.14105064 -0.04294607 -0.29362191 -0.15181802 -0.14295102 -0.12062053
  0.25809631 -0.17193409 -0.0282485  -0.84916318  0.1649703  -0.33603991
  0.11840159  0.06546895  0.11543762  0.01521554 -0.04082612 -0.11341914
  0.21031899  0.08968997 -0.20363384 -0.01936873 -0.04261577  0.07942192
 -0.45174024 -0.5258282  -0.02248879 -0.00205639 -0.01074473 -0.76504281
 -0.0916506   0.15127291  0.13881167  0.2699262  -0.20269852  0.1096195
 -0.34663109  0.00870444 -0.16624181 -0.00916006]
Node 35: 
[-0.07830622 -0.1301978   0.33195656 -0.30414473  0.08404392  0.25924557
  0.15727944 -0.14677864 -0.11771148 -0.19862394 -0.1779931  -0.04918977
  0.18646587  0.13910085  0.04924777 -0.02283538  0.02055822 -0.10562425
 -0.04571434 -0.07929489 -0.06046107  0.02884545  0.04620551 -0.10058853
  0.13214596  0.04935594  0.02941586 -0.10346125 -0.22439534  0.15094599
  0.07438042  0.06193455 -0.04125212  0.24574928  0.05513117 -0.20463474
  0.38837799  0.0165058  -0.46790453  0.06195314  0.27994646  0.02193966
  0.06639855 -0.12881844 -0.03180774  0.0461623   0.00581208  0.02848843
  0.31371291 -0.21602526  0.17474234 -0.07368478  0.22108424  0.07785481
 -0.02928549 -0.50019996  0.02910126 -0.06501252  0.06599549  0.09249751
  0.11651544 -0.00948352 -0.22256738 -0.26851054  0.05721439  0.0649725
 -0.1019802  -0.03787805 -0.3000743  -0.148405   -0.08333542 -0.35672501
  0.08641383 -0.0332333  -0.12692998 -0.10503944 -0.07015315 -0.01343408
 -0.491464    0.00306324  0.02148262 -0.02975393 -0.01162419 -0.03478603
  0.10872195  0.26293959 -0.06834819 -0.07876853 -0.02833801  0.0557651
  0.05803464  0.25476259 -0.08387704 -0.10811912  0.13627122 -0.23002805
  0.16563525 -0.11300051 -0.04646    -0.118781  ]
Node 36: 
[ 0.05293611 -0.1929841   0.20504833  0.1793001   0.07836428  0.02211979
 -0.00463433 -0.03287784 -0.05682343  0.00361576  0.07563298 -0.13356915
 -0.12237125 -0.27194274  0.36716819  0.09170944  0.23216375  0.17105755
 -0.12612952  0.02288374 -0.36343889 -0.10132906 -0.10020853 -0.20145814
 -0.0192292  -0.00166797  0.04654773 -0.25395138  0.25829249  0.25823773
 -0.01531781 -0.28891095 -0.13487329  0.0390735  -0.0072225  -0.02954474
 -0.45665661 -0.10863947  0.40710513  0.06035743  0.11505801 -0.0843844
 -0.29590282 -0.04785829 -0.03019692  0.35201167 -0.25289247 -0.16452622
  0.2008468  -0.08959893 -0.16299089 -0.04266841  0.25096757 -0.13025414
  0.18057669  0.08103513  0.06301995  0.21300389  0.30881    -0.1816769
  0.0556555  -0.11257562 -0.07166283  0.1673603  -0.00987047 -0.10139845
  0.06966404  0.08173071  0.12867467  0.37369192 -0.00437543 -0.24245336
  0.13622522 -0.21198702  0.1162518   0.0741507   0.00547819 -0.08156176
  0.29696265 -0.45620815 -0.02701224 -0.13200715  0.07808692 -0.0871691
 -0.15114711 -0.02736183  0.10186964  0.05776677  0.15479721  0.06953694
  0.07474788 -0.05154063 -0.1182886   0.46209985  0.0251651  -0.03159609
  0.01864675 -0.02053411 -0.13124191  0.11039121]
Node 37: 
[ 0.06675363 -0.14474707  0.11301624 -0.08908102  0.03209414 -0.34573599
 -0.07556842 -0.27156507  0.11419364  0.08322407  0.16951305  0.11071672
 -0.0369675  -0.07899027 -0.13347295  0.01268803 -0.17977424 -0.1983157
  0.00600393  0.07479715  0.16795423 -0.16161742  0.14061152 -0.09318964
 -0.03724972 -0.28726395  0.07806362  0.17873353  0.15778017 -0.15363236
 -0.19513207 -0.01356535  0.27165901 -0.2792314  -0.07143017  0.17525869
  0.21338069  0.1861663  -0.09586425  0.02039912 -0.16282361  0.21909356
  0.04863544 -0.15608606  0.15386198 -0.29336381 -0.14541757  0.13788772
 -0.26746184  0.29001923 -0.19350022 -0.16588441 -0.26255625  0.01172847
 -0.29526257  0.24406203 -0.02812787 -0.00548213 -0.13268655  0.04159258
  0.08532338 -0.00131915  0.27059421  0.41756143  0.01512823  0.20688562
 -0.00204968  0.1259769   0.37810167  0.08300796 -0.05814651  0.1711952
 -0.02352515  0.02693722  0.44188737  0.1650412   0.16313384 -0.02369896
 -0.0100741   0.32784734  0.19939765  0.05921754  0.30054458  0.11045761
  0.24874414  0.09655525 -0.19511762  0.23218079  0.06735787 -0.19022245
  0.10225412 -0.12507403  0.18533135 -0.23283509  0.02758938  0.2170228
  0.16593686  0.18743603  0.33607749  0.45599652]
Node 38: 
[ 7.91159969e-04  6.98923525e-03  8.26612955e-02 -1.86700870e-01
  6.32819254e-02  6.86444411e-03 -1.68560615e-01 -2.73037666e-01
  2.67719668e-02 -1.68939323e-01  1.29579934e-01  5.66019461e-02
  3.74751092e-02 -1.20280961e-01  2.06387521e-01 -6.03203758e-03
  1.03758640e-01 -1.17006608e-01 -1.82325596e-01 -1.84998601e-01
 -6.56671171e-02  4.33714162e-01 -5.40649525e-02 -4.58622396e-02
  1.63671186e-01  1.11754001e-01 -8.52614751e-02  1.22025046e-01
  1.48694152e-01  6.43016596e-03  2.98680763e-01 -2.82012301e-01
  2.05876139e-01 -2.01000830e-01  1.48049074e-01 -1.53846906e-01
 -6.78630978e-02 -1.98412041e-01 -1.86581965e-01 -2.18792146e-03
 -2.29866658e-01 -4.33394580e-02 -6.15832092e-02  2.94270058e-01
 -1.56995189e-01  1.21120343e-01  8.90535981e-02 -9.45078340e-02
  1.44315879e-01 -4.26691031e-01 -1.46693688e-01  2.27198354e-01
 -1.04895964e-01 -4.75994529e-02 -2.13902859e-01 -9.20979504e-01
  1.26875142e-01 -6.44258476e-03  6.23438486e-02 -8.34161034e-02
  1.15422487e-01 -2.31346979e-02  1.27483658e-01 -2.68198118e-01
 -2.29114476e-02 -8.23614615e-02  6.25163736e-02 -3.44029253e-02
 -2.26680518e-01  1.27520929e-01 -5.09905197e-02  2.35254996e-01
  1.31528857e-02 -1.35762656e-02 -2.87594378e-01 -8.31263197e-02
 -3.93080901e-02 -9.57444734e-02 -3.05913012e-01 -1.16268757e-01
  6.47026355e-02 -7.87850203e-02  2.88344671e-01 -1.36665248e-01
 -9.65863538e-02 -5.25221515e-02 -1.43699194e-01  1.08899975e-01
 -1.04903110e-01 -1.31865803e-01 -1.04111124e-01  1.74779384e-02
 -1.38539036e-01 -5.24603801e-02  1.15639959e-01 -1.52128335e-01
  1.94359781e-02 -2.88463155e-01  2.00014626e-01  9.35793503e-02]
Node 39: 
[ 0.00995999  0.28734816  0.05774835 -0.2657794  -0.06828828  0.01388212
 -0.29317342  0.39551033  0.09236365 -0.02320944  0.2527626   0.00292547
 -0.25190461 -0.11692268  0.45178451  0.07248403 -0.0677759   0.17921593
  0.25357413 -0.02864296 -0.06713091  0.2524113   0.05894064  0.12863503
  0.40361375 -0.12637033 -0.02524647  0.40609694  0.21812731  0.36925988
 -0.00931526 -0.39204298  0.04359091 -0.4348869   0.18183306  0.05007088
  0.38818798 -0.30244801 -0.4707002  -0.30313069 -0.71482366 -0.07668897
 -0.45461263  0.35824935  0.16202505 -0.17667971  0.0713652  -0.48394639
 -0.30214042  0.00289743 -0.1548156   0.28584785 -0.4595478  -0.24807297
 -0.3458062  -0.18936997  0.12352681  0.03593386  0.24642493  0.01604389
 -0.35656469 -0.01999619  0.07712468  0.02232257 -0.22715437 -0.04190862
  0.14856323  0.00841933 -0.12736548  0.18068563  0.21456438  0.03377755
  0.11892214 -0.10150922 -0.19658555 -0.21663684  0.00771967 -0.13714098
  0.51247271 -0.21554136 -0.07629317 -0.13426506 -0.36966813  0.26099242
 -0.20039013 -0.10316207 -0.18680177 -0.0739787  -0.09820885 -0.15624441
 -0.05985736  0.0017452  -0.19809914  0.17522784 -0.25392469 -0.08954974
 -0.18694649 -0.10601637  0.07928126 -0.19064181]
Node 40: 
[-0.09719519  0.37804391  0.15156168 -0.35504443  0.02829755  0.3193919
  0.22791598 -0.13156644 -0.01327105 -0.10045027 -0.31026238  0.07683237
  0.20429573  0.34502321 -0.19769705  0.20325057 -0.07520017  0.24168272
 -0.20948177  0.08376711  0.23477609 -0.23868998  0.07642766  0.24772528
  0.19269286 -0.00606136 -0.03084876 -0.20823317  0.05366336 -0.35096485
 -0.28561689  0.35345839  0.01010898  0.22687072 -0.12403341 -0.16098493
  0.01350692  0.32617658  0.13292516  0.18127885  0.28848884 -0.27971621
  0.07169436 -0.38745009  0.08819318  0.01292738  0.43897614 -0.07695407
  0.19307167 -0.15279375  0.40293301 -0.3914738   0.34024168  0.27229291
 -0.00662058  0.0392323  -0.04185611 -0.37888884  0.00824126 -0.16152559
 -0.04960169 -0.14786965 -0.19073365 -0.39335029  0.08489088 -0.27387556
 -0.04853933 -0.11465851 -0.11281178 -0.30557248  0.09685193 -0.22707719
 -0.41400724  0.07686378 -0.19218449 -0.16872837 -0.13974005 -0.05532858
  0.28334036  0.13557718 -0.21750217  0.05727081  0.12874505 -0.0280806
  0.34667393 -0.08030328 -0.04446308 -0.07997452 -0.50375441 -0.31726387
  0.01507792  0.02165444  0.28631318 -0.18757285 -0.13771868  0.20719258
  0.41144341  0.17860395  0.06787038 -0.22424839]
Node 41: 
[ 0.12928615  0.25872281 -0.11206392  0.570029   -0.00206549 -0.12605874
  0.08995371  0.19320402 -0.02232886  0.09933735  0.07347808 -0.16586451
 -0.33513438 -0.04023911  0.35066463 -0.02944069 -0.14235485 -0.16793656
  0.29304726 -0.18625485 -0.0398657  -0.07142814 -0.03963329  0.27916688
 -0.19513683  0.1886033   0.09594827 -0.00661959 -0.32020147  0.11064631
 -0.02442741  0.10786141 -0.40697226  0.27114693 -0.06391694  0.01450672
 -0.19794127 -0.09639525  0.37952664 -0.10751687  0.004827    0.0329625
  0.33682376 -0.06081818 -0.14970949  0.0145618  -0.05485848  0.36920954
 -0.08725899  0.05373324  0.04550382  0.00503562  0.01793219 -0.09545668
  0.20256319  0.43746434  0.04699844 -0.12373897  0.18075945 -0.20712901
  0.35252437  0.51778308 -0.4530054   0.01548599 -0.2336219   0.06809178
  0.31190769  0.18994276  0.08548353  0.02310428  0.16893362 -0.33432437
 -0.07715937  0.19646173 -0.07364246  0.20575978 -0.07891516 -0.05461727
 -0.79057785 -0.00822956  0.06543881 -0.04234406 -0.2179323  -0.06533485
  0.26022586  0.23956893  0.1443177  -0.04994952  0.00390362  0.03167709
  0.05252472 -0.04763971 -0.04740184 -0.16351941  0.39316467 -0.57321001
  0.16504947 -0.15028288 -0.40607921 -0.05895118]
Node 42: 
[-1.04743269e-04 -3.10149873e-01 -3.93487310e-01  9.81813202e-02
  1.16672118e-01 -2.36316681e-01  4.05134748e-01 -2.40672619e-01
  4.16769896e-02 -1.34812349e-02  8.35438400e-02 -4.55181682e-03
 -1.47038222e-01 -1.88901845e-01 -3.98120885e-01  3.07853302e-02
  2.37624012e-02  2.85935667e-01 -4.29082648e-02  1.07246212e-01
 -5.50568481e-02 -8.00686949e-02 -4.81379546e-02 -1.13066227e-01
 -7.17541674e-02 -1.73622081e-01 -1.22838356e-02 -1.02755217e-01
 -1.07641362e-01  7.43744347e-03  6.49999041e-03 -5.19368389e-02
 -2.87329962e-02 -6.68839602e-03 -2.49317250e-01 -6.07543222e-02
 -8.14664737e-02  8.95348709e-02  2.10719556e-01  4.64699473e-01
  1.15981794e-01 -6.05177117e-02  2.45143594e-01 -1.90021322e-01
  1.73197255e-02 -1.47980341e-01 -3.44374463e-02  4.49611892e-01
 -4.29092306e-01 -3.34867360e-02 -2.04181769e-01 -1.69088691e-01
 -1.69945782e-01  3.12057626e-01 -2.79763109e-01  7.05594511e-02
 -1.49200808e-01  2.71252281e-02 -5.75644257e-02 -4.94287858e-02
  3.62232703e-02  2.59839763e-01  6.39309933e-02  1.99196019e-01
  5.64257348e-02 -2.11288698e-03 -8.70564442e-02 -3.45176967e-02
  1.32405432e-01 -3.60805140e-01  1.71224204e-03 -2.61618490e-03
 -1.69973135e-02  2.54581774e-01  2.64005998e-01  1.49267519e-02
  9.54123248e-02  1.48788427e-01 -1.97903264e-02  1.01383546e-01
 -1.30567690e-01  5.06646279e-02  4.02087745e-02  3.61665467e-02
 -1.58182965e-01 -2.34890295e-01 -2.65115758e-01  1.20911033e-01
  2.12721877e-01  1.63483515e-01  2.42677989e-02 -1.50294370e-01
  1.12435717e-01  2.89666003e-01 -1.08412631e-02  1.40722738e-01
 -2.67773501e-01  3.13208670e-02 -9.18733263e-02  4.37788380e-01]
Node 43: 
[ 0.07773071 -0.10829869  0.21053709  0.20273733  0.01498336 -0.10726781
  0.10618949  0.35136951 -0.11439762  0.03938258 -0.0397941  -0.05443035
  0.13848485 -0.09700541 -0.1240988  -0.09333144 -0.06885179 -0.28090338
 -0.30139776 -0.06086133 -0.10662706  0.07378884  0.0843503  -0.08282506
 -0.13614961 -0.06760503  0.01466485  0.14919168 -0.32752396 -0.19940388
  0.03669325 -0.10310928 -0.05702949  0.44433889  0.09282433  0.27046198
  0.1088277  -0.07162695  0.02259693  0.02668878  0.13158821  0.09273883
  0.01088194 -0.08993375  0.01582953 -0.13687895 -0.28161609  0.06772282
  0.07054837  0.19006856 -0.05466107 -0.05799879  0.54066589  0.02239047
  0.38975601  0.14218408 -0.00188136 -0.08442578 -0.13410392  0.4957212
  0.02133763 -0.00991086  0.06335267  0.245627    0.020119    0.22567714
 -0.12750049 -0.13837754  0.21377657 -0.26533669 -0.07193358 -0.33648493
  0.56522952  0.05136514  0.28814265  0.03225915 -0.00185199 -0.00390785
 -0.087736   -0.02031264  0.07426132 -0.04060947 -0.26421386 -0.013743
 -0.3035646  -0.02349774  0.35621544  0.08715001  0.4305995  -0.05413632
  0.09326559  0.13738011 -0.05137932 -0.15473713 -0.0253857   0.34219515
 -0.13383588 -0.03269914 -0.0235133   0.14573148]
Node 44: 
[-0.06835757 -0.68870058  0.1820998  -0.10929851 -0.02308042 -0.18480513
 -0.03382717 -0.02509124  0.04108308  0.00487262  0.08086538  0.08332855
 -0.11088441 -0.1018443  -0.03045117 -0.14481465  0.10583206 -0.08890719
  0.17975299  0.05069978  0.032252   -0.37219849 -0.18574561 -0.57121446
  0.02130083  0.08716356  0.02987589 -0.22351741  0.2061125   0.05407298
  0.24475553 -0.10139457  0.36719388 -0.56438531  0.10414553 -0.0765413
  0.11587533 -0.00814423 -0.2169768   0.02332246  0.30347646  0.16625609
 -0.54975655  0.16134675 -0.10550512  0.06467665 -0.08228879 -0.61994198
 -0.16620974  0.06416454 -0.08444643  0.04468843 -0.52939523 -0.07746134
  0.00656373 -0.21993784 -0.01207713  0.21026362 -0.24031436  0.29062756
 -0.21879502 -0.59188827  0.46769172  0.25715967 -0.07190656  0.03841779
  0.10465684  0.01552343 -0.15982861  0.34060318 -0.26922387  0.47066003
  0.10613694 -0.75135753  0.1296236   0.19187553  0.13583475  0.02221693
  0.43267497 -0.15572578  0.16913734  0.04379268  0.05145575 -0.09062447
  0.26615107  0.34112877 -0.0095256   0.05653981  0.3416261   0.16357267
  0.01374658  0.12528364 -0.01235735  0.30387711 -0.20480412  0.22509529
  0.30050897 -0.03596292  0.36389575  0.14766522]
Node 45: 
[-0.15909691  0.31750171 -0.10970578 -0.17925996  0.00558253  0.0370309
 -0.03422517  0.66028285  0.06197999  0.06986522  0.06866881 -0.13929186
 -0.04839389  0.15476474 -0.06850905  0.12172467 -0.09689153 -0.35928255
  0.32728809 -0.05553831 -0.02773372 -0.2636204  -0.20194458  0.16029904
  0.00801663  0.03550756 -0.02521624 -0.09496109  0.1019734  -0.1545916
 -0.03964705  0.25231234 -0.34856299 -0.21806408 -0.12852187  0.23362818
  0.03489621 -0.15272387 -0.04000486  0.04621147  0.3149669   0.09089103
 -0.27551768  0.25663603 -0.03167493 -0.13757428  0.30976707 -0.26017179
 -0.14491606 -0.28738658  0.06351526  0.24750107 -0.43525274  0.15032419
  0.12947354  0.04597685  0.02482908 -0.32802151  0.10261376 -0.5693828
 -0.45471544  0.20000703 -0.49602658  0.06011236 -0.07613899  0.13878993
  0.02099857  0.16568363  0.15181168 -0.16001607  0.27929905 -0.20979806
 -0.31046245  0.13441332 -0.21350618 -0.08797393  0.00475822 -0.01059747
  0.08097132  0.14471635  0.16002716  0.0234756  -0.49073005 -0.03123025
  0.13456095 -0.22429648  0.18614794  0.02432855 -0.16700966  0.14162035
 -0.12598587 -0.39071935  0.02034413  0.38741701 -0.24357615 -0.14960333
  0.10584163 -0.07020456 -0.28926602 -0.08875844]
Node 46: 
[-5.97772835e-02 -1.65793686e-01 -1.20111900e-02  2.47974244e-01
  1.67823291e-02  2.78611068e-01 -5.71881256e-02 -2.55767576e-01
  3.04609707e-02 -1.17083632e-01 -1.69636212e-01 -1.05132032e-01
 -2.22390799e-04 -9.40653314e-02  2.13639001e-01 -3.93060158e-02
 -8.91875824e-02  4.34188435e-02  7.94250082e-02 -5.35340974e-02
 -1.70048550e-01  9.83026413e-02  1.35583221e-02 -1.47693619e-01
  3.19699164e-01  1.48956668e-01  5.14945738e-02  2.04504843e-01
  3.65808671e-01  2.42019721e-01  3.52007888e-01 -1.25886341e-01
  4.41729908e-01 -1.47721229e-01 -3.19893362e-02 -2.39774323e-01
 -1.62537967e-01  2.15999966e-02  3.75483124e-01  9.85624216e-02
 -1.53216459e-01  9.80818878e-02 -1.69216325e-01 -1.05666563e-01
 -1.11106544e-01 -1.63302186e-01 -6.57300773e-02 -6.15363421e-02
 -9.80689841e-03 -1.99453036e-01  3.83697841e-02 -7.26035934e-02
 -1.17683357e-01 -1.45347646e-02 -2.59825745e-01 -5.69127460e-01
 -4.62281685e-02  3.20719209e-01  2.96860196e-01  5.00736741e-01
  1.16852313e-01 -5.02157943e-02  5.13184489e-01  1.67056487e-01
 -1.09897169e-01  2.02463202e-02  6.68743493e-02  1.63336550e-01
 -3.70538528e-01  2.84220109e-01  8.59064869e-02  3.94324932e-01
  2.30207042e-01 -1.98460440e-01 -1.24448123e-01 -1.10446278e-01
  1.25730892e-01  6.79124263e-03 -2.21354816e-03 -1.54455981e-01
  4.82676403e-02 -6.92791947e-02  1.40043670e-01  4.08787176e-02
  3.42297722e-01 -9.73356482e-02 -2.28669066e-01 -1.09209200e-01
  2.01193637e-01 -4.37412736e-01  3.20775486e-02  1.91451544e-01
 -1.60632220e-01 -5.43929430e-02  1.17841357e-01 -1.69784653e-01
  3.43073221e-01 -1.79048767e-01  5.52595627e-01 -1.59980122e-01]
Node 47: 
[ 0.17737797 -0.05128672 -0.06779065  0.04224022 -0.01222496 -0.24788213
 -0.16982284 -0.33935935 -0.06912869  0.12441314 -0.02600486  0.00960059
 -0.03384699 -0.06193245  0.03939226 -0.00648804  0.02394431  0.08315163
  0.23429858  0.08111902  0.00573099  0.01485725  0.01716517 -0.04627627
 -0.42335069 -0.19298478 -0.03089662 -0.11437015 -0.02685941  0.14159058
 -0.00269077  0.17682659 -0.33208729  0.14717209 -0.06858069 -0.00581414
 -0.0419307   0.05370035  0.3960738   0.06978347  0.41909529  0.22612072
  0.14958908 -0.11189212  0.03512701  0.06832219  0.0320727   0.12617788
 -0.03732659  0.22190053 -0.00589084 -0.1325761  -0.05078279 -0.01746614
 -0.30169476  0.03606753  0.02372186 -0.11735027 -0.20880486 -0.10060249
  0.08153555  0.04036349 -0.47312272  0.25043904  0.08249374  0.15901437
 -0.08946142  0.23273743  0.29226848  0.03457815 -0.14145227 -0.6946161
 -0.07031536  0.13129067  0.13558187  0.18303351  0.11395348  0.03668416
 -0.02979357 -0.05811689  0.18866336  0.13023411  0.34642346 -0.00388738
 -0.35601709 -0.19029036 -0.2174293  -0.01606849  0.19837186 -0.10812476
 -0.09068329 -0.18340036  0.0722288  -0.06013662  0.05961022 -0.08277421
 -0.25527986 -0.10170953 -0.47097153 -0.06446402]
Node 48: 
[-0.04088673  0.04848182 -0.13038017 -0.16521105  0.02446429  0.10027898
 -0.1284244   0.09041868  0.00166349 -0.14188653  0.03312106  0.0324842
  0.27322647 -0.0433404   0.33814814  0.01422532  0.21972508  0.45467441
 -0.2809856  -0.07488125 -0.28206226  0.30346456  0.0534157  -0.04624798
  0.17673239  0.0487491  -0.0744716  -0.13376303 -0.00911883  0.2352056
  0.11848099 -0.07942178  0.20549853 -0.15847379 -0.1018908  -0.08587573
 -0.02712058 -0.12429845 -0.02819397 -0.04014241  0.07938807 -0.44474336
 -0.16830821 -0.03874029  0.02630836  0.19165503 -0.16914255 -0.06879957
  0.10707282 -0.06431545 -0.17080142  0.08366365  0.06575676  0.03381181
  0.06675408 -0.593473   -0.01917048 -0.02341957 -0.00379717 -0.19109562
  0.06399265 -0.09470948  0.30946828 -0.07427599  0.10025396 -0.31853922
 -0.31342477 -0.17611851 -0.15913814 -0.01903119  0.06401732  0.22961647
 -0.0230417  -0.0560291  -0.20033032 -0.06890457 -0.17059158  0.03511117
  0.18636546 -0.25559014 -0.33302587 -0.08935196 -0.07741404  0.03116899
 -0.23668408  0.03078025  0.02217842  0.00972537 -0.01132776 -0.14595824
 -0.02609416  0.17661849 -0.23028065 -0.04957376  0.00862593 -0.02401447
 -0.07155583 -0.04895967  0.23293707 -0.03108837]
Node 49: 
[ 7.42094636e-02 -1.24466777e-01 -1.27084693e-01  3.00926917e-02
  6.78001636e-02 -2.10922223e-01  1.17348772e-01  9.12659839e-02
 -7.61717807e-04 -1.18961551e-01  1.62053205e-01  5.28066829e-02
 -6.92575775e-02 -2.43406761e-01  8.51223911e-02 -4.22962580e-02
 -1.57817287e-01 -4.88955219e-01 -3.27576728e-01  1.21826677e-02
  8.02994942e-02 -1.85069926e-01 -6.23107409e-02 -1.26405288e-01
 -4.29766830e-01  8.42124949e-02  3.79729017e-02  2.03986689e-01
  8.62037583e-02 -2.50443712e-01  3.92100352e-02 -3.02663027e-01
 -4.36788286e-02 -6.65132645e-02  1.85256754e-02  1.15237998e-01
 -1.03263685e-02 -3.88143327e-02 -3.35548343e-04 -4.66102974e-02
 -5.13434190e-01  1.12222220e-01 -2.46283022e-01  1.13519043e-01
 -1.40463849e-01 -1.38370550e-01  9.78924004e-02 -2.75439330e-01
  2.85288983e-01 -9.95639220e-02 -1.47030250e-01  4.72357336e-03
  4.14205146e-01 -1.18928167e-01  2.86722048e-01  4.32727872e-01
 -1.25253938e-02  1.43669251e-02 -1.15294813e-01  7.54691901e-02
  3.60572891e-02 -3.53946698e-01  1.75517679e-02 -2.31070993e-01
  5.83343676e-02  1.23330113e-01  6.49152191e-02 -1.56091690e-01
 -2.02523900e-01  1.07581798e-02 -5.52789898e-02 -1.29499744e-01
  9.72301366e-03 -2.63460932e-01  1.68180137e-01  1.08267592e-01
  1.92736995e-02  2.85451327e-02  9.20099477e-02  7.18697314e-02
  1.01501102e-01 -6.59014700e-02 -1.80163827e-01 -5.74043382e-02
  2.42228217e-01  4.38899220e-01  2.52252085e-01  1.72881729e-01
 -3.73128568e-02  2.73772797e-01  1.14979210e-01 -4.44760654e-02
  8.12446094e-02  1.06540742e-01 -6.74823273e-02  4.30000812e-01
  2.18294327e-01 -1.74581794e-02 -5.81615166e-02  3.35296433e-01]
Node 50: 
[-1.01501408e-02 -6.65736096e-02  3.07715680e-01 -4.31991733e-02
 -4.11225379e-02 -1.27962365e-01  6.68196333e-01  1.89148434e-02
 -2.15996996e-02 -6.00180469e-04  5.56822947e-02  1.37883887e-01
 -4.29960427e-01  9.54044339e-02 -2.04861491e-01  1.19363600e-01
 -1.45525926e-01  3.59311629e-01 -1.63044770e-01  1.38561583e-01
  3.06109934e-01 -5.38234510e-02  1.03846977e-01  1.48281730e-01
  2.37687781e-01 -8.48840879e-02 -4.08021564e-02  1.42096736e-01
 -7.46665008e-01  8.48494113e-02 -2.53662099e-01 -9.18240197e-02
 -3.57183292e-02  2.47556309e-01  8.55571263e-02 -1.54913713e-01
  1.85032092e-01  2.14710502e-01 -1.67432671e-01  4.95440416e-02
 -1.93103354e-01 -2.24805715e-01  4.23013472e-01 -2.45344264e-01
  1.57514688e-01 -1.68844205e-01 -2.02801477e-02  2.75569421e-01
 -6.01739059e-01  1.75304325e-01  2.10588099e-01 -3.23619698e-01
 -4.25248594e-02 -2.58198210e-02 -3.86062974e-01  4.34793313e-02
 -6.79936281e-03 -9.12821840e-02  4.50462733e-02  2.45520049e-01
 -3.55418843e-02  2.40546755e-01 -3.19371410e-01 -4.16983932e-01
 -3.43680482e-01 -8.64857451e-02  5.12098080e-01 -3.55342179e-01
 -7.48502688e-02 -3.39682613e-01 -7.94683835e-02 -1.79503568e-01
  9.02060851e-02 -1.09426459e-02  6.38725665e-03 -2.46296554e-01
 -1.49881962e-01 -1.90577232e-01 -7.41971834e-02  4.97402371e-02
 -2.21072490e-01 -4.39443086e-02 -2.00831323e-01  9.07827819e-02
 -2.82214383e-01 -2.26030664e-01 -2.96053508e-01 -2.09914303e-02
  6.68863952e-02 -3.18560251e-01  2.59782596e-02  1.00236792e-01
  2.36120176e-01 -1.46013305e-01 -1.08901289e-01  1.83477970e-01
 -1.99052843e-01  2.18651589e-01 -1.12481960e-01  1.98378278e-01]
Node 51: 
[ 0.07012153 -0.06515989  0.29547392 -0.00645339  0.05280559 -0.15809643
 -0.02429263 -0.06797752  0.05220719  0.03500987  0.13244089  0.00359161
 -0.14472329 -0.18971974 -0.08337213 -0.11924514  0.12578026  0.07375532
  0.12978611 -0.24414384 -0.01067006  0.15632342  0.02780267 -0.0762635
  0.34636705 -0.00229127  0.03552156 -0.05099263  0.01650978 -0.35391411
  0.04949098 -0.31032816  0.2267581  -0.06654675  0.35184777  0.00988651
  0.26719738 -0.18901992 -0.62863661  0.13996999 -0.07441882  0.0107962
 -0.1308247   0.16969501 -0.06043944  0.11190275 -0.10844086 -0.09423656
  0.00995285 -0.05167015 -0.1963041   0.10611258 -0.14589857  0.16142456
  0.2891359   0.0320805   0.12413642 -0.04946939 -0.06197502  0.39874527
  0.15347376 -0.05438178  0.65621931  0.29213791 -0.10874162 -0.07836186
  0.12550401  0.00438463  0.17655528 -0.07146144 -0.0367128   0.50729163
  0.40330818 -0.01503292  0.14462849  0.17346244  0.04908203 -0.07058123
 -0.28258812 -0.08275735  0.01996441 -0.01636518  0.15268587 -0.09975748
  0.28179833  0.32349824  0.19049699  0.13136413  0.0483725   0.19890998
  0.08115187  0.24524186 -0.09372733 -0.14613917  0.11373304 -0.04909453
  0.17753872 -0.19691183  0.33365162  0.20866987]
Node 52: 
[-6.90623004e-02  3.27509892e-01  4.81266236e-04 -1.05473999e-01
  5.45333579e-02  1.21076733e-01 -4.53175620e-02  2.27667824e-01
  8.25882012e-02 -5.49708158e-02  1.96955650e-02  7.04334489e-02
  1.02889603e-01  1.53219842e-01  2.10757947e-01  4.13946320e-02
 -1.25356282e-02  8.02950448e-02 -7.77335040e-02 -1.27297323e-02
 -4.01158698e-02 -7.39214967e-02 -2.32745836e-01  2.04361313e-01
  3.90070307e-01  3.55317866e-01 -1.51821056e-01  5.24432309e-01
  3.00364069e-01  1.35940914e-01  1.00136293e-01  4.01182104e-02
 -1.45268771e-01 -3.10888427e-01 -2.54199750e-01 -1.47859122e-01
  1.20426708e-01 -9.43974843e-02 -2.71930281e-01  2.82031361e-01
 -6.66911299e-01 -1.82016332e-01 -2.23718099e-01  2.20193667e-01
 -2.12793340e-01  3.13471926e-02  2.01010608e-01 -3.13244648e-01
 -5.76903903e-02 -4.16283738e-01  3.75296363e-02  1.94111795e-01
 -1.50417343e-01  3.52204541e-01 -3.13675522e-01 -5.15232388e-01
 -1.08828135e-01 -3.33258575e-01  1.31074089e-01 -2.69135837e-01
 -2.92196992e-01 -9.41226726e-02 -3.05295761e-01  8.77660212e-02
  1.27528325e-01 -1.09180465e-01 -1.44661853e-01 -6.33476020e-02
 -2.56532832e-01 -2.49880161e-01  1.67459058e-01 -2.29111199e-01
 -2.98989272e-01 -8.42637881e-02 -8.12805361e-02  7.46528994e-02
 -1.68189667e-01  1.05269743e-01  1.81996353e-01  1.31960928e-01
 -1.53098284e-01  8.96331706e-02 -2.83499317e-01  5.74832578e-02
  2.39632388e-01  2.13252142e-03 -2.24963093e-01  1.59628222e-02
 -1.93440884e-01  8.64118053e-02 -2.13289709e-01 -1.19409998e-01
 -1.08571268e-01  2.60330249e-01 -2.25644506e-01 -9.01514566e-02
  3.61727280e-01 -7.05923954e-02 -2.22413141e-01 -9.77110094e-02]
Node 53: 
[-0.2254568  -0.05930166 -0.10435213  0.28363343  0.32996069  0.28609908
  0.65491724  0.12814623 -0.03482216 -0.24660571 -0.11091785 -0.00368435
  0.16085991  0.20357462 -0.1420752  -0.0935084  -0.18866444 -0.43644154
 -0.1331243  -0.13316601  0.09552122 -0.39791096 -0.1230426  -0.03821331
 -0.19900999  0.15118716  0.14481279 -0.63921551 -0.68547483 -0.13807976
  0.0691248   0.44972018 -0.03254481  0.30973338 -0.37201359  0.00905695
  0.07339413  0.2938412   0.05496782  0.54326488  0.38367742  0.06822259
  0.23138308 -0.23855598 -0.2199544  -0.07257337  0.00543265  0.18943576
  0.21199225 -0.24759457  0.21365641 -0.37423174  0.39456822  0.54420207
  0.48227998  0.2899678  -0.17317469 -0.61209416 -0.2686394   0.0873588
  0.33778212  0.09954604  0.17363065 -0.18533304  0.13730443  0.16856936
 -0.28434671  0.0644695  -0.03282177 -0.76171962  0.00215572 -0.02460711
 -0.0095257   0.21531641 -0.11724083  0.02128936 -0.09098245  0.23673817
 -0.40129729  0.10682392  0.11810861  0.1113223  -0.17349254 -0.26026351
 -0.32924908 -0.12071835  0.29698631 -0.0851959  -0.07929096  0.45305989
  0.22479233  0.12555057  0.38814551  0.09530368  0.2275263  -0.17836613
 -0.35452179  0.07401713  0.03757837 -0.04586091]
Node 54: 
[-2.01508823e-01 -1.43669855e-01  2.26048640e-01  8.61838656e-02
 -3.02945142e-02  6.65471556e-04 -2.31530476e-01 -1.82963258e-01
  3.64797982e-02  5.30917833e-02  1.27954123e-01 -2.05051520e-01
 -3.81087868e-01 -1.62525932e-01  4.22190755e-01  2.04409779e-01
  2.45695724e-02 -2.18396868e-01  2.62700501e-01  9.13485369e-02
 -1.60538955e-01  1.42209740e-02 -1.57785827e-01 -1.39250542e-01
  1.13135739e-01 -4.15342359e-02 -8.08686387e-02 -2.37452439e-01
  3.49044782e-01  1.50992084e-01 -1.76861521e-01 -1.50999375e-01
  1.04245387e-01 -2.35867040e-01  3.57222683e-01 -1.45976590e-01
 -1.45740710e-01 -7.89075137e-02  6.49699749e-02 -2.09030916e-01
  1.36921080e-01  3.22420313e-01 -3.99335726e-01  1.01003633e-01
  2.07438627e-01 -5.97341176e-03 -1.84302686e-02 -1.77953331e-01
 -2.69067694e-01 -2.33595328e-02 -1.30972127e-01 -1.52834527e-02
 -4.77797100e-01 -4.68971044e-01 -1.23919905e-01 -2.25251616e-02
  2.14120733e-01  4.95881870e-01  4.19821977e-01 -1.24079887e-01
 -2.72368681e-01  5.70782031e-02  1.55920338e-01  1.38147465e-01
 -3.38512314e-01  1.81755154e-01  4.51855310e-01  6.82749371e-02
  5.06667170e-02  8.18449980e-01  1.44031196e-01  1.65069650e-02
  2.92475922e-01 -2.25800976e-01 -1.46411507e-01 -1.94427340e-01
  2.25489714e-01 -3.08222038e-01  5.84920617e-02  1.30374832e-02
  2.95089504e-01 -1.42295772e-01  4.56281984e-02  7.69930205e-02
 -1.30377338e-01 -1.25089671e-01 -1.50560111e-01  1.85475513e-02
  3.73373001e-01 -2.59478805e-01 -9.73197088e-02  9.37367804e-04
 -1.85738368e-01  4.88410082e-01 -1.87989989e-01  2.37932469e-01
 -5.20983418e-02  8.43180948e-03  1.18778080e-01  1.05043646e-01]
Node 55: 
[ 2.53450990e-01 -2.67759987e-01  2.44636090e-01 -3.15463252e-01
 -1.14736146e-01 -3.18708650e-01 -3.74157750e-01  8.92400485e-02
  1.42257245e-02  8.92242365e-02  1.13484969e-01  1.55102870e-01
  1.55895021e-02 -3.35279452e-01  2.80067162e-01 -9.49792835e-02
 -4.12156789e-02 -8.77057322e-03 -8.73234853e-02 -4.97093899e-02
 -7.58761743e-03  1.74275721e-01  2.77632316e-01 -1.76148183e-01
  4.05614960e-01 -2.08252068e-01  5.34973686e-03  4.62621308e-01
  3.44013602e-01 -2.28691585e-02  1.01862620e-01 -6.16469000e-01
  3.65729721e-01  6.03122944e-02  1.78134838e-01  1.19921751e-01
  3.15570374e-01 -1.22820892e-01 -3.63287737e-01 -1.42416187e-01
 -4.58698899e-01  7.78230148e-02  1.97533519e-01 -2.74486910e-02
  7.14360324e-04 -1.61685027e-01 -1.24580302e-01  9.02493071e-02
  1.63691671e-02  2.07464480e-01 -1.56971352e-01  7.43064468e-02
  7.31850773e-02 -7.44490475e-02 -3.20326113e-01 -6.81863649e-04
  6.41450743e-02  4.43590825e-02 -1.54019202e-01  5.29782513e-01
 -2.85232227e-02 -1.29856952e-01  3.48974920e-01  5.29211621e-02
 -1.61347362e-02 -1.28443499e-02  1.36466426e-02  4.08097116e-03
  7.41797551e-02  2.49473056e-01 -2.33714314e-01  3.19005488e-01
  3.41114007e-01 -5.25129324e-02  3.04408109e-01  1.56294008e-01
  2.57267648e-02 -6.10280330e-02 -7.41913417e-02 -3.85462907e-01
  5.67324384e-02 -5.36343159e-02  1.73807634e-02  1.12122424e-01
  6.86549182e-01  4.33891634e-01 -1.47320086e-01  2.64339375e-01
  5.42665377e-02  1.01444721e-01 -2.35449899e-02  2.87928052e-02
 -7.34569521e-02 -3.95119291e-01 -4.82196731e-02  2.79346852e-01
  5.93604459e-01 -1.40516902e-01  3.97052754e-01  4.21609626e-01]
Node 56: 
[-1.28373221e-01  3.06826652e-01  1.38655794e-01  3.31826388e-01
  4.18163087e-02 -4.18758159e-01 -1.62847334e-01  7.28290552e-02
  2.50403918e-02 -5.50529573e-02  1.35845836e-01 -1.20881027e-01
 -3.32141865e-01 -6.11719150e-02 -2.07607504e-01 -1.28899863e-01
 -2.84247221e-02  8.60867890e-02  4.40807642e-01 -1.98069480e-01
  1.71299512e-02 -2.47947843e-01 -2.10881918e-02  2.02723280e-01
  6.23066608e-02  8.76858912e-02  8.58120621e-02 -2.01436349e-01
 -1.48486724e-01 -1.75885589e-01  1.54869100e-01  4.68182848e-02
 -1.19126238e-01 -6.75194777e-02 -4.17843255e-02 -5.91918362e-02
 -3.11671715e-01 -9.30842906e-02  4.57593947e-01  4.28971427e-03
  4.96715663e-01 -4.78290913e-02  2.12672408e-02 -1.05920740e-01
 -1.90514065e-01 -1.50005137e-02 -2.43376100e-01 -2.94843578e-02
 -6.13445238e-01  2.09494250e-02 -1.37253779e-01 -9.88115396e-02
 -7.74514951e-01 -5.84234585e-02  2.48113811e-02 -6.35776389e-02
 -1.09720718e-01  7.28006531e-02  1.09594154e-01  4.74651387e-01
  1.93144112e-01  2.70413214e-01 -2.03613679e-01 -1.22979633e-01
 -4.14008248e-01 -3.57634939e-02  1.95742394e-01  3.82818598e-02
 -3.98980150e-02  3.53773761e-01  7.88453552e-02 -2.35478017e-01
  3.74038427e-01 -9.33032374e-02 -5.01346016e-02  2.13038277e-01
  1.88371020e-02  8.58933422e-02 -4.10284663e-01 -2.08656940e-01
 -9.05191866e-03 -4.12592501e-04  2.73645017e-02 -8.65727355e-02
 -2.47731175e-01 -2.76520294e-01  3.40252911e-03 -2.38078601e-03
  3.89962104e-01 -5.04640100e-01  1.43907699e-01  1.75251282e-01
  5.26920501e-03 -1.30461719e-01  1.74149093e-01 -3.34500518e-01
 -7.20643454e-03 -1.86380775e-01 -1.19172217e-01  5.66561617e-02]
Node 57: 
[ 0.24520304 -0.29002658 -0.16928384 -0.05150087 -0.13077298 -0.11395892
 -0.25968507 -0.32805606  0.08068875  0.08778845 -0.03408837  0.14256402
  0.09898032 -0.08053495 -0.01396615 -0.0693347  -0.0086697   0.03276348
  0.16774216  0.02893909  0.01224691  0.23669265 -0.03863157 -0.30229406
 -0.07014329 -0.01343474 -0.04055881  0.39396341  0.48504917 -0.14828441
  0.23377264 -0.1088472   0.36553727 -0.60790119  0.05916102  0.09921532
  0.12555592  0.02321144 -0.07490707 -0.06306744 -0.04107043 -0.04033689
 -0.30034448 -0.01195356  0.01283385 -0.07903493  0.08982299 -0.30327182
  0.08738358  0.23702375 -0.12006825 -0.00542466 -0.38303854 -0.02444465
 -0.22491903 -0.31602764 -0.00662718  0.31560447 -0.3730828   0.14025708
 -0.12781502 -0.4095254   0.56345833  0.21374002  0.15172182 -0.13037338
 -0.11299459  0.02532961 -0.0128093   0.15825898 -0.17655174  0.22814905
 -0.11883044 -0.28547282  0.12175947  0.18316435  0.04538975  0.02483429
  0.38727625  0.0161535  -0.032333    0.03878841  0.38758883 -0.08756458
 -0.03947615  0.03112314 -0.09093425  0.07283263 -0.14146846 -0.25877483
 -0.05880639 -0.07455556 -0.11113991 -0.07790463 -0.11234915  0.12555092
 -0.05866921 -0.06408347  0.39040651  0.16747527]
Node 58: 
[ 0.12626369 -0.03626999 -0.12526121 -0.24770934 -0.04510748  0.08342545
  0.74793672  0.16555366 -0.15623529 -0.03369467  0.01723627 -0.03347119
 -0.16032919 -0.08815867 -0.28056386  0.1733174   0.10699954  0.51927177
 -0.6081958   0.06029553 -0.00112065  0.28469859  0.23099494  0.09866472
 -0.31643919 -0.29247104  0.00572818 -0.14943434 -0.91860832  0.16600571
 -0.18950923 -0.15314332 -0.38731931  0.58176482  0.1794749   0.01194114
 -0.01975375 -0.14464266  0.14677342 -0.11960162  0.17778692 -0.34973318
  0.07677137  0.09480474  0.27392294  0.03788673  0.18026105  0.1824071
  0.01633607 -0.08484934  0.08637721  0.12808813  0.82707344 -0.11902009
  0.14143268  0.10499863  0.21392215 -0.28376634  0.19190407 -0.49898815
  0.12048312  0.15352341 -0.59149393 -0.14845706 -0.11196416 -0.11546372
  0.26689821 -0.27435622  0.01936476 -0.85446362  0.10828647 -0.12227102
 -0.22191937  0.20327607 -0.11423955 -0.44161093 -0.07872556 -0.24466424
  0.18882339  0.01103011 -0.33373996 -0.17316812 -0.30296143  0.13481065
 -0.13359815  0.09831225  0.10727919 -0.08446258 -0.08375265 -0.00506415
  0.05247051 -0.02515868  0.03312978 -0.08193785  0.05444768  0.06875892
 -0.1983662  -0.03382049 -0.38989128 -0.20345463]
Node 59: 
[-0.14399682 -0.15660111  0.21352133 -0.05005409  0.03478141 -0.12018986
  0.06526122 -0.20003588  0.09298573 -0.31057189  0.35984661  0.16684074
 -0.231676   -0.10281954  0.02141053  0.14237179 -0.20830807 -0.00115521
 -0.0897334  -0.09330211 -0.03710875 -0.03168828 -0.24423269 -0.21130562
  0.08837924  0.17729688  0.05078357 -0.14541381  0.21299074 -0.06557435
  0.30151161 -0.23304062 -0.07778986 -0.44471186 -0.02719794 -0.41088714
  0.30349908 -0.27045025 -0.44228195 -0.07882454  0.1065009   0.08401181
 -0.45844143  0.2993432  -0.09909119 -0.32063446  0.08734053 -0.54447724
 -0.68182202 -0.26429799 -0.26417362  0.14199537 -0.48157001 -0.13392797
 -0.47595026 -0.0318768   0.01478667  0.04067715 -0.13927551 -0.21619213
 -0.4970418  -0.28869873 -0.02838097 -0.18959322 -0.09480336  0.1771219
  0.08929166 -0.0544072  -0.4889633   0.15099916 -0.0707894  -0.02568008
 -0.19414284 -0.43789401 -0.11973915 -0.12267352 -0.02446244 -0.04635679
  0.6317151   0.02880212  0.06053071 -0.18638988 -0.10868292 -0.11933915
  0.05758814 -0.13671308 -0.46026101 -0.03052645 -0.1961991  -0.05142183
  0.02875853  0.19628424 -0.09536247  0.07661653 -0.36150835  0.36980279
 -0.02288539 -0.24537631 -0.00995053  0.06641312]
Node 60: 
[-0.24639236  0.10586048  0.12258166 -0.02708436  0.34077301  0.54877276
  0.46694708  0.5584069  -0.06102109 -0.19430193 -0.46012928 -0.19723422
  0.48549736  0.46352834 -0.01651622  0.05770155 -0.26022248 -0.29339692
  0.00295549  0.03494718  0.08713902 -0.56845232 -0.27619589  0.09716128
 -0.12161017 -0.17699248  0.13825472 -0.45420679 -0.47406198 -0.28196387
 -0.09276891  0.49375443 -0.35559026  0.14626657 -0.46044393  0.35721116
 -0.09973935  0.11158309  0.17182624  0.60638216  0.75887454 -0.18460731
  0.35149245 -0.5294923  -0.09281341 -0.21201056  0.31053336  0.58399514
  0.38376375 -0.4400101   0.52596483 -0.32708347  0.16358622  0.57334638
  0.8267605   0.13007017 -0.30241831 -0.50984996  0.22875959 -0.04146873
  0.25429457  0.52278078 -0.47852607 -0.29197726  0.34815258 -0.08878103
 -0.39784894  0.08497029  0.2655467  -0.87869648 -0.04684572 -0.68842764
  0.05959384  0.66377696 -0.35736863 -0.25249727 -0.05641889  0.16280683
 -0.66585464  0.4216674  -0.07289661 -0.01956263 -0.43061794 -0.18617538
 -0.40758842 -0.13698332  0.66713978 -0.21109383  0.27883193 -0.24344826
  0.23746498 -0.16787847  0.01675685  0.23601659  0.2445516  -0.43855059
 -0.20133143  0.07676754 -0.33017955 -0.31532295]
Node 61: 
[ 0.27775566 -0.04884189  0.20789169 -0.18727547 -0.27820725 -0.63275633
 -0.2892287   0.28002695 -0.01001868  0.38287743  0.2848222   0.05119511
 -0.46541358 -0.3972559   0.23347988  0.07115203  0.05057616  0.19849984
 -0.03076664  0.04337117 -0.0311444   0.35260703  0.25300449 -0.00600883
  0.13905359 -0.25420161  0.00558429  0.18383585  0.20300601  0.13970575
 -0.29390438 -0.48616441 -0.01073039  0.19889642  0.39197064  0.26724023
 -0.07558866 -0.12403119 -0.11577355 -0.51141704 -0.37466333  0.14155287
 -0.04913438  0.15631803  0.30756809  0.00185083 -0.07295993 -0.2146601
 -0.40407097  0.5852631  -0.22242002  0.08143823 -0.12233775 -0.56300456
 -0.11080968  0.32773534  0.28468491  0.42043193  0.05739131 -0.00633029
 -0.09102359 -0.04743805 -0.21457947  0.3645298  -0.40103249  0.24054594
  0.63691107 -0.00569692  0.41696841  0.67414388  0.09629731  0.03312658
  0.12869576 -0.52896741  0.08804692 -0.01462794  0.04611378 -0.39131548
  0.18580246  0.06191982  0.1301629  -0.10912742 -0.12432046  0.160658
 -0.22949589 -0.11793758  0.05995955  0.30454379  0.07624294 -0.10154773
 -0.02754334 -0.09186304 -0.0385507  -0.10665041 -0.06146633  0.23653144
 -0.30508346  0.03916132 -0.04425662  0.42488903]
Node 62: 
[ 0.26453428 -0.67319974  0.33153764  0.11894819 -0.05403532 -0.50997393
  0.19571084 -0.41545633  0.00237331  0.00415008  0.25014137  0.2112694
 -0.23258881 -0.34392792 -0.91672355 -0.28058276  0.16203916  0.0428121
 -0.1257782  -0.06640499  0.35409168 -0.12470093  0.00233239 -0.46082282
  0.15301351  0.26523681 -0.1397928   0.33214214 -0.17849751 -0.17378905
  0.23661162 -0.36639727  0.55675141 -0.24704555  0.18614612 -0.20140236
  0.4974224   0.18714502 -0.51655229  0.12364503 -0.27020158 -0.12343048
 -0.59779824  0.16474482 -0.17268934  0.16936757 -0.12356366 -0.57957667
 -0.42459154  0.12582623 -0.4102804   0.02728228 -0.074362    0.14685939
 -0.74961041 -0.37166453 -0.03622043  0.01839781 -0.49454152  0.5122392
 -0.02980337 -0.70674205  0.86823637  0.07713043  0.02187014 -0.18399968
  0.09529517 -0.19500872 -0.24680228  0.00876559 -0.34128768  0.72818939
  0.24414201 -0.74284787  0.6241787   0.48814322 -0.00594569  0.14979999
  0.57035039 -0.16937275 -0.09257236  0.24928814  0.24705017 -0.11944122
  0.41423824  0.52223231 -0.587994    0.11262049  0.10314038  0.56523751
 -0.14504156  0.20334277  0.30007554 -0.1065169  -0.12696924  0.23057529
  0.38721109 -0.09364238  0.52388865  0.36280816]
Node 63: 
[-0.06145695  0.22972744 -0.16342379  0.14532743 -0.17109671  0.18679897
 -0.21078385 -0.07720497 -0.03734158  0.21563794  0.02167686 -0.07969326
 -0.18182135  0.01314005  0.34336286  0.08778001  0.02599709  0.09191537
  0.10114982  0.07057103 -0.13374552  0.27322791  0.06048528  0.18932882
 -0.20144085 -0.10250168 -0.08953303 -0.04701662  0.24202541  0.13229848
 -0.11793876  0.07184289 -0.15072635  0.25987428  0.09522702  0.076934
 -0.06549316 -0.09128727  0.27770334 -0.24535329  0.02691692  0.04586916
  0.25677067  0.04508045  0.12166618  0.03104644 -0.06035994  0.34180738
  0.12032525  0.14030518  0.03826253  0.05247305  0.07003233 -0.29857455
  0.04995535  0.00722612  0.11727896  0.15471706  0.18131317 -0.18825349
 -0.04758604  0.25436994 -0.03534701  0.13369336 -0.10010876 -0.00342867
  0.25484356  0.06939046  0.23878094  0.29883108  0.0645917  -0.13176713
 -0.02010222  0.42549398 -0.10346673 -0.14844276  0.08057427 -0.20600846
 -0.07612821  0.06316237  0.05301284 -0.09548022  0.09134282  0.01241447
 -0.19785944 -0.19781093  0.02855798 -0.0752137   0.04852114 -0.20884378
 -0.13535359 -0.12150043 -0.16761964 -0.08674758 -0.01351613  0.00813727
 -0.21422673  0.06224056 -0.18154826 -0.16705899]
Node 64: 
[ 4.86275511e-02  8.53648362e-02 -3.19634051e-01 -2.88016863e-01
  9.80314127e-02 -3.33355780e-01 -3.33631027e-02 -1.85474805e-01
  1.12092196e-01 -1.13047812e-01  2.33817436e-01  7.61462057e-03
 -3.33337665e-01 -1.47922263e-01  2.90613962e-02 -3.33153317e-02
  6.97126496e-02  1.57593816e-01  2.64351970e-01 -2.28483215e-01
  4.18425427e-02  9.86157893e-02  1.16389885e-01  3.50073878e-02
  1.32405648e-01 -5.89313099e-02  6.91565633e-02  1.19679788e-01
 -1.85207517e-01 -3.18710640e-02  1.54980085e-02 -1.03868948e-01
  2.79124258e-01 -2.48059548e-01  3.46228073e-01 -1.35489126e-01
  1.66382473e-01 -1.05304978e-01 -9.12372164e-02 -1.44831746e-02
 -3.82667081e-01  8.24825363e-02 -1.45406750e-01  3.35754997e-01
 -5.85493367e-02 -3.58708169e-02  1.19406144e-01 -1.10227801e-01
 -3.78962191e-01 -2.69987898e-01 -1.28900353e-01  1.84646857e-01
 -4.90658928e-01  3.91959695e-03  2.15676191e-02 -4.27637691e-01
  2.14198762e-01 -2.40053916e-01 -5.90955327e-02 -2.01209640e-01
  2.83051561e-01 -7.67119722e-02  2.29855833e-01  1.40805536e-01
 -3.61347732e-01 -8.65194435e-02  3.25072426e-01  2.05597734e-01
 -1.74696621e-01 -7.42843443e-02  1.78106991e-01  4.97885345e-01
 -2.22100300e-01 -1.33658784e-01  3.01625544e-02  9.77261406e-02
  1.16526540e-01 -9.37220585e-02 -3.98849586e-01 -1.23573113e-01
  7.48094448e-02  1.73153816e-04  2.44926756e-01  1.09464078e-01
  7.29043989e-01  5.61964155e-01 -1.60598996e-03  1.79634352e-01
 -2.24706454e-01  3.21080300e-01  4.69906885e-02  9.55921686e-02
  9.48394851e-02  8.68811769e-02  2.03758712e-01 -2.27437450e-01
  6.51635185e-01 -1.85623529e-01  3.83019343e-01  1.29627946e-01]
Node 65: 
[-0.12735282  0.37166183 -0.24207515  0.21734691  0.13859667  0.45341097
  0.1039126   0.16859475 -0.07775458 -0.16299536 -0.38147794 -0.16337713
  0.44811448  0.08927524  0.57425615 -0.00791925 -0.08877722 -0.12260612
 -0.20903621  0.03658897 -0.32995097  0.11540656 -0.03596637  0.26148204
  0.07408641  0.16604213 -0.02847571  0.16147762  0.00912667  0.35466588
  0.19453362  0.06444653 -0.1354558   0.27373114 -0.44220849 -0.02049379
 -0.45981916  0.12278384  0.72269617  0.34989521 -0.19189529 -0.18003997
  0.29156567 -0.31466359 -0.14666642  0.0008973  -0.16533569  0.22741657
  0.71754786 -0.16987775  0.24627265 -0.26378187  0.56076859  0.42024702
  0.01580972 -0.14511218 -0.22624988 -0.24367867  0.25721456  0.35700787
  0.07732225  0.28984636 -0.1943215  -0.17461458  0.14215682 -0.07570516
 -0.57254327 -0.14130421 -0.20782485 -0.39171864  0.23557687 -0.48029974
  0.22637612  0.43348505 -0.25588373 -0.06234265 -0.18281362  0.26045065
 -0.22154534 -0.47033299 -0.17832698  0.03115583 -0.19919424  0.09154722
 -0.25285065 -0.55882968  0.01313468 -0.17215034  0.12894917 -0.60380896
  0.02928806 -0.012769   -0.08793945  0.03458637  0.01825176 -0.07136914
 -0.01065909  0.00555818 -0.13793911 -0.18809093]
Node 66: 
[ 0.0962846   0.04021753  0.12008251  0.16004448  0.15182356 -0.37941638
  0.72767211  0.19191407  0.0697403  -0.09209733  0.27459789  0.05506297
 -0.24793505 -0.15317067 -0.00182472 -0.14973934 -0.02600406  0.28890365
 -0.05913657 -0.293489    0.10785112  0.01321704  0.13513532  0.06193641
  0.77903417  0.32188527 -0.06864933  0.48366073 -0.53457488  0.02578187
  0.31376946 -0.27079519  0.54629518 -0.24695008 -0.02359188 -0.08145077
  0.40534686  0.07163496 -0.25098856  0.38089946 -0.86916768 -0.47858827
 -0.02807305  0.24290492 -0.14954882 -0.05140284  0.06248131 -0.06785399
 -0.27975152 -0.19846549 -0.24890468  0.03531273 -0.20276875  0.19974864
 -0.23597773 -0.27555078  0.00722855 -0.25916405 -0.00297932  0.53854269
  0.07832464  0.04144528  0.86348516  0.27055351 -0.21981336 -0.40230318
  0.14071334 -0.25398202 -0.39407061 -0.53368783  0.0563461   0.7189361
  0.20781492  0.0140482   0.07579232  0.08302514 -0.2078823   0.04614537
 -0.2266241  -0.1825876  -0.40069537  0.1167872  -0.32077167  0.24414206
  0.66387097  0.4301404  -0.15987709  0.15031736  0.10072353  0.08904906
  0.00162902  0.55516505  0.10773089  0.13026475 -0.02008995  0.00096122
  0.67344514 -0.23582664  0.61120046  0.21499814]
Node 67: 
[ 0.11804826 -0.11035915 -0.14701886 -0.44819398 -0.09555998 -0.08637093
 -0.05619378  0.13496154 -0.12468745 -0.12901843 -0.08920476 -0.07172528
 -0.15179209 -0.1009536   0.00953087  0.28344902 -0.19485377 -0.17839526
 -0.13214394  0.09336581 -0.19548817  0.36246474 -0.0859786   0.06704566
 -0.1675655  -0.209       0.07639176 -0.34662699 -0.24296217  0.46734505
 -0.00396592 -0.06330897 -0.41422465  0.48769155  0.32473603  0.03676455
 -0.25664897 -0.06571337  0.03023912 -0.18891077  0.45617449  0.33379644
  0.2650599  -0.10971048  0.05149563 -0.22883452  0.241038    0.4179034
  0.12435286 -0.04448598  0.19474326 -0.06880264  0.4560323  -0.28473227
 -0.0431709  -0.36454315  0.11410718  0.08883787  0.26285851 -0.26343137
 -0.12594     0.33896523 -0.30133505  0.09625205 -0.1748367   0.53716767
  0.27901143  0.00763087 -0.10627724  0.05394068  0.12663673 -0.26534056
 -0.09873468  0.3191982  -0.17489681 -0.26682734  0.21354804 -0.25914038
 -0.2946988   0.08044437  0.25649891 -0.13888095 -0.28315845 -0.01439795
 -0.8023194  -0.60183624  0.00844755 -0.02391     0.27393539 -0.23919204
  0.04789638 -0.03852257 -0.06661429 -0.0381679  -0.03133307  0.30864301
 -0.94141016 -0.10724049 -0.50336758  0.07062638]
Node 68: 
[ 0.18352417  0.08208368  0.41745032 -0.27192894  0.04058376  0.11296296
  0.26897396 -0.2651337  -0.05468393 -0.17439035 -0.22749513  0.10346906
  0.06490554  0.02701305  0.23299367  0.13426506  0.08368707  0.36886765
 -0.23249198 -0.05944682 -0.30495121  0.43245247  0.10506225  0.15894296
  0.44593808  0.00432616  0.07215339 -0.0873861  -0.02251527  0.47608711
 -0.17614898  0.15337763  0.03652172  0.12898221  0.29903815 -0.20498939
 -0.46927738  0.05301865  0.22680049 -0.2610208   0.3256334  -0.10192683
  0.36680469 -0.10701242  0.06541488  0.29311833  0.15580666  0.25244213
  0.17942089 -0.2935573   0.23726124 -0.1013562   0.20495019 -0.31017225
 -0.09543935 -0.26666002  0.12161601  0.04457083  0.10170685 -0.0588545
  0.0927142   0.2080065  -0.20010883 -0.57150606  0.07125422 -0.13657843
  0.15988835 -0.20645249 -0.18016093  0.04413144  0.09832785  0.05546883
 -0.08512124  0.18636238 -0.05531014 -0.13586746 -0.08710363 -0.25883457
  0.3504965  -0.22418019 -0.07049343 -0.0453473   0.01799849 -0.06668446
  0.08235632 -0.3933224  -0.1724184  -0.02904564  0.05108662 -0.41978186
  0.10500816  0.34250067 -0.03587926  0.10440208 -0.07736519  0.1355368
  0.19407718  0.03299361  0.0277161  -0.04135768]
Node 69: 
[ 0.10813106  0.27037583  0.75451466  0.2778676   0.10096658  0.1308019
  0.14990467 -0.47726327 -0.20210646  0.06873305 -0.19366906 -0.16657264
  0.19912883  0.04154192 -0.02932506 -0.13119338  0.06563951 -0.22107882
 -0.19589164 -0.24756197 -0.05631877  0.40127399 -0.02329217  0.30567334
  0.40783753  0.54985563  0.27112902  0.03408993 -0.31784414  0.9029342
  0.2705333   0.15263656  0.15671042  0.5993901   0.35428564 -0.51106827
 -0.2479952   0.15997523  0.13926721  0.11028448 -0.06765629  0.02447778
  0.35395675  0.02097036 -0.2317399   0.25869538  0.24109516  0.2290364
  0.68497676 -0.08529941  0.20872973  0.00176012  0.67450695  0.1698604
 -0.57809323 -0.61197835  0.14407635 -0.30023067  0.42688551  0.22353503
  0.36370144  0.1852994   0.16891627  0.21198255 -0.00839624  0.03671042
  0.00745936  0.31506278 -0.12717787 -0.21627407  0.03709539  0.12327192
  0.35156059  0.16786611  0.02647238  0.19865554 -0.01446416 -0.0166583
 -0.76873395 -0.02031971  0.07748959  0.18902513  0.37256007 -0.1202713
 -0.29918107 -0.19824912 -0.55992438  0.14056583  0.47129481 -0.04728143
  0.18362743  0.37198595  0.0953411   0.33169027  0.4247821  -0.69426582
 -0.27215706 -0.17265139  0.06346362  0.00437704]
Node 70: 
[ 0.04134896 -0.15359906 -0.29158094  0.19093071 -0.0642073  -0.00679698
 -0.00354062  0.0987884   0.07126249  0.068065    0.00410243  0.12727652
  0.04833513  0.01819527 -0.0208681   0.07930147  0.04042042  0.18284606
  0.0020733   0.12130183 -0.0267943  -0.01925289  0.01049574 -0.15991688
 -0.22719765 -0.02748077 -0.11575346 -0.02171811  0.04534083 -0.13922505
 -0.08686673  0.01954381 -0.16259112 -0.11171039 -0.03737007  0.09863059
 -0.18308309  0.01903063  0.26572039 -0.02272809 -0.00213598 -0.03472408
 -0.16275244  0.01234049  0.0302244   0.05375478 -0.18053391 -0.16028436
 -0.03133984  0.0846731  -0.02274861  0.02167929 -0.06172249 -0.01564319
  0.12414135  0.12165871  0.00518658  0.067133   -0.1311683  -0.202442
 -0.11634498 -0.1972567  -0.13793642  0.00678429  0.05661964 -0.05014647
 -0.05507144 -0.07736597  0.10438055  0.05335938  0.17623884 -0.09302358
 -0.224318   -0.17373708  0.1235255   0.06707779 -0.04815816  0.03657411
  0.13270138  0.00766572 -0.07268861  0.04792293 -0.0649287   0.00300717
 -0.07147932 -0.1227592   0.12146524  0.06982886 -0.22721726 -0.00274813
 -0.11783251 -0.17464779 -0.00531177  0.0596624  -0.11231219  0.11533854
 -0.08822381  0.08771191 -0.15342756  0.08685043]
Node 71: 
[-3.25712858e-01  1.35893526e-02  5.22381127e-01 -1.93953067e-01
  3.50220279e-01  1.46652316e-01 -4.08435678e-01 -1.07793473e-01
  2.55585925e-01 -3.19466501e-01 -1.12238252e-02 -3.27497044e-03
  9.20724044e-03  1.19219309e-02 -7.12997415e-02 -1.54351635e-02
  2.37836784e-01 -6.18255383e-01  9.50879575e-01 -1.69089016e-02
  2.20712689e-02  4.92869812e-03 -7.86373240e-02  9.01933564e-03
  2.67329704e-01 -8.62872124e-02  8.71264020e-01 -2.48325079e-01
  6.81047615e-02 -1.77289532e-03  9.54729424e-04  1.00927070e-02
 -3.60475827e-01 -2.92846269e-01  3.77540559e-02 -1.39133654e-02
 -1.01460264e-02 -1.74222902e-02 -1.90863486e-01 -5.42628419e-02
  1.44169426e-01  8.78202897e-01  1.35986574e-03 -1.40266327e-03
  5.50706437e-02  4.01399291e-01 -1.19085238e-01  2.44924143e-03
  4.23757781e-03 -7.03412470e-02  5.77894028e-03  5.50623204e-02
 -4.53825612e-01  1.28584357e-02 -2.09650684e-04  2.80111657e-01
  7.44401032e-03 -4.22249331e-03  1.02054421e-02  1.52408491e-03
  6.63463743e-01  2.44316676e-03 -4.59255169e-01 -6.35945265e-01
 -8.99439181e-02  7.18361203e-01 -9.90361825e-03  1.14480570e+00
  7.41734465e-04 -2.07265456e-02 -2.03763260e-01 -2.99791799e-01
  1.00922590e-03  4.87051796e-03  8.31980685e-02  4.30852480e-02
  1.01714432e+00  7.29141779e-03 -4.15200734e-01 -1.89014757e-01
  7.76198548e-01 -6.92303727e-03  2.84928134e-01  1.20935884e-03
 -2.87917917e-01  4.28316065e-02  1.32246412e-04 -3.40183127e-01
 -6.98901492e-04  9.98212289e-02  7.34942014e-01 -3.58581076e-05
 -5.84548706e-03 -1.66149342e-01  7.71571419e-01 -9.22241153e-01
 -3.29981407e-01 -3.35843407e-03 -4.08289860e-01 -4.39641585e-01]
Node 72: 
[ 2.73612670e-01 -7.39127267e-02 -8.49475054e-03  3.29698156e-02
 -9.61560443e-03 -6.39228765e-04  5.43135166e-02 -3.16287279e-01
 -1.10558360e-02  8.66196507e-04  1.16856244e-03  2.53791412e-03
 -2.05130720e-03 -2.84094078e-03  7.24807781e-02 -3.62857846e-03
 -6.12896923e-02 -2.77150801e-01 -3.57277953e-02 -1.96252522e-03
 -4.41278672e-03 -1.71910301e-02  5.71925119e-01 -7.17890357e-02
  7.72792253e-04  7.82918269e-02 -6.18156107e-03  4.41552027e-01
  7.97054804e-06 -3.59194024e-02 -1.02439969e-02 -3.45213788e-02
  2.00926143e-02  1.02849657e-03 -1.63537945e-02 -1.30505576e-01
  5.49349693e-02 -3.56842193e-03  1.17695164e-02  7.03279105e-03
 -4.16262040e-01  7.87543384e-02 -2.11363805e-03  2.50617133e-03
  3.15097777e-02 -1.34698509e-01  7.70126007e-02 -2.79687738e-03
 -1.03293695e-02 -1.06361366e-01 -4.41173566e-03  5.16097844e-03
  1.52931054e-02  3.65184269e-03 -3.92046319e-01  2.17946445e-02
 -4.97641709e-02 -3.76575187e-04 -5.39724140e-02  1.71487955e-03
  1.52331540e-03 -1.99859286e-03 -1.53983342e-02  1.66798390e-01
  1.08313956e-02  9.03159867e-02 -1.15230370e-03 -2.10585852e-02
 -1.31619422e-01 -1.15234696e-03  1.96180112e-01  2.20486713e-03
 -1.01921944e-02 -3.17870462e-03 -7.91767911e-02 -5.12112139e-02
 -9.17160320e-03  6.09219631e-03 -1.33879767e-02  4.69223832e-02
  1.22987504e-01 -2.47056125e-03  2.51135658e-01  1.90474985e-01
  4.58656852e-03 -4.53081962e-03 -3.30002988e-01 -6.69640533e-03
 -3.51178630e-03 -9.31414376e-02 -5.46130265e-03  6.20372795e-02
 -7.89077034e-03 -7.28013120e-01  5.99861303e-03  6.56779107e-04
  5.23204557e-03  2.34995226e-02  2.06842176e-02  1.20174298e-03]
