Node 0: 
[-7.61823817e-02  2.97640511e-02 -1.08071813e-01 -4.82119435e-03
 -8.99676509e-02 -1.20332745e-01 -5.73761903e-02  7.50008626e-02
 -5.61357481e-05  3.02437183e-02  1.26125672e-01  4.39031673e-04
 -1.14584664e-01 -1.50173527e-01  1.20874283e-01 -5.17082046e-02
 -5.68069023e-02  9.26611652e-02  1.44490686e-01 -8.11778164e-02
 -1.00507459e-01  2.94115812e-02 -1.51050242e-01  4.33363750e-02
 -1.31553375e-01  3.10796872e-02 -1.07206469e-01 -1.03721824e-01
 -3.28654204e-02  6.17744713e-02  1.01575520e-01 -1.45285141e-01
 -1.60715364e-01  6.55689414e-02 -5.63753281e-02 -1.37137146e-01
  2.32379824e-02  1.31928701e-01 -1.89849837e-03 -1.46002591e-01
  2.46103370e-02  7.40757599e-03  4.67795379e-03 -1.17893933e-01
  6.51686145e-02  2.17956046e-04  8.66997064e-02  3.40801187e-02
  9.73827147e-02 -1.24891390e-01]
Node 1: 
[-1.10804558e-01 -3.62486952e-01 -4.83594364e-01 -6.17372303e-02
 -3.12911679e-01 -3.61252910e-01  3.38240755e-01  2.63132736e-01
  4.87893920e-02 -2.20882860e-01 -2.72981680e-02  1.47474934e-02
 -2.49153555e-01 -2.09523974e-01  3.22231670e-01  3.93261049e-01
  7.33412181e-02 -2.41438016e-02  1.14516458e-01  1.38267267e-01
 -2.21977126e-01  1.69761205e-01 -1.12857037e-01 -8.28111429e-02
 -3.20574659e-02 -2.56906001e-01  7.21868189e-02 -2.82929828e-01
  1.33445575e-01  2.22164521e-01 -1.34803816e-01 -9.14244743e-02
 -1.85203004e-01  2.59413364e-01  1.67809444e-01 -1.39250580e-01
  2.63606335e-01 -1.15134277e-04  4.83956374e-02 -8.42364506e-02
 -2.09102198e-01 -1.32593886e-01 -2.88197137e-02  2.54948231e-02
 -2.03288008e-01  3.47206239e-01  2.77860275e-02 -1.01050245e-01
  1.59685825e-01 -2.73037918e-01]
Node 2: 
[-0.09316624 -0.12301088  0.14632402  0.26511475 -0.03449825 -0.05716574
 -0.35454805 -0.24631274  0.02289401  0.0984161   0.127017   -0.31145714
 -0.16255682 -0.11760963 -0.31836084 -0.44897025 -0.12679818  0.07091757
 -0.20164715 -0.27305363  0.10640131  0.09193079 -0.2690107   0.08762013
 -0.24975868 -0.01057458 -0.18358432  0.1135407  -0.22032295 -0.45414397
  0.12601576 -0.29194525 -0.06505672 -0.31238047 -0.39880369  0.06705287
 -0.39398037  0.12719353 -0.4719832  -0.19333143  0.16335893  0.07040147
  0.44207411 -0.25139595  0.13027584  0.18020127 -0.0234062   0.05466975
 -0.02859764  0.1347807 ]
Node 3: 
[-0.57729355 -0.66628726 -0.6432894  -0.70186577 -0.73308632 -0.4728805
 -0.23796309  0.34622191  0.06526846 -0.74631478  0.11845403  0.11862028
 -0.50519163 -0.38012803  0.46115981 -0.3363739   0.13015508  0.62602504
  0.60108011  0.36410503 -0.48673022 -0.24559625 -0.06123045  0.01530187
 -0.20772605  0.02653208 -0.06577579 -0.67580415  0.11642902  0.33211624
 -0.33263233 -0.04585779 -0.30080142  0.33604328 -0.08158473 -0.56034376
  0.52299023  0.13478716  0.70760274 -0.2516927  -0.46699171 -0.91989291
 -0.82276001 -0.0649289  -0.41952828  0.54487828  0.08071238 -0.73160381
  0.27374163 -0.70251178]
Node 4: 
[ 0.03854346  0.31150546  0.11368684  0.06317735  0.29607124  0.26150298
  0.14068736 -0.07582754  0.0804246  -0.72770746 -0.09851923 -0.16656813
  0.2566269   0.28255052 -0.02028923 -0.0392838   0.83498206  0.0441608
  0.17344015  0.17009098  0.03316718  0.31199066 -0.07028115 -0.19885033
  0.17884254  0.14189839  0.15993022 -0.07878173 -0.28591927 -0.0549505
  0.15424582 -0.10052578  0.17731777 -0.05025909  0.02226017 -0.1200689
  0.07013072 -0.21728123 -0.11166409  0.35049955 -0.00324071  0.21863487
  0.06108738 -0.03575555 -0.15758402 -0.19764588 -0.46097413  0.17863437
 -0.03268927 -0.11829822]
Node 5: 
[ 0.2430188   0.90855546  0.87176776  0.90391267  0.71163884  0.68143387
 -0.10560961 -0.85334878 -0.15358951  0.71265023 -0.48700879  0.25757433
  0.86860318  0.73933843 -0.95104719 -0.00174142 -0.69138938 -0.55012063
 -0.86409058 -0.73436982  0.50605418 -0.2949041   0.31520336  0.04939976
  0.21431593  0.08425419  0.10863125  0.59913938 -0.00467593 -0.20464028
  0.34888564  0.33313108  0.63356823 -0.64785197  0.05887758  0.66722127
 -0.75597489 -0.37167383 -0.78282966  0.52622519  0.47523931  0.63488844
  0.82290194  0.28150029  0.1777704  -0.89717566 -0.06135911  0.33732011
 -0.3040622   0.59311233]
Node 6: 
[-7.88014474e-02  2.99070469e-02 -1.07843709e-01 -4.45012965e-03
 -8.93020843e-02 -1.20083845e-01 -5.89270157e-02  7.61526994e-02
 -2.27554367e-05  3.03446512e-02  1.28307314e-01  3.77115333e-04
 -1.15576627e-01 -1.51034349e-01  1.22063167e-01 -5.30407402e-02
 -5.90225432e-02  9.70557048e-02  1.46674036e-01 -8.36387576e-02
 -9.97336452e-02  3.24863485e-02 -1.52554319e-01  4.35031140e-02
 -1.33530773e-01  3.32245509e-02 -1.07512372e-01 -1.03480101e-01
 -3.40059131e-02  6.14740026e-02  1.04427272e-01 -1.46475973e-01
 -1.61816081e-01  6.63400846e-02 -5.75522177e-02 -1.36996091e-01
  2.36701641e-02  1.32773856e-01 -1.79329222e-03 -1.46821708e-01
  2.97786417e-02  7.35244981e-03  4.85180048e-03 -1.18338219e-01
  6.53887791e-02  2.81285465e-04  8.79050794e-02  3.43097241e-02
  9.75994969e-02 -1.24734103e-01]
Node 7: 
[-0.269657   -0.63065217 -0.11693147  0.02843093  0.0799803  -0.15573192
 -0.17529988  0.30733672  0.3183737  -0.85533599  0.11939581 -0.31066654
 -0.30742812 -0.23886435  0.30883811 -0.32210558 -0.14115649  0.21671907
  0.22635139  0.08410462 -0.04899299  0.23665134  0.09001039 -0.06875194
 -0.05798461  0.11726893  0.1706585   0.34784543 -0.1674103  -0.49249186
  0.12591451  0.04581615 -0.12008185  0.08710134 -0.28786862  0.22140639
 -0.02221851 -0.21449212 -0.28548674 -0.02899442  0.11755111 -0.59012171
  0.12485963 -0.08246024 -0.80028252  0.5649611  -0.08081359 -0.64902307
 -0.24745132  0.39142967]
Node 8: 
[-0.11373396 -0.13905043  0.10134508  0.12278344  0.17122128 -0.00816011
 -0.07700932 -0.04410237  0.19227722 -0.23383917 -0.25344111 -0.16494725
 -0.21284288 -0.23812429  0.11693376 -0.03061855 -0.29493779  0.20989087
  0.32089898 -0.71796686  0.16325703  0.03650863 -0.24795809 -0.00271502
 -0.14864754  0.00934311 -0.18617129  0.04969521 -0.26311806 -0.49151133
  0.14127573 -0.3849419  -0.17721338  0.11350625 -0.28029922 -0.18536192
 -0.20264701  0.29284929 -0.3410684  -0.29062615  0.11193261 -0.49046466
  0.39799158 -0.33105846  0.03654064 -0.06924415 -0.13013479 -0.49570741
 -0.0304602  -0.00579792]
Node 9: 
[-0.82781046  0.07053717 -0.0285946  -0.00116951 -0.12269281  0.11770445
 -0.42104109  0.02282909 -0.07991183 -0.86832014  0.09920618 -0.17031453
  0.20353898  0.09547298 -0.10846903 -0.51309646 -0.08277405  0.51852144
 -0.43074508  0.36273738 -0.12457894 -0.07686931  0.10126128 -0.10851521
  0.0706094   0.24627894  0.24634768  0.24952517 -0.1852482   0.29659332
  0.1557929   0.1034865   0.03664081 -0.13232129 -0.14845206  0.31452951
 -0.0277777  -0.65159805 -0.05428749  0.22186807  0.36868162  0.16209876
 -0.15558845 -0.02308906 -0.25093721  0.04972456 -0.31570022 -0.07499594
 -0.38857366  0.29783669]
Node 10: 
[-0.05999551  0.49073608  0.06736941  0.13484876 -0.43842211  0.00141016
 -0.10886549 -0.40377311 -0.04627995  0.33106111 -0.06284347  0.30139409
  0.28411219  0.20136201 -0.37522782 -0.45634899  0.23049805 -0.31395476
 -0.10500842 -0.27842506 -0.20145684  0.01118161  0.0393879  -0.17697666
  0.03121749 -0.04792423  0.2939456  -0.56522392  0.14062465  0.60260846
  0.49999822  0.03446164  0.08875257 -0.21804212  0.04558494 -0.27541905
 -0.05568659 -0.40709627 -0.01385294  0.2142098  -0.07754195  0.06741073
  0.20917404  0.02482476 -0.51293641 -0.43671751  0.00071442  0.33176354
  0.21266119 -0.42217952]
Node 11: 
[ 0.80468338  0.43169341  0.26019833  0.27575491  0.38794638  0.25322423
  0.51623424 -0.50192926 -0.28294696  0.8187882  -0.28593911  0.38995541
  0.29694975  0.54297536 -0.49847036  0.84252893  0.50095741 -0.54519801
 -0.25185484  0.1161056   0.13838588 -0.32596827 -0.1027784   0.3371207
  0.05668141 -0.24547375 -0.45673174 -0.18119943  0.32744183  0.08433123
 -0.58610677  0.05194995  0.49798658 -0.26894456  0.49029159 -0.14993876
 -0.06355122  0.69760202 -0.11142889  0.25332007 -0.40469716  0.74228744
  0.10145402  0.38751904  0.88446202 -0.34580962  0.1476089   0.53598297
  0.44251149 -0.37610679]
Node 12: 
[-0.0735903   0.02877585 -0.11390042 -0.01102874 -0.09432754 -0.12372571
 -0.0569203   0.08043864 -0.00017445  0.03205702  0.1277874   0.00630232
 -0.11840182 -0.1531132   0.12642947 -0.0511725  -0.05645458  0.09301992
  0.1513818  -0.08074507 -0.10487423  0.03078519 -0.1510906   0.04365099
 -0.13155982  0.03036138 -0.10797662 -0.11029454 -0.02780667  0.07171573
  0.10110001 -0.14514943 -0.16345486  0.07184681 -0.05429143 -0.13853862
  0.03291548  0.13568638  0.00748016 -0.14752654  0.02298475  0.00751029
 -0.00375729 -0.11642729  0.06529957  0.00285264  0.09113029  0.03436935
  0.10406689 -0.13145143]
Node 13: 
[ 0.08107233  0.01393629  0.18121347  0.46801962 -0.15675597  0.10268181
  0.06428421  0.20981176  0.11162965 -0.26750904  0.19242449 -0.00154456
 -0.20795337 -0.21752169  0.2536702   0.12810659 -0.18154374  0.03636995
 -0.06725442 -0.22588816  0.18769718  0.0521879  -0.2644705   0.03510479
 -0.25221914 -0.13604478 -0.06078438 -0.15017033  0.03433966  0.10192524
 -0.15285974 -0.24081548 -0.16713952  0.15985691 -0.08272469  0.09669252
 -0.19230188  0.01487819 -0.4178986  -0.23005303 -0.34910242 -0.17120815
  0.5676487  -0.01771252 -0.22174757 -0.0855275   0.17977732 -0.09410117
  0.06830799 -0.08105604]
Node 14: 
[-0.20990357  0.437089   -0.19030261  0.15608792 -0.51175725 -0.2814773
  0.0311501   0.24565911  0.03990294 -0.0048171   0.11995179 -0.15581048
 -0.42715164 -0.22513035  0.36489508 -0.20657968  0.08539473  0.15585102
  0.51932283 -0.01684157 -0.28463471  0.21407234 -0.27307754  0.21783499
 -0.27159746  0.02399604 -0.277586   -0.20166801 -0.07817802 -0.15910185
  0.49762525 -0.30103172 -0.13818679  0.2385149  -0.03204165 -0.05013734
  0.16053468  0.69196082 -0.14301258 -0.23526075  0.18491454  0.42489752
  0.21758741 -0.21177086 -0.18001415 -0.22330159  0.0683315   0.36601516
  0.16811264 -0.12466498]
Node 15: 
[-0.19365406  0.00739815  0.36582988  0.13640514 -0.29965146  0.30344016
 -0.27327426 -0.01604226 -0.05966427 -0.09976067 -0.11685861  0.34867703
 -0.14377172  0.02902821 -0.00416961 -0.3391624   0.16541949  0.08950431
 -0.06700284 -1.22932769  0.1427022  -0.34885343 -0.58168143 -0.10147451
 -0.41171377  0.05026088  0.1962895  -0.59768629  0.05387137  0.78375474
  0.04707738 -0.35636275  0.16025119 -0.07737398 -0.28260696 -0.46865562
 -0.24626527 -0.06237629  0.04912624 -0.13250259 -0.11195893  0.76337131
 -0.19437626  0.18204784 -0.01034085  0.03909569  0.16346502  0.43882088
  0.14837647 -0.71550496]
Node 16: 
[-0.01430204 -0.22171096 -0.00382659  0.12506716  0.33324214  0.1382927
  0.00228295 -0.57674388 -0.0584721   0.40516924 -0.40263731 -0.00096106
  0.78555315  0.57080564 -0.55421742  0.07545068  0.17935398 -0.27636921
 -0.20378454  0.67922611  0.04005751 -0.00819303  0.41676957 -0.04647283
  0.3825729  -0.05121543 -0.17365351  0.05131337 -0.01297124 -0.02356649
 -0.10301278  0.36126006  0.33974929 -0.32141794  0.13170786  0.09151215
 -0.09936199 -0.12495626 -0.24125005  0.5756499  -0.23298173 -0.17672701
  0.27360912  0.01492352 -0.08685887  0.09832155 -0.15196841 -0.30860302
  0.0757579  -0.06150407]
Node 17: 
[-0.02767583  0.08777108 -0.092011   -0.24974495  0.50686273 -0.07530381
 -0.03659307 -0.48322816  0.1050199  -0.71586006 -0.16293979 -0.17170171
  0.26959068  0.18239509 -0.62811839 -0.07361361 -0.00630253  0.05649015
 -0.50871905  0.15321185 -0.15367445  0.06481041  0.53077526 -0.17821147
  0.47781496  0.14696443  0.38432663  0.71753306 -0.17575338 -0.67403106
  0.07539875  0.35623061  0.14424976 -0.42015108  0.16147535  0.34749183
 -0.0267942  -0.74637002 -0.03698116  0.39067589  0.57022648 -0.71245189
 -0.13226854  0.02426655 -0.06621243 -0.15540787 -0.61426711 -0.57483658
 -0.41441094  0.73061601]
Node 18: 
[-7.61567056e-02  2.97642830e-02 -1.08144338e-01 -4.82118945e-03
 -8.99551657e-02 -1.20359440e-01 -5.73753701e-02  7.49993725e-02
 -5.59931749e-05  3.01648265e-02  1.26127798e-01  3.87513271e-04
 -1.14605016e-01 -1.50167917e-01  1.20848372e-01 -5.16077712e-02
 -5.68069640e-02  9.27271521e-02  1.44726230e-01 -8.11778144e-02
 -1.00493519e-01  2.93690506e-02 -1.51051079e-01  4.33363795e-02
 -1.31553370e-01  3.08916653e-02 -1.07202419e-01 -1.03724732e-01
 -3.28683463e-02  6.16133011e-02  1.01568441e-01 -1.45285165e-01
 -1.60709114e-01  6.55580788e-02 -5.63753236e-02 -1.37141837e-01
  2.32651311e-02  1.31388197e-01 -1.89849311e-03 -1.45985970e-01
  2.43659497e-02  7.41338888e-03  4.67794780e-03 -1.17893932e-01
  6.53591555e-02  2.24012292e-04  8.67164333e-02  3.39825601e-02
  9.74443147e-02 -1.25042207e-01]
Node 19: 
[ 0.32388473 -0.3948923   0.27221091  0.25646759  0.3826261   0.23140441
  0.08018747 -0.57403621  0.16291931 -0.22363526 -0.51054048 -0.01013099
  0.50375422  0.53225916 -0.68273698 -0.04433191  0.66219692 -0.42812111
 -0.67675904  0.51979402  0.31535807 -0.15445477  0.64866235 -0.22274589
  0.52185661 -0.04497158  0.4823953  -0.01889441  0.04470309 -0.2521838
 -0.5122067   0.54238073  0.56465552 -0.32102184  0.2652502  -0.17042012
 -0.11711039 -0.60336574 -0.16263719  0.49832197 -0.47823666  0.1220888
  0.26000913  0.27169262 -0.36227725  0.24645396 -0.37192103 -0.33994337
 -0.35395123 -0.06367412]
Node 20: 
[ 0.52499392  0.23600496  0.72139699  0.51661099  0.46690535  0.4388238
  0.15738482 -0.76794719 -0.17050806  0.02197803 -0.52516982 -0.05486165
  0.23437773  0.43768079 -0.74642425  0.51290923  0.15718339 -0.34139057
 -0.52156369 -0.05962058  0.32853793 -0.26721482  0.40702112 -0.10579479
  0.31125069 -0.00980825  0.17293048  0.49698929  0.02352685 -0.47396679
 -0.28376002  0.29119529  0.59201225 -0.48887486  0.07399052  0.40312269
 -0.40976192 -0.13138823 -0.31685387  0.34962985  0.04910216  0.03065845
  0.53294786  0.28699746  0.20198142 -0.31159024 -0.45584944  0.22172007
 -0.25148808  0.50577112]
Node 21: 
[-0.15071101  0.21419349 -0.14006627  0.00106344  0.04231014 -0.07298171
  0.03746756 -0.26490727 -0.02819609 -0.13469487  0.21193065 -0.0982646
  0.20817823  0.16873014 -0.27129178  0.21932245  0.12385992  0.50773735
  0.05418533 -0.15270859 -0.12563375  0.10800395 -0.1953575  -0.03925486
 -0.21011147  0.01832542  0.06755626 -0.0795349   0.08705833  0.40749006
 -0.03905678 -0.09571453 -0.049774   -0.14582093  0.00180001  0.10286291
 -0.00401152 -0.38417633 -0.28916406  0.32040366 -0.06981512  0.17752263
  0.02062649 -0.05916792  0.20183725 -0.04131269  0.31746956  0.41891801
  0.10635528 -0.07853473]
Node 22: 
[-0.21387495  0.10000956  0.06065745  0.17658493 -0.4268189   0.07419842
 -0.21314527 -0.15151225 -0.03019403  0.11524955 -0.50201114  0.29605796
  0.26591115  0.18136558 -0.04374884 -0.49157783 -0.47731942 -0.30859365
  0.01954477 -0.87426399 -0.03905829  0.0501052  -0.46239405 -0.10939691
 -0.18863114 -0.01753575 -0.01746235 -0.40303006 -0.17340804  0.26695952
  0.59747451 -0.41787658 -0.01399363 -0.07699392  0.02334996 -0.47513306
 -0.08279385 -0.02396019 -0.14629532  0.04490184  0.5814744  -0.1786169
  0.14158713 -0.07577675 -0.22701612 -0.08912352 -0.32852658  0.01662094
  0.01827461 -0.43535997]
Node 23: 
[-0.8062333   0.14233116 -0.67366616 -0.40215549 -0.31229109 -0.48187708
 -0.30892787  1.06780905  0.20448109 -0.33206589  0.81362276 -0.04898732
 -0.95253486 -0.98273692  1.07602225 -0.56602542 -0.19858764  0.55126153
  0.76174876  0.12548142 -0.529658    0.10942809 -0.39432931  0.48848729
 -0.43775254  0.16989246 -0.6236626  -0.11125482 -0.14517879  0.02130018
  0.41911315 -0.44123965 -0.78363134  0.62800298 -0.5382558   0.01675049
  0.20781093  0.73499776  0.17520335 -0.77884574 -0.07400099 -0.02039123
 -0.2158413  -0.46108068 -0.38481975 -0.12453206  0.46810121 -0.56105859
  0.53423941 -0.07579724]
Node 24: 
[-0.17316164  0.01423283 -0.09969997 -0.00578407 -0.03636362 -0.11510341
 -0.12873692  0.07223443  0.05591528 -0.14221694  0.12996345 -0.08293576
 -0.10414168 -0.13336865  0.11814427 -0.18170886 -0.08171706  0.15598104
  0.1492202  -0.06515221 -0.09875208  0.12564427 -0.06271654 -0.0142273
 -0.09190477  0.10642823 -0.03572141  0.04402519 -0.09358316 -0.06002678
  0.17196076 -0.07333683 -0.14830732  0.06366785 -0.08274415  0.00153254
  0.0317741   0.0565199   0.00200907 -0.10171141  0.10875744 -0.05935588
  0.00041858 -0.11938291 -0.09163313  0.01375063  0.05662738 -0.12392362
 -0.01505647  0.05142277]
Node 25: 
[ 0.18955755  0.39750864  0.5565542   0.92118291  0.06640725  0.19733959
 -0.20694509 -0.10181708  0.0643887   0.45322706  0.13587525 -0.03609387
 -0.45416603 -0.2661725  -0.36624043  0.08890854 -0.37567986  0.06956663
 -0.54407102 -0.67595502  0.50509436  0.04174285 -0.65259526  0.35639879
 -0.55978719  0.09652961 -0.43702408  0.13398035  0.01032316 -0.35613653
  0.27641113 -0.55151173  0.01807817 -0.24595616 -0.23915935  0.33087524
 -0.62160298  0.61425648 -1.08229817 -0.55798529  0.30264648  0.61638097
  1.249597   -0.00617699  0.21569521 -0.26073649  0.42945863  0.48463416
  0.25616897  0.22680154]
Node 26: 
[-0.67502377  0.25684679  0.20939997  0.17951181  0.36438011  0.20020178
 -0.46264993  0.34667295  0.03508633 -0.20722319 -0.07351937 -0.00380411
  0.0171212  -0.12483281  0.46116582 -0.83847443 -0.00087203  0.4076275
  0.45702548 -0.78412904  0.00219414  0.0172098  -0.32633203  0.04248133
 -0.20301315  0.16435808 -0.08697686  0.27775178 -0.28760402 -0.01997615
  0.45522552 -0.37028922 -0.25518742  0.29039566 -0.46872582  0.26291792
 -0.29498837 -0.18927955 -0.35806649 -0.19643253  0.28644799  0.25170499
  0.24422051 -0.39794152 -0.60142052 -0.36416689 -0.08750883 -0.10307372
  0.10265157  0.35689642]
Node 27: 
[-0.18348445 -0.18592282 -0.15929869 -0.19925807  0.16417989 -0.05218506
 -0.07833754  0.03265437 -0.01751755 -0.39456328  0.17410344  0.00100567
 -0.06616821  0.01911925  0.07254714 -0.06608307  0.02098293  0.46783083
  0.06296736  0.01893027 -0.23347432 -0.03252348 -0.20121972  0.05257103
 -0.10195404  0.04100636 -0.08241791  0.59535317  0.09581475 -0.22187372
 -0.13337061 -0.02966114  0.01031392  0.02715652 -0.05322672  0.44541316
 -0.04288069  0.28495924  0.14765579  0.10635032 -0.02993317 -0.80972875
 -0.23457877  0.12230489 -0.09901892  0.14379198 -0.02578778 -0.42006672
  0.07090903  0.64188222]
Node 28: 
[-0.12295692 -0.06078081 -0.13194923 -0.29055625 -0.30961099 -0.08078326
 -0.22419502 -0.51828637  0.12102803 -0.1298794  -0.14922717 -0.02336195
  0.5099922   0.41132128 -0.56089306 -0.39280268 -0.35290938 -0.25537264
 -0.26158219 -0.11719303 -0.12294869 -0.15222944  0.20155997 -0.14512066
  0.09023236  0.10212506  0.26047403 -0.69657086 -0.10843473  0.30522007
  0.47893611  0.03875748  0.22673398 -0.41437474  0.03116577 -0.72145797
 -0.02838509 -0.66583064  0.29833418  0.50397441  0.2170701   0.02920219
 -0.63954578 -0.14242023  0.1664829   0.06412649 -0.1135623   0.0963246
 -0.27431703 -0.76453035]
Node 29: 
[ 0.21942514  0.02816485  0.10876504 -0.01820944  0.39211323  0.10916364
  0.07942253 -0.26543668 -0.17498416  0.12789807 -0.16851645  0.11535353
  0.28936637  0.25294027 -0.20075273  0.2632118   0.36309828 -0.24390643
  0.03812147  0.38978967  0.02808451 -0.01936459  0.23340409  0.05892952
  0.2341724  -0.03559884  0.0791603   0.21391366 -0.04446968 -0.28292337
 -0.24954133  0.15033363  0.14970256 -0.04928726  0.07621221 -0.20754755
  0.14312604 -0.21859182  0.13078718  0.2171585   0.08422492  0.38497088
 -0.00733979  0.01157577 -0.08390193  0.00194435 -0.1905413   0.44337922
  0.00167973  0.09955337]
Node 30: 
[ 0.16877656 -0.05055517  0.09188295 -0.02103113  0.1144613   0.08139965
  0.09063061 -0.17512876 -0.05901517  0.05845834 -0.09227184  0.09142133
  0.17121313  0.15719819 -0.16657638  0.10542316  0.11633031 -0.15408308
 -0.07529922  0.06603879  0.06041379 -0.12894115  0.10698855  0.00838545
  0.07524298 -0.04001902  0.02666102  0.023425    0.06283644  0.01485938
 -0.17194175  0.07615883  0.11235839 -0.08728687  0.06827864  0.03542949
  0.01086773 -0.15575459  0.12664272  0.13851042 -0.17409318  0.00493134
 -0.09106322  0.07701756  0.11461708 -0.01448814 -0.07018055  0.2209394
  0.03667819  0.02407466]
Node 31: 
[-0.05321643  0.07193545  0.09230392  0.05733581  0.0956918   0.03894538
  0.02302581 -0.03629931 -0.02966274  0.10496465  0.04758374 -0.01804897
  0.146565    0.05990409 -0.03130367  0.04312885  0.00094063  0.03870949
  0.04190469 -0.05143023  0.0506492   0.02943287 -0.04571999 -0.03624392
 -0.04581298 -0.00258942  0.05939398  0.07781195 -0.01894416 -0.02774897
 -0.04116342 -0.04335343 -0.00698219 -0.00886243 -0.02748718  0.02955953
 -0.03530473 -0.0531488  -0.03572936  0.01938542  0.00113394  0.05778273
  0.06857868 -0.02109769  0.31833961 -0.09423685  0.01150577  0.08769246
 -0.02249458  0.07249786]
Node 32: 
[-0.03791878 -0.10449386 -0.09102044 -0.1937379  -0.23454861 -0.02381332
  0.04734229 -0.00311051 -0.07584567 -0.01074445 -0.04837744  0.03473048
  0.04217271  0.02444847  0.00171008  0.06933148 -0.1568609  -0.03214423
 -0.01987604  0.51933732 -0.11099626 -0.1048457   0.16480291 -0.13284743
  0.07082368  0.04957977 -0.05609639 -0.25792868 -0.04260841  0.11276977
  0.12077124  0.13550387  0.01336961 -0.01346472  0.01342198 -0.22936579
  0.24109681  0.01740574  0.40880018  0.15048425  0.04597028 -0.00457954
 -0.31954792  0.02986707  0.3187432   0.12056601 -0.12064567 -0.0084715
 -0.21031886 -0.26298908]
Node 33: 
[ 5.67393451e-02  2.40387920e-03  6.56792331e-03  3.12892564e-03
  2.46390335e-03  7.36070733e-03  4.29279192e-02 -5.32203832e-02
 -1.10782389e-02  2.55133010e-02 -5.19744567e-02  1.37223459e-02
  5.57218795e-02  4.93585682e-02 -5.31747489e-02  4.86608623e-02
  4.62438794e-02 -5.32602298e-02 -5.11307603e-02  4.00318788e-02
  1.01908106e-02 -2.16079359e-02  4.63576221e-02  1.96033153e-03
  4.91339795e-02 -2.84602861e-02 -4.09030697e-03 -2.77702226e-03
  2.50703245e-02  1.11274647e-02 -4.84251472e-02  3.44298215e-02
  4.38818405e-02 -3.32894770e-02  4.02603954e-02 -1.01918829e-02
 -1.49847731e-02  1.12139210e-05 -1.01841459e-02  4.47235137e-02
 -1.77340941e-02  2.39216540e-02  1.29733219e-03  2.52932763e-02
  1.99600689e-02 -7.69517900e-03 -3.18873168e-02  3.01562021e-02
  3.40494829e-03 -6.35892587e-03]
Node 34: 
[ 0.34280485  0.05376454  0.06832111 -0.03985414  0.02006671  0.03890322
  0.19426158 -0.09770889 -0.13290406  0.06398572 -0.07187977  0.38338907
 -0.22286603 -0.07312484 -0.0884125   0.20489235  0.21127759 -0.214655
 -0.15006034  0.05942619  0.129788   -0.34820882  0.13518572  0.21548054
  0.08128061 -0.03851316 -0.21460134 -0.32423447  0.17420559  0.33542248
 -0.20683897  0.16385478  0.04864282 -0.03244649  0.16472508 -0.14919912
  0.01273169  0.49576646  0.15117335  0.00886842 -0.17844542  0.21267464
 -0.11003725  0.20126337  0.03071643 -0.00450137  0.27434955  0.05784889
  0.29267909 -0.5038126 ]
Node 35: 
[-0.02939628 -0.40826099 -0.48196306 -0.12276838 -0.35783584 -0.35145101
  0.1545378   0.08631927  0.04733298 -0.12627944 -0.06357308 -0.02106876
 -0.01038255 -0.05106686  0.15231877  0.1238767   0.20625347 -0.03133252
  0.2521739   0.47636237 -0.39279275  0.13694964  0.26794624 -0.17929233
  0.19817589 -0.0826213   0.22405655 -0.29188272  0.05444255  0.17458427
 -0.10735555  0.20161554 -0.08254891  0.07036197  0.16462202 -0.11713895
  0.25306687 -0.16264419  0.05816989  0.04791829 -0.09373964 -0.18922874
 -0.08093425 -0.01567823 -0.11056124  0.40839583 -0.13802656 -0.06071843
 -0.01608057 -0.21894263]
Node 36: 
[ 0.00501318  0.00225487  0.00312418  0.00062319  0.00055337  0.00254346
  0.00148649  0.00022301 -0.00321234  0.00549686  0.00070388  0.00462339
 -0.00060272 -0.00093735  0.0001828   0.00410733 -0.00111028 -0.0036135
 -0.0049288  -0.01091942  0.00347012 -0.00789709 -0.00742734  0.00573313
 -0.00424115 -0.00321571 -0.00710364 -0.00397329  0.00232816  0.00133639
 -0.00434078 -0.0066098  -0.00118164 -0.00032939 -0.00179587 -0.00873184
 -0.00405536  0.00584503 -0.00031577 -0.00087255 -0.00290001  0.00050845
  0.00024207 -0.00141821  0.003647   -0.00233389  0.00354459  0.00321395
  0.00322331 -0.005737  ]
Node 37: 
[-0.09493234 -0.00696637 -0.41051731 -0.03336186 -0.28353031 -0.31482906
  0.11745381 -0.02629347  0.20203706  0.03544275 -0.09322017 -0.1949937
  0.04637878  0.05973176 -0.0194037   0.07529634  0.1377684  -0.04859776
  0.12689309  0.41590719 -0.28308827  0.2361815   0.47604215 -0.2711969
  0.3559827  -0.04102826  0.38114086 -0.13408378  0.0103405   0.03956211
 -0.05513024  0.39929292  0.05265043 -0.00195363  0.19002514  0.18873513
  0.42334588 -0.36703966  0.01331649  0.16835907 -0.11327711  0.01686666
 -0.00587345  0.06845489 -0.18509765  0.00552848 -0.25593816 -0.53173115
 -0.18668138 -0.09503527]
Node 38: 
[ 0.13747865  0.3502198  -0.00658491  0.18447005 -0.13299074  0.0305078
  0.12980045  0.04501097  0.01193981 -0.32977606 -0.0375857   0.0275123
 -0.24456597 -0.17492806 -0.01448812  0.09755272  0.07494476 -0.1906532
 -0.05482561 -0.37143785  0.03870828 -0.0043656  -0.15505734  0.06380696
 -0.08962369 -0.19055663 -0.07994913  0.00334839  0.09875705  0.11035682
 -0.36401326 -0.09079767 -0.01215564 -0.08032163  0.03595125  0.09741034
 -0.31508908  0.12547282 -0.51774357 -0.20698186 -0.29140066 -0.25765344
  0.44091086 -0.00533883 -0.32100842 -0.35190631 -0.10873779 -0.27134593
  0.08697218  0.04129127]
Node 39: 
[-1.50117649e-130 -7.87875483e-131  8.10953417e-129  5.22326547e-132
 -3.33316963e-131 -1.39167031e-129 -4.33688070e-131  1.69189211e-129
 -5.24534229e-129 -1.05597200e-132 -1.88251296e-132 -1.05510126e-128
  4.99155390e-132  1.74156350e-132 -8.44908608e-130  4.51143259e-132
 -2.86919169e-129 -1.18767659e-129 -3.49072179e-133  3.26214634e-130
 -1.14048966e-131  3.62767012e-131 -2.25176529e-132 -3.36812068e-130
 -1.29361509e-133  4.54305878e-132 -1.17114886e-130  7.69743917e-129
 -5.68393392e-131 -2.09409534e-132  3.54670000e-129 -1.59501347e-129
 -1.48956540e-129  6.93747136e-130  3.90090862e-013  4.68985342e-132
 -8.76917227e-130  2.26793343e-129 -1.51214720e-131 -8.41621411e-133
  6.43992052e-132 -6.62755588e-132 -2.66180056e-131  1.91542232e-131
  2.82557269e-133  4.57757315e-135  1.58677004e-129  9.79956980e-132
  8.28297076e-132 -6.53432380e-131]
Node 40: 
[-0.17856953  0.12839596  0.44251704  0.38267721  0.08180138  0.36167252
 -0.32032292 -0.02560254  0.06665412 -0.17681579  0.20501667 -0.23623037
  0.06068277  0.05948491 -0.04871013 -0.39658886 -0.22876529  0.28297313
 -0.18206674 -0.29596537  0.28106092  0.0442367  -0.12641324  0.06667213
 -0.17371517  0.30146411 -0.07109972  0.0921511  -0.28274528 -0.39004306
  0.48506805 -0.12790487  0.03983886 -0.08866904 -0.27682344  0.08795239
 -0.26444648 -0.1593936  -0.31829057 -0.00861961  0.2217031  -0.1335796
  0.46196204 -0.09608806 -0.18091144 -0.20965158  0.01343404 -0.08853047
 -0.29677665  0.10897345]
Node 41: 
[-0.07058157 -0.01270228 -0.19695533 -0.0181587  -0.15093771 -0.15595027
 -0.0051135   0.21836811 -0.00784674  0.04126605  0.13870068  0.06537691
 -0.19862799 -0.18010254  0.28334816  0.01653606  0.06083564  0.11269113
  0.30772222 -0.00453589 -0.14801836  0.08845495 -0.11604626  0.01127582
 -0.11985309  0.00410747 -0.07655519 -0.19892242  0.02925591  0.15023543
  0.00777894 -0.12022376 -0.18764483  0.18154144 -0.01389073 -0.15700199
  0.09575181  0.17452912  0.00542789 -0.14548375 -0.0282378   0.13667233
 -0.00268009 -0.07885147  0.01702581  0.07706592  0.13798321  0.06527475
  0.14619036 -0.21426351]
Node 42: 
[ 1.23212253e-01  1.40611690e-03  3.61588106e-03  3.68657218e-04
 -7.24955296e-03  9.35330608e-04  2.58577789e-01 -1.47261818e-03
 -1.13637442e-02  1.21941053e-02 -1.59870063e-01  1.72587236e-02
 -9.27019836e-04 -1.48823314e-03 -3.02082327e-03  3.68845907e-01
 -5.22476261e-04 -2.12052436e-01 -3.37344363e-01 -1.79839068e-01
  1.95880401e-01 -4.78212870e-02 -1.14417567e-01  3.34341087e-02
  3.32044748e-02 -2.57097561e-01 -3.98492609e-02 -2.20171179e-02
  1.19720855e-01  1.23625922e-02 -2.00959179e-01 -6.64908088e-02
  2.05220372e-02 -2.79213959e-03  9.47071758e-02 -2.42980995e-02
 -4.73787925e-03  1.01715749e-02 -3.98753786e-04 -4.89307407e-03
 -2.24574272e-01  3.11355731e-03  2.47108346e-04  1.30621544e-01
  6.99070980e-03 -2.07273264e-03  2.05792395e-02  1.54978599e-02
  9.52911222e-02 -2.91650815e-02]
Node 43: 
[-0.18157727 -0.18819534 -0.13754461 -0.16943442 -0.03780575 -0.12679753
 -0.08416578  0.04868892  0.05953917 -0.10170893  0.06951792 -0.0809986
  0.03249284  0.0171239   0.08828247 -0.11590582  0.07818528  0.15507733
  0.22441246  0.16949079 -0.13367816  0.27377071  0.09105949 -0.17081969
  0.05099056  0.12759094  0.14063872  0.01060365 -0.08318201 -0.00455678
  0.12219826  0.08257953 -0.03325389  0.10061411 -0.00106165  0.03912541
  0.25802305 -0.1288208   0.34602161  0.08765723  0.17829823 -0.23113945
 -0.26430695 -0.01448759 -0.15613987  0.25591471 -0.05690908 -0.2155459
 -0.08671624  0.03425929]
Node 44: 
[ 0.00018413  0.00092336  0.00477892  0.00093427  0.00402958  0.00459772
 -0.00283984  0.00023169 -0.00253513  0.00370156  0.00320838  0.00207396
 -0.00018349 -0.00029778  0.00016321 -0.00026203 -0.00750651  0.00174197
  0.000175   -0.01097325  0.00667426 -0.0006747  -0.00835635  0.00487338
 -0.00667964  0.00259932 -0.00695202  0.00193357 -0.00030848 -0.0012618
  0.0027001  -0.00640273 -0.00048241  0.00019843 -0.00337163 -0.00010408
 -0.00194771  0.007061   -0.00047812 -0.00169465  0.00373364  0.00254744
  0.00060587 -0.00023944  0.00479926 -0.00094713  0.00713178  0.00751238
  0.00330893  0.0005916 ]
Node 45: 
[-7.54460548e-04 -8.95645692e-04 -1.23403914e-03 -8.26111091e-04
 -2.04466373e-04 -8.76965382e-04 -1.82189170e-04 -4.69672623e-05
  2.08609422e-04 -2.53501595e-04 -3.04793827e-05 -3.23319931e-04
  1.37575353e-03  1.16717793e-03  7.61284021e-05 -7.62063267e-04
  2.05129269e-03  6.23528155e-04  5.15106074e-04  5.60059536e-03
 -1.55990924e-03  5.31996268e-04  3.05503479e-03 -1.59157002e-03
  1.53439777e-03  1.20486651e-03  3.05647792e-03 -5.41765205e-06
 -4.85730715e-04 -4.34638480e-04  6.48303217e-04  2.79070745e-03
  4.83536055e-04  7.35615807e-04  9.68784783e-04  7.91744086e-06
  2.73137856e-03 -3.32059622e-03  1.69561166e-03  1.83973570e-03
  4.50433155e-04 -5.02852557e-06 -8.46071462e-04  8.74650190e-04
 -2.36322683e-05  6.46728417e-04 -1.11536887e-03 -9.61973258e-05
 -2.25693165e-03  1.44324977e-04]
Node 46: 
[ 0.03256461 -0.00072114  0.12369651  0.07198422  0.07469569  0.11633346
 -0.00699012 -0.11885738  0.01237049 -0.04611504 -0.08090396 -0.06130193
  0.14740116  0.1302375  -0.14998358 -0.039203   -0.03717563 -0.07768229
 -0.13967598  0.0006514   0.08748894 -0.04279677  0.08286381 -0.01733715
  0.07285128  0.01124139  0.05898556  0.14795165 -0.02604956 -0.15309301
  0.00648938  0.08770863  0.1193501  -0.10181984  0.00240054  0.0595139
 -0.09539832 -0.10329407 -0.06440393  0.10471536  0.02911408 -0.02419138
  0.06919357  0.05101359 -0.01666566 -0.02989161 -0.09388655 -0.04755221
 -0.09854253  0.12239097]
Node 47: 
[ 6.66578975e-03  1.18265408e-04 -6.28033291e-04 -2.78967259e-04
 -4.66352148e-03 -7.24975462e-04  5.84461275e-03  2.57261433e-04
 -3.23334054e-03  6.36551894e-03  5.28960160e-04  5.89542502e-03
 -1.53819954e-04 -2.38980456e-04  1.29647733e-04  9.75595812e-03
  2.33634363e-03 -1.25619632e-03  4.99128957e-04 -6.47703780e-06
 -1.10864768e-03 -2.99445651e-03 -4.05094632e-03  3.06978176e-03
 -1.95577859e-03 -3.87343301e-03 -4.52042336e-03 -1.25929796e-02
  5.95141310e-03  7.52654048e-03 -1.00776085e-02 -2.74222700e-03
 -6.10817974e-04  2.66432573e-04  3.52913962e-03 -1.00561531e-02
  4.29501573e-04  5.74716464e-03  1.28347704e-04 -1.04387089e-03
 -9.21856100e-03  4.57569370e-04 -1.16386536e-04  1.10947184e-03
  1.70907562e-03 -1.81062715e-05  3.01313350e-03  8.42364046e-03
  8.61111769e-03 -1.42607009e-02]
Node 48: 
[ 7.91551898e-03  2.70187188e-03 -4.27529213e-05  5.90920745e-04
 -4.77927934e-03  3.89225390e-04  6.28082346e-03  5.33367058e-05
 -6.88326816e-03  1.65819200e-02  8.68560138e-05  7.06610451e-03
 -2.21199204e-03 -2.44499074e-03  1.95352478e-04  1.31908382e-02
  5.91183201e-05 -5.27090203e-03 -7.01198728e-04 -9.59032484e-03
  1.63053863e-03 -5.86140158e-03 -1.13488862e-02  7.48530502e-03
 -5.95382629e-03 -6.79383302e-03 -6.58431750e-03 -1.37264197e-02
  6.67389886e-03  7.89348653e-03 -7.08902453e-03 -8.69891252e-03
 -2.41992231e-03  1.05321764e-04  1.44146271e-03 -9.50528675e-03
 -3.85822729e-03  1.41770403e-02 -1.78858782e-03 -2.79463731e-03
 -9.71369149e-03  1.59041473e-03  1.28472306e-03 -8.74145668e-05
  2.56775231e-02 -3.44542775e-03  6.54206162e-03  4.78053195e-03
  1.11968004e-02 -1.41653483e-02]
Node 49: 
[ 2.40242423e-03  1.33111555e-03  1.06003889e-03  4.77778724e-04
  1.65402494e-03  1.69941185e-03 -1.79593301e-04  2.79582316e-04
 -2.49819224e-03  6.31557606e-03  1.33114599e-03  3.36577630e-03
 -1.77537765e-03 -8.92280625e-04  3.73578945e-04  1.79332255e-03
 -1.49224387e-03  2.41060452e-05 -1.11624725e-04 -5.63160872e-03
  2.57325557e-03 -2.59902284e-03 -6.31119777e-03  3.23677073e-03
 -4.02968819e-03 -3.99838991e-04 -4.46544515e-03 -6.86709796e-04
  1.11240536e-03  9.52363002e-04 -1.34030528e-03 -4.60802055e-03
 -6.60267441e-04  3.65533299e-04 -1.38803528e-03 -3.16744551e-03
 -1.16933407e-03  6.40532154e-03 -9.01295383e-04 -1.79632067e-03
 -7.28206325e-04  3.70360774e-03  1.32236442e-03 -2.81064152e-04
  8.43553117e-03 -2.35364458e-03  3.68268436e-03  5.58590331e-03
  3.76131367e-03 -1.45618132e-03]
Node 50: 
[-0.17483075  0.00116423 -0.11040637 -0.02018827 -0.04198085 -0.1205285
 -0.11901211  0.05843432  0.05841026 -0.16639131  0.11226757 -0.08687397
 -0.08901832 -0.11468481  0.10639838 -0.1776625  -0.05830497  0.14801671
  0.14977348 -0.0331934  -0.11274175  0.12971597 -0.02554309 -0.03249288
 -0.06494306  0.10233032 -0.01490483  0.04338975 -0.09248839 -0.05906446
  0.16521597 -0.04379508 -0.13484264  0.0598832  -0.06831317  0.00192552
  0.05028129  0.02602966  0.02350469 -0.07437026  0.10618899 -0.06029688
 -0.01930792 -0.11349275 -0.102446    0.0237469   0.03521978 -0.13008977
 -0.02971077  0.0521302 ]
Node 51: 
[ 0.12876756 -0.19983862 -0.13736541  0.26282781 -0.26455896 -0.26342374
  0.26621618 -0.44413401  0.18421706 -0.592035   -0.40248037 -0.2076963
  0.00528331  0.12829127 -0.59071275 -0.0562605   0.33618311 -0.56431573
 -0.62094665  0.77345672 -0.03221125 -0.06832792  0.58529366 -0.20966927
  0.44874406 -0.29832608  0.38039341 -0.08008981  0.08815095 -0.13938019
 -0.02178745  0.43315874  0.28169214 -0.47996523  0.34306931 -0.05898615
 -0.07787752 -0.25477497 -0.29163527  0.20583536 -0.18215581 -0.13906007
  0.4214511   0.09458416 -0.80080968  0.19907642 -0.29986402  0.07511577
 -0.17918703 -0.11129219]
Node 52: 
[ 0.34017816 -0.33993883  0.03931273 -0.21211303  0.19615191  0.11971292
 -0.15864981  0.04181834 -0.01639177  0.32850289 -0.03783375  0.42979379
 -0.18634024  0.00502066  0.05439632  0.1146756   0.56190525 -0.04353986
  0.05011634  0.45298496  0.03957901 -0.55215667  0.27155531  0.2552299
  0.14809738  0.11238069 -0.28151394 -0.20654594  0.08211163  0.15435534
 -0.20705642  0.1781183   0.01616716  0.01488917  0.00351978 -0.00637276
  0.17501627  0.28193208  0.32738653 -0.02548659 -0.31728174  0.61368998
 -0.32223267  0.15493843  0.45772715  0.22908368  0.19979559  0.51548421
  0.36330916 -0.30534662]
Node 53: 
[-0.39319623  0.32399441  0.1142478  -0.04693016 -0.06837448  0.04946747
  0.00146906 -0.26800104 -0.00074908 -0.52728583 -0.06673923  0.33253786
  0.08832379  0.23498529 -0.29754743 -0.13245327  0.15811008  0.38100762
  0.08090866  0.07388063  0.10645393  0.13681624  0.12515945 -0.05464071
  0.06028917 -0.09736102  0.15454981 -0.34425113  0.20465178  0.29115662
 -0.36613803  0.15966799  0.2579692  -0.18458444  0.05760899 -0.16501598
  0.03095133 -0.31982471  0.02794724  0.34520045 -0.25822597 -0.47787086
  0.03339116  0.16655032 -0.10412543 -0.27663484  0.09539706  0.06219219
  0.28715217 -0.37487161]
Node 54: 
[-0.31805608 -0.22949052 -0.03784846 -0.09656886 -0.05989419 -0.08175276
 -0.01323512  0.22322442  0.02366783  0.22806121  0.35522697 -0.0408045
  0.02944672  0.01840744  0.26979335 -0.14636661  0.14651438  0.28817229
  0.32870773 -0.55060445 -0.35300656  0.12953729  0.25358167 -0.16852796
  0.05918984  0.05525289  0.22050131  0.33123951 -0.14333719 -0.3722612
  0.20956632  0.06912905 -0.14226293  0.18812065 -0.15225951  0.24046568
  0.12557813 -0.31623652  0.31941385  0.13759134  0.00298905 -0.13777405
 -0.25863882 -0.16448799 -0.23411005  0.16233101 -0.06177329 -0.0987079
 -0.22321699  0.37959774]
Node 55: 
[ 0.05624082 -0.14623499 -0.27191602 -0.33760064 -0.04007375 -0.20444091
 -0.03707051  0.18695572 -0.01058151 -0.30280266 -0.05579652  0.17703149
 -0.00732532 -0.07872513  0.24476254 -0.18842092  0.02375195  0.00089228
  0.31832521  0.29687519 -0.31908561 -0.1650515  -0.45810385 -0.0186773
 -0.18807403 -0.09743451 -0.22662859  0.16068992  0.00904144  0.1436218
  0.29085039 -0.28002406 -0.09129663  0.26061004  0.08596861 -0.30438275
  0.25659337  0.1546164   0.60438468  0.02869263 -0.14542038  0.20832345
 -0.49335525 -0.07667285 -0.39847262  0.13779132 -0.11297226 -0.35745941
  0.30900739 -0.03564704]
Node 56: 
[ 0.11037496  0.13880931  0.00402806  0.10419128  0.16125815  0.07227286
  0.06990885 -0.23939756  0.00609098 -0.04293952 -0.01252523 -0.06806781
 -0.03632715 -0.10394162 -0.12733866  0.04962377 -0.01100493 -0.14888873
  0.04719051 -0.12883895 -0.092012    0.14348958 -0.13607847 -0.03964964
 -0.11675168 -0.03295087  0.08375476  0.30473859  0.01441177 -0.10721382
 -0.04701294 -0.05496278  0.00078419 -0.01412937 -0.01933489  0.09173421
 -0.04975902 -0.20910079 -0.13976069 -0.10530403  0.08903345 -0.36377869
  0.20945448 -0.01685048 -0.05227636 -0.12645139  0.06807191 -0.06279953
 -0.01263564  0.31697377]
Node 57: 
[-0.11096502  0.01693405  0.40784632  0.35749028 -0.45792606  0.35971248
 -0.09090937 -0.01139619 -0.0852385   0.16178677 -0.01698274  0.0210943
  0.08755564  0.08096526 -0.01380001  0.02778103  0.153513    0.08028453
 -0.12441803  0.02076196  0.31221216 -0.05733043 -0.17644036  0.03309358
 -0.18005561  0.21165712 -0.01722567 -0.4701876  -0.18048872  0.42737943
  0.0742147  -0.12863286  0.02894852 -0.05559848 -0.16650278 -0.19355107
 -0.36825902 -0.21269611 -0.41995648  0.05277169  0.14118667  0.47274165
 -0.27180211 -0.05277028  0.40067019  0.22448845  0.09211724  0.22246037
 -0.22528213 -0.37463264]
Node 58: 
[-0.08960879  0.08347631  0.07085714  0.0417401  -0.02261534  0.11019683
 -0.30992014 -0.12906222  0.05416491  0.0334661  -0.16550412 -0.05949666
  0.25546422  0.17135564 -0.16398151 -0.34085885 -0.61721791 -0.19015772
 -0.251246   -0.12589365  0.05685752 -0.03911101  0.07644125  0.09977264
  0.03947593  0.28886147 -0.20933709 -0.24092521 -0.06981234  0.21158295
  0.44710576  0.06384415  0.11022635 -0.07222492  0.02804567 -0.00202819
 -0.19695128  0.1034406  -0.08490838 -0.01854092  0.54068304 -0.29509668
  0.10406549  0.07254812 -0.15509098 -0.06460152  0.07708447 -0.14441111
 -0.2501161  -0.10647493]
Node 59: 
[ 5.04697781e-02 -1.40412935e-02  9.76178322e-02  7.54578175e-02
  1.74685965e-01  2.57916391e-02 -8.84795032e-03 -2.04073885e-02
  8.94095810e-04  4.27937016e-02  9.54818662e-02  3.50835419e-03
  2.25552958e-01  7.86240187e-02 -7.28092322e-02  8.63743165e-02
 -1.14393197e-01  4.57469944e-02 -7.79985959e-02 -3.28012588e-02
  1.03683811e-01  3.55387183e-04  3.34142899e-03 -9.12190669e-04
 -1.81295659e-02  7.02615569e-02  8.52010229e-02  7.69020328e-02
 -2.65882369e-02 -9.86692244e-02 -1.61436080e-02  2.36811670e-04
  2.65502883e-02 -2.96290290e-02 -3.81368705e-02 -3.24212156e-02
  3.43243605e-02 -4.66103874e-02  7.00851402e-02  9.76626602e-02
  3.15398655e-02 -1.69932197e-01 -2.64096861e-03  1.28855541e-02
  2.53905198e-01 -8.77354995e-03 -2.87413852e-02 -5.53529465e-02
 -1.04376305e-01 -5.01428020e-02]
Node 60: 
[-0.38616503 -0.01295243 -0.2540287  -0.00332131  0.01575782 -0.3132303
  0.01948763  0.19083088 -0.07661658  0.47334212  0.33265658 -0.25213506
  0.04661523 -0.09540337  0.22544048  0.1068472   0.13464191  0.42515045
  0.49967695 -0.13921196 -0.3286519   0.48549061 -0.43412626 -0.06334791
 -0.40271922  0.06315556 -0.05788835  0.11531291 -0.22425489 -0.26618052
 -0.05143795 -0.36897808 -0.27546309  0.36867721 -0.1629812   0.24111572
  0.3410638   0.3686793   0.04846591 -0.11010352  0.29228209 -0.12324089
  0.25316721 -0.28056784  0.74342749  0.1585205   0.11273    -0.04321261
 -0.08011557  0.20930154]
Node 61: 
[ 9.93572887e-04  6.26952388e-05  7.87437721e-04 -1.14605518e-03
 -1.94299156e-03  2.44639384e-04  1.42699402e-03  3.00594837e-03
 -1.18614183e-05  8.14968892e-04  1.92014953e-03  3.68032988e-03
 -3.80310683e-03 -2.15134927e-03  3.28393905e-03  2.44174816e-03
  2.21392075e-03  8.23323939e-04  2.96831760e-03  1.24509365e-03
 -4.38398615e-04  1.22811207e-03  7.37968983e-05  6.68820230e-04
 -5.46878354e-04 -6.76967216e-05 -7.32572595e-04 -3.10902468e-03
  2.01270081e-03  4.96546982e-03 -3.46533217e-04  5.42497761e-04
 -1.85507274e-03  3.48258103e-03  1.38050636e-03  1.02617154e-03
  2.61575117e-03  2.29713298e-03  4.76085324e-03 -1.57035194e-03
 -2.14689668e-03  2.51494331e-04 -3.57132963e-03  1.97610214e-03
 -2.74377516e-04  1.67358138e-03  3.43282599e-03 -2.72983967e-04
  2.34723696e-03 -2.61185777e-03]
Node 62: 
[ 0.12796008  0.12908546  0.24183696  0.10922682  0.40283655  0.13376773
  0.02301151 -0.1175336  -0.03753665  0.14486872 -0.06392868  0.0379054
 -0.00902761  0.06150212 -0.14015154  0.14820367 -0.05399084 -0.16610614
 -0.31442167 -0.13990905  0.31162101 -0.23929898 -0.0570226   0.1040823
 -0.02532912 -0.03205149 -0.08400334 -0.05174235 -0.03881744 -0.15760832
 -0.04185009 -0.06380518  0.14037687 -0.18480201 -0.111339   -0.24251676
 -0.39425636 -0.07764532 -0.37520104 -0.04197681  0.04524564  0.44015369
  0.10357776  0.00520481 -0.07332391 -0.14616667 -0.0886727   0.10008868
 -0.04212686 -0.23749487]
Node 63: 
[ 0.23649466  0.39763471  0.11921881  0.19092531  0.05775114  0.07719688
  0.04743008  0.0697206  -0.0201627   0.11470162  0.0311872   0.05594206
 -0.18191435 -0.18008785  0.02531881  0.16290348 -0.12281872 -0.13767955
 -0.17558606 -0.45420328  0.19314458 -0.12247618 -0.36993475  0.18012209
 -0.22331848 -0.13634157 -0.20532853 -0.05135237  0.09150938  0.05734035
 -0.20212732 -0.27653653 -0.07093454 -0.05851586 -0.0686953  -0.04203607
 -0.37792185  0.33803652 -0.49729958 -0.28376027 -0.08135305  0.0167864
  0.42410543 -0.02958875  0.03415274 -0.41834849  0.16012384  0.04344873
  0.19794762 -0.05765905]
Node 64: 
[-0.04189684  0.0526826   0.14690343  0.11545175  0.13898215  0.11374419
 -0.11970371 -0.01164208 -0.01295209  0.00528921  0.0357969  -0.0313478
  0.03083474  0.01170102 -0.01316772 -0.17602216 -0.11158935  0.04130594
 -0.03651322 -0.14661506  0.12264994 -0.000693   -0.0683456   0.02666594
 -0.06379139  0.06815949 -0.0296785   0.14607773 -0.08200577 -0.11732323
  0.14397336 -0.06066164  0.00886443 -0.0310338  -0.10404908  0.06728091
 -0.11925246 -0.01266786 -0.11653669 -0.00539692  0.10791161  0.02733837
  0.11874736 -0.02906375  0.05204958 -0.06971007  0.01049018  0.06078416
 -0.07335072  0.1432625 ]
Node 65: 
[ 0.27904061  0.2659323   0.33088282  0.20370766  0.28287709  0.37806151
 -0.15432579 -0.44026918 -0.26344367  0.1127334  -0.37223659  0.12266165
  0.21384044  0.20923651 -0.44938245 -0.1016154  -0.58976964 -0.38002908
 -0.33365355 -0.61268126  0.24408459 -0.37901534  0.04346794  0.19612293
  0.14795348 -0.03091633 -0.17899101  0.15036198  0.05882328 -0.10398745
  0.02505829 -0.0035968   0.23129518 -0.30908062 -0.07632463 -0.18561532
 -0.41041449  0.07962693 -0.47024797  0.07121319  0.04962694  0.39843194
  0.44140534  0.0364311   0.44417381 -0.32031736 -0.29237195  0.46125128
  0.07960632  0.12105896]
Node 66: 
[-3.74728766e-132 -5.61808059e-130 -6.08704642e-130  3.08506633e-131
 -3.34551091e-132 -3.20172076e-129  2.35740846e-131 -4.07052073e-131
  2.09068247e-132  1.49064408e-132 -1.35229598e-132 -2.69539205e-016
  2.49294229e-132  9.59712048e-131 -7.61220078e-131 -3.41691683e-129
 -3.47707643e-132  1.66115370e-131 -9.37491469e-131 -3.80890904e-132
  8.04174015e-133  1.21608598e-129  1.23516791e-130  4.88856662e-133
 -4.58382150e-132  1.47504798e-129 -3.14354735e-131  4.63063724e-130
  2.97103365e-131  2.26076287e-131 -2.34948254e-131  3.15124472e-132
  1.87155932e-129  9.39520703e-133 -4.84589966e-133  1.17464241e-132
 -1.65376851e-128 -1.48921265e-132  6.71682309e-131  2.54390345e-130
  1.12384900e-131 -2.61600548e-132 -1.52782975e-132 -7.73064447e-132
 -3.28344460e-129  1.73471745e-128 -2.67643255e-131 -7.91573401e-131
 -1.32078621e-129 -4.20785915e-132]
Node 67: 
[ 0.01938273  0.00268501  0.00128441  0.0008445  -0.00361258  0.00166995
  0.00723023  0.00038991 -0.01536163  0.0256688   0.00062723  0.01344324
 -0.00257288 -0.00174823  0.00037836  0.01157131 -0.00206413 -0.00798973
 -0.00047427 -0.01302995  0.00413037 -0.02123985 -0.02710126  0.01876214
 -0.01263294 -0.01138997 -0.02309176 -0.02580543  0.01202223  0.01927732
 -0.01819841 -0.01975674 -0.00138279  0.00022381  0.00025074 -0.03212137
 -0.00435281  0.01904961 -0.00131873 -0.00496313 -0.02293307  0.03031695
  0.00113398 -0.00072797  0.02435006 -0.00331271  0.00714007  0.04201633
  0.02778858 -0.03389965]
Node 68: 
[-0.12932133 -0.1011091  -0.04785893 -0.06843335  0.04438601 -0.02118974
  0.02662281 -0.02132542  0.02714719 -0.37570658  0.01645157 -0.06522571
  0.046756    0.03136895  0.02193443 -0.13734028  0.08931418  0.10871486
 -0.00904688 -0.09305557 -0.08469212  0.10980469  0.0198578   0.01855663
 -0.03536011  0.04283951  0.0349978  -0.13528074 -0.01337316  0.03319783
  0.0516447   0.00251435 -0.02318626  0.03517181 -0.03342966 -0.11862669
  0.05152534 -0.08218799  0.12891569  0.14375282  0.06093366 -0.08538406
 -0.08889506 -0.05489565 -0.37823675  0.06274907 -0.09526835 -0.08732839
  0.01939901 -0.11001434]
Node 69: 
[-0.04233809 -0.04017026 -0.14326633 -0.08071391 -0.15509439 -0.10220318
 -0.01895738  0.15760047  0.00133186  0.14325752  0.10762608  0.02955556
 -0.09921825 -0.13326942  0.2266885   0.00638269  0.04872364  0.12624931
  0.23580636  0.00880327 -0.09504835  0.09480698 -0.07097734 -0.01054788
 -0.07226061  0.02221465 -0.03304025 -0.13733197  0.00213508  0.04072554
  0.00811246 -0.06719493 -0.16016252  0.09827301 -0.01959122 -0.07055403
  0.1063177   0.10870272  0.01677914 -0.10614185  0.00475306  0.05182927
 -0.04720087 -0.04869457  0.11037578  0.10237077  0.10430309  0.06488139
  0.07381427 -0.07134578]
Node 70: 
[-6.55627229e-03 -1.39613109e-03 -4.40726754e-03 -8.09889900e-03
 -2.41342919e-04 -1.92301000e-03 -4.39785410e-04  3.25549133e-03
  3.65811040e-04 -1.04194881e-04  2.62190346e-03 -1.61855100e-03
  7.41431548e-04  8.21549718e-04  4.20957080e-03 -4.79838723e-04
  4.77179759e-04  8.00644287e-03  9.88154481e-03  1.35209679e-03
 -5.09919870e-03  1.35534086e-02  2.00554998e-03 -4.20785324e-03
  1.16219127e-03  3.33603904e-03  3.29062202e-03  4.62330732e-04
 -1.06784938e-03 -9.49670636e-04  1.09794930e-03  1.89746849e-03
 -7.98521377e-04  5.35642159e-03  8.89309364e-04  4.99894241e-04
  1.37738212e-02 -1.59577925e-03  1.73442536e-02  2.13686864e-03
  1.49019167e-03  4.81136419e-06 -1.44532520e-02  1.01835107e-03
 -1.67780546e-05  1.44415741e-03 -4.64947823e-04 -3.19755119e-04
 -3.24353165e-03  9.25952179e-04]
Node 71: 
[ 5.98846504e-03  2.65045225e-06  8.51000605e-05 -2.60117188e-04
 -1.37298409e-04  5.83552975e-05  4.58272467e-03  8.44179212e-04
 -1.43481900e-04  3.81975291e-04 -1.95148344e-03  1.66257288e-03
 -3.90734862e-04 -7.41137789e-05  6.98220522e-04  7.53383732e-03
  4.65290028e-03 -4.37481624e-03  8.36181994e-04  6.03131814e-03
 -1.55314573e-04 -1.35724813e-04  2.03369040e-03  7.96850392e-04
  2.66236203e-03 -3.07746870e-03 -2.74276877e-04 -9.31504508e-05
  4.76683137e-03  4.01194630e-03 -7.20425446e-03  3.00285939e-03
  2.75839459e-04  1.49056619e-03  4.99599666e-03 -2.74096286e-06
  8.22602167e-04  1.48044488e-03  2.06422931e-04  1.12423596e-04
 -2.04146178e-03  1.38370856e-05 -1.16312614e-04  3.67596965e-03
  1.39140707e-03  6.97483382e-05  1.40553075e-03  1.41667533e-04
  3.84920184e-03 -1.03413522e-04]
Node 72: 
[-0.24487051  0.00376275 -0.03386624  0.00992812 -0.05095958 -0.06863408
 -0.1184692   0.31239653  0.01064878 -0.00374583  0.12676795 -0.01325082
 -0.25351362 -0.24169463  0.33941934 -0.03179889 -0.114103    0.37539574
  0.30460609 -0.25247179 -0.06512721  0.05233829 -0.33172649  0.04535077
 -0.15253314  0.11587796 -0.14961026 -0.08127409 -0.10470334 -0.00435407
  0.10734455 -0.30864929 -0.27558072  0.20503598 -0.18970272 -0.00697207
  0.0559805   0.19082954  0.00405893 -0.26036548  0.12492914 -0.0169977
  0.01651947 -0.16845103  0.01237233  0.00238792  0.0130619  -0.03939513
  0.07926937 -0.07150768]
Node 73: 
[-1.32493369e-02 -3.92527578e-03 -1.93544045e-03 -1.74822993e-03
  5.81432277e-03 -2.40196033e-03 -7.40090063e-03 -8.43217473e-05
  1.42473409e-02 -3.34600993e-02  1.13327473e-03 -1.65737730e-02
  3.44952554e-03  5.04047826e-03 -1.90805445e-05 -5.19887372e-03
  2.73907522e-03  1.73310846e-02  2.51510224e-03  1.68093211e-03
 -5.88418470e-03  2.82335433e-02  2.82638148e-02 -1.24042649e-02
  1.39796962e-02  1.36626887e-02  1.56640992e-02  2.76267554e-02
 -8.68217249e-03 -1.61646202e-02  1.43361994e-03  2.23592400e-02
  2.84120579e-03  3.73846026e-04  4.79433301e-04  2.98221392e-02
  3.20314996e-03 -1.08287042e-02  1.18335016e-03  1.15637087e-02
  5.05688648e-03 -8.55200797e-03 -1.77556838e-03  3.72246073e-03
 -3.51600626e-02  2.36000848e-03 -7.30777425e-03 -3.66179133e-02
 -1.21640985e-02  3.80004000e-02]
Node 74: 
[ 0.15728432 -0.10683394 -0.10964248 -0.11731711 -0.12738058 -0.10504554
  0.16823662 -0.00679044 -0.06899017  0.03497899 -0.01346974  0.19337702
 -0.01029615  0.00044529 -0.0060894   0.25518297  0.20060724 -0.14531002
 -0.01621465  0.20178868 -0.11971067 -0.17556483 -0.05385788  0.01956719
 -0.00206737 -0.11319615 -0.01497165 -0.19868738  0.13423705  0.2848987
 -0.24358797 -0.02220351 -0.00338052 -0.00138499  0.11660549  0.03624274
  0.12533406  0.11010447  0.14628302 -0.02103489 -0.25768662 -0.20579984
 -0.11488859  0.0373127   0.05980295  0.10393404  0.05493238  0.05141672
  0.14025574 -0.14936598]
Node 75: 
[ 0.21132715  0.1281598   0.05793939  0.06706954  0.01202515  0.07644425
  0.03254879 -0.03356562 -0.03443779  0.1301015  -0.07049938  0.07043421
 -0.03295322 -0.01403744 -0.05675185  0.05593092 -0.00113953 -0.18544612
 -0.17262899 -0.00364951  0.07896546 -0.14366599 -0.03871954  0.08830862
 -0.00139867 -0.05466011 -0.05758887 -0.0616527   0.08274024  0.03382731
 -0.01715012 -0.03166551  0.02658584 -0.06517444  0.03231714 -0.07982457
 -0.10037228  0.06933117 -0.14609159 -0.06033986 -0.0562765   0.15406811
  0.14151206  0.03722886  0.01421707 -0.15888016  0.017255    0.15866904
  0.09436227 -0.09335885]
Node 76: 
[-1.18634325e-01 -9.91516854e-02  1.29882317e-01  5.21217400e-02
  1.33685485e-01  1.09407716e-01 -1.24397291e-01 -9.51604326e-02
  7.85713084e-02 -2.60573702e-01 -4.70925298e-02 -1.55783021e-01
  1.59712601e-01  1.34812983e-01 -1.08664592e-01 -2.22108074e-01
 -4.85786832e-02  5.59164592e-02 -1.17235089e-01  3.58829027e-03
  8.47891523e-02  4.82090806e-02  1.63270900e-01 -9.47166683e-02
  9.94471356e-02  1.22932928e-01  1.53366164e-01  3.20090713e-01
 -1.57189569e-01 -2.32609414e-01  2.21959493e-01  1.37453642e-01
  1.11689771e-01 -8.81421231e-02 -8.48831963e-02  2.63941363e-01
 -4.73727661e-02 -2.56248802e-01  3.44005066e-02  1.14477941e-01
  2.53979390e-01 -3.43784390e-01 -6.23785390e-03  2.84992966e-04
 -4.04299144e-01  6.36850986e-02 -1.16122624e-01 -1.99532815e-01
 -2.64906335e-01  3.61144757e-01]
Node 77: 
[-0.07058144 -0.01270225 -0.19695534 -0.01815867 -0.15093772 -0.15595017
 -0.00511366  0.21836809 -0.00784678  0.04126613  0.13870069  0.06537681
 -0.19862799 -0.18010254  0.28334846  0.01653513  0.0608356   0.11269128
  0.30772232 -0.00453593 -0.14801837  0.08845496 -0.11604627  0.01127591
 -0.11985308  0.00410728 -0.07655511 -0.19892242  0.02925591  0.15023544
  0.00777881 -0.12022375 -0.18764482  0.18154141 -0.01389059 -0.157002
  0.09575164  0.17452886  0.00542778 -0.14548375 -0.0282378   0.1366723
 -0.00268042 -0.07885147  0.01702574  0.07706658  0.13798326  0.06527475
  0.14619033 -0.21426356]
Node 78: 
[ 0.08409657  0.42402166  0.21806761  0.3473613   0.1558683   0.16278786
 -0.04597708  0.07523161 -0.00360706 -0.0083056   0.08601895  0.03731214
 -0.17371008 -0.13694854  0.00437843  0.0594462  -0.09681686 -0.02592445
 -0.07969869 -0.57084616  0.26769617 -0.06712829 -0.41134317  0.17216168
 -0.26280218 -0.02825982 -0.22722369  0.11342233  0.00354988 -0.04354078
 -0.0652615  -0.31551348 -0.03707501 -0.05514326 -0.13423817  0.06994508
 -0.38459345  0.23531597 -0.47447211 -0.22657573 -0.03405381 -0.05392794
  0.51154585 -0.03836911 -0.01025395 -0.447352    0.18965287  0.00651925
  0.13344224  0.07800672]
Node 79: 
[-3.71986517e-05 -2.35281390e-05  1.83288788e-04  5.28302113e-05
  2.10215118e-04  1.41394793e-04 -3.98147041e-05  4.05037594e-05
  1.81314762e-05 -2.42209619e-05  4.11693322e-04 -7.97607626e-05
  3.78177773e-05  3.85302998e-05  2.69354974e-05 -2.13546806e-05
 -1.42912244e-05  1.62846282e-04  8.81931097e-06  2.08233965e-06
  1.37939003e-04  1.50258245e-04  1.13578559e-04 -4.45814569e-05
 -3.85218255e-05  1.60541711e-04  6.72296621e-05  2.82733422e-04
 -9.61563067e-05 -3.49153049e-04  4.15522087e-05  7.80738430e-05
  2.32705202e-05  1.60583385e-05 -4.40960906e-05  3.07592265e-04
  1.18436719e-05 -5.38743138e-05  2.36488925e-05  6.22059458e-05
  5.97819019e-05 -8.01251708e-05  4.98920317e-06  4.89623776e-05
 -3.06779773e-06  2.36305439e-05  2.18175861e-05  3.38242153e-06
 -1.43885877e-04  4.67437175e-04]
Node 80: 
[ 0.03256461 -0.00072125  0.12369657  0.07198418  0.0746958   0.11633346
 -0.00699049 -0.11885738  0.01237058 -0.04611504 -0.08090395 -0.06130194
  0.14740116  0.1302375  -0.14998358 -0.03920296 -0.03717563 -0.07768231
 -0.13967598  0.00065122  0.08748897 -0.04279674  0.08286381 -0.01733716
  0.07285128  0.01124169  0.05898543  0.14795166 -0.02604934 -0.15309305
  0.00648938  0.08770863  0.11935011 -0.10181988  0.00240043  0.05951391
 -0.09539832 -0.10329404 -0.06440392  0.10471531  0.02911399 -0.02419132
  0.06919357  0.05101359 -0.01666577 -0.02989165 -0.09388658 -0.0475522
 -0.09854274  0.12239097]
Node 81: 
[-0.01648351 -0.02166457  0.00485052 -0.00557308  0.02044191  0.00352151
 -0.00946971 -0.00985859  0.005535   -0.00434537 -0.00275843 -0.01971232
  0.03483769  0.02925584 -0.00972454 -0.01085671  0.00117781  0.01918458
  0.001847    0.00279109  0.00123728  0.03438349  0.03497755 -0.01905683
  0.02550122  0.01960628  0.03294866  0.05633442 -0.01500731 -0.03462837
  0.01645928  0.03515981  0.01636368 -0.00332043  0.00047518  0.05980462
  0.00597751 -0.05081047  0.00768964  0.03562704  0.01972857 -0.00081169
 -0.01341916  0.00859054 -0.00290006  0.01798486 -0.01871771 -0.00262537
 -0.04209682  0.07180344]
Node 82: 
[ 1.08071286e-01 -6.73960242e-06  3.61477669e-03  4.64533771e-05
  1.42974740e-04  5.42613638e-04  2.48630322e-01 -1.82429857e-03
 -1.51373396e-06  1.06977936e-06 -1.59382308e-01  1.51369553e-03
 -1.37302357e-05  1.34379873e-04 -3.47839043e-03  3.51567982e-01
 -5.45727907e-04 -1.99196509e-01 -3.35012910e-01 -1.72071295e-01
  1.94359905e-01 -3.25021152e-02 -1.02979025e-01  2.19559420e-02
  4.13314265e-02 -2.45309735e-01 -2.47789486e-02  4.10643317e-06
  1.10397932e-01  4.32609148e-03 -1.82488527e-01 -5.43961871e-02
  2.26661202e-02 -2.92887390e-03  9.20791411e-02 -6.90505411e-07
 -1.65864331e-03  3.59459679e-03 -1.15848380e-05 -2.34606963e-03
 -2.03548767e-01  3.23806733e-13  3.95217501e-06  1.31282610e-01
  2.22568458e-08 -1.38523457e-06  1.24039548e-02  1.53202624e-09
  7.70225539e-02 -9.52454735e-05]
Node 83: 
[ 4.70284685e-130  1.62130937e-131 -5.98041759e-132 -1.05908963e-131
  5.19689364e-133  1.22059502e-131  3.75530640e-133  4.28125341e-131
 -1.59164359e-132 -3.41923584e-133  2.48443566e-132  4.80147820e-129
 -6.40439485e-129 -3.01269796e-130 -2.60395857e-130 -7.91291455e-131
 -1.18177770e-131  9.09282402e-131  3.55203807e-130  1.98003526e-131
 -4.14997246e-133 -7.06186269e-133 -8.89946791e-132  6.65378135e-132
  1.66392768e-131 -3.55639093e-132 -5.08217139e-133  1.09704363e-130
 -1.09504600e-130 -1.08330658e-132  8.49592061e-131  2.02727336e-130
 -5.06565595e-131 -4.82235263e-130 -3.51095647e-130  5.51484788e-131
 -3.12801937e-131  8.20093244e-129  1.46348442e-132 -3.51211648e-131
  1.46629371e-128  4.88577095e-032 -1.60203722e-132  5.86621066e-133
  1.06400281e-129  2.17896266e-129 -6.66399800e-130  9.54676305e-016
 -6.21328021e-130 -1.55929673e-130]
Node 84: 
[-4.28290046e-132 -6.87723318e-133 -9.51477233e-130 -3.05258385e-131
 -5.72208831e-134  6.46872983e-132  4.52509239e-131 -8.00418155e-132
  1.91512575e-130  9.70471979e-132  4.41198300e-130 -1.43860365e-132
 -1.40742048e-131  1.06387823e-131 -7.58328393e-134  3.61236594e-133
 -2.82648868e-131  1.52810347e-132  1.07446015e-132  1.71778087e-132
 -3.94542091e-132 -1.52889152e-131  5.44939720e-132 -3.46699441e-130
  1.89219799e-131 -2.36675712e-130 -1.20496139e-132  3.78638851e-010
  4.86912859e-132  1.93681116e-131 -2.28682540e-129  2.23787875e-130
  1.51030981e-131  1.51342485e-014 -2.84283468e-132 -5.05310855e-132
  2.83259407e-133  3.25389596e-129  1.30456621e-007  1.42013964e-131
 -4.27960107e-131  4.52764753e-129 -4.74782427e-132  1.81851462e-128
 -2.22093104e-133  8.61830341e-131 -8.85341708e-132  2.30885791e-130
  2.96483087e-129 -4.09642751e-133]
Node 85: 
[ 0.18678691 -0.16390428 -0.28811852 -0.28784565 -0.23331219 -0.18684164
  0.12134701 -0.03116872 -0.00936084  0.01426383 -0.07290144  0.06365103
  0.0181517   0.01559051 -0.00427564  0.0393518   0.0061994  -0.12312422
  0.03510164  0.0844479  -0.27648381 -0.02626188  0.16699001 -0.06922525
  0.1418062  -0.16413966  0.08985002 -0.28368724  0.20338588  0.32366423
 -0.02282089  0.14142152  0.00942859  0.04696198  0.22970703 -0.04483474
  0.24038981  0.02383097  0.27630298  0.04737691 -0.04046825  0.0050334
 -0.27805157  0.06755218  0.00415862  0.15722526 -0.06454077  0.0135949
  0.1407111  -0.20327534]
Node 86: 
[ 2.24109073e-132  4.68931192e-132 -1.61298415e-128 -1.76251534e-131
 -2.94143108e-132 -2.34863303e-133  1.23582825e-131 -3.66347679e-132
  2.54495790e-130 -5.23158051e-132 -1.70606416e-131 -3.20641033e-133
 -4.79184006e-132 -3.45001978e-129  6.64737975e-132 -1.57301764e-132
 -9.37348653e-130 -6.47306010e-132 -2.10394208e-132 -1.47951813e-130
  3.42686757e-131 -1.30157957e-131  7.60895616e-132 -6.13006504e-131
 -1.24471033e-131  4.44987479e-132 -4.20273215e-133 -2.33380611e-129
 -8.73393214e-133  2.71842417e-130  3.99192824e-132 -1.51285978e-129
  1.28061643e-129  3.39980204e-130 -9.34575762e-132  6.83819180e-132
  4.03750855e-131  9.43134062e-131 -7.50134417e-133  3.07271920e-133
  2.92458319e-131  3.11631925e-131 -5.11668431e-133  1.81330266e-133
  1.73396419e-132  2.76072596e-131 -4.37410967e-130  2.43504854e-130
 -1.37741706e-129 -2.87810936e-133]
Node 87: 
[-0.17529961 -0.03455983 -0.55478068 -0.15857897 -0.36991488 -0.41066897
  0.14993626 -0.03388738  0.25024708 -0.10223548 -0.12735024 -0.25538419
  0.05663419  0.08702707 -0.02099834  0.03041132  0.2858734  -0.02302699
  0.14653892  0.60433739 -0.39361397  0.31942583  0.60618061 -0.35158956
  0.45249378 -0.04069498  0.44612709 -0.10361328  0.00376704  0.05249559
 -0.05924383  0.52437639  0.07868103 -0.0029286   0.25777947  0.22571137
  0.55711433 -0.34103875  0.09524092  0.21678342 -0.10275092 -0.0613155
 -0.07535971  0.09323394 -0.26207233  0.0325059  -0.31229642 -0.64704117
 -0.27458428 -0.04003089]
Node 88: 
[-1.82618445e-01 -7.94274437e-03  7.99176993e-03  5.09094974e-05
  4.84516606e-02  1.13997235e-02 -1.00090048e-01 -4.99633179e-03
  1.14403248e-01 -2.16930073e-01  1.89364093e-03 -1.68719164e-01
  4.21383193e-02  2.89415951e-02 -6.37567341e-03 -2.20011675e-01
 -3.43409521e-02  1.25183221e-01 -1.41835549e-03  5.73054283e-02
  7.17019921e-03  1.28097320e-01  1.62759462e-01 -1.13278187e-01
  7.89116688e-02  1.10967064e-01  1.45258538e-01  2.61911559e-01
 -1.18262982e-01 -2.08997777e-01  1.72639862e-01  1.13637836e-01
  1.88772951e-02 -5.14954155e-03 -5.30601679e-02  1.86860653e-01
  7.46017725e-03 -1.78672557e-01  1.16994330e-03  4.85689038e-02
  1.30987863e-01 -5.13707661e-02 -4.72601661e-04 -6.62667570e-03
 -3.96533387e-01  1.14558342e-02 -9.00751669e-02 -2.81345240e-01
 -2.11673950e-01  3.14404785e-01]
Node 89: 
[ 2.27546181e-02  1.13238692e-03 -6.27611652e-03 -7.87511398e-04
 -1.89934703e-02 -2.30319655e-03  2.17961415e-02  1.44197103e-03
 -1.47058750e-02  4.87910668e-02  1.60558642e-04  3.34513801e-02
 -8.31654904e-04 -1.39031997e-03  3.42403718e-03  2.65146336e-02
  5.77061203e-03 -1.20286734e-02  1.81936528e-02  5.50573952e-04
 -7.37048386e-03 -1.95898026e-02 -1.49578875e-02  1.41075049e-02
 -9.78200130e-03 -2.03382287e-02 -2.20127495e-02 -2.50007190e-02
  2.31704179e-02  3.06666280e-02 -3.93212996e-02 -1.13158528e-02
 -3.77889738e-03  3.33699651e-03  1.72535572e-02 -4.10649271e-02
  1.76128138e-03  3.03430956e-02  2.73034446e-05 -5.09170477e-03
 -4.05921584e-02  1.11964589e-02 -2.33473773e-04  6.13850244e-03
  8.12974362e-02 -2.98722313e-04  6.21997655e-03  3.72474753e-02
  3.70810126e-02 -2.66020988e-02]
Node 90: 
[-5.03344737e-02 -2.07992072e-02  2.85752772e-03 -1.29719738e-02
  3.56255880e-02 -1.32051864e-03 -3.69619568e-02 -8.91336797e-03
  2.83356472e-02 -4.20592096e-02  3.08888624e-03 -4.88626917e-02
  4.85930076e-02  3.87643490e-02 -8.84024863e-03 -7.61829884e-02
 -1.34423695e-04  5.75649567e-02  1.43387737e-02  1.07014850e-02
 -6.60687117e-03  8.45466953e-02  5.02783964e-02 -4.50497329e-02
  3.69096294e-02  4.78160622e-02  5.69754540e-02  1.11609652e-01
 -3.98389076e-02 -8.27277276e-02  5.60500445e-02  6.11447965e-02
  1.96657723e-02 -1.65660351e-03 -7.59239601e-03  1.18417602e-01
  1.64968259e-02 -9.41898600e-02  1.61992535e-02  6.14904367e-02
  4.89503662e-02 -1.73991260e-02 -2.94233701e-02  6.55517311e-03
 -8.49663760e-02  2.59727024e-02 -4.04935155e-02 -2.14395339e-02
 -9.30333657e-02  1.44638989e-01]
Node 91: 
[-3.58660193e-01  5.53240660e-01  3.24628160e-01  1.60518967e-01
 -3.14653365e-01  3.82710064e-01 -3.20286337e-02 -3.96348567e-01
 -1.51874102e-01 -1.33887614e-01 -5.48755223e-02 -5.97268232e-02
  2.96001230e-02  9.89712337e-02 -3.15512491e-01  1.27131120e-01
  2.84389424e-01  2.11153859e-01 -3.06548287e-01 -2.72949642e-01
  2.51381319e-01  1.59693859e-01 -1.53006308e-01  1.13775729e-01
 -1.34083418e-01 -2.63920334e-03 -2.16741986e-02 -4.13279918e-01
 -1.68370464e-01  6.03883079e-01 -4.00082144e-02 -7.94956716e-02
  6.84009887e-02 -1.90156940e-01 -2.41252184e-01 -6.30527114e-03
 -2.01097003e-01 -3.19631205e-01 -2.95314939e-01  1.88578589e-02
  3.07534700e-02 -3.48579147e-01 -2.75691874e-04  1.12862856e-02
  4.15314305e-01 -3.59121019e-01 -5.28427609e-02  1.59142250e-01
  1.50408353e-01 -2.35671289e-01]
Node 92: 
[-0.23081526 -0.32818143 -0.12235684 -0.03477598  0.11666107 -0.20671152
 -0.74861353  0.28150118  0.15961434 -0.3290113   0.25224643 -0.04174622
 -0.2086124  -0.13534538  0.33701859 -0.93777762 -0.93706067  0.16797161
  0.25407154 -0.42267487 -0.14312677  0.32349339 -0.07908572 -0.08875405
 -0.1540198   0.35902962 -0.09260742 -0.22437494 -0.0821334  -0.21773901
  0.80575698 -0.08055056 -0.14454754  0.11371569 -0.15205372 -0.08701526
 -0.09494909 -0.0676613  -0.03141822 -0.13474933  0.96961277 -0.30701949
  0.003889   -0.03948714 -0.68748755  0.27498471  0.26056476 -0.40399719
 -0.24882849 -0.30418351]
Node 93: 
[ 0.3726603   0.25212289  0.05847522  0.21097519  0.08052584  0.03135606
  0.3359271  -0.28612515  0.06264532  0.34280777  0.07267996 -0.06813094
  0.20213323  0.08630509 -0.3910743   0.45484461  0.16289055 -0.17313634
 -0.43210119  0.12254884  0.05694704 -0.18773113 -0.18199922  0.17909859
 -0.11883274 -0.27987769 -0.19571373  0.32366228  0.16046652 -0.1061957
 -0.48952689 -0.14307257  0.20378038 -0.24876034  0.11841918  0.33516783
 -0.38659132  0.31353035 -0.43613008  0.0350592  -0.65049134 -0.00750927
  0.51552989  0.10567703  0.29325309 -0.28778222  0.03860505 -0.10462843
  0.12376517  0.30997447]
Node 94: 
[-0.11238067 -0.22733713 -0.08522801 -0.1634572   0.10742453 -0.04832758
  0.23509293 -0.24651146  0.17277174 -0.79536039 -0.47055128  0.04317304
  0.0380599   0.03977884 -0.20850196 -0.03148321  0.30717768 -0.14315768
 -0.13572779  0.43693721 -0.19348281 -0.35664371  0.3160772  -0.24207605
  0.39676914 -0.12320502  0.25543205  0.49692055 -0.0318198  -0.12764956
 -0.27155272  0.22052861  0.12653136 -0.05344044  0.1503198   0.21796853
  0.20647351 -0.13385403  0.20544541  0.06155508 -0.04745184 -0.03008322
 -0.08977596 -0.00340805 -0.66415009  0.2294751  -0.66482224 -0.079088
 -0.2190369   0.57100475]
Node 95: 
[ 0.14399777  0.24376773 -0.04349474  0.255655    0.06747513  0.07788292
 -0.0399552  -0.15106104  0.0878346   0.23386299 -0.11268603 -0.02125209
  0.47396823  0.45133365 -0.2080485   0.11343468  0.42659824  0.04322798
  0.24142724 -0.18208772  0.08478194  0.02805926 -0.115667   -0.08805462
 -0.04720964  0.11062444  0.11592565 -0.405476    0.00555612  0.05690397
 -0.02935737 -0.15236534  0.17539903 -0.18227553 -0.04921528 -0.25335551
  0.22489684 -0.21312341 -0.20725193  0.45430007 -0.58662487  0.31170277
  0.35465426 -0.03931085 -0.07922105 -0.35212372  0.08062479  0.14645771
  0.19011361 -0.43911507]
Node 96: 
[-0.07872401 -0.2388065  -0.1226927  -0.0318278  -0.22211259 -0.29363192
  0.15971544  0.07103852 -0.13394903 -0.0236559  -0.23556601  0.04561776
 -0.09094606 -0.11443102  0.12974783  0.14259535 -0.09040573 -0.09588539
  0.15777574 -0.32411846 -0.35210316 -0.13986805  0.01796519  0.04539092
 -0.06235665 -0.2111825  -0.12066636 -0.04101204  0.04660124  0.21432665
 -0.21330623 -0.05570769 -0.1420199   0.06465874  0.03083954 -0.3672447
 -0.07975008 -0.02950624  0.01985304 -0.0958033  -0.1996361   0.02502994
 -0.03886144 -0.17623864  0.36263788  0.23183096 -0.08867751 -0.18534138
  0.11820094 -0.16615607]
Node 97: 
[-0.2596546  -0.059216    0.10913998  0.13466974  0.16582689  0.06038206
 -0.16477872  0.19801203 -0.05532559  0.10837307  0.1190203   0.20988262
 -0.22948641 -0.20016267  0.19692292 -0.37298757 -0.04590381  0.07684581
  0.08793731  0.12749867 -0.01628433 -0.02470822  0.08702284  0.06477948
  0.0189523   0.17373544 -0.04543816  0.16568825 -0.13835417 -0.45115904
  0.5792202   0.06698761 -0.15241182  0.11989609 -0.03382657 -0.06887698
 -0.00872742  0.32974595  0.11019691 -0.10512955  0.50997484  0.42746955
 -0.03670944 -0.02410313 -0.17486817 -0.0060565   0.05645435  0.30128994
 -0.03358749  0.04496447]
Node 98: 
[-0.11044859 -0.21387837  0.14444039  0.29870608 -0.15687141  0.04767141
 -0.01446574 -0.28579916  0.03724363 -0.31678726 -0.34579872 -0.00938145
 -0.05436322  0.03340906 -0.18335656 -0.06806145  0.20184083 -0.074277
  0.03991217 -0.07067993  0.13648173 -0.13278224 -0.16377423  0.14654137
 -0.10403521 -0.2011496   0.02799667  0.11368876  0.00436241  0.15791375
 -0.24571771 -0.09606638  0.17986505 -0.19622747 -0.15547534  0.00237495
 -0.39046299 -0.28614597 -0.58944611  0.09361731 -0.05956541 -0.53642113
  0.42998411  0.01601249 -0.16690329  0.10411374 -0.24584457 -0.44474623
  0.06792339  0.15547917]
Node 99: 
[-0.40356125  0.22176075  0.20792402  0.2328805   0.46362057  0.08682521
 -0.22228803  0.44494195  0.11020374 -0.11967027  0.33532863 -0.26411606
 -0.25226599 -0.2378992   0.49069484 -0.23874689 -0.19968677  0.53823946
  0.30171855 -0.72022707  0.31791917  0.51527214 -0.32774157 -0.01851048
 -0.27529523  0.32648863 -0.02172881  0.70006136 -0.34109297 -0.76880065
  0.577238   -0.17943747 -0.2747907   0.32227517 -0.2289166   0.41561652
 -0.03581536 -0.00619205 -0.06586811 -0.16097547  0.786529    0.22890883
  0.21611923  0.01813863 -0.3162281  -0.15979689  0.18443582 -0.04264352
 -0.23664378  0.66619519]
Node 100: 
[-0.04342358 -0.2830146  -0.16673917 -0.27662892 -0.24321557 -0.09863139
  0.12848694 -0.36914313 -0.20523702 -0.05585243  0.01380786  0.12415672
  0.30172471  0.15385812 -0.46805165  0.14086699  0.80240117 -0.22238929
 -0.23536012 -0.32996109 -0.33947592 -0.34922272 -0.13120234 -0.13982486
 -0.11149624 -0.22460884  0.09532588 -0.36843853  0.1992478   0.11608807
 -0.44586073 -0.17588117  0.00291502 -0.34003159  0.07911878 -0.3598773
  0.16139106 -0.04257296  0.26710272  0.04233581 -1.00854472  0.16316424
 -0.29845993 -0.06037925 -0.05086636  0.06967742  0.04156423 -0.16531299
  0.13624658 -0.4390644 ]
Node 101: 
[-0.20892202  0.46778176 -0.24601411  0.32384383 -0.16286936 -0.12109204
  0.08992622 -0.04115721  0.16868278  0.04782312 -0.12255738 -0.21522859
  0.04155255  0.0311287  -0.09022533  0.14864573 -0.07008972  0.11408632
 -0.0448348   0.51374919 -0.28240749  0.37445364  0.18157139 -0.17679155
  0.02104807  0.03002748  0.31208758 -0.84349701 -0.18370753  0.4777433
  0.13158962  0.10570985  0.11128086  0.01932033  0.01576403 -0.40434906
  0.26140857 -0.36072306 -0.35204645 -0.02641493 -0.08885561  0.14517246
  0.59874178 -0.03020924 -0.00132017 -0.34246313 -0.05238723 -0.10169709
  0.04568608 -0.79222633]
Node 102: 
[ 0.07613029  0.18009211  0.11871541  0.1052283   0.20961413  0.08208102
  0.17496815 -0.12376733  0.07579481  0.14725287  0.07229941  0.16960537
  0.29748714  0.14588755 -0.13536042  0.11573712  0.20717796 -0.04996052
 -0.26979009 -0.13074723  0.16496305 -0.11317099  0.12760775  0.07604478
  0.0489921  -0.11379005 -0.035903   -0.05407211 -0.00342774 -0.11313217
 -0.28472817  0.09680926  0.09221807 -0.20575624  0.00178536  0.18411987
 -0.36694104 -0.03319616 -0.35956255  0.12176902 -0.28356784 -0.07354969
  0.08353937 -0.07573007  0.15748491 -0.10324885 -0.02468153 -0.05028202
 -0.07933987 -0.17667725]
Node 103: 
[ 0.41690372 -0.05780947 -0.07424819 -0.16732384 -0.16928354 -0.04803262
 -0.03072174 -0.09213738 -0.09197203 -0.06941951 -0.25334868  0.23198616
 -0.13999427 -0.04995279 -0.02548918 -0.05669074 -0.38424032 -0.3054472
 -0.10703662  0.23164109 -0.06039993 -0.71771906 -0.21710261  0.213862
  0.09896179 -0.11942337 -0.71396337 -0.08515062  0.07284722  0.21304665
  0.3226542  -0.23023986 -0.06143799 -0.04260132 -0.00637163 -0.46965364
 -0.10601855  0.804193    0.17361369  0.06950064  0.13283829  0.37196504
 -0.15004679 -0.18445334 -0.48583252  0.04282751 -0.16637611  0.77861129
  0.37857155 -0.18520757]
Node 104: 
[-0.09883813  0.08932092  0.03481435 -0.06822262  0.03158799  0.06804711
 -0.35131795 -0.10049357  0.05682944 -0.06601495 -0.03284647  0.00411959
  0.00870166  0.16448683 -0.07714084 -0.48281821 -0.33696524  0.07275725
  0.09773094 -0.06510296 -0.13730398  0.32099941  0.33665148 -0.0835571
  0.21719264  0.34362714  0.20148887  0.22334374  0.04083105  0.02140333
  0.28409972  0.26766653  0.1043861   0.07577117  0.17085426  0.45396444
  0.15658153 -0.18212044  0.25359663  0.21017449  0.6292473  -0.2636675
 -0.20721746  0.17656296  0.26176789 -0.00500992 -0.03616265 -0.14697519
 -0.18649771  0.34029302]
Node 105: 
[ 0.07795525 -0.01183525  0.07506822  0.35680802 -0.02275192  0.0311925
 -0.14590077  0.01263891  0.22156974 -0.23694245 -0.00709367  0.19317227
 -0.00688754 -0.10161372  0.02360819 -0.00437689 -0.12857146  0.17058616
  0.17043314 -0.17118237  0.14167292  0.29563504 -0.30739845  0.02075544
 -0.29304231  0.07946725  0.01393361  0.15918141 -0.05350407  0.32962071
 -0.02460022 -0.15718622 -0.10400956 -0.10101776 -0.24939887  0.29837792
 -0.24923362 -0.19412347 -0.42178584  0.0173331   0.14056593 -0.51294508
  0.59519778 -0.1203287  -0.04299138  0.06697192  0.09391819 -0.47660578
  0.24733105  0.29351113]
Node 106: 
[-0.52668966  0.52417829 -0.34671309 -0.25693088 -0.24514091 -0.26963937
 -0.36715268  0.00094868 -0.05101672 -0.66088341  0.30266375  0.15692277
 -0.40474696 -0.28873941  0.05132385 -0.37724866  0.10606268  0.47246381
  0.47914765 -0.75968193 -0.23361113  0.11204769 -0.74553072  0.14791319
 -0.49505818 -0.05335343 -0.10898839  0.05681538  0.14404629  0.11412361
  0.02941828 -0.52507021 -0.20967293  0.0519654  -0.27408856  0.09826005
  0.16980488  0.0843408  -0.01476015 -0.18254795 -0.1648924  -0.83168352
 -0.03759565 -0.11612221 -0.23718478 -0.34512095  0.18324219 -0.38083572
  0.31806949  0.1377736 ]
Node 107: 
[ 0.17863734  0.20000592  0.06003629  0.15604376 -0.00732555 -0.01589978
  0.51228484 -0.27772053 -0.02714383  0.52293725 -0.28831336 -0.07122049
  0.03248159  0.216736   -0.29783598  0.70635189  0.21505478 -0.32799534
 -0.25646879  0.36333923  0.09794807  0.06007366  0.14713375 -0.04007342
  0.17075189 -0.31795953  0.15751713  0.03389491  0.13219886 -0.08496742
 -0.45707925  0.12400315  0.26781794 -0.15469524  0.26136186  0.07084428
  0.13494739 -0.09181925 -0.10568674  0.19070737 -0.14163239  0.02265231
  0.16488078  0.1711934   0.34488142 -0.22485287 -0.14543375 -0.03126051
  0.04216495  0.01182656]
Node 108: 
[-0.2567976  -0.40590428  0.12183971  0.04475624  0.21796864 -0.06858817
  0.0210254  -0.13441712 -0.26259624  0.32405398  0.21325772  0.06630721
  0.49357909  0.31135455 -0.11533181  0.01610171  0.8360311   0.14617558
 -0.0993319  -0.13672843 -0.10154832 -0.37389492  0.17845237 -0.02684345
  0.16328263  0.13206799 -0.19026482 -0.37974615 -0.3791471  -0.65338422
  0.15883183  0.0565503   0.01141313 -0.12693964 -0.04921519 -0.66559303
 -0.12300675  0.05113204  0.17324527  0.29454907 -0.07163135  0.3377008
 -0.17655753 -0.15194089  0.9769435   0.35920896 -0.24042729  0.45736675
 -0.09468094 -0.64854937]
Node 109: 
[-0.01547565  0.02580585 -0.01187323  0.07542887 -0.32592451  0.01260171
 -0.2163218  -0.25724017 -0.05084834  0.24585713 -0.31351116 -0.09336822
  0.12492743  0.13394763 -0.27779364 -0.55302256 -0.48690667 -0.31479868
 -0.50002821  0.35946043 -0.17003889 -0.17034378  0.18522863 -0.14842772
  0.07612427  0.0564597  -0.01811955 -0.1903887   0.01704669  0.16671757
  0.47635801  0.12186935  0.16424638 -0.09449537  0.2224704  -0.2896556
 -0.10686764 -0.32073398 -0.16363072  0.15108003  0.37702723  0.4012066
  0.07619743  0.05467882 -0.06202129 -0.00717641 -0.0125616   0.10888729
 -0.381112   -0.2499814 ]
Node 110: 
[ 0.17463611  0.10662617 -0.07062832  0.02357019  0.05843802  0.06748753
 -0.04770003 -0.00663153 -0.03562761 -0.10393231  0.00666835  0.05973491
  0.15424195  0.09085848  0.0376949  -0.07531181 -0.14143675 -0.11391072
  0.16971639  0.10725003 -0.0855201  -0.01431698 -0.01650295  0.0779455
 -0.08978084  0.07395761  0.01659076 -0.45283483  0.03347038  0.46076517
 -0.11446531 -0.00712486  0.01517529  0.05528951  0.02014862 -0.09861481
  0.18021588  0.20697924  0.16024097 -0.01522134 -0.35446295  0.21313071
 -0.07166003 -0.01885519 -0.38298894 -0.08728172  0.0192969   0.31329559
  0.16685694 -0.50302425]
Node 111: 
[-0.134754   -0.07380491  0.21822105  0.04846823  0.27971429  0.27487405
 -0.01428315  0.08302879  0.34910352 -0.80152204 -0.27016376 -0.18491691
 -0.2866118  -0.18354763  0.07781602 -0.19383708 -0.23480611  0.07340042
 -0.19302469 -0.46821711  0.1132163  -0.05553217  0.28436286 -0.01378521
  0.32958587  0.06561464  0.06319336  0.54532731 -0.08371193 -0.242824
  0.29255883  0.09738321  0.01302045  0.00551407 -0.12955814  0.41595427
 -0.33406037  0.05745355 -0.39809813 -0.19668202  0.22302967  0.41949506
  0.14529801  0.04437496 -1.2916217  -0.14879687 -0.18912635 -0.24577459
 -0.15585327  0.64911218]
Node 112: 
[-0.13764684 -0.25288726  0.14830193  0.2052344  -0.21671618 -0.16998299
  0.08899422 -0.12581432 -0.1053537  -0.3775564  -0.21957464 -0.04249812
 -0.40606913 -0.12484561 -0.0426907   0.03990961  0.67452495  0.16570389
 -0.14814405 -0.02785372  0.08535992  0.03367066  0.26824202  0.01300986
  0.16637506 -0.17851142  0.13813627 -0.27530831  0.06982007 -0.11924743
 -0.37244281  0.17233229  0.07465372 -0.01237661 -0.01884536 -0.45205275
  0.1073752  -0.12079129  0.13692619  0.14908999 -0.16341864 -0.26034938
 -0.01500387  0.22800777 -0.05791126  0.48726589 -0.28706508 -0.1947696
 -0.15022352 -0.31657297]
Node 113: 
[-0.05358922  0.48185524  0.15825731  0.27554085  0.14303877  0.22516285
  0.17521165 -0.16913699 -0.0400209  -0.23816412  0.0224548  -0.03105958
 -0.06743453 -0.08252541 -0.2289318  -0.17723687  0.21118055 -0.00618279
 -0.39484588 -0.2465369  -0.11411243  0.11208558 -0.35336166  0.04996831
 -0.15198286 -0.07300614 -0.0942939  -0.06894951  0.05402623  0.19429866
  0.14942606 -0.22980652 -0.0578924  -0.17086878  0.11871709  0.13798463
 -0.45027901  0.38047779 -0.54929439 -0.17371763 -0.07564674 -0.08501458
  0.53559273 -0.06828117 -0.63648698 -0.5394637  -0.04606504  0.13064911
  0.28320943  0.03683049]
Node 114: 
[-0.04050101 -0.2455463  -0.02618369 -0.18874443  0.00805727  0.00428296
  0.18116806 -0.04294792 -0.03383718  0.09346471 -0.09509309  0.31701407
  0.14587802  0.17278807  0.00413579  0.30279747  0.04108266 -0.21539216
  0.06950259 -0.0526168   0.0264991  -0.0460536   0.08920184 -0.00154009
  0.02683136  0.06505197 -0.11936164 -0.49236676 -0.20396983  0.00984832
  0.06851892  0.02798164  0.05146312  0.02764328  0.10924207 -0.40963344
 -0.17862499  0.05415274 -0.06810351  0.0212973   0.46469374  0.10648558
 -0.41386593 -0.05243076  0.31683097  0.27911515  0.12058438  0.05796648
 -0.16147094 -0.68638167]
Node 115: 
[ 0.34416985  0.08285966  0.02345468  0.13328918  0.04638107 -0.01595735
 -0.16126243 -0.18075381 -0.00926309 -0.26374527 -0.03392608 -0.00474343
  0.16068911  0.14729787 -0.18955395  0.0783936  -0.28335699 -0.24652407
  0.13419007  0.1057372   0.02549245  0.08417208 -0.17880729  0.22727171
 -0.21993608 -0.05878305 -0.42338029 -0.01609871  0.04497263  0.21056619
 -0.40803527 -0.20395677  0.04084113 -0.17923778 -0.19988328 -0.0867884
 -0.05857489  0.21429954 -0.17898121  0.15196705 -0.32764706 -0.19372294
  0.2233147  -0.2190471  -0.13689395 -0.19500424  0.32141057 -0.10867269
  0.12001362 -0.16321601]
Node 116: 
[-1.03366384e-01 -4.84126395e-01 -4.14034165e-02 -1.50382141e-01
  5.09179924e-02  3.43836831e-02 -4.02811181e-01  1.53424181e-01
  1.27895622e-01 -3.48071326e-01  1.33644152e-02 -3.34041049e-04
 -9.56171587e-02 -6.15413115e-02  1.65337441e-01 -3.01020454e-01
 -2.03851598e-01  2.23860792e-01  1.44712048e-01  4.77828227e-02
 -1.00285678e-01 -3.38727579e-01  8.94819424e-02 -2.51135970e-03
  2.17563160e-01  3.29738954e-01 -4.61321343e-02  2.18543828e-01
 -5.80550069e-02 -2.83694675e-02  5.16559833e-01  8.67509826e-02
 -5.29156804e-02  2.02780589e-02 -1.95962433e-01  9.67998701e-02
 -1.18542206e-01 -6.77637986e-02 -1.08155509e-01  3.21935809e-02
  7.90722862e-02  3.54886982e-01 -5.25646263e-02 -1.13329800e-02
 -3.24834922e-01  3.36095255e-01 -1.90869120e-01  2.86319727e-01
 -3.36746393e-02  2.25356244e-01]
Node 117: 
[-0.32827141  0.48335222 -0.31940518 -0.12811672 -0.22980281 -0.14708868
 -0.05147223 -0.06636338  0.06824693  0.76098775  0.06466904  0.11617744
  0.3350749   0.07876615 -0.11636825 -0.21578191  0.13615958 -0.00543371
 -0.01047648 -0.18006    -0.34012739  0.04573968 -0.20061841 -0.18289218
 -0.14262421 -0.07430559  0.30321623 -0.18130568 -0.03052466  0.18423093
  0.21901125 -0.15522561 -0.03240779  0.02698169  0.04121786  0.01301775
  0.2877672  -0.36264575  0.13380084 -0.04746135 -0.0265853   0.46516443
  0.04952905 -0.0278974   0.34734509 -0.44597277 -0.03685312 -0.26133906
  0.22561037 -0.06980156]
Node 118: 
[-0.08381926  0.22986678  0.04569637  0.31629643  0.17573491  0.08618016
 -0.11753378 -0.12551875  0.11370659 -0.27157693 -0.02032542 -0.26746944
  0.210103    0.13428206 -0.12741984 -0.19587163 -0.42503772  0.19871235
 -0.03657657 -0.18182903  0.06192492 -0.03644687  0.03398462 -0.07573805
 -0.04485736  0.06135857  0.09632527  0.64632413 -0.06501671 -0.29391692
  0.28452046  0.05773718  0.1272751  -0.07697789 -0.0409399   0.54382499
  0.04174109 -0.22101155 -0.12583881  0.1611049   0.20848107 -0.31476803
  0.33596399 -0.01424652 -0.13344476 -0.25830812 -0.14992006  0.07314586
 -0.0809084   0.72173216]
Node 119: 
[-0.05638976  0.43806957  0.33503626  0.59354885 -0.01288767  0.17538299
 -0.02058375 -0.27694581  0.14824774 -0.0274711  -0.3856969  -0.06283269
 -0.48270001 -0.21781863 -0.26460612  0.10387517  0.40092303  0.12011271
 -0.34390358 -0.03506457  0.2998596   0.07575328 -0.02298818  0.10162423
 -0.03783266 -0.15956219 -0.00829006 -0.42210167  0.0271834  -0.04603224
 -0.34114006 -0.05440875  0.08116507 -0.2360935  -0.17991035 -0.1313512
 -0.16681892  0.02072699 -0.64031997 -0.11666224 -0.34708347 -0.4390487
  0.67629999  0.09817939 -0.26947723 -0.43653978 -0.2247069  -0.43899872
  0.02664077 -0.42760224]
Node 120: 
[ 0.21504613 -0.30296134  0.24657877  0.14848736 -0.33919101  0.20350366
  0.24190651 -0.63012596 -0.05250644  0.27048617 -0.62588063 -0.20052338
  0.77061285  0.7254616  -0.64105011  0.21598968  0.44195363 -0.53041629
 -0.4422567   0.68569528 -0.0610549  -0.39173475  0.61630166 -0.16690939
  0.55974063 -0.18158657 -0.02446315 -0.21522203  0.00251066  0.24331412
 -0.43554035  0.53022661  0.59355116 -0.37664046  0.24292596 -0.05956377
 -0.23139874  0.10130707 -0.06912781  0.48552711 -0.45718242  0.2458879
 -0.08843311  0.1943706   0.21525516  0.21163247 -0.44218544  0.07065142
 -0.27113773 -0.1037893 ]
Node 121: 
[-0.31050613 -0.0053651  -0.40611315 -0.00111896 -0.25167643 -0.32225324
 -0.09633351  0.29112802  0.08040006 -0.55756122  0.10590472  0.11016617
 -0.4420112  -0.39904271  0.49176663 -0.57325688 -0.07674247  0.28455745
  0.51744467 -0.0406532  -0.40661031 -0.04221246 -0.02817204  0.09628478
  0.02758084  0.10715984 -0.2078862  -0.05346687 -0.02390417  0.38444075
  0.67479691 -0.15657848 -0.39440101  0.42734304  0.01400651 -0.11189191
  0.39496077  0.24744952 -0.01797472 -0.20259037  0.46458008  0.65587594
  0.16043137 -0.20577537 -0.57329669  0.26931311 -0.10323727  0.68627625
  0.41756016  0.0135895 ]
Node 122: 
[-0.03061096  0.30624986  0.04146396 -0.07420294  0.3086878   0.17768606
 -0.31785657  0.12435954  0.19950083  0.15619011  0.20995702 -0.09015132
 -0.02785181  0.02656076  0.15556643 -0.28505773 -0.3124434   0.19225992
  0.19450422 -0.99896887 -0.07093159  0.25350629 -0.50522362  0.01098514
 -0.31679945  0.20979559  0.04739073  0.71493541  0.06020128 -0.47638599
  0.27875337 -0.37081265 -0.03539892  0.11835721 -0.09806385  0.68461998
  0.01323818 -0.01902455  0.13458416  0.06466189  0.33015999 -0.00428957
 -0.05569156 -0.04959682  0.00467036 -0.36515679  0.07671486 -0.25326243
  0.02949458  0.73565249]
Node 123: 
[-0.20419473 -0.01638349  0.06348096  0.10895515  0.20721494  0.14650298
  0.06770871 -0.20276565 -0.2242497  -0.23133854 -0.13134962  0.07972229
  0.17120101  0.08680033 -0.18742543 -0.047148    0.04451444 -0.3089472
 -0.14364294 -0.40147561 -0.06294656 -0.08342881 -0.08195799 -0.09786481
  0.01945127 -0.09160541  0.18728873 -0.31886836 -0.3024625  -0.12629762
  0.03344129 -0.05772958  0.05925349 -0.1604601  -0.10728622 -0.34868315
 -0.246548   -0.07504257 -0.11488403  0.03717295  0.34016995 -0.02396965
  0.09764796 -0.09977339  0.36453333 -0.12515059 -0.38913952  0.0807603
 -0.06102364 -0.37464852]
Node 124: 
[-0.05476312 -0.06110951  0.04430757  0.0081817   0.0927388   0.03141729
 -0.13251495  0.20462904  0.18597016 -0.40406078  0.14657129  0.06541443
 -0.30638488 -0.17034747  0.10046633 -0.02663904 -0.19237569  0.21679738
 -0.11028064 -0.47971998  0.12552973  0.1915799  -0.06664418 -0.01673534
 -0.02030177  0.21646235  0.15076288  0.10582555  0.14240241  0.20099259
  0.10876047  0.04359825  0.01290223  0.04275932  0.14285051  0.31944708
 -0.22480311 -0.13097637 -0.12415714 -0.1359383   0.26327806 -0.28299719
  0.14061986  0.21050204 -0.51129537 -0.01250407  0.23864086 -0.53201523
 -0.01017336  0.19220279]
Node 125: 
[-0.01411541 -0.02167403 -0.31796678 -0.33974521 -0.03211189 -0.38275693
 -0.04386077 -0.0691246  -0.18002548  0.25314295  0.35009962  0.25080061
  0.5422601   0.201596   -0.13971654  0.08219921 -0.12551418  0.09435842
  0.15071692  0.3298185  -0.15264683 -0.15366409 -0.17480674  0.0723581
 -0.32494268 -0.01505358 -0.21405275 -0.05785847 -0.10273906 -0.07223785
  0.11008555 -0.18078722 -0.11614256 -0.14896166 -0.13747874 -0.5232721
  0.08598133 -0.28131694  0.17438065  0.17239391 -0.37314488 -0.10845023
 -0.2510131  -0.27532182  0.18906983  0.11248122  0.48632253  0.17947053
  0.07285718 -0.33905435]
Node 126: 
[-0.4329324  -0.15716386  0.06016859  0.40254951 -0.362591   -0.17469473
 -0.50491452 -0.24218755  0.15319656 -0.57294231  0.07876422 -0.41625735
 -0.49268123 -0.33478635 -0.17355987 -0.82627074  0.08175217  0.19943777
 -0.16772864 -0.31968932 -0.29717487 -0.06094166  0.01323682  0.00726088
 -0.03670809 -0.06505921  0.0297906  -0.25455325 -0.16193912 -0.01806555
  0.26830831 -0.03295248 -0.13825946 -0.18289417 -0.40927495 -0.28303007
 -0.40496515 -0.01645388 -0.54374258 -0.26558436  0.00592571 -0.59891262
  0.62108614 -0.29579701 -0.74446293  0.03993369 -0.11155038 -0.55208548
 -0.05476328 -0.24971362]
Node 127: 
[ 0.46882899 -0.25620238 -0.14879633 -0.05578376 -0.1357709   0.00968376
  0.6374233  -0.5713399  -0.0545025   0.39369949 -0.61787071  0.46064187
  0.52275855  0.44203021 -0.58745869  0.86462662  0.73390811 -0.49837236
 -0.47943979  0.65835281 -0.0602081  -0.74937651  0.53592255 -0.02692675
  0.47618458 -0.40308188  0.32473787 -0.33213693  0.11261393  0.42755734
 -0.78155232  0.30564886  0.43278606 -0.35383007  0.31546675 -0.47891286
  0.20633769 -0.63255249 -0.00508987  0.58069114 -0.81451817  0.67992443
 -0.00693479  0.03761742  0.85587562  0.15777796 -0.50215497  0.31854718
  0.23499384 -0.46473961]
Node 128: 
[-0.28743164  0.18535134 -0.33575078 -0.1433247  -0.35374233 -0.26041956
 -0.42058633  0.53974844  0.16847293 -0.07331428  0.40761717 -0.12232369
 -0.26201709 -0.29992801  0.6402843  -0.4173711  -0.49473601  0.435529
  0.75677462 -0.00551619 -0.37570129  0.6063311  -0.00418994 -0.04898845
 -0.16500296  0.42515083 -0.0831769  -0.19142709 -0.09899525  0.16182357
  0.84186046 -0.07362025 -0.41778972  0.48477273 -0.14180531 -0.02012527
  0.46499476  0.15367081  0.32895139 -0.21994015  0.67070894 -0.05761946
 -0.2395957  -0.19708783 -0.41744003  0.06725474  0.35676224 -0.13363673
  0.09806458 -0.05032755]
Node 129: 
[-0.08596762  0.28413566  0.3673996   0.33999511  0.33864921  0.34891313
 -0.20863866  0.06865761  0.1941105  -0.66686958 -0.13008349 -0.23862034
  0.10786809  0.10939799  0.00371902 -0.54143323 -0.62230042  0.04768113
 -0.45748205 -0.86041509  0.42146058  0.30284482  0.23370636 -0.14482963
  0.19342329  0.22499844  0.30570195  0.81846845 -0.04187906 -0.46711255
  0.71391898  0.35369559  0.13678968 -0.06491609  0.20909347  0.92919249
 -0.47870623 -0.43117041 -0.43263132  0.2287377   0.66299271 -0.34968834
  0.47328893  0.44786238 -1.53443707 -0.44067134  0.04774653 -0.50915803
 -0.58046682  0.94426215]
Node 130: 
[-0.16554096 -0.11616721 -0.1900747  -0.20720774 -0.15526584 -0.08380655
  0.00944519  0.15845024 -0.16398182  0.34223698  0.18069792  0.12556136
 -0.01820714 -0.04434881  0.1880074   0.06138283  0.04575575  0.0767502
  0.20948402  0.19733572 -0.18754866  0.01796115 -0.16937167  0.10156338
 -0.15151462 -0.02905748 -0.16072578 -0.32409557  0.04339498  0.28346734
 -0.11863858 -0.14431234 -0.12628253  0.172515    0.02006231 -0.32252182
  0.17605443  0.24617365  0.28323495 -0.1216602   0.01241085  0.30170483
 -0.2694952  -0.0464553   0.76900794  0.15959147  0.1493817   0.31655204
  0.30032804 -0.40197648]
Node 131: 
[-0.47397823 -0.20974984  0.09769146  0.02693865  0.49042922 -0.01531926
 -0.11363461 -0.21033458  0.04716565 -0.48326914  0.1864029  -0.14883644
  0.31914245  0.30384864 -0.19593368 -0.25191418  0.14502057  0.38250005
  0.27160011 -0.00450785  0.0566868   0.35056576 -0.17770776 -0.15040865
 -0.10677114  0.21845732  0.03480724  0.75309172 -0.32265605 -0.88985957
  0.38398315 -0.06761237  0.06821101 -0.22621207 -0.22039324  0.55453931
 -0.16561767 -0.24661502 -0.45146201  0.3433862   0.43262929  0.05725321
 -0.05297843 -0.08430878 -0.19209073  0.10778899 -0.11966504  0.08518462
 -0.41755155  0.68834472]
Node 132: 
[ 0.36671996  0.54195551  0.08517608  0.02053709  0.08404459  0.17990033
  0.21484488 -0.30749689 -0.25711163  0.49110678 -0.32065216  0.33668692
  0.14564569  0.15724715 -0.32193426  0.39567388  0.22872599 -0.4557433
 -0.28017139 -0.25775698  0.11155077 -0.43201617 -0.76658811  0.2119307
 -0.36964884 -0.28610845 -0.53870881 -0.88982038  0.25306696  0.57712079
 -0.77679159 -0.56650326  0.24390766 -0.17201723  0.1301028  -0.68816163
 -0.22441224  0.80497945 -0.0064555  -0.22155003 -0.63714288 -0.05485751
  0.08932115  0.0622817   0.63517555 -0.43432006 -0.03418841  0.15915909
  0.60800769 -0.96239019]
Node 133: 
[-0.39437972  0.56973625  0.25041173  0.40382759  0.48355918  0.29923683
 -0.54690373 -0.17348099  0.06895813 -0.12299054 -0.24061951 -0.02434341
  0.32904725  0.14506334 -0.19114332 -0.75998792 -0.04304285  0.35277975
 -0.17525868 -0.77845754 -0.00299682 -0.06570847 -0.16504021  0.04759963
  0.06969792  0.18787782  0.08316865  0.64465515  0.04432487 -0.44181019
  0.15375681 -0.00095005  0.12208087 -0.23407656 -0.16990668  0.43996649
 -0.43792617 -0.34457969 -0.6520062   0.34380962  0.15430918 -0.32445377
  0.78261584  0.17182557 -0.01036415 -0.82183657 -0.39083324 -0.5264448
 -0.14792143  0.60481637]
Node 134: 
[-0.0721365   0.06547054 -0.47136461 -0.04129539 -0.89161909 -0.61181516
  0.21846257 -0.03102203  0.07254071  0.56696893  0.46257867 -0.34659821
  0.15847843 -0.10069933 -0.02858011  0.13480079  0.06535833 -0.02196263
  0.21015948  0.25901389 -0.64424579  0.31773105 -0.00303429 -0.30558487
 -0.19451786  0.00663302  0.12249471 -0.71886218 -0.08087934  0.3720291
  0.35095086  0.01515536 -0.21457837  0.0080536   0.18401395 -0.50064191
  0.06392888  0.18280983 -0.30928575 -0.16696246 -0.06171617  0.74600857
  0.05045962 -0.14893378  0.51823154  0.23020773  0.36551222  0.48886937
 -0.22184006 -0.66033549]
Node 135: 
[ 0.11273128  0.58608557 -0.09630505  0.2764899   0.06964384 -0.06001634
  0.37290816  0.03979774  0.15829134  0.43874737  0.27257134 -0.01257768
 -0.01008115 -0.03629239  0.07364439  0.54256976  0.17652503 -0.04145857
  0.12741997  0.54446639 -0.16457084  0.12094586 -0.38334387 -0.13826434
 -0.29545166 -0.19674926 -0.29056483 -0.00951446 -0.02203667 -0.02083922
 -0.06863356 -0.29036167 -0.12634773 -0.1423861   0.10597789 -0.05720623
 -0.0502129   0.4869243  -0.37190689 -0.32197862 -0.20615419  0.62979067
  0.56467178 -0.04959053  0.13898991 -0.56713751  0.33477835 -0.20751423
  0.1396487   0.00531204]
Node 136: 
[ 0.28050312  0.27376149  0.73999179  0.67307586  0.07337585  0.33229232
  0.04913671 -0.33891405 -0.11199235  0.62137193  0.14815408  0.0073368
  0.58948785  0.48676902 -0.36920862  0.18992723  0.21740255 -0.13873354
 -0.24034702 -0.21261749  0.50816839  0.02619547 -0.13628482  0.17150392
 -0.08317399  0.2750019  -0.21158938 -0.19918705 -0.07224695  0.55562104
  0.12688799 -0.01108552  0.309051   -0.2216061  -0.03157767 -0.16430705
 -0.36259273  0.32884483 -0.24900108  0.35448534  0.09191598  0.80360891
  0.52129642  0.08990875  0.43492134 -0.0675275   0.22776992  0.8827194
  0.22317026 -0.18441421]
Node 137: 
[ 0.04692273 -0.18142378 -0.08194489 -0.15674968 -0.0929578  -0.10214985
 -0.00351119  0.07914798  0.14367964 -0.15960159  0.00715674  0.07802527
 -0.08996982 -0.0725255   0.06913345 -0.00325769 -0.07221084 -0.02670169
  0.00317436  0.02205867 -0.00347438 -0.06362586  0.00615651  0.04627538
  0.01611281  0.00439516 -0.0409443  -0.10080277  0.02334583  0.06202819
 -0.02946497 -0.00258749 -0.0390629   0.07588396 -0.00557135 -0.16483186
  0.09487299  0.06913727  0.17941724 -0.05378567 -0.02558677 -0.34125207
 -0.19667038 -0.00305642 -0.20870129  0.18548298  0.03267301 -0.18557818
  0.02816461 -0.11251313]
