Node 0: 
[ 0.07517106  0.07853056 -0.0594814   0.06534977  0.02620882  0.00795087
  0.01401324  0.02091719 -0.01790125 -0.09451417  0.07788121  0.00698764
  0.04201763 -0.00273032  0.02976709 -0.07207482  0.05073028  0.03587873
 -0.00899318 -0.02081091 -0.078934   -0.04530078 -0.06258809  0.01756947
 -0.03528315  0.03647477  0.05690867  0.00429243  0.02631477 -0.01512104
 -0.00948668 -0.02876602  0.06575835  0.01111027  0.04272204 -0.08982468
  0.04255734 -0.00418886 -0.11002021  0.06183806  0.01343698 -0.03654862
 -0.02506061  0.01700615  0.0698435  -0.03830256 -0.02884134 -0.0170879
 -0.04830289 -0.0012603  -0.02302026 -0.02464417 -0.07688528  0.03583701
 -0.0131599  -0.02187778 -0.01767229  0.02179587  0.02948459 -0.01026383
  0.01551685  0.02722208 -0.10498455  0.01733838  0.03428398  0.05370786
  0.00152776 -0.03066138  0.00156356  0.03777171  0.06058988 -0.02397003
  0.01046688 -0.05693208 -0.02817191  0.04297126 -0.05650969 -0.05194964
  0.00992837  0.0269507  -0.08445406  0.02399395 -0.02492886  0.03323696
 -0.03014252  0.03313327 -0.07245983 -0.06428096  0.06959277  0.08173082
 -0.03390928 -0.1014713   0.05046348  0.0792347   0.05929931  0.03520687
 -0.06001172 -0.02463172  0.0325627  -0.03522925  0.01298214 -0.03298831
  0.01859621 -0.0590067  -0.01801101  0.02664006  0.02796089  0.02354879
 -0.09059379  0.03871564 -0.03370583  0.05106314 -0.02969112 -0.00798898
  0.02181077 -0.07981951  0.06532839  0.03415557  0.00616256  0.01925441
 -0.03991181 -0.02818999 -0.01193006  0.02023395  0.03572429 -0.01097301
  0.04827452  0.09335802 -0.10008881  0.0088581  -0.03993715 -0.06615
  0.00785558  0.04715604 -0.00831098  0.05256654  0.04353339  0.0391266
  0.01074811  0.04801584  0.00524052 -0.05830287  0.02527677  0.06954972
 -0.01884002  0.04501766 -0.04447652  0.02123642  0.01328027 -0.06025835
 -0.02988836  0.05414388  0.06245731  0.03429841  0.02948306 -0.02105894
  0.0266829  -0.04741642  0.01497341 -0.06160492  0.0739778  -0.06153995
  0.02669036  0.04342345  0.10330308 -0.03503002 -0.01355735 -0.03324688
  0.02985283 -0.03696779 -0.02728135  0.04140897 -0.01885994  0.02088472
  0.01617216 -0.01154002  0.05888993 -0.02540971 -0.01592625  0.02259944
 -0.03500337  0.07365505 -0.0345333   0.04953794 -0.01089117  0.03514754
  0.0553146  -0.01167291  0.11257836 -0.00019597 -0.00873714  0.04718693
  0.02439569  0.04293388 -0.09164925  0.01513159 -0.03975142  0.04381611
  0.05782434  0.0074437   0.03425586 -0.00797002 -0.04086171 -0.09095927
  0.0828765  -0.03183732  0.04077243 -0.07822159  0.06800765 -0.02532826
 -0.0239871   0.0652449   0.05501231 -0.00866951 -0.02469774  0.01740347
  0.01823204  0.01100023  0.00226331 -0.05352436 -0.07160168 -0.01881189
  0.01122838  0.0279167  -0.04623485  0.03743622 -0.0449683   0.0262425
  0.01022764 -0.0175934  -0.02825024  0.06873148 -0.01336751  0.04475022
 -0.03161601  0.00257763 -0.01521278  0.06576568 -0.04920363  0.02601885
 -0.08549995  0.02220488 -0.09142622 -0.05906398 -0.01363732 -0.0161219
  0.05261932  0.01517732  0.02621553 -0.01370988 -0.08980986 -0.01254782
  0.03869994  0.0508693  -0.04472649  0.03946019 -0.04898014  0.00971927
 -0.03415939 -0.03277518  0.01126832  0.02034787 -0.03567529  0.04181951
  0.02726213  0.05418278 -0.05172431 -0.02246348 -0.01556197 -0.05702826
  0.02610172  0.00040225 -0.01666427  0.03763037 -0.03241292 -0.0359345
  0.01887697  0.02051606 -0.02399797 -0.02884619 -0.02188222  0.04506457
  0.02052031  0.04002134  0.02368086  0.07319191  0.02219091 -0.07571279
  0.08335464 -0.01025715 -0.01130357 -0.01642006 -0.0146767  -0.00417749
  0.01860313  0.04031011 -0.02914412  0.03765512  0.02904963  0.05103073]
Node 1: 
[ 0.04160598  0.0039624   0.03334833 -0.0454365   0.00513164  0.01620772
  0.01666844  0.03551265  0.07690041  0.05222443 -0.03773653  0.01859051
  0.04744147 -0.02174437 -0.07183647  0.04236238  0.05631682  0.01294275
 -0.03065872 -0.02823379  0.02527398  0.11889772 -0.0206393  -0.00757862
  0.04121354  0.00291281 -0.10989902  0.01178708 -0.01834454  0.00515235
 -0.00752541 -0.02197014  0.03788164  0.01604022  0.01702432  0.08157968
  0.04275082 -0.01402201  0.02224647  0.03648774  0.00791769  0.11914573
 -0.00613485 -0.10419807 -0.01945371  0.00038603 -0.0391616  -0.01565565
  0.10169275 -0.04169085 -0.02547671 -0.03526987  0.0400666  -0.12046208
 -0.02128355  0.09773411  0.086746    0.01618321 -0.0103803  -0.04980072
  0.03122869 -0.12188315  0.08153291 -0.00165622 -0.11835304  0.00121928
 -0.00825936  0.07723926  0.0629837  -0.0413959  -0.00737867 -0.05029511
  0.01598966 -0.05701214 -0.02093178  0.0582595   0.07107294  0.11079528
 -0.01333028 -0.0915837   0.04640124 -0.12973719  0.07581052  0.02055886
 -0.03345115 -0.08857702  0.06863088  0.0426367   0.00513192 -0.01755937
  0.00236214  0.06713736  0.03954841 -0.04951021 -0.08989517  0.02543463
  0.02631157  0.02893536 -0.05843119  0.06498523  0.0153569  -0.01647319
  0.01012181  0.06085094 -0.01223708 -0.11728493  0.00361648  0.03527633
  0.07107688 -0.10065057 -0.01151205 -0.00955834 -0.02203673 -0.04941279
  0.00999272  0.03614991 -0.05309841  0.0447467  -0.04814208  0.02853806
 -0.0446457  -0.03718318 -0.02678275  0.01658628 -0.12464733 -0.04400348
 -0.11541062 -0.04513681  0.04816848 -0.02694358  0.09374518  0.0415924
  0.02689778  0.04226817  0.0795583  -0.09829439 -0.05515676 -0.08734581
  0.02157555 -0.08206983  0.00521701  0.00165782 -0.11035103 -0.04620492
 -0.02699411  0.02469139  0.00204638  0.01257763 -0.0053228  -0.04758241
  0.06469963 -0.03348218  0.00113633 -0.05630899 -0.01166192 -0.01670367
  0.00826388 -0.02081795 -0.02352171  0.02568649 -0.04418013  0.03805396
  0.02610826 -0.13137817 -0.05963809  0.10906911 -0.03033934 -0.00905124
 -0.08145335 -0.04670845 -0.03368107  0.00547577 -0.01935809  0.02770574
 -0.00418869 -0.03106097  0.02232608  0.07700751 -0.02577933  0.02371932
  0.07601265 -0.02332269 -0.03972081  0.03505957 -0.03395521 -0.02304564
  0.05007552 -0.01207972 -0.08102428 -0.05617486 -0.04410823 -0.03396089
 -0.02874403 -0.08069955  0.03007727  0.01133882  0.01957238 -0.00730843
  0.05324109  0.04359528  0.02029248 -0.02409046 -0.01704905  0.08552586
 -0.04891734 -0.00665371 -0.11310316  0.06002552 -0.07061046 -0.02788703
 -0.00770203  0.02073419 -0.04279062 -0.01489414 -0.03315082 -0.11364104
  0.00775856  0.0065814  -0.00084519 -0.01744768  0.05228116 -0.0265367
  0.00356227 -0.10646719 -0.0085838   0.03286327  0.08533981  0.0169704
 -0.00739567  0.04788582 -0.0261648   0.01399931  0.1229452   0.02467347
 -0.04043493 -0.03733712 -0.0216836  -0.00773205  0.09052335  0.03716792
  0.07519355 -0.01048604  0.06564758  0.06222726 -0.01711439 -0.02338268
  0.03600584 -0.02153612  0.0177612   0.00174725  0.06212289 -0.03097235
 -0.0625714  -0.07853148  0.04471283 -0.07561042 -0.0091803   0.02031899
  0.00174932 -0.01788035  0.02381163 -0.10037385 -0.01761314  0.03326916
 -0.01314758 -0.06109931  0.11567956 -0.00897139 -0.03206897  0.06258339
  0.01705988  0.06965809 -0.01978847 -0.01956543 -0.02005165  0.08253658
  0.02721071  0.04381948  0.03030838  0.10113805  0.07056844  0.04135917
  0.00676147  0.03760462 -0.05828971  0.02170019 -0.11382073  0.04928761
 -0.00676455 -0.03230101  0.09925407  0.08290891 -0.01755053 -0.05001576
 -0.10038849 -0.07804944  0.06986745 -0.03397826  0.00515439  0.03684076]
Node 2: 
[-1.08777318e-02 -1.82323404e-02 -8.71876623e-03 -8.83640297e-03
  2.73851992e-02 -1.64053592e-02  1.95404565e-02 -3.46014170e-03
 -1.15941244e-02 -3.49472141e-02  2.01390842e-02  1.91886901e-02
 -2.15910691e-02 -1.38908940e-02  2.07918157e-02 -2.70303190e-03
 -1.36654672e-02  2.53258549e-02 -2.91004199e-03 -1.07055968e-02
 -1.93781042e-02 -3.80758796e-02  1.08978339e-02  1.05609696e-02
 -2.30153335e-02 -7.32184046e-03  3.33116040e-02  1.19875263e-02
  3.08942383e-02  1.74738348e-02  2.41406658e-03  2.68840917e-03
 -1.90126328e-02  8.23547589e-03  7.43783992e-03 -3.97094350e-02
 -2.41490425e-02  5.17426556e-03 -3.34255033e-02  1.64466973e-02
  2.90272063e-02 -2.23940083e-03 -1.03111991e-03 -6.37656677e-04
  2.92524320e-02  1.15575910e-02  5.08420611e-03 -1.10601422e-02
 -2.47330187e-02 -1.92813653e-03  6.86796463e-03 -5.38657522e-03
 -3.93967282e-03  3.63102797e-02  8.07367698e-04 -1.32210449e-02
 -1.44884613e-02 -1.88191729e-02 -7.53829664e-03 -1.65676886e-02
 -6.04154783e-03  1.46526293e-02 -2.22919663e-02 -4.41308833e-03
  3.51906559e-02 -1.42029475e-02  1.34075732e-02 -4.59642655e-02
 -6.69594725e-03  1.99696405e-02  5.79970469e-03 -2.67281420e-03
  8.47317385e-03  7.14526380e-03 -1.77422537e-02 -2.16559044e-03
 -3.18503298e-02 -2.12298178e-02 -7.29488217e-03  1.33180150e-02
 -4.39950950e-02  2.84240215e-02 -3.34304040e-02  2.58130732e-03
 -2.16182602e-05  4.06724298e-03 -3.27342044e-02 -2.19547037e-02
 -1.15034533e-02  2.35760478e-02  1.09218721e-02 -2.95201208e-02
 -1.62198533e-02  1.43284467e-02  1.11214342e-03  2.29250539e-02
 -5.00732136e-03  1.56834102e-03  3.67998853e-02 -1.23696699e-02
 -1.25159848e-02 -1.91046575e-02  1.41761667e-02 -2.37641218e-02
 -1.53027353e-02  2.24640095e-02 -6.44968033e-04  1.28307948e-03
 -3.50005788e-02  3.26548695e-02  2.19872795e-02  3.24931746e-02
 -2.11209480e-02 -3.42061074e-03  2.14902285e-02 -5.09412514e-02
 -2.25955730e-03 -5.46757726e-03 -8.14058475e-03  2.09701452e-04
 -5.44880169e-03 -1.18311673e-02 -5.85192309e-03  1.53099957e-02
 -2.98459176e-03  9.23441327e-05  1.68457755e-02  2.17634819e-02
 -2.60406428e-02  2.85580523e-03 -1.42297157e-03 -3.13642831e-02
  1.39098045e-02  5.62155023e-03 -2.88671879e-02  3.98906007e-02
 -8.08160004e-03  2.70668401e-02  8.02753844e-03  2.35204907e-02
  4.51214397e-03  3.73846023e-04  1.37852604e-02  3.80066834e-02
 -1.63868897e-02  9.55899074e-03  1.48697013e-02  7.34574870e-03
  2.68403538e-02  3.04262066e-02 -7.66990380e-03  2.00059181e-02
  2.36984456e-02 -1.35098410e-02  1.31731056e-02 -8.70096467e-03
  1.96164847e-02  1.20373453e-02 -3.60085524e-03 -4.36758501e-03
 -1.59883795e-03 -6.84671091e-03 -8.65245213e-04  1.87112089e-02
  2.82836438e-02 -8.81067101e-03 -2.51181512e-02  1.40826578e-02
  7.79653417e-03  1.15716528e-02  3.26270626e-04  2.42868893e-02
 -2.98000463e-04  7.11198879e-04  8.61137188e-04 -1.83064056e-02
 -1.66979366e-02 -1.65647148e-03 -1.51957748e-02  1.57022522e-02
 -1.00594627e-02 -9.83529533e-03  1.06032506e-02 -4.91079326e-03
 -1.38972659e-02  2.19078007e-02 -3.17699845e-02  1.09222753e-02
  1.28102007e-02  4.76957033e-03 -1.88844293e-02  8.25099465e-03
 -3.02157680e-03  3.38166329e-02 -3.35256547e-02  1.67029890e-02
 -2.56189591e-02  6.39570011e-04 -1.86566700e-02 -2.50828672e-02
 -3.19595838e-03  1.33977530e-02  2.15226826e-03 -1.89622428e-02
  2.33032893e-02 -1.85417173e-03  5.60116731e-04 -1.33793534e-02
  1.84216014e-02 -1.42737260e-02  3.30764009e-03  2.28000522e-03
  1.98467290e-02 -6.15418124e-03 -1.92561854e-02  1.14412505e-02
  9.47431955e-03 -1.76745410e-02  3.72463008e-03 -7.81653716e-03
 -5.53044230e-02  2.42223793e-02  8.01054304e-03  1.30002357e-02
  5.15358842e-03  2.26329993e-02  1.04694617e-02 -6.56800221e-03
  8.64014070e-03 -1.01372796e-02 -7.23069253e-03 -1.13048966e-02
 -3.47529754e-02 -2.73654854e-02  7.50811713e-03  1.42509203e-02
 -1.90479264e-03  2.40858760e-02 -3.61319791e-02  1.38400334e-02
 -2.12618143e-02 -4.26058481e-03 -2.08886652e-02 -3.10643388e-02
 -2.13617418e-03 -1.10637524e-02 -2.99647151e-02 -1.41189807e-03
 -4.04080490e-03 -2.38634922e-02 -2.50216573e-02  2.96320736e-04
  2.07097261e-02  2.94181061e-03 -2.85088422e-02 -5.79045554e-03
  2.22033753e-02  1.03342468e-02  9.83268065e-03 -5.53943252e-03
  1.32148124e-02  3.27755144e-02 -8.34485612e-03  5.57777096e-03
  2.93367863e-02  1.77436709e-02 -8.68895800e-04 -1.22088082e-02
  5.57889632e-03 -1.24568545e-02  6.03970061e-03 -2.38965936e-02
  9.99520353e-04 -7.92367826e-03  1.23740984e-03 -3.13405853e-02
 -2.33126170e-02  2.21509916e-02 -1.97507614e-03 -3.24130942e-02
 -2.90581982e-03  4.27011160e-03 -2.06186945e-03  2.63873261e-02
  2.23569377e-02 -5.11391900e-03  8.04106509e-03 -2.58887950e-02
  3.57556323e-02  6.21521956e-03 -2.42573645e-02 -2.37922444e-02
  1.07679974e-03 -1.14352222e-02  2.03385688e-02  5.92129819e-03
 -9.55054811e-03  2.85682394e-02 -1.86276737e-03 -2.25367127e-02]
Node 3: 
[-1.59885650e-02 -1.12964534e-02 -4.82839613e-02  1.19332367e-02
 -2.81170431e-02 -1.52330297e-02  5.70146179e-02 -1.15619962e-02
  2.25532617e-02 -1.79751539e-02  2.67259271e-02  6.19498074e-02
 -2.35067638e-02  1.84660303e-02  4.31495894e-02 -5.21861699e-02
 -4.46674917e-04  7.95619430e-02 -6.78436591e-02 -8.59354115e-02
 -8.34191732e-03  4.45052411e-02  5.57400261e-02 -4.14259296e-02
  1.34584068e-02 -1.32785423e-02 -4.37985292e-02 -1.03878946e-02
  9.62593985e-03  4.35683731e-04 -6.33278122e-02 -7.21990166e-02
 -1.05381298e-02  5.33806952e-02 -5.04676722e-02  1.35716912e-02
 -3.40402578e-02  3.93232912e-02 -3.97194787e-02 -5.19349194e-02
  7.05880955e-02  4.24440533e-02  6.75736124e-03  3.14203191e-02
  3.29518421e-02  3.61912869e-02  5.45213459e-02  2.39348033e-02
  1.35035147e-02  1.25219868e-02 -1.02483987e-01  3.91658908e-02
 -5.94304209e-02 -6.72067159e-02 -8.78419837e-02  3.83824019e-02
  5.43002018e-02  6.46013466e-02  7.53090131e-03  2.79378233e-03
  8.73208725e-02 -7.15968863e-03 -5.27310217e-02 -9.48166246e-03
 -4.90383719e-02 -1.34585269e-02 -7.29754710e-03  4.24399333e-02
 -5.33751650e-02 -2.38079475e-02 -1.96667859e-02 -7.48283558e-02
  9.12174667e-02 -2.87151570e-02 -9.79040592e-02 -1.25418539e-02
  1.04956012e-02  2.83754747e-02 -1.08960979e-03 -5.13466925e-02
 -1.86152861e-02 -1.59963127e-02 -3.43311937e-02  8.47606765e-02
  6.21218433e-02 -1.60544865e-02 -1.13932404e-02 -2.64434123e-02
 -1.98405021e-02 -5.36529902e-03  1.31409780e-02 -1.06325295e-02
 -1.70093010e-02  3.30294619e-02  2.85386378e-03 -5.21095703e-02
 -2.91946050e-02  5.66875109e-03 -1.75871630e-02  2.27450548e-02
  1.38642467e-02 -7.19283807e-02 -3.97192496e-04 -1.81713122e-02
 -7.90531620e-02 -4.67652400e-02  1.71337273e-02  8.66970832e-02
 -1.98736464e-02 -4.59292980e-02 -6.26220359e-03  4.14326039e-02
 -7.67427931e-02 -1.52820734e-02 -8.88459313e-04  1.18928567e-02
  1.42037458e-02  2.05833368e-03 -3.77577229e-02 -1.24401891e-02
  2.10607166e-02 -9.13454411e-02 -8.56784837e-02  5.53026479e-02
 -2.69021676e-02  3.02215311e-02 -3.96537206e-03  2.85865295e-02
  1.68622920e-03  1.05395424e-04  4.40215877e-02 -8.18608651e-04
 -8.04986991e-03 -3.55214761e-02  3.08365037e-02 -2.42653665e-02
  1.37703443e-02 -2.48012471e-02 -1.83109521e-02 -6.35951103e-02
  2.53947954e-02  2.17211727e-02 -5.62300866e-02  4.40130635e-02
 -9.56950756e-02  8.81861395e-03  1.69182888e-02  6.73638688e-02
 -4.31383762e-02 -2.08786104e-02 -9.18040304e-03  5.17372837e-02
 -4.36944477e-02 -3.71162490e-03  3.28161606e-02 -5.17850691e-02
 -4.24564607e-02  5.26098780e-03 -2.42863706e-02 -4.79812271e-02
  1.48439222e-02 -3.85749333e-02 -3.49717763e-02 -3.58271876e-02
 -2.94050260e-02  2.39303504e-02 -1.05604733e-01 -7.54112560e-02
 -5.68721457e-03 -9.17438334e-02 -8.88817042e-02 -1.17282952e-02
 -9.19502661e-02 -5.33941792e-03 -7.17544744e-03 -8.10578689e-02
  1.94305599e-02  3.41931792e-02 -8.34347049e-02  8.38517378e-02
 -1.87710609e-03 -3.21561661e-02  3.47005538e-03  1.78906492e-02
 -9.70969692e-02 -9.40468164e-03  1.48427994e-02  1.18271127e-02
 -1.56949537e-03  1.37021934e-02  2.53682763e-02  1.38272858e-02
  4.56888798e-02 -4.28128685e-02 -1.31524753e-02 -3.48359834e-02
 -7.88901134e-03  2.09231243e-02  1.94206491e-02 -1.06873147e-02
 -4.76349010e-02 -9.36199389e-02 -9.66606644e-03  1.81884066e-02
  2.21291976e-02 -6.14185265e-02 -4.91401394e-02 -3.45613937e-02
 -1.76350093e-03  5.35858559e-02 -1.63538758e-02  2.51048570e-02
  1.30159176e-03  2.20201032e-02 -8.98379740e-02 -5.71201131e-02
  2.88370671e-02 -1.05510474e-02  2.32527423e-02 -7.95959192e-03
  3.65974213e-03  5.95977940e-03  1.88804340e-02 -6.13844946e-02
  2.28702472e-02  7.49141795e-02  3.31976825e-02 -7.45301179e-02
  5.62381068e-02  3.29420288e-03  1.25518034e-02  9.20079252e-03
  5.38437349e-02 -4.01229362e-03 -8.83525437e-02  3.67399850e-02
 -6.41587660e-02 -3.20303122e-02  1.82553311e-02 -7.57500323e-02
 -3.93874639e-02 -3.29350072e-02 -3.19567807e-02 -3.88530771e-02
  4.89137571e-02 -6.41388533e-02  2.93540697e-02  8.53028418e-03
  7.25110003e-02  8.17476166e-03 -3.06301826e-02 -4.83187856e-02
 -1.97302183e-02 -2.92137593e-02  2.06380272e-02  3.71441207e-02
  5.28898498e-02 -3.35118499e-02 -1.07942099e-02 -1.31274181e-02
  9.07162169e-02 -2.46538428e-02 -1.03698589e-01 -4.83266850e-02
  2.26914502e-02  1.34907980e-02  2.14997551e-02 -9.59348686e-02
 -6.96539130e-02 -2.77474189e-02 -3.42908115e-02  1.96501410e-02
 -6.34075752e-02  3.84559419e-03 -7.37488028e-02  1.13980127e-02
  3.64348240e-02  1.25329247e-03 -2.73223131e-02  2.32638243e-02
  3.39876398e-02 -3.12646449e-02 -2.32088671e-02 -4.89550135e-02
 -4.00446595e-02  2.19139502e-02 -4.07833393e-02 -4.04337111e-02
  7.72490840e-03 -2.23718801e-02  4.53996951e-02  1.87972003e-02
 -5.26358413e-02 -8.67010646e-02  1.01851173e-02  3.40616752e-02
  2.66519715e-02  1.16069211e-02  2.02179348e-02 -5.96040857e-03]
Node 4: 
[ 0.15570538  0.15580399 -0.04411704  0.06448111  0.04997445  0.05171029
 -0.00905991  0.10552018  0.0207092  -0.09257445  0.06859774 -0.01100224
  0.12928959 -0.01964275  0.02484871 -0.08144495  0.15100234 -0.00139361
  0.00584037 -0.00414632 -0.07271563 -0.00399756 -0.11335602  0.02423235
  0.03724581  0.04433669  0.00731625 -0.02034558  0.05216005  0.02817241
  0.00141951 -0.01079603  0.15418656 -0.00990674  0.12027798 -0.08768479
  0.13986187 -0.04092295 -0.11201625  0.13309099 -0.00562519  0.0029914
 -0.09744271 -0.01023905  0.07333345 -0.13253188 -0.13436298 -0.09208863
  0.01742001  0.00628852 -0.00432187 -0.11354302 -0.07685915  0.01653518
 -0.0045654   0.01749502  0.00491241  0.00179996  0.04057683 -0.02758097
  0.00186242  0.000865   -0.09868532  0.08719736  0.01438555  0.10400859
  0.01080776 -0.0349579   0.08692123  0.0456184   0.12999866  0.01023376
  0.0032215  -0.1139584  -0.00576034  0.11845109 -0.02636126  0.01137646
  0.01028987  0.01136466 -0.05663101  0.00802415 -0.05148256  0.00202234
 -0.15085991  0.0079409  -0.09875575 -0.06643453  0.1458894   0.09969637
 -0.0469599  -0.08449016  0.11862243  0.09371599  0.01746139  0.07472451
 -0.07677942 -0.05798051  0.05196431  0.02054933  0.09694896 -0.0026843
  0.01561732 -0.10935795  0.00350443  0.01892864  0.01736571 -0.00832267
 -0.07922208  0.01317788 -0.08923243  0.05270828 -0.00748021  0.02196126
  0.04061903 -0.10532951  0.05036245  0.08736273  0.02048878  0.06722699
 -0.05539982 -0.00638977 -0.00643876 -0.00193347  0.01358775 -0.04524971
  0.01618126  0.10132377 -0.12796589  0.03300674  0.00464399 -0.09159248
  0.02984499  0.14319333  0.0084622   0.04185661  0.07361701  0.01477129
  0.0437311   0.0009227  -0.06716917 -0.02948947  0.01125135  0.13589354
 -0.00279466  0.11267595 -0.11368201  0.00078976  0.07185055 -0.13266549
  0.00834262  0.0816444   0.13005808 -0.00646617 -0.01957241 -0.00610817
  0.1206846  -0.04921307  0.07777751 -0.09603539  0.08690028 -0.08603757
  0.0669607   0.01629598  0.12793429  0.02546582 -0.00894459  0.00340327
 -0.00043305  0.00932299 -0.00914382  0.11513491  0.00717714  0.10492713
  0.12339095 -0.01059059  0.13200319  0.00199281 -0.00844995  0.00743154
 -0.00841085  0.11339795 -0.11571738  0.1758308  -0.01001681  0.07366948
  0.13675194 -0.10736288  0.14312606 -0.00961551 -0.11045312  0.04152451
  0.000278    0.00189574 -0.08224496  0.07646728 -0.04188905  0.03311101
  0.12931931  0.04555506  0.14517332 -0.01062651 -0.12896615 -0.06541278
  0.08645644  0.00036065 -0.00095609 -0.08089745  0.06658852 -0.12662369
  0.00658222  0.15624166  0.05965551 -0.0663813  -0.01143263  0.01046418
  0.01181264  0.02316034 -0.0100481  -0.14640506 -0.11031955 -0.02397757
  0.00731827  0.00447109 -0.09611075  0.0049509   0.0184343   0.13048881
 -0.03975519  0.03320379 -0.10584096  0.13723432 -0.00802456  0.10040752
 -0.0006201  -0.03494447 -0.00331651  0.1139077  -0.01340434  0.17823302
 -0.08672736  0.03669519 -0.08121273 -0.05905986 -0.04500468 -0.00377951
  0.1517979  -0.02653447  0.00337532 -0.02682263 -0.1051337   0.00877584
 -0.0040829   0.01094482 -0.01988431 -0.01894478 -0.14053537  0.14400048
 -0.10875636 -0.14184995  0.00312871  0.02471611 -0.0096744   0.11528044
  0.06159116  0.10290316 -0.00497433 -0.00587404  0.00057224 -0.04811707
  0.10860343 -0.00023812 -0.00916428  0.03115819 -0.00933865  0.02253941
  0.15139385  0.11803151 -0.00912894  0.00519664  0.00545647  0.1203831
  0.0250361   0.11476025  0.0194395   0.12793549  0.00915421 -0.08034262
  0.1010695  -0.00638101  0.01191843 -0.01552022  0.00525252  0.00711674
 -0.00948891  0.01151586  0.00090819  0.06020143  0.04524208  0.13632208]
Node 5: 
[ 5.52911075e-04  2.04903542e-02  3.13619669e-02 -3.73337749e-02
  2.28268166e-02  3.56401011e-02 -7.32912782e-02  1.03596791e-01
 -2.40795653e-02 -5.72025140e-02 -3.66506877e-02 -8.68642455e-02
  1.28679484e-02 -2.92221702e-02 -5.77714901e-02  4.16018357e-02
  1.43061306e-02 -5.08384294e-02  7.50737119e-02  6.41013025e-02
  6.48284920e-03 -3.15180041e-02 -9.61224502e-02  5.05008828e-02
  1.40890756e-02  2.61414740e-02 -4.77100922e-04  2.46390461e-02
 -2.04284587e-02  2.48951044e-02  4.93076938e-02  9.03365729e-02
  1.52023909e-02 -7.73814890e-02  6.83978651e-02 -6.47508381e-02
 -1.32205152e-03 -5.08327262e-02 -2.47732381e-02  1.06116546e-01
 -8.43456720e-02 -3.42220934e-02 -1.00521078e-01 -5.96634682e-02
 -3.74771219e-02 -1.04409126e-01 -1.17911038e-01 -7.30904695e-02
 -2.19239824e-02 -2.21192659e-02  9.07365721e-02 -1.01508350e-01
  4.76053412e-02  1.54115846e-02  8.28845438e-02 -2.43120750e-02
 -2.32548279e-02 -7.86611227e-02  5.80913852e-03 -2.46610178e-02
 -6.26714819e-02  2.12272528e-03  5.62988396e-02  1.16447772e-03
  7.36543474e-03  1.02870493e-01 -5.85785608e-04 -3.94822288e-02
  7.77513508e-02 -9.45899979e-03  8.65870685e-02  5.79123852e-02
 -8.96784351e-02 -2.26006219e-02  7.86670595e-02  1.39560622e-02
 -3.99070241e-02 -1.47823077e-02 -2.02064843e-02  1.44823422e-02
 -4.31503813e-02  4.15418385e-03  3.41534567e-02 -6.75373179e-02
 -1.10335049e-01 -3.09587504e-03  3.04265790e-02  3.50950313e-02
  2.90997356e-02  5.69261681e-02 -2.81704747e-02  3.78661340e-02
  1.74695227e-02 -2.26384883e-02 -2.54870838e-03  5.56687038e-02
 -8.81161043e-03 -5.51856902e-02 -3.66481208e-02 -2.82345765e-02
  1.09829798e-02  5.61737440e-02  1.02957366e-03 -5.09785790e-02
  8.48524808e-02  3.07226594e-02  9.59602126e-03 -7.62154047e-02
  1.53115913e-02  3.38405718e-03 -4.33393291e-02 -2.05081143e-02
  8.22660372e-02 -7.40999289e-03  2.21041788e-02 -5.59299271e-02
 -5.89878161e-03  2.18507764e-02  6.08143993e-02  5.45453669e-02
 -4.40353849e-02  8.54625365e-02  6.29643075e-02 -5.42544895e-02
  2.42399981e-02 -5.76685962e-02  1.38492085e-02 -2.81820028e-02
 -8.06738628e-02 -3.73537121e-04 -3.01601795e-02 -3.16723343e-03
  2.13570760e-02  1.19491645e-01 -1.48669872e-02  3.83743682e-02
 -5.19942099e-02  1.51567858e-02  1.12022267e-04  3.27753201e-02
 -5.23018831e-02  1.45524042e-02  3.20530470e-02 -2.93911461e-02
  8.51112298e-02  7.04356706e-02 -2.09675823e-02 -6.29255572e-02
  2.83910156e-02 -1.58768613e-02  5.65205645e-03 -2.82932615e-02
  1.15061287e-01 -5.88915852e-02 -5.84545547e-02  4.56343157e-02
  8.65091358e-02 -6.83325327e-02  5.26309399e-03  1.86966556e-02
 -7.31874556e-03 -1.06673747e-03  4.69949674e-02  1.77891524e-02
  6.69444403e-02  3.39575059e-03  9.18793947e-02  9.70998988e-02
 -4.81180088e-02  6.79913303e-02  8.74517938e-02  7.92137861e-02
  7.16100491e-02  4.13320748e-02  6.30291953e-02  7.12053235e-02
  9.78817048e-03 -3.87917408e-02  9.99266164e-02 -7.04846005e-02
 -3.59164464e-02  5.56503974e-02 -2.56180588e-02  2.17204334e-02
  8.49648870e-02 -4.25548282e-03  9.36409535e-03 -7.15491623e-02
 -1.58549841e-02 -7.43608319e-02 -7.86043878e-02 -1.86845652e-02
 -3.56221929e-02  3.03468280e-02 -4.17520764e-02  5.98294516e-02
 -1.40981164e-02 -1.69846020e-02  1.70243436e-02  5.12112451e-02
  1.08934394e-01  7.65438713e-02 -3.07013527e-02 -4.93712305e-02
 -1.38895262e-02  6.48785599e-02 -1.60657546e-02  2.02369180e-02
 -6.15431395e-02 -1.02397182e-01 -4.20493516e-03  1.14017796e-02
 -8.22466298e-03 -6.41572608e-02  8.40882339e-02  4.02482068e-02
 -4.00937623e-02  1.02926483e-02 -2.92369888e-02 -3.50555305e-03
 -8.15568256e-02 -2.20741685e-02 -2.27183326e-02  1.19585680e-02
 -6.41517557e-02 -7.04974254e-02  8.63582077e-03  9.54471435e-02
 -8.29291973e-02  3.19605480e-02 -1.62694100e-02  1.35024870e-02
 -1.55310427e-02  1.13892821e-02  6.94842829e-02 -4.24685985e-02
  6.06306079e-02  6.92076012e-02 -3.94207382e-02  1.24013078e-01
  3.29008192e-02  5.36183666e-02  5.03532989e-02  4.26740993e-02
 -6.85630818e-02  6.23841584e-02  1.63272038e-02 -3.27427048e-03
 -7.60784415e-02 -2.90964007e-03  9.33075238e-03  3.75435475e-02
  1.58882386e-02 -1.80117250e-04 -3.42202808e-02 -5.07143638e-02
 -9.25553297e-02  1.21798369e-01 -3.30359764e-02 -2.24283801e-02
 -8.29822076e-02  3.56641944e-02  8.35384619e-02  1.06405155e-01
 -2.55790247e-02  2.47978869e-03 -3.85312382e-02  7.18156496e-02
  8.29993278e-02  5.02167214e-02  8.19866152e-02 -1.42098205e-02
  7.84621492e-02 -2.52033689e-03  7.10407247e-02 -1.21703576e-02
  1.42105378e-02  8.56149595e-02  2.48673152e-02 -3.01278046e-02
 -3.60050877e-02  6.89742176e-02  6.43075801e-03  9.89451832e-02
  2.80784723e-02  2.93750219e-02  2.08043087e-02  3.14735680e-02
 -2.47314016e-02  2.47801138e-03 -2.91449426e-02 -2.34633492e-02
  4.68313969e-02  8.90892102e-02 -1.92433320e-02 -5.51963729e-02
 -2.77989454e-02 -1.17184557e-02  8.71333832e-03  1.68139461e-02]
Node 6: 
[-0.00713924  0.01770631 -0.04444708  0.00025755 -0.00696759 -0.02331702
  0.07139468 -0.04886549  0.0743258   0.02288487  0.02142023  0.08815493
  0.00927616  0.03011853  0.01053788 -0.01936903  0.03744194  0.06214514
 -0.06376919 -0.0906821  -0.00719549  0.04166873  0.00536759 -0.04262275
  0.04260046  0.01023768 -0.01912193 -0.0368269   0.02252634  0.00841913
 -0.06080596 -0.10486764  0.03732678  0.06951037 -0.03927688  0.00645305
  0.00682708  0.03549783  0.01723033 -0.0353167   0.08542874  0.0484466
  0.05140923  0.03204186 -0.01023448  0.02183801  0.07299242  0.03920388
  0.01317591 -0.00842948 -0.10299138  0.04210777 -0.02619684 -0.07396033
 -0.05430707  0.0473817   0.06890214  0.06979605 -0.02667735  0.0160446
  0.08780811 -0.04059677 -0.040491   -0.00820587 -0.05495277 -0.02726355
 -0.01247499  0.06639614 -0.06292996  0.00046668 -0.03652503 -0.07973675
  0.06815322 -0.00088794 -0.10447186  0.04342814  0.01796206  0.06229603
  0.01498776 -0.05248414  0.02265314 -0.05485785 -0.02492136  0.06154768
  0.02174571 -0.04851878 -0.01083557 -0.0137861  -0.02345278 -0.03671119
  0.01297179 -0.05249485 -0.01016211  0.03908689 -0.02921403 -0.01348835
 -0.02067786  0.02473656 -0.00745693  0.04051547  0.00741295 -0.06178134
 -0.00612138  0.01880798 -0.07772093 -0.04700285  0.00259224  0.05288622
 -0.00813752 -0.061447    0.01167253  0.02678855 -0.07834666 -0.04045571
 -0.00293479 -0.02902977  0.03051365 -0.005002   -0.07976521 -0.00680874
  0.02157779 -0.0833953  -0.09107057  0.05764276 -0.04879683  0.03346421
 -0.02203095  0.03387262  0.03915941 -0.00801849  0.02001959 -0.03507795
 -0.03602063 -0.01218719  0.04844662 -0.06967621  0.00804264 -0.05500076
  0.0093027  -0.06870079  0.0623737   0.01680918 -0.03656424 -0.00161177
 -0.09002373 -0.02059311  0.02383968  0.05955594 -0.04154379  0.0055399
  0.02376367  0.00648233 -0.08582471  0.00873861  0.04873905 -0.05994737
 -0.02513308  0.02063008  0.01771207 -0.00078197  0.0178079   0.0107036
 -0.022791   -0.04608811 -0.05277253  0.05809725 -0.08792319 -0.08871875
 -0.03228842 -0.08501424 -0.07951287 -0.05428559 -0.07074278 -0.00142086
 -0.05157602 -0.09624818  0.03787995  0.06365512 -0.1146745   0.08674685
  0.01471131 -0.01469869  0.01314467  0.02030852 -0.07124392  0.02584825
  0.03413331  0.05368265 -0.01177178  0.00248981  0.04099832  0.01039745
  0.03123779 -0.05183831  0.01796811 -0.03300073  0.02311084  0.01833602
  0.04553279 -0.04638686 -0.04117138 -0.09838793 -0.0238889   0.01393145
  0.01742682 -0.08300412 -0.03917056 -0.01794365  0.01914749  0.06338534
  0.00928054  0.03719461 -0.01053554  0.03060231 -0.0843253  -0.07518876
  0.02339025 -0.0016322   0.02953921 -0.03042485  0.00797687  0.00970522
  0.01785941 -0.03351705  0.03045117  0.06983537  0.05540455 -0.0401098
  0.07086654 -0.02007266 -0.03198882  0.02929837  0.02115491  0.01641944
 -0.09192172  0.03303462 -0.07793242  0.00390649  0.05900253 -0.05573477
 -0.00494693 -0.04462214 -0.02139246 -0.01630177  0.06926321 -0.07681379
 -0.0083256  -0.01303549  0.07424423  0.01326642 -0.03194971 -0.04932514
 -0.03010907 -0.05325296  0.02984911  0.00796457  0.04613117 -0.05283536
 -0.01043931 -0.02387126  0.09564641 -0.05444996 -0.08931835 -0.01543545
 -0.01045639  0.02153138  0.03827548 -0.08687278 -0.08949751 -0.04846546
 -0.04265532  0.03839547 -0.08020314 -0.00574557 -0.06892751  0.01208126
  0.02652531 -0.03720656 -0.02869624  0.03070201  0.02209568 -0.04010152
 -0.00751383 -0.03207539 -0.05205296  0.01121127 -0.05619764 -0.01648497
  0.00550131 -0.01715399  0.04533125  0.01329152 -0.05510051 -0.08991346
 -0.00322142  0.01706544  0.05459761 -0.0272073   0.0150755  -0.00688086]
Node 7: 
[ 3.95409270e-02 -1.22110484e-04 -1.69740413e-02  2.70296841e-02
  2.00569496e-02 -2.60250608e-02  3.55440862e-02  4.59137632e-03
  2.80085588e-02 -4.00471346e-02  3.36707773e-02  5.22888763e-02
  1.76028969e-03  2.34476977e-02  5.91546501e-02 -3.63565236e-02
 -9.87793209e-03  2.72324808e-02 -6.86623000e-02 -5.06075425e-02
 -4.72286974e-02  4.35500083e-02  2.40713913e-02 -2.14433877e-02
 -8.48118138e-03  1.56141928e-02 -2.35959578e-02  1.02941106e-03
  3.93572660e-02  1.78037284e-02 -3.33027507e-02 -4.51855108e-02
  7.88451504e-03  5.74054101e-02 -3.03394186e-02 -1.55178494e-02
  1.41487843e-02  9.04695184e-03 -4.36175653e-02 -4.30670844e-02
  5.16392166e-02  2.68984119e-02  5.55279745e-03  4.69751169e-02
  5.47122371e-02  2.07423866e-02  3.58029276e-02  2.06100088e-03
 -1.31105864e-02  5.42018500e-03 -5.67100580e-02 -3.29515262e-03
 -4.22475273e-02  1.46249401e-02 -5.03955974e-02  2.55897794e-02
  2.43536598e-02  5.50981223e-02  2.76663058e-02 -3.96129443e-03
  7.09288818e-02 -1.40559204e-02 -6.73227533e-02 -8.70532617e-03
 -3.76317404e-03 -4.62908091e-02 -3.48842093e-02  1.44946372e-02
 -4.84360414e-02 -1.04446947e-02  1.16322934e-02 -5.88279365e-02
  4.44789837e-02  8.07461215e-04 -5.58781141e-02  2.42835301e-02
 -1.42027139e-02  5.31505212e-03  2.38136366e-02 -2.63383453e-03
 -2.26551350e-02  6.85258205e-03 -2.12314678e-02  5.00468390e-02
  1.97643990e-02 -2.13203099e-02 -2.64182018e-02 -4.28004401e-02
  1.37608303e-02  3.74545534e-02 -7.92402714e-03 -2.85104184e-02
 -8.25383019e-03  3.57236947e-02  2.13965600e-02 -1.03904139e-02
 -2.34249424e-02 -6.36826208e-03  2.31888823e-02 -9.85487081e-03
 -2.00482002e-05 -4.06338426e-02  3.06276645e-02  1.36854268e-02
 -6.09191235e-02 -4.29746594e-03  4.18472518e-02  3.71757285e-02
 -2.47773638e-02 -8.66035468e-03 -2.11250929e-02  2.94551476e-02
 -5.94928392e-02 -1.05987354e-02 -4.45359996e-03 -3.01163894e-02
  1.80662750e-02 -2.02113264e-02 -4.57695838e-02  1.08107980e-02
  1.30465206e-02 -7.57902009e-02 -6.32527886e-02  4.52124656e-02
 -1.07778040e-02  3.09728791e-02 -1.17684861e-02  3.24047966e-02
  4.21216002e-03 -1.18513325e-02 -9.74930122e-03 -3.37431334e-02
  1.77109789e-03 -4.50028873e-02  3.51826484e-02 -2.03157076e-02
  2.29749180e-02 -2.80386306e-02  1.87780362e-02  1.10952622e-02
  9.14933415e-03  1.27778098e-02 -2.21107643e-02  3.45574673e-02
 -5.66577846e-02 -5.01481063e-03  1.69130314e-02  4.77620569e-02
  1.72595330e-02  1.54892026e-02  1.23529845e-02  4.97075160e-02
 -3.71338448e-02 -6.50724155e-03  3.17478633e-02 -3.81120372e-02
 -5.92088621e-03 -7.55880332e-03  3.32836556e-03 -3.66052880e-02
  6.83551082e-03 -2.45177299e-02 -9.65001252e-03 -2.23510364e-02
  2.51564297e-02 -5.84249746e-03 -7.72619185e-02 -7.61831244e-02
 -6.52037300e-03 -3.59137941e-02 -7.09374918e-02  5.12440179e-03
 -7.63840399e-02 -2.27495186e-02 -3.16091803e-02 -5.78295190e-02
 -3.83971645e-04  3.43807029e-02 -5.92354234e-02  4.72778435e-02
  1.97584919e-02 -2.97317704e-02  4.68866163e-03  6.32821690e-03
 -5.61943056e-02  1.48228761e-02  8.34381842e-03  2.98561978e-02
  1.21134905e-02  2.67756648e-02  3.85725751e-02  1.91919692e-02
  2.85207112e-02  6.24012731e-03 -1.20236833e-02 -2.45296827e-02
 -1.53992241e-02  5.21353786e-03 -8.91667606e-03 -4.03615343e-02
 -1.89992132e-02 -4.48374446e-02  1.72835002e-02 -1.42378058e-02
  2.81164307e-02 -5.11620210e-02  5.49475515e-03 -3.76658028e-02
  4.91783259e-02  2.39003805e-02 -1.45328131e-02 -1.31661949e-02
  1.81802119e-02  3.95544394e-02 -5.82139620e-02 -1.26908562e-02
  3.95344532e-02  8.09475286e-03  2.18109162e-02 -1.30166358e-02
 -2.50539865e-02  5.64711269e-03  2.31822053e-02  2.04180653e-02
  2.10983709e-02  4.61669218e-02 -2.58343495e-02 -2.08876897e-02
  5.89378091e-02 -1.34184876e-02 -8.15938484e-03  1.56405018e-02
  7.32704615e-03 -2.71166929e-02 -6.16432953e-02 -8.83045992e-03
 -4.43895769e-02  1.29144847e-02  2.55502798e-02 -1.20288464e-02
 -5.61319879e-02 -3.56875816e-02 -3.83186931e-02 -1.29365615e-02
  5.64229710e-02 -5.28452881e-02  3.66797327e-02  9.56988642e-03
  4.29054431e-02 -1.65969518e-02 -5.58856841e-02 -3.45941740e-02
 -1.25338945e-02  9.62901629e-03 -9.87151922e-03  3.12480005e-02
 -4.30734823e-03 -3.33688840e-02  9.24653063e-03 -2.03919275e-02
  7.03967260e-02 -1.03405503e-02 -6.98026654e-02  3.80572199e-03
  2.46361425e-02  9.03336716e-03  3.46869908e-02 -5.26261869e-02
 -5.99921467e-02 -2.70659092e-02 -6.65121202e-03 -4.49743432e-03
 -5.11954774e-02  1.09014353e-02 -6.08745003e-02  1.31719180e-02
  1.77585110e-03  2.23466462e-02 -3.13471924e-02  2.66861425e-02
 -1.03972417e-02 -2.31062063e-03  5.21937640e-03 -1.05125199e-02
 -3.20140663e-02  8.87264820e-03  4.03227122e-04 -4.34027462e-02
  4.08863137e-02 -9.19863605e-03 -6.67604478e-03 -1.58334860e-02
 -3.50330039e-02 -7.55855396e-02  6.17145454e-03  1.16867956e-02
  2.07935176e-02  5.82556372e-03  1.05854140e-02  1.57706236e-02]
Node 8: 
[-4.92355239e-02 -5.73994552e-02  7.38001091e-02 -6.66382028e-02
 -2.85886805e-02 -3.29001593e-02 -1.08837699e-02 -2.38493468e-02
  5.87861513e-02  6.39018258e-02 -8.02321906e-02  2.41446899e-03
 -5.59459595e-02 -1.13435663e-02 -4.70446906e-02  8.78317599e-02
 -6.84343909e-02 -1.22432597e-02  1.25921854e-02  1.05646653e-02
  6.22463888e-02  5.54273496e-02  4.40038949e-02 -2.04700867e-02
  5.87200251e-03 -4.11341863e-02 -4.38969944e-02  1.79999622e-02
 -1.38167201e-02  2.39234977e-02  3.18557538e-03  1.74407716e-02
 -5.90411123e-02 -3.06612975e-03 -3.74379633e-02  6.56582695e-02
 -6.58716676e-02  2.57068031e-05  1.02494690e-01 -2.18276940e-02
  1.31971295e-02  4.91659681e-02  2.53369827e-02 -6.59161360e-02
 -4.22954970e-02  5.23430964e-02  4.50935027e-02  1.50966262e-02
  2.40481678e-02 -2.37424097e-02 -9.54487121e-03  5.09859197e-02
  7.38267229e-02 -7.12974706e-02 -1.07024226e-03  3.46637448e-02
  5.75683632e-02  1.87465913e-02  7.57963149e-03 -5.50183993e-03
  7.59796517e-03 -3.70962511e-02  1.14169752e-01 -4.35069146e-02
 -5.53206118e-02 -1.65652008e-02  5.52271712e-03  3.64498394e-02
 -1.42279706e-02 -5.00202630e-02 -3.92761175e-02  1.31889007e-02
 -1.14829433e-02  5.16993606e-02 -4.20210976e-03 -5.66823838e-02
  5.43688051e-02  5.43683436e-02 -5.03037361e-02 -5.74111999e-02
  5.01429284e-02 -4.54395036e-02  5.35525729e-02 -1.78687751e-03
  3.92129232e-02 -6.22427318e-02  8.09596283e-02  9.83348556e-02
 -4.46871050e-02 -3.56450376e-02  2.77447453e-02  1.11583107e-01
 -3.89473980e-02 -7.49791161e-02 -5.81972202e-02 -3.36616485e-03
  8.33164107e-02  2.89137454e-02 -3.15472309e-02  4.20629504e-02
 -4.05409804e-02 -5.25230510e-03 -2.00790056e-02  8.56213566e-02
 -5.04452601e-03 -3.35587875e-02 -1.75840774e-02 -1.32904858e-02
  6.85570467e-02 -5.49482096e-02  5.76557733e-02 -6.37864244e-02
  1.72190566e-02 -2.69462969e-02  1.18914638e-02  7.05371519e-02
 -7.79712926e-02 -4.17389741e-02  1.29170310e-02  1.73151596e-02
  4.09884909e-02 -1.20264001e-02  1.86233652e-02 -3.25040948e-03
 -5.40159397e-02 -7.96270856e-03 -5.39314635e-02 -9.07011988e-02
  7.05120911e-02  6.28174700e-04  5.32036591e-02  7.95713440e-02
  1.10294731e-03 -2.20079162e-02  2.47717256e-02 -5.45061530e-02
 -7.07047146e-02 -3.48828521e-02  5.51916239e-03 -3.00640159e-02
 -1.69910191e-02 -3.74101359e-03 -4.77644497e-02 -1.08085565e-01
 -5.81040593e-04 -4.37706264e-02  5.31519840e-02 -6.60141086e-03
 -5.47903069e-03  5.61750349e-02  3.76161767e-02 -9.09492268e-02
 -5.00617293e-02 -1.16405811e-02 -4.73280465e-03  4.92331142e-03
 -1.99610287e-02  1.62721480e-02 -2.34241546e-02  8.21042081e-02
 -5.67894515e-02  8.00115904e-02 -1.92513127e-03 -4.49687038e-02
 -6.86682992e-02  2.80536090e-02 -1.77060187e-02  7.00108217e-04
 -5.39150690e-02 -1.47378142e-03  1.45677690e-02 -3.64177856e-02
  1.36021703e-02 -1.42557575e-02 -1.54799536e-02  5.70490663e-03
 -9.00146491e-02  4.52724677e-02 -1.58381268e-02  4.95373964e-03
  3.52480889e-02 -5.51468581e-02  3.74109256e-02 -6.80494559e-02
 -1.12624632e-02 -4.85181472e-02 -8.63996916e-02  3.12530183e-02
 -8.94975328e-02 -4.84619326e-02  1.88931554e-02 -5.00595946e-02
 -1.39307213e-02 -3.44860200e-02  6.16662218e-02  3.59567778e-03
 -8.83016627e-03 -2.99259995e-02 -5.20552968e-02  3.26686437e-02
 -4.77434244e-02  2.38150168e-04  5.80416989e-02  8.55241428e-02
 -7.26454072e-02 -6.59288272e-03 -4.00163278e-02  9.01463805e-02
 -7.72308428e-02  8.27056083e-03 -7.46762476e-03 -6.74134269e-02
 -2.72046108e-02  1.43346365e-02 -5.47825226e-03 -2.95167891e-02
 -1.62695507e-02 -1.26920725e-02 -5.92688400e-03  7.10571068e-02
  7.21574888e-02  2.43139490e-02  1.23408027e-02 -3.96408167e-02
  4.88569988e-02 -1.43320317e-02  4.68715309e-02 -3.59896487e-03
  1.96675226e-02 -4.56612100e-04  6.86754148e-02 -5.03762511e-02
  6.57128315e-02 -4.01347408e-02  1.46525426e-02 -8.04493727e-04
  4.09682046e-03 -4.49027242e-02  3.96813124e-02 -6.39311234e-03
  7.33410012e-02 -1.29662183e-02  8.59130006e-02  8.84173739e-02
 -1.91505638e-02 -1.05019848e-02 -5.95262739e-02  1.57372219e-04
 -4.00360572e-03  1.89452103e-02  9.42460171e-02 -7.02107823e-03
 -4.06290815e-02 -3.47164606e-02  4.62463934e-02 -4.06579713e-02
  4.25599613e-02 -2.12043516e-02  5.55464486e-02  6.04752734e-02
 -1.82560846e-02 -3.60008922e-02 -7.10743478e-03 -1.13655758e-02
 -5.64822577e-02 -5.49244041e-02  4.76880968e-02 -9.52161236e-03
  1.45369220e-02  4.40394324e-02 -1.78947509e-02  2.24423660e-02
 -3.14339785e-03 -3.18340614e-03 -8.57990499e-03  1.99064166e-02
 -7.47062099e-02 -1.24109195e-02  3.01091021e-02  1.54622454e-02
  2.37219027e-02 -8.92221657e-03 -1.29409622e-02 -3.56722313e-03
 -1.89664595e-02 -6.58027955e-02 -6.88439333e-02  8.97449089e-02
 -5.23982570e-02 -1.16127651e-02  4.33633851e-02  9.41660938e-03
  5.49681534e-03  1.57127812e-02 -5.48342023e-02 -4.16944458e-02
  4.04654386e-02 -1.66760862e-02 -9.04125840e-03 -4.82120301e-02]
Node 9: 
[-0.01980363  0.0260947  -0.04576264  0.03231053  0.00523091 -0.00584015
  0.0556756  -0.04345885 -0.00836144 -0.00264844  0.01960427  0.0487181
 -0.02105742  0.02746812  0.01546189 -0.01983496  0.01132999  0.06736973
 -0.0490586  -0.06827923 -0.0376247   0.01571314  0.05347359 -0.02669775
  0.00564522  0.00062886 -0.02774716 -0.03147577 -0.00014536 -0.01704506
 -0.04673527 -0.08933555 -0.02063675  0.04876919 -0.0127779  -0.02419796
  0.03056042  0.02169452 -0.0369951  -0.0562513   0.07050399  0.01176206
  0.05078526  0.01711654  0.04446888  0.03217417  0.0376902   0.02094275
  0.0433896   0.0153873  -0.08903569  0.04557556 -0.05746462 -0.04711983
 -0.04713363  0.00240203  0.04481267  0.06822922  0.00844122  0.0041989
  0.05301245 -0.01369828 -0.04890549  0.00777665 -0.02543328 -0.05835709
 -0.01329307 -0.00645909 -0.01349014  0.00656767 -0.01885583 -0.03569622
  0.0823145  -0.01970798 -0.07664728 -0.00831352  0.00190798  0.02745718
  0.00628996 -0.03573137  0.01404119 -0.00504509 -0.03940532  0.04364785
  0.06768777 -0.03376264 -0.02313128 -0.04634726 -0.00666896 -0.02705028
  0.00972162 -0.00288592  0.00548372  0.04294706 -0.00214623 -0.00322125
 -0.01573051  0.03186437  0.03513492  0.0307465  -0.01825552 -0.0560889
 -0.00173322  0.01300154 -0.06544071 -0.04519402  0.03070038  0.07921305
 -0.01516235 -0.03060831  0.00394763  0.01419075 -0.06229546  0.01446472
  0.00650304  0.002532    0.04070261  0.00283066 -0.04730942 -0.03558708
  0.0156556  -0.09420958 -0.05901954  0.04212492 -0.04608705  0.03748642
 -0.02198346  0.04527391 -0.00460659  0.00920472  0.0113652  -0.03378332
  0.01137467 -0.03106636  0.01195718 -0.04343733  0.03105616 -0.03755526
 -0.00289716 -0.05345208  0.02334074  0.01099799 -0.03184771  0.03127534
 -0.0767684  -0.00634415  0.0167618   0.04635447 -0.03250483  0.0119886
  0.00200059  0.00475296 -0.05552421  0.02677517  0.03172977 -0.04469602
 -0.03531576  0.00707563 -0.02336299 -0.02271856  0.00516713  0.00062919
 -0.02056643 -0.04098144 -0.03101623  0.01299353 -0.05807929 -0.05756144
  0.00505159 -0.08046653 -0.08677434 -0.00140197 -0.06879409 -0.03441329
 -0.02625657 -0.08569567 -0.0005311   0.0158157  -0.0845416   0.06751448
  0.0302764  -0.01826432  0.01185773  0.00986828 -0.07189915  0.01069332
  0.025746    0.0341396   0.02559303 -0.00589626  0.02073888  0.01758868
  0.02845719 -0.01790578 -0.01965703 -0.01297264 -0.00344824  0.00825618
 -0.00923541 -0.0117521  -0.01271002 -0.07464986  0.01065286  0.02973626
  0.03324003 -0.03787096  0.00583284 -0.02533717  0.05828324  0.03068006
 -0.00794915  0.00085476  0.00500431  0.02493799 -0.04832969 -0.032902
  0.04112658 -0.01979731  0.01933312 -0.0158177   0.00116162 -0.00692227
  0.01068668  0.00819409  0.00982405  0.06893033  0.0196347  -0.06724967
  0.06146668 -0.0168874  -0.0154656  -0.01673522  0.02079342 -0.0164268
 -0.07238625 -0.01360556 -0.06185631 -0.02448412  0.01578113 -0.00487915
 -0.04772228 -0.04540692 -0.04867774 -0.0385362   0.06656072 -0.06045886
 -0.01622207 -0.01052627  0.07519798  0.0241084  -0.01954139 -0.04018543
 -0.00302222  0.01145743  0.00160665  0.03419996  0.0343003  -0.02220566
  0.02135007  0.00238644  0.0677533  -0.04853589 -0.07665973  0.00766532
  0.02681588  0.03644297  0.04739031 -0.05358101 -0.06866088 -0.01570831
 -0.04736075  0.00076469 -0.07701479 -0.01545087 -0.07239963  0.03398859
  0.00867707 -0.03829721 -0.01124331 -0.00606559  0.00807762 -0.01311418
 -0.00047451 -0.04903491 -0.01019125  0.02227675 -0.04113996 -0.02602902
  0.03204956 -0.02956922  0.00278602  0.01681977 -0.04768495 -0.04521143
 -0.00799713  0.01346703  0.01606132  0.01712649  0.00207456  0.02286686]
Node 10: 
[ 0.04114762  0.02828012  0.03139293 -0.04688819  0.00502184  0.02409187
  0.01074112  0.0369572   0.0764856   0.06426361 -0.04978592  0.00083101
  0.0313971  -0.02264445 -0.05527065  0.06600944  0.030805    0.03950898
 -0.01985662 -0.02202196  0.03363408  0.11808825 -0.0248923   0.01486222
  0.09380442  0.02332875 -0.09846862 -0.01202026  0.00149357  0.01554519
 -0.00837706 -0.02310518  0.06584501  0.01094801  0.03154024  0.0720125
  0.01589596 -0.01810383  0.02357083  0.03223782  0.01431629  0.09433724
 -0.01516442 -0.08920162 -0.03639419 -0.01699273 -0.04815181 -0.03183114
  0.07580862 -0.07057396 -0.01618289 -0.03953386  0.05319299 -0.11208429
 -0.00262349  0.0890322   0.11890006  0.0048476   0.0066747  -0.03328477
  0.01157842 -0.10095513  0.08530262  0.04753976 -0.11578975  0.02738581
 -0.00426097  0.06246259  0.0319005  -0.05554255  0.01161114 -0.0364357
  0.01503976 -0.02515286 -0.01408991  0.02247682  0.07036422  0.09031663
 -0.04533293 -0.11758866  0.06655876 -0.1183569   0.05044058  0.01550896
 -0.02522196 -0.11186267  0.05614562  0.04364698  0.05404692 -0.03576108
 -0.00609224  0.03567781  0.03443785 -0.05105625 -0.13063302  0.03854059
  0.02372724  0.03354775 -0.07345431  0.06936232  0.02457337 -0.02357993
  0.01113805  0.06424026 -0.01161333 -0.10892518 -0.02001111  0.01280116
  0.06425799 -0.11902716 -0.04345618 -0.03489926 -0.0186053  -0.05468871
  0.00218465  0.06341462 -0.01358543  0.04339137 -0.04605674  0.01873054
 -0.02789129 -0.02194947 -0.0405326   0.01228116 -0.12545921 -0.04527098
 -0.08946856 -0.03548128 -0.00853939 -0.03222132  0.07755748  0.06610653
  0.01987397  0.02005876  0.07404074 -0.09228685 -0.06267818 -0.08792795
  0.01902627 -0.12308164 -0.03133109  0.00943824 -0.09964289 -0.06431292
 -0.01712429  0.01336663 -0.07047921  0.01058451 -0.01428287 -0.05467888
  0.08021973 -0.06394825  0.0613442  -0.06709169  0.00149822 -0.01673091
  0.01832079 -0.00051993  0.00061175  0.03342022 -0.04090912  0.03074529
  0.0280533  -0.11796867 -0.02610815  0.07781655 -0.01279639 -0.01550556
 -0.05537472 -0.03624037 -0.01879657  0.02914564 -0.03122502  0.04113132
  0.02613932 -0.02220431  0.0713308   0.09998492 -0.01345317  0.02004638
  0.08207698 -0.01240975 -0.00914292  0.0276432  -0.02540999  0.00236429
  0.06384294 -0.02046716 -0.03183578 -0.09384477 -0.00985116 -0.03465543
 -0.0275439  -0.07702598  0.03449641  0.02017366 -0.00851053 -0.01889402
  0.02756625  0.01747175  0.05466176 -0.02260735 -0.01479125  0.06536392
 -0.02992945  0.00596349 -0.07280213  0.03778626 -0.05213221 -0.04628778
 -0.02673662  0.03810258 -0.03325665 -0.04626193 -0.01450404 -0.09554414
  0.00041825  0.01837682 -0.0018433  -0.05644067  0.04787788 -0.01918168
 -0.01174092 -0.08246453  0.00082816  0.02924063  0.09098083  0.02356521
 -0.01857529  0.07264611 -0.01557208  0.03600811  0.08671275  0.0370138
 -0.02074428 -0.05596017 -0.03120064 -0.01648081  0.0831874   0.06156308
  0.04085968  0.02263023  0.05106433  0.03763279 -0.01315422 -0.02878068
  0.06891035 -0.04946921  0.00903987  0.03778856  0.03560706 -0.0313203
 -0.05119746 -0.10248304  0.05235161 -0.0806594  -0.06503246  0.03169658
 -0.02960155 -0.04206508  0.04037787 -0.08420198 -0.01922124  0.03020863
 -0.01903661 -0.0487283   0.08074753 -0.01101215 -0.03171195  0.03669707
  0.01213876  0.05880537 -0.02377233 -0.00297019 -0.01457903  0.06691779
  0.01268258  0.03669661  0.03118573  0.07314221  0.07737573  0.00474632
  0.00102232  0.05827376 -0.03970839  0.02432797 -0.08020216  0.05459212
 -0.04060678 -0.01073233  0.0843357   0.0620113  -0.01178967 -0.02297373
 -0.09078161 -0.08917795  0.07249275 -0.02207862 -0.02719402  0.0215614 ]
Node 11: 
[-6.61856786e-03  7.66494758e-03  8.81576294e-03 -2.80424137e-02
 -2.06427698e-03  1.78816845e-02 -3.38400127e-02  3.89950804e-02
 -3.21194508e-02 -5.38734702e-02 -6.98700817e-03 -5.23048627e-02
  3.76211670e-03 -1.82138246e-02 -1.08310414e-02 -6.92224145e-04
  1.00117105e-02 -2.22812725e-02  3.60666522e-02  3.25869948e-02
 -7.23521993e-03 -3.26810646e-02 -7.42559165e-02  2.78480000e-02
  6.93426588e-03  1.96595785e-02  9.52273261e-03  2.88487887e-03
  1.20048071e-04 -3.78480113e-04  3.28590596e-02  4.39233807e-02
  9.08335680e-03 -3.07541640e-02  5.00669421e-02 -6.86680740e-02
  6.99652448e-03 -2.15323955e-02 -3.33286325e-02  7.21166843e-02
 -2.39262323e-02 -3.56880184e-02 -6.59076389e-02 -3.60158048e-02
 -1.95710960e-03 -5.92921728e-02 -5.90504579e-02 -5.31232244e-02
 -2.29677425e-02 -3.78501476e-03  4.34058955e-02 -5.39312507e-02
 -1.13640276e-02  2.93841689e-02  4.32314713e-02 -2.71049190e-02
 -1.84705679e-02 -4.01542936e-02 -1.03428786e-02 -1.57717788e-02
 -3.51928635e-02  1.46331673e-02 -4.96581595e-03  3.21578059e-03
  1.82013642e-02  7.99561496e-02 -3.86084441e-03 -4.97948031e-02
  3.70343778e-02  7.39949401e-03  6.05390092e-02  2.81437613e-02
 -5.24052967e-02 -1.60082562e-02  5.93411052e-02  8.99262269e-03
 -4.09947436e-02 -2.73338727e-02  5.29071230e-03  3.01754782e-02
 -5.17559554e-02  1.71810760e-02 -7.98508622e-03 -1.95482516e-02
 -8.10218616e-02  5.12550230e-03  3.34433342e-03 -2.49001985e-03
  1.45813884e-02  5.02335815e-02 -2.19320851e-02 -8.76937760e-03
  7.40014318e-03  2.78569531e-03  2.10464172e-02  1.96220603e-02
 -3.23547135e-02 -5.76338397e-02 -2.28555267e-03 -3.00245104e-02
  6.93668151e-03  3.19824278e-02  3.92418877e-03 -5.61164490e-02
  3.55367491e-02  2.80445674e-02 -2.39444778e-02 -5.02367072e-02
  2.49551601e-04  1.32167112e-02 -2.85311853e-02  5.07172724e-03
  3.32614900e-02 -1.05764401e-02  6.73965768e-03 -5.15890397e-02
  1.94567287e-02  1.15600089e-02  5.67606888e-02  2.06152490e-02
 -2.75255593e-02  4.54567350e-02  3.44323436e-02 -2.55552093e-02
  3.79044222e-02 -3.24841312e-02  1.80385057e-02 -5.98905410e-04
 -6.59213802e-02 -5.74055590e-03 -3.21305720e-02 -2.09024546e-02
  1.90139320e-02  7.28666889e-02 -2.56548369e-02  5.11129285e-02
 -1.48848385e-02  1.12382585e-02  1.20458398e-02  3.91227912e-02
 -1.60954430e-02  1.65393242e-02  2.27266224e-02  1.93423904e-02
  5.81108486e-02  4.94003799e-02 -4.49539764e-03 -2.42318314e-02
  2.49169175e-02 -8.36493530e-04  1.02082595e-02  7.67501697e-03
  6.47472468e-02 -1.78996263e-02 -3.39566153e-02  2.26376388e-02
  4.22743765e-02 -3.24055616e-02 -9.89732725e-05 -8.01351353e-03
  5.16805138e-03 -8.76422198e-03  2.70536003e-02  1.52869766e-02
  4.97180709e-02 -1.22593254e-02  5.58071303e-02  5.51248436e-02
 -2.95016767e-02  2.04877559e-02  4.31524593e-02  4.32832911e-02
  2.49920711e-02  3.05346166e-02  3.80222924e-02  4.83465543e-02
  1.15414289e-03 -3.57834657e-02  4.77297814e-02 -2.44597644e-02
 -3.43875250e-02  2.26811799e-02 -1.29887585e-02  1.05140983e-02
  5.48105923e-02  1.25280451e-02  4.15894898e-03 -3.64058882e-02
  7.37249935e-03 -7.92684887e-03 -5.49947235e-02 -8.73039778e-03
 -2.42873082e-02  3.71055527e-02 -4.84868614e-02  3.13562617e-02
 -1.16217334e-02 -3.95020275e-03  9.75767846e-03  2.61840843e-02
  7.57216730e-02  5.77333393e-02 -1.77763885e-02 -6.22116815e-02
  3.26897460e-03  3.41001876e-02 -1.97931129e-03  4.39331355e-03
 -2.53985356e-02 -7.51412065e-02 -1.86517043e-03  7.41938326e-05
  8.66921993e-03 -2.72812374e-02  3.92250224e-02  3.92905721e-02
 -6.20215735e-03  1.69532273e-02 -1.75914730e-02 -1.12811730e-02
 -7.66079631e-02 -2.02698851e-02 -1.45005648e-02  2.23264286e-02
 -3.49166573e-02 -2.35428853e-02 -7.40024621e-03  2.54996347e-02
 -3.65644981e-02  8.78269165e-03 -4.18191054e-03  7.00459038e-03
 -3.53170957e-02  3.21710975e-03  4.98556575e-02 -3.17477808e-02
  2.73066978e-02  6.35798553e-02 -4.39535302e-02  4.96546481e-02
  1.03358932e-02  4.39386881e-02  1.18048942e-02 -1.58639737e-02
 -4.67281492e-02  2.30028812e-02  1.08694549e-02 -5.18829242e-03
 -3.56026071e-02 -7.65347679e-03 -1.56054067e-02  2.28435370e-02
  9.95849261e-03  1.15582881e-02 -2.89739851e-02 -1.60643473e-02
 -7.17679511e-02  7.49609072e-02 -3.44619735e-02 -1.08412857e-02
 -4.93190591e-02  2.74017934e-02  4.17452655e-02  6.08728150e-02
 -8.32242303e-03  9.66929072e-03 -4.21679240e-02  3.52604052e-02
  4.74112901e-02  3.00414073e-02  4.72472636e-02 -1.92023913e-02
  4.62277041e-02 -1.19361037e-02  2.91736521e-02 -1.93600068e-02
  9.10904346e-03  3.58064215e-02  9.28193359e-03 -2.95407712e-02
 -2.66308082e-02  5.44260644e-02  4.72114924e-03  5.07799404e-02
  3.04619756e-02  1.65069694e-02  2.97068305e-02  4.97822402e-03
  2.08138004e-02  9.61292074e-03 -2.91701613e-02 -2.85406385e-02
  2.77293181e-02  3.23452026e-02 -9.80604663e-03 -3.00797166e-02
 -2.89219472e-02  2.15804038e-02  7.08934483e-04  8.72074714e-03]
Node 12: 
[ 1.09002558e-02  1.84602086e-02  2.96905415e-02 -4.59005404e-02
  1.10675035e-02  2.20350808e-02 -8.13176340e-02  1.01734908e-01
 -2.12516764e-02 -5.18211726e-02 -3.22743900e-02 -7.01025049e-02
  1.09188636e-02 -2.58576877e-02 -4.68697316e-02  4.92467568e-02
  1.37804940e-02 -6.59553230e-02  7.64191264e-02  6.82887587e-02
  1.88921923e-02 -3.56619523e-02 -9.58040049e-02  4.47360330e-02
  1.59394686e-02  1.83062235e-02  4.72724529e-03  3.31353487e-03
 -2.71277738e-02  1.12836978e-02  4.94689021e-02  9.07498362e-02
  1.35365512e-02 -7.74534503e-02  6.50013289e-02 -7.45478504e-02
  5.83439735e-03 -4.34871930e-02 -2.48774229e-02  1.08834107e-01
 -8.90672827e-02 -3.14288075e-02 -8.45786898e-02 -6.38418340e-02
 -3.03286726e-02 -1.07742475e-01 -1.11464044e-01 -6.51688386e-02
 -2.44649710e-02 -1.67841063e-02  7.21451471e-02 -8.66965842e-02
  4.51699797e-02  1.94300700e-02  6.11328660e-02 -2.44995953e-02
 -1.70764514e-02 -8.86454013e-02  9.45346731e-03 -1.66476019e-02
 -7.12278523e-02 -5.91504679e-03  2.94007700e-02 -6.02334426e-03
  9.52011660e-03  9.85850830e-02 -1.21549425e-03 -3.67649145e-02
  6.31245280e-02  2.79142513e-05  8.43086992e-02  6.65786411e-02
 -9.20753938e-02 -2.14793378e-02  7.88510915e-02  1.22102584e-02
 -4.06398577e-02 -1.01753476e-02 -1.52722877e-02  9.78520426e-03
 -4.04835861e-02  5.60326316e-03  5.97636676e-02 -6.70479678e-02
 -1.27811309e-01 -1.23016037e-03  2.38205242e-02  4.52209147e-02
  2.85813487e-02  5.86164809e-02 -2.88526140e-02  2.86786274e-02
  1.50109116e-02 -2.64361472e-02  7.43643408e-03  4.29997897e-02
 -6.40446703e-03 -7.12996480e-02 -3.21595731e-02 -2.70220597e-02
  7.55879499e-03  7.03892221e-02  1.57472286e-02 -5.04117675e-02
  7.89682269e-02  3.19958645e-02  1.77482300e-02 -6.74622308e-02
  1.80896248e-02  8.74988916e-03 -3.91654318e-02 -2.27914861e-02
  8.23891928e-02 -7.56562521e-03  2.42180446e-02 -4.43651277e-02
  3.30672374e-05  2.10408491e-02  6.08864482e-02  4.95499465e-02
 -3.92829581e-02  1.07281387e-01  9.43122259e-02 -5.35258252e-02
  3.74029794e-02 -5.35256898e-02  7.52234223e-03 -2.96745844e-02
 -8.16343816e-02  8.94133520e-03 -3.46660113e-02 -5.33026543e-03
  1.01487443e-02  1.08169738e-01 -1.36789594e-02  3.63512943e-02
 -4.62981563e-02  2.04750547e-02  1.24937915e-02  3.54619942e-02
 -3.80232987e-02 -1.27198950e-02  3.38651724e-02 -2.29728074e-02
  7.98130373e-02  6.70480418e-02 -5.79450696e-03 -6.11969015e-02
  3.31961874e-02 -1.45656505e-02  1.77831448e-02 -2.09014435e-02
  9.80207307e-02 -4.59123262e-02 -6.96640982e-02  4.59113011e-02
  8.36767060e-02 -5.39051848e-02 -6.05478926e-03  3.25909275e-02
 -5.60874058e-03  5.17951385e-03  4.82252383e-02  3.04482145e-02
  5.82273231e-02 -8.26418390e-04  9.57920018e-02  8.49052820e-02
 -4.03716764e-02  8.07554096e-02  7.72892673e-02  7.71418054e-02
  6.98025236e-02  4.39014569e-02  6.89834390e-02  8.39487335e-02
  8.14334411e-03 -3.75777534e-02  7.90241670e-02 -5.15822690e-02
 -3.30956896e-02  5.16615585e-02 -2.39253497e-02  1.95839202e-02
  9.26974858e-02 -1.03425120e-02  6.04841350e-03 -6.46265840e-02
 -1.50868848e-02 -7.72406163e-02 -8.71467816e-02 -1.82391605e-02
 -3.87681993e-02  3.19647417e-02 -3.28089040e-02  6.09860648e-02
 -2.45221594e-02 -2.08356634e-02  1.54480683e-02  2.26629326e-02
  1.10929267e-01  8.65127526e-02 -2.79414993e-02 -3.23867431e-02
 -1.42157102e-02  5.92416257e-02 -8.54814831e-03  2.24047523e-02
 -2.81750901e-02 -1.09721263e-01  2.53962735e-03  6.83633503e-03
 -1.99072306e-02 -7.02610320e-02  8.18469254e-02  4.20950990e-02
 -4.45573439e-02  1.01372719e-02 -2.83146125e-02  2.58510078e-03
 -7.87572819e-02 -1.92339656e-02 -2.59088263e-02  2.04414814e-03
 -6.71909863e-02 -7.43645395e-02  1.34666722e-02  9.95096226e-02
 -8.67281218e-02  2.91733341e-02 -6.12267711e-03  1.22156960e-02
 -1.28443853e-02  6.34673122e-03  7.53563717e-02 -4.38021628e-02
  6.51629888e-02  7.08694319e-02 -3.58718467e-02  1.03980968e-01
  2.89449955e-02  7.24605540e-02  2.92118144e-02  3.64460486e-02
 -6.17565212e-02  6.15179044e-02  1.47515946e-02 -1.12976246e-02
 -5.85033016e-02  7.11802811e-03  1.02787475e-02  3.78570597e-02
  1.40388488e-02  1.52820664e-03 -3.42355262e-02 -5.97280758e-02
 -1.05280861e-01  1.11775868e-01 -4.25633262e-02 -1.94035671e-02
 -6.38759717e-02  3.50461598e-02  8.18393699e-02  1.02101028e-01
 -1.89254292e-02  3.59518733e-03 -4.47944025e-02  8.60754871e-02
  8.21785718e-02  5.44783646e-02  8.50279855e-02 -9.12062425e-03
  7.65686935e-02 -1.76677533e-03  6.45304435e-02 -1.21595158e-02
  1.22988937e-02  8.11355633e-02  2.40480354e-02 -2.32406520e-02
 -3.66057146e-02  8.97404031e-02 -8.80811241e-04  1.02147421e-01
  3.01993982e-02  2.84675845e-02  9.31921470e-03  2.95552561e-02
 -2.37061862e-02  6.76345726e-03 -3.09426875e-02 -3.67486187e-02
  4.48823407e-02  9.75480538e-02 -2.06416728e-02 -5.20825704e-02
 -2.53711334e-02 -8.39957290e-03 -1.24999809e-02  1.54886762e-02]
Node 13: 
[ 4.78021463e-02  1.98542708e-02  4.01515817e-02 -2.30177565e-02
  6.20518328e-03  1.74359301e-02  9.20309842e-03  4.00513195e-02
  5.79649849e-02  3.22019573e-02 -5.02583225e-02  3.68567332e-03
  5.34697812e-02 -1.70885932e-02 -5.90672413e-02  5.46458320e-02
  5.97715072e-02  2.41663385e-02 -9.48556483e-03 -8.76195112e-03
  3.05393033e-02  8.53021592e-02 -3.50596573e-03  1.78732591e-02
  5.22592322e-02  7.21920233e-03 -1.00887538e-01  9.49170068e-03
  7.03942195e-04  4.72717295e-03 -5.56837232e-03 -2.01883847e-02
  5.32763327e-02  9.13640079e-03  3.36436061e-02  4.51007138e-02
  1.60834257e-02 -2.08182940e-02  2.22426158e-02  4.93692130e-02
  1.44171885e-02  8.01983241e-02 -3.28041835e-02 -9.25148926e-02
 -4.74316397e-02 -5.32375559e-03 -3.57513880e-02 -1.83926357e-02
  8.03855382e-02 -5.04024526e-02 -1.30507722e-02 -1.94155291e-02
  3.74799286e-02 -9.65923320e-02 -4.02314178e-03  6.71936366e-02
  6.78235342e-02  2.19516254e-02 -1.51093768e-02 -1.86071608e-02
  5.27835978e-03 -1.13464189e-01  3.97455887e-02  2.37435587e-02
 -1.20094216e-01  3.42629023e-02 -1.53634538e-02  4.65777975e-02
  3.41524374e-02 -3.15499064e-02  2.86471052e-02 -3.23671125e-02
  1.12665436e-02 -5.51992663e-03 -1.48792446e-02  3.93038783e-02
  5.06100323e-02  6.13493203e-02 -3.54270871e-02 -1.05128930e-01
  4.76061135e-02 -1.08752503e-01  5.66881782e-02  2.55195016e-02
 -5.72895306e-02 -9.29305211e-02  4.19101122e-02  3.12413387e-02
  2.50208653e-02 -1.18637316e-02 -1.47628216e-02  4.57618654e-02
  1.12060795e-02 -2.74201419e-02 -8.01040234e-02  9.02810398e-03
 -7.63938661e-03  7.86365538e-03 -2.53933407e-02  6.43656708e-02
  7.08549950e-03 -5.91432083e-03  2.07663369e-03  5.04034570e-02
 -1.72203294e-02 -7.18501934e-02 -1.80391449e-02  2.43362617e-03
  4.30267873e-02 -8.13401017e-02 -1.19876449e-02 -4.46102389e-02
 -1.86441756e-02 -4.07925346e-02  1.81172671e-02  5.61533859e-02
 -3.18134470e-02  3.86189611e-02 -1.38430345e-02  3.01491695e-02
 -3.60720637e-02 -6.43757916e-03 -3.31087503e-02  3.47360175e-03
 -1.13888193e-01 -4.29482299e-02 -6.47494792e-02 -3.41967949e-02
  9.92733363e-03 -3.58795882e-02  5.54614477e-02  3.00856514e-02
  2.82584679e-02  7.65107067e-03  9.57845590e-02 -9.18541302e-02
 -5.49685461e-02 -9.06971459e-02  3.51567924e-03 -9.38299134e-02
 -2.33536323e-02 -1.26962121e-02 -8.22947687e-02 -5.73646556e-03
 -1.62204610e-02  9.30772968e-03 -2.89551400e-02  6.01997589e-03
 -1.74840215e-02 -3.20803538e-02  3.49277490e-02 -4.26865983e-02
  5.94217507e-02 -8.36331126e-02  6.38320680e-04 -1.17512964e-02
  1.29580042e-02 -4.58531344e-02 -9.85144901e-03  2.01466248e-02
 -1.05263551e-02  2.23359084e-02  1.80278141e-02 -1.08966121e-01
 -4.70920130e-04  7.58845216e-02 -1.85793172e-02 -4.16643747e-03
 -8.62278953e-02 -2.67688839e-02 -1.55427977e-02  1.62520086e-02
 -2.70887179e-02  3.06300362e-02  2.89837006e-02 -1.47534255e-02
  1.15306448e-02  6.40312483e-02 -1.69866963e-02  2.18218731e-02
  4.82464548e-02  2.08597191e-02 -2.12836034e-02  5.95131259e-02
 -2.03528294e-02  5.95200896e-03  6.76399967e-02 -3.47850702e-02
 -1.58170593e-02 -6.47027171e-02 -3.24286294e-02 -2.84511019e-02
 -3.26796287e-02 -5.12890022e-02 -7.83271406e-05  1.66535129e-02
  1.52665078e-03 -8.02132969e-03  1.63943898e-02  1.96278597e-02
  2.12043159e-02 -1.84542115e-02 -4.08045248e-02  5.14934970e-02
 -3.37594960e-02  5.28892192e-05 -7.47686391e-02  2.71547171e-02
 -6.43481518e-02 -4.87929138e-02 -1.16840634e-02  5.63913736e-02
 -3.97262768e-02 -2.01106487e-02 -2.66154106e-02 -6.52682048e-02
 -6.32916855e-03 -3.22362824e-04 -2.18971638e-03 -3.66662638e-02
  2.65414641e-02 -2.62240042e-02 -5.93993326e-03 -8.18598035e-02
  1.10921550e-03  1.45866944e-02  8.32807246e-02  3.60713482e-02
 -5.43603491e-03  5.04686320e-02 -5.33181789e-02 -7.27762792e-03
  8.12986209e-02  3.98486741e-02 -2.21405038e-02 -3.25212626e-02
 -1.43752853e-02  4.39712991e-03  7.30688621e-02  8.80484548e-03
  2.36697224e-02  1.27905599e-02  3.68317298e-02  2.57734237e-02
 -9.05811297e-04 -1.13395550e-02  6.19314442e-02 -2.95207241e-02
  5.06477877e-03  1.68645142e-02  3.58151914e-02 -1.87661117e-02
 -4.84362999e-02 -8.46781392e-02  3.45793289e-02 -8.05826094e-02
 -5.89688521e-02  8.52155914e-03 -1.49830993e-02 -5.45687844e-02
  2.80526487e-02 -5.82988610e-02 -1.52958856e-02  1.33024934e-02
 -1.18126262e-02 -2.14239439e-02  7.54062916e-02 -5.82480686e-03
 -1.26151936e-02  3.34973103e-02  4.99457128e-02  4.51669883e-02
 -1.84246949e-02  1.55867677e-02 -2.13157111e-02  7.95423528e-02
  2.13042577e-02  3.73053662e-02  2.52183030e-02  8.76960889e-02
  6.79655184e-02  4.46029175e-02  1.26618916e-02  3.44923086e-02
 -4.20626727e-02  1.28945449e-02 -8.16084043e-02  5.01070461e-02
 -2.17897034e-02 -4.90541882e-03  7.07740312e-02  4.95174365e-02
 -9.95324543e-03 -1.41869291e-02 -8.37196440e-02 -5.38388688e-02
  6.20864711e-02 -3.13481208e-02 -1.33357029e-02  2.56051581e-02]
Node 14: 
[-2.95757364e-02  1.29465110e-02 -3.88232200e-03  1.33342957e-02
  6.48327136e-03 -4.36801470e-03 -3.44014549e-02  3.68544250e-02
 -1.92680775e-02 -4.98111670e-02 -5.96537648e-03 -4.33240730e-02
 -2.88585455e-03 -2.09097163e-02 -1.98101965e-02  3.57407792e-03
  1.20663109e-02 -4.51830945e-02  5.00967675e-02  3.76168639e-02
 -3.32195717e-03 -2.43556184e-02 -6.72419718e-02  2.10821888e-02
  6.38075028e-03  6.37931870e-04  2.95596009e-02 -8.03116486e-03
  2.37199588e-02  4.12999072e-02  2.81802575e-02  3.85280994e-02
  6.75264681e-03 -4.91503042e-02  2.41674639e-02 -6.94909986e-02
 -1.86681497e-02 -2.03194308e-02 -4.99140259e-02  7.47119680e-02
 -5.26062796e-02 -4.08709877e-02 -7.10928886e-02 -2.55537356e-02
 -8.47111430e-03 -8.04359717e-02 -6.48587638e-02 -4.54764215e-02
 -3.09370675e-02 -1.09532272e-02  4.23883876e-02 -4.84895822e-02
  9.46621078e-03  1.43151529e-02  3.30807836e-02 -2.51617810e-02
 -2.75722069e-02 -1.80039889e-02  2.31684342e-02 -6.17656789e-03
 -5.45845460e-02 -1.14215754e-03 -8.09799637e-03 -1.70699565e-02
  2.89932294e-02  5.44362264e-02 -1.77895190e-02 -4.07081436e-02
  5.77049970e-02  2.05427956e-03  6.29906977e-02  3.64643100e-02
 -4.30136883e-02 -4.94926484e-03  4.70216351e-02  4.29449613e-03
 -4.44062791e-02 -2.21781807e-02 -1.88227321e-02  2.77881775e-02
 -5.42113683e-02  1.09254491e-02 -4.62012519e-03 -2.18462791e-02
 -8.12639913e-02  2.74073783e-03  9.57150880e-04 -1.85832978e-03
  1.48989192e-02  5.46596907e-02 -3.10151121e-02  1.82036175e-02
  1.14813280e-02 -8.88088336e-03  3.51696999e-02  4.41180549e-03
 -1.00931485e-02 -5.06236218e-02  1.36453588e-02 -3.06130836e-02
 -5.07699071e-03  1.98198130e-02 -1.01076744e-02 -7.27711206e-02
  5.52660446e-02  2.88127950e-02  1.01296442e-02 -3.39981642e-02
 -4.13381347e-03  9.91584797e-03 -1.47735526e-02  1.33441858e-02
  4.36922183e-02  8.40700877e-04  2.11323614e-02 -4.14885323e-02
  2.18888653e-02  1.44940197e-02  6.57115987e-02  1.85850609e-04
 -3.27222680e-02  3.15899734e-02  3.47089751e-02 -3.49722644e-02
  3.76027131e-02 -3.84065904e-02  3.81311036e-02 -1.13471747e-02
 -7.62784522e-02  1.75996211e-02 -4.56178850e-02 -9.54884017e-03
  2.88490154e-02  7.76708953e-02 -3.41187444e-02  5.53514179e-02
 -2.42822165e-03  1.54896054e-02 -5.32498831e-03  1.79394243e-02
 -5.67638245e-02 -1.44456578e-02  4.11866229e-02  7.73586819e-03
  6.72387464e-02  5.29573180e-02 -1.59422329e-02 -2.74951927e-02
  1.32476604e-02 -2.24021635e-03 -1.99412622e-02 -6.24089065e-03
  6.07164656e-02 -1.31756516e-02 -4.97878650e-02  2.59585699e-02
  5.56119999e-02 -2.26169725e-02  4.56884607e-03 -1.87287308e-02
  2.32905266e-03  5.28751515e-03  3.48409372e-02  1.60433280e-02
  5.30630553e-02 -2.45272813e-02  4.91475621e-02  4.73142741e-02
 -7.31452437e-03  5.93173601e-02  4.53569991e-02  3.98413018e-02
  5.01502967e-02  3.07264393e-02  5.30035484e-02  5.93648415e-02
 -5.20523622e-03 -5.87164320e-02  6.68305575e-02 -4.57129161e-02
 -4.05281294e-02  2.40081792e-02 -8.01007293e-04  7.82885319e-03
  4.60260583e-02  1.41441329e-02 -7.54186273e-04 -1.91946839e-02
  3.54596667e-03 -4.04794521e-02 -5.86193162e-02 -8.18162282e-03
 -1.83985677e-02  4.11551823e-02 -4.17517216e-02  2.93708357e-02
 -9.84718204e-03  1.38561571e-02  5.70420052e-04  1.87939639e-02
  7.72151923e-02  4.60518850e-02 -1.31025280e-02 -7.19854382e-02
  5.93628156e-03  5.63854430e-02 -7.30358033e-04 -6.24560890e-03
  1.59334770e-02 -5.94846156e-02  1.22744846e-02  6.20335526e-03
  5.38240720e-03 -2.95317967e-02  5.89353967e-02  3.22922951e-02
 -2.02675359e-02 -1.34961462e-02 -1.79760306e-02 -1.85382942e-02
 -8.28617466e-02 -3.02177140e-03 -1.42081359e-02  4.48224313e-02
 -1.56955955e-02 -2.99885142e-02 -1.10966276e-02  4.39921455e-02
 -3.43728478e-02  9.40179213e-03 -8.62955824e-03  5.86753366e-03
 -5.41610920e-02 -1.37088188e-02  2.61618677e-02 -3.80114341e-02
  3.79339408e-02  5.10267398e-02 -5.18102553e-02  7.93173125e-02
  4.81818589e-03  4.44723499e-02 -1.10355383e-02 -1.14794052e-02
 -5.35579917e-02  5.21752134e-02  1.19660218e-02  7.73556289e-03
 -4.47315885e-02 -2.68373243e-02 -2.38603332e-02  2.82500058e-02
  2.11978835e-02  3.95460424e-03 -4.09337538e-02 -2.86215029e-02
 -6.21820405e-02  6.94391476e-02 -9.52603213e-03 -7.13471044e-03
 -3.77909961e-02  2.95679421e-02  5.86229721e-02  5.08757095e-02
  1.76040618e-02  2.76096302e-02 -5.83512785e-02  3.69222248e-02
  4.66073468e-02 -2.44754298e-03  3.97429029e-02 -1.12135482e-02
  4.12498711e-02 -2.13345524e-02  2.09485022e-02 -1.43549869e-02
 -4.78188849e-05  6.03253063e-02  1.25735461e-02 -4.72285367e-02
 -4.82625406e-02  6.14241778e-02 -8.58728097e-04  7.31376925e-02
  2.40801957e-02  1.66967643e-02  4.67681380e-02  7.59673070e-03
  1.86077738e-02 -3.08375360e-02 -3.61459815e-02 -4.37744457e-02
  3.34449893e-02  1.68030111e-02  1.06150336e-03 -1.01438972e-02
 -3.59303026e-02 -9.70702115e-03 -8.53477385e-03  6.86295895e-03]
Node 15: 
[-1.22850863e-01 -1.33494260e-01  1.06439698e-02 -3.57669688e-02
 -4.93751301e-02 -3.57033941e-02  2.44524724e-02 -3.78744557e-02
 -5.68775192e-02  3.74387295e-02 -4.91427340e-02  2.07795328e-02
 -1.29528191e-01 -2.84629647e-03 -2.09687502e-02  5.50385153e-02
 -1.67814257e-01  5.99606587e-03 -1.31297015e-02 -1.11470067e-03
  5.62979062e-02 -5.58130082e-02  6.47584983e-02 -2.17759746e-02
 -6.16814162e-02 -3.29287306e-02  1.50972490e-03 -1.33355040e-02
 -1.33284704e-02 -5.10650139e-02  6.15528600e-03 -2.28154373e-03
 -1.37888115e-01 -1.06193184e-02 -8.28925552e-02  3.28288237e-02
 -1.09736970e-01  2.31824512e-02  3.04985986e-02 -7.19070376e-02
 -1.42771500e-02 -1.16651415e-02  8.50010984e-02 -1.62955420e-02
 -5.96014883e-02  6.39121824e-02  6.83446383e-02  6.41343295e-02
 -3.04006518e-02  2.70921955e-03  6.25120044e-03  4.02273265e-02
  3.40219927e-02 -1.26421668e-02 -1.44076515e-02 -3.32450986e-02
 -4.51060191e-02  2.95406757e-02 -2.33628901e-02  6.41172018e-03
 -1.47766109e-02 -4.44954827e-03  3.46492604e-02 -1.08288646e-01
  4.71502773e-02 -3.80862517e-02 -1.06681361e-02 -1.06588227e-03
 -2.26933039e-02 -3.42381181e-02 -8.38538851e-02 -2.40885979e-02
 -1.90131810e-02  1.10217135e-01 -1.37391919e-03 -1.25419739e-01
 -2.31349701e-03 -2.32396291e-02 -1.21760354e-02  6.75847341e-03
 -9.66784585e-03  9.40078806e-03  5.17755449e-02 -8.27631588e-04
  8.65889786e-02 -9.98209022e-03  4.64157309e-02  2.79918655e-02
 -1.01747717e-01 -7.56072595e-02  2.19955563e-02  7.25385415e-02
 -8.56208041e-02 -6.83112180e-02 -2.27427959e-02 -5.51238194e-02
  7.11244754e-02  1.18434468e-02 -4.72605951e-02 -2.86628298e-02
 -8.00265739e-02  5.79480215e-03 -1.33040611e-02  4.71175702e-02
  1.12735737e-02  2.73554255e-02 -1.98745156e-02 -2.41945308e-03
  4.46790532e-02  2.23245496e-02  6.85140897e-02 -3.54248402e-02
 -7.97972466e-03 -1.56278332e-02 -1.83619879e-02  4.71351576e-02
 -3.31180036e-02 -8.25503882e-02  7.96579610e-03 -4.70340155e-02
  2.73110187e-02  5.48138365e-03 -1.68445011e-02  1.50272549e-03
 -1.61012668e-03  2.45905530e-02 -1.25319351e-02 -6.76530809e-02
  7.86183924e-02 -2.35617343e-02  4.36990481e-03  3.37611563e-02
 -1.33244449e-02 -7.58193930e-02 -4.88919944e-02  7.83229834e-03
 -4.31068965e-02  2.50096259e-02 -3.70739996e-02  4.12267201e-02
  2.38518460e-02  5.71415709e-03  3.08521465e-02 -9.34550005e-02
  1.61570758e-02 -6.69827681e-02  1.25232725e-01 -7.53354012e-03
 -3.38259792e-02  1.03856103e-01 -9.04565770e-03 -6.43655235e-02
 -8.62945687e-02  5.84153392e-03 -8.47533340e-03  4.09520746e-03
 -7.81970244e-02  3.85658212e-02 -1.90960938e-02  2.88704060e-02
 -5.21155937e-02  4.17527653e-02 -3.66179580e-02 -8.38924889e-03
 -6.82598001e-02 -1.24239015e-02  1.32247377e-02  1.39981186e-02
 -2.97977719e-02  3.26839585e-03 -1.02968898e-02 -6.21395977e-02
 -2.06563752e-02 -4.83721467e-02 -4.34218440e-02 -1.16963053e-02
 -1.56029342e-01 -1.47189775e-02  2.94418774e-03  4.70659961e-03
 -9.54392138e-04 -5.20918881e-02  1.14793830e-01 -1.46993367e-01
 -8.59104393e-03 -7.02963533e-02 -1.53796547e-01  6.10750614e-02
 -9.21841665e-02 -1.10267921e-02  2.28402002e-02 -3.22891873e-02
  5.59748837e-03  2.52063473e-02  3.78601750e-02 -4.87773594e-02
  1.28873666e-02 -2.45446104e-02 -9.30680323e-02  5.75771737e-03
 -9.87812995e-02 -2.12265946e-02  1.03598903e-01  1.31771464e-03
 -6.46468435e-02 -3.05468531e-02 -3.64709971e-03  4.73073913e-02
 -2.73767417e-02  8.02660722e-02 -1.77891720e-02 -1.33266068e-01
 -4.45124757e-02  5.03671719e-02  4.93036471e-03  2.87498167e-03
 -8.01644685e-03 -2.21889960e-02  1.46346850e-02  1.19411446e-01
  6.14906132e-02  1.48296474e-02  1.17736972e-03  1.94431179e-02
  4.95778812e-02 -1.99678983e-02  1.50026396e-03 -3.23948680e-02
  3.23764432e-02 -6.76677506e-03  1.16553955e-01 -7.29600201e-02
 -2.25928381e-02 -8.66848762e-02 -1.28048292e-02  1.50863543e-03
  1.42230519e-02 -5.33132366e-02 -2.07144186e-02 -1.02462464e-01
  2.52878471e-02 -4.06821777e-02  3.00922770e-02  3.09554507e-02
  3.41728616e-02  2.30060823e-02 -1.48225260e-01  3.18534265e-02
  5.11032678e-04  1.08701817e-02  7.13070175e-02 -1.15622665e-02
  8.34117340e-03 -2.00024400e-02  3.52555942e-03 -1.62032960e-02
  7.06923348e-02 -6.70397093e-02  9.22112907e-02  1.00803701e-01
  3.13186194e-03 -7.51433822e-03 -2.30755835e-02 -1.04076150e-01
 -7.05705587e-02 -5.38500200e-02 -1.88624782e-03 -1.15623581e-03
  1.67137107e-02  5.70917921e-02 -8.56892233e-02  2.57049506e-03
  2.42365378e-02 -4.23555912e-02 -1.35232831e-02 -3.60369731e-02
 -1.57478006e-01 -8.23429771e-02  8.32795594e-03 -2.84214397e-02
  2.89666887e-03 -5.03429226e-02 -1.51091358e-02 -8.44457897e-02
 -2.50814930e-02 -1.05144892e-01  6.73114244e-05  4.91141161e-02
 -5.60936726e-02 -1.79910070e-02 -1.83306819e-02  4.87285222e-03
 -2.43757916e-02 -2.49927166e-02 -9.42539160e-03 -1.54686515e-02
 -2.86457592e-02 -7.58513086e-02 -5.29650005e-02 -1.16694013e-01]
Node 16: 
[-0.03841518 -0.02676099 -0.03569622  0.04509923 -0.01596524 -0.0038571
 -0.01434904  0.00761667 -0.08180856 -0.08337741  0.04422107 -0.0235662
 -0.02805854 -0.00546689  0.04289796 -0.02891455 -0.04126378 -0.00448887
  0.03044093  0.01024346 -0.02408054 -0.08038493 -0.0226224   0.00777056
 -0.06681562 -0.01880139  0.057996   -0.01429348  0.0124311   0.01826602
 -0.00863062  0.01149466 -0.03119198 -0.02640158  0.01281991 -0.10060287
 -0.03141436  0.00705182 -0.08886805  0.00861638 -0.01211015 -0.10874658
 -0.00997681  0.04076784  0.02103041 -0.01349296 -0.00201957  0.001391
 -0.07346669  0.02940183  0.03486002 -0.00283414 -0.04630667  0.10542443
  0.02107358 -0.08371785 -0.08286507  0.00511981  0.01315012  0.03024226
  0.00689014  0.07375155 -0.05621311 -0.03487555  0.09971689 -0.01578424
 -0.03833514 -0.09471555 -0.0339101   0.05821813  0.01376118  0.00589851
 -0.00725002  0.03160862  0.00889426 -0.04302799 -0.07724021 -0.10074494
  0.02671557  0.10087037 -0.07833883  0.09340424 -0.00636926 -0.02793733
 -0.00177185  0.0710745  -0.03794951 -0.03820377 -0.03294317  0.05067407
 -0.01385949 -0.02533823 -0.02192546  0.03610403  0.10695426  0.03454621
 -0.02565516 -0.04051121  0.05988431 -0.06162421 -0.02357686  0.02739302
  0.0094356  -0.0845622   0.01370802  0.09433356  0.02402937 -0.00996341
 -0.0518643   0.0651069   0.03405856  0.02234026  0.00102797  0.05165025
 -0.01472778 -0.09433474  0.03213671 -0.03456624  0.03661385 -0.01071431
  0.01712591  0.04046208  0.0017583  -0.01658917  0.10067362  0.01209189
  0.06916235  0.05374598 -0.09856397  0.03968689 -0.09011524 -0.05853204
 -0.0125891   0.01530744 -0.08861663  0.07172807  0.05019006  0.09121704
 -0.01734065  0.1099198   0.02228547 -0.00395734  0.07645458  0.07607469
  0.00882457 -0.00330643  0.02656852 -0.01355948  0.03825275  0.04374664
 -0.0520755   0.02306272 -0.00175733  0.06697014  0.00229228  0.00359466
 -0.0063395  -0.00932645  0.02796996 -0.04593191  0.0376     -0.05262625
 -0.01326641  0.06427143  0.0769497  -0.08955615  0.02028907  0.00243611
  0.07834293 -0.00704015  0.03456924  0.01702226  0.02041498  0.03213287
 -0.00608244  0.02177043 -0.02763469 -0.07379407  0.02968628 -0.01790636
 -0.06588708  0.02916818  0.038249   -0.02765261  0.00640905  0.01500927
 -0.03995592 -0.0156142   0.06571177  0.01535738 -0.00906852  0.02823022
 -0.00185444  0.07291404 -0.04748515  0.00851981 -0.03793641  0.02054144
 -0.03395412  0.00572242 -0.00194826  0.02369179  0.03720906 -0.10190126
  0.05334367 -0.00154963  0.07332827 -0.02998627  0.0444875  -0.01471974
 -0.00785052 -0.01955241  0.02743144 -0.00960254  0.03020784  0.08132305
 -0.00947741 -0.01934291 -0.00715917  0.05541187 -0.10418576  0.01856437
  0.00826413  0.10019588 -0.02989835 -0.00345914 -0.07796363  0.01716086
 -0.00670112 -0.04164996  0.04758698 -0.01823324 -0.10097537 -0.0446174
  0.01543545  0.01911207  0.02406364  0.05974068 -0.0919939   0.02877731
 -0.05815084  0.01925445 -0.05494678 -0.0432101   0.01878769 -0.00113312
 -0.04682516  0.04145108 -0.0106809  -0.01343832 -0.05584575  0.01927139
  0.0684505   0.08706057 -0.06783457  0.01640513 -0.01398972 -0.0195161
  0.02660622  0.0368128  -0.03586699  0.0729298  -0.00667323  0.00020484
  0.01198154  0.05706172 -0.0767083  -0.00309378  0.01434331 -0.0519516
  0.00479174 -0.03827477  0.01989709  0.02241299  0.00745635 -0.08221026
 -0.03756891  0.02485455 -0.01779116 -0.07467951 -0.07139019 -0.00858857
 -0.00319262 -0.01171264  0.0545127  -0.01193863  0.07702422 -0.05610417
  0.02539975  0.00920077 -0.08777101 -0.05471718  0.00489952 -0.01394692
  0.06047312  0.03662877 -0.06202509  0.01726936  0.02479466 -0.02961463]
Node 17: 
[ 0.00860451  0.05402526 -0.02353247  0.01424962  0.02809558  0.03099711
  0.00294696  0.03844053 -0.00269922 -0.05358792  0.03833123  0.0136543
  0.0501438  -0.0069725   0.01843311 -0.02672219  0.01702293  0.00822429
 -0.01607591 -0.02954875 -0.04090575 -0.0002173  -0.0210581   0.00243922
 -0.02608115  0.00043668 -0.00173684 -0.00069411  0.03599542  0.01845635
 -0.00905144 -0.01224602  0.00830801  0.0073588   0.0335493  -0.05247791
  0.05190736 -0.00635034 -0.05080601  0.02606238  0.02805023  0.02198438
 -0.04264381  0.0328465   0.05649923 -0.01370012 -0.01500169 -0.0102971
  0.00132633  0.00685022 -0.0276248  -0.04532795 -0.03955333 -0.01384025
 -0.02609388 -0.01982635  0.00542554  0.03101802  0.00439808 -0.00881274
  0.01530464  0.02263552 -0.06457178  0.02064261 -0.00313595  0.01626781
 -0.00646496 -0.01118139  0.00319413  0.01322284  0.03565933 -0.00269737
  0.01733028 -0.02678327 -0.01169851  0.03075692 -0.00635987 -0.02883923
  0.00675281  0.01507777 -0.02242209 -0.00864908 -0.05325647  0.01674988
 -0.01786272  0.01333676 -0.04442668 -0.05981081  0.01730666  0.01476818
 -0.00646673 -0.05703061  0.00806766  0.05330495 -0.01470091  0.02242431
 -0.05584506 -0.00505398  0.04109858  0.0142997   0.00779385 -0.02115692
 -0.00528624 -0.04539296 -0.0187391   0.00302574  0.02688065  0.01505314
 -0.03263096  0.00733359 -0.01853734  0.02056816 -0.03224179 -0.00439671
  0.02078289 -0.06267952  0.01891639  0.02760419 -0.02049435 -0.00119406
  0.00099835 -0.01757965 -0.02459945  0.01017896 -0.00387742 -0.01183629
 -0.00499613  0.0368193  -0.07128367  0.00746503 -0.01044456 -0.03114974
 -0.01087058  0.03535383 -0.00781578  0.00375682  0.05020079  0.02567352
  0.00261178  0.01643175  0.00528914 -0.03513566 -0.02005952  0.05189194
 -0.020206    0.04372858 -0.01720073  0.01545521  0.03871106 -0.04336829
 -0.02794684  0.05291281  0.02689716  0.02876941 -0.01063519 -0.01725185
  0.01079549 -0.0076959   0.02689844 -0.06368907  0.05073725 -0.02197589
  0.01837731  0.01369054  0.06448698 -0.01754035 -0.02733562 -0.02000697
  0.00745848 -0.02133899 -0.0170226   0.02418576 -0.04033871  0.0103048
  0.03787628 -0.02290838  0.04965357  0.02327561 -0.00968912  0.03096462
 -0.02163017  0.00283526 -0.03823705  0.04249164 -0.02383414  0.04056873
  0.04271061 -0.00714071  0.05752308  0.02422452 -0.0242709   0.02501325
  0.01475402  0.02508008 -0.04838466  0.0046023  -0.03088445  0.00398463
  0.00146071 -0.02549382  0.03674287 -0.01969628 -0.0111851  -0.00939641
  0.05644683 -0.03120018 -0.00632228 -0.03492363  0.01664821 -0.02376625
 -0.02775479  0.05304565  0.00797863 -0.0107379  -0.03646678 -0.01408096
  0.01988087  0.01220476 -0.00154616 -0.04558758 -0.07019362  0.01285547
 -0.00101851  0.03316754 -0.0373135   0.01860517 -0.00584442  0.01677593
  0.00805666 -0.00993946 -0.03517112  0.05372049 -0.02858567 -0.00685893
 -0.02222385  0.00733042 -0.01103729  0.04902764 -0.00215263 -0.00949969
 -0.0479217  -0.00653865 -0.04771989 -0.04707158 -0.00926178 -0.01133459
  0.02081978  0.0059017   0.02829389 -0.03467148 -0.04757597 -0.00449519
  0.02373611 -0.00013969 -0.02354029  0.02965859 -0.02343038  0.00814705
 -0.03671297  0.0023112   0.04206306  0.00984743 -0.02675934  0.01130508
  0.020673    0.05082962 -0.005014   -0.00288856 -0.01532483 -0.04224696
  0.01945955 -0.02089569 -0.01387183  0.03110816 -0.01840302 -0.00134185
  0.00595776  0.04277255 -0.02589948 -0.02117791  0.00522451  0.01118393
 -0.01389924  0.03001094  0.00214362  0.0267153   0.01228215 -0.03791131
  0.05715298 -0.01209354 -0.00735486  0.00442581 -0.012388   -0.03529447
 -0.00867514  0.01276599 -0.00238743  0.03565249  0.03827042  0.05839389]
Node 18: 
[-2.65925150e-02 -3.61064161e-02 -2.58583025e-02  3.46448548e-02
  7.60667272e-03 -2.74301961e-02 -1.91568221e-02  3.11271478e-02
 -7.92484737e-02 -8.94550199e-02  2.84060321e-02 -6.44568969e-03
 -4.93240554e-02  9.13427296e-03  4.47354274e-02 -4.24970794e-02
 -4.92450228e-02 -5.15448563e-03  2.84571311e-02  2.79823666e-02
 -3.97159885e-02 -1.14411098e-01 -3.76251979e-03  1.39571904e-02
 -8.16448055e-02 -1.26809664e-02  7.73243231e-02 -9.88025341e-03
  1.69917931e-02  1.97708900e-02  9.13152884e-03  1.64151550e-02
 -3.93305740e-02 -2.04332286e-02  1.72560607e-02 -1.30345122e-01
 -3.58565034e-02 -1.21595963e-02 -9.92813130e-02 -8.81990660e-03
 -2.60353564e-02 -8.95511154e-02 -2.26682308e-02  6.27500789e-02
  5.87441745e-02 -2.65112533e-02 -3.54748503e-02  5.80476394e-03
 -8.01554952e-02  4.19567424e-02  6.40608616e-03 -1.61172532e-02
 -5.60923128e-02  1.14849369e-01 -1.63954354e-03 -8.04636528e-02
 -1.31114882e-01 -4.23690342e-02  2.55045193e-02  2.00733492e-02
 -2.56119120e-02  9.89417602e-02 -7.06918093e-02 -4.58881878e-02
  9.41287845e-02  2.30979578e-02 -2.20017124e-03 -1.09234529e-01
 -2.14189392e-02  5.52173677e-02  1.62705320e-02  3.51295169e-02
 -1.29168383e-02  2.66067055e-02  3.57973618e-02 -4.91793199e-02
 -9.35714041e-02 -1.09634402e-01  2.90030985e-02  8.99039781e-02
 -9.71320766e-02  9.83328815e-02 -4.73241300e-02 -1.87768199e-03
 -9.80558227e-03  9.75297034e-02 -4.36550900e-02 -5.43630758e-02
 -4.14276562e-02  7.56375272e-02 -1.28885185e-02 -6.82617735e-02
 -3.37729985e-02  5.51755932e-02  8.04051985e-02 -5.18122066e-03
 -4.77307121e-02 -5.40610712e-02  6.78816511e-02 -9.14910192e-02
 -3.51231474e-02  4.74513626e-03  2.79673066e-03 -1.09069239e-01
  2.12240872e-03  9.40587969e-02  4.07874842e-02 -8.17402987e-03
 -4.85271560e-02  1.14252779e-01  3.58911131e-02  1.74307771e-02
  3.39570265e-02  5.31794674e-02 -1.76561111e-03 -8.73943047e-02
  3.46569166e-02 -2.49098355e-02  2.01307992e-02 -9.80238274e-04
  1.22321480e-02  1.95404395e-02  1.15021105e-02 -8.43493746e-03
  1.20263589e-01  1.44295902e-02  1.08025247e-01  6.43529999e-02
 -1.11422419e-01  3.38165495e-02 -9.09256578e-02 -7.94798716e-02
 -7.82831440e-03  1.37900095e-03 -1.00260294e-01  1.16166604e-01
  4.37646798e-02  1.06198847e-01 -6.99394918e-03  1.15011762e-01
 -3.70861779e-03 -4.19387587e-02  1.33525699e-01  7.76330155e-02
  1.42774295e-02 -1.38524237e-03  5.08131757e-02 -2.74779572e-02
  1.18061199e-02  3.65982075e-02 -6.98500027e-02  3.08157648e-02
  1.63327294e-02  6.10018388e-02 -1.28900520e-02  5.36147914e-03
 -7.40720686e-03 -5.62352797e-04 -4.66352185e-03 -7.81925187e-02
  4.47066379e-02 -4.08316858e-02  4.10760691e-03  1.04368777e-01
  9.97644262e-02 -1.15169136e-01 -4.35460945e-03  1.53346873e-02
  5.08498665e-02  3.86805917e-02  4.05240645e-03  3.51030595e-02
  3.03406775e-02  2.18701189e-02 -3.50614375e-03  7.35242826e-03
 -3.75176901e-02 -1.31780340e-01  2.38461774e-02 -7.79062100e-03
 -8.89136792e-02  1.23146619e-02  4.81341516e-02 -4.18790515e-02
  2.88137961e-02  1.81341601e-02 -4.70349476e-02 -1.52852693e-02
  7.34486398e-02  3.09236983e-02  1.40722681e-02  3.17637955e-02
  1.56290522e-02  8.30747695e-02 -7.04531178e-02  2.41326510e-03
 -2.34541908e-02  3.86862718e-03 -4.47386846e-02 -2.78283901e-02
  2.95833902e-03 -1.36367154e-03  4.39538018e-02 -1.10330574e-01
  5.70012190e-02  2.55033566e-02  9.13500299e-02 -5.49052108e-02
  5.12018882e-02 -1.90096766e-02 -8.34609739e-03 -4.74345350e-02
  3.78746856e-02  2.33547010e-02 -7.85987445e-04  1.09371485e-01
 -3.66198482e-03 -2.09269417e-03 -6.55612834e-03  4.44276637e-02
 -1.29296147e-01  7.99383833e-03  1.02555670e-03  1.08601600e-01
 -3.43742368e-02 -2.90217070e-02 -8.87504999e-02  5.27705376e-03
  4.35697317e-04 -4.59878004e-02  4.96794348e-02 -2.01924290e-02
 -1.02697012e-01 -4.95531366e-02  2.04879848e-02  1.20143995e-02
  2.02595108e-02  6.58896729e-02 -1.15168178e-01 -1.19252786e-02
 -7.69400653e-02  1.97190154e-02 -4.85193600e-02 -4.70388846e-02
  7.78606800e-03  6.85247063e-03 -5.24691539e-02  4.59524602e-02
  3.17420245e-03 -1.45333008e-02 -7.82410173e-02  1.80880380e-02
  6.53720446e-02  8.70366340e-02 -6.67378742e-02  6.41033757e-02
 -7.06178220e-03  9.77178836e-03  1.47305247e-02  3.49798431e-02
 -1.72195005e-04  1.14137213e-01  3.08734923e-02  1.08961465e-02
  5.50347006e-02  5.17536609e-02 -9.41106380e-02  5.77279882e-03
  1.58196597e-02 -5.41865408e-02 -6.10079853e-03 -5.98290770e-02
  2.34355371e-02  2.26906903e-02  1.35578937e-02 -9.41120275e-02
 -5.11504585e-02 -5.12338273e-03 -3.23327092e-02 -1.27714911e-01
 -9.71620247e-02  3.67249640e-03 -5.91627262e-03 -3.56919683e-05
  5.14686704e-02 -2.17064253e-02  1.18166298e-01 -6.41284575e-02
  3.71395398e-02  8.82162957e-03 -9.25756697e-02 -6.99684285e-02
  5.52089091e-05  5.71024298e-03  7.68457526e-02  5.22211622e-02
 -8.95752852e-02  4.80778016e-02 -6.45452603e-03 -3.78371211e-02]
Node 19: 
[ 0.01647691  0.00194907 -0.01266383  0.02217776 -0.02375007  0.00233532
  0.05248783 -0.03365124  0.00799224  0.00430636  0.01029695  0.0680962
 -0.0137984   0.02175549  0.00421429 -0.00933618  0.0189854   0.06255615
 -0.08087276 -0.07359637 -0.02820274  0.02424413 -0.00104092 -0.03340508
  0.05139848 -0.02112908 -0.02752166 -0.03817183 -0.02138436  0.01151363
 -0.04599288 -0.07732486  0.03649018  0.04913879 -0.04850563  0.02791399
 -0.01083934  0.03437137 -0.0403474  -0.04398226  0.06211676  0.03628833
  0.04392199  0.01500465  0.0032531   0.03390408  0.05745619  0.03414708
  0.02774973 -0.00619913 -0.08585114  0.05160052 -0.03690928 -0.04817499
 -0.04983859  0.03538397  0.05456189  0.03577222 -0.00753097  0.02580068
  0.05135741 -0.03843508 -0.04954886 -0.01766177 -0.06466559 -0.00111631
 -0.00635933  0.02680167 -0.00781616 -0.00500878 -0.01110454 -0.05335412
  0.04730212 -0.02912302 -0.09025352  0.02471411  0.04832705  0.02661855
  0.0268885  -0.04283062  0.02697284 -0.01701623 -0.02190403  0.07381992
  0.03815915 -0.00618566 -0.03481337 -0.04104951  0.00443213 -0.00489189
 -0.00463002 -0.04243501 -0.01995704  0.00615193 -0.05917416 -0.00867448
  0.01921261  0.02773264  0.0182587   0.01802805  0.00623157 -0.04747322
 -0.00785076  0.03125255 -0.06864072 -0.02859628  0.03546254  0.07590864
 -0.03222519 -0.00526591 -0.01805048  0.02646034 -0.06872908 -0.01435248
 -0.00542901 -0.03002614  0.01400713 -0.0094919  -0.02817405 -0.04559439
  0.02603023 -0.07860061 -0.09080225  0.04562255 -0.03816032  0.01008366
 -0.01131175 -0.00168616  0.04042951 -0.02856715  0.03822565 -0.02081932
 -0.01105799 -0.00692792  0.06201458 -0.01761071  0.0404037  -0.01492732
  0.01691164 -0.02586954  0.0335483  -0.01347429 -0.033814    0.01593761
 -0.0802436  -0.015728    0.01306268  0.05959226 -0.00267081 -0.03517214
  0.02360357 -0.00091661 -0.03985029 -0.01886628  0.01258444 -0.05294692
 -0.01124578 -0.00378332  0.00889478 -0.01939187  0.01298318 -0.01320937
 -0.02942328 -0.05875229  0.01904939  0.04869957 -0.0707565  -0.09069081
 -0.00520141 -0.06088155 -0.09170787 -0.01831656 -0.07784217  0.00597133
 -0.03894171 -0.06588476  0.00626013  0.00967198 -0.07891541  0.0467672
  0.04361658  0.00562889  0.00155788  0.00212152 -0.04856735  0.03223636
 -0.00240658  0.04570132 -0.00783432  0.0346115   0.0553767   0.01059623
  0.02079366 -0.04965694 -0.00971301 -0.02973875  0.02260939  0.01590173
  0.00200838  0.00327673 -0.03459142 -0.07061419 -0.01824399 -0.007113
  0.02845792 -0.05642245 -0.04504715 -0.02005901  0.00518393  0.05232197
 -0.01354389  0.01039506  0.02139887  0.01900269 -0.05361711 -0.03886848
  0.03885981 -0.00873048  0.02774592 -0.03481562  0.02096252  0.00148523
  0.0168667  -0.06096031  0.04232868  0.0446229   0.03035482 -0.05049788
  0.07359131 -0.02086568  0.01980644  0.02308352  0.04393796  0.01372099
 -0.05688638 -0.00993295 -0.07471298  0.00254753  0.05269909 -0.0633189
  0.00639428 -0.02004014 -0.01816268 -0.03892877  0.03814247 -0.05457458
 -0.02124576 -0.00693183  0.06052841 -0.01623033 -0.01964413 -0.03096671
 -0.03652186 -0.01777822 -0.00333905 -0.01789816  0.04853484 -0.04054819
 -0.02029295  0.01162933  0.04729555 -0.05846896 -0.06249793 -0.01178255
 -0.02173641 -0.02547742  0.06310031 -0.08542503 -0.06144757 -0.05066825
 -0.03618259  0.01479402 -0.06869961  0.00907447 -0.06290206  0.03126367
 -0.00835685 -0.03683985 -0.02501354  0.0087729   0.04226607 -0.03189744
  0.00028033 -0.03558145 -0.05435079 -0.02127579 -0.0523847  -0.02958901
  0.01459893 -0.01539128  0.00620134  0.00487252 -0.04315531 -0.04330446
 -0.02867854  0.01249935  0.04920916  0.01071991  0.02676275  0.00420294]
Node 20: 
[ 0.02772918  0.00364647 -0.03984069  0.04426642  0.00563327  0.02294785
  0.032964    0.01807559 -0.01904339 -0.0473459   0.05379696  0.03076903
  0.02149715  0.01468443  0.04332851 -0.05115813  0.02292682  0.03799189
 -0.02967864 -0.03570504 -0.05178183 -0.00476702 -0.02895793 -0.00639639
 -0.02741553  0.022341    0.0213851  -0.00502635  0.02972283 -0.00349796
 -0.01614268 -0.02835323  0.0157623   0.02749395 -0.00730994 -0.05930489
  0.02940737  0.0054947  -0.0337816   0.00317333  0.0381965  -0.00236161
 -0.02609014  0.04163745  0.04868486 -0.02886031 -0.01286156 -0.00713978
 -0.0148761   0.01314811 -0.0296617  -0.01039313 -0.03396584  0.00737907
 -0.02989829 -0.01249794 -0.03395167  0.01427023  0.00750635  0.0090054
  0.04329753  0.03944338 -0.04705053  0.0043429   0.04293421  0.02207908
 -0.01038657 -0.02340386  0.01033091  0.03306552  0.00505754 -0.02499316
  0.02091885  0.00524968 -0.04038853  0.01969322 -0.02865579 -0.01996299
  0.01729762  0.00730432 -0.02558445  0.01698419 -0.04745487  0.02152265
  0.02143058  0.00900581 -0.03650731 -0.0679765   0.03618698  0.03768648
 -0.02793063 -0.05012512  0.01685307  0.03680582  0.03593892  0.03448095
 -0.038471   -0.00896693  0.02302777  0.00038097  0.01506248 -0.01577876
  0.0147305  -0.06008185 -0.0177975  -0.00437568  0.01309049  0.02462059
 -0.0390327   0.02790686  0.01128124  0.05129705 -0.03859699  0.01548872
  0.01852192 -0.03730895  0.04485506 -0.00313727 -0.02414835 -0.00018102
 -0.01640186 -0.0205623  -0.04825469  0.02485837  0.03347029  0.00957774
  0.00371887  0.06866008 -0.02597646  0.02665502 -0.03658189 -0.03888866
 -0.01310011  0.00473023 -0.00361893  0.0202672   0.04240547  0.02797164
  0.01828519  0.03333823 -0.01323649 -0.02849865  0.02800159  0.0743637
 -0.03309549  0.00726765 -0.01291926  0.02757756  0.02804717  0.00111773
 -0.01782371  0.05781385 -0.01261812 -0.01336232  0.00093537 -0.02245985
 -0.00482538 -0.00454688  0.03077162 -0.04732009  0.02182903 -0.04912358
  0.00239589  0.01908691  0.05323505  0.00078408 -0.01992919 -0.03555061
  0.00907116 -0.03321942 -0.03114149  0.02409405 -0.03759776  0.01081689
  0.03418679 -0.03498    -0.00588806  0.0034524  -0.03529208  0.03305392
  0.00129782  0.03279877  0.01116448  0.01836173 -0.04076841  0.03736371
 -0.00777836 -0.023114    0.02791865  0.04110309 -0.02726728  0.03061232
  0.01945278  0.00942125 -0.02647035  0.00893514 -0.01590199  0.03651619
  0.0217087  -0.00363902 -0.00238128 -0.04073789 -0.00817972 -0.03489052
  0.03301555 -0.03242549  0.03990488 -0.04746334  0.04381421 -0.01485077
  0.00873128  0.03300827  0.0166438  -0.00608118 -0.01863126 -0.00482395
  0.0303071  -0.01249241  0.00577731 -0.01725987 -0.06401542 -0.00266731
  0.01557841 -0.00719057 -0.00983813  0.03217171 -0.01544882 -0.00153098
  0.0229984  -0.00123152 -0.01991513  0.02251152  0.01220378  0.00310705
 -0.02984924 -0.00249022 -0.03763437  0.02956796 -0.02815894  0.00046043
 -0.03222206  0.00125043 -0.0554267  -0.06157906  0.02393287 -0.0390333
  0.00669633 -0.01408312  0.03193389  0.00100641 -0.04977549 -0.00863863
  0.01295704 -0.00165372 -0.01463216  0.01435037  0.02253454 -0.00410063
  0.00320872 -0.02662339  0.04026898  0.02980456 -0.03672951  0.01303656
  0.04854468  0.0399118  -0.03507231 -0.02761773 -0.03446305 -0.02058925
  0.00510081 -0.02596216 -0.03190646  0.00951864 -0.0257603   0.00691332
  0.02295545  0.01167207 -0.02180778  0.00303625 -0.02678047  0.02777921
  0.00952516  0.01849135  0.00391093  0.0137552   0.036779   -0.05297722
  0.02221735 -0.02599816 -0.00145084 -0.01279656 -0.01182258 -0.04420459
  0.02186743  0.02584211 -0.01749745  0.02042179  0.01608507  0.02797945]
Node 21: 
[ 3.49392942e-02  3.94857622e-02 -3.41912415e-02  1.02038609e-02
  9.13817778e-04 -3.34121930e-03  5.89884171e-02 -4.09693517e-02
  4.78343672e-02  1.00256791e-02  2.95793453e-02  4.93046552e-02
  3.22893030e-02  3.18033116e-02  4.99238818e-02 -5.27261573e-02
  2.08854227e-02  4.44263935e-02 -7.59203770e-02 -6.48484939e-02
 -3.78994890e-02  3.49295339e-02 -9.07548028e-03 -3.41596608e-02
  1.68467028e-02  1.12299715e-02 -2.45504563e-03 -3.31512785e-02
  9.53171307e-03 -2.78088507e-02 -4.73304475e-02 -5.67573213e-02
 -2.74054171e-03  5.83689325e-02 -2.63042199e-02 -3.07940486e-02
  5.69714791e-03  1.61603004e-02 -1.76292586e-02 -3.54262309e-02
  7.80181364e-02  2.21743300e-02  4.14848441e-02  3.62594511e-03
  2.71507328e-02 -1.01023335e-02 -2.64958117e-04  2.90481554e-02
  2.46899124e-02  1.73690999e-02 -7.67481299e-02  4.25041029e-02
 -4.27224059e-02 -1.02305369e-02 -5.44628177e-02  1.89279729e-02
  4.17937420e-02  6.21712212e-02  2.23102977e-02  9.98118792e-04
  7.65855029e-02 -3.70497945e-02 -5.71803850e-02 -2.50593242e-02
 -4.13734381e-02 -5.59170665e-02  3.57421488e-03  9.64196953e-03
 -3.26735721e-02 -1.74793232e-02 -3.29043285e-02 -6.38519320e-02
  7.22624581e-02 -1.67206253e-02 -8.54790668e-02 -8.04765584e-03
  3.43855194e-02  1.23186131e-02  3.05781771e-02 -1.78145454e-02
  1.63673354e-02 -3.59030958e-02 -5.67628716e-02  4.60995362e-02
  1.81760231e-03 -2.48014474e-02 -5.22490048e-02 -3.52050286e-02
  8.41792126e-03  1.34199901e-02 -1.89235345e-02 -2.41940245e-02
 -6.46468825e-03  2.21781099e-02 -4.88181109e-02  6.61636405e-03
  1.36216348e-02  6.84031009e-03 -1.64073382e-02  7.48556650e-03
 -1.25426819e-02 -4.93864704e-02 -8.04565710e-03 -2.60618030e-02
 -7.10050943e-02 -8.18512453e-03  1.49239467e-02  3.96913198e-02
 -1.52305250e-02 -1.24006691e-02  1.68136725e-02  2.15940530e-02
 -7.81908699e-02 -1.98098927e-02 -1.97913039e-02 -3.69546473e-02
  6.54443959e-03  1.81140687e-02 -4.22266052e-02 -3.91131678e-02
  1.06792085e-02 -8.91482011e-02 -6.72729004e-02  5.22982334e-02
 -3.17623503e-03  2.87138437e-02 -2.14431686e-02  1.47715761e-02
 -2.00132739e-02  4.72322299e-03  5.01051373e-03 -4.67129418e-02
 -1.22963428e-02 -1.00712768e-02  2.20335795e-02 -9.60004019e-03
  5.29210351e-02 -1.48832226e-02 -1.04067126e-02 -3.00344596e-02
  3.34312440e-03 -1.54967703e-02 -2.96656810e-02  1.67640931e-02
 -6.33146367e-02 -1.09638262e-02 -5.69804949e-03  5.40657536e-02
 -1.23196557e-02 -1.11540455e-02 -3.91490712e-03  4.40560436e-02
 -2.80524753e-02  1.31267445e-02  1.64371201e-02 -4.58289354e-02
 -3.89605139e-02  1.56377078e-03  1.35157264e-02 -4.97850641e-02
  1.22435489e-02 -3.72155185e-02 -2.18417563e-02 -3.97711218e-02
 -6.00624404e-03  4.08455668e-03 -9.82845913e-02 -5.17591361e-02
  2.79816783e-02 -7.88693126e-02 -7.15164534e-02 -3.53067874e-02
 -5.25296660e-02 -3.50082161e-02 -2.68557255e-02 -8.30039416e-02
  3.71343712e-02  4.79121946e-02 -8.89914426e-02  4.33899656e-02
  1.63823348e-02 -2.71037688e-02 -7.31937508e-03 -4.61851298e-03
 -6.46494158e-02  1.65351484e-02  3.90407942e-02  2.65239038e-02
  3.80520324e-02  3.71362415e-02  2.58418992e-02  1.37068979e-02
  4.10720390e-02 -4.83540489e-03 -1.91457819e-02 -2.44446989e-02
 -8.27963246e-03  4.30960628e-03 -2.31230076e-03 -3.27823859e-02
 -4.73022859e-02 -7.11192699e-02 -9.49669514e-03 -2.39865805e-02
  3.61712501e-02 -5.97859406e-02 -9.93206610e-04 -2.54012982e-02
  1.67978627e-02  2.56300799e-02 -2.45538961e-02  2.75413128e-02
  1.97017016e-02  1.07030773e-02 -6.41006497e-02 -2.64370568e-02
  2.23667367e-02 -1.86608168e-02  2.21895837e-02  3.01358915e-02
 -2.43321200e-02  1.20169396e-02  2.00403772e-02 -3.46213047e-02
  2.25086638e-02  5.86288949e-02  3.17380493e-02 -1.69119809e-02
  4.64624927e-02  2.62685446e-02  1.44306582e-02  2.61127235e-02
  1.01970768e-02 -1.18643386e-04 -8.20953261e-02 -1.05499893e-02
 -5.35209488e-02 -1.43924795e-02  3.10362808e-02 -4.12370476e-02
 -4.45696110e-02 -6.11959569e-02 -3.98686942e-02 -3.16737122e-02
  6.41769558e-02 -8.15123520e-02 -4.43727684e-03  1.36327098e-02
  5.77456303e-02 -6.14632339e-03 -2.05123764e-02 -3.44540724e-02
 -2.20462224e-02  7.47849689e-05 -1.84499011e-03 -5.12648147e-03
  1.09436966e-02 -3.96873466e-03  6.48620561e-03  1.43011249e-03
  7.39237829e-02 -4.02464657e-02 -9.13287560e-02  1.86503154e-02
  1.85630251e-02  4.37401491e-02  4.11569509e-02 -6.45001373e-02
 -8.01059997e-02 -5.17713591e-02 -1.57247823e-02  2.13002613e-02
 -6.99279084e-02  2.51438594e-03 -7.00721110e-02  2.67818729e-02
  3.13677872e-02 -2.67131755e-02 -1.04607466e-02  2.78691844e-02
  2.08064980e-02 -1.35759060e-02 -2.04977202e-02 -3.69358961e-02
 -3.50038115e-02 -2.62429625e-03 -5.36491259e-02 -3.45993911e-02
  5.71717342e-03 -2.43476036e-02  3.25269608e-02  1.00677223e-02
 -4.08132633e-02 -8.39922389e-02 -2.59549726e-02  4.41679682e-02
  3.10807061e-02 -7.52950804e-03 -1.41701097e-02  1.14617817e-02]
Node 22: 
[-0.02054805  0.03326822 -0.03230827  0.00903304  0.0056948  -0.00360594
  0.06420171 -0.0363921   0.02768114 -0.03009863  0.04768213  0.0673691
  0.02622619  0.03259635  0.01536832 -0.01408193  0.01545651  0.04511563
 -0.08140847 -0.07934207 -0.01022251  0.02292502  0.01595193 -0.03641575
  0.03517657 -0.0214448  -0.00272921 -0.02271281  0.01983459  0.01474514
 -0.05443131 -0.07244961 -0.00904865  0.05451177 -0.02290334 -0.01631654
  0.0031522   0.03692362 -0.03337018 -0.0438414   0.05405861  0.012663
  0.03125997  0.01436652  0.02396758  0.05444324  0.06717786  0.00654432
  0.02661058  0.01662026 -0.08892371  0.03389531 -0.00924873 -0.01135101
 -0.07724499  0.03749163  0.04856194  0.07499322  0.00624413  0.0026226
  0.06128762 -0.00273102 -0.05743697 -0.00128839 -0.02261278 -0.02169605
  0.00921365  0.02562239 -0.04200316 -0.01431115 -0.02897163 -0.04899777
  0.08928403  0.00427781 -0.09483368  0.02678484  0.0460521   0.01893801
  0.02909257 -0.01851062 -0.00187463 -0.01756421 -0.01792653  0.06479172
  0.04272733 -0.01593366 -0.05243454 -0.03758468 -0.02491156 -0.00684063
 -0.01163693 -0.00717813  0.00323835  0.0342777  -0.00430538 -0.00749925
 -0.03420057  0.00580241  0.00023711  0.0135286  -0.01571266 -0.06405928
  0.00719183  0.00543098 -0.05457867 -0.04461305 -0.007245    0.06332787
 -0.0273658  -0.04752235 -0.01503664  0.01971873 -0.09651662 -0.02679847
  0.00520135 -0.0145457   0.03075592  0.01312271 -0.06756097 -0.03631448
 -0.00084927 -0.09902186 -0.09728235  0.0565242  -0.05727086  0.01944219
 -0.01347244  0.00796321  0.01289134 -0.00391533  0.03639413 -0.04267637
 -0.00769853 -0.01400483  0.03470781 -0.01704516  0.02897173 -0.03655794
  0.00811926 -0.04472501  0.01468284  0.01290552 -0.03214722  0.05900933
 -0.08024356 -0.015531    0.02963881  0.05145125 -0.02800891 -0.00013777
  0.01482613  0.01558485 -0.05911749  0.00419908  0.04597854 -0.04881434
 -0.02513895  0.03479401 -0.02103795 -0.03634003  0.02373249  0.00040137
 -0.03928069 -0.00296898 -0.01211495  0.04266908 -0.07110456 -0.06212465
 -0.02434954 -0.06201513 -0.08223857 -0.02266467 -0.05963153  0.00225401
 -0.03953927 -0.07063211 -0.01841262  0.05390364 -0.10000626  0.05863096
  0.00605352 -0.02758113  0.02215842 -0.01418375 -0.06166616  0.01175118
  0.00543216  0.04063325  0.03944975 -0.00507975  0.01896207  0.0141189
  0.04446953  0.0007388  -0.00229004 -0.03362226 -0.00323653  0.01337545
 -0.00743144 -0.02404353 -0.03620115 -0.07243677 -0.02001808  0.02148935
  0.01286057 -0.05391895 -0.01451533 -0.02524526  0.02448307  0.03372377
 -0.01005308  0.01774059  0.01866431  0.014053   -0.08648076 -0.00522105
  0.04201666 -0.02208293  0.02082177 -0.03210325  0.01433528 -0.00545353
  0.01377154 -0.01639567 -0.00518375  0.05491762  0.02680826 -0.02759301
  0.065652    0.00056504  0.02528716 -0.00958213  0.0019164  -0.00791296
 -0.0687407   0.01438662 -0.06881302  0.00837243  0.00053499 -0.0567874
 -0.03009558 -0.05597584 -0.0258606  -0.01738441  0.06002121 -0.06887608
 -0.02185181 -0.00495693  0.05504511 -0.00672311 -0.05067097 -0.04386086
 -0.02616936 -0.03129814 -0.00096991  0.01978009  0.06135052 -0.03015453
  0.02855803 -0.02336264  0.09797787 -0.04738652 -0.08582875 -0.01902995
  0.01828854  0.01642031  0.02914745 -0.08095048 -0.06525689 -0.05271811
 -0.04451033  0.02746187 -0.06489459  0.01620516 -0.06557868  0.03854216
  0.03131382  0.01160809 -0.02641507  0.05220172  0.02760978 -0.04212969
 -0.01966364 -0.04393141 -0.04248519 -0.01603923 -0.01097321 -0.03485051
 -0.00403636 -0.02389426  0.02363264  0.03933824 -0.0401779  -0.06404916
  0.00152986  0.00864182  0.03825992  0.01241802 -0.00077916 -0.01144837]
Node 23: 
[ 5.85022509e-03 -1.80771039e-04  1.27855531e-02 -8.22978629e-03
  1.19030082e-02  1.92779280e-02 -4.03398479e-02  3.06182890e-02
 -6.17516728e-03 -3.21384782e-02 -2.08243167e-02 -3.59262025e-02
 -8.61932829e-03 -4.75354826e-03 -2.52997739e-02  1.09444778e-02
 -2.52893723e-03 -1.29319955e-02  4.52562005e-02  3.85457029e-02
  4.47737995e-03 -1.95620298e-02 -3.90694496e-02  2.70435294e-02
  1.67440842e-03  4.96560702e-03 -4.82625088e-03  7.34867146e-03
 -3.20519337e-02  8.92128916e-03  2.19810573e-02  3.60219437e-02
  4.68371258e-04 -2.73112439e-02  2.60437242e-02 -2.74400251e-02
  3.19114315e-03 -2.62849647e-02 -6.52442550e-03  5.85168249e-02
 -3.22478517e-02 -2.49077478e-02 -3.23043348e-02 -3.71416988e-02
 -3.35754649e-02 -4.90653714e-02 -5.42876975e-02 -3.21130625e-02
 -6.82776299e-03 -1.29594707e-02  4.71099313e-02 -5.65930464e-02
 -4.82158323e-03  7.52784201e-04  4.39191813e-02 -8.31967819e-03
 -2.53038000e-02 -5.06358152e-02 -4.41152151e-03 -2.02317099e-02
 -1.97342361e-02 -1.53849042e-02  7.80385796e-03 -5.12599659e-03
  1.52602788e-02  5.57209436e-02 -2.20744235e-02 -1.97412508e-02
